-1.006274204701185226e-02,-8.611971512436866760e-03,7.348574697971343994e-03,-3.209350863471627235e-03,4.765994381159543991e-03,5.860490724444389343e-03,8.166802115738391876e-03,-1.090334076434373856e-02,-1.199432276189327240e-02,-7.114643696695566177e-03,-9.830654598772525787e-03,-6.151318084448575974e-03,-6.976971402764320374e-03,-5.510335322469472885e-03,-4.251147061586380005e-02,-1.195618789643049240e-02,-7.739223074167966843e-03,-7.106602657586336136e-03
-2.071485295891761780e-02,1.063843071460723877e-01,2.111497223377227783e-01,-6.209088116884231567e-02,5.759983509778976440e-02,-5.987156033515930176e-01,-1.221612766385078430e-01,-7.128689438104629517e-02,-3.559911623597145081e-02,-7.479136437177658081e-02,-1.522287912666797638e-02,-2.546818926930427551e-02,9.506970643997192383e-02,-6.604650616645812988e-02,2.137191593647003174e-03,-2.214645408093929291e-02,-1.000000000000000000e+00,-2.679820172488689423e-02
-1.763171143829822540e-02,-3.923689201474189758e-02,2.537352144718170166e-01,1.433725748211145401e-02,5.763337481766939163e-03,-4.425678402185440063e-02,2.162128500640392303e-02,-2.961844950914382935e-02,3.069733381271362305e-01,-1.038245558738708496e-01,-3.523476794362068176e-02,7.868769764900207520e-02,2.056270092725753784e-02,-4.331327602267265320e-02,-3.254486015066504478e-03,4.027828108519315720e-03,2.560279071331024170e-01,4.214426502585411072e-02
-6.460325419902801514e-02,3.086807727813720703e-01,1.225204393267631531e-02,-1.647543348371982574e-02,2.151134610176086426e-02,8.050621300935745239e-02,-3.588313236832618713e-03,4.344103217590600252e-04,-5.347901955246925354e-03,-1.855697296559810638e-02,1.736106537282466888e-02,7.037329953163862228e-03,-4.055437073111534119e-02,9.541237354278564453e-02,3.876922128256410360e-04,-1.129336771555244923e-03,-1.901254504919052124e-01,2.285102754831314087e-02
-8.012984879314899445e-03,2.929252199828624725e-02,8.855469524860382080e-03,2.208798192441463470e-02,9.571494534611701965e-03,-2.167651616036891937e-02,-9.551532566547393799e-03,-2.922380110248923302e-03,1.550762075930833817e-02,5.548594985157251358e-03,2.861938206478953362e-03,-1.704226620495319366e-02,-1.523407921195030212e-02,-9.634423069655895233e-03,8.412550669163465500e-04,-2.011727308854460716e-03,-2.698409371078014374e-02,8.482485078275203705e-03
3.949974663555622101e-03,-4.190257936716079712e-02,2.805298939347267151e-02,-1.803862396627664566e-03,-1.975088147446513176e-03,-2.175186127424240112e-01,-1.019316376186907291e-03,-3.676183288916945457e-03,1.528799254447221756e-02,6.078847218304872513e-03,7.514630910009145737e-03,-1.437766710296273232e-03,2.714241296052932739e-02,-7.955616712570190430e-02,-5.717896390706300735e-03,5.721252877265214920e-03,-1.749300807714462280e-01,2.714536851271986961e-03
-6.572386249899864197e-03,-7.295119017362594604e-02,1.011989731341600418e-02,2.660499187186360359e-03,-6.306048482656478882e-02,-8.986181020736694336e-02,3.324683057144284248e-03,-6.710600573569536209e-03,1.048851013183593750e-02,2.100088866427540779e-03,1.402002386748790741e-02,2.362306695431470871e-03,-7.556290924549102783e-02,-7.133558392524719238e-02,-5.813276860862970352e-03,-6.069310009479522705e-03,2.956246957182884216e-02,-2.534707775339484215e-03
-9.025135077536106110e-03,-4.143204540014266968e-02,6.216096226125955582e-03,1.429307926446199417e-02,-4.604123905301094055e-02,-3.398431465029716492e-02,7.345397025346755981e-03,-4.165661812294274569e-05,5.896324757486581802e-03,-2.904459461569786072e-02,3.074811398983001709e-02,1.674592681229114532e-02,-6.431327760219573975e-02,-5.680378898978233337e-02,8.573187515139579773e-04,-8.794235065579414368e-03,6.252469867467880249e-02,1.560346782207489014e-02
2.344533503055572510e-01,-1.961766509339213371e-03,3.503756225109100342e-02,3.214023262262344360e-02,6.737105548381805420e-03,-9.001206606626510620e-03,-2.095623640343546867e-03,-1.396173960529267788e-03,-5.556229874491691589e-02,-3.809719160199165344e-02,1.923605352640151978e-01,-6.525397300720214844e-02,-2.874821238219738007e-02,-1.714782044291496277e-02,2.815278479829430580e-03,-5.712263286113739014e-02,7.888933271169662476e-02,2.104828506708145142e-02
3.694374486804008484e-02,1.395059470087289810e-02,-2.469397149980068207e-02,-1.186929270625114441e-02,-1.325651770457625389e-03,5.124350264668464661e-02,-2.615694329142570496e-02,-3.527557011693716049e-03,-3.186397999525070190e-02,-1.892378320917487144e-03,1.087172627449035645e-01,-4.038983955979347229e-02,1.741359755396842957e-02,-3.842961788177490234e-02,-5.052335560321807861e-03,-8.432902395725250244e-03,-4.225555807352066040e-02,-1.918385550379753113e-02
2.094049751758575439e-02,8.514829911291599274e-03,6.782515347003936768e-02,4.025670140981674194e-02,-7.904532551765441895e-02,2.984807789325714111e-01,-1.804106682538986206e-01,-1.514362450689077377e-02,9.993068128824234009e-02,-9.224811196327209473e-02,2.173002958297729492e-01,-1.216437667608261108e-01,1.617561429738998413e-01,-4.079180359840393066e-01,-5.148822907358407974e-03,-5.261882767081260681e-02,3.769382089376449585e-02,-6.370595190674066544e-03
-1.612768881022930145e-02,-8.126944303512573242e-03,2.339500561356544495e-02,3.314485773444175720e-02,2.506795339286327362e-02,3.469218732789158821e-03,-1.380388345569372177e-02,-1.730883121490478516e-02,-3.773776814341545105e-02,-1.618839800357818604e-02,-1.749198138713836670e-02,-1.133787818253040314e-02,-5.168768018484115601e-02,3.501712158322334290e-02,-1.927916076965630054e-03,-3.516129776835441589e-02,6.592476367950439453e-02,4.800634458661079407e-03
-2.143009193241596222e-02,5.949461832642555237e-02,3.362496569752693176e-02,5.354330060072243214e-04,2.256841957569122314e-02,8.673986047506332397e-02,-7.407354656606912613e-03,1.760378829203546047e-03,1.330889202654361725e-02,3.727670386433601379e-02,8.785265684127807617e-02,-6.586338579654693604e-02,5.035905539989471436e-02,-6.904891878366470337e-02,3.236670279875397682e-03,-5.713051185011863708e-03,3.883886383846402168e-03,9.759490494616329670e-04
3.165176138281822205e-02,9.356893599033355713e-02,5.972663313150405884e-02,3.815499134361743927e-03,1.601307466626167297e-02,4.127234965562820435e-02,-1.381039712578058243e-02,-6.971748545765876770e-03,-3.167721629142761230e-02,-2.093764208257198334e-02,1.105301529169082642e-01,-1.850556023418903351e-02,5.156833678483963013e-02,-9.466438740491867065e-02,-1.004551164805889130e-02,7.978606037795543671e-03,-1.426404248923063278e-02,-1.881603524088859558e-02
3.777691349387168884e-02,2.469789795577526093e-02,9.234487079083919525e-03,6.981736514717340469e-03,2.846167888492345810e-03,1.300072856247425079e-02,2.563361451029777527e-02,-9.452215395867824554e-03,-7.778342347592115402e-03,-9.463259950280189514e-03,-4.000946879386901855e-03,5.734387412667274475e-02,3.490706160664558411e-02,-1.862189034000039101e-03,6.523678544908761978e-03,-2.138875052332878113e-02,-3.546924144029617310e-02,-4.663920402526855469e-02
7.106819748878479004e-02,7.709883898496627808e-02,-6.703454535454511642e-03,6.669832020998001099e-02,-1.083681592717766762e-03,2.594153955578804016e-02,-1.885350793600082397e-02,3.188838809728622437e-02,-4.851315170526504517e-02,-1.711190119385719299e-02,1.974918134510517120e-02,1.566642522811889648e-02,-9.175688959658145905e-03,2.749656327068805695e-03,1.993556879460811615e-02,5.599209107458591461e-03,-9.081141650676727295e-02,-2.897221222519874573e-02
1.115596741437911987e-01,4.166951775550842285e-02,-1.620130985975265503e-02,1.554983109235763550e-02,1.318905409425497055e-02,2.435543015599250793e-02,-2.660357020795345306e-02,2.784341201186180115e-02,-4.867827519774436951e-02,-5.237237364053726196e-02,1.876015588641166687e-02,8.060060790739953518e-04,7.117284927517175674e-03,-4.333055391907691956e-02,1.419509015977382660e-02,-3.835842385888099670e-02,-6.302468478679656982e-02,1.213369332253932953e-02
-5.702763795852661133e-02,-6.858982145786285400e-02,1.437360607087612152e-02,-1.012944895774126053e-02,-3.344186395406723022e-02,-8.702366030775010586e-04,2.030526474118232727e-02,-5.441234912723302841e-03,5.463883746415376663e-03,1.031804457306861877e-01,-2.099688397720456123e-03,-2.433106116950511932e-02,4.255270957946777344e-02,-9.271960705518722534e-03,-9.182690642774105072e-03,-1.247899420559406281e-02,6.977768242359161377e-02,-2.578124590218067169e-02
-3.231626749038696289e-01,-3.172571063041687012e-01,-3.880517184734344482e-02,-2.009170502424240112e-02,-3.098293207585811615e-03,-6.826692726463079453e-03,5.328543484210968018e-02,-6.783422827720642090e-02,1.713868230581283569e-01,1.877668797969818115e-01,-1.155062019824981689e-01,-1.641428470611572266e-02,-3.274058923125267029e-02,4.091648757457733154e-02,-4.240211844444274902e-02,-3.054114058613777161e-02,2.887807786464691162e-01,-4.146900027990341187e-02
5.901222303509712219e-02,5.728894099593162537e-02,1.225470798090100288e-03,-1.283231675624847412e-01,1.470291316509246826e-01,-2.476451694965362549e-01,3.170735836029052734e-01,8.043973147869110107e-02,6.317510455846786499e-02,1.747531890869140625e-01,3.041388653218746185e-02,1.318109780550003052e-01,3.628622889518737793e-01,-7.325856387615203857e-02,-1.362311933189630508e-02,-8.983374573290348053e-03,-2.642728090286254883e-01,-7.650905102491378784e-02
-2.937290444970130920e-02,-3.583681583404541016e-01,-9.650925546884536743e-02,1.481791585683822632e-01,7.164371013641357422e-02,1.544122956693172455e-02,-2.073190659284591675e-01,4.614688828587532043e-02,3.733430206775665283e-01,1.688108146190643311e-01,-2.373757213354110718e-01,-1.383294612169265747e-01,1.887609660625457764e-01,-7.195810973644256592e-02,1.649392023682594299e-02,5.734976008534431458e-02,5.131952837109565735e-02,-1.000691130757331848e-01
1.160687580704689026e-01,-1.073163226246833801e-01,3.211693605408072472e-03,-1.688843965530395508e-02,-1.100510060787200928e-01,6.416933611035346985e-03,-1.611833833158016205e-02,-7.987672463059425354e-03,-7.581116259098052979e-02,1.052803173661231995e-01,-1.804407089948654175e-01,1.262369751930236816e-02,1.725042052567005157e-02,-3.399994224309921265e-02,-4.007910378277301788e-03,1.983469352126121521e-02,6.020660325884819031e-02,-1.171257123351097107e-01
-9.407802484929561615e-03,2.750085201114416122e-03,-1.274615526199340820e-02,-6.076143309473991394e-02,-7.834567874670028687e-02,8.200918324291706085e-03,3.390482626855373383e-03,6.537129636853933334e-03,-2.951919138431549072e-01,-2.230652049183845520e-02,-4.371226299554109573e-03,6.285995244979858398e-02,-4.503319412469863892e-02,-5.131260026246309280e-03,4.813432169612497091e-04,1.300024613738059998e-02,-2.633448690176010132e-03,-3.858238831162452698e-02
-2.089250087738037109e-02,2.700662054121494293e-02,-9.942489676177501678e-03,-7.247004657983779907e-03,-2.929363632574677467e-03,1.033865064382553101e-01,1.178012602031230927e-02,4.357306752353906631e-03,-6.292987614870071411e-02,7.766145281493663788e-03,2.334937220439314842e-03,3.947909921407699585e-03,-1.557922083884477615e-02,3.156151250004768372e-02,4.011983983218669891e-03,-7.225119043141603470e-03,8.213014900684356689e-02,-2.343423897400498390e-03
3.028466366231441498e-03,3.253858536481857300e-02,-9.881640784442424774e-03,-2.684211591258645058e-03,3.476469963788986206e-02,4.739570617675781250e-02,2.651917515322566032e-03,4.659063648432493210e-03,-2.603174187242984772e-02,1.743060885928571224e-03,-2.233236469328403473e-02,5.696653970517218113e-04,5.035187304019927979e-02,3.980001062154769897e-02,4.837476182729005814e-03,6.808117497712373734e-03,-1.994088478386402130e-02,3.132706508040428162e-03
-1.878427108749747276e-03,5.123688024468719959e-04,-3.983639180660247803e-02,-1.233441662043333054e-02,3.554373234510421753e-02,3.127858787775039673e-02,1.018270035274326801e-03,8.054353296756744385e-03,-2.391320839524269104e-02,-1.620984263718128204e-02,2.182526700198650360e-02,1.330843806499615312e-04,3.081337548792362213e-02,2.617996186017990112e-02,7.987955585122108459e-03,-3.700147848576307297e-03,-4.291855543851852417e-02,9.880929719656705856e-04
1.952614784240722656e-01,4.442629870027303696e-03,-2.956157550215721130e-02,-2.849348355084657669e-03,1.429409254342317581e-02,-1.300939079374074936e-02,-5.824651569128036499e-03,2.321039093658328056e-03,-9.186715632677078247e-02,-3.135651722550392151e-02,1.858384311199188232e-01,-7.838247716426849365e-02,-6.040892563760280609e-03,1.355117745697498322e-02,1.455955090932548046e-03,-4.257602989673614502e-02,-3.497075662016868591e-02,3.163954615592956543e-02
2.432971820235252380e-02,-1.534897740930318832e-02,9.568533860146999359e-03,4.916180390864610672e-03,-1.466581714339554310e-03,1.706788502633571625e-02,-2.636672556400299072e-02,2.005603397265076637e-03,-4.192100092768669128e-02,-2.016061916947364807e-03,9.218402951955795288e-02,-4.636387526988983154e-02,7.527172099798917770e-03,-6.045468151569366455e-02,-4.828522913157939911e-03,-4.005396738648414612e-03,3.443818539381027222e-02,6.783432792872190475e-03
5.963176116347312927e-02,5.313816294074058533e-02,2.927143685519695282e-02,1.029619649052619934e-01,-4.172502830624580383e-02,3.063167631626129150e-01,-1.023351401090621948e-01,-1.019567344337701797e-02,1.269842386245727539e-01,-7.960943877696990967e-02,1.507196873426437378e-01,-9.632410109043121338e-02,2.737247049808502197e-01,-3.980251550674438477e-01,-7.911010645329952240e-03,-4.599621891975402832e-02,3.312347084283828735e-02,2.151781693100929260e-02
9.529135189950466156e-03,-4.020323976874351501e-02,-1.647255755960941315e-02,9.906062856316566467e-03,4.536765441298484802e-02,-3.115922398865222931e-02,-1.036125142127275467e-02,1.420546555891633034e-03,-2.776245959103107452e-02,-4.569313302636146545e-02,2.028837054967880249e-02,2.116835676133632660e-02,-2.766998298466205597e-02,6.175744906067848206e-02,1.167315803468227386e-02,-2.018320560455322266e-02,-2.148525789380073547e-02,1.570575295772869140e-05
-2.292296104133129120e-02,1.298345066606998444e-02,1.622708165086805820e-03,-4.100574180483818054e-03,-1.026271283626556396e-02,6.338539719581604004e-02,-2.918537147343158722e-02,-6.106344051659107208e-03,-2.458433853462338448e-03,4.841857776045799255e-02,8.374893665313720703e-02,-4.897137731313705444e-02,4.260807856917381287e-02,-7.578273862600326538e-02,-7.448659278452396393e-03,-3.717751801013946533e-02,8.880770765244960785e-03,-2.610486187040805817e-02
1.202873978763818741e-02,-1.473944541066884995e-02,-7.677288725972175598e-03,1.919887401163578033e-02,5.691731348633766174e-03,7.949357479810714722e-02,-2.069677971303462982e-02,-4.618087783455848694e-03,-3.986798599362373352e-02,1.867412030696868896e-02,1.214805170893669128e-01,-4.265245795249938965e-02,2.853520959615707397e-02,-5.884984135627746582e-02,-1.192656811326742172e-02,-6.874275207519531250e-02,3.915225155651569366e-03,-3.019815124571323395e-02
2.135049924254417419e-02,-5.691333208233118057e-04,-7.187049835920333862e-03,-3.050838038325309753e-02,1.640942320227622986e-02,-8.324868045747280121e-03,5.427293479442596436e-02,-5.485495552420616150e-03,-5.172639619559049606e-03,3.975609689950942993e-02,-3.836383298039436340e-02,7.472416013479232788e-02,2.361071482300758362e-02,2.108525671064853668e-02,-6.853497587144374847e-03,-2.479976508766412735e-03,-2.010076493024826050e-02,-6.032367050647735596e-02
9.282921254634857178e-02,3.420056402683258057e-02,-1.210649125277996063e-02,2.509482577443122864e-02,3.225489705801010132e-02,2.328216470777988434e-02,1.511866506189107895e-02,1.991745457053184509e-02,-6.772543489933013916e-02,3.936752327717840672e-04,9.866826236248016357e-03,7.133914530277252197e-02,-2.829325199127197266e-02,2.177990786731243134e-02,1.133298221975564957e-02,9.041310288012027740e-03,-5.320070311427116394e-03,-9.992302954196929932e-02
1.585717052221298218e-01,-1.408418174833059311e-03,5.615284899249672890e-04,-2.303742244839668274e-02,-1.648577488958835602e-02,2.150916121900081635e-02,5.802494287490844727e-02,-8.945927955210208893e-03,2.780812419950962067e-02,-5.293430015444755554e-02,6.506448239088058472e-02,-7.618335075676441193e-03,-3.782116109505295753e-03,4.078384023159742355e-03,-1.031163893640041351e-02,8.065018802881240845e-03,-6.189588923007249832e-03,1.725254929624497890e-03
-1.851628907024860382e-02,9.094493463635444641e-03,3.934473730623722076e-03,1.438775006681680679e-02,-3.420914057642221451e-03,-1.271579600870609283e-02,-3.843628987669944763e-02,1.874256506562232971e-02,1.873920485377311707e-02,6.834106892347335815e-02,1.080432906746864319e-02,-1.083909347653388977e-02,1.241813506931066513e-02,-5.181315168738365173e-02,1.755692996084690094e-03,-3.335002064704895020e-02,4.115482792258262634e-02,-2.524651214480400085e-02
-3.637649118900299072e-01,-1.728513240814208984e-01,1.292662173509597778e-01,3.525545448064804077e-02,5.044411495327949524e-02,-4.225198179483413696e-02,-6.151437759399414062e-02,-1.436823979020118713e-02,1.835873275995254517e-01,2.549032270908355713e-01,-1.599277704954147339e-01,-1.381765305995941162e-01,-6.638442724943161011e-02,-4.475003108382225037e-02,1.024680119007825851e-02,1.257707364857196808e-02,2.186134308576583862e-01,-2.075180970132350922e-02
-5.465351045131683350e-02,-1.476551890373229980e-01,1.187233552336692810e-01,3.272306919097900391e-02,-2.725354023277759552e-02,1.661569694988429546e-04,-2.428840249776840210e-01,-3.723867610096931458e-02,-1.050045620650053024e-02,-6.100233271718025208e-02,9.440350346267223358e-03,-1.992436349391937256e-01,-9.437950700521469116e-02,-2.479593828320503235e-02,1.352933794260025024e-02,1.701118610799312592e-02,2.696475088596343994e-01,1.089465320110321045e-01
-4.411865025758743286e-02,4.541230499744415283e-01,3.708905577659606934e-01,-8.691896684467792511e-03,-4.039358813315629959e-03,-3.925450891256332397e-02,2.578182220458984375e-01,-1.990283466875553131e-02,-1.054269075393676758e-02,-5.904431343078613281e-01,-1.047434099018573761e-02,5.066475272178649902e-01,-1.039511524140834808e-02,-1.316342409700155258e-02,-5.064628785476088524e-04,1.122868526726961136e-02,3.847220912575721741e-03,2.383440285921096802e-01
-4.521179497241973877e-01,5.779472365975379944e-02,-1.328078657388687134e-01,-2.808774122968316078e-03,1.989291608333587646e-02,-4.890540614724159241e-02,1.138478964567184448e-01,9.463425725698471069e-03,4.396800324320793152e-02,-3.653142228722572327e-02,-7.238947600126266479e-02,-6.303642690181732178e-02,-2.039529196918010712e-02,-1.237686499953269958e-01,9.462904185056686401e-03,4.499045759439468384e-02,-3.029411844909191132e-02,3.077870607376098633e-01
2.168740332126617432e-02,1.472316775470972061e-02,-8.418529294431209564e-03,-8.122467994689941406e-02,-3.992898017168045044e-02,2.445575222373008728e-02,1.546482276171445847e-02,-9.356793947517871857e-03,1.025387719273567200e-01,6.792515516281127930e-02,6.382340099662542343e-03,-1.518775969743728638e-01,1.279899571090936661e-02,4.185603559017181396e-02,6.399263162165880203e-03,-5.473602190613746643e-02,1.858710893429815769e-03,1.104579791426658630e-01
5.335953831672668457e-02,2.368406206369400024e-02,-1.648786664009094238e-02,-1.402240805327892303e-02,-7.737472187727689743e-03,1.134052723646163940e-01,-1.686860248446464539e-02,-7.087351288646459579e-03,-2.366703003644943237e-02,-1.537158153951168060e-02,1.752205006778240204e-02,-1.677408255636692047e-02,-2.956527844071388245e-02,6.674631685018539429e-02,8.582533919252455235e-04,-7.272568182088434696e-04,9.791037440299987793e-02,1.534202368929982185e-03
-1.639610622078180313e-03,3.362881764769554138e-02,4.459294024854898453e-03,-5.808733869343996048e-03,3.249647468328475952e-02,3.381565213203430176e-02,6.993307266384363174e-03,-6.374670192599296570e-04,-1.564353890717029572e-02,-5.958174820989370346e-03,-1.022056490182876587e-02,4.319506988395005465e-04,5.028612166643142700e-02,1.352382078766822815e-02,5.017551593482494354e-04,-1.688931696116924286e-02,-6.989905145019292831e-03,4.516988061368465424e-03
1.178597286343574524e-02,5.564831197261810303e-02,-2.348102442920207977e-02,8.431529626250267029e-03,3.285116702318191528e-02,-1.005196012556552887e-03,4.586698021739721298e-03,9.142359718680381775e-03,-3.462342172861099243e-02,-1.194449700415134430e-02,4.431829228997230530e-02,2.161517739295959473e-02,3.156439960002899170e-02,4.224291443824768066e-02,8.179286494851112366e-03,-1.485679484903812408e-02,-6.127919256687164307e-02,3.721891203895211220e-03
1.617005467414855957e-01,1.984835974872112274e-02,-1.890465803444385529e-02,-2.822146005928516388e-02,2.034979872405529022e-02,-6.218643859028816223e-03,1.057345513254404068e-02,-5.423906724900007248e-03,-5.649003013968467712e-02,-1.613551005721092224e-02,1.827015429735183716e-01,-5.909492447972297668e-02,-1.473053637892007828e-02,1.833401061594486237e-02,-9.284669533371925354e-03,-4.835349321365356445e-02,-3.235819935798645020e-02,1.370334997773170471e-02
1.109039317816495895e-02,-4.068885371088981628e-02,9.056460112333297729e-03,2.358928613830357790e-04,-6.025339011102914810e-03,-4.348086658865213394e-03,-2.483802288770675659e-02,7.565584965050220490e-03,-2.264769375324249268e-02,-2.647450752556324005e-02,8.000874519348144531e-02,-1.637002266943454742e-02,-1.909600454382598400e-03,-3.162256255745887756e-02,-5.910506006330251694e-03,-3.080243058502674103e-02,-1.270841155201196671e-02,-1.063835527747869492e-02
-3.633314743638038635e-03,9.615477174520492554e-02,9.231038391590118408e-03,6.545638293027877808e-02,-2.097681537270545959e-02,3.694840073585510254e-01,-1.704272180795669556e-01,-9.865240193903446198e-03,7.740274816751480103e-02,-6.069513410329818726e-02,8.320204168558120728e-02,-6.692419201135635376e-02,1.722822040319442749e-01,-2.700035274028778076e-01,-1.046087034046649933e-02,-4.971597343683242798e-02,-1.050917664542794228e-03,-6.077155098319053650e-02
-4.388679191470146179e-02,-1.949161849915981293e-02,-2.827969379723072052e-02,-8.142613805830478668e-03,-6.441749166697263718e-03,-3.328092023730278015e-02,4.032417014241218567e-02,-1.484260335564613342e-02,1.388024771586060524e-03,-1.878011785447597504e-02,-1.292763501405715942e-01,5.893720313906669617e-02,-9.402319788932800293e-02,1.317218393087387085e-01,5.144428927451372147e-03,2.076515083899721503e-04,4.563443735241889954e-02,3.609265014529228210e-02
1.179381366819143295e-02,1.603745296597480774e-02,1.546897925436496735e-02,5.079032108187675476e-02,1.431326381862163544e-02,6.939985603094100952e-02,-2.355565316975116730e-02,1.307613123208284378e-02,-2.727167308330535889e-02,-3.113372065126895905e-02,3.962991014122962952e-02,2.433424070477485657e-02,1.017819270491600037e-01,-1.095004603266716003e-01,-3.847930347546935081e-03,1.016324292868375778e-02,-2.724811434745788574e-02,-4.238390550017356873e-02
5.055134743452072144e-02,6.986428052186965942e-02,4.157407581806182861e-02,-1.442548260092735291e-02,-2.830088371410965919e-03,2.917280606925487518e-02,2.279425971210002899e-02,-2.826749114319682121e-03,2.513362653553485870e-02,-5.542926117777824402e-02,1.575150713324546814e-02,1.801653392612934113e-02,1.628931239247322083e-02,-4.211308434605598450e-02,-8.409731090068817139e-03,4.033672809600830078e-02,9.096155874431133270e-03,3.975458070635795593e-02
7.216175645589828491e-02,1.663701795041561127e-02,-1.715438067913055420e-02,-1.966840960085391998e-02,-5.762573797255754471e-03,5.065354984253644943e-03,-1.479282509535551071e-03,-8.663131855428218842e-03,-3.730863332748413086e-03,-2.893209084868431091e-02,8.760770410299301147e-02,-5.763136222958564758e-02,-1.161275082267820835e-03,-2.128036133944988251e-02,-5.486216861754655838e-03,-9.510685689747333527e-03,1.561992539791390300e-04,7.177723944187164307e-02
3.109838999807834625e-02,3.647691383957862854e-02,-2.313636243343353271e-02,-9.994773194193840027e-03,-3.278300166130065918e-02,3.318199014756828547e-04,-2.442815341055393219e-02,-9.387154132127761841e-03,1.292734406888484955e-03,-9.854572266340255737e-02,3.581701964139938354e-02,-3.563746437430381775e-02,-2.496024407446384430e-02,-8.502364158630371094e-03,1.991541823372244835e-03,2.369120903313159943e-02,1.043413206934928894e-02,1.433976590633392334e-01
1.547772437334060669e-01,5.851397290825843811e-02,-6.464148405939340591e-03,-7.048457860946655273e-03,-2.061504172161221504e-03,5.597132071852684021e-02,1.870607398450374603e-02,-1.040078140795230865e-02,-6.010792776942253113e-02,-7.897454500198364258e-02,-1.628805324435234070e-02,2.680769562721252441e-02,-1.119263563305139542e-02,-1.228186767548322678e-02,4.090332426130771637e-03,3.817143663763999939e-02,-1.942929066717624664e-02,8.032124489545822144e-03
-1.592049896717071533e-01,-7.780894637107849121e-02,7.252471894025802612e-02,-2.932006726041436195e-03,3.486354276537895203e-02,8.427283167839050293e-02,2.919635549187660217e-02,1.662562228739261627e-02,1.310249716043472290e-01,1.541921962052583694e-02,4.287718329578638077e-03,-4.873460903763771057e-02,1.009597256779670715e-02,-3.929467871785163879e-02,2.511042729020118713e-02,5.943774804472923279e-02,2.775257267057895660e-02,-8.040457963943481445e-02
-3.018358051776885986e-01,-1.798668950796127319e-01,1.501381993293762207e-01,-7.343643158674240112e-02,1.215786337852478027e-01,-1.150465160608291626e-01,-1.334297358989715576e-01,-5.312356632202863693e-03,3.145014643669128418e-01,3.379507660865783691e-01,-1.548509895801544189e-01,-1.551131010055541992e-01,9.350565820932388306e-02,-1.857800632715225220e-01,-1.432938408106565475e-02,-6.343001872301101685e-02,2.386486679315567017e-01,-2.877197265625000000e-01
-1.716615259647369385e-02,6.645672954618930817e-03,1.970764994621276855e-01,6.402675062417984009e-02,-6.167383864521980286e-02,-9.341636300086975098e-02,-6.720480918884277344e-01,-1.179562434554100037e-01,-1.905094981193542480e-01,-3.307259678840637207e-01,-1.134243421256542206e-02,-2.734065949916839600e-01,-1.711620092391967773e-01,4.527667909860610962e-02,3.637511655688285828e-02,3.889630734920501709e-02,-2.730598151683807373e-01,9.022369235754013062e-02
4.245994612574577332e-02,-3.914804458618164062e-01,-4.490487873554229736e-01,-1.724749356508255005e-01,-1.893779635429382324e-02,2.704168111085891724e-02,1.296612769365310669e-01,-2.500923573970794678e-01,4.404093623161315918e-01,1.015507355332374573e-01,9.376136213541030884e-02,5.009689554572105408e-02,-9.453061968088150024e-02,6.845708191394805908e-02,-1.144200190901756287e-01,-1.098118945956230164e-01,-3.651480078697204590e-01,-3.220943212509155273e-01
-1.962624341249465942e-01,-2.228120118379592896e-01,6.433948874473571777e-02,-2.468478633090853691e-04,5.478764697909355164e-02,-8.357611298561096191e-02,-7.059779018163681030e-02,1.819970645010471344e-02,-2.997743710875511169e-02,7.823074609041213989e-02,1.456206887960433960e-01,9.782320261001586914e-02,-5.393274128437042236e-02,5.279480013996362686e-03,3.863652702420949936e-03,-6.704640388488769531e-02,1.239190995693206787e-01,-2.170837670564651489e-01
-3.389203338883817196e-04,-2.647420391440391541e-02,1.862194947898387909e-02,1.289412230253219604e-01,5.830895155668258667e-02,-3.296382725238800049e-02,-3.206039592623710632e-02,2.473121508955955505e-03,-5.262897014617919922e-01,-3.983663022518157959e-02,-1.035967748612165451e-02,1.034210249781608582e-01,-1.455048331990838051e-03,-2.665197849273681641e-02,-1.937659829854965210e-02,2.516769804060459137e-02,3.314228355884552002e-02,-8.876100182533264160e-02
-1.747446320950984955e-02,4.260165616869926453e-03,-1.280577573925256729e-02,2.170397341251373291e-02,5.524367094039916992e-03,7.441641297191381454e-03,4.707637242972850800e-03,6.591840647161006927e-03,-1.061194613575935364e-01,-6.003062240779399872e-03,-1.878252252936363220e-02,1.629169844090938568e-02,8.997789584100246429e-03,-1.222096290439367294e-02,4.731751047074794769e-03,-9.885109961032867432e-03,1.218981109559535980e-02,3.977211192250251770e-03
4.150588996708393097e-03,4.442402627319097519e-03,7.339465082623064518e-04,-1.016506832093000412e-02,-6.148534826934337616e-03,8.191647008061408997e-03,3.151537850499153137e-03,7.387758814729750156e-04,-4.733723029494285583e-02,-3.090131562203168869e-03,1.903246971778571606e-03,3.015040419995784760e-03,2.634544158354401588e-03,9.344713762402534485e-03,2.470783190801739693e-03,6.813306827098131180e-03,-4.165074278716929257e-05,3.060391405597329140e-03
-3.974434453994035721e-03,-4.127948079258203506e-03,2.234549634158611298e-02,4.116147756576538086e-03,4.907161463052034378e-03,-2.738978248089551926e-03,-4.438145086169242859e-03,-1.667392556555569172e-03,-4.365025088191032410e-03,4.726596816908568144e-04,2.189450198784470558e-03,3.080276306718587875e-03,1.061642821878194809e-02,1.941929943859577179e-02,-9.442379814572632313e-05,-1.071629580110311508e-02,1.602125912904739380e-02,-4.961404018104076385e-03
2.977859228849411011e-02,-1.027101464569568634e-02,4.963888204656541348e-05,5.088430363684892654e-03,-2.409907756373286247e-03,4.494737368077039719e-03,-2.182780764997005463e-02,1.661800430156290531e-03,-6.323631852865219116e-03,-8.979710401035845280e-04,-1.417707372456789017e-02,-1.736419647932052612e-02,1.076732296496629715e-02,-2.175005152821540833e-02,-5.079106893390417099e-03,1.537505770102143288e-03,-1.366207748651504517e-02,5.124357994645833969e-03
2.127863280475139618e-02,2.653967961668968201e-02,1.246030535548925400e-02,-1.427350658923387527e-02,8.553279913030564785e-04,-2.292566746473312378e-02,3.248368203639984131e-02,3.102432703599333763e-03,-3.099260211456567049e-04,-2.329996204935014248e-04,-1.198450382798910141e-02,5.268481094390153885e-03,-1.303205848671495914e-03,1.341523788869380951e-02,-4.566628951579332352e-03,7.632320746779441833e-03,5.670560523867607117e-03,3.466718597337603569e-03
1.077968906611204147e-02,-7.179356366395950317e-02,-5.506137851625680923e-03,-6.074894219636917114e-02,4.315514117479324341e-02,-3.017342984676361084e-01,1.548520326614379883e-01,1.047023478895425797e-02,-7.744029164314270020e-02,5.315368622541427612e-02,7.348536700010299683e-02,2.415289171040058136e-02,-1.707032620906829834e-01,2.855410873889923096e-01,8.382402360439300537e-03,4.655285179615020752e-02,-3.532060235738754272e-02,5.110872909426689148e-03
2.420501038432121277e-02,3.654170408844947815e-02,-4.225393012166023254e-02,6.311622913926839828e-03,-3.747800830751657486e-03,1.284380070865154266e-02,1.385810668580234051e-03,-3.729252843186259270e-03,-3.941648080945014954e-02,2.779844217002391815e-03,5.642718821763992310e-02,1.098312530666589737e-02,-2.464333549141883850e-02,-5.459868349134922028e-03,-1.779678836464881897e-02,-1.098468550480902195e-03,-3.986033145338296890e-03,-1.860256493091583252e-02
-1.265009026974439621e-02,-7.585305720567703247e-03,1.186476927250623703e-02,-7.211800199002027512e-03,5.245465319603681564e-03,-5.667082592844963074e-02,6.208853796124458313e-03,1.956796459853649139e-02,1.473659183830022812e-02,2.839926071465015411e-02,-3.859398141503334045e-02,-2.820437401533126831e-02,-4.532859846949577332e-02,6.042301654815673828e-02,2.118691056966781616e-02,1.728910580277442932e-02,-1.287829596549272537e-03,2.798198908567428589e-02
4.123942181468009949e-02,-3.745673224329948425e-02,-2.235980145633220673e-02,1.626634155400097370e-03,-2.619904838502407074e-02,-4.552133381366729736e-02,3.101885877549648285e-02,-2.768338099122047424e-02,-9.811659343540668488e-03,2.768282778561115265e-02,-5.918171256780624390e-02,2.613320574164390564e-02,-7.104739546775817871e-02,4.927480965852737427e-02,-2.492713183164596558e-02,2.704246668145060539e-03,-2.972663380205631256e-03,-2.461938932538032532e-02
6.168657913804054260e-02,7.545520784333348274e-04,5.951865110546350479e-03,9.827413596212863922e-03,-1.368634030222892761e-02,3.277240553870797157e-03,-7.422832772135734558e-03,2.851047739386558533e-02,1.810639910399913788e-02,4.629838466644287109e-02,-6.920504570007324219e-02,2.691419236361980438e-02,2.396054938435554504e-02,-1.177460886538028717e-02,1.983975432813167572e-02,3.468751162290573120e-02,-4.528784006834030151e-02,-6.559916585683822632e-02
7.121149450540542603e-02,1.269197370857000351e-02,-2.003896981477737427e-03,1.088368799537420273e-02,-3.932155203074216843e-03,-2.145123109221458435e-02,2.379576303064823151e-02,-2.002010680735111237e-02,-2.205782197415828705e-02,2.590737305581569672e-02,-3.472699970006942749e-02,6.641751527786254883e-02,1.124207954853773117e-02,4.629059508442878723e-02,-2.046783827245235443e-02,-7.131723687052726746e-03,1.761252433061599731e-02,-7.051428407430648804e-02
7.919254899024963379e-02,-2.753314562141895294e-02,3.529647132381796837e-03,1.215624064207077026e-02,2.538018859922885895e-02,-2.245788462460041046e-02,-8.898751810193061829e-03,2.888976968824863434e-02,-4.140981659293174744e-02,-9.992160834372043610e-03,5.360368639230728149e-02,1.304913964122533798e-02,8.398836478590965271e-03,1.749115181155502796e-03,9.854518808424472809e-03,4.453642293810844421e-02,-1.905056275427341461e-02,-5.550780147314071655e-02
2.012348175048828125e-02,-2.267181844217702746e-04,5.820491351187229156e-04,3.989864606410264969e-03,-3.074775449931621552e-03,5.354293808341026306e-02,-2.054092101752758026e-02,-7.289080531336367130e-04,4.004644602537155151e-02,-2.042073383927345276e-02,-6.981522589921951294e-02,1.692306250333786011e-02,2.776157483458518982e-02,-3.202585130929946899e-02,-2.333487384021282196e-03,-2.628033980727195740e-02,-3.206806024536490440e-03,-8.924149908125400543e-03
-2.297751009464263916e-01,1.470450498163700104e-02,3.314314177259802818e-03,-1.973685435950756073e-02,-3.978377953171730042e-02,4.051707312464714050e-02,7.195826619863510132e-03,-5.062790960073471069e-02,2.183504551649093628e-01,-1.269085478270426393e-04,-1.226832568645477295e-01,-3.990934416651725769e-02,-4.357452318072319031e-02,1.299622002989053726e-02,-2.653207071125507355e-02,-6.321168970316648483e-03,2.955188602209091187e-02,9.019391983747482300e-02
1.930367760360240936e-02,5.355286225676536560e-02,5.445843935012817383e-02,-2.291810140013694763e-02,2.768101915717124939e-02,-7.564516365528106689e-02,-9.293262660503387451e-02,4.267522692680358887e-02,-2.133113518357276917e-02,-1.896290294826030731e-02,2.579766698181629181e-02,-3.264341503381729126e-02,7.591979205608367920e-02,3.058321774005889893e-02,9.835633449256420135e-03,1.607943139970302582e-02,-2.040571570396423340e-01,3.385473787784576416e-02
-6.351839751005172729e-03,-2.972615659236907959e-01,-5.214824676513671875e-01,1.056314855813980103e-01,2.894360758364200592e-02,-2.375277690589427948e-02,-8.326752483844757080e-02,1.374890059232711792e-01,1.960513927042484283e-02,2.000825107097625732e-01,6.373452395200729370e-02,-1.646457016468048096e-01,6.153029855340719223e-03,-4.877781495451927185e-02,7.002776116132736206e-02,6.333051621913909912e-02,-1.933609396219253540e-01,-2.823521941900253296e-02
1.885324567556381226e-01,-1.499380320310592651e-01,4.484749212861061096e-02,-2.475597150623798370e-02,5.066936369985342026e-03,-1.227857358753681183e-02,-2.924781665205955505e-02,-2.243733033537864685e-03,-4.431129619479179382e-02,1.657669316045939922e-03,-2.822384424507617950e-02,-3.504575043916702271e-02,1.308668851852416992e-01,-7.057772483676671982e-03,9.069491061381995678e-04,1.123110018670558929e-02,7.568404078483581543e-02,-1.654765941202640533e-02
-1.849245629273355007e-03,-5.334348604083061218e-02,2.667368017137050629e-02,-1.386730074882507324e-01,-4.444338753819465637e-02,-9.366306476294994354e-03,1.933618821203708649e-02,-6.376305595040321350e-03,-3.476284742355346680e-01,2.731987042352557182e-03,7.621145341545343399e-03,-1.947049610316753387e-02,2.899499051272869110e-02,-4.862637259066104889e-03,-2.650583395734429359e-03,1.984368264675140381e-02,3.140554577112197876e-02,2.452276088297367096e-02
-3.721394343301653862e-03,-4.582080524414777756e-03,3.203721484169363976e-03,-1.668024994432926178e-02,-4.395111463963985443e-03,1.900987699627876282e-03,-2.025140915066003799e-03,-4.730244632810354233e-03,-7.083504647016525269e-02,3.395382082089781761e-03,-1.160581130534410477e-02,-1.361657958477735519e-02,-3.152228659018874168e-03,9.578684344887733459e-03,-4.289882257580757141e-03,4.173164255917072296e-03,1.195293501950800419e-03,7.486633025109767914e-03
-1.855670707300305367e-04,2.581659646239131689e-04,-4.303957801312208176e-03,-1.288878079503774643e-02,-1.411475706845521927e-03,3.461111104115843773e-03,-3.364987438544631004e-03,8.867106516845524311e-04,-4.977895691990852356e-02,5.790477734990417957e-04,-3.044866491109132767e-03,3.275242168456315994e-03,6.687688175588846207e-03,-7.084452081471681595e-04,2.317043690709397197e-04,4.392521921545267105e-03,-1.303394441492855549e-03,-7.326533086597919464e-04
-1.105352421291172504e-03,-5.717855412513017654e-03,1.705803163349628448e-02,-7.959012873470783234e-03,1.798124052584171295e-02,1.383261871524155140e-03,-1.043607667088508606e-02,6.892001722007989883e-03,5.610988475382328033e-03,-7.459818851202726364e-03,9.284658357501029968e-03,1.864395220763981342e-03,7.796878926455974579e-03,1.546825002878904343e-02,6.420756690204143524e-03,-1.597567461431026459e-02,1.501384284347295761e-02,-9.783160639926791191e-04
3.966293111443519592e-02,-2.155255293473601341e-03,-1.168937142938375473e-02,-1.106627983972430229e-03,-2.758064540103077888e-03,-1.171975769102573395e-02,-1.196788903325796127e-02,-4.605461843311786652e-03,-6.992429494857788086e-03,-1.542139891535043716e-02,3.196928277611732483e-02,-2.107366360723972321e-02,-1.339529547840356827e-02,1.698997803032398224e-02,3.993561025708913803e-03,2.548703690990805626e-03,-9.604768827557563782e-03,1.055768784135580063e-02
2.430507447570562363e-03,1.382398977875709534e-02,6.026882678270339966e-03,-9.691195562481880188e-03,-3.222084837034344673e-03,-2.821338549256324768e-02,2.792163193225860596e-02,1.587046892382204533e-03,-1.652813702821731567e-02,2.164698578417301178e-02,-6.526443175971508026e-03,1.229077344760298729e-03,-3.242902457714080811e-02,3.639348968863487244e-02,2.240500878542661667e-03,6.984918843954801559e-03,8.660162799060344696e-03,2.258004620671272278e-02
2.928483486175537109e-02,-4.991756752133369446e-02,-5.314620584249496460e-02,-9.972501546144485474e-02,6.722780317068099976e-02,-3.879775106906890869e-01,1.104965955018997192e-01,2.908538095653057098e-03,-9.020312875509262085e-02,6.428030133247375488e-02,4.290536526241339743e-05,5.599389597773551941e-02,-3.753420412540435791e-01,4.182833135128021240e-01,5.855985451489686966e-03,1.556282863020896912e-02,-1.035545673221349716e-02,2.789433300495147705e-02
1.942703872919082642e-02,1.707985624670982361e-02,-1.971528679132461548e-02,4.801390692591667175e-03,6.510599050670862198e-03,5.213361233472824097e-03,6.588929798454046249e-03,8.983351290225982666e-03,-2.072646655142307281e-02,1.611136086285114288e-02,7.147716730833053589e-02,-4.160889424383640289e-03,-3.339850157499313354e-02,-6.132692098617553711e-03,1.189582748338580132e-03,2.010206459090113640e-03,-3.281453996896743774e-02,-2.427899092435836792e-02
-2.145200967788696289e-03,-1.184450011351145804e-04,-1.831513713113963604e-03,-1.657882146537303925e-02,-1.187322940677404404e-02,-8.419480919837951660e-02,-1.508373301476240158e-02,-1.462449785321950912e-03,3.277239575982093811e-02,2.940378524363040924e-02,-3.914209827780723572e-02,-2.693604864180088043e-02,-5.206296965479850769e-02,7.661104947328567505e-02,1.675568753853440285e-03,-8.325646631419658661e-04,1.650463417172431946e-02,3.718638047575950623e-02
-2.249794633826240897e-04,-1.277047954499721527e-02,-2.286857739090919495e-02,3.273027949035167694e-03,-2.266342379152774811e-02,-4.835155978798866272e-02,3.260049596428871155e-02,-2.146944403648376465e-02,1.396239548921585083e-02,5.798806250095367432e-02,-7.276047021150588989e-02,7.192930206656455994e-03,-5.908198282122612000e-02,6.194866076111793518e-02,-1.678493618965148926e-02,-1.356603205204010010e-02,1.141680870205163956e-02,-3.471483662724494934e-02
4.224239662289619446e-02,1.154546253383159637e-02,5.190242081880569458e-03,1.552636269479990005e-02,-3.447248041629791260e-02,-9.679593145847320557e-03,3.897690027952194214e-02,7.073347456753253937e-03,-1.278657466173171997e-03,8.800326287746429443e-02,-5.986912548542022705e-02,6.023391336202621460e-02,6.754661351442337036e-02,-3.106658533215522766e-02,6.599868065677583218e-04,1.357606891542673111e-02,-9.312168695032596588e-03,-9.149298071861267090e-02
5.886628851294517517e-02,6.303496658802032471e-03,3.359788283705711365e-02,2.495863661170005798e-02,-8.521556854248046875e-03,9.942906908690929413e-03,3.608134016394615173e-02,1.269815210253000259e-02,-2.948057651519775391e-02,9.656853973865509033e-02,8.014446357265114784e-04,1.131026074290275574e-01,3.027793765068054199e-02,-2.580578438937664032e-02,7.393620442599058151e-03,1.514681987464427948e-02,-1.638895086944103241e-02,-1.753903180360794067e-01
1.232167482376098633e-01,-3.556400071829557419e-03,-2.265700325369834900e-02,7.102587260305881500e-03,7.987034041434526443e-05,-1.086982991546392441e-02,1.411541551351547241e-02,-1.459125895053148270e-02,-1.436436362564563751e-02,2.015849202871322632e-02,8.119931071996688843e-02,3.363691270351409912e-02,2.198706194758415222e-02,4.217486828565597534e-03,-1.674315705895423889e-02,1.743697188794612885e-02,1.454693730920553207e-02,-3.445291519165039062e-02
1.258880365639925003e-03,1.280951499938964844e-02,-1.451177895069122314e-02,2.714914083480834961e-02,-3.191126510500907898e-02,4.751632735133171082e-02,3.254668845329433680e-04,-6.916406098753213882e-03,-4.147127270698547363e-02,-5.371519178152084351e-02,-3.748743236064910889e-02,-1.121192326536402106e-04,-2.787506580352783203e-02,5.812068935483694077e-03,-1.365598011761903763e-02,3.308430314064025879e-02,2.789328619837760925e-02,2.576975524425506592e-02
-2.447074651718139648e-01,4.480629693716764450e-03,1.781532890163362026e-03,2.211539074778556824e-02,-6.399977020919322968e-03,8.823388256132602692e-03,-3.647858649492263794e-02,-4.392654821276664734e-02,1.826149076223373413e-01,3.749339142814278603e-03,-2.459724545478820801e-01,-2.939962036907672882e-02,-1.166854426264762878e-01,7.970904558897018433e-02,-1.359996013343334198e-02,-1.584337092936038971e-02,1.428283452987670898e-01,1.036311760544776917e-01
-3.314882889389991760e-02,-1.617680937051773071e-01,-1.570517569780349731e-01,7.588704675436019897e-02,-8.337024599313735962e-02,3.687484562397003174e-01,-1.753827184438705444e-01,2.497461065649986267e-02,-1.844692602753639221e-02,1.148023642599582672e-02,2.598946169018745422e-02,-2.234484553337097168e-01,-1.825101375579833984e-01,1.639437824487686157e-01,3.304264694452285767e-02,5.210210010409355164e-02,7.531459331512451172e-01,2.822916805744171143e-01
-2.449291641823947430e-04,9.751569032669067383e-01,5.722747445106506348e-01,6.798537075519561768e-02,-3.762402758002281189e-02,8.637131750583648682e-02,2.643465623259544373e-02,1.134394556283950806e-01,-2.585760354995727539e-01,-7.367681860923767090e-01,7.104422152042388916e-02,1.494920551776885986e-01,-1.166249960660934448e-01,3.893322870135307312e-02,4.959530010819435120e-02,1.635313034057617188e-01,1.893205940723419189e-01,7.230857014656066895e-01
1.335986852645874023e-01,2.220850139856338501e-01,-2.225068770349025726e-02,1.414711866527795792e-02,1.562849245965480804e-02,5.720877647399902344e-02,2.812859974801540375e-02,-2.129699103534221649e-02,-4.737351089715957642e-02,-3.296014666557312012e-01,-8.437436819076538086e-02,-1.412215977907180786e-01,4.149634018540382385e-02,-2.574593015015125275e-02,-5.159740801900625229e-03,1.863854080438613892e-01,-6.870962679386138916e-02,4.729484915733337402e-01
1.698101125657558441e-02,5.241014808416366577e-02,-1.874420605599880219e-02,-1.814810484647750854e-01,-3.494311869144439697e-02,4.860611259937286377e-02,2.282074093818664551e-02,2.141221053898334503e-02,-1.104459241032600403e-01,6.481974571943283081e-02,3.014807589352130890e-02,-1.572213470935821533e-01,6.298213452100753784e-02,6.862804293632507324e-02,5.165326967835426331e-02,-1.069263145327568054e-01,-5.048824474215507507e-02,1.147630736231803894e-01
5.090268328785896301e-02,-1.444562897086143494e-02,1.010545622557401657e-02,-5.615936219692230225e-02,-1.438685040920972824e-02,-1.741097867488861084e-02,-1.148532028310000896e-03,2.051845891401171684e-03,-1.947411149740219116e-02,1.527974940836429596e-02,6.035567075014114380e-02,-3.889842657372355461e-03,1.687510497868061066e-02,9.865255095064640045e-03,3.362467745319008827e-03,1.682436652481555939e-02,-2.356170676648616791e-02,-2.910548821091651917e-02
-1.266244146972894669e-02,-1.190297398716211319e-02,7.891686633229255676e-03,-1.124863629229366779e-03,-1.233901455998420715e-02,-6.593401078134775162e-03,-4.493645392358303070e-03,-4.660831298679113388e-03,-3.744647651910781860e-02,9.088939987123012543e-03,-1.950020529329776764e-02,-7.860533893108367920e-03,-1.654553785920143127e-02,-4.190729930996894836e-03,-5.017417017370462418e-03,-2.597253583371639252e-02,8.635173551738262177e-03,-7.435308303683996201e-03
-3.525279229506850243e-03,1.320330053567886353e-02,5.509132891893386841e-02,-1.382566522806882858e-02,1.650051400065422058e-02,-2.988445339724421501e-04,-1.111439336091279984e-02,1.209421269595623016e-02,2.699110656976699829e-02,-1.789272017776966095e-02,2.657613717019557953e-02,1.957688853144645691e-02,1.599109917879104614e-02,-1.962042786180973053e-02,1.441258843988180161e-02,-1.876617432571947575e-03,3.065258963033556938e-03,-1.334308926016092300e-02
8.208339102566242218e-03,-1.318836677819490433e-02,-4.706185776740312576e-03,-9.484399110078811646e-03,8.638772182166576385e-03,-1.012880122289061546e-03,9.037028998136520386e-03,-8.006843854673206806e-04,1.032709050923585892e-02,-2.796681784093379974e-02,4.170446842908859253e-02,9.155949577689170837e-03,-4.540701862424612045e-03,2.882326208055019379e-02,-4.543913528323173523e-04,-1.074558869004249573e-02,1.217006798833608627e-02,7.170450408011674881e-03
-4.010494332760572433e-03,-3.091918770223855972e-03,1.277628121897578239e-03,1.034624502062797546e-02,7.918713614344596863e-03,-1.789913699030876160e-02,4.723910242319107056e-03,2.226838842034339905e-02,-3.991160076111555099e-03,1.369605539366602898e-03,-3.170456038787961006e-03,4.123334074392914772e-04,2.037835307419300079e-03,1.152565144002437592e-02,6.700616329908370972e-03,-9.506192058324813843e-03,8.723590523004531860e-03,1.614273898303508759e-02
1.651790365576744080e-02,-2.434161677956581116e-02,2.991997078061103821e-02,-3.347110375761985779e-02,7.330743223428726196e-02,-1.304573416709899902e-01,4.016443714499473572e-02,-2.128602191805839539e-02,-9.525267034769058228e-02,1.594545552507042885e-03,-2.479002345353364944e-03,6.299005448818206787e-02,-8.820388466119766235e-02,2.354837357997894287e-01,-1.449250988662242889e-02,-9.053015150129795074e-03,3.134606778621673584e-02,-8.937077596783638000e-03
-2.616947703063488007e-02,1.765430159866809845e-02,9.240563958883285522e-03,-2.015840262174606323e-02,-2.372204791754484177e-03,4.572072625160217285e-02,2.332979999482631683e-02,-2.504664240404963493e-03,1.623656041920185089e-02,-3.506672382354736328e-02,3.529898077249526978e-02,1.975649036467075348e-02,-2.937295474112033844e-02,-5.017634108662605286e-02,-1.459050178527832031e-02,3.386093303561210632e-02,3.300359845161437988e-02,1.291244523599743843e-03
2.383301965892314911e-02,-2.514592371881008148e-02,-4.270679783076047897e-03,2.196222357451915741e-02,3.567297384142875671e-02,-5.204451456665992737e-02,-1.403395179659128189e-02,-3.176407422870397568e-03,-1.303645875304937363e-02,-2.407576516270637512e-02,-5.578670650720596313e-02,3.250679373741149902e-02,-2.701899595558643341e-02,6.809739768505096436e-02,2.876511309295892715e-03,-1.665619574487209320e-02,1.114177610725164413e-02,-4.898800980299711227e-04
7.570225000381469727e-02,-2.281608618795871735e-02,1.408040639944374561e-03,-3.404597565531730652e-02,3.825017716735601425e-03,-1.559813786298036575e-02,1.603187248110771179e-02,-1.863587275147438049e-02,-5.896828323602676392e-02,-9.882631152868270874e-02,1.167765725404024124e-02,3.116060234606266022e-02,-2.306833118200302124e-02,6.909845769405364990e-02,-6.062441505491733551e-03,2.664811350405216217e-02,3.988309297710657120e-03,4.300803691148757935e-02
3.146175667643547058e-02,1.355796994175761938e-04,2.376988064497709274e-03,-2.675622701644897461e-02,1.470083370804786682e-02,-6.189534906297922134e-03,-6.762695312500000000e-02,8.786019869148731232e-03,-3.053598920814692974e-04,-9.792433679103851318e-02,9.855450689792633057e-02,-6.310947984457015991e-02,-5.564480670727789402e-04,1.915555819869041443e-02,1.077941618859767914e-03,4.493458569049835205e-02,-2.852545492351055145e-02,9.405845403671264648e-02
1.426996104419231415e-02,7.092849351465702057e-03,2.761665731668472290e-03,-1.034728344529867172e-02,1.328520197421312332e-02,-3.878692165017127991e-03,9.313762187957763672e-03,6.145433522760868073e-03,2.728553023189306259e-03,-1.315859258174896240e-01,3.895068541169166565e-02,-8.294023573398590088e-02,1.595727168023586273e-02,-2.657428011298179626e-02,4.286216106265783310e-03,3.791473060846328735e-02,-1.178454887121915817e-02,1.865932643413543701e-01
1.418985724449157715e-01,-1.010905858129262924e-02,1.363935973495244980e-02,-1.878388598561286926e-02,1.073526684194803238e-02,1.862191595137119293e-02,-2.030944451689720154e-03,2.844319678843021393e-02,-5.005409941077232361e-02,-1.821624673902988434e-02,6.942095607519149780e-02,1.074272114783525467e-02,1.079024979844689369e-03,-4.438736662268638611e-02,7.854102179408073425e-03,6.979260593652725220e-02,-1.988025149330496788e-03,-2.959218993782997131e-02
-1.033112034201622009e-01,-1.219015661627054214e-02,1.124554895795881748e-03,5.747384391725063324e-03,-4.159360658377408981e-03,3.282164037227630615e-02,5.743959173560142517e-02,1.896964386105537415e-02,8.954845368862152100e-02,1.292954012751579285e-02,-8.770016953349113464e-03,-1.966370083391666412e-02,5.748935975134372711e-03,-1.496923435479402542e-02,8.008125238120555878e-03,-3.251759335398674011e-02,-5.024125799536705017e-03,1.173694618046283722e-02
-1.198673248291015625e-01,-1.240255907177925110e-01,1.883780211210250854e-02,-1.012481302022933960e-01,1.371308267116546631e-01,7.435565441846847534e-02,-1.178635060787200928e-01,4.021978750824928284e-02,2.960524559020996094e-01,1.342261135578155518e-01,-4.524432420730590820e-01,-8.664367347955703735e-02,-9.341679513454437256e-02,-5.852927267551422119e-02,2.624855190515518188e-02,-7.004233449697494507e-02,1.393156051635742188e-01,-7.439713180065155029e-02
