-3.235349868191406131e-05,-8.687193621881306171e-05,2.087589564325753599e-05,3.820135316345840693e-05,-5.471098484122194350e-05,4.565334165818057954e-05,-1.221940619871020317e-03,1.538064447231590748e-03,1.611988409422338009e-03,1.394587918184697628e-03,2.859672713384497911e-05,3.081734030274674296e-05,1.377900025545386598e-05,1.584498793818056583e-03,2.769274869933724403e-03,-9.924933692673221231e-05,-5.011107350583188236e-05,-4.459292904357425869e-05,-1.472149160690605640e-03,2.702792698983103037e-05,-4.613161218003369868e-05,1.178689053631387651e-04,-9.675108594819903374e-05,2.067551395157352090e-04,-1.673580729402601719e-03,-1.213021110743284225e-03,1.887942198663949966e-05,-1.176296151243150234e-03,5.276654337649233639e-05,-1.598577830009162426e-03,-2.259251050418242812e-05,-1.234421215485781431e-04,-1.422225264832377434e-03,3.505630229483358562e-05,1.118074986152350903e-03,4.900829400867223740e-03,6.105667853262275457e-05,3.494517295621335506e-05,2.038210863247513771e-03,-1.874609733931720257e-04,2.088335022563114762e-04,4.444204751052893698e-05,1.966610579984262586e-05,-1.080809306586161256e-05,-1.861927798017859459e-03,-4.308394156396389008e-03,-9.926092025125399232e-05,-8.430112939095124602e-05,-1.496601151302456856e-03,-6.217900954652577639e-05,1.332956366240978241e-03,-1.433830941095948219e-03,5.862443504156544805e-05,-3.839229248114861548e-05,2.660843711055349559e-05,7.272649963852018118e-05
1.231269352138042450e-02,8.852966711856424809e-04,-9.726968710310757160e-04,5.847214721143245697e-03,2.825268078595399857e-03,1.066150888800621033e-02,9.099415503442287445e-03,1.774734258651733398e-01,8.375334739685058594e-01,1.738957315683364868e-02,-6.520980037748813629e-03,2.597940852865576744e-03,-6.199898780323565006e-04,5.799041595309972763e-03,1.933381333947181702e-02,1.130702788941562176e-03,1.844932907260954380e-03,7.278435397893190384e-03,7.816065847873687744e-02,1.054877135902643204e-02,-9.360617026686668396e-03,1.059382408857345581e-02,-1.014891173690557480e-02,-9.776909835636615753e-03,2.933657728135585785e-03,1.195882074534893036e-02,2.856534265447407961e-04,-3.007341548800468445e-02,1.154065175796858966e-04,-3.022893965244293213e-01,-4.209519829601049423e-03,-7.379899267107248306e-03,5.471834540367126465e-01,9.935964830219745636e-03,1.353518962860107422e-01,-5.588486790657043457e-03,2.231382532045245171e-03,-1.391594647429883480e-03,-1.639755070209503174e-01,-9.246950969099998474e-03,3.886741120368242264e-03,-3.968045581132173538e-03,7.777346298098564148e-03,4.869109950959682465e-03,1.616140007972717285e-01,8.631937205791473389e-02,-5.190173164010047913e-03,9.364447323605418205e-04,4.392738044261932373e-01,3.366434946656227112e-03,5.959701538085937500e-02,-7.833340764045715332e-01,5.138620734214782715e-03,-9.548410773277282715e-03,-1.402462832629680634e-03,7.354507222771644592e-03
4.522084258496761322e-03,-3.214753814972937107e-05,-1.684615708654746413e-04,1.778078847564756870e-03,8.068392053246498108e-04,4.951118491590023041e-03,-2.223619073629379272e-01,3.881799802184104919e-02,-2.648561596870422363e-01,-1.435374282300472260e-02,-3.589004336390644312e-04,-3.037513815797865391e-04,-1.736428122967481613e-03,3.358880430459976196e-02,4.037291184067726135e-02,-2.589748241007328033e-03,-1.665521296672523022e-03,8.872629259712994099e-04,5.514114350080490112e-02,5.849647335708141327e-03,-5.943056312389671803e-04,2.498935209587216377e-03,-9.004579856991767883e-03,-2.849444374442100525e-02,6.132652983069419861e-02,1.521802134811878204e-02,1.644919393584132195e-03,-4.426029045134782791e-03,-4.032925644423812628e-04,1.082067117094993591e-01,2.403965685516595840e-03,-1.102917827665805817e-02,-1.163963004946708679e-01,5.587068852037191391e-03,-1.945287734270095825e-01,6.527209654450416565e-03,2.738375216722488403e-03,3.228842280805110931e-03,4.015282541513442993e-02,-1.151799038052558899e-02,2.063254266977310181e-02,5.741998902522027493e-04,-1.274295034818351269e-03,2.126242732629179955e-03,3.224764019250869751e-02,-1.779926824383437634e-03,-1.923924079164862633e-03,3.011006992892362177e-05,-1.946491301059722900e-01,-2.981932600960135460e-03,1.007360126823186874e-02,-1.531024724245071411e-01,1.168448291718959808e-02,-1.321380585432052612e-02,-2.882434055209159851e-03,-5.035565700381994247e-04
1.742366468533873558e-03,1.044654403813183308e-03,2.003954723477363586e-04,-6.031246739439666271e-04,1.215675656567327678e-04,5.379050271585583687e-04,-5.143231153488159180e-02,-8.707394450902938843e-02,-5.241203680634498596e-02,8.925774134695529938e-03,-1.240637851879000664e-03,-8.820497314445674419e-04,-9.900052646116819233e-06,-1.828767731785774231e-02,-3.172275051474571228e-02,-1.404895680025219917e-03,1.809105160646140575e-03,6.950288661755621433e-04,-4.895222559571266174e-02,-3.904523327946662903e-03,1.025407807901501656e-03,-1.117989304475486279e-03,3.149258904159069061e-03,-1.907375408336520195e-03,9.441103786230087280e-03,3.364270552992820740e-02,1.142775639891624451e-03,-4.647735040634870529e-03,1.062584196915850043e-04,-3.993370383977890015e-02,-8.281677728518843651e-04,2.105338731780648232e-03,-7.358439266681671143e-02,-1.999805914238095284e-03,-5.145647749304771423e-02,3.939663246273994446e-02,-2.117335097864270210e-04,1.118823201977647841e-04,8.445813506841659546e-02,-2.597353421151638031e-03,7.853390416130423546e-04,-1.138201332651078701e-04,-8.507210877723991871e-04,-8.776664617471396923e-04,3.237806633114814758e-02,-6.746346503496170044e-02,-1.221297308802604675e-03,-2.276934246765449643e-04,2.513618906959891319e-03,-3.146887320326641202e-05,2.097048051655292511e-02,7.432632893323898315e-02,1.115447521442547441e-04,-5.505073931999504566e-04,-4.881776985712349415e-04,-2.270504832267761230e-03
-5.682383198291063309e-04,3.538938763085752726e-04,4.441566488821990788e-06,-4.419903852976858616e-04,8.711086411494761705e-05,-7.269036723300814629e-04,-2.670998917892575264e-03,-4.867630824446678162e-02,-1.692653819918632507e-02,4.619722720235586166e-03,-1.014516456052660942e-03,2.257077023386955261e-03,-9.414667729288339615e-04,4.168204031884670258e-03,2.075315220281481743e-03,-2.005288260988891125e-04,1.009796396829187870e-03,-1.388270175084471703e-03,-7.895428687334060669e-03,-7.453900179825723171e-04,1.735196914523839951e-03,-4.257890104781836271e-04,-3.323625423945486546e-04,-3.422681242227554321e-03,-9.983500931411981583e-04,2.633356256410479546e-03,1.503196544945240021e-03,1.493081217631697655e-04,7.370827370323240757e-04,-3.715742379426956177e-02,8.572947081120219082e-06,1.079261885024607182e-03,-4.529768228530883789e-02,1.781223108991980553e-03,2.090033376589417458e-03,-5.901982076466083527e-03,5.147712654434144497e-04,1.060924492776393890e-03,4.888591542840003967e-02,8.524367585778236389e-04,9.682356030680239201e-04,1.179149257950484753e-03,5.550475543714128435e-05,-2.704029029700905085e-04,1.835589669644832611e-02,6.479819421656429768e-04,1.458362094126641750e-03,9.865658357739448547e-04,6.188981235027313232e-02,4.746814374811947346e-04,-1.371212420053780079e-04,1.864890195429325104e-02,-1.144730602391064167e-03,1.106198833440430462e-04,-3.649137215688824654e-05,2.384897379670292139e-04
-2.262106572743505239e-04,-2.853037323802709579e-03,-5.081071867607533932e-04,1.028028549626469612e-03,-1.908012549392879009e-03,1.429193303920328617e-03,-2.191590890288352966e-02,-6.393881514668464661e-03,1.295100152492523193e-01,3.168936586007475853e-03,-1.186426728963851929e-03,-5.139409331604838371e-04,-4.211472696624696255e-04,-3.147473093122243881e-03,2.355860918760299683e-02,2.895671932492405176e-04,1.030122744850814342e-03,-6.849867058917880058e-04,8.689396199770271778e-04,-7.653910870430991054e-05,2.274641068652272224e-03,-1.864452264271676540e-03,-5.529514237423427403e-05,-7.066172111080959439e-05,8.724256418645381927e-03,-3.603309858590364456e-03,-1.523262239061295986e-03,-2.291511977091431618e-03,1.598395290784537792e-03,-1.072540432214736938e-01,5.606899503618478775e-04,2.278642350574955344e-04,2.245675325393676758e-01,-2.030242932960391045e-03,-2.890941873192787170e-02,-3.907638043165206909e-02,-7.800643215887248516e-04,1.018841518089175224e-03,-5.518295336514711380e-03,-1.897215028293430805e-03,4.832709382753819227e-04,-2.547740936279296875e-03,4.088431014679372311e-04,-9.700876544229686260e-04,1.171763017773628235e-01,9.618383832275867462e-03,-2.092240465572103858e-04,1.533788628876209259e-03,2.080562151968479156e-02,1.321292511420324445e-04,-6.890291115269064903e-04,-1.907721906900405884e-01,-5.537487100809812546e-03,-2.674495335668325424e-03,-6.578154861927032471e-04,-6.702332175336778164e-04
7.339560543186962605e-04,9.347795858047902584e-04,-1.246425788849592209e-03,8.451557951048016548e-04,2.322662156075239182e-03,-1.125770038925111294e-03,-5.150150880217552185e-02,3.099157009273767471e-03,1.008634641766548157e-01,5.850798264145851135e-02,-9.592705755494534969e-04,-3.107215510681271553e-03,1.186885201605036855e-04,-1.334591652266681194e-03,3.317712619900703430e-02,2.977962372824549675e-03,-1.733420183882117271e-03,-1.596956397406756878e-03,5.715981498360633850e-02,1.130343182012438774e-03,-7.577461074106395245e-04,1.650828744459431618e-05,-2.660030731931328773e-04,4.488810896873474121e-03,4.749535024166107178e-02,1.194149153889156878e-04,1.823866623453795910e-03,-7.649114122614264488e-04,9.965185308828949928e-04,-4.829206317663192749e-02,6.079446757212281227e-04,-2.027851063758134842e-03,3.270023688673973083e-02,-2.498797141015529633e-03,-1.566362194716930389e-02,3.618596866726875305e-02,1.058381603797897696e-04,-2.178141876356676221e-04,-4.551798477768898010e-02,3.989030083175748587e-04,-4.455759655684232712e-03,4.645586304832249880e-04,5.497191450558602810e-04,1.319252420216798782e-03,8.820637315511703491e-02,-1.261056773364543915e-02,-4.732162051368504763e-04,-4.168909217696636915e-04,6.069090217351913452e-02,-1.528358319774270058e-03,-3.886281512677669525e-03,-8.615464717149734497e-02,-5.992958322167396545e-03,-5.637378781102597713e-04,-2.854135527741163969e-04,9.634501475375145674e-05
1.814872259274125099e-03,4.299938213080167770e-03,3.507024375721812248e-03,-2.330599352717399597e-03,-5.285333842039108276e-03,1.516083604656159878e-03,3.050010278820991516e-02,-1.492673327447846532e-04,4.789747297763824463e-02,-6.784376222640275955e-03,-2.934067510068416595e-03,-3.801519749686121941e-03,5.050756502896547318e-03,-9.716856293380260468e-03,3.855977207422256470e-03,-5.218863487243652344e-03,4.378616722533479333e-05,-2.231332182418555021e-04,-1.696666586212813854e-03,4.893436562269926071e-04,1.536930445581674576e-03,-2.622983418405056000e-03,-2.334296004846692085e-03,1.237786374986171722e-03,-1.538251340389251709e-01,-1.252480549737811089e-03,-1.044610515236854553e-03,5.960386712104082108e-03,3.929847385734319687e-03,-7.354369759559631348e-02,2.746697049587965012e-03,5.216411780565977097e-03,5.574068054556846619e-02,5.420941393822431564e-03,5.550879985094070435e-03,2.033052500337362289e-03,1.135070435702800751e-02,-2.415941096842288971e-03,-1.869049295783042908e-02,-6.140247918665409088e-03,6.771546322852373123e-03,6.177953444421291351e-03,-2.302457578480243683e-03,-7.570169866085052490e-03,7.592071592807769775e-02,-1.658502849750220776e-03,6.946425419300794601e-04,2.825238741934299469e-03,4.176938906311988831e-02,9.356311638839542866e-04,2.716583199799060822e-03,-2.836585789918899536e-02,5.883614998310804367e-03,1.451665628701448441e-02,2.702893922105431557e-03,4.280867986381053925e-03
-1.631064689718186855e-03,-1.688837190158665180e-03,-2.345190150663256645e-03,2.947649336419999599e-04,1.075217616744339466e-03,1.018035458400845528e-03,5.255927145481109619e-02,4.598756507039070129e-02,-3.284462727606296539e-04,-5.785606335848569870e-03,1.643188646994531155e-03,2.904001856222748756e-03,1.864106627181172371e-03,9.768633171916007996e-03,-2.612041682004928589e-02,-1.340056187473237514e-03,5.273583810776472092e-03,-7.427105680108070374e-03,9.711025655269622803e-02,-7.620575372129678726e-03,-2.998362528160214424e-03,-1.560125965625047684e-03,-7.326781284064054489e-03,-4.749957006424665451e-04,-1.993005573749542236e-01,-1.185021270066499710e-02,2.666799584403634071e-03,1.425213832408189774e-02,6.842306815087795258e-03,-2.394278720021247864e-02,7.779696607030928135e-04,-9.485239861533045769e-04,-2.112475410103797913e-02,-2.416773466393351555e-03,2.223210409283638000e-02,-2.820188365876674652e-02,-4.135139752179384232e-03,-4.491939209401607513e-03,-1.207933179102838039e-03,1.119330991059541702e-03,-1.459892839193344116e-03,3.594445995986461639e-03,3.310612635686993599e-03,6.107556633651256561e-03,1.888184063136577606e-02,3.001293540000915527e-02,-4.269937635399401188e-04,5.642789801640901715e-06,1.791380159556865692e-02,3.941728733479976654e-03,8.588739670813083649e-03,4.736015689559280872e-04,4.792552441358566284e-03,4.975442774593830109e-03,-2.008870476856827736e-03,-4.313755314797163010e-03
-5.487029906362295151e-03,-4.392659757286310196e-03,9.886816143989562988e-03,-6.222834927029907703e-04,-4.996343050152063370e-03,-6.226906552910804749e-03,7.569054607301950455e-03,5.557193420827388763e-03,-2.108710631728172302e-02,1.552710426039993763e-03,1.146683818660676479e-03,-7.778445258736610413e-03,-4.549134057015180588e-03,-4.481209907680749893e-03,-1.528139133006334305e-02,1.132919918745756149e-02,-6.361139472573995590e-03,2.656519878655672073e-03,-1.223489362746477127e-02,-1.009912882000207901e-02,-1.652236969675868750e-04,1.553847268223762512e-02,-8.648420684039592743e-03,-2.661312231793999672e-03,-7.843390107154846191e-02,1.865545986220240593e-03,-7.465773727744817734e-03,6.647790316492319107e-03,-8.081566193141043186e-04,-1.766901835799217224e-02,-1.313663274049758911e-02,1.163327484391629696e-03,3.701139986515045166e-02,-6.516352761536836624e-03,-1.352527830749750137e-02,4.174104426056146622e-03,6.574830505996942520e-03,3.028061240911483765e-03,-1.077411882579326630e-02,-4.446215927600860596e-03,4.047444090247154236e-03,2.538881672080606222e-04,3.879828727804124355e-04,-3.334119450300931931e-03,1.009100116789340973e-02,-2.114543924108147621e-03,2.942911582067608833e-03,-1.966164680197834969e-03,-4.060665518045425415e-02,8.265207521617412567e-03,-1.944284513592720032e-02,-1.239202916622161865e-02,-8.437740616500377655e-03,4.348137881606817245e-03,3.596007358282804489e-03,-8.006579242646694183e-03
-1.151983393356204033e-03,-3.312188666313886642e-03,-4.594844765961170197e-03,1.191962393932044506e-03,-8.531250990927219391e-03,-6.636150181293487549e-03,2.285155234858393669e-03,1.955076865851879120e-02,2.038472145795822144e-02,-6.222343444824218750e-01,1.982964313356205821e-04,-2.032496267929673195e-03,-5.779066123068332672e-03,-7.547166943550109863e-01,5.214471835643053055e-03,9.517295286059379578e-03,-2.770747290924191475e-03,-1.154802448581904173e-04,5.306525230407714844e-01,1.012513134628534317e-02,1.906140334904193878e-02,2.792199142277240753e-03,2.196563966572284698e-02,1.068501360714435577e-02,3.925843536853790283e-01,-1.304769609123468399e-02,4.277481697499752045e-03,-7.505618333816528320e-01,3.381930291652679443e-03,-1.733620278537273407e-02,-9.735682047903537750e-03,1.397836487740278244e-02,-2.470520138740539551e-02,-4.528676625341176987e-03,4.793234169483184814e-01,-9.059260599315166473e-03,5.500392988324165344e-03,-1.968328841030597687e-03,-9.362150914967060089e-03,1.315049920231103897e-02,-1.125260442495346069e-02,2.849357901141047478e-03,3.107788739725947380e-03,2.589527051895856857e-03,5.208596587181091309e-02,2.377275004982948303e-02,-4.392105620354413986e-04,1.671658828854560852e-03,-1.220352500677108765e-01,-2.132542285835370421e-04,4.577752947807312012e-02,-3.694125264883041382e-02,9.755093604326248169e-03,-8.965940773487091064e-02,-5.709115881472826004e-03,-6.021752022206783295e-03
-1.543936552479863167e-03,-1.636341447010636330e-03,2.716158342082053423e-04,-1.274901069700717926e-02,2.541962079703807831e-03,3.795533266384154558e-04,-3.120022360235452652e-03,1.250109751708805561e-03,-5.965585354715585709e-03,-2.235589548945426941e-02,-4.796545486897230148e-03,-1.091223303228616714e-02,2.032956806942820549e-03,6.863964721560478210e-03,-1.550344750285148621e-03,8.776498027145862579e-03,-1.276553142815828323e-02,-1.193633023649454117e-02,4.544488713145256042e-02,1.023422088474035263e-02,-5.714884493499994278e-03,4.288407508283853531e-03,-9.128842502832412720e-03,-7.191441836766898632e-04,6.349556148052215576e-03,4.098081961274147034e-03,1.135971304029226303e-02,-7.683200761675834656e-03,-1.030598650686442852e-03,4.684805497527122498e-02,-1.037466339766979218e-02,9.619703632779419422e-04,5.830355454236268997e-03,6.196494679898023605e-03,-1.103360112756490707e-02,-2.506040968000888824e-03,-8.267356082797050476e-03,-1.749673392623662949e-04,5.879913270473480225e-02,1.527124783024191856e-03,7.604493759572505951e-03,1.605860888957977295e-02,1.229431014508008957e-02,-7.153693586587905884e-03,6.781095173209905624e-03,-8.481837809085845947e-03,-7.926005870103836060e-03,-5.626933416351675987e-04,-2.225025370717048645e-02,-4.506201483309268951e-03,-3.339280840009450912e-03,-1.626985147595405579e-03,-4.225262440741062164e-03,-1.769431121647357941e-02,5.233029834926128387e-03,1.174137927591800690e-02
4.252581391483545303e-03,5.652601830661296844e-03,-1.271869707852602005e-02,4.856430459767580032e-04,1.469767931848764420e-02,-2.107148990035057068e-03,-3.250068798661231995e-02,3.607746446505188942e-03,-9.410212747752666473e-03,-3.027623146772384644e-02,-7.372819352895021439e-03,2.272540237754583359e-03,-1.692048460245132446e-02,-3.157433494925498962e-02,-1.206551399081945419e-02,-1.266512647271156311e-02,9.890379384160041809e-03,2.549142576754093170e-03,2.471351996064186096e-02,1.216111518442630768e-02,3.576424438506364822e-03,1.967815123498439789e-02,-5.468395538628101349e-03,1.779303653165698051e-03,3.537524258717894554e-03,-7.398319430649280548e-03,-4.322799388319253922e-03,-6.351792253553867340e-03,1.613521575927734375e-02,1.506399130448698997e-03,8.394698612391948700e-03,-1.831220579333603382e-04,-5.203459877520799637e-03,-1.683406718075275421e-02,-3.061815805267542601e-04,3.608856722712516785e-02,-5.366242956370115280e-03,8.849957026541233063e-03,2.580548822879791260e-02,2.731342567130923271e-03,9.400393813848495483e-03,-6.540811154991388321e-04,-3.592401510104537010e-03,-1.443160325288772583e-02,-2.725767530500888824e-02,-5.030599422752857208e-04,-5.348115228116512299e-03,-5.856823408976197243e-04,-4.371052607893943787e-02,-1.180113479495048523e-02,-5.793056450784206390e-03,-7.510225288569927216e-03,-8.768893778324127197e-03,-1.263219304382801056e-02,-1.312841777689754963e-03,2.884107409045100212e-03
-1.607827580301091075e-04,-2.937225159257650375e-03,-3.960120026022195816e-03,9.793612174689769745e-03,2.553832717239856720e-03,-7.809992879629135132e-03,-7.222734391689300537e-03,4.582566209137439728e-03,2.596361329779028893e-03,4.301197081804275513e-02,-5.962661933153867722e-03,-2.565371105447411537e-03,-1.765734143555164337e-02,9.523433446884155273e-02,9.997866116464138031e-03,-2.054849173873662949e-03,-1.980049349367618561e-02,5.505510605871677399e-03,-4.231606423854827881e-02,4.163038451224565506e-03,6.053762510418891907e-03,6.498998496681451797e-03,3.005981445312500000e-02,1.928631588816642761e-02,-6.279078777879476547e-03,1.638254732824862003e-03,-1.484193489886820316e-03,1.585209928452968597e-02,-8.072759024798870087e-03,7.496963720768690109e-03,2.920703263953328133e-03,1.786930300295352936e-02,7.569694425910711288e-03,-4.915297031402587891e-03,-4.941558465361595154e-02,-1.987923309206962585e-02,5.080407718196511269e-04,-1.101913210004568100e-02,-8.777858689427375793e-03,1.127161830663681030e-02,-1.754829287528991699e-02,9.671309962868690491e-03,7.921890355646610260e-04,-6.422837032005190849e-04,1.364688482135534286e-02,1.477443147450685501e-02,-1.305660139769315720e-02,-4.230423364788293839e-03,3.484760969877243042e-02,-2.147947438061237335e-03,-1.108434516936540604e-02,-9.060918353497982025e-03,2.278331201523542404e-03,3.627897007390856743e-03,-6.802245974540710449e-03,1.872897893190383911e-02
-3.370156511664390564e-03,7.445131428539752960e-03,-7.756943348795175552e-03,1.852793246507644653e-02,9.537874720990657806e-03,9.829831309616565704e-03,-2.843955531716346741e-02,-4.157063364982604980e-02,1.973682781681418419e-03,-5.551867187023162842e-02,-1.783559098839759827e-02,5.161861423403024673e-03,2.239475958049297333e-02,-1.075721345841884613e-02,8.332789875566959381e-03,4.036404658108949661e-03,-1.425476372241973877e-02,-2.895082719624042511e-02,9.818967431783676147e-03,1.602459000423550606e-03,3.620435716584324837e-03,4.649593029171228409e-03,-4.335343546699732542e-04,1.424660347402095795e-02,2.992379292845726013e-02,5.120239406824111938e-02,3.983368165791034698e-03,-2.998285740613937378e-02,5.186779890209436417e-03,-1.754746586084365845e-02,-9.221922373399138451e-04,9.494519792497158051e-03,-9.697543457150459290e-03,-1.300918310880661011e-02,-2.335117384791374207e-02,-4.277709126472473145e-02,7.098537404090166092e-03,-2.256426028907299042e-02,1.969179138541221619e-02,2.611920423805713654e-02,9.864535182714462280e-03,1.188350189477205276e-02,-1.833240850828588009e-03,1.264784112572669983e-02,-3.085626987740397453e-03,-3.969844803214073181e-02,-1.572551019489765167e-02,6.492686923593282700e-03,1.659571751952171326e-02,1.678563654422760010e-02,-3.488504514098167419e-02,2.661102637648582458e-02,-2.548201708123087883e-03,-2.900683553889393806e-03,-7.462827954441308975e-03,-1.020987285301089287e-03
1.566109620034694672e-02,-1.031026802957057953e-02,-8.137928321957588196e-03,-7.774173747748136520e-03,-8.170870714820921421e-04,5.820448976010084152e-03,-4.345198720693588257e-02,-3.248998895287513733e-02,-1.283571403473615646e-02,-6.932621449232101440e-02,-1.344653125852346420e-02,-1.499436330050230026e-03,-7.172798272222280502e-03,-3.557814285159111023e-02,8.096545003354549408e-03,-2.007766859605908394e-03,-7.076541427522897720e-03,-1.372800953686237335e-02,8.692695759236812592e-03,-5.695130676031112671e-03,-1.689978875219821930e-02,-4.796067951247096062e-04,-1.558237895369529724e-02,-8.963452652096748352e-03,-6.720858073094859719e-05,-1.329264231026172638e-02,1.881113275885581970e-02,1.485623978078365326e-02,6.981566548347473145e-03,-4.079312458634376526e-02,4.592114593833684921e-03,-2.061373787000775337e-03,-4.697838798165321350e-02,9.658890776336193085e-04,-5.148301646113395691e-02,-3.626466728746891022e-03,6.833241786807775497e-03,6.187735591083765030e-03,-2.048279903829097748e-02,-1.372246723622083664e-02,-1.988289412111043930e-03,-7.033718866296112537e-04,6.219490896910429001e-03,-1.034422032535076141e-02,3.275485709309577942e-02,-1.512200012803077698e-02,-3.880703588947653770e-03,-1.690278062596917152e-03,6.806392222642898560e-03,-1.560166012495756149e-02,-3.701622830703854561e-03,-7.515131495893001556e-03,-1.121389213949441910e-02,5.299732089042663574e-03,-1.922937668859958649e-02,-1.241792365908622742e-02
4.112610593438148499e-03,4.178300965577363968e-03,-1.036198716610670090e-02,-1.379271969199180603e-03,-3.554709721356630325e-03,1.451302506029605865e-02,-9.082681685686111450e-02,-2.066441997885704041e-02,-4.561509191989898682e-02,-4.240375757217407227e-02,-1.692024408839643002e-03,2.163257915526628494e-03,2.214411797467619181e-04,-3.304117172956466675e-02,9.826272726058959961e-03,5.766365677118301392e-03,-9.444996714591979980e-03,-5.437834654003381729e-03,3.533140197396278381e-02,-5.342039745301008224e-03,1.480233203619718552e-02,6.742083467543125153e-03,5.399796646088361740e-03,-9.853455703705549240e-04,-2.043822966516017914e-02,7.343515288084745407e-03,-8.467851206660270691e-03,-1.341907493770122528e-02,-9.560002014040946960e-03,-2.189774252474308014e-02,3.444729372859001160e-03,1.551798451691865921e-02,-7.699967175722122192e-02,-1.174708362668752670e-03,3.178111836314201355e-02,-1.674587465822696686e-02,4.600846674293279648e-03,-3.885022597387433052e-03,5.199079215526580811e-02,-5.477426107972860336e-03,-1.849330402910709381e-02,4.811614344362169504e-04,-1.333082746714353561e-02,-1.999779371544718742e-03,-1.560619380325078964e-02,-5.959888920187950134e-03,-5.730153992772102356e-03,-1.116032432764768600e-02,-1.442274358123540878e-02,3.590870648622512817e-03,3.574278671294450760e-03,8.868934586644172668e-03,3.425514325499534607e-03,8.189947344362735748e-03,6.733389571309089661e-03,-2.429690212011337280e-03
3.419493790715932846e-03,-3.777289239224046469e-04,-9.171724319458007812e-03,4.498391412198543549e-03,4.686237778514623642e-03,2.727354131639003754e-02,1.067744940519332886e-02,-4.186816979199647903e-03,-1.733008585870265961e-02,-1.880413037724792957e-03,3.959076013416051865e-03,-3.575979033485054970e-03,1.867117919027805328e-02,3.251419961452484131e-02,-7.086710538715124130e-03,7.606139872223138809e-03,-6.730949971824884415e-03,3.029207873623818159e-04,-1.759355305694043636e-03,1.331492140889167786e-02,-1.217525801621377468e-03,4.567520692944526672e-03,-3.175701946020126343e-03,-7.365250028669834137e-03,9.628495201468467712e-03,-4.620780237019062042e-03,-1.071588019840419292e-03,3.362890705466270447e-02,2.072035521268844604e-02,-2.860911423340439796e-03,-6.724977865815162659e-03,-1.641969382762908936e-02,2.139421738684177399e-02,3.031235747039318085e-02,3.600809141062200069e-04,6.005454342812299728e-03,-1.243991591036319733e-02,8.170543238520622253e-03,-2.908144087996333838e-04,-4.468143742997199297e-04,1.116292737424373627e-02,-3.811112139374017715e-03,-8.031845092773437500e-03,-5.033629480749368668e-03,-3.546302020549774170e-02,-1.593697629868984222e-02,-6.278132088482379913e-03,-1.765521802008152008e-02,-1.199899520725011826e-02,-2.567651495337486267e-02,-1.354753039777278900e-02,-1.858503324910998344e-03,-8.282288908958435059e-03,-8.255464490503072739e-04,2.450843341648578644e-03,-1.087129767984151840e-02
-5.535955075174570084e-03,-1.523683406412601471e-02,-1.617185398936271667e-02,-6.402258295565843582e-03,-2.166536636650562286e-03,1.314132008701562881e-02,1.392587721347808838e-01,7.244431227445602417e-02,2.576709911227226257e-02,-2.273180522024631500e-03,2.870681928470730782e-03,8.513413369655609131e-03,3.038141876459121704e-02,-6.182069890201091766e-03,-2.018314227461814880e-02,1.673403754830360413e-02,8.574700914323329926e-03,1.286536734551191330e-02,-1.006076857447624207e-02,1.494903769344091415e-02,2.785865217447280884e-03,-8.886102004908025265e-04,-1.809765584766864777e-02,-2.358461730182170868e-03,7.142712920904159546e-02,-2.156457491219043732e-02,5.272544920444488525e-03,1.734596118330955505e-02,-4.139751195907592773e-03,2.298719063401222229e-02,-8.935190737247467041e-03,-1.802785508334636688e-02,1.127314269542694092e-01,1.280404161661863327e-02,1.024787575006484985e-01,8.621862530708312988e-02,4.963492043316364288e-03,-2.084391191601753235e-03,4.093657247722148895e-03,3.382146591320633888e-03,-2.831679012160748243e-04,1.173547562211751938e-02,-1.259084697812795639e-02,2.879469469189643860e-02,-3.241817653179168701e-02,3.406189009547233582e-02,-1.284499373286962509e-02,1.724955439567565918e-02,-1.246958225965499878e-02,-1.983583718538284302e-02,1.927661709487438202e-02,-8.235172368586063385e-03,1.863843947649002075e-02,1.592075452208518982e-03,-1.260351203382015228e-02,4.892387427389621735e-03
-7.221491076052188873e-03,4.763223230838775635e-03,-4.511676379479467869e-04,-1.277531962841749191e-03,-3.702684189192950726e-04,-1.294512953609228134e-02,5.076313763856887817e-02,4.286695122718811035e-01,2.304186485707759857e-02,1.024380102753639221e-01,-9.420175338163971901e-04,-2.750188577920198441e-03,2.380290767177939415e-03,-2.351491525769233704e-02,7.336390018463134766e-02,8.114935480989515781e-04,-4.249664023518562317e-03,-4.833428189158439636e-03,1.027331128716468811e-01,-1.088431943207979202e-02,1.236798614263534546e-02,-1.114021334797143936e-02,1.481803879141807556e-02,1.665082015097141266e-02,-2.385814674198627472e-02,-6.932573765516281128e-02,3.527615917846560478e-03,-3.625745698809623718e-02,4.806033801287412643e-03,-3.736185431480407715e-01,-1.690009841695427895e-03,2.539980411529541016e-02,-2.914562262594699860e-02,-1.345473248511552811e-02,-8.177011273801326752e-03,3.099531680345535278e-02,1.398432650603353977e-03,-3.019455587491393089e-03,-4.366714954376220703e-01,2.267789840698242188e-02,-2.620497345924377441e-02,1.211481634527444839e-03,-2.952586160972714424e-03,-2.194519765907898545e-04,4.490562379360198975e-01,1.129528880119323730e-01,1.893369830213487148e-03,-3.330854000523686409e-03,6.185179203748703003e-02,-1.960853114724159241e-03,4.902082309126853943e-02,-1.898763626813888550e-01,-3.403183817863464355e-02,3.883459419012069702e-02,-1.325319753959774971e-03,3.432430094107985497e-03
-5.518622230738401413e-03,-1.657361164689064026e-03,-2.182140713557600975e-03,-4.087211564183235168e-04,-2.129467204213142395e-03,1.826887484639883041e-03,1.120891496539115906e-01,6.579373031854629517e-03,5.441571772098541260e-02,-1.889487914741039276e-02,-1.412643818184733391e-03,2.074685879051685333e-03,1.002411474473774433e-03,-1.020992267876863480e-02,1.199557185173034668e-01,8.589883800595998764e-04,-3.458299033809453249e-06,-5.874538910575211048e-04,-5.977870896458625793e-02,-1.817623525857925415e-02,3.798547387123107910e-02,-3.907899837940931320e-03,2.127514593303203583e-02,5.653372034430503845e-03,5.694724246859550476e-02,-1.216086298227310181e-01,-6.146398955024778843e-04,-1.449357718229293823e-02,-2.184104640036821365e-03,3.954962268471717834e-02,-3.525326726958155632e-03,1.957531832158565521e-02,-5.012399516999721527e-03,-6.104397121816873550e-03,1.441796869039535522e-01,-1.757231205701828003e-01,-1.423974870704114437e-03,2.213044062955304980e-04,3.924778476357460022e-02,3.433998301625251770e-02,-2.891612611711025238e-02,-3.060903865844011307e-03,7.803007028996944427e-04,5.007738363929092884e-04,3.812950477004051208e-02,-4.474102333188056946e-02,-3.986530937254428864e-03,1.973090460523962975e-03,2.127393335103988647e-02,1.631352235563099384e-03,-1.065282523632049561e-01,1.759789139032363892e-02,-2.065453305840492249e-02,4.318294301629066467e-02,-1.533555332571268082e-03,2.452941611409187317e-03
7.389716920442879200e-04,-1.171573880128562450e-03,-6.280469242483377457e-04,1.511002192273736000e-03,-2.095827134326100349e-03,1.428654650226235390e-03,1.295756921172142029e-02,3.898559603840112686e-03,2.477248571813106537e-02,-2.189439721405506134e-03,-1.160132931545376778e-03,-1.654446241445839405e-03,-2.305908419657498598e-04,8.796056732535362244e-03,5.000839382410049438e-02,5.060545518063008785e-04,-2.149360952898859978e-03,-2.081060782074928284e-03,1.390677317976951599e-02,2.776912515400908887e-05,9.721533861011266708e-04,-2.748989732936024666e-03,1.980027416720986366e-03,-5.344954784959554672e-03,-1.490690978243947029e-03,-1.078569889068603516e-01,-2.573936711996793747e-03,1.622298732399940491e-03,3.528074012137949467e-04,5.385359749197959900e-03,-5.644986522383987904e-04,3.196754725649952888e-03,2.202287316322326660e-02,4.215864464640617371e-03,1.977408118546009064e-02,-4.178479313850402832e-02,1.490862632635980844e-04,1.262477948330342770e-03,-5.580156575888395309e-03,2.080006059259176254e-03,-2.180385403335094452e-03,3.398270579054951668e-03,-9.502096800133585930e-04,-1.074219355359673500e-03,-2.439687727019190788e-03,4.456672072410583496e-02,1.251723850145936012e-03,-8.897222578525543213e-04,1.943676150403916836e-03,-1.196788623929023743e-03,-9.070524573326110840e-02,-2.578529343008995056e-02,1.176551915705204010e-03,-2.667170156200882047e-05,-4.329681396484375000e-04,-1.479248050600290298e-03
-4.376359866000711918e-04,3.795701195485889912e-04,-5.288125248625874519e-04,-1.259270065929740667e-04,-4.113083123229444027e-04,-5.907301674596965313e-04,-3.389710094779729843e-03,1.195494784042239189e-03,-1.694217324256896973e-02,-1.635437249206006527e-03,8.726472151465713978e-04,-2.162344753742218018e-03,3.124033901258371770e-05,-2.281119814142584801e-03,2.583126304671168327e-03,1.817843061871826649e-03,1.259934972040355206e-03,7.356725982390344143e-04,-9.862099774181842804e-03,-2.557228144723922014e-04,9.752661571837961674e-04,-2.726717153564095497e-03,2.338350052013993263e-03,9.204201633110642433e-04,-7.560341618955135345e-04,-1.175758242607116699e-02,4.688793851528316736e-04,-2.058075508102774620e-03,-1.014683512039482594e-03,7.168160518631339073e-04,1.194381111417897046e-04,3.687196294777095318e-04,-1.955566927790641785e-02,-7.127662538550794125e-04,-8.585194125771522522e-03,9.862703271210193634e-03,-1.339017529971897602e-03,-5.194864934310317039e-04,-1.236814819276332855e-02,-5.092416540719568729e-04,-2.050810726359486580e-03,4.930669674649834633e-04,-2.263108908664435148e-04,1.190283801406621933e-03,-1.024493831209838390e-03,1.294415071606636047e-02,8.458184893243014812e-04,-3.696310741361230612e-04,1.392164640128612518e-02,1.031442894600331783e-03,1.449822355061769485e-02,-2.623111754655838013e-02,-1.210198272019624710e-03,-1.990418095374479890e-04,-6.111752591095864773e-04,1.069811987690627575e-03
-1.839566160924732685e-03,-2.820854424498975277e-04,1.934946631081402302e-03,-2.539094304665923119e-03,8.171855588443577290e-04,1.755878183757886291e-04,1.518250349909067154e-02,4.090342670679092407e-03,-9.070865809917449951e-02,3.222801955416798592e-03,2.939000478363595903e-05,-3.414283273741602898e-04,-4.653265641536563635e-04,-4.902677610516548157e-04,-3.472647164016962051e-03,-3.779855614993721247e-05,4.286051844246685505e-04,6.474331603385508060e-04,-6.957233417779207230e-04,-8.387164562009274960e-04,-2.274378901347517967e-03,-1.019374933093786240e-03,1.968462602235376835e-04,2.250093966722488403e-03,1.855346187949180603e-02,3.307228675112128258e-03,7.601086399517953396e-04,-9.697400382719933987e-04,-2.155923284590244293e-03,3.214925900101661682e-02,-4.224403164698742330e-05,-1.915135420858860016e-03,-7.865021377801895142e-02,-3.292648761998862028e-04,1.553041487932205200e-02,1.282287389039993286e-02,1.637653564102947712e-03,-4.564216651488095522e-04,2.558878157287836075e-03,1.907226862385869026e-03,2.396410796791315079e-03,1.473752432502806187e-03,-7.010115077719092369e-04,-1.550454762764275074e-04,-2.967637777328491211e-02,-1.488009188324213028e-02,3.936410066671669483e-04,1.319039583904668689e-04,-4.635959863662719727e-02,4.835920117329806089e-05,-3.602139418944716454e-03,2.358081005513668060e-02,-1.159848645329475403e-03,3.212435171008110046e-03,1.338608562946319580e-03,1.344183459877967834e-03
-4.835115280002355576e-03,6.077635334804654121e-04,-4.161200486123561859e-04,7.512645097449421883e-04,1.250927452929317951e-03,-4.808882076758891344e-04,3.380812704563140869e-02,4.276996478438377380e-03,-7.586114853620529175e-02,7.908120006322860718e-02,-6.085842032916843891e-04,-1.524022547528147697e-03,-8.826643461361527443e-04,3.132914891466498375e-03,-1.051344559527933598e-03,4.424965009093284607e-03,2.287691924721002579e-03,-1.047183759510517120e-03,4.772404581308364868e-02,-1.283034682273864746e-03,4.083844396518543363e-05,-1.757325255312025547e-03,2.473070751875638962e-03,9.613046131562441587e-06,6.562963128089904785e-02,-3.672195365652441978e-03,-1.683091861195862293e-03,-3.719102358445525169e-03,-9.534457931295037270e-04,2.541284449398517609e-02,1.271861605346202850e-03,-2.986981533467769623e-03,-2.150752209126949310e-02,-3.206923371180891991e-03,1.612625271081924438e-02,2.794548403471708298e-03,9.613934089429676533e-04,-1.353377738269045949e-04,2.443405240774154663e-02,-3.475706791505217552e-03,1.266753487288951874e-02,1.009693020023405552e-03,-1.869171974249184132e-03,1.526973675936460495e-03,-3.902403637766838074e-02,1.580212265253067017e-02,-5.372610175982117653e-04,-1.350516686215996742e-03,-1.447472125291824341e-01,1.332635642029345036e-03,4.092304036021232605e-03,4.595903679728507996e-02,-3.012333530932664871e-03,-2.849767683073878288e-03,9.092964464798569679e-04,3.513320989441126585e-04
-4.751794971525669098e-03,3.300351323559880257e-03,-4.385537467896938324e-03,-4.230120684951543808e-03,5.094468593597412109e-03,2.753715030848979950e-03,-1.731027849018573761e-03,1.593557302840054035e-03,-4.144841432571411133e-02,-2.512781880795955658e-02,-5.444381386041641235e-03,-3.274802817031741142e-03,-5.702557973563671112e-03,-2.874612109735608101e-03,5.080455448478460312e-03,2.099947305396199226e-03,2.522583585232496262e-03,1.086542382836341858e-03,2.694837935268878937e-02,3.255233168601989746e-03,2.911355346441268921e-03,1.976523082703351974e-03,3.894749796018004417e-03,5.877992603927850723e-03,-1.530737727880477905e-01,-4.632158670574426651e-03,-2.870904048904776573e-03,-4.727395717054605484e-03,-1.827661530114710331e-03,3.952083364129066467e-02,4.267445765435695648e-03,-2.947931410744786263e-03,-1.540452614426612854e-02,-7.285693194717168808e-03,-7.001017685979604721e-03,6.639789324253797531e-03,-1.299243536777794361e-03,-2.423341851681470871e-03,1.629863120615482330e-02,-1.532635185867547989e-02,7.838968187570571899e-03,3.751015989109873772e-03,1.111332443542778492e-03,1.002177130430936813e-03,-4.668913781642913818e-02,-1.176715944893658161e-03,1.698281965218484402e-03,-1.384179806336760521e-03,-2.201819978654384613e-02,2.271358855068683624e-03,-9.166519157588481903e-04,3.188915550708770752e-02,2.138000447303056717e-03,5.689533893018960953e-03,-3.161697415634989738e-03,2.320895204320549965e-03
-1.880922121927142143e-03,5.605309735983610153e-03,-2.684678183868527412e-03,-5.323251709342002869e-03,-4.638761281967163086e-03,4.034981131553649902e-03,-3.138308227062225342e-02,-2.112057991325855255e-02,-2.980304183438420296e-03,-1.751217804849147797e-02,-3.122475696727633476e-03,-4.839497269131243229e-04,2.025866415351629257e-03,-6.576652638614177704e-03,1.109750010073184967e-02,-3.081131028011441231e-03,-2.117417752742767334e-03,7.105522789061069489e-03,1.338826417922973633e-01,-2.131949586328119040e-04,-6.635045167058706284e-03,-2.226489596068859100e-03,-1.127396477386355400e-03,-2.615903504192829132e-03,-2.038731575012207031e-01,2.523851348087191582e-03,3.487908979877829552e-03,8.382236585021018982e-03,-1.480103353969752789e-03,1.668407954275608063e-02,6.613063160330057144e-03,-1.570777269080281258e-03,5.288126878440380096e-03,-5.752164361183531582e-05,-1.905090920627117157e-02,2.396170422434806824e-02,-6.198339164257049561e-03,-3.997128456830978394e-03,6.550767924636602402e-03,-2.485473407432436943e-03,-3.147838870063424110e-03,-3.065995872020721436e-03,1.626226585358381271e-03,1.219402533024549484e-03,-9.182874113321304321e-03,-1.537504605948925018e-02,-1.089356839656829834e-03,4.542989656329154968e-03,-1.893801800906658173e-02,-1.341218885499984026e-04,-7.390289567410945892e-03,-8.016510866582393646e-03,-3.941778559237718582e-03,6.450007203966379166e-03,2.039534971117973328e-03,4.249556222930550575e-04
-1.538291806355118752e-03,7.302942685782909393e-03,3.760631079785525799e-04,3.000517608597874641e-03,-2.754922490566968918e-03,4.077525809407234192e-03,-1.432168111205101013e-02,-1.388046052306890488e-02,5.832883529365062714e-03,1.746685011312365532e-04,2.905961358919739723e-03,6.472051609307527542e-03,-3.089255420491099358e-03,-1.195144560188055038e-02,7.703056093305349350e-03,2.768037840723991394e-03,-7.276182528585195541e-03,2.795120526570826769e-04,-2.134300395846366882e-02,-3.511835588142275810e-03,-2.564431633800268173e-03,-2.626079367473721504e-03,-4.874855745583772659e-03,-5.009411834180355072e-03,-9.051060676574707031e-02,3.139488166198134422e-03,-7.720780093222856522e-03,6.035657715983688831e-04,2.099443459883332253e-03,1.471638213843107224e-02,-5.017448682337999344e-03,-3.033734159544110298e-03,1.140164211392402649e-02,-3.421598579734563828e-03,-2.648767828941345215e-02,-3.246681764721870422e-03,-2.020080806687474251e-03,-1.188669726252555847e-02,-1.539571792818605900e-03,-2.578779589384794235e-03,6.884104106575250626e-03,-6.868416909128427505e-03,-1.043674070388078690e-03,-1.046813838183879852e-02,-1.220170292071998119e-03,7.761774118989706039e-03,-1.330264145508408546e-03,8.714342489838600159e-03,1.058278605341911316e-02,2.588355448096990585e-03,5.913589615374803543e-03,-9.425460360944271088e-03,7.145029027014970779e-03,2.083798870444297791e-03,-2.801906783133745193e-03,3.690470941364765167e-03
1.276086270809173584e-02,-9.964040946215391159e-04,-2.623101230710744858e-03,-3.269162494689226151e-03,2.844280563294887543e-03,-1.059124711900949478e-02,-2.013528160750865936e-02,-2.985394932329654694e-02,-1.342532504349946976e-02,-1.000000000000000000e+00,8.311333134770393372e-03,-1.937922206707298756e-03,8.007434080354869366e-04,-6.937839388847351074e-01,1.237591356039047241e-02,5.760388448834419250e-04,3.660588292405009270e-03,-8.617679588496685028e-03,6.118431687355041504e-01,3.765217261388897896e-03,1.854512654244899750e-02,9.085072204470634460e-03,1.286522205919027328e-02,2.000880613923072815e-02,2.804561555385589600e-01,6.897634826600551605e-03,8.272452279925346375e-03,-8.757022619247436523e-01,6.877494044601917267e-03,2.136238850653171539e-02,7.351588457822799683e-03,1.203779503703117371e-02,-3.232195973396301270e-02,1.155068632215261459e-02,4.268676638603210449e-01,-7.795215584337711334e-03,-2.410413697361946106e-03,1.106580160558223724e-02,2.799479989334940910e-03,2.132423594594001770e-02,6.453163805417716503e-04,-8.542635478079319000e-03,-9.889067150652408600e-03,3.308410523459315300e-03,-3.375707939267158508e-02,-1.051940955221652985e-02,-2.202200703322887421e-03,8.825394324958324432e-04,-1.364144682884216309e-01,-8.961501531302928925e-03,-3.125992417335510254e-02,3.914868086576461792e-02,1.427074801176786423e-02,-8.337815105915069580e-02,-2.272591926157474518e-03,-5.374855361878871918e-03
2.485076896846294403e-03,6.927041802555322647e-03,1.517227850854396820e-02,3.749488154426217079e-03,1.338501833379268646e-02,-4.747167695313692093e-03,1.771348528563976288e-02,-1.117293024435639381e-03,9.728437289595603943e-03,-1.119540631771087646e-02,-2.132983319461345673e-02,1.228778250515460968e-02,6.566251628100872040e-03,1.600306108593940735e-02,2.864502370357513428e-03,-4.523532465100288391e-03,1.174436183646321297e-03,-7.376063149422407150e-03,1.843269169330596924e-02,3.294546855613589287e-03,1.142541645094752312e-03,-2.929949667304754257e-03,-1.805786602199077606e-02,-1.144330296665430069e-02,-3.051461465656757355e-02,-8.984013460576534271e-03,1.150206103920936584e-02,2.557399682700634003e-03,-1.132058445364236832e-02,-4.630232695490121841e-03,-6.904918234795331955e-03,-1.760604674927890301e-03,-2.607651054859161377e-03,-1.443002559244632721e-02,1.148214656859636307e-02,4.675270989537239075e-03,-3.146680537611246109e-03,5.506096407771110535e-03,-2.485156245529651642e-02,-1.472114957869052887e-02,1.048431824892759323e-02,1.230943389236927032e-02,-2.562074223533272743e-03,-6.189974374137818813e-04,6.526498589664697647e-03,8.269912563264369965e-03,6.510077975690364838e-03,-3.151065902784466743e-03,5.195782519876956940e-03,4.398897290229797363e-03,2.478828653693199158e-02,-2.663290686905384064e-02,-2.233170671388506889e-03,1.282671559602022171e-02,-1.051704213023185730e-02,2.256466774269938469e-03
-7.456222083419561386e-03,-2.209226042032241821e-02,-1.104946807026863098e-02,1.515976153314113617e-02,1.076580677181482315e-02,6.655292585492134094e-03,-2.633053576573729515e-03,-1.741511560976505280e-02,-1.312919892370700836e-02,-3.435029461979866028e-02,-4.701337311416864395e-03,2.393324673175811768e-02,-4.441089928150177002e-03,-5.059952661395072937e-02,5.403073038905858994e-03,1.272717840038239956e-03,1.786015555262565613e-02,-6.353854550980031490e-04,3.169012069702148438e-02,2.093769377097487450e-03,6.307549774646759033e-04,2.687856904231011868e-04,3.360631642863154411e-03,3.945934586226940155e-03,-4.316862206906080246e-03,-2.219224534928798676e-02,-4.704154562205076218e-03,4.956444259732961655e-03,9.695941582322120667e-03,-4.404497798532247543e-03,-1.733613316901028156e-03,-3.271031891927123070e-03,7.204404100775718689e-04,-1.035494916141033173e-02,-5.378820933401584625e-03,-2.540341019630432129e-02,1.519761979579925537e-03,1.010820083320140839e-02,-2.276290208101272583e-02,-1.505128946155309677e-02,2.700836397707462311e-02,-4.703229758888483047e-03,-3.505209926515817642e-03,-3.080152906477451324e-03,1.491493266075849533e-02,-2.063280530273914337e-02,4.198757000267505646e-03,-1.257839147001504898e-02,-7.479928433895111084e-03,-1.833114586770534515e-02,4.266646690666675568e-03,-1.547964848577976227e-02,1.401587668806314468e-02,3.841286525130271912e-03,-7.492771372199058533e-03,1.158707495778799057e-02
1.382710225880146027e-02,-3.379407338798046112e-03,3.926413133740425110e-03,-8.990550413727760315e-03,-4.594033583998680115e-03,-3.408729098737239838e-03,-6.834438536316156387e-03,7.183419540524482727e-03,1.091637741774320602e-02,-4.923516418784856796e-03,-1.403509872034192085e-03,5.463709123432636261e-03,-1.508438959717750549e-02,8.796322345733642578e-02,-1.426609698683023453e-02,6.212181411683559418e-03,-4.209486767649650574e-03,-7.603963022120296955e-04,-5.702636390924453735e-02,2.354624681174755096e-03,1.098764315247535706e-02,1.158809196203947067e-02,1.059478521347045898e-02,-5.702015478163957596e-03,-7.022495847195386887e-03,5.417516804300248623e-04,4.126011859625577927e-03,-1.808167435228824615e-02,1.823637820780277252e-02,2.701334888115525246e-03,1.253306958824396133e-02,5.258489400148391724e-03,2.455231547355651855e-02,-2.530815312638878822e-03,-1.023212261497974396e-02,-7.090922910720109940e-03,7.208425085991621017e-04,-2.315803663805127144e-03,5.015456117689609528e-03,-1.400459744036197662e-02,-7.874884176999330521e-04,3.638606984168291092e-03,-1.339324284344911575e-02,2.875800128094851971e-04,1.152444910258054733e-02,-3.573099384084343910e-03,-5.074085667729377747e-03,4.168848972767591476e-03,1.878392510116100311e-02,5.871669389307498932e-03,-2.329626679420471191e-02,-5.231047514826059341e-03,8.134561590850353241e-03,1.927701639942824841e-03,-1.277891732752323151e-02,4.064437933266162872e-03
-9.232147596776485443e-03,2.532573416829109192e-03,1.095123705454170704e-03,2.500521764159202576e-02,9.566810913383960724e-03,-4.174623638391494751e-03,3.846058249473571777e-02,2.714478224515914917e-02,5.335045978426933289e-03,-7.997643947601318359e-02,-4.832582082599401474e-03,1.916904188692569733e-02,5.719267297536134720e-03,-1.234496198594570160e-02,2.965156221762299538e-03,-2.187617588788270950e-03,5.400647409260272980e-03,-9.489038027822971344e-03,5.074195191264152527e-02,-2.526974538341164589e-03,1.062822062522172928e-02,8.658959530293941498e-03,1.218284573405981064e-02,9.187022224068641663e-03,2.817421965301036835e-02,5.465918034315109253e-02,-1.114570419304072857e-03,-4.484000056982040405e-02,1.489111315459012985e-02,-1.008551195263862610e-02,2.583150286227464676e-03,-1.938916742801666260e-03,-2.011517994105815887e-02,7.244524545967578888e-03,-1.028810068964958191e-02,-3.186333552002906799e-02,1.246262225322425365e-03,7.269849884323775768e-04,-8.261264301836490631e-03,7.037490140646696091e-03,6.332877092063426971e-05,1.008817832916975021e-02,-6.662323721684515476e-04,-1.229370292276144028e-02,-6.506460718810558319e-03,-1.290815696120262146e-02,-1.545479241758584976e-02,1.063968706876039505e-02,4.657931998372077942e-02,1.779720373451709747e-02,-3.436049446463584900e-02,1.383654307574033737e-02,-2.219744957983493805e-03,-1.375722140073776245e-02,-2.831185935065150261e-03,5.882148252567276359e-05
-3.689326345920562744e-03,-2.570214914157986641e-03,-6.957792211323976517e-03,5.811664741486310959e-03,1.850434462539851665e-03,-2.166773425415158272e-03,-5.815587472170591354e-03,-1.061348244547843933e-02,-3.457564860582351685e-02,-3.942248597741127014e-02,1.827056636102497578e-03,6.294248159974813461e-03,8.575459360145032406e-04,-2.673075906932353973e-02,2.407603524625301361e-02,4.279562737792730331e-03,7.199706044048070908e-03,7.751855067908763885e-03,-4.127759020775556564e-03,-1.917024329304695129e-02,-5.753111094236373901e-03,-1.595769077539443970e-02,-3.414750099182128906e-03,-3.133073076605796814e-02,1.430532778613269329e-03,-6.877699494361877441e-02,3.273733891546726227e-03,4.886829759925603867e-03,4.785580560564994812e-03,1.436106115579605103e-02,-9.448017925024032593e-03,-3.689195495098829269e-03,-2.597277984023094177e-02,-1.384131982922554016e-02,-8.572688326239585876e-03,1.867091283202171326e-02,1.447940897196531296e-02,8.576953550800681114e-04,-1.367449201643466949e-02,-2.614916115999221802e-02,2.124756760895252228e-02,-5.533997900784015656e-03,-9.277786128222942352e-03,-6.364710163325071335e-03,1.460871286690235138e-02,-4.661087691783905029e-02,-2.469560131430625916e-03,1.531596062704920769e-03,3.267299756407737732e-02,-1.749687083065509796e-02,-1.282937359064817429e-02,4.927467089146375656e-03,-1.557037327438592911e-02,1.533854054287075996e-03,2.943077124655246735e-03,-1.212616451084613800e-02
1.273823995143175125e-02,-4.019785206764936447e-03,-1.177817769348621368e-02,6.497895810753107071e-04,-8.618730120360851288e-03,6.627193652093410492e-03,-1.963961310684680939e-02,-5.829705391079187393e-03,-1.307492982596158981e-02,-2.800588682293891907e-02,2.516092732548713684e-03,3.559130243957042694e-03,1.093278545886278152e-02,-3.306218609213829041e-02,1.402625907212495804e-02,-1.777050271630287170e-02,7.892250083386898041e-03,-7.018732838332653046e-03,1.979560591280460358e-02,-8.809574879705905914e-03,6.812500301748514175e-03,7.113175000995397568e-03,1.581009663641452789e-02,7.769641466438770294e-03,-1.002516224980354309e-02,2.412591874599456787e-02,-9.955548193829599768e-06,1.149757858365774155e-02,9.926311904564499855e-04,-6.387023720890283585e-03,1.150156254880130291e-03,1.266503706574440002e-02,4.589601419866085052e-03,1.154318079352378845e-02,9.919480420649051666e-03,-1.716769300401210785e-02,-8.730680681765079498e-03,-1.297493372112512589e-02,9.782137349247932434e-04,-1.057292800396680832e-02,5.930318962782621384e-03,-1.577715761959552765e-02,-7.245465181767940521e-03,8.588368073105812073e-03,1.996685378253459930e-02,-1.030495017766952515e-02,-9.211940923705697060e-04,-2.622393658384680748e-03,2.151725627481937408e-02,9.528842754662036896e-03,-1.147293392568826675e-02,2.002313174307346344e-02,3.016067203134298325e-03,-6.567407981492578983e-04,4.803340416401624680e-03,1.079118903726339340e-02
3.525120671838521957e-03,-2.794650848954916000e-03,-1.726701483130455017e-02,-1.639568619430065155e-02,1.118252985179424286e-02,7.822919636964797974e-03,1.166707742959260941e-02,-3.596491878852248192e-04,-1.577042974531650543e-02,1.820091856643557549e-03,-1.235639583319425583e-02,-1.479384303092956543e-02,8.872856386005878448e-03,4.591878876090049744e-02,-1.292089466005563736e-03,-4.987274762243032455e-03,3.739688079804182053e-03,8.058854378759860992e-03,8.242825977504253387e-03,-4.329774528741836548e-03,1.536431442946195602e-02,-1.614413969218730927e-02,1.199841126799583435e-02,6.254335865378379822e-03,1.311334595084190369e-02,1.981025096029043198e-03,-4.811785649508237839e-03,-1.798976399004459381e-02,8.968241512775421143e-03,2.846792340278625488e-02,-2.008429262787103653e-03,9.456721134483814240e-03,9.752932935953140259e-03,1.807179488241672516e-02,-2.519929222762584686e-02,5.898910108953714371e-03,3.291045548394322395e-03,4.204854834824800491e-03,7.808692753314971924e-03,1.192541047930717468e-02,-1.013030577450990677e-02,1.937643811106681824e-02,1.054563792422413826e-03,-4.515047185122966766e-04,-3.556693717837333679e-02,1.555437687784433365e-03,7.819325663149356842e-03,-2.044171793386340141e-03,-1.294466084800660610e-03,-2.031215280294418335e-02,-8.464307524263858795e-03,-5.537670105695724487e-03,-1.142073795199394226e-02,-9.572670795023441315e-03,-1.749729737639427185e-03,-1.484433095902204514e-02
7.719625718891620636e-03,3.250056470278650522e-04,3.716225503012537956e-03,-1.288514863699674606e-02,-1.832564175128936768e-02,-1.415067072957754135e-02,3.968375921249389648e-02,-1.173659600317478180e-02,-2.048675378318876028e-04,2.964885719120502472e-02,-7.720905356109142303e-03,5.968825891613960266e-03,1.365357264876365662e-02,4.687052220106124878e-03,-2.350373379886150360e-02,3.109236247837543488e-03,7.189425639808177948e-03,6.164548452943563461e-03,9.928356856107711792e-03,3.416664898395538330e-03,-4.005053546279668808e-03,4.192011430859565735e-03,-1.935503818094730377e-02,1.761130802333354950e-02,5.901255086064338684e-02,-7.932548411190509796e-03,-1.269332878291606903e-02,-9.894748218357563019e-03,8.179304189980030060e-03,5.728898569941520691e-02,-6.235020235180854797e-03,-1.764475135132670403e-03,3.106529824435710907e-02,1.824692077934741974e-02,5.557628720998764038e-02,9.265164285898208618e-02,-1.271261950023472309e-03,1.162701658904552460e-02,4.046688973903656006e-02,1.117902807891368866e-02,-1.849508285522460938e-02,1.419322006404399872e-02,-5.817308090627193451e-03,-4.439030308276414871e-03,-1.801875047385692596e-02,2.089283429086208344e-02,-1.505556236952543259e-02,3.899311413988471031e-03,-7.594770938158035278e-02,-1.182935014367103577e-02,3.933892771601676941e-02,-3.822102397680282593e-02,2.787217125296592712e-02,1.773440465331077576e-02,-1.224142499268054962e-02,1.567902043461799622e-03
5.922544281929731369e-03,-1.548347296193242073e-03,7.693971274420619011e-04,-2.303904155269265175e-03,-1.705585978925228119e-03,4.825728479772806168e-03,-2.655664086341857910e-02,-1.007101759314537048e-01,-2.804681658744812012e-01,-2.973167970776557922e-02,-5.491063930094242096e-04,1.076657325029373169e-02,3.152752760797739029e-03,5.084998160600662231e-02,-1.082416158169507980e-02,-2.780491020530462265e-03,-4.827545024454593658e-03,-1.544068916700780392e-03,-8.643432520329952240e-03,1.079660002142190933e-02,-9.363642893731594086e-03,7.891636341810226440e-03,-1.284567266702651978e-02,-1.291789952665567398e-02,4.756199941039085388e-02,-9.985868819057941437e-04,1.959867542609572411e-03,-2.001972403377294540e-03,8.214922621846199036e-03,1.555592417716979980e-01,-5.300361197441816330e-03,-1.130243949592113495e-02,-1.452821493148803711e-01,1.024127472192049026e-02,-5.835817009210586548e-02,-2.410232089459896088e-02,5.400103982537984848e-03,6.607347168028354645e-03,1.459361314773559570e-01,-1.163188461214303970e-02,1.180244609713554382e-02,-5.225441884249448776e-03,-3.620239906013011932e-03,-9.343761485069990158e-04,-1.255504190921783447e-01,1.013248786330223083e-01,-4.476481117308139801e-03,4.153979010879993439e-03,1.053397357463836670e-02,5.812308751046657562e-03,-8.384979516267776489e-02,2.212717831134796143e-01,1.188038289546966553e-02,-1.324241235852241516e-02,3.472134936600923538e-03,-6.961067672818899155e-03
1.097306888550519943e-02,-4.360754974186420441e-03,5.929002538323402405e-03,-8.745357627049088478e-04,-1.889516715891659260e-03,2.183023095130920410e-02,-8.326571434736251831e-02,-1.698003895580768585e-02,-4.922062903642654419e-02,1.183570246212184429e-03,8.426377549767494202e-03,-7.903650403022766113e-03,1.506673579569905996e-04,6.984454579651355743e-03,-2.442007325589656830e-02,4.394467920064926147e-03,2.533179009333252907e-03,7.957701571285724640e-03,1.215110644698143005e-01,3.173774480819702148e-02,-5.400331318378448486e-02,1.561206206679344177e-02,-4.155087471008300781e-02,-4.185801744461059570e-02,-1.003172099590301514e-01,2.913169860839843750e-01,-3.604025114327669144e-03,6.486528087407350540e-03,-7.715522078797221184e-04,-9.622178971767425537e-02,-5.312335561029613018e-04,-3.892810642719268799e-02,5.702655389904975891e-02,2.437576651573181152e-02,-1.224992871284484863e-01,-1.860909312963485718e-01,-4.713137750513851643e-04,-5.644432734698057175e-03,-2.650556713342666626e-02,-4.118328541517257690e-02,4.635103791952133179e-02,6.974131800234317780e-03,-3.144672373309731483e-03,-2.164645818993449211e-03,-4.744206555187702179e-03,-1.425301432609558105e-01,1.727827708236873150e-03,-7.671931292861700058e-03,-2.962220460176467896e-02,9.851009817793965340e-04,3.141854405403137207e-01,-2.571196109056472778e-02,4.250598698854446411e-02,-4.294240474700927734e-02,4.427870269864797592e-03,1.909589336719363928e-04
2.118344185873866081e-03,-4.667960456572473049e-04,1.903028110973536968e-03,3.132373327389359474e-03,-2.353684278205037117e-03,-7.277867553057149053e-05,1.878314651548862457e-02,8.826121687889099121e-02,-3.240403905510902405e-02,-3.422478446736931801e-03,1.462453161366283894e-03,1.093975384719669819e-03,-7.240097038447856903e-04,-7.968366146087646484e-03,4.414052516222000122e-02,-1.395117142237722874e-03,8.602534653618931770e-04,1.603178912773728371e-03,-4.218399152159690857e-02,3.012433182448148727e-03,-4.740376956760883331e-03,2.202066592872142792e-03,-4.210034385323524475e-03,-4.249769262969493866e-03,1.244720909744501114e-02,2.115768194198608398e-01,-2.367736451560631394e-04,6.614024285227060318e-03,-1.190524199046194553e-03,3.401428461074829102e-02,-1.692056423053145409e-03,-2.699814504012465477e-03,-6.120457500219345093e-02,2.941532526165246964e-03,-1.005293056368827820e-02,-1.088051423430442810e-01,4.541577072814106941e-04,-4.791612736880779266e-04,-8.487761765718460083e-02,-1.110731740482151508e-03,4.026083741337060928e-03,6.400679703801870346e-04,2.276239451020956039e-03,7.321594748646020889e-04,-3.431863710284233093e-02,3.579793870449066162e-02,-3.388414857909083366e-03,2.770400606095790863e-04,2.330373786389827728e-02,1.249767723493278027e-03,1.987817734479904175e-01,4.771563038229942322e-02,-4.035951860714703798e-04,-3.476918907836079597e-03,-1.139774452894926071e-03,6.054242257960140705e-04
4.728731699287891388e-03,2.448769810143858194e-04,-4.771196108777076006e-05,5.349359125830233097e-04,3.775198420044034719e-04,3.995855338871479034e-03,1.225299853831529617e-02,6.305828690528869629e-02,-4.373554512858390808e-02,-9.027812629938125610e-03,-1.889274106360971928e-03,2.220826456323266029e-03,3.025725949555635452e-03,-2.640304621309041977e-03,-2.552465070039033890e-03,-4.264765419065952301e-03,-1.215134165249764919e-03,2.403590362519025803e-03,-9.198224171996116638e-03,-9.649195708334445953e-04,-2.665016567334532738e-03,1.915149623528122902e-03,-5.187122151255607605e-04,-3.485963912680745125e-03,4.987238906323909760e-03,3.770415112376213074e-02,8.191628730855882168e-04,3.239153651520609856e-03,4.610579926520586014e-04,4.697310924530029297e-02,1.446622045477852225e-04,6.484471959993243217e-04,-4.209721833467483521e-02,3.039529314264655113e-03,-4.431368783116340637e-03,-3.348511457443237305e-02,9.157982422038912773e-04,5.177913699299097061e-04,-5.791170522570610046e-02,4.083011765033006668e-03,-2.945692511275410652e-03,-1.775018521584570408e-03,2.800724469125270844e-04,-1.483327068854123354e-04,-2.359231002628803253e-02,-1.319909747689962387e-02,-3.882002318277955055e-03,1.471444964408874512e-03,5.631072819232940674e-02,-7.405047072097659111e-04,-4.429971799254417419e-02,-5.756488069891929626e-02,-1.489564776420593262e-03,-1.830754918046295643e-04,-3.632691223174333572e-04,-1.841465244069695473e-03
5.163712892681360245e-03,-1.223017694428563118e-03,-2.224283292889595032e-03,-6.715983618050813675e-04,-1.160535612143576145e-03,7.844163337722420692e-04,5.936561618000268936e-03,-3.252346301451325417e-03,-8.952061086893081665e-02,-1.062993612140417099e-02,-2.098768949508666992e-03,7.808603113517165184e-04,1.284486846998333931e-03,6.905908230692148209e-03,-4.440024867653846741e-02,-1.353133935481309891e-03,-2.789123682305216789e-03,-8.624122128821909428e-04,1.330030383542180061e-03,1.066882978193461895e-03,-1.021976931951940060e-03,1.717954175546765327e-03,-2.423720667138695717e-03,2.576261060312390327e-03,4.470725543797016144e-03,7.974852924235165119e-04,-2.028398448601365089e-04,3.439923515543341637e-03,2.093230374157428741e-03,1.115018948912620544e-01,-6.296723149716854095e-04,2.732098801061511040e-04,-8.945666998624801636e-02,2.034728415310382843e-03,1.323861163109540939e-02,2.630101144313812256e-02,-3.289340762421488762e-03,4.100339952856302261e-03,9.574637748301029205e-03,4.086667671799659729e-03,1.617064117453992367e-03,-1.284775207750499249e-04,-2.528748591430485249e-04,3.531086258590221405e-04,-1.339562684297561646e-01,-9.211197029799222946e-04,-2.556997584179043770e-03,-2.687484266061801463e-05,-5.071835219860076904e-02,-1.212567556649446487e-03,9.205075912177562714e-03,4.197033867239952087e-02,1.338797010248526931e-04,-4.664024803787469864e-03,-2.836306812241673470e-03,-6.539306195918470621e-05
3.015275346115231514e-03,1.389236887916922569e-03,4.788477963302284479e-05,-1.610919949598610401e-03,5.023438017815351486e-03,4.080315586179494858e-03,1.265689730644226074e-02,-2.871156437322497368e-03,-4.836741462349891663e-02,2.775368839502334595e-02,1.739226980134844780e-03,3.198289196006953716e-04,1.810724614188075066e-03,3.742899047210812569e-03,5.036939401179552078e-03,-2.056038007140159607e-03,7.336911512538790703e-04,1.144061796367168427e-03,2.453796565532684326e-02,8.956945966929197311e-04,-2.458792412653565407e-03,2.820275258272886276e-03,1.683367067016661167e-03,2.397996286163106561e-04,6.309252977371215820e-02,7.365880999714136124e-03,4.549858625978231430e-03,3.830732544884085655e-03,2.274319529533386230e-03,3.380077704787254333e-02,-2.374161966145038605e-03,3.561034100130200386e-04,-2.327349036931991577e-03,8.891863981261849403e-04,1.435165386646986008e-02,-4.848911613225936890e-02,7.079478818923234940e-04,-2.220120746642351151e-03,3.238973021507263184e-02,1.173810916952788830e-03,2.858313731849193573e-03,-3.597156901378184557e-04,4.386262968182563782e-03,4.529726691544055939e-03,-5.377589166164398193e-02,-3.066738368943333626e-03,1.063186093233525753e-03,3.155979211442172527e-04,-1.189497485756874084e-01,-1.162973232567310333e-03,-1.188237103633582592e-03,3.464336693286895752e-02,9.464243194088339806e-04,-4.336110781878232956e-03,2.675969852134585381e-03,-1.621554838493466377e-03
1.104951137676835060e-03,-6.709865294396877289e-03,-2.717886818572878838e-03,-3.248071006964892149e-04,1.036053407005965710e-03,1.598172471858561039e-03,-1.102703530341386795e-02,-9.469486773014068604e-03,-2.682695165276527405e-02,5.077092908322811127e-03,2.167789498344063759e-03,-4.495265427976846695e-03,-3.033170709386467934e-03,9.718007408082485199e-03,2.886212617158889771e-02,-4.020710941404104233e-03,-4.028920084238052368e-03,4.361380357295274734e-03,2.699923329055309296e-02,3.553568851202726364e-03,-5.292638670653104782e-03,4.062296822667121887e-03,3.276062430813908577e-03,5.000391975045204163e-03,-1.184872686862945557e-01,1.582551188766956329e-02,3.846372710540890694e-04,6.042785011231899261e-03,-1.123225595802068710e-02,3.689276799559593201e-02,3.732663346454501152e-03,-4.573379410430788994e-04,-9.801925159990787506e-03,-5.751921795308589935e-03,-2.135153301060199738e-02,-4.346286412328481674e-03,1.658925903029739857e-03,-1.017863303422927856e-02,-3.732236800715327263e-03,-1.015995535999536514e-02,1.268212869763374329e-02,-1.992427743971347809e-03,-6.980292499065399170e-03,-1.086657634004950523e-03,-2.614548988640308380e-02,-1.123493537306785583e-02,7.612477056682109833e-03,-1.839231699705123901e-03,-2.986497990787029266e-02,-2.604187175165861845e-04,1.020925212651491165e-02,1.923422329127788544e-02,-2.366885775700211525e-03,8.072389289736747742e-03,-1.689519383944571018e-03,4.004562739282846451e-03
6.245370488613843918e-03,-2.526594791561365128e-03,8.669681847095489502e-04,1.153097022324800491e-02,8.169609486685658339e-07,-1.616879948414862156e-03,-1.964268460869789124e-02,-3.846758231520652771e-02,-3.811603644862771034e-03,-6.755496840924024582e-03,3.294636495411396027e-03,3.520898753777146339e-03,3.646019380539655685e-03,2.467051148414611816e-03,1.072513218969106674e-02,-1.880272058770060539e-03,-2.668074565008282661e-03,7.168204174377024174e-04,7.461550086736679077e-02,-1.196993608027696609e-02,-3.467875067144632339e-03,-3.432515077292919159e-03,-2.300997264683246613e-03,-2.997894771397113800e-03,-1.121562123298645020e-01,6.749108433723449707e-03,5.431248340755701065e-03,-1.035435197991319001e-04,7.084613316692411900e-04,3.241648431867361069e-03,1.543233171105384827e-03,2.430873457342386246e-03,8.304242976009845734e-03,3.650974016636610031e-03,-8.207949809730052948e-03,-3.548459499143064022e-04,-4.092726390808820724e-03,9.424619929632171988e-05,3.291976638138294220e-03,8.231808897107839584e-05,5.887199658900499344e-04,2.697812451515346766e-04,-4.757836461067199707e-03,-1.104682218283414841e-03,-1.560436468571424484e-02,-1.052223891019821167e-02,-1.477497979067265987e-03,-6.312820594757795334e-03,-8.221106603741645813e-03,-6.250237580388784409e-03,-6.291378289461135864e-03,-4.456442780792713165e-03,-4.185778088867664337e-03,4.081803373992443085e-03,-2.410141605651006103e-04,1.043955236673355103e-02
-1.186457579024136066e-03,7.613236084580421448e-04,1.458545797504484653e-03,1.593152526766061783e-03,1.036093197762966156e-02,9.454674087464809418e-03,5.623759934678673744e-04,1.014124043285846710e-02,-6.691654678434133530e-03,7.845951244235038757e-03,4.509879741817712784e-03,3.278777934610843658e-03,-4.211614839732646942e-03,-1.749302260577678680e-02,9.143028408288955688e-03,-2.830847806762903929e-04,-8.551743812859058380e-03,8.066227659583091736e-03,-2.087011374533176422e-02,-7.950268685817718506e-03,1.515948586165904999e-02,-1.039928523823618889e-03,1.498519163578748703e-02,-2.821378409862518311e-03,-5.877727642655372620e-02,-5.440799053758382797e-03,-8.891402743756771088e-03,-1.004490070044994354e-02,-3.494284115731716156e-03,1.920361816883087158e-02,-2.904321067035198212e-03,1.157270744442939758e-02,1.204003859311342239e-02,-2.711459528654813766e-03,-1.500427164137363434e-02,-1.434371434152126312e-02,-1.349024288356304169e-02,-6.002903915941715240e-03,1.762874796986579895e-02,1.275168615393340588e-03,2.087141154333949089e-03,-2.519740490242838860e-03,-7.913164794445037842e-03,5.785866640508174896e-03,-1.132969185709953308e-02,-1.901414245367050171e-03,1.762813888490200043e-03,4.232591949403285980e-03,-4.702977370470762253e-03,-2.498612739145755768e-03,2.220270223915576935e-02,-3.423739224672317505e-03,-1.406058552674949169e-03,-1.771692768670618534e-03,-5.334200803190469742e-03,-2.568815834820270538e-03
-5.157477062311954796e-05,9.715844877064228058e-03,-1.225043088197708130e-03,1.493126736022531986e-03,-1.963432878255844116e-03,-9.010124951601028442e-03,-3.278195392340421677e-03,-1.670168153941631317e-02,-2.040396444499492645e-02,-4.246079623699188232e-01,-5.636927206069231033e-03,8.842917159199714661e-03,1.038341410458087921e-02,-6.537696123123168945e-01,6.675545126199722290e-03,1.431542332284152508e-03,-1.593126170337200165e-02,-8.649438968859612942e-04,5.457097291946411133e-01,2.605130663141608238e-03,5.594628397375345230e-03,9.595017880201339722e-03,1.254848949611186981e-02,1.902955025434494019e-02,3.284427821636199951e-01,4.164125304669141769e-03,-9.459887631237506866e-03,-5.821185111999511719e-01,-1.034272555261850357e-02,6.221102550625801086e-03,-9.235777892172336578e-03,1.333274878561496735e-02,5.628134123980998993e-03,6.109991110861301422e-03,4.777533113956451416e-01,5.809019203297793865e-04,2.824643626809120178e-03,4.243364091962575912e-03,9.256214834749698639e-03,6.397790741175413132e-03,-1.362696848809719086e-02,1.086221728473901749e-02,-7.236856617964804173e-04,-4.458375275135040283e-03,4.920999053865671158e-03,2.508103381842374802e-03,-1.220547314733266830e-02,1.301188953220844269e-03,-1.245209127664566040e-01,-6.936021381989121437e-04,-1.285062171518802643e-02,1.881362684071063995e-02,5.019139032810926437e-03,-6.597866863012313843e-02,-2.295959508046507835e-03,-1.496225944720208645e-03
7.306131010409444571e-05,3.276691306382417679e-03,7.195700425654649734e-03,-2.442770404741168022e-03,-2.806667704135179520e-03,-1.557558309286832809e-02,2.702284045517444611e-02,-3.874921938404440880e-03,1.065827812999486923e-02,8.305318653583526611e-02,-6.106216926127672195e-03,1.417316962033510208e-02,-1.145631726831197739e-02,5.291320011019706726e-02,1.806568168103694916e-02,-1.397723052650690079e-02,-1.148733217269182205e-02,1.686390303075313568e-02,-1.702553592622280121e-02,-4.451330285519361496e-03,-6.089771166443824768e-03,-6.394878146238625050e-04,-5.488240858539938927e-04,5.840000230818986893e-03,-6.965292990207672119e-02,-5.145331379026174545e-03,6.672035902738571167e-03,6.732220202684402466e-02,8.193909190595149994e-03,-2.342739328742027283e-02,-4.301423206925392151e-03,1.996587729081511497e-03,-1.144808484241366386e-03,9.467037161812186241e-04,-2.510461024940013885e-03,5.905947647988796234e-03,1.862637884914875031e-02,-2.204600907862186432e-02,-3.402006998658180237e-02,2.984335646033287048e-03,-1.783920743037015200e-04,-6.653498858213424683e-04,1.050971169024705887e-02,-4.081676248461008072e-03,1.571308821439743042e-02,-3.766914084553718567e-02,-1.304416172206401825e-02,-6.006734911352396011e-03,1.251429691910743713e-02,-5.512634757906198502e-03,1.052097976207733154e-02,-1.482293196022510529e-02,5.207854788750410080e-03,1.936134137213230133e-02,-3.082289360463619232e-03,1.246719527989625931e-02
4.803389776498079300e-03,8.615807630121707916e-03,-1.726266555488109589e-02,-1.091056223958730698e-02,4.440221469849348068e-03,-8.523066644556820393e-04,2.218731911852955818e-03,-1.988825155422091484e-03,-5.306609440594911575e-03,-1.799649186432361603e-02,8.570281788706779480e-04,-1.553766778670251369e-03,-4.006306175142526627e-03,-2.225801534950733185e-02,2.776332199573516846e-02,1.116293668746948242e-02,1.392134185880422592e-02,1.811055280268192291e-02,3.075476968660950661e-03,-8.706692606210708618e-03,-1.076473947614431381e-02,-1.215779921039938927e-03,-7.595891598612070084e-03,-2.468522638082504272e-03,1.029373798519372940e-02,1.459167618304491043e-02,1.223846804350614548e-02,-5.566162988543510437e-03,-8.070562616921961308e-04,-1.365128532052040100e-02,9.332544170320034027e-03,4.181982483714818954e-03,-1.674705743789672852e-02,-1.944891177117824554e-03,-2.398660220205783844e-02,1.676441729068756104e-02,4.229382611811161041e-03,-1.823188038542866707e-03,-1.637890562415122986e-02,1.440441934391856194e-03,8.130181580781936646e-03,2.972005400806665421e-03,-4.929448477923870087e-03,1.860519871115684509e-02,4.693598486483097076e-03,-1.520542427897453308e-02,6.622356828302145004e-03,7.849569432437419891e-03,3.341676667332649231e-02,-8.901430410332977772e-04,6.239564623683691025e-03,-2.565796254202723503e-03,2.702072961255908012e-03,2.570994431152939796e-03,-1.279470790177583694e-02,-2.604152774438261986e-03
-1.346157951047644019e-04,2.745553385466337204e-03,2.898602513596415520e-03,-8.796484209597110748e-03,-1.174322795122861862e-02,-8.471237495541572571e-03,4.435877781361341476e-04,1.217332947999238968e-02,-8.246212266385555267e-03,6.861467659473419189e-02,4.138823132961988449e-03,-1.893268898129463196e-03,-3.190690185874700546e-03,2.380725927650928497e-02,-5.217615049332380295e-03,-2.100738510489463806e-02,-1.661751791834831238e-02,-3.736062673851847649e-03,-2.608964405953884125e-02,-2.978804288432002068e-03,1.484356122091412544e-03,-1.015738770365715027e-02,-7.292629219591617584e-03,1.853526383638381958e-02,-3.463648632168769836e-02,1.006940752267837524e-02,1.735384692437946796e-03,3.378824517130851746e-02,2.113314159214496613e-02,-1.534702256321907043e-02,-1.493491418659687042e-02,-6.245320662856101990e-03,-3.978633321821689606e-03,-3.224457381293177605e-03,-2.263152040541172028e-02,2.037023752927780151e-02,3.114774590358138084e-03,-1.556169614195823669e-02,-4.513199906796216965e-03,4.284443333745002747e-03,5.920316092669963837e-03,-1.148383971303701401e-02,-4.642072599381208420e-03,-1.853024819865822792e-03,-1.464062556624412537e-02,1.738996244966983795e-02,-3.071764018386602402e-03,1.665152981877326965e-02,-1.071862969547510147e-02,6.255666725337505341e-03,3.289114311337471008e-02,-2.751388773322105408e-02,8.255668915808200836e-03,7.805370260030031204e-03,1.488108001649379730e-02,-5.534952972084283829e-03
1.202281191945075989e-02,8.218342438340187073e-03,-1.495808828622102737e-03,-2.011192962527275085e-02,-1.138065010309219360e-02,-1.099810097366571426e-02,1.587018719874322414e-03,-1.537947636097669601e-02,-6.113054696470499039e-03,3.874305868521332741e-03,-1.130699311033822596e-04,-1.748079247772693634e-02,-9.239899925887584686e-03,-4.756632819771766663e-02,-3.227306762710213661e-03,8.916932158172130585e-03,-1.342784147709608078e-02,-6.773021537810564041e-03,3.809115290641784668e-02,6.818883586674928665e-03,-3.123554028570652008e-02,-1.461794320493936539e-02,-1.614162884652614594e-02,1.318553090095520020e-02,7.753085345029830933e-03,-4.194330424070358276e-02,5.959541071206331253e-03,-2.760045754257589579e-04,-7.878941483795642853e-03,5.064608994871377945e-04,1.455799094401299953e-03,-4.210214130580425262e-03,-1.788279041647911072e-02,-4.767689388245344162e-03,9.628704749047756195e-03,-3.148052468895912170e-02,-3.643165575340390205e-03,1.080134697258472443e-02,-3.130630776286125183e-02,-3.650197526440024376e-03,3.906666301190853119e-03,-3.711739322170615196e-03,-7.032658904790878296e-03,-8.512502536177635193e-03,8.300621062517166138e-03,9.180802851915359497e-03,2.480707131326198578e-02,-3.028618404641747475e-03,-1.039289776235818863e-02,7.300398428924381733e-04,5.826701968908309937e-02,3.541671670973300934e-03,-6.948206573724746704e-04,-2.479253569617867470e-03,3.373826039023697376e-04,-1.798283308744430542e-03
-1.181118097156286240e-02,4.973503295332193375e-03,1.725728623569011688e-02,2.209742926061153412e-02,3.442381508648395538e-03,1.488783396780490875e-03,1.651171781122684479e-02,-4.128858819603919983e-02,3.130227560177445412e-03,3.836809890344738960e-03,5.120623391121625900e-03,-7.453863508999347687e-03,-5.265936255455017090e-03,8.571770042181015015e-03,-1.705661043524742126e-02,-1.251376885920763016e-02,1.817830651998519897e-02,3.037445247173309326e-03,-1.192675996571779251e-02,6.524945143610239029e-03,8.707978413440287113e-04,-1.207401603460311890e-02,1.539270300418138504e-02,7.387286517769098282e-03,5.140027962625026703e-03,1.277546882629394531e-01,-1.564554125070571899e-02,2.984309196472167969e-02,-7.362585980445146561e-03,1.899143308401107788e-02,-1.261006947606801987e-02,-2.890774281695485115e-03,4.158574622124433517e-03,-3.021954093128442764e-03,-1.128320582211017609e-02,-4.788988828659057617e-02,2.444289810955524445e-02,-1.482177991420030594e-02,-3.015582263469696045e-02,5.407549440860748291e-03,-1.390306185930967331e-02,-2.557589672505855560e-03,-1.192114781588315964e-02,-2.552195219323039055e-03,6.535936892032623291e-02,8.271292783319950104e-03,4.284312017261981964e-03,4.449629690498113632e-03,3.257314860820770264e-02,-1.240648142993450165e-02,8.863433264195919037e-03,1.214446313679218292e-02,-8.952303323894739151e-04,-9.996516630053520203e-03,7.473868317902088165e-03,1.339296530932188034e-02
3.619536291807889938e-03,-7.845732383430004120e-03,-8.393285679630935192e-04,-1.230461243540048599e-02,-6.196327507495880127e-03,-9.214434539899230003e-04,3.947708755731582642e-02,4.770632088184356689e-02,-7.226013578474521637e-03,1.434997189790010452e-02,-2.363773062825202942e-02,-1.386275794357061386e-02,1.724425354041159153e-03,-1.008313242346048355e-02,2.003670670092105865e-02,5.936850327998399734e-03,4.477131646126508713e-03,-2.164233010262250900e-03,-1.299383235163986683e-03,-1.767563633620738983e-02,6.058214232325553894e-03,-4.210247658193111420e-03,1.191901043057441711e-02,6.583894137293100357e-03,-5.817040335386991501e-03,3.970899805426597595e-02,-2.643518382683396339e-03,2.472880529239773750e-03,-2.815974876284599304e-03,7.142326794564723969e-03,4.442116711288690567e-03,-2.648136811330914497e-03,-1.456793630495667458e-03,4.357834812253713608e-03,-9.363579447381198406e-04,-2.514366619288921356e-02,-4.611721727997064590e-03,-1.335058920085430145e-02,-2.721409127116203308e-02,-2.207023091614246368e-03,-9.938405128195881844e-04,1.216948777437210083e-02,-1.317916158586740494e-02,5.760848522186279297e-03,6.664147134870290756e-03,1.063217874616384506e-02,1.145749259740114212e-02,3.098547924309968948e-03,6.628734525293111801e-03,1.544526591897010803e-02,2.002825587987899780e-02,1.460100617259740829e-02,-2.061574719846248627e-02,1.537466794252395630e-02,7.263008155860006809e-04,1.232490688562393188e-02
1.414379663765430450e-02,1.604412449523806572e-03,-9.195805527269840240e-03,7.007875945419073105e-03,5.870021879673004150e-03,-6.897370330989360809e-03,1.144855562597513199e-02,-2.664594352245330811e-02,-2.034262008965015411e-02,-1.571982912719249725e-02,3.036658512428402901e-03,5.791244562715291977e-03,1.731059979647397995e-03,-3.519500605762004852e-03,-1.732214004732668400e-03,8.565654978156089783e-03,-7.590579334646463394e-03,4.124135244637727737e-03,7.815308868885040283e-03,1.917454181239008904e-03,-1.623239601030945778e-03,2.795629762113094330e-02,-1.362482551485300064e-02,-6.022093584761023521e-04,2.226069010794162750e-02,-4.544985294342041016e-02,2.077390998601913452e-02,-1.777959801256656647e-02,4.528804682195186615e-03,1.460431050509214401e-02,-6.651026662439107895e-03,-1.538694929331541061e-02,2.828668057918548584e-02,-2.120415447279810905e-03,1.332115568220615387e-02,1.495093572884798050e-02,-1.353811472654342651e-03,6.700708530843257904e-03,3.042861819267272949e-02,-3.062594914808869362e-03,9.334928356111049652e-03,-2.736007981002330780e-02,-2.266199793666601181e-03,7.746535353362560272e-03,-1.037570368498563766e-02,-8.878228254616260529e-03,4.398611199576407671e-04,5.956405308097600937e-03,9.892145171761512756e-03,2.324702683836221695e-03,-9.959577582776546478e-03,1.289419364184141159e-02,5.479831714183092117e-03,-1.781367696821689606e-02,-1.977849565446376801e-02,-5.085994489490985870e-03
2.838849090039730072e-02,-3.414358943700790405e-03,-1.695040799677371979e-02,3.580898744985461235e-03,-1.133347395807504654e-02,1.254933234304189682e-02,1.361813209950923920e-02,-2.906630374491214752e-02,-5.290571600198745728e-02,-3.563364967703819275e-02,3.861479461193084717e-03,1.885608211159706116e-02,1.063628494739532471e-02,-3.767872974276542664e-02,-2.702659927308559418e-02,-4.647477064281702042e-03,-3.060413990169763565e-03,2.429816406220197678e-03,8.149701356887817383e-02,1.498698443174362183e-02,-1.637266017496585846e-02,1.435999479144811630e-02,-3.698459267616271973e-02,4.745589569211006165e-03,9.659986197948455811e-02,-1.650176495313644409e-01,6.985873449593782425e-03,-3.289435058832168579e-02,2.349277958273887634e-02,4.403994232416152954e-02,-4.200919996947050095e-03,-1.874659769237041473e-02,8.308175206184387207e-02,1.985187269747257233e-02,-5.197195801883935928e-03,1.341078728437423706e-01,1.365443575195968151e-03,2.131983451545238495e-02,4.357399791479110718e-02,-1.531661138869822025e-03,2.107729436829686165e-03,-1.688815653324127197e-02,-1.334356423467397690e-02,8.136404678225517273e-03,3.464833647012710571e-02,9.302140824729576707e-05,-1.896384544670581818e-02,3.117862856015563011e-03,-1.709643378853797913e-02,3.664067771751433611e-04,-1.047742785885930061e-03,1.981803588569164276e-02,1.951847597956657410e-02,-2.183451317250728607e-02,-6.988866254687309265e-03,-1.480203121900558472e-02
1.305789034813642502e-02,-9.430029895156621933e-04,-2.464905381202697754e-03,-8.072639466263353825e-04,-3.465740941464900970e-03,1.274869684129953384e-02,-7.164029031991958618e-02,-2.041607052087783813e-01,3.376060426235198975e-01,-4.902181401848793030e-02,-3.607105929404497147e-03,6.320322398096323013e-03,-5.295319133438169956e-04,1.335165351629257202e-01,-2.360847964882850647e-02,-3.727051429450511932e-03,1.687355339527130127e-03,2.705719089135527611e-03,1.593426428735256195e-02,1.561213843524456024e-02,-1.866108924150466919e-02,1.336753461509943008e-02,-1.993346028029918671e-02,-2.136483415961265564e-02,6.444192677736282349e-02,3.715084865689277649e-02,4.902345128357410431e-03,1.790618151426315308e-02,8.138684788718819618e-04,2.076037824153900146e-01,1.501944963820278645e-03,-2.420007251203060150e-02,6.776663661003112793e-01,1.531522069126367569e-02,-8.666452951729297638e-03,-1.002402007579803467e-01,2.882072003558278084e-03,-3.648068290203809738e-03,2.205220013856887817e-01,-2.469750121235847473e-02,2.542758919298648834e-02,4.550588346319273114e-05,2.676906064152717590e-03,7.606655359268188477e-03,-2.146427631378173828e-01,4.705494269728660583e-02,-3.832720685750246048e-03,3.549857065081596375e-03,4.011358022689819336e-01,3.974203485995531082e-03,9.478301741182804108e-03,-2.342213094234466553e-01,2.947293780744075775e-02,-3.335624188184738159e-02,1.236448180861771107e-03,-4.754885099828243256e-03
4.923382401466369629e-02,-2.408632281003519893e-04,-6.617758423089981079e-03,3.815656295046210289e-03,1.688090706011280417e-04,6.686500459909439087e-02,4.131705164909362793e-01,-2.890111505985260010e-02,2.872992455959320068e-01,-2.460260502994060516e-02,-3.706747957039624453e-04,5.107181612402200699e-03,2.176369889639317989e-06,2.537288144230842590e-02,-1.051129698753356934e-01,3.038880415260791779e-03,-1.134528662078082561e-03,-3.720270236954092979e-03,-1.538351327180862427e-01,7.375545054674148560e-02,-1.090485528111457825e-01,5.466686934232711792e-02,-9.072808921337127686e-02,-1.022965684533119202e-01,2.075202316045761108e-01,-6.460168957710266113e-02,1.340619404800236225e-03,1.008659135550260544e-02,5.389570724219083786e-03,-3.366284072399139404e-02,-7.191045675426721573e-03,-9.314764291048049927e-02,1.689125150442123413e-01,6.233042478561401367e-02,3.514324426651000977e-01,-5.759966373443603516e-02,3.389994613826274872e-03,3.009389620274305344e-03,-3.091828152537345886e-02,-9.941325336694717407e-02,1.108357906341552734e-01,-9.011876769363880157e-03,2.851702971383929253e-03,8.298694738186895847e-04,-1.104674115777015686e-02,-1.995610147714614868e-01,-9.515423327684402466e-03,3.385395277291536331e-03,2.589984834194183350e-01,-4.360781051218509674e-03,-1.470365971326828003e-01,7.395377755165100098e-02,1.002118811011314392e-01,-9.469281136989593506e-02,-3.542199265211820602e-03,2.064169617369771004e-03
-1.046841265633702278e-03,-1.224337029270827770e-03,-1.113560065277852118e-04,-1.001469092443585396e-03,3.111009136773645878e-04,-6.804422446293756366e-05,7.100916653871536255e-02,1.571332104504108429e-02,6.735405325889587402e-02,-1.158249797299504280e-03,-2.751451451331377029e-03,-5.010413588024675846e-04,-1.078727073036134243e-03,1.444823481142520905e-02,-4.827995970845222473e-02,1.868892693892121315e-03,-3.908361541107296944e-04,-8.220298332162201405e-04,5.952372401952743530e-02,-4.952569142915308475e-04,1.424046349711716175e-03,-1.807202701456844807e-03,1.458346028812229633e-03,4.957132972776889801e-03,-1.563706062734127045e-02,-9.090299904346466064e-02,-2.210918755736202002e-04,1.992917386814951897e-03,-8.838601061142981052e-04,1.163414400070905685e-02,1.083015231415629387e-03,1.138185980380512774e-04,1.039531007409095764e-01,-6.014514365233480930e-04,6.495045870542526245e-02,1.019988954067230225e-01,-1.417662424501031637e-04,2.146993065252900124e-03,-1.605180837213993073e-02,7.450773846358060837e-03,-1.932053710334002972e-03,-1.410241704434156418e-03,1.980517990887165070e-03,-1.821283018216490746e-03,-7.458396721631288528e-03,1.732806302607059479e-02,3.823680162895470858e-04,-1.789486268535256386e-04,5.569669418036937714e-03,-1.038012444041669369e-03,-9.217119216918945312e-02,-7.274945080280303955e-02,-3.017315175384283066e-03,6.018171086907386780e-03,-1.603704527951776981e-03,-1.042910844262223691e-05
-1.892333151772618294e-03,-2.404693805146962404e-05,3.032788517884910107e-04,-9.599843760952353477e-04,-1.096931402571499348e-03,-1.461171312257647514e-03,2.351846778765320778e-03,2.047335030511021614e-03,5.175460129976272583e-02,-5.832837894558906555e-03,1.621229108422994614e-03,8.231669780798256397e-04,-2.678442979231476784e-04,-3.112267702817916870e-03,5.933902226388454437e-03,-7.453857106156647205e-04,1.310539897531270981e-03,1.349254860542714596e-03,2.073152922093868256e-02,-2.682811464183032513e-04,2.563340822234749794e-03,-9.730194578878581524e-04,-1.622617361135780811e-03,-1.492388197220861912e-03,3.777030855417251587e-03,-4.145278409123420715e-02,8.601400186307728291e-04,-4.205484408885240555e-03,-1.048319507390260696e-03,-3.055403474718332291e-03,-1.766877248883247375e-04,-3.071042010560631752e-04,8.919254690408706665e-02,-1.401077490299940109e-03,8.940366096794605255e-03,1.348321884870529175e-02,-1.746682217344641685e-03,1.724351750453934073e-04,-9.056181646883487701e-03,8.547323523089289665e-04,-8.392764721065759659e-04,-4.080561047885566950e-04,-8.127560140565037727e-04,-1.561902172397822142e-04,-2.292969264090061188e-03,-3.252794966101646423e-03,-1.222577062435448170e-03,1.045324490405619144e-03,-8.192805945873260498e-02,-3.630825085565447807e-04,3.846110031008720398e-02,2.438100427389144897e-02,-2.647563524078577757e-04,-2.255457453429698944e-03,8.466240251436829567e-05,1.021690899506211281e-03
-4.428856773301959038e-04,-1.543818798381835222e-04,-1.214862451888620853e-03,8.439797093160450459e-04,1.044106320478022099e-03,-2.960537676699459553e-04,6.032584351487457752e-04,-4.378865414764732122e-04,6.853490602225065231e-03,4.552068654447793961e-03,1.013220986351370811e-03,9.450840298086404800e-04,-6.322454428300261497e-04,1.078990171663463116e-03,1.264110673218965530e-02,-1.283704885281622410e-03,-3.014503279700875282e-03,1.368759549222886562e-03,2.942016813904047012e-03,-1.827033818699419498e-03,3.830687142908573151e-03,5.844541010446846485e-04,1.540278200991451740e-03,1.698510837741196156e-03,-1.681656576693058014e-02,-9.798420593142509460e-03,9.966283687390387058e-05,-1.630695303902029991e-03,-2.864567504730075598e-04,-2.496498171240091324e-03,-7.847717497497797012e-04,3.209380898624658585e-03,-6.773725152015686035e-02,-1.752600073814392090e-03,4.889462143182754517e-03,-9.220817126333713531e-03,-5.717197200283408165e-04,1.278011914109811187e-04,3.015954745933413506e-03,5.083058960735797882e-03,-3.105035284534096718e-03,9.335737559013068676e-04,-7.666806777706369758e-05,-1.382600981742143631e-03,6.482383701950311661e-03,-6.020271219313144684e-03,-7.336029666475951672e-04,-8.422272512689232826e-04,3.624263778328895569e-02,-1.194025157019495964e-03,4.400420933961868286e-03,1.009829491376876831e-01,-2.508036792278289795e-03,5.153694655746221542e-03,1.225254731252789497e-03,-6.462491001002490520e-04
-1.566301332786679268e-03,5.866062710992991924e-04,1.594936125911772251e-03,-3.472977550700306892e-03,-8.876482752384617925e-05,-1.493370975367724895e-03,-4.332550335675477982e-03,-7.091373205184936523e-03,7.281199097633361816e-03,-3.799641132354736328e-02,2.061702543869614601e-03,-2.258167136460542679e-03,-1.515134586952626705e-03,2.188138663768768311e-03,1.270904205739498138e-02,-1.141767716035246849e-03,-2.249383396701887250e-04,4.636018711607903242e-04,-6.390688568353652954e-02,-1.427495270036160946e-03,-3.172566648572683334e-03,-5.678027810063213110e-05,-2.597157843410968781e-03,-4.028568975627422333e-03,-7.564891874790191650e-02,2.972560003399848938e-03,2.578971616458147764e-04,-3.208350390195846558e-04,-1.063756877556443214e-03,2.370820147916674614e-03,2.653051400557160378e-03,-5.418137880042195320e-04,-8.238202892243862152e-03,-1.321054151048883796e-04,-6.957379169762134552e-03,7.652564439922571182e-03,-1.639216789044439793e-03,7.633781933691352606e-05,-7.420814596116542816e-03,2.865069545805454254e-03,-4.592407029122114182e-03,3.678617940749973059e-04,-1.318282447755336761e-03,-1.172597287222743034e-03,2.415008842945098877e-03,9.958930313587188721e-03,1.533278496935963631e-03,-5.607536295428872108e-04,9.317123889923095703e-02,-5.385429831221699715e-04,-1.299099676543846726e-04,9.611343964934349060e-03,-1.157019520178437233e-03,2.760732546448707581e-03,1.446558744646608829e-04,1.384873059578239918e-03
4.124078433960676193e-03,-2.689256507437676191e-04,-2.041546162217855453e-03,2.656232798472046852e-03,6.509490776807069778e-04,-1.002738834358751774e-03,-9.741540998220443726e-03,-2.095963107421994209e-03,1.399315521121025085e-02,1.931003108620643616e-02,1.598005299456417561e-03,4.667858127504587173e-03,1.281673554331064224e-03,9.982051327824592590e-03,2.556635532528162003e-03,2.272676909342408180e-03,1.069176360033452511e-03,-3.166912589222192764e-03,-1.977512426674365997e-02,8.790302090346813202e-03,-2.475432585924863815e-03,-3.259371733292937279e-04,-7.485039066523313522e-03,-2.279892330989241600e-03,1.663265526294708252e-01,7.081819348968565464e-04,-1.318286405876278877e-03,-2.030992647632956505e-03,-3.209696384146809578e-03,3.263114253059029579e-03,-8.139368146657943726e-04,-1.925532473251223564e-03,-1.756634376943111420e-02,3.398307133466005325e-03,1.018925849348306656e-02,7.846816442906856537e-03,-2.095280680805444717e-03,-8.765887469053268433e-04,-1.900870003737509251e-03,5.843044258654117584e-03,1.693908416200429201e-04,1.539455610327422619e-03,-3.904786659404635429e-03,3.471739822998642921e-03,3.000152530148625374e-03,6.310894154012203217e-03,-1.182868611067533493e-03,1.165664289146661758e-03,3.162938635796308517e-03,1.635851571336388588e-03,4.968436551280319691e-04,-1.338218804448843002e-02,3.738029859960079193e-03,-5.138541571795940399e-03,-1.318230410106480122e-03,-5.593120586127042770e-03
2.368160057812929153e-03,8.585545583628118038e-04,-1.236877520568668842e-03,4.712639842182397842e-03,1.538407872430980206e-03,4.187557380646467209e-03,3.108998993411660194e-03,6.743199191987514496e-03,6.281995214521884918e-03,3.530629212036728859e-03,-1.290976186282932758e-03,1.623394316993653774e-03,1.114758546464145184e-03,5.016759969294071198e-03,-4.264058079570531845e-03,2.513982355594635010e-03,4.202057607471942902e-03,7.884046062827110291e-04,-1.449059993028640747e-01,1.040165312588214874e-02,-7.272545248270034790e-03,2.283671870827674866e-03,-9.467795491218566895e-03,-1.017438899725675583e-02,2.373316586017608643e-01,-8.115435019135475159e-03,-3.152282675728201866e-03,-5.549478810280561447e-03,2.671409398317337036e-03,-5.082909483462572098e-03,-5.460962653160095215e-03,-9.683103300631046295e-03,6.930820178240537643e-03,3.891600295901298523e-03,9.110487997531890869e-03,-7.937294431030750275e-03,5.580475044553168118e-05,3.727328963577747345e-03,-5.654457025229930878e-03,-1.795402262359857559e-03,1.404284778982400894e-02,-9.103820193558931351e-04,9.591985144652426243e-04,5.689011886715888977e-04,8.668447844684123993e-03,-7.937824353575706482e-03,-3.692471189424395561e-03,1.493003801442682743e-03,5.062726326286792755e-03,8.381668594665825367e-04,2.220497233793139458e-03,7.845847867429256439e-04,9.321420453488826752e-03,-1.317051239311695099e-02,2.636404242366552353e-04,1.467570662498474121e-03
-4.372508730739355087e-03,-7.428693585097789764e-03,2.136999042704701424e-03,6.512641441076993942e-03,2.786724595353007317e-03,-3.416564781218767166e-03,-3.119946923106908798e-04,5.416241940110921860e-03,8.027883246541023254e-03,-6.088181864470243454e-03,-1.163100241683423519e-03,-4.051139112561941147e-03,3.186785150319337845e-03,1.029874663800001144e-02,2.545349067077040672e-03,-1.985326525755226612e-04,-3.281985409557819366e-03,2.182368887588381767e-03,1.482408586889505386e-02,2.205410040915012360e-03,-2.973736962303519249e-03,2.808517543599009514e-03,-7.440645131282508373e-04,8.975621312856674194e-03,6.537625193595886230e-02,-9.020706056617200375e-04,-6.314092781394720078e-03,-1.034771092236042023e-03,-8.845552802085876465e-04,-6.869825068861246109e-03,-1.692151883617043495e-03,-2.755369525402784348e-03,-2.881088666617870331e-02,-1.560687524033710361e-04,3.194959461688995361e-02,3.708451520651578903e-03,-2.584449248388409615e-03,-1.768099609762430191e-03,6.271000020205974579e-04,5.961689632385969162e-03,-1.325487683061510324e-04,6.569454446434974670e-03,1.285449718125164509e-03,2.937558339908719063e-03,5.870962515473365784e-03,8.901976048946380615e-03,-4.567433148622512817e-03,-6.121252663433551788e-03,1.101003028452396393e-02,-5.493064410984516144e-03,4.448298830538988113e-03,1.134049426764249802e-02,-7.317466952372342348e-05,3.730388125404715538e-03,-7.656958186998963356e-04,-3.576510120183229446e-03
-7.966054603457450867e-03,1.007144991308450699e-02,2.467215992510318756e-03,-2.093435078859329224e-02,2.404435724020004272e-02,7.800036109983921051e-03,6.774710025638341904e-03,3.251321380957961082e-03,3.736097598448395729e-03,3.726766407489776611e-01,5.514611024409532547e-03,4.490269930101931095e-04,-8.646813221275806427e-03,7.654843926429748535e-01,-4.018396139144897461e-03,3.759094746783375740e-03,8.319960907101631165e-03,-1.669577672146260738e-03,-5.235387086868286133e-01,-1.314126653596758842e-03,-1.128261350095272064e-02,-2.727159764617681503e-03,3.142264438793063164e-03,-1.328141987323760986e-02,-2.775393724441528320e-01,9.034694172441959381e-03,3.041567280888557434e-02,5.990357398986816406e-01,-1.050697267055511475e-02,1.001028530299663544e-02,8.137825876474380493e-03,4.139365046285092831e-04,1.706155389547348022e-02,-1.084870286285877228e-02,-4.722710251808166504e-01,-3.843890037387609482e-03,2.107243053615093231e-03,1.375413313508033752e-02,9.428531862795352936e-03,-1.086614653468132019e-02,1.066888403147459030e-02,-9.889144450426101685e-03,-2.917285077273845673e-02,5.350470542907714844e-03,-1.089032832533121109e-02,4.852021113038063049e-03,9.233297780156135559e-03,-9.613155853003263474e-04,1.259606182575225830e-01,-3.853745060041546822e-03,-5.869283995707519352e-05,2.020004030782729387e-04,1.224794238805770874e-02,5.521436780691146851e-02,-1.220235717482864857e-03,6.423230748623609543e-03
8.732836693525314331e-03,2.269003540277481079e-03,7.542229723185300827e-03,9.027849882841110229e-03,1.060515933204442263e-04,-3.491159994155168533e-03,-1.014521252363920212e-02,-1.717993989586830139e-02,-7.355324458330869675e-03,1.859861426055431366e-02,1.008468959480524063e-02,-1.178441103547811508e-03,-8.260024711489677429e-03,-5.648490414023399353e-02,-1.015210337936878204e-02,-2.942898077890276909e-03,-3.085338743403553963e-03,-9.737733751535415649e-03,2.490407973527908325e-02,8.842819370329380035e-03,7.790348026901483536e-04,3.832281072391197085e-05,-1.028923224657773972e-02,2.096707746386528015e-02,3.277805447578430176e-02,-3.211156465113162994e-03,-2.256929175928235054e-03,-1.267779152840375900e-02,-8.336975239217281342e-03,9.676717221736907959e-03,9.477108251303434372e-04,-9.718243032693862915e-03,-1.684059761464595795e-02,5.084647797048091888e-03,3.055742755532264709e-02,8.853305131196975708e-03,-6.212815642356872559e-04,2.558192471042275429e-03,-4.478023853152990341e-03,-6.482504773885011673e-03,1.169820129871368408e-02,5.422148853540420532e-03,-1.291622593998908997e-02,-1.268804538995027542e-03,-3.407829906791448593e-03,-8.610203076386824250e-05,-7.116185501217842102e-03,1.392350904643535614e-02,-1.974748261272907257e-02,7.222518324851989746e-04,-4.667549394071102142e-03,2.498510479927062988e-02,-6.652485113590955734e-03,-7.022925652563571930e-03,-5.277168820612132549e-04,5.576626863330602646e-03
7.343253120779991150e-03,-2.471791952848434448e-02,-5.297565367072820663e-03,-3.226598026230931282e-03,-3.510805778205394745e-03,1.103840209543704987e-02,-1.759683946147561073e-03,-1.313893031328916550e-02,2.393795177340507507e-02,9.267892455682158470e-04,-4.571433237288147211e-04,-4.488631617277860641e-03,-1.089545711874961853e-02,1.677534170448780060e-02,-1.040795445442199707e-02,8.027309551835060120e-03,7.338316179811954498e-03,6.436243653297424316e-03,-3.158228471875190735e-02,1.006296277046203613e-02,-6.597651634365320206e-03,-8.244208875112235546e-04,-2.580877766013145447e-02,-2.491837833076715469e-03,-3.268686123192310333e-03,-3.343765391036868095e-03,2.528695622459053993e-04,-3.590141888707876205e-03,2.295247279107570648e-03,8.253239095211029053e-03,-6.153762806206941605e-03,-7.558084325864911079e-04,8.058820851147174835e-03,1.858388260006904602e-02,2.541260095313191414e-03,3.636810230091214180e-03,-2.035712078213691711e-02,2.417154237627983093e-02,2.930423012003302574e-03,-1.262698136270046234e-02,4.378349054604768753e-03,-1.239612791687250137e-02,5.044306162744760513e-03,-4.502265248447656631e-03,-7.842965424060821533e-03,-2.072309376671910286e-03,5.606929305940866470e-03,-3.483813954517245293e-03,2.079768478870391846e-02,-1.431064866483211517e-02,-6.185796111822128296e-03,1.435663318261504173e-03,1.122981775552034378e-02,-7.546019740402698517e-03,1.224653795361518860e-02,8.805757388472557068e-03
-7.043066434562206268e-04,1.043203473091125488e-02,-4.719336051493883133e-03,-1.026745792478322983e-02,1.099443808197975159e-02,-2.530072582885622978e-03,3.216058714315295219e-03,1.865049707703292370e-03,3.787700552493333817e-03,9.109379723668098450e-03,3.875934751704335213e-03,-1.162668922916054726e-03,-2.716478426009416580e-03,2.279957570135593414e-02,2.418848685920238495e-02,-9.677450172603130341e-03,-3.274800721555948257e-03,-8.082247339189052582e-03,5.193965137004852295e-02,1.548167318105697632e-02,1.824638992547988892e-02,-1.141442544758319855e-02,6.640596780925989151e-03,1.093493774533271790e-03,-1.926884171552956104e-03,-6.395267555490136147e-04,2.033853204920887947e-03,4.303511977195739746e-02,8.681368781253695488e-04,-1.494478929089382291e-04,2.971219830214977264e-03,3.063479624688625336e-02,-5.815735552459955215e-03,1.156448107212781906e-02,-8.458573371171951294e-03,-7.425899151712656021e-03,-1.067262887954711914e-02,-1.459076628088951111e-02,2.749095112085342407e-02,5.158648360520601273e-03,2.313090255483984947e-03,9.470648132264614105e-03,-3.745619906112551689e-03,-4.197256639599800110e-03,-9.413568302989006042e-03,4.512098617851734161e-03,6.184293422847986221e-03,7.935230620205402374e-03,-5.748272873461246490e-03,7.679659174755215645e-04,-1.173228770494461060e-02,-1.884336779767181724e-05,-1.171402167528867722e-02,-1.908480934798717499e-02,-1.033197809010744095e-02,-2.853604033589363098e-03
5.577168427407741547e-03,-6.816244684159755707e-03,1.458333898335695267e-02,8.679751306772232056e-03,-1.771050272509455681e-03,9.680080227553844452e-03,2.533663809299468994e-02,-3.780410066246986389e-02,-8.658829145133495331e-03,-1.187895145267248154e-02,1.599641889333724976e-02,8.142508566379547119e-03,4.114049952477216721e-03,1.031626947224140167e-02,8.317647501826286316e-03,-3.568650223314762115e-03,-6.116105243563652039e-03,2.841400913894176483e-03,1.692422293126583099e-02,-6.567167118191719055e-03,8.795359171926975250e-03,2.009657397866249084e-02,-1.092675235122442245e-02,3.284544218331575394e-03,7.204880006611347198e-03,3.089790232479572296e-02,-1.608779537491500378e-03,1.389603875577449799e-02,9.839983657002449036e-03,-1.838408969342708588e-02,-1.039400137960910797e-02,-7.611421868205070496e-03,3.861495992168784142e-03,1.592794619500637054e-02,4.147204570472240448e-03,-3.306785970926284790e-02,-2.423960715532302856e-03,-1.567524299025535583e-02,-5.023602396249771118e-03,-1.981047354638576508e-02,1.060577575117349625e-02,-9.406891651451587677e-03,1.264809723943471909e-02,-3.836894175037741661e-04,-9.806151501834392548e-03,-1.851562224328517914e-02,-2.640160266309976578e-03,1.441919151693582535e-02,3.465740755200386047e-02,7.619462441653013229e-03,-3.310554102063179016e-02,1.080774934962391853e-03,-4.401000682264566422e-03,4.976655356585979462e-03,-3.067401470616459846e-03,-8.275707252323627472e-03
1.768514700233936310e-02,8.031378500163555145e-03,-2.678554505109786987e-03,4.652425646781921387e-03,3.668801859021186829e-03,1.097048353403806686e-02,1.934207603335380554e-02,-6.364847067743539810e-04,1.076911203563213348e-02,-1.022303383797407150e-02,-1.752607175149023533e-03,-1.050670444965362549e-02,1.040262985043227673e-03,1.109791081398725510e-02,6.359881721436977386e-03,-7.532591931521892548e-03,1.351250149309635162e-02,9.378900867886841297e-04,-1.822659373283386230e-02,1.336104702204465866e-03,-1.545284315943717957e-02,-2.609492745250463486e-03,1.997283892706036568e-03,-8.046790957450866699e-03,1.031932071782648563e-03,1.328874565660953522e-02,-1.243896898813545704e-03,2.089453674852848053e-02,2.032462321221828461e-02,1.543211191892623901e-02,-8.704263018444180489e-05,-1.558763440698385239e-02,-5.453056190162897110e-03,-3.796381643041968346e-03,-1.027804613113403320e-02,-2.186423540115356445e-02,1.801050850190222263e-03,-1.053205807693302631e-03,-2.667242847383022308e-02,-9.977065958082675934e-03,-3.475942881777882576e-03,8.013474754989147186e-03,-8.854418061673641205e-03,-4.053128883242607117e-03,2.909326180815696716e-02,-3.874342655763030052e-03,-1.735022105276584625e-02,1.144899986684322357e-02,-8.247336372733116150e-03,-1.485311798751354218e-02,-5.212991312146186829e-02,5.118055269122123718e-03,1.162973884493112564e-02,-4.555270075798034668e-03,2.832948928698897362e-03,-4.683643113821744919e-03
