-6.860356079414486885e-04,1.001348486170172691e-03,-7.244222797453403473e-04,-1.071018516086041927e-03,2.289220690727233887e-03,-1.371256425045430660e-03,8.629012736491858959e-04,6.443461752496659756e-04,-3.632103907875716686e-04,5.637774593196809292e-04,5.155080580152571201e-04,3.278379153925925493e-04,4.687117470894008875e-04,5.307286483002826571e-05,1.127071562223136425e-03,-2.256986481370404363e-04,-7.238934049382805824e-04,-1.250885426998138428e-03,-1.091237762011587620e-03,1.516505872132256627e-04,1.150118652731180191e-03,1.280514057725667953e-03,3.020125441253185272e-04,1.420699525624513626e-03,-1.324536424363031983e-04,5.712880520150065422e-04,-8.836786146275699139e-04,9.786186274141073227e-04,1.341459224931895733e-03,1.148202805779874325e-03,-1.170897885458543897e-04,3.892474342137575150e-04,-1.267564017325639725e-03,-2.877113875001668930e-04,-3.427878255024552345e-04,1.769688562490046024e-03,-3.420478024054318666e-04,-4.911166150122880936e-03,2.922905259765684605e-04,1.052978215739130974e-03,8.035200880840420723e-04,-5.566734762396663427e-05,5.587434279732406139e-04,2.363172359764575958e-03,-4.859654873143881559e-04,-4.347900976426899433e-04,1.000248710624873638e-03,-6.794024957343935966e-04,-9.497789433225989342e-04,1.194184296764433384e-03,-1.633440988371148705e-04,1.302430173382163048e-03,-8.141562575474381447e-04,1.124065369367599487e-03,-7.747705094516277313e-04,-1.591667183674871922e-03,2.652282360941171646e-03,9.075060952454805374e-04,-2.319178171455860138e-02,-2.655405551195144653e-04,-1.269310130737721920e-03,7.490886491723358631e-04,-6.963532650843262672e-04,-1.186889596283435822e-03,-1.098056323826313019e-03,-8.309309487231075764e-04,-2.382358979957643896e-05,-4.554378683678805828e-04,-1.340779708698391914e-03,6.595730665139853954e-04,1.443640212528407574e-03,-2.367043867707252502e-03,-1.460111350752413273e-03,8.715360308997333050e-04,-1.230014720931649208e-03,-8.839922375045716763e-04,-1.425673486664891243e-03,-5.577599513344466686e-04,-3.139758773613721132e-04,-8.382868254557251930e-04,-6.318145897239446640e-04,-9.100451716221868992e-04,9.845633758231997490e-04,2.051531919278204441e-04,1.092249294742941856e-03,1.221533864736557007e-03,5.583277088589966297e-04,-2.341236732900142670e-02,-6.909068906679749489e-04,-8.475210051983594894e-05,7.059854688122868538e-04,5.740410415455698967e-04,-4.049929266329854727e-04,-6.674820324406027794e-04,8.281240006908774376e-04,5.097512039355933666e-04,1.434682635590434074e-04,1.205657608807086945e-03,1.116811996325850487e-03,7.545185508206486702e-04,-2.848497359082102776e-03,3.131979610770940781e-03,-2.924556902144104242e-04,7.165619754232466221e-04,8.866728749126195908e-04,1.276575261726975441e-03,-4.744828329421579838e-04,1.789502333849668503e-03,4.222567658871412277e-04,4.127946886001154780e-05,1.629368780413642526e-04,1.610324718058109283e-03,-6.057547871023416519e-04,-1.507376553490757942e-03,-1.137803075835108757e-03,-1.482060644775629044e-03,-5.145387840457260609e-04,1.203070161864161491e-03,-2.906993613578379154e-04,8.219114970415830612e-04,-1.239047851413488388e-03,9.082441683858633041e-04,4.835939325857907534e-04,-2.044319408014416695e-03,-2.042154548689723015e-03,1.334783271886408329e-03
-4.969872832298278809e-01,-4.839803278446197510e-01,-2.351388633251190186e-01,4.442074298858642578e-01,3.892636895179748535e-01,-3.436071574687957764e-01,-5.327377319335937500e-01,6.940377354621887207e-01,-4.489860236644744873e-01,4.750324487686157227e-01,6.121637821197509766e-01,-6.497088074684143066e-01,7.959173321723937988e-01,6.922634243965148926e-01,3.448229134082794189e-01,2.894680202007293701e-01,3.425627648830413818e-01,3.169358372688293457e-01,5.166246891021728516e-01,4.287967383861541748e-01,-5.171646475791931152e-01,-2.357481122016906738e-01,-5.729976296424865723e-01,-4.256741106510162354e-01,-7.202959060668945312e-01,-7.466435432434082031e-01,-5.458900928497314453e-01,3.889732360839843750e-01,-4.622382521629333496e-01,-5.473598837852478027e-01,-8.279410600662231445e-01,7.287079691886901855e-01,1.765421926975250244e-01,6.385785937309265137e-01,-7.197877764701843262e-01,7.654287219047546387e-01,6.481851935386657715e-01,-5.194194912910461426e-01,-4.193496406078338623e-01,-3.572917580604553223e-01,-7.033663392066955566e-01,5.075761675834655762e-01,-6.861732602119445801e-01,2.563916146755218506e-01,-4.548985958099365234e-01,-4.579489827156066895e-01,-5.694934129714965820e-01,6.293590068817138672e-01,-4.194782301783561707e-02,-1.071646809577941895e-01,7.694648504257202148e-01,7.511695027351379395e-01,-4.112352728843688965e-01,3.630841076374053955e-01,7.083845138549804688e-01,-5.597349405288696289e-01,-1.902804523706436157e-01,3.379090428352355957e-01,-2.430637478828430176e-01,7.629573345184326172e-01,-1.621476113796234131e-01,2.335665374994277954e-01,4.798016250133514404e-01,4.812340438365936279e-01,-3.112925887107849121e-01,5.012816786766052246e-01,7.754106521606445312e-01,2.568359375000000000e-01,-2.209161072969436646e-01,4.115577936172485352e-01,-2.891638576984405518e-01,-3.329949975013732910e-01,-1.125422343611717224e-01,-6.433073282241821289e-01,4.928442537784576416e-01,-1.984980702400207520e-01,8.528224378824234009e-02,7.303665280342102051e-01,5.813913941383361816e-01,4.961731135845184326e-01,-3.650501370429992676e-01,6.394904255867004395e-01,2.994429469108581543e-01,6.909584403038024902e-01,6.766508221626281738e-01,5.815351605415344238e-01,5.113511085510253906e-01,6.299446225166320801e-01,-4.109909534454345703e-01,7.342754602432250977e-01,-7.067497372627258301e-01,-7.307767271995544434e-01,-5.723283886909484863e-01,3.462389409542083740e-01,-7.052550911903381348e-01,-6.870080828666687012e-01,-5.469361543655395508e-01,2.800170779228210449e-01,6.210712343454360962e-02,-4.486210942268371582e-01,-2.093718796968460083e-01,3.845345973968505859e-01,-8.211821317672729492e-01,-6.093803644180297852e-01,-6.348008513450622559e-01,3.240497410297393799e-01,6.103770136833190918e-01,6.066218018531799316e-01,-3.096086680889129639e-01,4.489760696887969971e-01,5.849359035491943359e-01,-4.994864165782928467e-01,-4.116517901420593262e-01,3.524720370769500732e-01,5.242934823036193848e-01,3.912888765335083008e-01,-4.684463441371917725e-01,-4.462386667728424072e-01,-2.934009730815887451e-01,4.379838705062866211e-01,-2.853302955627441406e-01,-4.608329832553863525e-01,5.422592163085937500e-01,-3.804101347923278809e-01,-8.587365150451660156e-01,-1.134031936526298523e-01
-8.806075900793075562e-03,1.061605885624885559e-01,-6.242266669869422913e-02,-1.035653650760650635e-01,4.025962576270103455e-02,-5.191513150930404663e-02,6.271059066057205200e-02,-3.075338527560234070e-02,-5.445855483412742615e-02,6.081337481737136841e-02,2.503248304128646851e-02,9.936266392469406128e-02,-1.009513884782791138e-01,-1.167177110910415649e-01,6.862320005893707275e-02,-2.559654181823134422e-03,-6.010436266660690308e-02,-9.290072321891784668e-02,-8.626997470855712891e-02,4.382813349366188049e-02,1.154635474085807800e-01,9.242422878742218018e-02,4.490142315626144409e-02,1.184495612978935242e-01,6.833694875240325928e-03,1.205662861466407776e-01,6.891094893217086792e-02,4.297908768057823181e-02,1.159455254673957825e-01,1.144908890128135681e-01,1.128713563084602356e-01,-6.081937998533248901e-02,-9.621278941631317139e-02,-7.661802321672439575e-02,1.001334413886070251e-01,-6.374671310186386108e-02,-9.570032358169555664e-02,6.112710572779178619e-03,-2.792236581444740295e-02,1.050632745027542114e-01,1.130345389246940613e-01,8.736241608858108521e-03,1.161759570240974426e-01,3.996226564049720764e-02,-5.671812966465950012e-02,-5.548748373985290527e-02,1.081048101186752319e-01,-1.167517229914665222e-01,-8.700028061866760254e-02,9.808987379074096680e-02,-1.131153702735900879e-01,-8.550357818603515625e-02,-5.862523615360260010e-02,7.095903903245925903e-02,-1.058968231081962585e-01,-2.568070404231548309e-02,2.263705059885978699e-02,5.086006596684455872e-02,3.200207650661468506e-02,-1.145251914858818054e-01,-9.160709381103515625e-02,4.331978410482406616e-02,-7.216552644968032837e-02,-1.170923709869384766e-01,-4.647952318191528320e-02,-9.280902147293090820e-02,-1.148017197847366333e-01,2.402214147150516510e-02,-4.869835078716278076e-02,6.574201583862304688e-02,1.066230461001396179e-01,-4.365206882357597351e-02,-6.049440428614616394e-02,1.168642714619636536e-01,-9.916277974843978882e-02,-7.549805194139480591e-02,-8.930360525846481323e-02,-1.226676255464553833e-01,-5.356918647885322571e-02,-8.548817783594131470e-02,-3.574511408805847168e-02,-1.163933053612709045e-01,7.648847997188568115e-02,-9.925549477338790894e-02,-2.601687051355838776e-02,2.822804264724254608e-02,5.528085306286811829e-02,-9.595242328941822052e-03,-5.531992763280868530e-02,-1.127121672034263611e-01,1.120035871863365173e-01,1.212012171745300293e-01,-1.232700794935226440e-02,1.508970744907855988e-03,1.110434532165527344e-01,1.212448254227638245e-01,2.190374024212360382e-02,8.496625721454620361e-02,7.841560244560241699e-02,4.387586936354637146e-02,-4.912611469626426697e-02,3.826172649860382080e-02,7.293227314949035645e-02,1.164191663265228271e-01,1.194031536579132080e-01,5.496342107653617859e-02,-8.570074290037155151e-02,-4.036840051412582397e-02,-5.820482596755027771e-02,3.620171919465065002e-02,6.830944679677486420e-03,8.428080379962921143e-02,-4.436220228672027588e-02,-6.756561994552612305e-02,-1.169010251760482788e-01,-1.182943210005760193e-01,-5.980557203292846680e-02,1.185419708490371704e-01,-1.232263352721929550e-02,7.126340270042419434e-02,-4.895326495170593262e-02,1.017126888036727905e-01,2.954877726733684540e-02,-3.264987468719482422e-02,5.469357967376708984e-02,9.037014842033386230e-02
1.492123454809188843e-01,2.204144299030303955e-01,-5.065087694674730301e-03,-2.060063928365707397e-01,-5.362903326749801636e-02,3.015187755227088928e-02,2.677403092384338379e-01,-2.636518478393554688e-01,7.752677053213119507e-02,-3.477057442069053650e-02,-9.546550363302230835e-02,3.449531495571136475e-01,-3.373298943042755127e-01,-3.436791300773620605e-01,-1.327685918658971786e-02,-8.255188167095184326e-02,-1.657194793224334717e-01,-1.532273590564727783e-01,-1.466226428747177124e-01,-3.561977297067642212e-02,2.054428458213806152e-01,1.178774908185005188e-01,2.706254422664642334e-01,1.813952326774597168e-01,1.268030852079391479e-01,2.688919007778167725e-01,1.768937855958938599e-01,-4.924462735652923584e-02,1.878518164157867432e-01,2.016453891992568970e-01,3.420152366161346436e-01,-2.820681035518646240e-01,-1.122528240084648132e-01,-3.223209083080291748e-01,3.521652221679687500e-01,-3.046403825283050537e-01,-3.405395448207855225e-01,1.567724347114562988e-01,8.784081786870956421e-02,1.481527537107467651e-01,2.373809665441513062e-01,-1.727992445230484009e-01,2.761363685131072998e-01,3.033437300473451614e-03,5.969874188303947449e-02,7.385230809450149536e-02,1.962336152791976929e-01,-2.538503408432006836e-01,-6.676533073186874390e-02,1.035731658339500427e-01,-3.129492104053497314e-01,-3.243820369243621826e-01,5.698182806372642517e-02,-1.679280772805213928e-02,-2.406115680932998657e-01,8.121808618307113647e-02,4.464114829897880554e-02,-3.132895752787590027e-02,5.365286022424697876e-02,-2.927694320678710938e-01,-4.610535129904747009e-02,1.426109578460454941e-03,-2.396516054868698120e-01,-2.050119042396545410e-01,2.368240803480148315e-02,-2.221288830041885376e-01,-3.358580768108367920e-01,-1.894133538007736206e-02,-1.498989388346672058e-02,-4.137646034359931946e-02,1.416424363851547241e-01,2.914066240191459656e-02,-3.764604404568672180e-02,2.297321856021881104e-01,-1.615552604198455811e-01,-2.425825223326683044e-02,-9.468722343444824219e-02,-3.057429194450378418e-01,-2.618756890296936035e-01,-2.394621819257736206e-01,2.094831876456737518e-02,-2.189532369375228882e-01,1.184612046927213669e-02,-3.293984830379486084e-01,-2.182303965091705322e-01,-7.379416376352310181e-02,-7.395127415657043457e-02,-1.249685809016227722e-01,5.805984139442443848e-02,-3.349501490592956543e-01,2.221814990043640137e-01,2.744298279285430908e-01,1.274126470088958740e-01,-7.916599512100219727e-02,2.415397018194198608e-01,3.083675801753997803e-01,2.073237448930740356e-01,1.888876594603061676e-02,6.250138580799102783e-02,2.099515646696090698e-01,-1.236043870449066162e-02,-3.895739465951919556e-02,2.930216789245605469e-01,2.686188817024230957e-01,2.314162999391555786e-01,-1.518944092094898224e-02,-3.296470940113067627e-01,-2.262069135904312134e-01,-9.417013265192508698e-03,-6.856071203947067261e-02,-1.970458030700683594e-01,1.423941254615783691e-01,6.865294277667999268e-02,-9.889035671949386597e-02,-2.003439217805862427e-01,-1.701209247112274170e-01,6.408006697893142700e-02,1.953407675027847290e-01,3.510857373476028442e-02,-2.371692657470703125e-02,5.629504565149545670e-03,1.583006829023361206e-01,-7.827905565500259399e-02,4.716667532920837402e-02,2.513671815395355225e-01,1.012518703937530518e-01
1.408962011337280273e-01,2.070009112358093262e-01,1.422335626557469368e-03,-1.928609758615493774e-01,-5.278748273849487305e-02,3.149154409766197205e-02,2.456601560115814209e-01,-2.439184337854385376e-01,7.806830853223800659e-02,-3.435101732611656189e-02,-8.956035226583480835e-02,3.187176883220672607e-01,-3.070213496685028076e-01,-3.218832910060882568e-01,-1.343231555074453354e-02,-7.447123527526855469e-02,-1.535643935203552246e-01,-1.454268395900726318e-01,-1.354998946189880371e-01,-3.102642856538295746e-02,1.962169259786605835e-01,1.091426610946655273e-01,2.495552897453308105e-01,1.680010855197906494e-01,1.177922859787940979e-01,2.529615163803100586e-01,1.649921238422393799e-01,-4.619294404983520508e-02,1.735123693943023682e-01,1.867648810148239136e-01,3.204333782196044922e-01,-2.551221549510955811e-01,-1.019453182816505432e-01,-2.937347888946533203e-01,3.268064558506011963e-01,-2.847767174243927002e-01,-3.171945214271545410e-01,1.468340009450912476e-01,8.326431363821029663e-02,1.369032561779022217e-01,2.226484119892120361e-01,-1.587005257606506348e-01,2.592703104019165039e-01,-2.678291639313101768e-03,5.830315127968788147e-02,7.471086084842681885e-02,1.828181296586990356e-01,-2.397554367780685425e-01,-5.908099561929702759e-02,9.512865543365478516e-02,-2.929098010063171387e-01,-3.002986907958984375e-01,5.749762058258056641e-02,-1.888975501060485840e-02,-2.257201075553894043e-01,7.917671650648117065e-02,3.551391512155532837e-02,-2.791679091751575470e-02,5.009516701102256775e-02,-2.720770239830017090e-01,-3.472750633955001831e-02,2.733522793278098106e-03,-2.215516418218612671e-01,-1.926815509796142578e-01,2.220066450536251068e-02,-2.061305195093154907e-01,-3.127057552337646484e-01,-1.348423399031162262e-02,-1.287218369543552399e-02,-4.527541995048522949e-02,1.305147260427474976e-01,3.133461996912956238e-02,-3.124061599373817444e-02,2.181907594203948975e-01,-1.475424468517303467e-01,-1.784518361091613770e-02,-8.455003798007965088e-02,-2.863156199455261230e-01,-2.410992234945297241e-01,-2.204632461071014404e-01,2.340202592313289642e-02,-2.049634903669357300e-01,5.919776856899261475e-03,-3.056010901927947998e-01,-2.036889046430587769e-01,-7.345005869865417480e-02,-6.926007568836212158e-02,-1.254121065139770508e-01,5.676325783133506775e-02,-3.113973140716552734e-01,2.097909599542617798e-01,2.586891353130340576e-01,1.187027916312217712e-01,-6.833133101463317871e-02,2.270567566156387329e-01,2.882637381553649902e-01,1.923289448022842407e-01,1.355748157948255539e-02,5.814186483621597290e-02,1.931089460849761963e-01,-7.591439876705408096e-03,-4.299556091427803040e-02,2.702286541461944580e-01,2.545978724956512451e-01,2.191054075956344604e-01,-1.587698981165885925e-02,-3.033668398857116699e-01,-2.090361118316650391e-01,-1.029734406620264053e-02,-6.139391288161277771e-02,-1.850207298994064331e-01,1.298256814479827881e-01,6.429789215326309204e-02,-8.930177241563796997e-02,-1.902926266193389893e-01,-1.587530970573425293e-01,6.353908032178878784e-02,1.855209916830062866e-01,3.477558121085166931e-02,-2.656386047601699829e-02,4.966320935636758804e-03,1.478710770606994629e-01,-7.493368536233901978e-02,4.789669066667556763e-02,2.341430038213729858e-01,9.060142934322357178e-02
1.963761597871780396e-01,2.453814446926116943e-01,3.352230042219161987e-02,-2.238512635231018066e-01,-9.354969859123229980e-02,7.074518501758575439e-02,3.044847846031188965e-01,-3.253623247146606445e-01,1.385715454816818237e-01,-8.900398015975952148e-02,-1.481760889291763306e-01,3.885424733161926270e-01,-3.883687257766723633e-01,-3.840452432632446289e-01,-5.845376849174499512e-02,-9.766201674938201904e-02,-1.719044595956802368e-01,-1.479177623987197876e-01,-1.509650498628616333e-01,-7.414047420024871826e-02,2.233927696943283081e-01,1.094555258750915527e-01,3.178972899913787842e-01,1.846605986356735229e-01,1.748141646385192871e-01,2.976873815059661865e-01,1.944642812013626099e-01,-8.788102120161056519e-02,1.946299225091934204e-01,2.141764312982559204e-01,3.888871669769287109e-01,-3.335514366626739502e-01,-9.830688685178756714e-02,-3.670020699501037598e-01,3.979261815547943115e-01,-3.624712228775024414e-01,-3.851847648620605469e-01,1.951027661561965942e-01,1.333010196685791016e-01,1.391359716653823853e-01,2.600633203983306885e-01,-2.252689749002456665e-01,3.087380230426788330e-01,-2.124257199466228485e-02,1.182332113385200500e-01,1.368101686239242554e-01,2.140213400125503540e-01,-2.861471176147460938e-01,-3.611828014254570007e-02,7.961603999137878418e-02,-3.520011901855468750e-01,-3.758015632629394531e-01,1.127411201596260071e-01,-6.940333545207977295e-02,-2.648136317729949951e-01,1.248807460069656372e-01,4.295338690280914307e-02,-6.616899371147155762e-02,6.264943629503250122e-02,-3.324639499187469482e-01,2.095951786031946540e-04,-1.747491769492626190e-02,-2.629555463790893555e-01,-2.193784266710281372e-01,5.315728113055229187e-02,-2.463880628347396851e-01,-3.814165592193603516e-01,-3.615414723753929138e-02,6.912926211953163147e-03,-1.034462898969650269e-01,1.281125843524932861e-01,6.577184051275253296e-02,-9.800721891224384308e-03,2.529889047145843506e-01,-1.670299917459487915e-01,1.376928761601448059e-02,-7.610718905925750732e-02,-3.389790654182434082e-01,-3.015996813774108887e-01,-2.634701132774353027e-01,6.023251265287399292e-02,-2.366850078105926514e-01,-3.676158562302589417e-02,-3.720925748348236084e-01,-2.716813385486602783e-01,-1.224111020565032959e-01,-1.366266012191772461e-01,-1.522962003946304321e-01,1.115803718566894531e-01,-3.766111433506011963e-01,2.435049116611480713e-01,3.059763610363006592e-01,1.767109036445617676e-01,-9.812714904546737671e-02,2.648977637290954590e-01,3.428963124752044678e-01,2.548843324184417725e-01,-3.113634325563907623e-02,4.153278097510337830e-02,2.351937144994735718e-01,1.383838243782520294e-02,-7.359473407268524170e-02,3.474932909011840820e-01,2.988531291484832764e-01,2.528032064437866211e-01,-5.397347360849380493e-02,-3.729983270168304443e-01,-2.668256759643554688e-01,2.689653076231479645e-02,-1.114099994301795959e-01,-2.634259164333343506e-01,1.417622417211532593e-01,1.147779300808906555e-01,-9.121641516685485840e-02,-2.138205766677856445e-01,-1.690637767314910889e-01,1.288496255874633789e-01,2.097519636154174805e-01,6.410133838653564453e-02,-8.255127072334289551e-02,3.196159377694129944e-02,1.541625410318374634e-01,-1.240757182240486145e-01,8.398358523845672607e-02,2.999703884124755859e-01,8.230639994144439697e-02
2.852118313312530518e-01,3.831118643283843994e-01,7.344119995832443237e-02,-3.674733042716979980e-01,-1.465511173009872437e-01,1.187462955713272095e-01,4.258918464183807373e-01,-3.987330794334411621e-01,2.177533954381942749e-01,-1.151917874813079834e-01,-1.732155829668045044e-01,4.993105828762054443e-01,-4.763498604297637939e-01,-5.048512220382690430e-01,-1.020837649703025818e-01,-2.009467631578445435e-01,-3.067145645618438721e-01,-2.774507105350494385e-01,-2.095103710889816284e-01,-9.827308356761932373e-02,3.406465351581573486e-01,1.537006348371505737e-01,4.279480576515197754e-01,2.911646068096160889e-01,1.747131347656250000e-01,4.144834578037261963e-01,2.878293097019195557e-01,-1.352136135101318359e-01,3.043018281459808350e-01,3.217167556285858154e-01,4.788229763507843018e-01,-4.013902842998504639e-01,-1.384614706039428711e-01,-4.713383615016937256e-01,4.920363724231719971e-01,-4.314742982387542725e-01,-4.941169321537017822e-01,2.769881188869476318e-01,2.136725634336471558e-01,2.332101017236709595e-01,3.683528602123260498e-01,-3.255547881126403809e-01,4.327759444713592529e-01,-1.501385960727930069e-02,1.693365871906280518e-01,2.092593163251876831e-01,3.180696070194244385e-01,-4.165599346160888672e-01,-3.790250048041343689e-02,1.412166953086853027e-01,-4.522310495376586914e-01,-4.554503858089447021e-01,1.814616024494171143e-01,-1.111944019794464111e-01,-3.693335056304931641e-01,1.517324745655059814e-01,8.217564225196838379e-02,-1.228640377521514893e-01,1.332539021968841553e-01,-4.394149482250213623e-01,-2.445234451442956924e-03,-5.678237229585647583e-02,-3.976313769817352295e-01,-3.434102833271026611e-01,1.027259752154350281e-01,-3.846125602722167969e-01,-4.816953241825103760e-01,-7.374089956283569336e-02,3.710684925317764282e-02,-1.567877978086471558e-01,2.117359489202499390e-01,1.150764748454093933e-01,-3.622800856828689575e-02,3.683426082134246826e-01,-2.437640428543090820e-01,3.576441481709480286e-02,-1.047952622175216675e-01,-4.640770554542541504e-01,-4.050258696079254150e-01,-4.052899181842803955e-01,3.799776360392570496e-02,-3.453398644924163818e-01,-3.963494300842285156e-02,-4.726765453815460205e-01,-3.325357735157012939e-01,-1.354709863662719727e-01,-1.868021637201309204e-01,-1.406521648168563843e-01,1.775219142436981201e-01,-4.798261821269989014e-01,3.445687592029571533e-01,4.220423996448516846e-01,2.306685149669647217e-01,-1.740881651639938354e-01,3.730313479900360107e-01,4.693543612957000732e-01,3.511271774768829346e-01,-4.703213274478912354e-02,5.027678236365318298e-02,3.644346892833709717e-01,4.475687444210052490e-02,-1.125001758337020874e-01,4.066766798496246338e-01,4.319364726543426514e-01,3.736056983470916748e-01,-9.664665162563323975e-02,-4.908977448940277100e-01,-3.558202385902404785e-01,1.507917419075965881e-02,-1.612997502088546753e-01,-3.545338809490203857e-01,2.078003138303756714e-01,1.829387843608856201e-01,-1.379859745502471924e-01,-3.250689208507537842e-01,-2.680280208587646484e-01,1.887524425983428955e-01,3.391796648502349854e-01,2.368393912911415100e-02,-1.007964685559272766e-01,6.898270547389984131e-02,2.406608313322067261e-01,-1.557288914918899536e-01,1.294207721948623657e-01,3.437593579292297363e-01,1.162699833512306213e-01
4.598902463912963867e-01,5.580819249153137207e-01,1.558207124471664429e-01,-5.951274633407592773e-01,-2.417673766613006592e-01,2.077301442623138428e-01,6.587225794792175293e-01,-4.756428003311157227e-01,3.300209641456604004e-01,-1.090278998017311096e-01,-1.449352949857711792e-01,6.908862590789794922e-01,-5.788345336914062500e-01,-6.905498504638671875e-01,-1.804194152355194092e-01,-4.600289165973663330e-01,-5.904003977775573730e-01,-5.437542200088500977e-01,-2.705109119415283203e-01,-1.364974528551101685e-01,4.794699251651763916e-01,2.034817934036254883e-01,6.276329755783081055e-01,4.367147088050842285e-01,5.964755639433860779e-02,5.690463185310363770e-01,4.579637944698333740e-01,-2.276795506477355957e-01,4.487010538578033447e-01,4.568463265895843506e-01,6.018627882003784180e-01,-4.882526099681854248e-01,-1.728193014860153198e-01,-6.481238603591918945e-01,6.413877606391906738e-01,-4.979632198810577393e-01,-6.816593408584594727e-01,4.185052812099456787e-01,3.878695368766784668e-01,4.082352519035339355e-01,5.022907257080078125e-01,-5.171368122100830078e-01,5.974363684654235840e-01,9.192264638841152191e-03,2.366016209125518799e-01,3.124503493309020996e-01,4.264521002769470215e-01,-5.711116194725036621e-01,-2.645614929497241974e-02,2.914611101150512695e-01,-5.971994996070861816e-01,-5.565360188484191895e-01,2.933643758296966553e-01,-1.633633375167846680e-01,-5.031235814094543457e-01,1.466237157583236694e-01,1.547989547252655029e-01,-2.568504512310028076e-01,2.625178694725036621e-01,-5.747382044792175293e-01,-4.432934522628784180e-02,-1.864704936742782593e-01,-6.516004800796508789e-01,-5.000848770141601562e-01,2.360371053218841553e-01,-6.048756241798400879e-01,-6.218082308769226074e-01,-1.790245324373245239e-01,1.484372466802597046e-01,-2.101760357618331909e-01,3.656760752201080322e-01,2.218977808952331543e-01,-1.109816953539848328e-01,5.090050697326660156e-01,-3.207647502422332764e-01,7.449904829263687134e-02,-1.384521424770355225e-01,-6.525053977966308594e-01,-5.865081548690795898e-01,-6.579695343971252441e-01,-9.345568716526031494e-02,-4.909186363220214844e-01,-9.360145777463912964e-03,-6.289802789688110352e-01,-3.921056687831878662e-01,-9.354747086763381958e-02,-2.271877080202102661e-01,-3.111738711595535278e-02,2.922149598598480225e-01,-6.338614821434020996e-01,4.770472943782806396e-01,5.724148154258728027e-01,2.821462154388427734e-01,-3.416146337985992432e-01,5.120013356208801270e-01,6.572415232658386230e-01,5.250101685523986816e-01,-3.614794462919235229e-02,5.285758897662162781e-02,6.235009431838989258e-01,1.272429674863815308e-01,-1.749971956014633179e-01,4.467508196830749512e-01,6.197447180747985840e-01,5.261267423629760742e-01,-2.024054676294326782e-01,-7.006329298019409180e-01,-4.809847474098205566e-01,-6.178231164813041687e-02,-2.605117857456207275e-01,-4.943971037864685059e-01,3.059663474559783936e-01,3.306290507316589355e-01,-2.182000279426574707e-01,-4.641575217247009277e-01,-4.030979871749877930e-01,2.516203224658966064e-01,5.234844088554382324e-01,-1.462195068597793579e-01,-9.169474244117736816e-02,1.839503049850463867e-01,4.166669547557830811e-01,-1.610655784606933594e-01,2.203534841537475586e-01,3.380812108516693115e-01,1.675079464912414551e-01
4.410290122032165527e-01,5.480629801750183105e-01,1.426084637641906738e-01,-5.819391608238220215e-01,-2.258678376674652100e-01,1.906719803810119629e-01,6.428208947181701660e-01,-4.656145870685577393e-01,3.118545114994049072e-01,-9.855598956346511841e-02,-1.379020810127258301e-01,6.765254139900207520e-01,-5.688581466674804688e-01,-6.767498254776000977e-01,-1.639987528324127197e-01,-4.413238465785980225e-01,-5.753693580627441406e-01,-5.276398658752441406e-01,-2.690881788730621338e-01,-1.241305172443389893e-01,4.688788354396820068e-01,2.053556591272354126e-01,6.085705161094665527e-01,4.286482930183410645e-01,6.398427486419677734e-02,5.575628876686096191e-01,4.474120736122131348e-01,-2.115370184183120728e-01,4.389787614345550537e-01,4.474909007549285889e-01,5.904117226600646973e-01,-4.781960844993591309e-01,-1.766482889652252197e-01,-6.334286928176879883e-01,6.285234093666076660e-01,-4.864262938499450684e-01,-6.656158566474914551e-01,4.042099714279174805e-01,3.682849705219268799e-01,3.978700637817382812e-01,4.922879338264465332e-01,-4.979078769683837891e-01,5.844372510910034180e-01,1.221336983144283295e-02,2.211302518844604492e-01,2.930737435817718506e-01,4.191948473453521729e-01,-5.596230626106262207e-01,-3.711163997650146484e-02,2.867209613323211670e-01,-5.852689146995544434e-01,-5.444626212120056152e-01,2.744704186916351318e-01,-1.468706578016281128e-01,-4.927139878273010254e-01,1.417764276266098022e-01,1.500831693410873413e-01,-2.389062196016311646e-01,2.568182945251464844e-01,-5.654264092445373535e-01,-5.504061654210090637e-02,-1.736255586147308350e-01,-6.357951760292053223e-01,-4.888753890991210938e-01,2.224246561527252197e-01,-5.901789069175720215e-01,-6.072671413421630859e-01,-1.681260913610458374e-01,1.335585862398147583e-01,-1.931998133659362793e-01,3.584368228912353516e-01,2.084498405456542969e-01,-1.124827116727828979e-01,4.987843334674835205e-01,-3.169106543064117432e-01,6.181459128856658936e-02,-1.435049474239349365e-01,-6.413678526878356934e-01,-5.709928274154663086e-01,-6.406043767929077148e-01,-8.958271890878677368e-02,-4.828625917434692383e-01,-2.571872668340802193e-03,-6.151857376098632812e-01,-3.810802996158599854e-01,-8.880169689655303955e-02,-2.101646959781646729e-01,-3.504183143377304077e-02,2.731064558029174805e-01,-6.202551126480102539e-01,4.670400917530059814e-01,5.615736246109008789e-01,2.712002694606781006e-01,-3.267487585544586182e-01,5.020169019699096680e-01,6.418757438659667969e-01,5.082908868789672852e-01,-2.377766929566860199e-02,5.961418151855468750e-02,6.086214780807495117e-01,1.137849241495132446e-01,-1.608558446168899536e-01,4.401682615280151367e-01,6.082853078842163086e-01,5.135122537612915039e-01,-1.874375194311141968e-01,-6.827658414840698242e-01,-4.673635959625244141e-01,-6.362831592559814453e-02,-2.472572475671768188e-01,-4.760049581527709961e-01,3.008836805820465088e-01,3.109859526157379150e-01,-2.142864912748336792e-01,-4.568663835525512695e-01,-3.950271308422088623e-01,2.339216917753219604e-01,5.127051472663879395e-01,-1.398711949586868286e-01,-7.958021014928817749e-02,1.707065999507904053e-01,4.070547521114349365e-01,-1.514596343040466309e-01,2.069890946149826050e-01,3.360784649848937988e-01,1.681512445211410522e-01
4.445576965808868408e-01,5.557071566581726074e-01,1.486912816762924194e-01,-5.990288853645324707e-01,-2.282385230064392090e-01,1.937622576951980591e-01,6.465615034103393555e-01,-4.352559447288513184e-01,3.049662709236145020e-01,-7.372488081455230713e-02,-1.045453920960426331e-01,6.689863801002502441e-01,-5.418058037757873535e-01,-6.701250672340393066e-01,-1.605105996131896973e-01,-4.731481969356536865e-01,-6.042562723159790039e-01,-5.621083378791809082e-01,-2.625555694103240967e-01,-1.139369681477546692e-01,4.769120812416076660e-01,2.073836922645568848e-01,6.059930920600891113e-01,4.433610439300537109e-01,1.484119426459074020e-02,5.555753707885742188e-01,4.571733772754669189e-01,-2.125070095062255859e-01,4.495956599712371826e-01,4.537070691585540771e-01,5.692527890205383301e-01,-4.498053491115570068e-01,-1.768238544464111328e-01,-6.211258172988891602e-01,6.131275892257690430e-01,-4.570130109786987305e-01,-6.563410162925720215e-01,4.055448472499847412e-01,3.780047893524169922e-01,4.205766022205352783e-01,4.904126822948455811e-01,-4.986039102077484131e-01,5.852817893028259277e-01,2.393070608377456665e-02,2.087687849998474121e-01,2.817663252353668213e-01,4.191657006740570068e-01,-5.608752369880676270e-01,-3.829197585582733154e-02,3.129104077816009521e-01,-5.725854039192199707e-01,-5.215641856193542480e-01,2.712292671203613281e-01,-1.392389237880706787e-01,-4.902680218219757080e-01,1.189244091510772705e-01,1.592245101928710938e-01,-2.483251839876174927e-01,2.703392803668975830e-01,-5.557438731193542480e-01,-7.150018215179443359e-02,-1.910265237092971802e-01,-6.489828228950500488e-01,-5.010057687759399414e-01,2.325312048196792603e-01,-6.032515764236450195e-01,-5.923199653625488281e-01,-1.801872998476028442e-01,1.489297896623611450e-01,-1.785359084606170654e-01,3.771772384643554688e-01,2.173436880111694336e-01,-1.278061866760253906e-01,5.000487565994262695e-01,-3.167268633842468262e-01,5.961623415350914001e-02,-1.469762772321701050e-01,-6.412746310234069824e-01,-5.649118423461914062e-01,-6.558665037155151367e-01,-1.293565332889556885e-01,-4.893227815628051758e-01,1.842590048909187317e-02,-6.027408242225646973e-01,-3.572371006011962891e-01,-6.172902882099151611e-02,-1.915587037801742554e-01,-1.365952566266059875e-02,2.700013220310211182e-01,-6.067845821380615234e-01,4.691374301910400391e-01,5.596889853477478027e-01,2.528963387012481689e-01,-3.442743718624114990e-01,5.023716092109680176e-01,6.405550241470336914e-01,5.044428110122680664e-01,-5.045110825449228287e-03,6.514108180999755859e-02,6.237710118293762207e-01,1.267350763082504272e-01,-1.587647944688796997e-01,4.029265344142913818e-01,6.123433709144592285e-01,5.212800502777099609e-01,-1.907163113355636597e-01,-6.785728931427001953e-01,-4.544568657875061035e-01,-8.915000408887863159e-02,-2.428397089242935181e-01,-4.604274630546569824e-01,3.048664331436157227e-01,3.145858645439147949e-01,-2.219867855310440063e-01,-4.631970524787902832e-01,-4.062102138996124268e-01,2.186836749315261841e-01,5.275973677635192871e-01,-1.805924326181411743e-01,-5.833603814244270325e-02,1.829245537519454956e-01,4.267379641532897949e-01,-1.316933929920196533e-01,2.101414799690246582e-01,2.962117791175842285e-01,1.765485107898712158e-01
4.393471479415893555e-01,5.395931005477905273e-01,1.451229751110076904e-01,-5.739698410034179688e-01,-2.272822260856628418e-01,1.937140077352523804e-01,6.351148486137390137e-01,-4.488411843776702881e-01,3.068560361862182617e-01,-9.155694395303726196e-02,-1.252938359975814819e-01,6.637675762176513672e-01,-5.492267608642578125e-01,-6.644532680511474609e-01,-1.630680710077285767e-01,-4.449053406715393066e-01,-5.750242471694946289e-01,-5.265017151832580566e-01,-2.591696977615356445e-01,-1.174845397472381592e-01,4.608387649059295654e-01,1.990009397268295288e-01,6.009863018989562988e-01,4.236234724521636963e-01,4.730380699038505554e-02,5.442318916320800781e-01,4.460935592651367188e-01,-2.130342721939086914e-01,4.330185651779174805e-01,4.392190277576446533e-01,5.731707215309143066e-01,-4.612408578395843506e-01,-1.704801917076110840e-01,-6.206278204917907715e-01,6.150240898132324219e-01,-4.697596132755279541e-01,-6.516047716140747070e-01,4.036194682121276855e-01,3.667406439781188965e-01,3.975405097007751465e-01,4.807272255420684814e-01,-4.897633492946624756e-01,5.732023119926452637e-01,1.230970490723848343e-02,2.143807411193847656e-01,2.869181632995605469e-01,4.082961380481719971e-01,-5.490114688873291016e-01,-3.133628144860267639e-02,2.867809236049652100e-01,-5.696775913238525391e-01,-5.291230082511901855e-01,2.693606913089752197e-01,-1.459512859582901001e-01,-4.810221195220947266e-01,1.347964107990264893e-01,1.493896543979644775e-01,-2.396779656410217285e-01,2.594263553619384766e-01,-5.528296828269958496e-01,-5.604203417897224426e-02,-1.775970607995986938e-01,-6.292701959609985352e-01,-4.826884567737579346e-01,2.215559035539627075e-01,-5.834548473358154297e-01,-5.933013558387756348e-01,-1.694505661725997925e-01,1.392518281936645508e-01,-1.884582489728927612e-01,3.533464074134826660e-01,2.125569880008697510e-01,-1.139912232756614685e-01,4.873155653476715088e-01,-3.084426820278167725e-01,6.595750898122787476e-02,-1.384289860725402832e-01,-6.276583075523376465e-01,-5.619500875473022461e-01,-6.350871920585632324e-01,-1.006809473037719727e-01,-4.738050699234008789e-01,3.125819843262434006e-03,-6.028074026107788086e-01,-3.689432442188262939e-01,-8.233051747083663940e-02,-2.016330361366271973e-01,-2.674501575529575348e-02,2.705619335174560547e-01,-6.074365377426147461e-01,4.562366306781768799e-01,5.513164997100830078e-01,2.618080079555511475e-01,-3.282843232154846191e-01,4.933196902275085449e-01,6.306407451629638672e-01,4.994821548461914062e-01,-2.028996869921684265e-02,5.902452766895294189e-02,6.040223836898803711e-01,1.196149960160255432e-01,-1.645291745662689209e-01,4.204670786857604980e-01,5.982646942138671875e-01,5.054472088813781738e-01,-1.877274215221405029e-01,-6.720933914184570312e-01,-4.588974118232727051e-01,-6.998886913061141968e-02,-2.415342330932617188e-01,-4.620529115200042725e-01,2.953315973281860352e-01,3.079996109008789062e-01,-2.090548276901245117e-01,-4.492689669132232666e-01,-3.895652592182159424e-01,2.263953983783721924e-01,5.067679882049560547e-01,-1.482632309198379517e-01,-7.287988066673278809e-02,1.728014051914215088e-01,4.058479368686676025e-01,-1.454174220561981201e-01,2.087307721376419067e-01,3.178189396858215332e-01,1.651348173618316650e-01
-4.621050357818603516e-01,-5.690633058547973633e-01,-1.523598134517669678e-01,6.159464716911315918e-01,2.380730509757995605e-01,-2.007615268230438232e-01,-6.679214239120483398e-01,4.456992447376251221e-01,-3.146061599254608154e-01,7.826919108629226685e-02,1.090734004974365234e-01,-6.887376308441162109e-01,5.538030862808227539e-01,6.885094046592712402e-01,1.683617085218429565e-01,4.876587986946105957e-01,6.218322515487670898e-01,5.754141211509704590e-01,2.687042653560638428e-01,1.168566793203353882e-01,-4.873282313346862793e-01,-2.128883302211761475e-01,-6.230762004852294922e-01,-4.524157941341400146e-01,-1.083576865494251251e-02,-5.713769793510437012e-01,-4.709056317806243896e-01,2.222171276807785034e-01,-4.589956700801849365e-01,-4.634052813053131104e-01,-5.856395363807678223e-01,4.627504646778106689e-01,1.829245388507843018e-01,6.399081945419311523e-01,-6.288558244705200195e-01,4.656808674335479736e-01,6.742289662361145020e-01,-4.182639420032501221e-01,-3.926075696945190430e-01,-4.318413138389587402e-01,-5.044152736663818359e-01,5.171778798103332520e-01,-6.005921363830566406e-01,-2.252740412950515747e-02,-2.163751721382141113e-01,-2.942095100879669189e-01,-4.287037551403045654e-01,5.738328099250793457e-01,3.701287135481834412e-02,-3.211947679519653320e-01,5.885975360870361328e-01,5.337730646133422852e-01,-2.787730097770690918e-01,1.438878625631332397e-01,5.008415579795837402e-01,-1.248263716697692871e-01,-1.586289703845977783e-01,2.557208836078643799e-01,-2.742044627666473389e-01,5.686280727386474609e-01,7.357642799615859985e-02,1.975428164005279541e-01,6.662598848342895508e-01,5.127691626548767090e-01,-2.421322166919708252e-01,6.204175353050231934e-01,6.086031794548034668e-01,1.843973100185394287e-01,-1.580300331115722656e-01,1.846061050891876221e-01,-3.892179429531097412e-01,-2.234285175800323486e-01,1.322843581438064575e-01,-5.106844902038574219e-01,3.213957548141479492e-01,-6.325960159301757812e-02,1.492647230625152588e-01,6.572297811508178711e-01,5.831838250160217285e-01,6.744536757469177246e-01,1.313941329717636108e-01,4.999198913574218750e-01,-2.112967148423194885e-02,6.207771301269531250e-01,3.659935295581817627e-01,6.505246460437774658e-02,1.963548511266708374e-01,1.583449915051460266e-02,-2.805007994174957275e-01,6.242446899414062500e-01,-4.794669747352600098e-01,-5.729804635047912598e-01,-2.634273767471313477e-01,3.514177799224853516e-01,-5.148797035217285156e-01,-6.602001190185546875e-01,-5.206499099731445312e-01,5.741537082940340042e-03,-6.485464423894882202e-02,-6.431685090065002441e-01,-1.321599930524826050e-01,1.682181209325790405e-01,-4.102811217308044434e-01,-6.275675892829895020e-01,-5.328568220138549805e-01,1.981445103883743286e-01,6.967182755470275879e-01,4.669746160507202148e-01,9.364584088325500488e-02,2.505547106266021729e-01,4.758009612560272217e-01,-3.096896708011627197e-01,-3.272177278995513916e-01,2.237272709608078003e-01,4.735896885395050049e-01,4.176298379898071289e-01,-2.252192795276641846e-01,-5.396291613578796387e-01,1.843610554933547974e-01,6.139694154262542725e-02,-1.898570805788040161e-01,-4.388705790042877197e-01,1.358710378408432007e-01,-2.176356762647628784e-01,-3.016518056392669678e-01,-1.765276193618774414e-01
-4.352462887763977051e-01,-5.558354854583740234e-01,-1.419510394334793091e-01,6.004025340080261230e-01,2.216892540454864502e-01,-1.871514320373535156e-01,-6.349963545799255371e-01,4.139562845230102539e-01,-2.916920781135559082e-01,5.753584951162338257e-02,8.609043061733245850e-02,-6.543397307395935059e-01,5.207306742668151855e-01,6.580122709274291992e-01,1.500428617000579834e-01,4.748546779155731201e-01,6.044582128524780273e-01,5.665882825851440430e-01,2.614508569240570068e-01,1.004779487848281860e-01,-4.777480065822601318e-01,-2.120001167058944702e-01,-5.934330821037292480e-01,-4.482750594615936279e-01,5.778355523943901062e-03,-5.499364137649536133e-01,-4.529082775115966797e-01,2.047723382711410522e-01,-4.544114172458648682e-01,-4.570321142673492432e-01,-5.526566505432128906e-01,4.306578338146209717e-01,1.840443313121795654e-01,6.069595813751220703e-01,-5.959048271179199219e-01,4.358533620834350586e-01,6.401832103729248047e-01,-3.967623710632324219e-01,-3.728345036506652832e-01,-4.263929128646850586e-01,-4.878668785095214844e-01,4.863785505294799805e-01,-5.770693421363830566e-01,-3.161296248435974121e-02,-1.934787333011627197e-01,-2.690853774547576904e-01,-4.210662543773651123e-01,5.580644011497497559e-01,4.219945892691612244e-02,-3.263197839260101318e-01,5.584450364112854004e-01,5.037242174148559570e-01,-2.600983679294586182e-01,1.271953284740447998e-01,4.828841686248779297e-01,-1.086292862892150879e-01,-1.573536098003387451e-01,2.413462251424789429e-01,-2.720053195953369141e-01,5.437071323394775391e-01,8.578043431043624878e-02,1.878269165754318237e-01,6.437274813652038574e-01,5.041211247444152832e-01,-2.291458398103713989e-01,6.039029955863952637e-01,5.779820680618286133e-01,1.776158958673477173e-01,-1.468750536441802979e-01,1.649246215820312500e-01,-3.867691755294799805e-01,-2.129135280847549438e-01,1.378713846206665039e-01,-4.968143105506896973e-01,3.157034814357757568e-01,-5.275920405983924866e-02,1.522989571094512939e-01,6.336674690246582031e-01,5.532037019729614258e-01,6.497315764427185059e-01,1.434634476900100708e-01,4.865850806236267090e-01,-3.213017061352729797e-02,5.868262052536010742e-01,3.418620526790618896e-01,4.719133302569389343e-02,1.729307621717453003e-01,1.300417352467775345e-02,-2.596744596958160400e-01,5.953190326690673828e-01,-4.641211330890655518e-01,-5.522796511650085449e-01,-2.394750714302062988e-01,3.403238058090209961e-01,-4.954761564731597900e-01,-6.339834332466125488e-01,-4.947132766246795654e-01,-8.523808792233467102e-03,-7.108999788761138916e-02,-6.164137125015258789e-01,-1.229373440146446228e-01,1.521224826574325562e-01,-3.803748488426208496e-01,-6.083062887191772461e-01,-5.194055438041687012e-01,1.838498562574386597e-01,6.651527285575866699e-01,4.439885020256042480e-01,1.020804420113563538e-01,2.318196892738342285e-01,4.419173002243041992e-01,-3.030177950859069824e-01,-3.060457706451416016e-01,2.220696955919265747e-01,4.670316874980926514e-01,4.140579700469970703e-01,-2.037017047405242920e-01,-5.314746499061584473e-01,1.921159178018569946e-01,4.146441444754600525e-02,-1.787288337945938110e-01,-4.312123358249664307e-01,1.178576052188873291e-01,-2.018367052078247070e-01,-2.735365629196166992e-01,-1.798581928014755249e-01
-4.328370690345764160e-01,-5.549362301826477051e-01,-1.428730934858322144e-01,5.984395146369934082e-01,2.211009860038757324e-01,-1.852035820484161377e-01,-6.346064805984497070e-01,4.115121960639953613e-01,-2.897163927555084229e-01,5.540300905704498291e-02,8.518550544977188110e-02,-6.505603194236755371e-01,5.181854963302612305e-01,6.535383462905883789e-01,1.490311026573181152e-01,4.740710556507110596e-01,6.054950356483459473e-01,5.675523877143859863e-01,2.622267901897430420e-01,1.024479791522026062e-01,-4.778387248516082764e-01,-2.105891108512878418e-01,-5.908294320106506348e-01,-4.452431499958038330e-01,6.820479873567819595e-03,-5.492025017738342285e-01,-4.536234438419342041e-01,2.031513005495071411e-01,-4.537841081619262695e-01,-4.537397325038909912e-01,-5.511793494224548340e-01,4.288033246994018555e-01,1.813240349292755127e-01,6.047919392585754395e-01,-5.928769707679748535e-01,4.347688555717468262e-01,6.369919776916503906e-01,-3.967150747776031494e-01,-3.705701231956481934e-01,-4.276489019393920898e-01,-4.866609573364257812e-01,4.837034344673156738e-01,-5.765190720558166504e-01,-3.088956139981746674e-02,-1.929902136325836182e-01,-2.682059407234191895e-01,-4.175888895988464355e-01,5.571981668472290039e-01,4.430043697357177734e-02,-3.242916166782379150e-01,5.562250018119812012e-01,4.999394714832305908e-01,-2.575469017028808594e-01,1.260199546813964844e-01,4.834895133972167969e-01,-1.058109030127525330e-01,-1.571632921695709229e-01,2.409368306398391724e-01,-2.718184888362884521e-01,5.430640578269958496e-01,8.417994529008865356e-02,1.869876235723495483e-01,6.409592628479003906e-01,5.022071599960327148e-01,-2.273313701152801514e-01,6.014590859413146973e-01,5.741710066795349121e-01,1.774723827838897705e-01,-1.485663503408432007e-01,1.643898338079452515e-01,-3.866033554077148438e-01,-2.130979597568511963e-01,1.359752714633941650e-01,-4.958495199680328369e-01,3.157153427600860596e-01,-5.306446924805641174e-02,1.532213389873504639e-01,6.306734681129455566e-01,5.504519343376159668e-01,6.476211547851562500e-01,1.426501870155334473e-01,4.850869178771972656e-01,-3.244669362902641296e-02,5.868005752563476562e-01,3.409384787082672119e-01,4.613723233342170715e-02,1.714995503425598145e-01,1.019916497170925140e-02,-2.586773335933685303e-01,5.913578867912292480e-01,-4.619341790676116943e-01,-5.513428449630737305e-01,-2.385539561510086060e-01,3.408927023410797119e-01,-4.946390390396118164e-01,-6.303803920745849609e-01,-4.900231361389160156e-01,-8.828850463032722473e-03,-6.945137679576873779e-02,-6.148386597633361816e-01,-1.248035654425621033e-01,1.521427035331726074e-01,-3.789286315441131592e-01,-6.066842079162597656e-01,-5.167389512062072754e-01,1.832086741924285889e-01,6.611679792404174805e-01,4.408628642559051514e-01,1.009572967886924744e-01,2.288528233766555786e-01,4.422866106033325195e-01,-3.026558458805084229e-01,-3.042301535606384277e-01,2.202498316764831543e-01,4.640172123908996582e-01,4.109089672565460205e-01,-2.028553783893585205e-01,-5.307140946388244629e-01,1.939130127429962158e-01,4.012217000126838684e-02,-1.764106005430221558e-01,-4.302604198455810547e-01,1.170813739299774170e-01,-2.011984586715698242e-01,-2.737818062305450439e-01,-1.800595223903656006e-01
-4.335970580577850342e-01,-5.549833774566650391e-01,-1.398339271545410156e-01,5.994949936866760254e-01,2.198395729064941406e-01,-1.864844560623168945e-01,-6.332296133041381836e-01,4.113319814205169678e-01,-2.916730344295501709e-01,5.581204593181610107e-02,8.573495596647262573e-02,-6.478734016418457031e-01,5.168106555938720703e-01,6.532886624336242676e-01,1.499080955982208252e-01,4.727303385734558105e-01,6.036380529403686523e-01,5.652535557746887207e-01,2.622402012348175049e-01,9.927964955568313599e-02,-4.756025373935699463e-01,-2.102507054805755615e-01,-5.887665152549743652e-01,-4.437797367572784424e-01,7.332838606089353561e-03,-5.480976104736328125e-01,-4.498439133167266846e-01,2.042227238416671753e-01,-4.497794806957244873e-01,-4.521991014480590820e-01,-5.482952594757080078e-01,4.277670979499816895e-01,1.805779486894607544e-01,6.022273302078247070e-01,-5.902416110038757324e-01,4.331979453563690186e-01,6.348268985748291016e-01,-3.947595357894897461e-01,-3.691743612289428711e-01,-4.250344038009643555e-01,-4.845773577690124512e-01,4.823656678199768066e-01,-5.761891007423400879e-01,-3.072514943778514862e-02,-1.918148845434188843e-01,-2.688129246234893799e-01,-4.174125194549560547e-01,5.555955767631530762e-01,4.115355014801025391e-02,-3.228023052215576172e-01,5.556387305259704590e-01,4.989288747310638428e-01,-2.564809620380401611e-01,1.241314932703971863e-01,4.829951226711273193e-01,-1.052495688199996948e-01,-1.586522907018661499e-01,2.408850789070129395e-01,-2.725763916969299316e-01,5.386452674865722656e-01,8.575569838285446167e-02,1.886731386184692383e-01,6.414366960525512695e-01,5.023270249366760254e-01,-2.256973981857299805e-01,6.004291176795959473e-01,5.749273300170898438e-01,1.770991235971450806e-01,-1.473040431737899780e-01,1.638895869255065918e-01,-3.855832219123840332e-01,-2.101222276687622070e-01,1.361335664987564087e-01,-4.965034723281860352e-01,3.130146265029907227e-01,-5.352758988738059998e-02,1.513083875179290771e-01,6.288049817085266113e-01,5.485162138938903809e-01,6.462882161140441895e-01,1.413949131965637207e-01,4.838770031929016113e-01,-3.346111625432968140e-02,5.849559903144836426e-01,3.390693366527557373e-01,4.688784480094909668e-02,1.712121814489364624e-01,1.197429653257131577e-02,-2.590908706188201904e-01,5.908154249191284180e-01,-4.616616070270538330e-01,-5.520575046539306641e-01,-2.388815134763717651e-01,3.371734321117401123e-01,-4.943137466907501221e-01,-6.307029128074645996e-01,-4.885243177413940430e-01,-7.745120208710432053e-03,-6.967779994010925293e-02,-6.142237782478332520e-01,-1.219855695962905884e-01,1.510192900896072388e-01,-3.780892193317413330e-01,-6.073539853096008301e-01,-5.149628520011901855e-01,1.816159486770629883e-01,6.606152057647705078e-01,4.395454227924346924e-01,1.004007160663604736e-01,2.295651137828826904e-01,4.391691982746124268e-01,-3.039608597755432129e-01,-3.041035532951354980e-01,2.220781892538070679e-01,4.635156393051147461e-01,4.105334877967834473e-01,-2.016776204109191895e-01,-5.306394696235656738e-01,1.929538398981094360e-01,3.949443250894546509e-02,-1.774370670318603516e-01,-4.287103116512298584e-01,1.180298849940299988e-01,-2.033073902130126953e-01,-2.736870646476745605e-01,-1.778900623321533203e-01
-4.339919090270996094e-01,-5.534814596176147461e-01,-1.425735652446746826e-01,5.976722836494445801e-01,2.190036028623580933e-01,-1.855005174875259399e-01,-6.337811350822448730e-01,4.122585356235504150e-01,-2.925371229648590088e-01,5.716702342033386230e-02,8.653239905834197998e-02,-6.497275233268737793e-01,5.157525539398193359e-01,6.543413996696472168e-01,1.512709110975265503e-01,4.717526733875274658e-01,6.036909818649291992e-01,5.661200284957885742e-01,2.603612840175628662e-01,1.021797955036163330e-01,-4.779957532882690430e-01,-2.102329432964324951e-01,-5.893445611000061035e-01,-4.456861019134521484e-01,8.351963013410568237e-03,-5.459645390510559082e-01,-4.506914615631103516e-01,2.037546783685684204e-01,-4.528748691082000732e-01,-4.521590471267700195e-01,-5.505053997039794922e-01,4.277943372726440430e-01,1.825759261846542358e-01,6.009869575500488281e-01,-5.920964479446411133e-01,4.314402043819427490e-01,6.384702920913696289e-01,-3.965122699737548828e-01,-3.686903417110443115e-01,-4.250916540622711182e-01,-4.855921864509582520e-01,4.833667576313018799e-01,-5.742750167846679688e-01,-2.895961701869964600e-02,-1.940042972564697266e-01,-2.692195773124694824e-01,-4.188537299633026123e-01,5.537001490592956543e-01,4.225106164813041687e-02,-3.236967325210571289e-01,5.555915236473083496e-01,4.987065494060516357e-01,-2.586699724197387695e-01,1.237525567412376404e-01,4.808361828327178955e-01,-1.082704514265060425e-01,-1.586708128452301025e-01,2.402702569961547852e-01,-2.725482881069183350e-01,5.412912964820861816e-01,8.335384726524353027e-02,1.897928416728973389e-01,6.419028639793395996e-01,5.014491081237792969e-01,-2.258198708295822144e-01,6.004742383956909180e-01,5.733969807624816895e-01,1.759663075208663940e-01,-1.472914069890975952e-01,1.663377881050109863e-01,-3.838120996952056885e-01,-2.116457223892211914e-01,1.352160423994064331e-01,-4.968976974487304688e-01,3.150200545787811279e-01,-5.215130373835563660e-02,1.520511806011199951e-01,6.300489306449890137e-01,5.499760508537292480e-01,6.490312218666076660e-01,1.403643339872360229e-01,4.838404655456542969e-01,-3.317021206021308899e-02,5.852574706077575684e-01,3.376526832580566406e-01,4.714902862906455994e-02,1.715674996376037598e-01,1.130369585007429123e-02,-2.580018937587738037e-01,5.900505781173706055e-01,-4.614311456680297852e-01,-5.498340129852294922e-01,-2.399988919496536255e-01,3.386836946010589600e-01,-4.936832189559936523e-01,-6.301200985908508301e-01,-4.915263056755065918e-01,-7.346382364630699158e-03,-6.989608705043792725e-02,-6.163119077682495117e-01,-1.248774975538253784e-01,1.518696248531341553e-01,-3.794726133346557617e-01,-6.074547767639160156e-01,-5.175958275794982910e-01,1.840768754482269287e-01,6.605834960937500000e-01,4.407831728458404541e-01,1.034333407878875732e-01,2.296473234891891479e-01,4.409620761871337891e-01,-3.021185398101806641e-01,-3.031405508518218994e-01,2.222792357206344604e-01,4.653282463550567627e-01,4.103063642978668213e-01,-2.012503147125244141e-01,-5.304243564605712891e-01,1.922162920236587524e-01,3.921401128172874451e-02,-1.770551800727844238e-01,-4.300166368484497070e-01,1.181865632534027100e-01,-2.042306661605834961e-01,-2.738627195358276367e-01,-1.803048700094223022e-01
-4.325595200061798096e-01,-5.531244277954101562e-01,-1.396409869194030762e-01,5.981900691986083984e-01,2.194120436906814575e-01,-1.847482770681381226e-01,-6.329563260078430176e-01,4.139082729816436768e-01,-2.921467125415802002e-01,5.648520216345787048e-02,8.732001483440399170e-02,-6.493130922317504883e-01,5.160210132598876953e-01,6.528535485267639160e-01,1.509633362293243408e-01,4.714579582214355469e-01,6.016666889190673828e-01,5.657168030738830566e-01,2.610300481319427490e-01,9.954459220170974731e-02,-4.778314232826232910e-01,-2.125468105077743530e-01,-5.893059372901916504e-01,-4.466876387596130371e-01,6.257845554500818253e-03,-5.480945706367492676e-01,-4.527819752693176270e-01,2.033654749393463135e-01,-4.537337124347686768e-01,-4.552247822284698486e-01,-5.510547161102294922e-01,4.271998703479766846e-01,1.836627572774887085e-01,6.037179827690124512e-01,-5.901405811309814453e-01,4.347677230834960938e-01,6.374043226242065430e-01,-3.946961164474487305e-01,-3.693117201328277588e-01,-4.284487962722778320e-01,-4.862927496433258057e-01,4.839198589324951172e-01,-5.755950808525085449e-01,-3.144830837845802307e-02,-1.909279823303222656e-01,-2.679632306098937988e-01,-4.172860085964202881e-01,5.567248463630676270e-01,4.253078997135162354e-02,-3.237013220787048340e-01,5.574629902839660645e-01,4.987482130527496338e-01,-2.570497393608093262e-01,1.246439069509506226e-01,4.810373187065124512e-01,-1.061948314309120178e-01,-1.569680720567703247e-01,2.412973195314407349e-01,-2.727395296096801758e-01,5.417943000793457031e-01,8.335565030574798584e-02,1.867427527904510498e-01,6.407505273818969727e-01,5.026367306709289551e-01,-2.246980667114257812e-01,5.995419025421142578e-01,5.740630030632019043e-01,1.760761886835098267e-01,-1.464364975690841675e-01,1.631242334842681885e-01,-3.845408856868743896e-01,-2.119155824184417725e-01,1.359971016645431519e-01,-4.978159666061401367e-01,3.138516247272491455e-01,-5.243321880698204041e-02,1.523026973009109497e-01,6.298821568489074707e-01,5.480428338050842285e-01,6.476315855979919434e-01,1.432215422391891479e-01,4.854109287261962891e-01,-3.496386110782623291e-02,5.861281156539916992e-01,3.378709554672241211e-01,4.794416576623916626e-02,1.728847771883010864e-01,1.046490855515003204e-02,-2.585475742816925049e-01,5.922780036926269531e-01,-4.630758464336395264e-01,-5.506976842880249023e-01,-2.379319816827774048e-01,3.393367528915405273e-01,-4.935386478900909424e-01,-6.325942873954772949e-01,-4.893992245197296143e-01,-8.213407360017299652e-03,-7.031914591789245605e-02,-6.149953007698059082e-01,-1.243956163525581360e-01,1.503697633743286133e-01,-3.792601525783538818e-01,-6.064237952232360840e-01,-5.172024369239807129e-01,1.839598864316940308e-01,6.592175960540771484e-01,4.420439004898071289e-01,1.004016995429992676e-01,2.293821871280670166e-01,4.404430091381072998e-01,-3.022329211235046387e-01,-3.038402497768402100e-01,2.225823551416397095e-01,4.652790427207946777e-01,4.115474820137023926e-01,-2.029103487730026245e-01,-5.306241512298583984e-01,1.938715875148773193e-01,3.853671997785568237e-02,-1.759037971496582031e-01,-4.301896691322326660e-01,1.187607795000076294e-01,-2.024327963590621948e-01,-2.742006778717041016e-01,-1.809997856616973877e-01
4.335788488388061523e-01,5.493690967559814453e-01,1.456054151058197021e-01,-5.945842862129211426e-01,-2.221231609582901001e-01,1.872541606426239014e-01,6.346994638442993164e-01,-4.118347764015197754e-01,2.926213443279266357e-01,-5.756752192974090576e-02,-8.550931513309478760e-02,6.486717462539672852e-01,-5.139858126640319824e-01,-6.509116888046264648e-01,-1.538962423801422119e-01,-4.750239551067352295e-01,-6.043958067893981934e-01,-5.643162131309509277e-01,-2.580481171607971191e-01,-1.033309698104858398e-01,4.723383486270904541e-01,2.087058424949645996e-01,5.902361273765563965e-01,4.397936761379241943e-01,-8.112475275993347168e-03,5.443633794784545898e-01,4.487200379371643066e-01,-2.040088325738906860e-01,4.483884572982788086e-01,4.495583474636077881e-01,5.476453304290771484e-01,-4.256770014762878418e-01,-1.774981617927551270e-01,-6.014047861099243164e-01,5.905828475952148438e-01,-4.329575598239898682e-01,-6.357518434524536133e-01,3.979828953742980957e-01,3.716656863689422607e-01,4.214918315410614014e-01,4.807869195938110352e-01,-4.864311516284942627e-01,5.724563002586364746e-01,2.800471521914005280e-02,1.950338184833526611e-01,2.700510919094085693e-01,4.140087664127349854e-01,-5.506449341773986816e-01,-3.974402695894241333e-02,3.195216357707977295e-01,-5.546948313713073730e-01,-4.990431070327758789e-01,2.595989108085632324e-01,-1.263559311628341675e-01,-4.776769876480102539e-01,1.067826151847839355e-01,1.576300114393234253e-01,-2.421036362648010254e-01,2.728441059589385986e-01,-5.363900065422058105e-01,-8.147390931844711304e-02,-1.910770982503890991e-01,-6.401836276054382324e-01,-4.968478977680206299e-01,2.269753068685531616e-01,-5.980114936828613281e-01,-5.721230506896972656e-01,-1.782735586166381836e-01,1.493663191795349121e-01,-1.662096083164215088e-01,3.820120096206665039e-01,2.114422321319580078e-01,-1.356867700815200806e-01,4.932634830474853516e-01,-3.104429841041564941e-01,5.413458868861198425e-02,-1.486484855413436890e-01,-6.259480714797973633e-01,-5.477577447891235352e-01,-6.448220610618591309e-01,-1.422921270132064819e-01,-4.819385409355163574e-01,3.042795136570930481e-02,-5.823296904563903809e-01,-3.388333022594451904e-01,-4.657427221536636353e-02,-1.745001822710037231e-01,-1.346290390938520432e-02,2.584291398525238037e-01,-5.892086029052734375e-01,4.584406912326812744e-01,5.491254329681396484e-01,2.387302368879318237e-01,-3.399909734725952148e-01,4.913963973522186279e-01,6.274406313896179199e-01,4.898932278156280518e-01,4.539335612207651138e-03,6.778127700090408325e-02,6.156221628189086914e-01,1.253323107957839966e-01,-1.541360467672348022e-01,3.783516287803649902e-01,6.028334498405456543e-01,5.130685567855834961e-01,-1.855255812406539917e-01,-6.602917313575744629e-01,-4.406861066818237305e-01,-9.980102628469467163e-02,-2.307094782590866089e-01,-4.423766136169433594e-01,3.011233508586883545e-01,3.043244779109954834e-01,-2.191117256879806519e-01,-4.589750766754150391e-01,-4.050625264644622803e-01,2.028482854366302490e-01,5.236617922782897949e-01,-1.940019577741622925e-01,-4.224177449941635132e-02,1.780775189399719238e-01,4.278531074523925781e-01,-1.177111491560935974e-01,2.048424780368804932e-01,2.717107534408569336e-01,1.760899424552917480e-01
4.338691532611846924e-01,5.525709986686706543e-01,1.437849998474121094e-01,-5.959086418151855469e-01,-2.214143574237823486e-01,1.864166706800460815e-01,6.336531043052673340e-01,-4.108536243438720703e-01,2.925315201282501221e-01,-5.630522221326828003e-02,-8.503155410289764404e-02,6.475080251693725586e-01,-5.158762335777282715e-01,-6.539120674133300781e-01,-1.501314342021942139e-01,-4.719984233379364014e-01,-6.022343635559082031e-01,-5.641796588897705078e-01,-2.609868645668029785e-01,-1.012329086661338806e-01,4.751282036304473877e-01,2.087075263261795044e-01,5.878748893737792969e-01,4.431658387184143066e-01,-8.291376754641532898e-03,5.454406142234802246e-01,4.497601985931396484e-01,-2.031720578670501709e-01,4.505466222763061523e-01,4.519591033458709717e-01,5.500902533531188965e-01,-4.283828735351562500e-01,-1.797533780336380005e-01,-6.027469635009765625e-01,5.888230204582214355e-01,-4.312068521976470947e-01,-6.344691514968872070e-01,3.973961472511291504e-01,3.696116805076599121e-01,4.250459372997283936e-01,4.828626811504364014e-01,-4.825157225131988525e-01,5.729715824127197266e-01,3.098027594387531281e-02,1.916713267564773560e-01,2.695431113243103027e-01,4.136313199996948242e-01,-5.512773990631103516e-01,-4.094763845205307007e-02,3.212067484855651855e-01,-5.557169914245605469e-01,-4.980811178684234619e-01,2.592290937900543213e-01,-1.269231736660003662e-01,-4.806834757328033447e-01,1.063435003161430359e-01,1.583074331283569336e-01,-2.414406985044479370e-01,2.730435729026794434e-01,-5.387938618659973145e-01,-8.429805189371109009e-02,-1.887128800153732300e-01,-6.403187513351440430e-01,-4.978343248367309570e-01,2.263894826173782349e-01,-5.971912741661071777e-01,-5.741097927093505859e-01,-1.781145632266998291e-01,1.482940614223480225e-01,-1.660712659358978271e-01,3.822668194770812988e-01,2.115790843963623047e-01,-1.362382173538208008e-01,4.934075772762298584e-01,-3.113979399204254150e-01,5.292168259620666504e-02,-1.510351449251174927e-01,-6.267321705818176270e-01,-5.501201152801513672e-01,-6.476098895072937012e-01,-1.414697915315628052e-01,-4.844628572463989258e-01,3.100021369755268097e-02,-5.844619870185852051e-01,-3.374341428279876709e-01,-4.734061658382415771e-02,-1.704571545124053955e-01,-1.306189410388469696e-02,2.588616311550140381e-01,-5.897873640060424805e-01,4.599339067935943604e-01,5.474165678024291992e-01,2.402550429105758667e-01,-3.406479954719543457e-01,4.932106435298919678e-01,6.297619342803955078e-01,4.910434186458587646e-01,7.168954703956842422e-03,6.811704486608505249e-02,6.144827604293823242e-01,1.235575452446937561e-01,-1.512467861175537109e-01,3.784211277961730957e-01,6.057213544845581055e-01,5.137946009635925293e-01,-1.842031031847000122e-01,-6.609886884689331055e-01,-4.392072856426239014e-01,-1.016143858432769775e-01,-2.304130941629409790e-01,-4.384992718696594238e-01,3.025495707988739014e-01,3.052618801593780518e-01,-2.190198749303817749e-01,-4.623490273952484131e-01,-4.073961973190307617e-01,2.007887214422225952e-01,5.276708006858825684e-01,-1.946179270744323730e-01,-4.131720215082168579e-02,1.776372939348220825e-01,4.261785447597503662e-01,-1.161298304796218872e-01,2.032430171966552734e-01,2.711238861083984375e-01,1.768634170293807983e-01
1.314104301854968071e-03,-5.017197690904140472e-03,4.923131782561540604e-03,2.265313640236854553e-03,-8.954537101089954376e-03,6.162985228002071381e-03,-8.804089884506538510e-05,6.066848989576101303e-03,9.027089108712971210e-04,8.251187973655760288e-04,5.387881305068731308e-03,-5.169041454792022705e-03,7.024859078228473663e-03,6.928162649273872375e-03,-1.014993991702795029e-02,-7.373000029474496841e-03,-3.972074948251247406e-03,-3.416636260226368904e-03,1.211942080408334732e-02,-1.579536707140505314e-03,-4.367491696029901505e-03,-7.931623607873916626e-03,-1.431117270840331912e-04,-4.756615962833166122e-03,-1.930882036685943604e-02,-6.832459010183811188e-03,-4.256751853972673416e-03,-3.453352954238653183e-03,-3.536837408319115639e-03,-6.271297577768564224e-03,-9.663104079663753510e-03,3.683633636683225632e-03,7.527606561779975891e-03,3.305091056972742081e-03,-7.576474454253911972e-03,5.886782426387071609e-03,4.606059286743402481e-03,1.044605206698179245e-02,5.540107376873493195e-03,-4.514474887400865555e-03,-5.648139398545026779e-03,-7.563538965769112110e-04,-4.509590566158294678e-03,4.090630449354648590e-03,3.620667383074760437e-03,2.037020167335867882e-03,-4.580046050250530243e-03,4.087511915713548660e-03,8.658115752041339874e-03,-2.222780371084809303e-03,9.103419259190559387e-03,7.447175681591033936e-03,3.800558391958475113e-03,-6.976369302719831467e-03,5.190647672861814499e-03,-3.522849874570965767e-03,1.253007352352142334e-02,-1.224694401025772095e-02,4.936498031020164490e-02,8.114592172205448151e-03,7.156294304877519608e-03,-1.296356320381164551e-02,-3.011272638104856014e-04,5.770711228251457214e-03,1.274782884865999222e-02,2.122420817613601685e-03,7.378334179520606995e-03,-9.681639261543750763e-03,1.696021668612957001e-02,-2.467851620167493820e-03,-4.215360619127750397e-03,1.216159015893936157e-02,-3.320018993690609932e-03,-5.664811935275793076e-03,3.503784071654081345e-03,7.071323692798614502e-03,5.515397526323795319e-03,9.034662507474422455e-03,3.508867695927619934e-03,6.101398030295968056e-04,-1.335662603378295898e-02,7.219328545033931732e-03,-5.650654900819063187e-03,5.252357572317123413e-03,5.376887507736682892e-03,9.496766142547130585e-03,-3.136984014417976141e-04,-2.818334475159645081e-02,3.296699142083525658e-03,7.818402722477912903e-03,-9.061067365109920502e-03,-5.049920175224542618e-03,-5.000129342079162598e-03,-7.824243046343326569e-03,-6.351957097649574280e-03,-3.914452623575925827e-03,-1.573445741087198257e-03,-4.965108353644609451e-03,-4.635511431843042374e-03,4.077485355082899332e-04,1.726653240621089935e-02,-6.342782173305749893e-03,-8.010825142264366150e-03,-2.152434084564447403e-03,-6.056025158613920212e-03,-1.336293201893568039e-02,3.353107487782835960e-03,-3.246044507250189781e-03,2.395552815869450569e-03,-4.283843096345663071e-03,1.390377990901470184e-03,-7.470948621630668640e-04,5.372935440391302109e-03,-3.582660108804702759e-03,4.865029826760292053e-03,6.110055372118949890e-03,-9.326889994554221630e-04,-3.067960729822516441e-03,-1.864424720406532288e-02,-1.750207156874239445e-03,1.358458306640386581e-02,1.262480858713388443e-03,8.994646370410919189e-03,5.068196449428796768e-03,-1.188600808382034302e-02,-5.901355762034654617e-03
9.777914783626329154e-06,4.342506639659404755e-03,-5.510878283530473709e-03,-2.167634898796677589e-03,3.469213610514998436e-03,-3.533010371029376984e-03,-3.085427917540073395e-03,4.005688242614269257e-04,-2.211539540439844131e-03,1.071613049134612083e-03,-1.869274536147713661e-03,-1.685641938820481300e-03,4.739192780107259750e-03,1.059455447830259800e-03,3.399651264771819115e-03,6.000047549605369568e-03,2.976756542921066284e-03,3.416727762669324875e-03,-4.035591613501310349e-03,4.659627564251422882e-03,2.675037132576107979e-03,2.722339471802115440e-03,-7.483740773750469089e-05,1.944140647538006306e-03,6.264380645006895065e-03,1.815399504266679287e-03,5.731022683903574944e-04,-1.581100863404572010e-03,1.478957827202975750e-03,4.413391929119825363e-03,9.885840117931365967e-04,4.757167305797338486e-03,-4.302483517676591873e-03,2.997611591126769781e-04,-7.362738833762705326e-04,1.157875987701117992e-03,5.994595703668892384e-04,-1.335609611123800278e-02,-4.824811127036809921e-03,2.420533215627074242e-03,2.399217104539275169e-03,3.027287311851978302e-03,1.234990544617176056e-03,-4.983542952686548233e-03,-3.355921944603323936e-03,-3.590009175240993500e-03,3.562568686902523041e-03,-6.938882288523018360e-04,-2.981697442010045052e-03,2.259452361613512039e-03,2.375378971919417381e-03,-5.576238036155700684e-04,-2.695234725251793861e-03,2.404852304607629776e-03,-2.110143657773733139e-03,1.967055024579167366e-03,-9.778052568435668945e-03,4.580784589052200317e-03,1.479077618569135666e-03,1.259289332665503025e-03,-3.185606328770518303e-03,6.064211018383502960e-03,3.161441418342292309e-04,-4.699175246059894562e-03,-4.462526179850101471e-03,1.232941634953022003e-03,-6.475414265878498554e-04,8.450027555227279663e-03,-6.842778064310550690e-03,3.678886219859123230e-03,1.760791055858135223e-03,-8.032592013478279114e-03,3.154739504680037498e-03,1.114307204261422157e-03,-1.132043311372399330e-03,-4.114515148103237152e-03,-1.984113827347755432e-03,8.838131907396018505e-04,-5.266059888526797295e-04,1.849132473580539227e-03,5.190453492105007172e-03,-3.935374319553375244e-03,4.592544399201869965e-03,1.051928382366895676e-03,-1.955091487616300583e-03,-4.188339225947856903e-03,1.771455164998769760e-03,3.162228036671876907e-03,-1.248599146492779255e-03,-7.379346789093688130e-05,2.628529909998178482e-03,1.649631187319755554e-03,1.705028000287711620e-03,5.211117211729288101e-03,2.228884492069482803e-03,7.814428536221385002e-04,-1.366421813145279884e-03,1.672712503932416439e-03,3.864057071041315794e-04,-2.257454441860318184e-03,-8.310408331453800201e-03,1.758993486873805523e-03,-1.444662688300013542e-03,1.025069272145628929e-03,7.085835095494985580e-04,3.730383468791842461e-03,9.047411731444299221e-04,2.965069143101572990e-03,-5.839505698531866074e-03,2.599773928523063660e-03,3.534361021593213081e-03,-1.056506182067096233e-03,-1.772616989910602570e-03,1.588552375324070454e-03,-2.487191231921315193e-03,-1.644925563596189022e-03,-2.503802068531513214e-03,2.565430244430899620e-03,9.592787362635135651e-03,3.139920067042112350e-03,-4.861903376877307892e-03,1.666769850999116898e-03,-2.761131385341286659e-03,-2.004707930609583855e-03,3.044699318706989288e-03,1.777377678081393242e-03
1.547388825565576553e-02,-8.155529503710567951e-04,1.144508272409439087e-02,-7.959035574458539486e-04,-2.036501094698905945e-02,1.602249778807163239e-02,5.559411365538835526e-03,-6.513649714179337025e-04,8.706809952855110168e-03,-4.927039612084627151e-03,-1.177897909656167030e-03,2.223994117230176926e-03,2.573058009147644043e-03,-2.103632141370326281e-04,-1.481067296117544174e-02,-6.567910779267549515e-03,-4.793541971594095230e-03,1.368716941215097904e-03,5.713738035410642624e-03,-1.909074257127940655e-03,-5.337542854249477386e-03,-9.501572698354721069e-03,5.086013581603765488e-03,-5.766653921455144882e-03,-1.956017687916755676e-03,-2.509803511202335358e-03,8.052411489188671112e-03,-1.360331289470195770e-02,-5.135610699653625488e-03,-5.242631305009126663e-03,-1.575778354890644550e-03,3.714536316692829132e-03,1.094181463122367859e-02,-2.547169802710413933e-03,4.874290316365659237e-04,-1.390775665640830994e-03,-7.817620062269270420e-04,2.091430313885211945e-02,7.908953353762626648e-03,-7.419012486934661865e-03,-4.155831877142190933e-03,-9.141450747847557068e-03,-2.532995771616697311e-03,-1.476204209029674530e-02,6.576608400791883469e-03,1.157916244119405746e-02,-7.522272877395153046e-03,4.892281722277402878e-03,1.099400222301483154e-02,-6.858009379357099533e-03,3.284939797595143318e-03,-9.142132475972175598e-04,1.301364321261644363e-02,-1.310851983726024628e-02,2.606872236356139183e-03,1.204192731529474258e-02,-1.038399152457714081e-02,-1.449345517903566360e-02,7.524867542088031769e-03,3.309662453830242157e-03,9.187821298837661743e-03,-1.082183141261339188e-02,-2.740591298788785934e-03,5.028845742344856262e-03,1.343388948589563370e-02,-2.244400791823863983e-03,1.693829079158604145e-03,-1.677471445873379707e-03,1.448850892484188080e-02,-9.678974747657775879e-03,-5.855946801602840424e-03,1.897023431956768036e-02,7.130410987883806229e-03,-5.959537345916032791e-03,7.869506254792213440e-03,1.245785783976316452e-02,1.168122887611389160e-02,2.428290899842977524e-03,-5.182430148124694824e-03,-1.798424986191093922e-03,4.025548696517944336e-03,5.291956476867198944e-03,-8.552437648177146912e-03,-4.944352549500763416e-04,-4.289403092116117477e-03,-7.588727399706840515e-03,-5.510250106453895569e-03,-3.931648097932338715e-03,1.188008580356836319e-02,3.486774221528321505e-04,-4.958702716976404190e-03,-1.429203432053327560e-03,6.177293136715888977e-03,-2.129498869180679321e-03,-3.845589933916926384e-03,-1.655142288655042648e-03,4.796262364834547043e-03,-1.033275760710239410e-02,-1.220561005175113678e-02,7.473875768482685089e-03,1.369885262101888657e-02,-2.083773724734783173e-02,2.491074337740428746e-05,-1.805420848540961742e-03,-5.882533732801675797e-03,-1.370170898735523224e-02,-2.648328198119997978e-03,-9.977596811950206757e-03,4.103295970708131790e-03,-5.474478006362915039e-03,-5.847983527928590775e-03,-4.940462298691272736e-03,1.350937969982624054e-02,6.182465236634016037e-03,7.244916167110204697e-03,6.039748899638652802e-03,8.919195272028446198e-03,-5.650422070175409317e-03,1.120098750106990337e-03,-5.780794657766819000e-03,1.303769927471876144e-02,-4.835277330130338669e-03,-5.133242812007665634e-03,1.902400702238082886e-02,-1.488914713263511658e-03,-8.555530570447444916e-03
1.093417126685380936e-02,-1.061967760324478149e-02,2.048475854098796844e-02,5.257010459899902344e-03,-2.148972079157829285e-02,2.224442176520824432e-02,4.492564126849174500e-03,8.509706240147352219e-04,1.107507664710283279e-02,-1.184360031038522720e-02,-3.506076056510210037e-03,9.689673606771975756e-05,5.592517554759979248e-03,1.352136256173253059e-03,-1.857537962496280670e-02,-1.143755856901407242e-02,-7.468604948371648788e-03,-1.553060603328049183e-03,2.269660122692584991e-02,-1.149017550051212311e-02,-1.855767704546451569e-02,-2.675545588135719299e-02,2.684935927391052246e-03,-2.161739580333232880e-02,-1.211037673056125641e-02,-1.280604396015405655e-02,4.326834809035062790e-03,-1.625182107090950012e-02,-1.971653476357460022e-02,-1.937607303261756897e-02,-7.466515060514211655e-03,5.257398821413516998e-03,2.569980733096599579e-02,5.641318275593221188e-04,-3.292832057923078537e-03,1.105261617340147495e-03,8.663737680763006210e-04,2.120976150035858154e-02,1.462533138692378998e-02,-1.701615005731582642e-02,-1.476825680583715439e-02,-7.952139712870121002e-03,-8.524424396455287933e-03,-2.600027993321418762e-02,1.322502363473176956e-02,1.242591347545385361e-02,-2.109435759484767914e-02,1.148744206875562668e-02,2.638429962098598480e-02,-1.694281958043575287e-02,7.384964264929294586e-03,-7.637491216883063316e-04,1.380772236734628677e-02,-1.744758710265159607e-02,1.264259126037359238e-02,1.387225184589624405e-02,-5.569692235440015793e-03,-1.670687273144721985e-02,2.180709317326545715e-02,8.847321383655071259e-03,1.984318718314170837e-02,-1.806699112057685852e-02,-4.773461259901523590e-03,1.645524427294731140e-02,1.692393049597740173e-02,4.304646048694849014e-03,5.616437178105115891e-03,-1.426674704998731613e-02,2.146254666149616241e-02,-1.431621517986059189e-02,-2.029164135456085205e-02,1.955899596214294434e-02,1.900500245392322540e-02,-1.483372226357460022e-02,2.594425529241561890e-02,2.135354653000831604e-02,2.760127373039722443e-02,8.740128949284553528e-03,-4.723799414932727814e-03,-1.994441961869597435e-03,2.223249175585806370e-04,1.775020919740200043e-02,-1.711494848132133484e-02,-4.873902798863127828e-05,-5.432859994471073151e-03,-8.182019926607608795e-03,-1.093028113245964050e-02,-6.062099710106849670e-03,1.395671535283327103e-02,2.691166009753942490e-03,-1.831077225506305695e-02,-9.687961079180240631e-03,4.963525570929050446e-03,-9.066817350685596466e-03,-1.201855391263961792e-02,-5.411697085946798325e-03,5.088797304779291153e-03,-2.003058046102523804e-02,-2.382040210068225861e-02,8.099620230495929718e-03,2.419266663491725922e-02,-2.257310040295124054e-02,-5.546100903302431107e-03,-6.500821560621261597e-03,-1.693533733487129211e-02,-1.806737296283245087e-02,-3.025475190952420235e-03,-9.519675746560096741e-03,1.155294850468635559e-02,-1.365323271602392197e-02,-6.339897401630878448e-03,-1.767813600599765778e-02,1.470786985009908676e-02,2.115040645003318787e-02,2.019121125340461731e-02,2.143068052828311920e-02,1.301096566021442413e-02,-1.517135743051767349e-02,-8.952497504651546478e-03,-1.539465598762035370e-02,2.006822638213634491e-02,-9.083678014576435089e-03,-6.870587356388568878e-03,2.168560586869716644e-02,-5.409813020378351212e-03,-2.414727397263050079e-02
3.996269369963556528e-04,3.030218882486224174e-03,1.301741343922913074e-03,-6.761519471183419228e-04,-8.676428347826004028e-03,3.944175317883491516e-03,1.940010115504264832e-03,1.327016856521368027e-03,-1.101045170798897743e-03,-2.167833299608901143e-04,-5.153219681233167648e-04,2.133547968696802855e-04,2.795763546600937843e-03,1.673972437856718898e-04,-1.983015099540352821e-03,1.083013368770480156e-03,3.409725031815469265e-04,-2.187696751207113266e-03,3.017665352672338486e-03,1.780612161383032799e-03,-1.546200946904718876e-03,-4.901074804365634918e-03,-7.715141982771456242e-04,4.990609013475477695e-04,2.788993588183075190e-04,3.416339459363371134e-04,5.347457714378833771e-03,-1.044684904627501965e-03,-1.632676227018237114e-03,-1.045516924932599068e-03,-2.757992362603545189e-03,5.942163988947868347e-04,6.314189173281192780e-03,1.096719061024487019e-03,-2.574717625975608826e-03,-8.472222252748906612e-04,3.978285894845612347e-05,1.233701594173908234e-02,2.951863454654812813e-03,5.634661647491157055e-04,-4.770198720507323742e-04,-1.252489630132913589e-03,1.938797067850828171e-04,-7.531578186899423599e-03,-1.136192120611667633e-03,3.444013709668070078e-04,-1.481050625443458557e-03,-1.955816696863621473e-04,4.695254378020763397e-03,-1.138608087785542011e-03,1.976306550204753876e-03,-2.362301602261140943e-04,1.502545928815379739e-04,-4.611237964127212763e-04,1.755089615471661091e-03,2.632164163514971733e-03,-7.541975355707108974e-04,-3.008203115314245224e-03,1.627216301858425140e-02,4.562250978779047728e-04,1.199159887619316578e-03,-3.001589560881257057e-03,-2.258603781228885055e-04,-1.916890847496688366e-03,2.441742457449436188e-03,3.311572654638439417e-04,4.856708401348441839e-04,-1.852206885814666748e-03,6.259520538151264191e-03,1.810653368011116982e-03,7.081287330947816372e-04,8.074765093624591827e-03,4.402910824865102768e-03,-1.922374009154736996e-03,2.872874261811375618e-03,2.429063897579908371e-03,3.502028528600931168e-03,7.161496323533356190e-04,-1.987801864743232727e-03,7.336752023547887802e-04,-7.904946687631309032e-04,1.920321374200284481e-03,1.548300031572580338e-03,3.198602935299277306e-03,2.323619119124487042e-04,-2.159865805879235268e-03,1.392627949826419353e-03,5.904485471546649933e-03,6.378199905157089233e-04,1.177739351987838745e-03,-2.091872040182352066e-03,-9.434004459762945771e-05,-7.125792908482253551e-04,-2.689154818654060364e-03,-2.892788616009056568e-04,-4.547333519440144300e-04,5.511622875928878784e-04,1.576217822730541229e-03,-4.082560539245605469e-03,3.021567827090620995e-03,1.039183512330055237e-02,-8.905800990760326385e-03,-2.815905958414077759e-03,1.123951515182852745e-03,-9.710072772577404976e-04,-4.276328720152378082e-03,3.917480644304305315e-04,-1.489534624852240086e-03,2.079273341223597527e-03,-1.051888451911509037e-03,-7.901787175796926022e-04,-2.435259753838181496e-03,1.580446143634617329e-03,2.892945194616913795e-03,-3.328334059915505350e-05,1.111634192056953907e-03,-1.639711088500916958e-03,8.308791439048945904e-04,4.116803174838423729e-04,1.460564206354320049e-03,4.305463284254074097e-03,1.788698020391166210e-03,5.266656080493703485e-05,6.334232166409492493e-03,3.356520028319209814e-05,-5.446978844702243805e-03
-1.239540171809494495e-03,6.861076690256595612e-04,-2.002581022679805756e-03,-6.761114927940070629e-04,1.332293759332969785e-04,-8.950289338827133179e-04,1.688799238763749599e-03,-9.575043222866952419e-04,7.161725079640746117e-04,-2.593695884570479393e-03,5.523720174096524715e-04,2.068506553769111633e-03,5.120013374835252762e-04,5.376276676543056965e-04,1.373358070850372314e-03,-1.039654365740716457e-03,-5.249724490568041801e-04,2.160998883482534438e-05,2.051228890195488930e-03,-1.384142204187810421e-03,1.325980876572430134e-03,1.000262345769442618e-04,9.614891023375093937e-04,-1.547116204164922237e-03,-2.291053096996620297e-04,-5.693820421583950520e-04,-2.647414570674300194e-03,2.536718035116791725e-03,9.887106716632843018e-04,3.428726049605756998e-04,-4.754132824018597603e-04,5.190748488530516624e-04,5.418381624622270465e-05,7.927474798634648323e-04,-1.303518540225923061e-03,2.397389383986592293e-03,-1.460745465010404587e-03,1.433193392585963011e-04,1.419188338331878185e-03,-9.439450805075466633e-04,-5.797153571620583534e-04,2.921015839092433453e-04,-7.498954655602574348e-04,7.584621926071122289e-05,2.500756876543164253e-03,1.041853218339383602e-03,6.656326004303991795e-04,-1.297223148867487907e-03,-1.822992810048162937e-03,-5.613446701318025589e-04,6.832664366811513901e-04,1.725239679217338562e-03,5.367191042751073837e-04,9.118915186263620853e-04,1.345744123682379723e-03,-2.642699982970952988e-03,2.675262978300452232e-03,2.911637420766055584e-04,-8.336373139172792435e-04,5.189437069930136204e-04,1.222597085870802402e-03,-9.441467227588873357e-06,1.094932758860522881e-05,6.387921748682856560e-04,-2.027039881795644760e-03,1.202796935103833675e-03,1.567862113006412983e-03,-1.994929276406764984e-03,-1.436173683032393456e-03,-1.579091418534517288e-03,1.691587967798113823e-04,-8.717399905435740948e-04,6.432808004319667816e-04,-2.152576809749007225e-03,2.392083843005821109e-04,-3.119981556665152311e-04,-1.090927631594240665e-03,-2.249555109301581979e-04,1.333982916548848152e-03,-5.689245299436151981e-04,-1.807815977372229099e-03,2.944880397990345955e-03,-1.884774537757039070e-03,1.268128980882465839e-03,1.238223514519631863e-03,-1.236180192790925503e-03,-5.890506436116993427e-04,1.157995779067277908e-02,2.012857701629400253e-03,1.348298275843262672e-03,-1.911699655465781689e-03,-5.460414686240255833e-04,1.736196340061724186e-03,-2.472757594659924507e-03,-1.930524362251162529e-03,-2.742609649430960417e-04,2.081797923892736435e-03,4.775922279804944992e-04,1.258913835044950247e-04,-8.806968107819557190e-04,-2.224542433395981789e-03,9.861636208370327950e-04,-6.017487030476331711e-04,1.685159368207678199e-04,-7.369609666056931019e-04,2.836809435393661261e-04,-1.095120911486446857e-03,2.715409500524401665e-03,2.082756953313946724e-03,-3.002331359311938286e-03,-7.122494862414896488e-04,-2.741875359788537025e-03,2.377500757575035095e-03,-7.480113417841494083e-04,1.034355605952441692e-03,1.526353764347732067e-03,2.849941665772348642e-04,9.802472777664661407e-04,-1.728973147692158818e-04,-1.009198138490319252e-03,-2.379129873588681221e-03,-4.869880212936550379e-04,1.885777310235425830e-04,-1.530230627395212650e-03,-3.081038128584623337e-03,1.163014560006558895e-03
-5.734531674534082413e-03,1.953882351517677307e-02,-1.715522073209285736e-02,-1.674973405897617340e-02,1.118811313062906265e-02,-1.502513885498046875e-02,1.377678127028048038e-03,4.735049791634082794e-03,-1.915811747312545776e-02,1.811545155942440033e-02,1.261058077216148376e-02,3.693661419674754143e-03,-4.309203475713729858e-03,-1.110122259706258774e-02,1.751520112156867981e-02,5.439094733446836472e-03,-6.781432777643203735e-03,-1.322632841765880585e-02,-1.751124300062656403e-02,1.637284643948078156e-02,2.026645094156265259e-02,1.734158396720886230e-02,-5.228999070823192596e-03,2.083812281489372253e-02,-4.218658432364463806e-03,1.766254380345344543e-02,1.438956614583730698e-02,1.279425900429487228e-02,2.292369678616523743e-02,2.123258635401725769e-02,8.638511411845684052e-03,3.015405964106321335e-03,-2.146937698125839233e-02,5.601273151114583015e-04,3.979284316301345825e-03,-4.666799679398536682e-03,-3.950616810470819473e-03,-5.108318291604518890e-03,-1.296250335872173309e-02,1.979067735373973846e-02,1.876468025147914886e-02,1.025675889104604721e-02,1.756834611296653748e-02,8.120992220938205719e-03,-1.904930546879768372e-02,-1.968627795577049255e-02,2.052229270339012146e-02,-2.028133906424045563e-02,-2.077678032219409943e-02,2.030649594962596893e-02,-1.066215708851814270e-02,-8.495922200381755829e-03,-1.686962507665157318e-02,1.804562099277973175e-02,-1.831032894551753998e-02,-8.074946701526641846e-03,1.697188272373750806e-04,1.276264805346727371e-02,9.959237650036811829e-03,-1.414825022220611572e-02,-2.162460051476955414e-02,1.114962436258792877e-02,-3.976049367338418961e-03,-2.196556143462657928e-02,-1.285223104059696198e-02,-1.282637100666761398e-02,-1.039053965359926224e-02,9.651372209191322327e-03,-1.208121981471776962e-02,1.883902214467525482e-02,2.128234505653381348e-02,-1.186382118612527847e-02,-1.256939396262168884e-02,2.073162980377674103e-02,-1.873512938618659973e-02,-1.952948234975337982e-02,-1.867329142987728119e-02,-1.460117101669311523e-02,7.326614577323198318e-04,-6.963023915886878967e-03,-9.907178580760955811e-03,-2.161956764757633209e-02,1.992911472916603088e-02,-6.764866877347230911e-03,2.594738325569778681e-04,1.101623661816120148e-02,1.728364638984203339e-02,2.375294221565127373e-03,-1.681881584227085114e-02,-9.346595965325832367e-03,1.829581335186958313e-02,1.836133562028408051e-02,-8.514027111232280731e-03,7.832905277609825134e-03,2.033269777894020081e-02,1.586575992405414581e-02,-4.921294748783111572e-03,2.004928514361381531e-02,1.547225192189216614e-02,2.356181852519512177e-03,-1.078167837113142014e-02,1.056952960789203644e-02,2.183082047849893570e-03,1.803292706608772278e-02,2.084462530910968781e-02,1.490173395723104477e-02,-2.949346089735627174e-04,-2.097440650686621666e-03,-1.544406823813915253e-02,1.553388871252536774e-02,1.327192503958940506e-02,1.377406064420938492e-02,-1.412391103804111481e-02,-1.078664511442184448e-02,-2.079058438539505005e-02,-2.375038526952266693e-02,-2.060956880450248718e-02,2.138754539191722870e-02,-6.805897224694490433e-03,1.997293345630168915e-02,-1.128448173403739929e-02,1.610070280730724335e-02,9.552555158734321594e-03,-8.536179549992084503e-03,5.893097259104251862e-03,1.835773140192031860e-02
-1.735051535069942474e-02,-1.133962348103523254e-02,-4.520491231232881546e-03,1.443890016525983810e-02,7.569786161184310913e-03,-6.826925557106733322e-03,-2.297796867787837982e-02,1.196126639842987061e-02,-8.390976116061210632e-03,1.609704922884702682e-03,2.407479332759976387e-03,-1.989675313234329224e-02,1.605749875307083130e-02,2.285100705921649933e-02,5.302180070430040359e-03,1.732256263494491577e-02,2.056489884853363037e-02,1.651355810463428497e-02,6.064993329346179962e-03,3.716066945344209671e-03,-6.787233985960483551e-03,-4.761575255542993546e-03,-1.824061758816242218e-02,-7.459532003849744797e-03,3.589568426832556725e-03,-1.332379598170518875e-02,-1.751904003322124481e-02,1.028170529752969742e-02,-6.193870678544044495e-03,-9.769804775714874268e-03,-1.760458759963512421e-02,1.090742181986570358e-02,1.265765517018735409e-03,1.833220198750495911e-02,-2.106703445315361023e-02,1.529244333505630493e-02,2.269278094172477722e-02,-1.603872328996658325e-02,-1.151630841195583344e-02,-8.663593791425228119e-03,-1.194744464010000229e-02,1.571517996490001678e-02,-1.466029603034257889e-02,3.078152658417820930e-03,-5.590434651821851730e-03,-6.756308488547801971e-03,-8.068240247666835785e-03,1.150447595864534378e-02,6.270484300330281258e-05,-7.335325237363576889e-03,1.841457933187484741e-02,1.756584644317626953e-02,-7.629424333572387695e-03,4.928810521960258484e-03,1.306237280368804932e-02,-4.427537787705659866e-03,-3.584469435736536980e-03,1.044774707406759262e-02,-8.916285820305347443e-03,1.478632912039756775e-02,2.869975287467241287e-03,1.012192294001579285e-02,2.308659441769123077e-02,9.410584345459938049e-03,-8.982522413134574890e-03,1.922915130853652954e-02,1.820668205618858337e-02,5.890174768865108490e-03,-7.531335577368736267e-03,5.108482670038938522e-03,-7.329394575208425522e-03,-4.758827388286590576e-03,2.601028652861714363e-03,-1.091578882187604904e-02,7.346855476498603821e-03,-1.904592616483569145e-03,5.872414330951869488e-04,1.692950911819934845e-02,2.015331760048866272e-02,2.293144725263118744e-02,7.987219840288162231e-03,1.165228430181741714e-02,-7.580059464089572430e-04,2.014573663473129272e-02,1.109722349792718887e-02,9.104944765567779541e-04,6.273062434047460556e-03,-5.209601484239101410e-03,-8.721595630049705505e-03,1.845212280750274658e-02,-1.007154397666454315e-02,-1.501998212188482285e-02,-6.721162237226963043e-03,1.190680824220180511e-02,-1.387838833034038544e-02,-2.063821442425251007e-02,-1.707246154546737671e-02,-9.981683688238263130e-04,2.366764820180833340e-04,-2.361705526709556580e-02,-4.519386216998100281e-03,6.707824300974607468e-03,-1.190696377307176590e-02,-1.478247251361608505e-02,-1.076071895658969879e-02,8.556324988603591919e-03,2.091312780976295471e-02,1.954380422830581665e-02,2.311610383912920952e-03,6.722515448927879333e-03,1.305132638663053513e-02,-7.263906765729188919e-03,-1.053472608327865601e-02,7.267595734447240829e-03,8.400867693126201630e-03,6.291132420301437378e-03,-4.555986262857913971e-03,-1.116663869470357895e-02,8.347422815859317780e-03,1.431185228284448385e-04,-7.123085670173168182e-03,-1.284968294203281403e-02,5.658974871039390564e-03,-8.434943854808807373e-03,-8.494989015161991119e-03,-2.185555174946784973e-03
-7.534701726399362087e-04,5.596402566879987717e-03,-3.670794656500220299e-03,-4.842861555516719818e-03,2.595227677375078201e-03,-2.452785847708582878e-03,2.720633288845419884e-03,5.491322372108697891e-03,-7.316889706999063492e-03,8.015681989490985870e-03,6.125624757260084152e-03,1.002780976705253124e-03,-1.588444138178601861e-04,-6.521519739180803299e-03,5.011337343603372574e-03,-1.408236712450161576e-04,-4.991102498024702072e-03,-7.839213125407695770e-03,-5.403356160968542099e-03,7.417616900056600571e-03,6.260532885789871216e-03,3.286672057583928108e-03,-9.730941965244710445e-04,7.200235966593027115e-03,-5.251394584774971008e-03,6.065940950065851212e-03,7.843494415283203125e-03,1.245782012119889259e-03,6.346815731376409531e-03,4.274201579391956329e-03,3.813202958554029465e-03,2.239815192297101021e-03,-6.855958607047796249e-03,7.625054568052291870e-04,3.727793460711836815e-03,7.122461101971566677e-04,-2.750168554484844208e-03,1.242586149601265788e-04,-3.594293957576155663e-03,7.502609863877296448e-03,4.179846029728651047e-03,2.068409929051995277e-03,4.621298983693122864e-03,1.221971586346626282e-03,-7.619007024914026260e-03,-4.414606373757123947e-03,4.760174546390771866e-03,-5.735126789659261703e-03,-6.674299016594886780e-03,5.023563280701637268e-03,-2.507377183064818382e-03,-4.112422931939363480e-03,-6.531487219035625458e-03,5.497715901583433151e-03,-4.017722792923450470e-03,-4.418168216943740845e-03,-3.112657694146037102e-03,2.843705704435706139e-03,5.089025478810071945e-03,-5.312773399055004120e-03,-7.500424049794673920e-03,1.230647205375134945e-03,-5.214307922869920731e-03,-4.438415169715881348e-03,-4.038238432258367538e-03,-5.233396310359239578e-03,-3.827766282483935356e-03,2.535816049203276634e-03,-3.557843854650855064e-03,7.664162665605545044e-03,5.284220911562442780e-03,-3.310900880023837090e-03,-4.700394347310066223e-03,6.614717654883861542e-03,-5.477780010551214218e-03,-3.289407817646861076e-03,-4.588439129292964935e-03,-5.817546509206295013e-03,-2.245169598609209061e-03,-6.815335247665643692e-03,-3.804523963481187820e-03,-5.599111784249544144e-03,5.133378785103559494e-03,-3.283948171883821487e-03,3.216827288269996643e-03,3.815123578533530235e-03,5.172057542949914932e-03,-1.479825936257839203e-03,-4.997628740966320038e-03,-2.722773235291242599e-03,6.016723811626434326e-03,6.128485780209302902e-03,-4.007476381957530975e-03,1.410748693160712719e-03,5.798161961138248444e-03,3.755377139896154404e-03,-2.209456171840429306e-03,7.486635353416204453e-03,4.491582978516817093e-03,2.319387625902891159e-03,-4.316469654440879822e-03,2.533520804718136787e-03,-2.537951571866869926e-03,4.414724186062812805e-03,6.145984400063753128e-03,3.198100952431559563e-03,-3.482733154669404030e-03,-2.334179007448256016e-04,-6.284714210778474808e-03,6.023682653903961182e-03,3.693356644362211227e-03,4.564893897622823715e-03,-3.444266738370060921e-03,-6.105683278292417526e-04,-5.973336752504110336e-03,-6.332859396934509277e-03,-6.381325423717498779e-03,7.506540045142173767e-03,-4.283081274479627609e-03,7.198844570666551590e-03,-2.666564891114830971e-03,4.392329603433609009e-03,4.304059781134128571e-03,-2.862782217562198639e-03,9.984850184991955757e-04,5.679143127053976059e-03
-3.919625654816627502e-03,1.207254175096750259e-02,-6.199989467859268188e-03,-1.220106706023216248e-02,4.049417562782764435e-03,-6.494655273854732513e-03,5.432772450149059296e-03,1.578245661221444607e-03,-8.594924584031105042e-03,8.919372223317623138e-03,7.394615560770034790e-03,6.825185380876064301e-03,-5.151043180376291275e-03,-1.093956362456083298e-02,8.064188063144683838e-03,-3.064516698941588402e-03,-8.828823454678058624e-03,-1.152856554836034775e-02,-8.598011918365955353e-03,6.444749888032674789e-03,1.077830418944358826e-02,8.138611912727355957e-03,2.956402255222201347e-03,1.031483244150876999e-02,-2.785321790724992752e-03,1.104955654591321945e-02,8.115256205201148987e-03,4.390487913042306900e-03,1.045128516852855682e-02,1.072304788976907730e-02,8.409669622778892517e-03,1.457696664147078991e-03,-1.181494630873203278e-02,-5.956448614597320557e-03,6.347433198243379593e-03,-3.256092779338359833e-03,-5.826289765536785126e-03,-8.735386072658002377e-04,-4.560909699648618698e-03,1.016260404139757156e-02,1.070030126720666885e-02,3.113259561359882355e-03,1.137722376734018326e-02,3.490996547043323517e-03,-7.185052148997783661e-03,-7.522689178586006165e-03,1.171430200338363647e-02,-1.185435242950916290e-02,-8.056675083935260773e-03,1.151387579739093781e-02,-9.103278629481792450e-03,-6.090006325393915176e-03,-8.314236998558044434e-03,9.114657528698444366e-03,-1.074842363595962524e-02,-5.004569422453641891e-03,1.576387439854443073e-03,5.343470256775617599e-03,6.167151965200901031e-03,-9.141081944108009338e-03,-9.519484825432300568e-03,4.147226456552743912e-03,-8.159833960235118866e-03,-1.099228113889694214e-02,-3.980571404099464417e-03,-1.103405468165874481e-02,-7.569266017526388168e-03,5.527513101696968079e-03,-5.071608349680900574e-03,8.869513869285583496e-03,9.339726530015468597e-03,-6.235454231500625610e-03,-6.091323681175708771e-03,1.230585947632789612e-02,-1.056220754981040955e-02,-9.785235859453678131e-03,-7.460188586264848709e-03,-1.163201685994863510e-02,-4.893579985946416855e-03,-1.191081479191780090e-02,-6.974554155021905899e-03,-1.212773192673921585e-02,8.005308918654918671e-03,-8.547106757760047913e-03,-3.221982042305171490e-04,4.059761762619018555e-03,7.858156226575374603e-03,3.050075145438313484e-03,-8.280212990939617157e-03,-1.012438721954822540e-02,9.545850567519664764e-03,1.070562005043029785e-02,-3.738567000254988670e-03,2.092967741191387177e-03,1.050845067948102951e-02,1.177908107638359070e-02,-1.346066361293196678e-03,9.549822658300399780e-03,7.134716957807540894e-03,6.876175291836261749e-03,-5.863321013748645782e-03,5.955540109425783157e-03,1.037427806295454502e-03,1.091908197849988937e-02,1.318239327520132065e-02,4.479365888983011246e-03,-5.660071037709712982e-03,-3.118311287835240364e-03,-6.367318332195281982e-03,7.084575481712818146e-03,4.082725849002599716e-03,7.943189702928066254e-03,-7.230604067444801331e-03,-5.995709914714097977e-03,-1.065321732312440872e-02,-1.068677566945552826e-02,-7.811852730810642242e-03,1.213390659540891647e-02,-4.579335451126098633e-03,1.071867905557155609e-02,-4.624343011528253555e-03,9.772457182407379150e-03,3.774194512516260147e-03,-2.295795595273375511e-03,2.242267364636063576e-03,7.439346984028816223e-03
1.665304787456989288e-02,-1.082583982497453690e-02,1.435453724116086960e-02,9.902527555823326111e-03,-1.321183424443006516e-02,1.590182073414325714e-02,1.227973122149705887e-02,-2.211863733828067780e-02,2.021670527756214142e-02,-1.947067864239215851e-02,-1.934456825256347656e-02,1.353693660348653793e-02,-1.404695678502321243e-02,-2.332207746803760529e-03,-1.761814206838607788e-02,-8.022969588637351990e-03,3.625376848503947258e-04,8.875144645571708679e-03,7.709167432039976120e-03,-1.788002066314220428e-02,-1.098220422863960266e-02,-1.392412371933460236e-02,1.589034684002399445e-02,-1.410278957337141037e-02,1.319042313843965530e-02,-4.776106681674718857e-03,-3.896084846928715706e-03,-1.568775810301303864e-02,-1.246188301593065262e-02,-1.173328049480915070e-02,6.182230543345212936e-03,-1.789244450628757477e-02,1.485083531588315964e-02,-1.554800663143396378e-02,1.159488968551158905e-02,-1.621097326278686523e-02,-1.388153806328773499e-02,1.216585654765367508e-02,1.806205883622169495e-02,-1.403155364096164703e-02,-5.754088517278432846e-03,-1.827670633792877197e-02,-5.597562994807958603e-03,-9.366475977003574371e-03,2.108350582420825958e-02,2.163063362240791321e-02,-9.376359172165393829e-03,8.105255663394927979e-03,1.608089171350002289e-02,-1.609207689762115479e-02,-2.151105320081114769e-03,-1.189567334949970245e-02,2.063858136534690857e-02,-1.932084187865257263e-02,5.480313673615455627e-03,1.420866511762142181e-02,8.862614049576222897e-04,-1.608384214341640472e-02,-3.458007471635937691e-03,1.957502681761980057e-03,1.787340454757213593e-02,-1.216911803930997849e-02,-3.264630911871790886e-03,1.241973415017127991e-02,1.436852011829614639e-02,6.388472858816385269e-03,-4.814966116100549698e-03,-1.031709369271993637e-02,1.237971801310777664e-02,-1.899424381554126740e-02,-1.282857172191143036e-02,1.422965805977582932e-02,9.881858713924884796e-03,-8.707554079592227936e-03,9.738060645759105682e-03,1.800210773944854736e-02,1.431875210255384445e-02,5.153881851583719254e-03,-1.378232147544622421e-02,1.218316960148513317e-03,1.095300260931253433e-02,1.009911950677633286e-02,-2.011384256184101105e-02,-9.222818538546562195e-03,-1.658656820654869080e-02,-1.536712795495986938e-02,-2.040959708392620087e-02,-6.554066669195890427e-03,1.901825517416000366e-02,-6.430752575397491455e-03,-8.417078293859958649e-03,-4.204200115054845810e-03,1.623757928609848022e-02,-1.013559941202402115e-02,-6.516767200082540512e-03,-2.834563842043280602e-03,1.479614712297916412e-02,-1.977399922907352448e-02,-1.297309342771768570e-02,7.778592407703399658e-03,1.172605808824300766e-02,-1.358056720346212387e-02,1.698750071227550507e-02,-6.883169524371623993e-03,-8.854251354932785034e-03,-1.708607748150825500e-02,-1.501312013715505600e-02,-1.303732488304376602e-02,1.477390620857477188e-02,-1.735543645918369293e-02,-2.134943194687366486e-02,-6.675352342426776886e-03,1.730659045279026031e-02,5.623050499707460403e-03,1.291476190090179443e-02,1.552748400717973709e-02,2.158725075423717499e-02,-1.140337251126766205e-02,6.639976520091295242e-03,-2.032751403748989105e-02,1.426131930202245712e-02,-1.108036655932664871e-02,-1.355403382331132889e-02,1.293598767369985580e-02,1.035548560321331024e-02,-1.286933012306690216e-02
1.434423588216304779e-02,-3.239876357838511467e-03,1.273774262517690659e-02,6.258053239434957504e-03,-1.204212568700313568e-02,1.340587902814149857e-02,4.285477567464113235e-03,-2.325297147035598755e-02,1.883358508348464966e-02,-1.701726950705051422e-02,-2.051104977726936340e-02,7.500256411731243134e-03,-1.445326674729585648e-02,-4.640859551727771759e-03,-1.316531188786029816e-02,4.661491606384515762e-03,1.182034052908420563e-02,1.632876321673393250e-02,4.939425271004438400e-03,-1.311325002461671829e-02,-6.700344383716583252e-03,-7.731175050139427185e-03,9.522763080894947052e-03,-7.747537922114133835e-03,2.281565964221954346e-02,-1.623350195586681366e-03,-3.725201357156038284e-03,-1.045062765479087830e-02,-7.782696746289730072e-03,-6.266864016652107239e-03,1.004604995250701904e-02,-1.854356378316879272e-02,1.178791839629411697e-02,-1.164492312818765640e-02,1.283313613384962082e-02,-2.065603248775005341e-02,-9.988256730139255524e-03,1.007646322250366211e-02,9.150299243628978729e-03,-1.339412014931440353e-02,-2.761478303000330925e-03,-1.394359488040208817e-02,6.476521957665681839e-04,-8.657918311655521393e-03,1.842176914215087891e-02,1.761671900749206543e-02,-3.801546292379498482e-03,2.022216096520423889e-03,1.276290696114301682e-02,-1.628826372325420380e-02,-6.450574379414319992e-03,-1.782831549644470215e-02,1.693999022245407104e-02,-1.749414019286632538e-02,1.238373224623501301e-04,1.516370382159948349e-02,-3.249987727031111717e-03,-8.455325849354267120e-03,-5.438158288598060608e-03,-4.364073742181062698e-03,1.469002477824687958e-02,-3.491395618766546249e-03,3.143628127872943878e-03,7.545421831309795380e-03,5.856327246874570847e-03,2.517904853448271751e-03,-8.877419866621494293e-03,-2.369033638387918472e-03,4.670834634453058243e-03,-1.728806272149085999e-02,-1.292178407311439514e-02,1.025072112679481506e-02,1.145910099148750305e-02,-3.214328549802303314e-03,4.985252395272254944e-03,1.251245755702257156e-02,9.167417883872985840e-03,2.263003028929233551e-03,-1.092757470905780792e-02,4.568917676806449890e-03,1.967790722846984863e-02,5.255602300167083740e-03,-1.723304949700832367e-02,-8.724962361156940460e-03,-1.916296966373920441e-02,-1.777781732380390167e-02,-1.893739588558673859e-02,-5.017708521336317062e-03,1.663061976432800293e-02,-8.848157711327075958e-03,-2.594752935692667961e-03,-3.207147237844765186e-04,1.434521097689867020e-02,-2.673105569556355476e-03,-4.085725639015436172e-03,3.393004299141466618e-04,1.162911299616098404e-02,-1.736191101372241974e-02,-7.886696606874465942e-03,-2.290206030011177063e-03,8.148656226694583893e-03,-1.123759336769580841e-02,2.159865386784076691e-02,-1.405863557010889053e-03,-6.147034931927919388e-03,-9.483207017183303833e-03,-7.282257080078125000e-03,-1.048162020742893219e-02,1.356994919478893280e-02,-1.472267135977745056e-02,-1.979532837867736816e-02,-6.174475420266389847e-03,1.202647294849157333e-02,7.221034727990627289e-03,5.411792080849409103e-03,8.992779068648815155e-03,2.032015658915042877e-02,-8.674129843711853027e-03,1.825996488332748413e-02,-1.898029260337352753e-02,5.908233113586902618e-03,-1.093805488198995590e-02,-1.670488901436328888e-02,1.077895425260066986e-02,2.062721550464630127e-02,-1.070767454802989960e-02
