-3.179332241415977478e-02,6.011308636516332626e-03,-9.257636964321136475e-03,6.764137651771306992e-03,-3.696090076118707657e-03,-3.753370372578501701e-03,6.716001313179731369e-03,-7.857493124902248383e-03,2.306211739778518677e-02,-9.413158521056175232e-03,7.885637693107128143e-03,7.335587404668331146e-03,6.647986825555562973e-03,-7.493255194276571274e-03,-5.453108460642397404e-04,-7.223810534924268723e-03,2.048688940703868866e-02,1.662709750235080719e-02,6.491871085017919540e-03,7.153169251978397369e-03,-7.584540639072656631e-03,9.165205992758274078e-03,1.182359643280506134e-02,7.741467095911502838e-03,7.607131265103816986e-03,6.998697761446237564e-03,-6.168884225189685822e-03,5.816958844661712646e-03,3.739206120371818542e-03,-7.408972829580307007e-03,3.132294118404388428e-02,7.011985406279563904e-03,5.971922539174556732e-03,-2.285580150783061981e-02,7.170923985540866852e-03,-8.955469354987144470e-03,-6.322114728391170502e-03,9.450170211493968964e-03,3.813657676801085472e-03,-6.988690234720706940e-03,6.694669369608163834e-03,-7.917794398963451385e-03,-1.412105280905961990e-02,6.242272444069385529e-03,-6.268616300076246262e-03,5.879786331206560135e-03,-5.837640725076198578e-03,6.142097990959882736e-03,9.121009148657321930e-03,-9.398707188665866852e-03,6.707532331347465515e-03,8.406934328377246857e-03,-8.450715802609920502e-03,-6.831223145127296448e-03,-2.008504606783390045e-02,-5.595284514129161835e-03
-8.155756630003452301e-03,6.451637297868728638e-02,-2.041305452585220337e-01,1.610177308320999146e-01,-3.803959861397743225e-02,-8.996367454528808594e-02,6.045823916792869568e-02,-4.321328178048133850e-02,9.783959947526454926e-03,-2.500987052917480469e-02,-2.975826561450958252e-01,-6.789264734834432602e-03,-5.218724608421325684e-01,9.830721467733383179e-02,-1.860678382217884064e-02,-2.097672596573829651e-02,3.369429334998130798e-02,8.526935428380966187e-02,2.350116707384586334e-02,-4.962235316634178162e-02,6.663856655359268188e-02,-5.925496667623519897e-02,-8.777306228876113892e-02,-5.865191668272018433e-02,6.019461899995803833e-02,1.037987619638442993e-01,2.252297848463058472e-02,-6.813159212470054626e-03,3.018996119499206543e-02,-6.800108402967453003e-02,7.636989932507276535e-03,9.850036352872848511e-02,-1.836856640875339508e-02,-6.652482319623231888e-03,1.748873591423034668e-01,3.578470647335052490e-02,-3.954355418682098389e-02,3.015987947583198547e-02,1.451237220317125320e-02,-4.174933433532714844e-01,-1.687740720808506012e-02,-1.247759237885475159e-01,1.412661373615264893e-01,-3.284482285380363464e-02,-1.319582313299179077e-01,4.379464387893676758e-01,3.397123143076896667e-02,5.111166834831237793e-02,-2.160131931304931641e-01,-1.525924634188413620e-02,4.133662581443786621e-02,-5.047736763954162598e-01,6.983246654272079468e-02,7.826132327318191528e-02,-7.859455049037933350e-02,3.435768932104110718e-02
3.099615685641765594e-03,6.379968672990798950e-02,6.357650458812713623e-02,-5.235920194536447525e-03,-5.203474313020706177e-02,-1.216922104358673096e-01,-1.054550781846046448e-01,-6.205589976161718369e-03,-2.695676172152161598e-03,9.126985445618629456e-03,-1.279584020376205444e-01,-3.945198953151702881e-01,8.701045811176300049e-02,1.060109063982963562e-01,2.368539571762084961e-02,-1.141312941908836365e-01,-2.366178110241889954e-02,-5.116802640259265900e-03,-3.053265251219272614e-02,5.057053267955780029e-02,1.379354856908321381e-02,-4.882455337792634964e-03,7.257384248077869415e-03,-2.910556271672248840e-02,1.743315756320953369e-01,-1.953775584697723389e-01,-2.739707939326763153e-02,-2.659439109265804291e-02,6.787058431655168533e-03,7.110849767923355103e-02,-3.174129873514175415e-03,-2.944303117692470551e-02,1.234006732702255249e-01,1.252298010513186455e-03,8.344381302595138550e-02,6.771042011678218842e-03,-1.590851843357086182e-01,-3.163105621933937073e-02,1.510453037917613983e-02,-1.273963451385498047e-01,7.005777955055236816e-02,-2.206257432699203491e-01,4.545937292277812958e-03,1.912777572870254517e-01,1.042313948273658752e-01,-1.809347793459892273e-02,3.410671278834342957e-02,-4.688160959631204605e-03,1.416088081896305084e-02,1.115411370992660522e-01,-1.197724714875221252e-01,1.497106850147247314e-01,2.581932581961154938e-02,2.760373800992965698e-02,1.150528434664011002e-03,-3.492367640137672424e-02
-2.809514990076422691e-03,2.819130569696426392e-02,2.730166772380471230e-03,-3.628301247954368591e-02,2.526118233799934387e-02,-1.774718239903450012e-02,3.030479848384857178e-01,-1.262978278100490570e-02,1.089550787582993507e-03,-5.601260438561439514e-02,-4.902422055602073669e-02,-1.252833753824234009e-01,-1.822305470705032349e-01,2.185535384342074394e-03,2.682374417781829834e-02,3.619513809680938721e-01,1.138750649988651276e-02,1.874894369393587112e-03,1.599807478487491608e-02,-1.557478588074445724e-02,-4.879776970483362675e-04,-8.498679101467132568e-02,5.013901367783546448e-02,1.286012027412652969e-02,-1.289163017645478249e-03,3.511469066143035889e-01,-6.421631667762994766e-03,2.818854060024023056e-03,-9.748023003339767456e-03,4.165644058957695961e-04,2.034615958109498024e-03,6.972317397594451904e-02,5.454283952713012695e-02,-1.027255420922301710e-04,-1.180600002408027649e-01,3.934079036116600037e-02,-3.878185898065567017e-02,1.298336312174797058e-02,-1.345004588365554810e-01,8.352451026439666748e-02,-3.963828980922698975e-01,9.266974031925201416e-02,-1.154132094234228134e-02,1.849745400249958038e-02,7.485198229551315308e-02,4.505258053541183472e-02,-1.715973485261201859e-03,4.952179733663797379e-03,9.610313922166824341e-03,-7.639455050230026245e-02,-5.682129412889480591e-02,1.409438699483871460e-01,5.491760093718767166e-03,-2.884463407099246979e-03,-3.804458538070321083e-03,-8.305375464260578156e-03
3.732376266270875931e-03,-9.952083230018615723e-02,-9.189371764659881592e-02,3.875809255987405777e-03,6.422779522836208344e-03,3.397597698494791985e-03,1.066744849085807800e-01,-1.743607572279870510e-03,-1.968010095879435539e-03,-8.711088448762893677e-03,8.544291555881500244e-02,-9.943541139364242554e-03,-4.359622299671173096e-02,1.195759233087301254e-02,4.210308566689491272e-02,-4.539801925420761108e-02,-3.346776647958904505e-04,9.484253241680562496e-04,7.475093007087707520e-02,4.944932833313941956e-02,-1.114183012396097183e-02,6.276071537286043167e-03,-4.944109544157981873e-02,-3.426657989621162415e-02,-2.977186348289251328e-03,5.827549099922180176e-02,-4.650270566344261169e-03,-5.418519023805856705e-03,-1.295557804405689240e-02,-2.240637317299842834e-03,-1.344460761174559593e-03,3.569895634427666664e-03,-2.862321585416793823e-02,4.279992077499628067e-03,-1.474275738000869751e-01,3.684481233358383179e-02,2.094658650457859039e-02,8.681691251695156097e-04,6.196381896734237671e-02,8.268808946013450623e-03,3.753380849957466125e-02,3.297560289502143860e-02,3.438631538301706314e-03,-2.050089463591575623e-02,-1.412440184503793716e-02,-2.442890591919422150e-02,5.451716016978025436e-03,-1.185244787484407425e-02,3.898067399859428406e-03,-6.270185858011245728e-02,-5.574639141559600830e-02,1.474623288959264755e-02,-6.722645368427038193e-03,-1.625274075195193291e-03,5.986573523841798306e-04,-5.670344922691583633e-03
-1.834041438996791840e-03,4.464146494865417480e-02,-1.084377616643905640e-01,7.009673863649368286e-03,-1.629775948822498322e-02,1.948217488825321198e-02,8.600394427776336670e-02,-2.502711862325668335e-02,2.101763617247343063e-03,-7.988506695255637169e-04,-5.275498032569885254e-01,-2.433687262237071991e-02,3.252846300601959229e-01,-4.536528605967760086e-03,1.980848796665668488e-02,-1.861773990094661713e-02,7.026656530797481537e-04,7.459496613591909409e-03,4.739153664559125900e-03,4.459735006093978882e-03,5.277156829833984375e-02,1.087465882301330566e-02,-7.758272439241409302e-02,-6.931292265653610229e-02,-1.449470221996307373e-01,1.076624095439910889e-01,-1.128320023417472839e-02,3.790428489446640015e-02,1.874631457030773163e-02,-2.802576124668121338e-02,2.748526632785797119e-03,8.981552906334400177e-03,-2.299434132874011993e-02,-9.126230143010616302e-04,8.411027491092681885e-02,-1.361512243747711182e-01,-2.068791352212429047e-02,8.838009671308100224e-04,5.447606742382049561e-02,-4.218013957142829895e-03,2.511507086455821991e-02,-1.242025196552276611e-02,-1.614276843611150980e-04,-9.737624786794185638e-03,2.231567166745662689e-02,2.837809920310974121e-02,1.437492464901879430e-04,-8.637296967208385468e-03,-4.343435540795326233e-02,-6.287284940481185913e-02,-1.271551847457885742e-02,-2.423558384180068970e-02,6.156155467033386230e-02,-1.144525408744812012e-02,-5.890845786780118942e-03,-5.311958491802215576e-03
-1.333437976427376270e-03,9.317852556705474854e-02,2.057409584522247314e-01,-1.003938447684049606e-02,4.965294525027275085e-02,-7.276259362697601318e-02,2.405506372451782227e-02,-5.547374952584505081e-03,1.012015971355140209e-03,1.150616724044084549e-02,-1.366021782159805298e-01,9.286112338304519653e-02,2.815951406955718994e-01,5.255928728729486465e-03,2.292950004339218140e-01,9.650445543229579926e-03,-2.736778929829597473e-03,-2.705944934859871864e-03,4.564889371395111084e-01,-7.832412607967853546e-03,1.367541551589965820e-01,-1.176387164741754532e-02,-2.014698684215545654e-01,-7.017970085144042969e-03,1.950176060199737549e-02,-6.642195582389831543e-02,5.299846176058053970e-03,-7.912725413916632533e-05,-1.655420637689530849e-03,3.245382383465766907e-02,2.445121644996106625e-04,3.876881906762719154e-03,1.254087127745151520e-02,-5.779151688329875469e-04,-3.280158638954162598e-01,-4.044521227478981018e-02,-6.950258463621139526e-02,-7.540694903582334518e-03,-8.166070096194744110e-03,8.063219487667083740e-03,1.647804118692874908e-02,2.989285252988338470e-02,-3.022389486432075500e-03,7.804542314261198044e-03,2.022297121584415436e-02,-2.101946808397769928e-02,-8.472805842757225037e-03,-2.233248949050903320e-02,-5.645691603422164917e-02,1.476459950208663940e-02,-7.110010087490081787e-02,4.565317556262016296e-02,-4.584763348102569580e-01,1.349016465246677399e-02,2.208320423960685730e-03,4.911772441118955612e-03
2.553640305995941162e-02,-3.066520206630229950e-02,1.113872602581977844e-01,-4.655283410102128983e-03,-7.054213434457778931e-02,4.164658859372138977e-02,-1.993004046380519867e-02,3.124222392216324806e-03,-3.317619860172271729e-02,-2.065144013613462448e-03,1.974225603044033051e-02,8.318687789142131805e-03,-1.712475903332233429e-02,-6.777076981961727142e-03,-2.899721264839172363e-02,-2.665994688868522644e-02,-1.146885938942432404e-02,-1.870085671544075012e-02,-5.818396806716918945e-02,-2.032607421278953552e-02,-1.896210908889770508e-01,-7.992526888847351074e-02,3.027392813237383962e-05,7.530227303504943848e-02,2.447636425495147705e-02,-7.281988393515348434e-03,5.048520863056182861e-03,1.028400063514709473e-01,-2.767366170883178711e-02,4.180827364325523376e-02,-2.872462943196296692e-02,1.884540729224681854e-02,1.610711589455604553e-02,3.698253631591796875e-02,3.436294198036193848e-02,-8.685635030269622803e-02,-5.671028513461351395e-03,1.082070358097553253e-02,-1.011847518384456635e-02,9.218747727572917938e-03,-3.367666900157928467e-02,-2.361908182501792908e-02,1.246928982436656952e-02,2.784010395407676697e-02,-4.621107503771781921e-02,-2.736116573214530945e-02,-1.908599026501178741e-02,-2.215287387371063232e-01,4.556877911090850830e-02,-9.326396137475967407e-02,-1.979117980226874352e-03,-1.336103864014148712e-02,-1.006049737334251404e-01,5.614278465509414673e-02,2.293701469898223877e-02,-3.995660692453384399e-02
-6.433403119444847107e-03,-5.185946449637413025e-02,5.584673490375280380e-03,1.112645026296377182e-02,-4.503487795591354370e-02,6.403101235628128052e-02,-2.886268869042396545e-02,5.910078529268503189e-03,1.852078177034854889e-02,2.992899902164936066e-02,1.793353469111025333e-03,-2.629078738391399384e-02,-9.924036264419555664e-02,-3.967197984457015991e-02,8.391352370381355286e-03,-6.129650026559829712e-02,2.423065714538097382e-03,6.557283923029899597e-03,-5.759095307439565659e-03,6.264968961477279663e-02,-4.304485395550727844e-02,-1.753384768962860107e-01,-3.869462013244628906e-02,1.005909871309995651e-02,4.800134524703025818e-02,3.869536891579627991e-02,4.573019221425056458e-02,-3.327087685465812683e-02,3.150754855596460402e-05,3.041655942797660828e-02,1.641395129263401031e-02,1.105768531560897827e-01,8.456068485975265503e-02,-1.596398279070854187e-02,5.218306928873062134e-02,1.433057244867086411e-02,-3.871490806341171265e-02,2.291516028344631195e-02,-1.483425591140985489e-02,-2.997620962560176849e-02,1.051486656069755554e-02,-2.723324112594127655e-02,-9.606807492673397064e-03,1.129198353737592697e-03,-3.802244365215301514e-02,-1.266710460186004639e-02,-8.224430680274963379e-01,-1.626038551330566406e-01,2.118084765970706940e-02,6.779350340366363525e-02,-6.525532901287078857e-02,-4.283118993043899536e-02,-1.264293640851974487e-01,1.000000000000000000e+00,-7.843836210668087006e-03,-3.361445292830467224e-02
-1.736395806074142456e-02,3.901439905166625977e-02,-4.669534787535667419e-02,-1.049347147345542908e-01,1.195893362164497375e-01,-6.685933470726013184e-02,5.009136721491813660e-02,3.307006135582923889e-02,4.516831412911415100e-02,-3.316004946827888489e-02,5.720422789454460144e-02,-1.450030016712844372e-03,7.138143293559551239e-03,2.294004335999488831e-02,2.999639883637428284e-02,8.956522494554519653e-02,3.585804486647248268e-03,-5.275714211165904999e-03,2.677004085853695869e-03,-1.154319290071725845e-02,2.950805053114891052e-02,6.654918193817138672e-03,3.139780834317207336e-02,3.675923869013786316e-02,-5.601340159773826599e-02,-1.181933656334877014e-02,-5.358912423253059387e-02,-2.549292445182800293e-01,6.302943825721740723e-02,-3.627694025635719299e-02,3.453884646296501160e-02,-8.070535212755203247e-02,-4.712308198213577271e-02,-4.460817202925682068e-02,2.911572530865669250e-02,7.054356858134269714e-03,4.580211639404296875e-02,-3.025380373001098633e-01,1.474693696945905685e-02,3.041625954210758209e-02,3.650821745395660400e-02,-9.979727678000926971e-03,4.948802758008241653e-03,-4.636240005493164062e-02,1.090184450149536133e-01,5.607287585735321045e-02,-4.703999459743499756e-01,-4.252970218658447266e-01,5.659804865717887878e-02,-1.130189932882785797e-02,1.324045509099960327e-01,-8.588724303990602493e-04,2.337744086980819702e-01,-2.472586482763290405e-01,-1.553071942180395126e-02,1.093187928199768066e-01
5.211784038692712784e-03,-2.262743189930915833e-02,-1.624563150107860565e-02,-1.166573632508516312e-02,-8.456230163574218750e-02,3.121763281524181366e-02,-3.082478232681751251e-02,-5.821702536195516586e-03,-8.803321979939937592e-03,-8.543060161173343658e-03,-2.644602395594120026e-02,-8.710568770766258240e-03,-1.950137317180633545e-02,-2.930976077914237976e-02,-2.423078753054141998e-02,-6.008069217205047607e-02,-2.220347290858626366e-03,-2.773627405986189842e-03,-5.789242312312126160e-02,1.662440970540046692e-02,1.345205493271350861e-02,1.733996719121932983e-02,3.095246152952313423e-03,-5.657676234841346741e-02,1.467865854501724243e-01,6.929871439933776855e-02,-1.979008466005325317e-01,3.528805971145629883e-01,-4.952905327081680298e-02,2.359419129788875580e-02,-9.384221397340297699e-03,9.308787435293197632e-02,8.003707975149154663e-03,1.162945386022329330e-02,-1.092655234970152378e-03,-3.399957716464996338e-02,-3.027391619980335236e-02,1.698512467555701733e-03,1.674426905810832977e-02,2.424042671918869019e-02,-7.272931281477212906e-03,1.140289008617401123e-02,-9.216873906552791595e-03,3.078986145555973053e-02,-4.986024275422096252e-02,-7.101754099130630493e-02,2.716495394706726074e-01,1.251975148916244507e-01,1.006195135414600372e-02,2.730384841561317444e-02,-2.880670130252838135e-01,-2.162758633494377136e-02,-1.839310228824615479e-01,2.562376856803894043e-01,6.267456337809562683e-03,-8.251682668924331665e-02
-2.922546351328492165e-03,3.025681071449071169e-04,1.629007793962955475e-02,4.403951019048690796e-02,-1.827272959053516388e-02,1.334394561126828194e-03,-7.458947598934173584e-03,-2.124612219631671906e-02,4.267870448529720306e-03,1.852873712778091431e-02,1.742749288678169250e-02,5.124660208821296692e-03,2.203680016100406647e-02,2.064312808215618134e-02,9.207675233483314514e-03,-7.761513188597746193e-06,9.795226156711578369e-03,1.467024162411689758e-02,-1.482800487428903580e-02,5.801865365356206894e-03,8.650983683764934540e-03,-3.505676612257957458e-02,2.756985649466514587e-02,-2.737802825868129730e-02,3.931568562984466553e-02,-1.424491591751575470e-02,1.295641623437404633e-02,6.824195734225213528e-04,-1.653147046454250813e-03,-2.858772873878479004e-02,5.368169397115707397e-03,-8.532751351594924927e-03,1.152310799807310104e-02,7.079795468598604202e-04,1.064077299088239670e-02,1.227079238742589951e-02,3.083112463355064392e-02,-9.048650972545146942e-03,-4.612416494637727737e-03,-8.344603120349347591e-04,1.517442148178815842e-02,-1.712768524885177612e-02,-1.604917272925376892e-02,2.563447691500186920e-02,-1.997657865285873413e-02,1.209650468081235886e-02,-3.538664802908897400e-02,4.630013182759284973e-02,1.838536374270915985e-02,-7.877201773226261139e-03,-1.498193130828440189e-03,-1.310829166322946548e-02,-2.981450967490673065e-02,5.539357662200927734e-03,-1.442520227283239365e-02,1.824329793453216553e-02
-3.093709005042910576e-03,-2.466535754501819611e-02,-1.122494414448738098e-02,8.235514163970947266e-03,1.684775389730930328e-02,5.432821344584226608e-03,-1.345264166593551636e-02,4.845306742936372757e-03,1.319450046867132187e-02,4.771557077765464783e-02,-1.480312831699848175e-02,2.522904425859451294e-03,1.508956123143434525e-02,1.470877695828676224e-02,1.553379278630018234e-02,-1.920226350193843246e-05,-3.737443359568715096e-03,-2.266562078148126602e-03,-3.959619905799627304e-03,2.927779592573642731e-02,-4.808268323540687561e-02,-4.101383313536643982e-02,-2.317454293370246887e-02,-2.205984108150005341e-02,4.748201742768287659e-02,-4.897270351648330688e-03,3.252996504306793213e-02,2.882984653115272522e-02,5.933286156505346298e-03,-8.090675808489322662e-03,1.199145521968603134e-02,1.381883397698402405e-03,-4.316952836234122515e-04,-1.506800856441259384e-02,1.461131870746612549e-02,8.009901270270347595e-03,1.349901780486106873e-02,1.167072728276252747e-02,1.629647798836231232e-02,-1.364285242743790150e-03,-7.680607028305530548e-03,6.117702927440404892e-03,2.008899487555027008e-02,1.271073892712593079e-02,-1.963539980351924896e-02,-3.027940168976783752e-02,2.046197885647416115e-03,7.985842227935791016e-02,-5.800058320164680481e-02,-5.603018682450056076e-03,-4.457030817866325378e-02,4.622346535325050354e-02,5.874560773372650146e-02,3.149446845054626465e-02,8.840842201607301831e-05,2.478502877056598663e-02
-1.662571914494037628e-02,1.843036897480487823e-02,-1.185736153274774551e-02,-8.007658645510673523e-03,1.405590306967496872e-02,-7.773812860250473022e-03,-3.060214221477508545e-02,-2.874454250559210777e-03,1.773116178810596466e-02,1.647194474935531616e-02,-1.791421882808208466e-02,-1.319296658039093018e-02,-4.746786132454872131e-02,1.166597194969654083e-02,1.389281544834375381e-02,2.842823415994644165e-02,6.112852133810520172e-03,7.571683730930089951e-03,-3.034699149429798126e-02,4.203427582979202271e-02,-6.538309156894683838e-02,-1.034263446927070618e-01,2.042859792709350586e-02,-2.348446985706686974e-03,-1.186478417366743088e-02,2.214164286851882935e-02,-2.150838263332843781e-02,2.607647702097892761e-02,1.926473341882228851e-02,8.448651991784572601e-03,2.031984925270080566e-02,-7.020177319645881653e-03,-2.413106150925159454e-02,-1.831462047994136810e-02,-2.270565740764141083e-02,4.728077352046966553e-02,-4.830218851566314697e-03,-1.814520102925598621e-03,2.609521709382534027e-02,-5.326662957668304443e-02,-4.485897719860076904e-02,6.378948688507080078e-02,4.180478208581916988e-05,2.191153727471828461e-02,6.101724132895469666e-02,1.404509297572076321e-03,5.556371062994003296e-02,1.529404670000076294e-01,2.720809774473309517e-03,1.090466976165771484e-03,2.793742343783378601e-02,3.128976374864578247e-02,2.207210101187229156e-02,-5.951761268079280853e-03,-7.456686347723007202e-03,2.411724440753459930e-02
-2.810863661579787731e-04,-2.886948361992835999e-02,1.377412676811218262e-02,4.712627560365945101e-04,1.527284272015094757e-02,-9.147961623966693878e-03,-2.572193741798400879e-03,7.353489752858877182e-03,-6.249569822102785110e-03,-1.295286137610673904e-02,1.009876374155282974e-03,1.055160257965326309e-02,-1.340054254978895187e-02,2.249415218830108643e-02,2.048380300402641296e-02,3.372523188591003418e-02,-3.543676808476448059e-03,-7.552711758762598038e-03,1.519198995083570480e-02,8.696601539850234985e-02,-3.842773661017417908e-02,-5.132253468036651611e-02,2.104477770626544952e-02,-4.829018190503120422e-02,2.993463072925806046e-03,1.404175814241170883e-02,-2.140367170795798302e-03,3.954455256462097168e-02,-1.225040573626756668e-02,1.670568250119686127e-02,-1.556806382723152637e-03,4.750348627567291260e-02,-2.597896009683609009e-02,8.391437120735645294e-03,2.627267129719257355e-02,4.344359785318374634e-02,1.235814206302165985e-02,8.301177062094211578e-03,-7.331351749598979950e-03,4.672551527619361877e-02,4.030316323041915894e-02,5.870107561349868774e-03,1.613390445709228516e-02,3.336565336212515831e-03,2.175084687769412994e-02,-6.320237647742033005e-03,7.405708543956279755e-03,1.997188478708267212e-02,-1.881900243461132050e-02,-6.653566379100084305e-03,-2.422144077718257904e-02,2.609284128993749619e-03,2.357115410268306732e-02,-9.073566179722547531e-04,4.823399242013692856e-03,9.866474101727362722e-06
8.815666660666465759e-03,-2.683765022084116936e-03,-1.754545979201793671e-02,-3.460436314344406128e-02,9.171112440526485443e-03,1.122935558669269085e-03,1.682463288307189941e-02,1.551829744130373001e-02,-9.075650945305824280e-03,6.256461609154939651e-03,-3.435948863625526428e-03,1.936575397849082947e-02,3.229707945138216019e-03,-3.468536306172609329e-03,1.096673775464296341e-02,-8.811650425195693970e-02,-3.970151767134666443e-03,-8.480646647512912750e-03,3.469983860850334167e-02,5.746397748589515686e-02,1.313536427915096283e-02,-1.985182911157608032e-01,2.212982811033725739e-02,3.008786030113697052e-02,-3.576005250215530396e-02,7.122901082038879395e-02,-3.896908601745963097e-03,-3.892878070473670959e-02,-1.387756410986185074e-02,1.074329484254121780e-02,-9.976760484278202057e-03,6.621621549129486084e-02,-4.465882480144500732e-02,1.026855967938899994e-02,4.128591157495975494e-03,3.499872237443923950e-02,1.830438710749149323e-02,-1.841572811827063560e-03,-1.437572389841079712e-02,9.058772027492523193e-02,-3.786001761909574270e-04,-4.045031219720840454e-02,-6.994378753006458282e-03,-2.356278151273727417e-02,-1.142024807631969452e-02,-6.088411901146173477e-03,-8.953695185482501984e-03,-1.303483732044696808e-04,-1.953019062057137489e-03,-4.161100462079048157e-02,-1.905191689729690552e-02,-6.744822952896356583e-03,1.873904839158058167e-02,-5.058918893337249756e-02,2.814978128299117088e-03,7.395578548312187195e-03
9.285033680498600006e-03,-4.642007872462272644e-03,1.362737268209457397e-02,3.463533520698547363e-02,3.048679325729608536e-03,7.424371782690286636e-03,1.348328031599521637e-02,1.499888394027948380e-02,-1.510144677013158798e-02,1.937296590767800808e-03,-2.602443471550941467e-02,6.175029557198286057e-03,-1.786572299897670746e-02,3.643209114670753479e-02,1.102452632039785385e-02,-7.104700058698654175e-02,-6.682118400931358337e-03,-4.003531299531459808e-03,-1.350568374618887901e-03,5.828175693750381470e-02,-2.641253918409347534e-02,-9.034626185894012451e-02,-1.361297629773616791e-02,-4.780376330018043518e-02,1.572516560554504395e-02,3.918438404798507690e-02,6.304818205535411835e-03,-3.754104673862457275e-02,-2.644611895084381104e-02,1.619072072207927704e-02,-8.953425101935863495e-03,4.811743274331092834e-02,-2.482110075652599335e-02,1.793635636568069458e-02,3.003213554620742798e-02,-3.818280622363090515e-02,-4.450135678052902222e-02,1.215565670281648636e-02,1.456700079143047333e-02,2.780723385512828827e-02,-6.167988851666450500e-02,1.352593488991260529e-02,2.045543119311332703e-02,1.628429256379604340e-02,3.603195399045944214e-02,-1.127675734460353851e-02,-7.732742000371217728e-03,-4.083580151200294495e-02,6.637518107891082764e-02,-1.954397931694984436e-02,-1.046739425510168076e-02,1.677700318396091461e-02,1.231269538402557373e-02,5.849437788128852844e-03,6.617947947233915329e-03,-1.079807523638010025e-02
-1.593105494976043701e-02,-8.718178607523441315e-03,-2.112568728625774384e-02,-2.480624243617057800e-02,2.107123378664255142e-03,1.793301664292812347e-02,7.128145080059766769e-03,-6.197639275342226028e-03,1.486110966652631760e-02,6.245590746402740479e-03,3.077456355094909668e-02,5.495222657918930054e-02,-1.248397212475538254e-02,-5.060327798128128052e-02,-5.608655046671628952e-03,5.339539423584938049e-02,7.505685556679964066e-03,1.182099618017673492e-02,5.299185961484909058e-02,-4.137032106518745422e-02,-2.602996304631233215e-02,9.168921411037445068e-02,-3.264344856142997742e-02,1.547123119235038757e-02,5.573941022157669067e-02,-5.017644166946411133e-02,-1.427823025733232498e-02,-7.990428246557712555e-03,2.420344389975070953e-02,1.323911827057600021e-03,1.570252329111099243e-02,-2.670831419527530670e-02,1.250788848847150803e-02,-1.774939522147178650e-02,1.403484959155321121e-03,-1.214963011443614960e-02,3.652545809745788574e-02,5.446861498057842255e-03,2.887788414955139160e-02,-1.316501479595899582e-02,-2.790889889001846313e-02,-2.296737581491470337e-02,4.179413430392742157e-03,-5.291979759931564331e-02,-2.355673909187316895e-02,-1.489329617470502853e-03,6.525506265461444855e-03,9.772146120667457581e-03,-1.463488396257162094e-02,4.130383953452110291e-02,-7.571843452751636505e-03,-1.139602065086364746e-02,-8.957594633102416992e-03,3.596754686441272497e-04,-1.301272679120302200e-02,-2.882331376895308495e-03
-2.371292188763618469e-02,5.909328535199165344e-02,5.839594174176454544e-03,2.337450720369815826e-02,-3.442713618278503418e-02,-2.520804479718208313e-02,-4.513817653059959412e-02,-8.211793750524520874e-02,4.282714799046516418e-02,1.976943947374820709e-02,8.857485651969909668e-02,1.546599343419075012e-02,-9.207119233906269073e-03,-1.558243185281753540e-01,-5.422855541110038757e-02,2.185686677694320679e-01,5.259124189615249634e-02,5.783712491393089294e-02,2.359041199088096619e-02,-1.778714060783386230e-01,1.488742828369140625e-01,2.922921478748321533e-01,3.141826763749122620e-02,5.022025108337402344e-02,3.231390565633773804e-02,-1.322446167469024658e-01,-1.917909481562674046e-03,1.349171996116638184e-02,9.513530135154724121e-02,-7.753749936819076538e-02,3.649483621120452881e-02,-1.412019729614257812e-01,1.800098717212677002e-01,-4.748304560780525208e-02,1.842603832483291626e-02,6.301068514585494995e-02,5.428348481655120850e-02,3.526634350419044495e-02,9.250125847756862640e-03,-6.139340624213218689e-02,-9.404337406158447266e-02,-8.449056744575500488e-02,-1.576953381299972534e-02,-9.217501431703567505e-02,-4.338341206312179565e-02,-2.310205996036529541e-02,2.194545930251479149e-03,-5.181995779275894165e-02,3.585579618811607361e-02,1.061595380306243896e-01,5.155959632247686386e-03,-3.874280676245689392e-02,-4.618002101778984070e-02,-4.077924881130456924e-03,-5.313089117407798767e-02,-3.767068311572074890e-02
1.094190054573118687e-03,-2.291573584079742432e-02,-2.861985266208648682e-01,-1.503048390150070190e-01,8.284212648868560791e-02,-3.587867692112922668e-02,-7.240098714828491211e-02,2.848438918590545654e-02,-9.035219554789364338e-04,-6.708211451768875122e-02,-1.898516416549682617e-01,6.228792667388916016e-02,-2.457410395145416260e-01,-5.358313675969839096e-03,2.615063078701496124e-02,-2.779143303632736206e-02,-3.316958248615264893e-02,-8.038848638534545898e-02,-7.085341960191726685e-02,9.211105108261108398e-02,3.961522504687309265e-02,-1.298486441373825073e-01,-1.226045638322830200e-01,-1.249472871422767639e-01,8.672229200601577759e-02,-4.687112197279930115e-02,-1.814019978046417236e-01,1.261682808399200439e-01,-7.591218221932649612e-03,3.715474158525466919e-02,5.399684232543222606e-05,7.336691766977310181e-02,6.800848990678787231e-02,2.594747114926576614e-03,9.722043573856353760e-02,9.166624397039413452e-02,-1.309601813554763794e-01,-2.320469357073307037e-02,2.222059108316898346e-02,-3.186927139759063721e-01,3.409941494464874268e-02,3.067311085760593414e-02,-1.630771160125732422e-01,1.020950637757778168e-02,-8.467317372560501099e-02,1.338325440883636475e-01,7.739265263080596924e-02,-2.642707526683807373e-01,-8.649355149827897549e-04,-1.127208247780799866e-01,-2.622734755277633667e-02,-2.753925025463104248e-01,7.345637679100036621e-02,-1.430277479812502861e-03,6.872738897800445557e-02,4.211588203907012939e-02
-1.194832101464271545e-02,2.188198268413543701e-03,8.868007361888885498e-02,-9.172180294990539551e-02,5.028285831212997437e-02,-2.702245302498340607e-02,4.010327905416488647e-02,1.464745402336120605e-02,1.282066572457551956e-02,1.527299433946609497e-01,-6.010946631431579590e-02,2.602767758071422577e-02,5.537639185786247253e-02,-1.237007156014442444e-01,-1.681406982243061066e-03,-2.522525936365127563e-02,4.911284428089857101e-03,-8.066100068390369415e-03,3.062887676060199738e-02,-4.286176711320877075e-02,-4.742091894149780273e-02,-1.133157536387443542e-01,3.102920763194561005e-02,-1.891179680824279785e-01,2.233282178640365601e-01,-3.450877964496612549e-01,2.132468111813068390e-02,3.648553416132926941e-02,1.096335798501968384e-02,-3.967139124870300293e-02,1.142357476055622101e-02,-1.133943498134613037e-01,-1.508851200342178345e-01,-1.427238248288631439e-02,6.980308145284652710e-02,-4.578897729516029358e-02,-1.659884601831436157e-01,7.839200086891651154e-03,1.790598966181278229e-02,4.088758490979671478e-03,4.904542490839958191e-02,-4.532018303871154785e-01,6.059083621948957443e-03,-6.735994666814804077e-02,6.233787909150123596e-02,-1.063940674066543579e-02,-8.082400262355804443e-02,7.749931514263153076e-02,-1.040181443095207214e-01,1.558569222688674927e-01,-2.362584024667739868e-01,4.124541208148002625e-02,-1.341483648866415024e-02,-4.303393512964248657e-02,1.103064976632595062e-02,7.604106515645980835e-02
2.898615086451172829e-03,-1.282264664769172668e-02,-2.117224782705307007e-02,-1.125849131494760513e-02,2.372085303068161011e-02,-1.002996414899826050e-02,-1.921927630901336670e-01,1.318942755460739136e-02,-1.349453581497073174e-03,1.000877916812896729e-01,3.118849545717239380e-02,4.171989113092422485e-02,7.482971996068954468e-02,-1.249202415347099304e-01,-1.483036484569311142e-02,1.873044818639755249e-01,-1.526731252670288086e-02,2.208946039900183678e-03,-2.583635970950126648e-03,1.063965074717998505e-02,1.072540655732154846e-01,2.216053158044815063e-01,-2.500010654330253601e-02,-4.251127596944570541e-03,2.038474380970001221e-02,-7.773326337337493896e-02,-1.376668084412813187e-02,2.863169275224208832e-02,5.423841997981071472e-02,-1.423850096762180328e-02,-2.136274240911006927e-03,-4.333280399441719055e-02,-9.277364611625671387e-02,1.078772242181003094e-03,4.868670180439949036e-02,-2.355116792023181915e-02,-2.489116787910461426e-02,-1.092732697725296021e-02,-9.785469621419906616e-02,-1.294343639165163040e-02,-3.858377337455749512e-01,2.235373295843601227e-02,1.370138023048639297e-02,-6.790946424007415771e-02,-1.077860128134489059e-02,1.173585187643766403e-02,-3.028800338506698608e-02,-1.496791541576385498e-01,2.464324003085494041e-03,2.582892961800098419e-02,2.154093235731124878e-03,-3.100034594535827637e-02,-1.690641790628433228e-02,9.830365888774394989e-03,2.670674351975321770e-03,1.654493680689483881e-04
2.278824569657444954e-03,7.359856367111206055e-02,-5.963537096977233887e-02,1.188686396926641464e-02,-1.484686322510242462e-02,-3.288955986499786377e-02,-7.109047472476959229e-02,1.967143453657627106e-02,-1.853178022429347038e-03,1.171509828418493271e-02,-5.643131211400032043e-02,1.383448950946331024e-02,9.897639043629169464e-03,-3.764059394598007202e-02,3.641886264085769653e-02,-1.280839461833238602e-02,-1.489426358602941036e-03,-7.066872203722596169e-04,5.368477106094360352e-02,-1.345709264278411865e-01,3.736866265535354614e-02,1.269142050296068192e-02,2.216502837836742401e-02,9.452119469642639160e-03,5.870225280523300171e-02,2.781160920858383179e-02,-2.039219066500663757e-02,4.431521811056882143e-04,-2.529729530215263367e-02,-7.860555197112262249e-04,-1.762926927767693996e-03,-1.792040653526782990e-02,2.637130767107009888e-02,3.553507616743445396e-03,4.718125984072685242e-02,-8.119588717818260193e-03,-9.763827547430992126e-03,1.046246499754488468e-03,2.007183060050010681e-02,4.095164127647876740e-03,5.869411304593086243e-02,5.198376625776290894e-02,-3.216150449588894844e-03,1.483024470508098602e-02,3.873740555718541145e-03,-7.907670922577381134e-03,8.885944262146949768e-03,1.233544107526540756e-02,3.291875869035720825e-02,1.005432680249214172e-01,-1.739413291215896606e-02,-1.387796131893992424e-03,5.069118738174438477e-02,3.016458824276924133e-02,-5.755396094173192978e-03,-1.182084344327449799e-02
2.405553357675671577e-03,-5.004143342375755310e-03,2.059313282370567322e-02,9.478663094341754913e-03,5.026593431830406189e-02,3.486567363142967224e-02,-5.613747611641883850e-02,5.102917179465293884e-02,6.596521416213363409e-05,-9.876968339085578918e-03,2.307600378990173340e-01,2.057333476841449738e-02,-1.441713869571685791e-01,4.886831622570753098e-03,-7.484559435397386551e-03,-2.589811943471431732e-02,1.149750966578722000e-02,-2.063753316178917885e-03,2.194408327341079712e-02,3.218516334891319275e-02,1.704617440700531006e-01,-1.081607863306999207e-02,-1.652805693447589874e-02,-2.133965259417891502e-03,-1.689838916063308716e-01,-1.485210005193948746e-02,2.315763384103775024e-02,2.001613974571228027e-01,1.700527034699916840e-03,3.768361173570156097e-03,3.123377682641148567e-03,-5.622589960694313049e-03,4.679816588759422302e-02,1.434664125554263592e-03,-8.037281781435012817e-02,-5.298819858580827713e-03,2.197480201721191406e-02,7.087368518114089966e-03,2.397700212895870209e-03,4.344414453953504562e-03,2.532354369759559631e-02,-1.161936670541763306e-02,-3.495615441352128983e-03,-1.597365736961364746e-02,-2.519011613912880421e-04,6.159840151667594910e-02,-1.074839849025011063e-02,-1.456496771425008774e-03,-3.380016610026359558e-02,-6.146260071545839310e-03,-5.853547528386116028e-02,1.281919609755277634e-02,-8.689614385366439819e-02,1.497329678386449814e-02,-6.194147281348705292e-03,8.772471919655799866e-03
4.392817150801420212e-03,-3.012861870229244232e-02,-1.521691381931304932e-01,-1.631904765963554382e-02,2.753972634673118591e-02,1.488890312612056732e-02,-9.057474671863019466e-04,-5.010860040783882141e-03,-3.727772505953907967e-03,7.310553640127182007e-02,3.132361173629760742e-02,-2.975353784859180450e-02,-1.292674988508224487e-01,-1.806914433836936951e-02,1.705695837736129761e-01,-1.549948751926422119e-02,-5.201494321227073669e-03,-1.410742290318012238e-03,4.654766321182250977e-01,-5.630949512124061584e-02,1.446162015199661255e-01,3.174016624689102173e-02,1.008003726601600647e-01,-5.745984241366386414e-02,-4.901212174445390701e-03,5.994656588882207870e-03,1.043579820543527603e-02,-3.748956322669982910e-02,-1.991420239210128784e-02,3.143909201025962830e-02,-4.585780669003725052e-03,-1.617043837904930115e-02,2.614645659923553467e-02,4.847564268857240677e-03,2.824401855468750000e-02,1.888536475598812103e-02,1.417641434818506241e-02,-7.297062315046787262e-03,2.519853226840496063e-02,-1.719100400805473328e-02,2.437580190598964691e-02,2.015952719375491142e-03,5.307205021381378174e-03,6.302129477262496948e-03,1.217371039092540741e-02,3.432573005557060242e-02,5.792861338704824448e-03,-2.273133583366870880e-02,-3.210212290287017822e-02,7.705320417881011963e-02,-1.122482493519783020e-02,-3.410227969288825989e-02,-4.404819011688232422e-01,4.054458346217870712e-03,3.252938156947493553e-03,-7.479841355234384537e-03
-2.723617013543844223e-03,2.427384257316589355e-02,-3.030685521662235260e-02,-2.886565052904188633e-04,-5.082364007830619812e-02,-3.613943932577967644e-03,-2.397788921371102333e-03,-7.465343922376632690e-03,8.444927632808685303e-03,-5.583496298640966415e-03,-1.208610553294420242e-02,-2.351126633584499359e-02,-1.412384212017059326e-02,-1.405272353440523148e-02,-9.028177708387374878e-03,-6.700507365167140961e-03,2.367802517255768180e-04,2.281219465658068657e-03,-4.771346598863601685e-02,3.647943027317523956e-03,-2.013289034366607666e-01,-7.891449332237243652e-02,1.445734221488237381e-02,6.239593029022216797e-02,-1.695570303127169609e-03,-6.778791546821594238e-03,8.608760312199592590e-03,8.181373029947280884e-02,-4.293974861502647400e-02,3.096214123070240021e-02,1.165735349059104919e-02,3.688279539346694946e-02,-1.032883301377296448e-03,-8.692131377756595612e-03,1.351372804492712021e-02,-2.915988862514495850e-02,-9.886206127703189850e-03,1.375500764697790146e-02,-1.784148742444813251e-03,-1.668399054324254394e-04,-2.482194639742374420e-02,-5.686200410127639771e-02,1.505164615809917450e-02,1.469680294394493103e-02,-2.834349311888217926e-02,-7.998363114893436432e-03,1.733722165226936340e-03,-1.712707132101058960e-01,5.186826735734939575e-02,3.158674389123916626e-02,-9.978664107620716095e-03,-6.226269993931055069e-03,-5.753412842750549316e-02,7.610154803842306137e-03,2.723314566537737846e-03,-2.887320518493652344e-02
2.000752370804548264e-03,1.605831459164619446e-02,5.361631512641906738e-03,1.395517773926258087e-02,-4.246109724044799805e-02,2.502794191241264343e-02,-5.378429591655731201e-02,6.906818132847547531e-03,-3.941128030419349670e-03,-3.814753377810120583e-03,-2.138020657002925873e-02,-9.871270507574081421e-02,5.958483368158340454e-02,-2.468952164053916931e-02,1.193245872855186462e-02,-6.393375247716903687e-02,-1.381197478622198105e-02,-1.363868452608585358e-02,2.170803584158420563e-02,4.967207461595535278e-02,-7.984596490859985352e-02,-1.594351828098297119e-01,-1.636030524969100952e-02,-3.003115020692348480e-02,-2.439702861011028290e-02,5.102199688553810120e-02,4.522953554987907410e-02,-6.774306297302246094e-02,-2.333344519138336182e-02,1.929129660129547119e-02,-3.552694572135806084e-03,9.062413871288299561e-02,4.028128087520599365e-02,-1.539121847599744797e-03,-4.831081628799438477e-02,-1.781743578612804413e-02,-2.428555302321910858e-02,1.092247199267148972e-02,1.641091704368591309e-02,3.231680393218994141e-02,-1.935442350804805756e-02,6.912253797054290771e-03,1.405953522771596909e-02,9.658181108534336090e-03,-5.006138607859611511e-02,1.421249005943536758e-02,-6.812613010406494141e-01,-1.391446888446807861e-01,-1.908448897302150726e-02,1.050112470984458923e-01,-8.198324590921401978e-02,2.530332654714584351e-02,-9.445905685424804688e-02,7.830619812011718750e-01,1.851361989974975586e-02,-2.840237133204936981e-02
-1.601659879088401794e-02,3.811470046639442444e-02,-5.507260095328092575e-03,-7.508073747158050537e-02,8.559369295835494995e-02,-9.270400553941726685e-02,3.560819849371910095e-02,6.964238826185464859e-03,4.898252710700035095e-02,-5.971066653728485107e-02,1.760501414537429810e-02,-5.511647555977106094e-03,1.477482076734304428e-02,2.150200679898262024e-02,1.644850149750709534e-02,1.025031432509422302e-01,1.787239126861095428e-02,3.943972289562225342e-03,1.560947205871343613e-02,-2.887962199747562408e-02,1.597961224615573883e-02,3.299033269286155701e-02,1.001713704317808151e-02,6.226943340152502060e-03,-8.403618633747100830e-02,1.667352579534053802e-02,-4.902664199471473694e-02,-2.478672116994857788e-01,1.009469851851463318e-01,-1.100864633917808533e-02,3.983413055539131165e-02,-7.688652724027633667e-02,-1.332352403551340103e-02,-4.526075348258018494e-02,2.588117122650146484e-02,3.235442563891410828e-02,4.365527257323265076e-02,-2.967495918273925781e-01,-1.946314121596515179e-03,-1.893402263522148132e-02,1.704979315400123596e-02,-2.016766741871833801e-02,-2.734355442225933075e-02,-3.163764625787734985e-02,3.091507405042648315e-02,3.315556049346923828e-02,-3.844555020332336426e-01,-3.623341619968414307e-01,8.184531331062316895e-02,-1.968116313219070435e-02,1.301483660936355591e-01,2.319948561489582062e-02,2.347423583269119263e-01,-1.904530972242355347e-01,-2.187263779342174530e-02,9.369757771492004395e-02
1.092315558344125748e-02,-2.041658572852611542e-02,4.293401166796684265e-02,-1.452867966145277023e-02,-8.676298707723617554e-02,4.718239232897758484e-02,-2.192315086722373962e-02,-6.860535359010100365e-04,-2.131365984678268433e-02,-1.617886126041412354e-02,-4.668621812015771866e-03,-5.141208879649639130e-03,-5.765166506171226501e-02,-3.869035048410296440e-03,-1.189686357975006104e-02,-1.036711484193801880e-01,-3.344517666846513748e-03,-3.945059143006801605e-03,-4.356606304645538330e-02,6.066884845495223999e-03,-5.582157522439956665e-03,3.058991767466068268e-02,2.851643366739153862e-03,-4.446940869092941284e-02,1.573579162359237671e-01,3.492175787687301636e-02,-1.840682327747344971e-01,3.819023668766021729e-01,-6.075815483927726746e-02,9.266885928809642792e-03,-1.790708303451538086e-02,1.017838269472122192e-01,3.792321542277932167e-03,2.358912304043769836e-02,-5.740314722061157227e-02,-2.429761551320552826e-02,-2.783131226897239685e-02,-5.412239581346511841e-03,2.675826661288738251e-02,5.014991387724876404e-03,-3.257860243320465088e-02,1.041414402425289154e-02,-6.915674544870853424e-03,3.063672408461570740e-02,-3.114676661789417267e-02,-6.003632768988609314e-02,2.863948047161102295e-01,1.259922087192535400e-01,2.898007817566394806e-02,9.113483130931854248e-03,-2.881133854389190674e-01,9.569653193466365337e-04,-2.290896922349929810e-01,2.615475654602050781e-01,8.196335285902023315e-03,-1.142927408218383789e-01
-1.029818411916494370e-02,7.009401451796293259e-03,2.508236654102802277e-02,2.058107592165470123e-02,3.125158837065100670e-03,1.200423948466777802e-02,1.739464327692985535e-02,-6.597555242478847504e-03,1.035919878631830215e-02,1.900048367679119110e-02,2.002912107855081558e-03,-2.120433934032917023e-02,8.849898353219032288e-03,3.662535920739173889e-03,-5.682956427335739136e-03,1.424886099994182587e-02,4.691419657319784164e-03,9.220623411238193512e-03,-9.802032262086868286e-03,-1.784350955858826637e-03,-1.928530819714069366e-02,-5.858242139220237732e-02,4.703520238399505615e-02,-2.400490269064903259e-02,2.819449454545974731e-02,-1.425212249159812927e-02,1.941805705428123474e-02,2.377261780202388763e-02,-6.095178425312042236e-03,3.741336055099964142e-03,4.643582273274660110e-03,1.462987065315246582e-02,-1.932187442434951663e-04,-1.502331346273422241e-02,4.144061356782913208e-03,1.088094804435968399e-02,1.347463019192218781e-02,-1.740242168307304382e-02,1.544192316941916943e-03,1.571043021976947784e-02,1.189807662740349770e-03,-2.624494582414627075e-02,-8.798508904874324799e-03,3.164399042725563049e-02,1.877080462872982025e-02,1.169050345197319984e-03,-2.582040382549166679e-03,5.221515148878097534e-02,-1.595722325146198273e-02,-2.222139202058315277e-02,1.476515899412333965e-03,2.309034578502178192e-02,-2.724063117057085037e-03,8.490120992064476013e-03,-6.596405524760484695e-03,1.086967997252941132e-02
-3.387335455045104027e-03,-1.570804603397846222e-02,-5.198580212891101837e-03,1.115784700959920883e-02,2.739751525223255157e-02,2.777841174975037575e-03,8.822537027299404144e-03,1.282312162220478058e-02,1.072478387504816055e-02,2.330757118761539459e-02,5.176658276468515396e-03,-1.361125265248119831e-03,6.297854240983724594e-03,1.121041178703308105e-02,1.492010662332177162e-03,-1.045172009617090225e-02,-4.558416083455085754e-03,-5.074727348983287811e-03,-2.246490120887756348e-02,3.100886940956115723e-02,-4.996907711029052734e-02,-6.815049797296524048e-02,-3.199653467163443565e-03,-2.406054362654685974e-02,2.260101214051246643e-02,-7.759721018373966217e-03,3.834836930036544800e-02,3.013422526419162750e-02,6.686090957373380661e-03,1.342421956360340118e-02,9.225884452462196350e-03,1.455570664256811142e-02,-1.634834147989749908e-02,-9.465511888265609741e-03,-1.785239554010331631e-03,3.156207129359245300e-02,1.018874906003475189e-02,1.578352879732847214e-03,1.956275664269924164e-02,1.077056210488080978e-02,-2.013955824077129364e-02,-1.988474279642105103e-02,3.002482838928699493e-02,-7.961107185110449791e-04,-4.284680262207984924e-02,-1.863043569028377533e-02,-2.755447290837764740e-02,4.174732044339179993e-02,-5.290860310196876526e-02,8.280827663838863373e-03,-3.222359344363212585e-02,-1.816079579293727875e-02,7.029337435960769653e-02,4.236557055264711380e-03,6.451914086937904358e-04,3.348107263445854187e-02
4.296464379876852036e-03,3.947992622852325439e-02,2.358056604862213135e-02,1.590908505022525787e-02,-1.228986959904432297e-02,-1.249529304914176464e-03,-1.953476853668689728e-02,-4.346516449004411697e-03,-7.240178994834423065e-03,1.829795911908149719e-02,6.208222359418869019e-03,8.478296920657157898e-03,7.968874648213386536e-03,-1.397386845201253891e-02,1.505928765982389450e-02,3.848421946167945862e-02,-9.523303247988224030e-03,-2.582456218078732491e-03,-6.022368906997144222e-04,4.128508269786834717e-02,-8.765222504734992981e-03,-1.017211228609085083e-01,-1.386047061532735825e-02,-7.486853282898664474e-03,3.748751059174537659e-02,4.200277384370565414e-03,7.194269914180040359e-03,7.061377167701721191e-03,-1.371397543698549271e-02,-7.696459535509347916e-03,-5.376402288675308228e-03,1.426438987255096436e-02,-1.106520276516675949e-02,7.137553300708532333e-03,-8.100319653749465942e-03,6.345397979021072388e-02,-2.293637208640575409e-02,-1.819936931133270264e-02,2.026297338306903839e-02,-3.759640827775001526e-02,-2.765908837318420410e-02,1.940178498625755310e-02,-9.056811220943927765e-03,-1.438007690012454987e-02,1.413894817233085632e-02,3.090053796768188477e-02,7.434741407632827759e-02,1.161952838301658630e-01,4.487375169992446899e-02,-1.584354788064956665e-03,1.338579971343278885e-02,-2.036139555275440216e-02,3.689647838473320007e-02,-1.225714106112718582e-02,4.784477874636650085e-03,-1.374945044517517090e-02
2.101076068356633186e-03,-2.830737829208374023e-02,6.862005684524774551e-04,-1.858368515968322754e-02,2.713670022785663605e-02,5.717204418033361435e-03,-2.363582141697406769e-02,-2.806533826515078545e-03,-1.327433157712221146e-03,-2.857829630374908447e-02,7.524841930717229843e-03,3.346738591790199280e-02,-4.120343364775180817e-03,1.303378585726022720e-02,1.801158860325813293e-02,-4.653143882751464844e-02,-1.019591465592384338e-02,-1.024759840220212936e-02,1.872119307518005371e-02,8.261933177709579468e-02,-5.008869990706443787e-02,-1.066502183675765991e-01,6.889445334672927856e-02,-5.984351411461830139e-02,5.030361004173755646e-03,-6.605474278330802917e-03,4.174720961600542068e-03,-3.886249847710132599e-03,-7.040068972855806351e-03,-1.282099820673465729e-02,-3.906552214175462723e-03,-1.341817528009414673e-02,-5.071055889129638672e-02,-5.266090855002403259e-03,3.663076087832450867e-02,9.275332093238830566e-02,4.261935595422983170e-03,3.041460644453763962e-03,-2.373035240452736616e-04,1.876518502831459045e-02,2.449329756200313568e-02,-4.366860259324312210e-03,7.683973293751478195e-03,3.659885260276496410e-04,7.403173483908176422e-03,8.854748681187629700e-03,2.975023118779063225e-03,4.518031328916549683e-02,-3.239423036575317383e-02,1.264872495085000992e-02,9.738681837916374207e-03,-8.004447817802429199e-02,1.447896100580692291e-02,-1.257801055908203125e-02,8.303648792207241058e-03,-1.414299290627241135e-02
-2.514303378120530397e-05,-1.258679106831550598e-02,-4.599353764206171036e-03,-4.271598160266876221e-02,4.681972786784172058e-02,7.030799053609371185e-03,1.851381268352270126e-03,1.914279349148273468e-02,1.606866251677274704e-03,1.099455263465642929e-02,-6.723640952259302139e-03,1.603594049811363220e-02,-1.925686933100223541e-02,-4.637386649847030640e-02,6.893465295433998108e-03,-9.640375524759292603e-02,-6.627934519201517105e-03,-6.256471853703260422e-03,3.989258408546447754e-02,4.469629749655723572e-02,-2.419883199036121368e-02,-2.228262275457382202e-01,4.496370255947113037e-02,3.012967854738235474e-02,-2.165379747748374939e-02,3.754784166812896729e-02,5.637305788695812225e-03,3.522913437336683273e-03,-1.190275326371192932e-02,2.045641839504241943e-02,-1.249774359166622162e-03,4.979163408279418945e-03,-5.840566381812095642e-02,-7.778653874993324280e-03,1.033398043364286423e-02,4.335713014006614685e-02,-1.362462155520915985e-02,-9.482387453317642212e-03,1.733309961855411530e-02,6.118959281593561172e-03,-2.176212891936302185e-02,2.717126905918121338e-02,-1.273589581251144409e-02,-5.234311521053314209e-02,-1.799376122653484344e-02,4.965949803590774536e-03,-2.309536561369895935e-02,7.317329943180084229e-02,-8.279694616794586182e-02,3.083316981792449951e-02,9.156378917396068573e-03,-4.245243966579437256e-02,8.395536802709102631e-03,-1.591081917285919189e-02,4.291572608053684235e-03,3.295137733221054077e-02
4.898554179817438126e-03,-2.746954374015331268e-02,-2.670747693628072739e-03,-2.058567665517330170e-02,2.104192972183227539e-02,2.362351864576339722e-02,-1.546503789722919464e-02,2.721079811453819275e-02,-1.393018197268247604e-02,1.709865464363247156e-04,-5.370276793837547302e-02,6.532969884574413300e-03,-2.531510079279541969e-03,1.637577451765537262e-02,2.970031346194446087e-04,-9.637898206710815430e-02,-8.992657996714115143e-03,-5.257740151137113571e-03,-4.897324368357658386e-02,5.723930522799491882e-02,-8.256420493125915527e-02,-1.175196468830108643e-01,4.739501513540744781e-03,-1.653513312339782715e-02,2.950122952461242676e-02,3.197829704731702805e-03,7.531905546784400940e-03,-2.458379976451396942e-02,-2.878464944660663605e-02,2.398455515503883362e-02,-9.137012064456939697e-03,3.009380539879202843e-03,-4.246196523308753967e-02,6.993182934820652008e-03,6.473010289482772350e-04,-5.449752509593963623e-02,-2.275185845792293549e-02,1.333474181592464447e-02,-1.018426381051540375e-03,-3.276554122567176819e-02,-2.017038315534591675e-02,-8.390614762902259827e-03,8.173975162208080292e-03,6.646125111728906631e-03,3.376702591776847839e-02,5.546165630221366882e-03,1.166459755040705204e-03,2.350155822932720184e-02,-6.342047359794378281e-03,3.150920197367668152e-02,-7.498053368180990219e-03,-4.459016956388950348e-03,6.701589561998844147e-03,-9.046230465173721313e-03,9.077993221580982208e-03,5.798452068120241165e-03
-2.525913529098033905e-02,-1.271711429581046104e-03,-4.129964113235473633e-02,-2.734167501330375671e-02,-1.056557521224021912e-03,-5.329807754606008530e-03,-9.623687714338302612e-03,-2.998766256496310234e-03,2.263545803725719452e-02,1.802620105445384979e-02,1.485639438033103943e-02,1.585889793932437897e-02,-4.822359606623649597e-02,-2.161645144224166870e-02,-6.318353582173585892e-03,6.594001501798629761e-02,1.821592077612876892e-02,1.061982661485671997e-02,3.917367383837699890e-02,-4.259607940912246704e-02,1.922874711453914642e-02,7.380823791027069092e-02,-4.855078179389238358e-03,-2.800830407068133354e-03,-6.582224275916814804e-03,-1.558020990341901779e-02,-4.870175570249557495e-02,4.019072279334068298e-02,3.157143294811248779e-02,1.763022691011428833e-02,2.507993392646312714e-02,-4.502241965383291245e-03,9.662484750151634216e-03,-1.854752562940120697e-02,-3.951422497630119324e-02,-2.120629214914515615e-04,5.457803979516029358e-02,1.856111548840999603e-02,1.876787468791007996e-02,2.183192037045955658e-02,-2.794554457068443298e-02,-2.501528337597846985e-02,-3.125071153044700623e-02,-4.119411110877990723e-02,4.490961134433746338e-02,-4.022545740008354187e-02,-1.084961649030447006e-02,-2.164595760405063629e-02,4.923398047685623169e-02,-4.028270393610000610e-02,-5.905169993638992310e-03,-5.017370916903018951e-03,-6.326837092638015747e-02,3.261208161711692810e-02,-1.479143835604190826e-02,-1.040888205170631409e-02
-8.127244189381599426e-03,6.646962463855743408e-02,1.985622569918632507e-02,-8.792462758719921112e-03,-3.636516258120536804e-02,-1.495622750371694565e-02,-3.939180448651313782e-02,-7.493013143539428711e-02,3.485114127397537231e-02,7.237593084573745728e-02,7.067745178937911987e-02,5.320869386196136475e-02,2.753162756562232971e-02,-9.854627400636672974e-02,-6.703334301710128784e-02,4.755929708480834961e-01,4.459453374147415161e-02,3.909788653254508972e-02,7.707624882459640503e-02,-2.200405597686767578e-01,2.621748149394989014e-01,4.666198790073394775e-01,1.828436180949211121e-02,7.832775264978408813e-02,-3.143310919404029846e-02,-7.053185254335403442e-02,2.606293000280857086e-02,-9.433736093342304230e-03,6.643970310688018799e-02,-2.180210687220096588e-02,3.080304153263568878e-02,-5.657917633652687073e-02,9.853047877550125122e-02,-1.767843961715698242e-02,-4.363430663943290710e-02,7.653686404228210449e-02,4.175598546862602234e-02,3.157829120755195618e-02,4.362304136157035828e-02,-4.311721399426460266e-02,-1.247342675924301147e-01,-1.372548192739486694e-01,1.524454355239868164e-02,-7.865085452795028687e-02,-1.211035810410976410e-02,-4.712233692407608032e-02,-5.778478085994720459e-02,-1.950176656246185303e-01,1.674066781997680664e-01,-1.097589507699012756e-01,-1.435155235230922699e-02,1.234580054879188538e-01,-9.905590862035751343e-02,-2.752760425209999084e-02,-4.467447847127914429e-02,-1.967426016926765442e-02
9.875341318547725677e-03,5.328702554106712341e-02,4.395205155014991760e-02,1.740058660507202148e-01,-8.524288237094879150e-02,-3.109659999608993530e-02,8.487885445356369019e-02,-4.978901240974664688e-03,-9.035119786858558655e-03,1.100857928395271301e-02,-1.139615662395954132e-02,-1.017282679677009583e-01,5.303562805056571960e-02,-1.412630677223205566e-01,2.485021948814392090e-02,9.499765001237392426e-03,-6.508803460747003555e-03,3.152161091566085815e-02,1.751094823703169823e-03,-9.438024461269378662e-02,3.926754929125308990e-03,6.151624768972396851e-02,5.342222750186920166e-02,5.252961441874504089e-02,-4.837259650230407715e-02,-6.152349524199962616e-03,1.712274104356765747e-01,1.892049331218004227e-04,-2.059867791831493378e-02,-1.757207140326499939e-02,-8.574092760682106018e-03,-1.257547736167907715e-01,-6.025321409106254578e-02,1.070703100413084030e-02,-2.688616141676902771e-02,-4.700433462858200073e-02,2.983720041811466217e-02,-6.697806064039468765e-03,-4.882569424808025360e-03,1.107703521847724915e-01,2.093390375375747681e-02,-2.500011213123798370e-02,1.108355522155761719e-01,7.302521262317895889e-03,3.976420462131500244e-01,5.444303154945373535e-02,-3.846293687820434570e-02,-1.738534681499004364e-02,-1.304136663675308228e-01,-8.404602296650409698e-03,-5.774904042482376099e-02,1.895929127931594849e-01,-9.289900772273540497e-04,-5.224690586328506470e-02,-2.162078768014907837e-02,-2.634747624397277832e-01
1.715954393148422241e-02,4.137446358799934387e-02,-1.663625799119472504e-02,-5.006217397749423981e-03,-1.035498827695846558e-01,1.712596276775002480e-03,-7.819320261478424072e-02,1.174012478440999985e-02,-2.290275134146213531e-02,4.318141564726829529e-02,-3.913049772381782532e-02,-1.394486874341964722e-01,-1.883628964424133301e-01,4.229711592197418213e-01,3.132777661085128784e-02,-7.051192224025726318e-02,-1.825018785893917084e-02,2.177171222865581512e-02,-4.502907395362854004e-02,1.647964864969253540e-01,2.328556776046752930e-02,3.315128386020660400e-02,3.773459047079086304e-02,2.553020417690277100e-02,-2.676936388015747070e-01,3.068157434463500977e-01,-2.143612354993820190e-01,1.654869643971323967e-03,-2.586335316300392151e-02,7.865587621927261353e-02,-2.010607905685901642e-02,-8.160340040922164917e-02,2.250473201274871826e-01,2.285709604620933533e-02,-6.964954733848571777e-02,-4.820331558585166931e-02,-4.368004202842712402e-02,-1.363577507436275482e-02,3.116106986999511719e-02,-2.399877607822418213e-01,3.412939235568046570e-02,2.214752286672592163e-01,2.092287177219986916e-03,4.245875179767608643e-01,2.840517759323120117e-01,-8.198144286870956421e-02,1.537187863141298294e-02,2.750745415687561035e-02,-1.688544005155563354e-01,-6.529714912176132202e-02,9.642369300127029419e-02,2.406782060861587524e-01,5.959151312708854675e-03,5.090824142098426819e-02,-2.734468877315521240e-02,3.904009237885475159e-02
6.264671683311462402e-03,1.350157056003808975e-02,1.117957569658756256e-02,-1.404867917299270630e-01,6.694721430540084839e-02,-2.796994708478450775e-02,2.545268237590789795e-01,-3.423891961574554443e-02,-7.203223183751106262e-03,1.166795566678047180e-01,-2.264126902446150780e-03,-9.841297566890716553e-02,-5.184958223253488541e-03,1.811566203832626343e-01,4.665084555745124817e-02,1.517467796802520752e-01,3.014505282044410706e-02,-1.463561784476041794e-02,-5.070570390671491623e-03,-1.685077846050262451e-01,3.957265615463256836e-02,1.845726668834686279e-01,-6.814402341842651367e-02,2.750423038378357887e-03,7.742217183113098145e-02,2.190974354743957520e-01,6.883092969655990601e-02,-3.644844517111778259e-02,7.623250037431716919e-02,3.981023561209440231e-03,-4.467732273042201996e-03,-3.629096550866961479e-03,1.823951154947280884e-01,7.932350970804691315e-03,-4.010536894202232361e-02,-6.421306729316711426e-02,-1.939216628670692444e-02,2.758496440947055817e-02,-2.692078948020935059e-01,9.298315644264221191e-02,4.760656133294105530e-02,5.713045224547386169e-02,-1.663060858845710754e-02,9.903069585561752319e-02,-2.102836221456527710e-01,-6.323240697383880615e-02,1.772962138056755066e-02,-7.753713428974151611e-02,3.689333423972129822e-02,4.332496225833892822e-02,-7.744809240102767944e-02,-1.303530782461166382e-01,-9.393614716827869415e-03,-4.866830259561538696e-02,6.725785322487354279e-03,-5.181475076824426651e-03
9.292548522353172302e-03,-8.276512473821640015e-02,1.018559932708740234e-01,2.231074869632720947e-02,2.467387169599533081e-02,2.492010965943336487e-02,4.756308719515800476e-02,-5.700089782476425171e-02,-5.410403013229370117e-03,1.841001398861408234e-02,-1.015736442059278488e-02,-1.380664203315973282e-02,2.065286505967378616e-03,1.200517788529396057e-01,3.217896446585655212e-02,-2.297438867390155792e-02,1.870660856366157532e-02,8.160129189491271973e-03,1.572638750076293945e-01,3.212741315364837646e-01,2.110120467841625214e-02,2.884236630052328110e-03,8.143250644207000732e-02,1.102304086089134216e-01,1.478389203548431396e-01,8.816498517990112305e-02,4.947240278124809265e-02,3.526230901479721069e-02,-1.524826604872941971e-02,2.802930399775505066e-02,-2.724672376643866301e-04,-2.459852257743477821e-03,-5.041934922337532043e-02,1.234400924295186996e-02,6.772471219301223755e-02,-7.733792066574096680e-02,-6.579550448805093765e-03,1.078926585614681244e-02,1.976512372493743896e-02,1.732707023620605469e-02,3.238558769226074219e-02,4.446283727884292603e-02,8.342120796442031860e-03,-1.094565689563751221e-01,-2.832397259771823883e-02,-5.793732125312089920e-03,4.214569635223597288e-04,1.524466741830110550e-02,2.785120159387588501e-02,8.132261037826538086e-02,-2.377391904592514038e-01,-1.952531374990940094e-02,1.932648755609989166e-02,-3.801604732871055603e-02,1.098453905433416367e-02,5.936046596616506577e-03
7.425039657391607761e-04,-8.824596181511878967e-03,9.215372055768966675e-02,-1.369009446352720261e-02,2.850291877985000610e-02,-4.289983306080102921e-03,4.350915178656578064e-02,-1.114911064505577087e-01,-7.094446569681167603e-03,-5.500038620084524155e-03,1.739684194326400757e-01,1.089579053223133087e-02,-9.251518547534942627e-02,-2.315594442188739777e-02,1.084807701408863068e-02,-2.313430607318878174e-02,-4.468183219432830811e-02,-5.906491074711084366e-03,3.855817019939422607e-02,-7.040272653102874756e-02,2.159889973700046539e-02,-2.218732237815856934e-02,1.741885207593441010e-02,1.720843613147735596e-01,-1.685869246721267700e-01,-2.372196316719055176e-02,-6.978520657867193222e-03,6.566120684146881104e-02,-1.916276663541793823e-02,-2.010610420256853104e-03,-1.424149144440889359e-02,-8.733748458325862885e-03,-7.839620113372802734e-02,6.204368080943822861e-03,2.380741527304053307e-03,3.307879567146301270e-01,1.283708214759826660e-02,-4.579249769449234009e-02,-2.290693577378988266e-03,7.519220467656850815e-03,2.820040285587310791e-02,1.006904337555170059e-02,8.892056532204151154e-03,3.813873603940010071e-02,1.368526369333267212e-02,5.615389719605445862e-02,3.387641860172152519e-03,2.522869221866130829e-02,-7.150352746248245239e-02,3.439757600426673889e-02,1.820584293454885483e-04,4.093728959560394287e-03,-6.700864434242248535e-02,-4.107424244284629822e-02,2.350966818630695343e-02,-6.836407352238893509e-03
-1.842850819230079651e-02,1.618424989283084869e-02,-1.156846210360527039e-01,5.992252845317125320e-03,2.644345350563526154e-02,2.286427468061447144e-02,-5.870548263192176819e-02,-1.003162376582622528e-02,1.259429100900888443e-02,4.045076668262481689e-02,3.738000988960266113e-02,-8.390252292156219482e-02,-1.094071120023727417e-01,3.022729605436325073e-02,2.159515619277954102e-01,-2.627697959542274475e-02,6.870854645967483521e-03,2.944016596302390099e-03,4.692434072494506836e-01,9.876785427331924438e-02,1.919845640659332275e-01,-1.970109641551971436e-01,-3.234279751777648926e-01,1.304382532835006714e-01,1.266474928706884384e-02,-1.786583662033081055e-02,-3.261939622461795807e-03,-4.575292393565177917e-02,-1.502037793397903442e-02,-9.453170932829380035e-03,1.322918105870485306e-02,4.326683655381202698e-02,3.270148299634456635e-03,-1.930379495024681091e-02,7.942192256450653076e-02,-1.152456253767013550e-01,3.050774894654750824e-02,1.106064021587371826e-02,3.192671388387680054e-02,7.513861171901226044e-03,4.472683742642402649e-02,-1.275396905839443207e-02,-9.892769157886505127e-03,3.518891520798206329e-03,-1.403549406677484512e-02,1.052868086844682693e-02,4.571786150336265564e-03,1.807589828968048096e-02,-3.361910581588745117e-02,-3.243828564882278442e-02,9.058453142642974854e-02,-3.315090760588645935e-02,-5.732483267784118652e-01,-4.394332412630319595e-03,-8.735000155866146088e-03,6.384380627423524857e-03
-6.518373731523752213e-03,2.291133627295494080e-02,-5.859803780913352966e-02,2.427351847290992737e-02,-7.720270007848739624e-02,-2.002825401723384857e-02,1.475480571389198303e-02,-3.505969792604446411e-02,1.410535629838705063e-02,3.825296647846698761e-03,-4.028619453310966492e-02,-1.545487530529499054e-02,-4.335417971014976501e-02,1.235936395823955536e-02,-9.377392940223217010e-03,-4.398709908127784729e-02,2.159829810261726379e-02,1.070226356387138367e-02,-1.978101953864097595e-02,-3.422386571764945984e-02,-1.661667376756668091e-01,-8.978060632944107056e-02,3.882269188761711121e-02,1.096585392951965332e-01,-2.303773537278175354e-02,2.033689804375171661e-02,-1.857200264930725098e-02,7.793553173542022705e-02,-4.635176435112953186e-02,1.526803430169820786e-02,1.557712536305189133e-02,1.956754736602306366e-02,4.263912141323089600e-02,-9.577004238963127136e-03,-4.582837969064712524e-02,9.950865991413593292e-03,7.698754197917878628e-04,2.819545753300189972e-02,-1.145858224481344223e-02,-8.088407106697559357e-03,-3.629503073170781136e-03,-3.011773154139518738e-02,-1.344254799187183380e-02,2.730522118508815765e-02,-4.858273547142744064e-03,-1.145002804696559906e-02,-2.795383706688880920e-02,-1.403066068887710571e-01,5.594833940267562866e-02,1.603531092405319214e-02,8.278632536530494690e-03,9.681014344096183777e-03,-8.984235115349292755e-03,5.437564849853515625e-02,-1.162028405815362930e-02,-3.007347695529460907e-02
5.360610666684806347e-04,1.715688593685626984e-02,4.889790434390306473e-03,-2.100790105760097504e-02,-2.789171412587165833e-02,3.071378543972969055e-02,-6.649526208639144897e-02,1.855692081153392792e-02,1.513814274221658707e-02,6.944546941667795181e-03,7.386271841824054718e-03,-9.444388002157211304e-02,4.615283012390136719e-02,-2.457627281546592712e-02,-2.434969414025545120e-03,-5.205392092466354370e-02,5.470721051096916199e-03,-3.543074242770671844e-03,5.384247750043869019e-03,3.822984173893928528e-02,-3.732152981683611870e-03,-8.902503550052642822e-02,-1.344427838921546936e-02,2.567580528557300568e-02,-4.659452289342880249e-02,-5.991036538034677505e-03,1.587525941431522369e-02,-6.432356685400009155e-02,-7.923172670416533947e-04,5.287175998091697693e-02,1.341641694307327271e-02,6.636173278093338013e-02,1.046432554721832275e-01,-2.345163375139236450e-02,-6.629535555839538574e-02,2.239143103361129761e-02,-1.344542764127254486e-02,9.923442266881465912e-04,1.544338837265968323e-02,2.390005625784397125e-02,2.911246567964553833e-02,-5.845480132848024368e-03,-1.851979084312915802e-02,7.621408905833959579e-03,-4.885444045066833496e-02,2.036465331912040710e-02,-3.770663738250732422e-01,-7.579895108938217163e-02,-6.173651665449142456e-03,8.742000907659530640e-02,-3.311021253466606140e-02,7.510962430387735367e-03,-9.206403046846389771e-03,4.764342010021209717e-01,7.194495992735028267e-04,4.474774759728461504e-04
-3.873637411743402481e-03,1.969233527779579163e-02,1.746769994497299194e-02,-8.916513621807098389e-02,1.024272739887237549e-01,-6.710118055343627930e-02,1.467038504779338837e-02,4.613311216235160828e-02,2.646355703473091125e-02,-8.063811808824539185e-02,2.108089253306388855e-02,-3.370224731042981148e-03,2.188570238649845123e-02,2.348450943827629089e-02,-1.319909002631902695e-03,8.604791760444641113e-02,-4.844753071665763855e-03,-3.092051250860095024e-03,-2.061036042869091034e-02,2.796480664983391762e-03,-4.355722048785537481e-04,2.512001059949398041e-02,1.456082053482532501e-02,-4.364563897252082825e-02,-3.711735457181930542e-02,-2.747641690075397491e-02,-3.138236328959465027e-02,-1.673980504274368286e-01,5.969659611582756042e-02,-9.901878423988819122e-03,1.138444803655147552e-02,1.048023346811532974e-02,-6.050590798258781433e-02,-2.488295547664165497e-02,-1.020221039652824402e-02,5.016916431486606598e-03,6.481127347797155380e-03,-2.564795017242431641e-01,-3.354133572429418564e-03,-1.575600355863571167e-02,1.263647899031639099e-02,-1.673859357833862305e-02,1.098057255148887634e-02,-2.639376185834407806e-02,4.853012412786483765e-02,8.329537697136402130e-03,-2.560638785362243652e-01,-3.046996593475341797e-01,6.954129785299301147e-02,-3.174844197928905487e-03,1.063243597745895386e-01,-5.160795524716377258e-02,2.147874236106872559e-01,-1.997939199209213257e-01,-1.167964003980159760e-02,7.382784783840179443e-02
1.988613232970237732e-02,-1.772962883114814758e-02,1.041021943092346191e-02,-2.330545522272586823e-02,-4.577655345201492310e-02,2.786336652934551239e-02,8.158442564308643341e-03,-7.458284031599760056e-03,-2.933293953537940979e-02,1.256690360605716705e-03,-8.952307701110839844e-02,8.763451129198074341e-03,-6.368407048285007477e-03,-1.666813343763351440e-02,-2.169280126690864563e-02,-8.975626528263092041e-02,-9.987542405724525452e-03,-1.203320827335119247e-02,-1.300345920026302338e-02,2.963001467287540436e-02,-4.556825384497642517e-02,1.402542740106582642e-02,-2.547891810536384583e-02,-6.123811379075050354e-02,1.165646538138389587e-01,8.775552362203598022e-02,-1.273829191923141479e-01,3.327040374279022217e-01,-6.304455548524856567e-02,4.057755693793296814e-02,-2.480045333504676819e-02,1.484232675284147263e-02,6.513158977031707764e-02,3.063975274562835693e-02,-9.611559100449085236e-03,-6.424906663596630096e-03,-5.390857160091400146e-02,8.940478786826133728e-03,-1.927788718603551388e-03,1.588580082170665264e-03,-3.162204474210739136e-02,1.921750605106353760e-02,-8.712693117558956146e-03,5.338117852807044983e-02,-1.106915809214115143e-02,-6.907070521265268326e-03,2.154524922370910645e-01,9.680188447237014771e-02,-7.327304338105022907e-04,2.061847411096096039e-02,-3.082376122474670410e-01,-4.218326881527900696e-02,-1.496452242136001587e-01,1.903601586818695068e-01,1.551361382007598877e-02,-7.283476740121841431e-02
6.288359872996807098e-03,1.965446211397647858e-02,-2.515546604990959167e-02,6.103079649619758129e-04,-6.528200581669807434e-03,6.802864372730255127e-03,1.359332259744405746e-02,-9.196633473038673401e-04,4.808372817933559418e-03,4.459932073950767517e-02,-5.414803326129913330e-02,4.437287524342536926e-02,1.252823229879140854e-02,1.388876233249902725e-02,2.019312232732772827e-02,-8.148443885147571564e-03,4.355787765234708786e-03,5.998896900564432144e-03,-7.524648681282997131e-03,-7.962960749864578247e-03,-5.940558388829231262e-02,3.649723157286643982e-02,-1.763554289937019348e-02,4.144899081438779831e-03,-1.152595039457082748e-02,2.384175732731819153e-02,2.978838421404361725e-02,-8.635680377483367920e-02,1.599953882396221161e-02,-2.419702708721160889e-02,4.734575282782316208e-03,2.101270481944084167e-02,2.851499244570732117e-02,-1.096343738026916981e-03,7.828751578927040100e-03,6.136985495686531067e-03,-9.364710189402103424e-03,-1.185152772814035416e-02,-9.143580682575702667e-03,6.090515479445457458e-02,-4.414185509085655212e-02,-4.238101467490196228e-02,1.988817006349563599e-02,-2.302182093262672424e-02,7.353591173887252808e-02,-1.854539586929604411e-04,-6.473394483327865601e-02,2.562233060598373413e-02,1.433332916349172592e-02,-9.828479029238224030e-03,-6.304292008280754089e-03,1.342093851417303085e-02,2.362889796495437622e-02,5.280204117298126221e-03,-8.036674000322818756e-03,-1.770997233688831329e-02
2.198009565472602844e-02,3.740621497854590416e-03,1.583107188344001770e-02,1.466225553303956985e-02,-2.490622922778129578e-02,-5.363249219954013824e-03,-1.054982095956802368e-02,6.320141721516847610e-03,-2.558695711195468903e-02,1.602274551987648010e-02,-1.386870164424180984e-02,1.341631263494491577e-02,-1.879201270639896393e-02,3.485071659088134766e-02,9.272218681871891022e-03,-5.042317509651184082e-02,-6.843379698693752289e-03,-1.834060624241828918e-02,1.197914779186248779e-02,-5.028449371457099915e-02,3.201704844832420349e-02,-3.634393587708473206e-02,7.156269997358322144e-02,-2.986165322363376617e-02,-7.613325724378228188e-04,8.303045295178890228e-03,1.854608766734600067e-02,-1.959960907697677612e-02,-2.343415282666683197e-02,-3.700766246765851974e-04,-1.942856609821319580e-02,2.541147172451019287e-02,3.700331319123506546e-03,3.345984220504760742e-02,-1.232855394482612610e-02,-2.221797592937946320e-02,-2.363320626318454742e-02,-6.199355237185955048e-03,-4.442436620593070984e-03,2.734814537689089775e-03,-4.094175621867179871e-02,-4.136163275688886642e-03,2.953291125595569611e-02,1.074846461415290833e-02,-1.696484978310763836e-04,1.544403284788131714e-02,1.820947392843663692e-03,4.269651696085929871e-02,3.544490411877632141e-02,-1.594880037009716034e-02,4.792419262230396271e-03,-3.866283595561981201e-02,4.171025007963180542e-02,2.935690619051456451e-02,1.593753881752490997e-02,-1.173449773341417313e-02
-1.113674789667129517e-02,-2.538781613111495972e-02,-2.194406650960445404e-02,1.654438674449920654e-02,-6.977873388677835464e-03,9.759685955941677094e-03,3.877789527177810669e-02,1.352989766746759415e-02,3.407836891710758209e-03,8.941603824496269226e-03,-2.776805311441421509e-03,5.418425425887107849e-03,-7.526655215770006180e-03,5.169757083058357239e-02,-2.892737276852130890e-03,-3.148903779219835997e-04,1.393174659460783005e-02,1.768046617507934570e-02,-8.559544570744037628e-03,-3.271235153079032898e-02,-7.267409563064575195e-02,-3.484470769762992859e-02,-2.730356529355049133e-02,-1.299812272191047668e-02,-1.602327823638916016e-02,2.848981507122516632e-02,-1.349048409610986710e-02,-8.287092670798301697e-03,-6.053563207387924194e-03,5.701490677893161774e-03,4.097158089280128479e-03,-2.398982085287570953e-02,3.544843196868896484e-02,-5.627013742923736572e-03,-1.099688746035099030e-02,-7.849799841642379761e-02,4.583135619759559631e-02,-2.918376121670007706e-03,7.034111768007278442e-03,-1.087146159261465073e-02,-1.410764735192060471e-02,2.843677438795566559e-02,1.225464418530464172e-02,4.424249753355979919e-02,-6.766326725482940674e-02,5.656624212861061096e-03,-2.534504048526287079e-02,2.287465706467628479e-02,-5.444699525833129883e-02,1.407099980860948563e-02,2.533011324703693390e-02,9.470560587942600250e-03,-8.609732612967491150e-03,3.375033289194107056e-02,-1.505202427506446838e-02,1.320141460746526718e-02
-1.265996070287656039e-05,-1.103409845381975174e-02,4.192166775465011597e-02,3.879193589091300964e-02,-1.252644788473844528e-02,-7.012508809566497803e-03,5.380629003047943115e-02,3.012022236362099648e-03,5.118379835039377213e-03,2.099094679579138756e-03,8.601921610534191132e-03,-4.036143794655799866e-02,-3.031442640349268913e-03,1.696262881159782410e-02,7.078974507749080658e-03,-3.841707948595285416e-03,3.717198269441723824e-03,7.669511716812849045e-03,1.460232585668563843e-02,-3.868504986166954041e-02,-1.732737757265567780e-03,-3.685548901557922363e-02,-8.537822961807250977e-02,7.474093697965145111e-03,-1.780816703103482723e-03,1.748432032763957977e-02,-8.148506283760070801e-03,1.925716735422611237e-02,-3.231339855119585991e-03,-3.210894390940666199e-02,-1.317734597250819206e-03,4.222352523356676102e-03,8.600968867540359497e-03,-6.680006161332130432e-03,-9.281096979975700378e-03,-9.222313761711120605e-02,1.651388779282569885e-02,-1.586601836606860161e-03,-2.698341384530067444e-03,3.405648842453956604e-02,3.525346890091896057e-02,1.645021326839923859e-02,-1.595208235085010529e-02,2.368566393852233887e-02,2.828428754583001137e-03,-9.666461497545242310e-03,3.738241642713546753e-02,-5.291989073157310486e-03,-2.511709555983543396e-02,1.280500553548336029e-02,-1.120393350720405579e-02,2.397797256708145142e-02,6.177954003214836121e-02,-7.765468675643205643e-03,-5.892865359783172607e-03,2.195446006953716278e-02
7.753663696348667145e-03,5.167777650058269501e-03,1.166612748056650162e-02,1.741290092468261719e-02,-7.696934626437723637e-04,-9.644220583140850067e-03,5.252366885542869568e-03,-2.566471928730607033e-03,-1.077517867088317871e-02,-2.454455243423581123e-03,-1.763423904776573181e-02,-2.925436012446880341e-02,5.810664966702461243e-03,1.039906665682792664e-01,-8.216308779083192348e-04,-8.199870586395263672e-02,-8.494635112583637238e-03,1.162117347121238708e-03,1.861959323287010193e-02,4.951802268624305725e-02,-4.394426569342613220e-02,6.170313805341720581e-02,1.547447312623262405e-02,-2.315183542668819427e-02,-2.493692189455032349e-02,5.618121940642595291e-03,-1.016088062897324562e-03,4.075328353792428970e-03,-4.096382763236761093e-03,1.330277696251869202e-02,-1.043118443340063095e-02,-3.571861889213323593e-03,2.870859950780868530e-02,7.878102362155914307e-03,3.875231137499213219e-03,-9.298620373010635376e-02,-1.828630827367305756e-02,2.752261934801936150e-03,-3.935400396585464478e-02,1.580112986266613007e-02,2.962660975754261017e-03,1.773896999657154083e-02,2.021342888474464417e-02,8.089835941791534424e-02,6.726999767124652863e-03,-3.103969618678092957e-03,3.367654234170913696e-02,6.982636114116758108e-05,-2.094761840999126434e-02,1.677657291293144226e-02,6.076720077544450760e-03,5.237458739429712296e-03,-2.633904293179512024e-02,5.162328854203224182e-02,4.168594256043434143e-03,-1.180981751531362534e-02
2.051065675914287567e-02,2.292309142649173737e-02,-3.262125328183174133e-02,-3.377988561987876892e-02,1.943964883685112000e-02,1.311042625457048416e-02,-4.135499894618988037e-02,3.398416191339492798e-02,-3.309380635619163513e-02,4.023799672722816467e-02,-1.432944647967815399e-02,1.511885784566402435e-02,9.609576314687728882e-03,5.341630801558494568e-02,1.676231436431407928e-02,-2.157894335687160492e-02,-2.724505960941314697e-02,-3.607802465558052063e-02,3.161329403519630432e-02,5.854365602135658264e-02,-3.022668883204460144e-02,-1.103335916996002197e-01,3.993069753050804138e-02,-2.251081541180610657e-02,2.010617172345519066e-03,5.370187014341354370e-02,2.475130930542945862e-02,-3.126810863614082336e-02,-4.091205075383186340e-02,4.009560868144035339e-02,-2.620038948953151703e-02,4.192606359720230103e-02,-4.124549403786659241e-02,3.044685721397399902e-02,2.035884652286767960e-03,-3.416907042264938354e-02,-6.233501434326171875e-02,-1.456256769597530365e-02,7.202567998319864273e-03,2.796096913516521454e-02,-3.167868405580520630e-02,7.200752943754196167e-02,1.765115372836589813e-02,4.235502332448959351e-02,-2.412645146250724792e-02,2.125191874802112579e-02,-2.944130823016166687e-02,2.462346665561199188e-02,-7.684218697249889374e-03,-5.451374128460884094e-02,1.023799926042556763e-02,-1.445551123470067978e-02,2.761940844357013702e-02,4.947316367179155350e-03,3.484081849455833435e-02,-1.229118090122938156e-02
1.114356052130460739e-02,3.845632448792457581e-02,1.497570704668760300e-02,-2.293691597878932953e-02,1.125028729438781738e-02,2.746659331023693085e-02,-5.389023944735527039e-02,5.306896287947893143e-03,-1.237061526626348495e-02,-5.878461897373199463e-02,2.711161971092224121e-02,-5.280291661620140076e-02,4.032416269183158875e-02,-7.102303206920623779e-02,-1.555306464433670044e-02,5.433965474367141724e-02,-8.923161774873733521e-03,-1.621558889746665955e-02,1.405099872499704361e-02,-1.173913404345512390e-01,4.835280030965805054e-02,1.560649126768112183e-01,-3.530114889144897461e-02,6.369182467460632324e-02,2.484578266739845276e-02,-2.604136429727077484e-02,6.653401069343090057e-03,4.807217046618461609e-02,-3.903337195515632629e-02,4.560205712914466858e-02,-9.469471871852874756e-03,6.183062121272087097e-02,2.432068251073360443e-02,1.642991229891777039e-02,-5.028299987316131592e-02,3.572978079319000244e-02,-4.461449757218360901e-02,-9.825364686548709869e-03,-1.703348569571971893e-02,3.209911985322833061e-03,4.594167228788137436e-03,-6.286389380693435669e-02,6.324695888906717300e-03,-3.686256706714630127e-02,-2.633552066981792450e-02,1.327369175851345062e-02,-3.669747675303369761e-04,-3.478974103927612305e-02,3.488115593791007996e-02,-8.082126826047897339e-02,-1.746758073568344116e-02,5.365622788667678833e-02,-3.956017643213272095e-02,-1.524019986391067505e-02,1.164704747498035431e-02,-1.973652048036456108e-03
8.802664466202259064e-03,9.495191276073455811e-02,-1.994820497930049896e-02,-9.209223836660385132e-02,4.794323816895484924e-03,-1.243693474680185318e-02,-7.281461358070373535e-02,-8.925601840019226074e-03,-4.470418673008680344e-03,-4.861953482031822205e-02,6.418950110673904419e-02,8.928261697292327881e-02,2.581363171339035034e-02,-3.485310375690460205e-01,-5.835029855370521545e-02,3.579513728618621826e-01,1.485446118749678135e-03,-2.974013425409793854e-02,-2.112133242189884186e-02,-2.961152195930480957e-01,1.675086617469787598e-01,5.018090605735778809e-01,-1.839430816471576691e-02,2.273319661617279053e-01,-1.287127099931240082e-02,-2.284170687198638916e-01,5.790677666664123535e-02,7.139419205486774445e-03,1.933858916163444519e-02,5.278198793530464172e-02,3.213717602193355560e-03,4.592214152216911316e-02,8.103728294372558594e-02,2.652272395789623260e-02,-9.311524778604507446e-02,3.932696580886840820e-02,-5.121235270053148270e-03,-5.044795572757720947e-03,1.122691035270690918e-01,-1.669111847877502441e-02,-8.436922729015350342e-02,-2.110148519277572632e-01,3.458752855658531189e-02,-1.650159358978271484e-01,-7.827451080083847046e-02,-6.613405048847198486e-02,-6.028142198920249939e-02,-1.528639197349548340e-01,2.032829076051712036e-01,-2.039316594600677490e-01,-1.214675083756446838e-01,1.649673730134963989e-01,-6.440061330795288086e-02,-3.076310455799102783e-02,1.425186078995466232e-02,1.416497025638818741e-02
-9.001413709484040737e-04,1.710555143654346466e-02,1.221238374710083008e-01,2.856513857841491699e-01,-9.641255438327789307e-02,-1.543051749467849731e-02,2.832961082458496094e-02,-9.079869091510772705e-02,-5.930165294557809830e-03,-9.347104467451572418e-03,6.648486107587814331e-02,-2.877866476774215698e-02,-5.096068605780601501e-03,-4.254849627614021301e-02,-1.554536260664463043e-02,9.060085751116275787e-03,4.790199175477027893e-02,1.459272205829620361e-01,6.539081782102584839e-02,-7.907219231128692627e-02,-4.598708823323249817e-03,4.442117363214492798e-02,5.576756224036216736e-02,3.328023478388786316e-02,-4.842440411448478699e-02,1.990058831870555878e-02,5.487080812454223633e-01,1.651295088231563568e-02,2.713624387979507446e-03,-4.995921254158020020e-02,-5.319746676832437515e-03,-1.009363532066345215e-01,-6.210105121135711670e-02,9.695965796709060669e-03,-2.586175873875617981e-02,-6.371931731700897217e-02,8.041392266750335693e-02,6.087479740381240845e-02,3.954401705414056778e-03,-8.520515263080596924e-02,1.021153014153242111e-02,3.050173260271549225e-02,2.969495654106140137e-01,1.168060302734375000e-01,8.932443708181381226e-02,1.033707410097122192e-01,-4.564369097352027893e-02,-9.223002009093761444e-03,-2.286772727966308594e-01,5.316106975078582764e-02,-7.847927510738372803e-02,-1.392090916633605957e-01,-1.399218570441007614e-02,-3.467544913291931152e-02,-1.289184838533401489e-01,-2.652348875999450684e-01
5.487652029842138290e-03,-5.115259904414415359e-03,-6.382741779088973999e-02,-1.630930006504058838e-01,-8.817152678966522217e-02,1.596954278647899628e-02,-1.194508150219917297e-01,-7.901811599731445312e-02,4.330999217927455902e-04,-1.176326870918273926e-01,1.307456791400909424e-01,6.943081505596637726e-03,1.292842030525207520e-01,-3.004817366600036621e-01,-6.985684484243392944e-02,-7.300492376089096069e-02,-4.514721781015396118e-02,-3.954307734966278076e-02,2.864537760615348816e-02,2.261662110686302185e-02,2.554876916110515594e-02,1.186054497957229614e-01,-4.745324328541755676e-02,1.868924796581268311e-01,1.113506034016609192e-01,-9.814970940351486206e-02,-1.121691777370870113e-03,6.283425539731979370e-02,1.191344764083623886e-02,1.781830042600631714e-01,1.586374361068010330e-03,4.223463311791419983e-02,2.058696150779724121e-01,-1.090110046789050102e-03,-1.892002671957015991e-01,1.073803566396236420e-02,9.960565716028213501e-02,-7.909911125898361206e-02,-2.312082052230834961e-02,2.367812991142272949e-01,-1.822191290557384491e-02,-9.660707712173461914e-01,-2.400109171867370605e-02,7.034534960985183716e-02,2.489937841892242432e-02,1.623314768075942993e-01,1.023772358894348145e-01,-7.755851000547409058e-02,-1.579674482345581055e-01,-9.007482975721359253e-02,-1.285966932773590088e-01,-3.573248088359832764e-01,7.434829138219356537e-03,8.588401973247528076e-02,3.967389836907386780e-02,-1.515356600284576416e-01
3.191128140315413475e-03,-5.114816501736640930e-02,2.087655710056424141e-03,-3.672373667359352112e-02,4.564492497593164444e-03,3.744701296091079712e-02,8.192793279886245728e-02,-2.564721275120973587e-03,-8.051341399550437927e-03,-1.768991798162460327e-01,-4.491569008678197861e-03,-6.456195563077926636e-02,7.524455338716506958e-02,-1.401917636394500732e-01,-5.888633430004119873e-02,3.564880192279815674e-01,5.968668963760137558e-03,-4.631773103028535843e-03,1.154079474508762360e-02,1.059085410088300705e-02,-5.144780129194259644e-02,-1.748504936695098877e-01,5.230480805039405823e-02,1.037553325295448303e-02,-2.759887091815471649e-02,-4.320474863052368164e-01,-1.884386129677295685e-02,4.899026826024055481e-04,4.204920493066310883e-03,-1.503811497241258621e-02,-8.261340670287609100e-03,1.728013157844543457e-02,9.765637665987014771e-02,4.973493982106447220e-03,-1.267997827380895615e-02,5.860343575477600098e-02,1.768831163644790649e-02,-1.354508101940155029e-03,-9.876126050949096680e-02,-9.786412119865417480e-02,2.045070752501487732e-02,-2.227648943662643433e-01,1.142706442624330521e-02,-4.696010798215866089e-02,5.040065199136734009e-02,3.915945068001747131e-02,5.686146020889282227e-02,6.507951766252517700e-02,-1.004491653293371201e-02,4.390014801174402237e-03,1.040573790669441223e-01,-3.746025322470813990e-04,8.339445106685161591e-03,4.712981637567281723e-03,-1.433078141417354345e-04,2.955083549022674561e-02
-1.397302746772766113e-02,-6.590031832456588745e-02,2.874108962714672089e-02,-4.290571436285972595e-03,3.236413002014160156e-02,1.284539047628641129e-02,1.852509751915931702e-02,4.772266745567321777e-02,1.365949213504791260e-02,-1.855476386845111847e-02,1.564069837331771851e-02,1.448157522827386856e-02,1.309026777744293213e-02,-8.836013823747634888e-02,-5.203743278980255127e-02,-1.927208941197022796e-04,-1.070892810821533203e-02,-1.703453622758388519e-02,-1.350972503423690796e-01,-5.246672034263610840e-02,-1.341786049306392670e-02,-2.035780996084213257e-02,-2.571294270455837250e-02,-8.153584599494934082e-02,-9.059928357601165771e-02,-1.337521225214004517e-01,-1.548987254500389099e-02,6.449491251260042191e-03,1.477954071015119553e-02,7.013534754514694214e-02,1.000221446156501770e-02,-6.677286233752965927e-03,-1.442328281700611115e-02,-1.919678598642349243e-02,8.342748135328292847e-02,5.240371823310852051e-02,9.247994981706142426e-03,2.559735672548413277e-03,-1.617041975259780884e-02,1.693364814855158329e-03,-6.249323952943086624e-03,5.234299227595329285e-02,2.789896540343761444e-02,4.653248190879821777e-02,1.741040498018264771e-02,4.380502272397279739e-03,-1.370100863277912140e-02,-1.321975979954004288e-02,1.282164640724658966e-02,-5.765135958790779114e-02,2.587595880031585693e-01,-1.443445868790149689e-02,-3.494383022189140320e-02,1.539121102541685104e-02,-1.056378148496150970e-02,2.166800200939178467e-02
-1.227649627253413200e-03,-2.411204762756824493e-02,-1.455583260394632816e-03,1.815683022141456604e-02,3.772976621985435486e-02,-3.640022128820419312e-02,-1.919073984026908875e-02,4.360530897974967957e-02,1.623150194063782692e-03,2.354678930714726448e-03,1.439213939011096954e-02,2.102535963058471680e-02,-3.975576162338256836e-02,2.495598280802369118e-03,-9.277337230741977692e-03,5.256744101643562317e-03,1.607197523117065430e-02,-3.275496885180473328e-03,-3.969547897577285767e-02,6.446770858019590378e-03,-1.122796535491943359e-01,-7.689059246331453323e-03,7.715507876127958298e-03,-5.902885645627975464e-02,2.052016556262969971e-01,-3.842813894152641296e-02,2.174360211938619614e-03,-7.231541723012924194e-02,-3.574003465473651886e-03,-7.381116505712270737e-03,6.447073537856340408e-03,1.576942950487136841e-02,5.191756412386894226e-02,-1.418675063177943230e-03,2.053431980311870575e-02,-8.497001975774765015e-02,-7.897715084254741669e-03,1.387850567698478699e-02,-1.337297074496746063e-02,-9.016211697598919272e-05,-1.282058004289865494e-02,3.735965490341186523e-02,9.158732718788087368e-04,1.976350089535117149e-03,2.332989824935793877e-03,-9.524753689765930176e-02,-2.797414781525731087e-03,-8.495540358126163483e-03,1.586369052529335022e-02,5.548007320612668991e-03,4.626252502202987671e-02,-2.648022957146167755e-03,6.953714787960052490e-02,1.367502100765705109e-02,-9.042891673743724823e-03,6.566401105374097824e-03
-8.797848131507635117e-04,1.248850952833890915e-02,7.358665764331817627e-02,1.478781108744442463e-03,1.654367335140705109e-02,4.494244931265711784e-04,1.733274571597576141e-02,1.692384015768766403e-03,1.876836875453591347e-03,-1.593932136893272400e-02,7.369281724095344543e-03,3.795284405350685120e-02,-1.321917865425348282e-02,-8.871621452271938324e-03,-2.806256711483001709e-01,-2.476453664712607861e-04,1.516233547590672970e-03,4.628262482583522797e-03,-6.360457539558410645e-01,-2.101052366197109222e-02,-2.457289956510066986e-02,3.749306872487068176e-02,-7.489413768053054810e-02,-1.800085883587598801e-04,4.587087314575910568e-04,3.233334422111511230e-02,-6.865062750875949860e-04,2.048739418387413025e-02,4.616606049239635468e-03,-1.122416742146015167e-02,1.206706743687391281e-03,-1.744091883301734924e-02,2.161271683871746063e-02,-5.263017956167459488e-04,8.524433523416519165e-02,1.765990629792213440e-02,-9.824479930102825165e-03,3.913525026291608810e-03,-2.127189934253692627e-02,-1.418564002960920334e-03,-1.433683838695287704e-02,-1.791105791926383972e-02,1.694855745881795883e-03,9.968720376491546631e-03,4.829097073525190353e-03,-2.057395689189434052e-02,-6.781649775803089142e-03,2.918332349509000778e-03,-4.002359695732593536e-03,-4.788056761026382446e-02,6.640158127993345261e-03,4.083652514964342117e-03,3.785160183906555176e-02,-4.524453543126583099e-03,-3.407299751415848732e-03,-3.109417157247662544e-03
6.727341562509536743e-03,-1.508716121315956116e-02,-1.060899905860424042e-02,2.478842251002788544e-02,1.046586502343416214e-02,5.387715063989162445e-03,-2.185628004372119904e-02,-6.625906098634004593e-04,-6.770337931811809540e-03,5.977410823106765747e-03,7.797211874276399612e-03,-6.876035127788782120e-03,1.202129293233156204e-03,9.490462020039558411e-03,2.776360325515270233e-02,3.157555311918258667e-02,1.402816153131425381e-03,1.483275089412927628e-03,6.464594602584838867e-02,-1.287341490387916565e-02,4.796607792377471924e-02,-4.834562912583351135e-02,1.166729815304279327e-02,3.137094154953956604e-02,-3.609161358326673508e-03,1.425008289515972137e-03,9.516962454654276371e-04,-7.528813928365707397e-02,1.690026931464672089e-02,1.443036273121833801e-02,-4.945503547787666321e-03,1.062917616218328476e-02,7.220744155347347260e-03,1.053310092538595200e-02,-1.108256075531244278e-02,-3.163943439722061157e-02,1.166197378188371658e-02,9.961211122572422028e-03,-9.197880513966083527e-03,7.774863042868673801e-04,-1.190274208784103394e-02,1.090338639914989471e-02,4.290023352950811386e-03,-4.726404789835214615e-03,-1.332322228699922562e-02,8.969550952315330505e-03,1.317095663398504257e-02,-1.368015445768833160e-02,1.280025206506252289e-02,-2.045342000201344490e-03,4.560980573296546936e-02,-2.780318027362227440e-03,-2.753681689500808716e-02,-1.814053393900394440e-02,1.325195305980741978e-03,1.132907252758741379e-02
1.524021965451538563e-03,-3.154840320348739624e-02,3.269306151196360588e-03,1.744212582707405090e-02,-6.177752465009689331e-02,4.144214838743209839e-02,3.330544335767626762e-03,-1.239699311554431915e-02,-3.202733583748340607e-03,1.788622327148914337e-02,-1.211467012763023376e-02,-4.888363182544708252e-04,-4.583743866533041000e-03,-8.959255181252956390e-03,-3.911204170435667038e-03,1.911501027643680573e-02,2.143870340660214424e-03,1.069399062544107437e-03,-1.412330195307731628e-02,1.921710371971130371e-02,1.097531802952289581e-02,3.323884308338165283e-02,-1.681263558566570282e-02,4.302587825804948807e-03,-6.054497207514941692e-04,-5.264330655336380005e-02,1.259126467630267143e-03,7.619995623826980591e-02,-3.478249534964561462e-02,-1.224308647215366364e-02,-1.264815102331340313e-03,-6.211879663169384003e-04,1.074188482016324997e-02,2.188813872635364532e-03,4.084227606654167175e-03,4.796346649527549744e-03,2.140724798664450645e-03,1.282465644180774689e-02,-2.690172009170055389e-02,-7.950357161462306976e-03,-1.906064525246620178e-02,1.179016008973121643e-02,-6.374338176101446152e-03,1.497558318078517914e-02,-2.427261509001255035e-02,-1.555268280208110809e-02,5.790888145565986633e-02,2.292077802121639252e-02,2.410426922142505646e-02,5.067854654043912888e-04,1.196411550045013428e-01,2.319093764526769519e-04,5.154957622289657593e-02,1.031755581498146057e-01,1.123106456361711025e-03,-3.960746154189109802e-02
4.663072526454925537e-03,1.442644372582435608e-02,-4.538569133728742599e-03,-5.413709208369255066e-02,-5.383841926231980324e-04,-1.655327901244163513e-02,1.202450133860111237e-02,1.467858790419995785e-03,-2.483065798878669739e-02,2.070025727152824402e-02,-9.550258517265319824e-03,1.227592816576361656e-03,1.852563582360744476e-02,-6.573036313056945801e-03,-4.055389203131198883e-03,-2.957564406096935272e-02,-2.038515871390700340e-03,-1.436170306988060474e-03,-1.698030042462050915e-03,-1.308631058782339096e-02,6.574016064405441284e-02,-6.248833145946264267e-03,-1.120754145085811615e-02,-2.436790801584720612e-02,9.013518691062927246e-02,-1.328210625797510147e-02,5.239679291844367981e-02,1.724626570940017700e-01,-3.164760395884513855e-02,1.822813600301742554e-02,-1.761162094771862030e-02,-1.566043123602867126e-02,9.416405111551284790e-03,2.247497253119945526e-02,-8.271175436675548553e-03,8.912491612136363983e-03,-6.708822213113307953e-03,-8.040490560233592987e-03,-2.530169114470481873e-02,7.545154076069593430e-03,-4.545589908957481384e-02,3.560759127140045166e-02,-1.649751095101237297e-03,1.209951005876064301e-02,-3.426097799092531204e-03,2.381074801087379456e-02,8.762348443269729614e-02,2.253485098481178284e-02,1.480427454225718975e-03,-3.893281333148479462e-03,-1.483221501111984253e-01,-9.203826077282428741e-03,9.700641036033630371e-03,-6.536747515201568604e-02,7.414230145514011383e-03,-1.708630099892616272e-02
2.864847891032695770e-03,1.723354868590831757e-02,-3.277960047125816345e-02,-2.685100538656115532e-03,5.640548467636108398e-02,-4.853019490838050842e-02,8.294209837913513184e-03,6.848877761512994766e-03,2.504429721739143133e-04,-1.852571591734886169e-02,2.583863027393817902e-02,1.718278415501117706e-02,2.423819713294506073e-02,1.932267844676971436e-02,2.893689274787902832e-02,7.654492557048797607e-02,-1.798265293473377824e-04,-1.262633362784981728e-03,3.088335879147052765e-02,-1.294686738401651382e-02,3.024224564433097839e-02,-4.299281910061836243e-02,9.773032739758491516e-03,3.318758681416511536e-02,-1.417540609836578369e-01,-2.989532425999641418e-02,1.734368354082107544e-01,-2.509329915046691895e-01,6.161665543913841248e-02,-3.662646282464265823e-03,-1.334524597041308880e-03,-3.482016921043395996e-02,-3.205322474241256714e-02,-2.126262523233890533e-03,2.233330905437469482e-02,3.371368860825896263e-03,2.904625423252582550e-02,-6.086880341172218323e-03,-8.458497002720832825e-03,-2.298847027122974396e-02,-1.391463819891214371e-02,-3.426988422870635986e-02,1.128055900335311890e-02,-4.134557396173477173e-02,3.778070583939552307e-02,2.776393201202154160e-03,-1.971973478794097900e-01,-8.866264671087265015e-02,-1.968388259410858154e-02,-2.894499525427818298e-02,3.125580847263336182e-01,-1.882592216134071350e-03,1.824828833341598511e-01,-2.851290106773376465e-01,2.388143911957740784e-03,8.105487376451492310e-02
-1.033605262637138367e-02,2.477034926414489746e-02,2.610191935673356056e-03,6.919259671121835709e-03,2.906893193721771240e-02,-2.982416003942489624e-02,1.372625236399471760e-03,-7.651097606867551804e-03,1.017848309129476547e-02,6.159391719847917557e-03,1.518936734646558762e-02,4.665970336645841599e-03,-1.223148684948682785e-02,4.540814086794853210e-03,-6.315055768936872482e-03,-4.409855976700782776e-02,2.136610914021730423e-03,4.275596002116799355e-04,1.950278691947460175e-02,-1.632199995219707489e-02,-1.530976034700870514e-02,-4.068242758512496948e-02,2.283131703734397888e-02,7.192808552645146847e-04,-5.340671166777610779e-02,2.685053832828998566e-02,3.761878982186317444e-02,1.858401857316493988e-02,1.192300580441951752e-03,1.592949964106082916e-03,3.946783486753702164e-03,-3.536662459373474121e-02,-1.637736707925796509e-02,-1.002009678632020950e-02,4.033288452774286270e-03,-1.941613107919692993e-02,3.597333654761314392e-02,1.093718595802783966e-02,5.881179240532219410e-04,5.784382298588752747e-02,3.832115978002548218e-02,5.386419221758842468e-02,2.906071487814188004e-03,2.167922072112560272e-02,-1.046437490731477737e-02,8.304568007588386536e-03,-9.388869255781173706e-02,-8.207125356420874596e-04,8.649658411741256714e-05,-2.621333301067352295e-02,1.255624834448099136e-02,-2.096254751086235046e-02,-2.508654817938804626e-02,-1.415757089853286743e-02,-2.285862341523170471e-03,2.695058286190032959e-02
1.148025132715702057e-02,2.062159590423107147e-02,-4.640098195523023605e-03,-1.411439012736082077e-02,4.589324526023119688e-04,-1.428676117211580276e-02,-1.108385901898145676e-02,9.854888543486595154e-03,-1.622489653527736664e-02,8.682852610945701599e-03,5.988320801407098770e-03,1.031629741191864014e-02,1.070120465010404587e-02,-5.278993863612413406e-03,-6.600499153137207031e-03,-3.217461705207824707e-02,-9.224656037986278534e-03,-4.574582446366548538e-03,-1.999728567898273468e-02,7.286333478987216949e-03,2.008588612079620361e-02,-3.917690739035606384e-02,2.196352183818817139e-02,1.423064805567264557e-02,-1.193100400269031525e-02,2.950240671634674072e-02,9.589413553476333618e-02,-5.670642107725143433e-02,-2.783507807180285454e-03,-3.138369414955377579e-03,-1.395560614764690399e-02,-2.288715913891792297e-02,1.591302454471588135e-02,1.742536760866641998e-02,-4.371549934148788452e-03,-5.041831173002719879e-03,-4.000602755695581436e-03,-5.837149452418088913e-03,1.975916512310504913e-02,-8.925805799663066864e-03,4.258060827851295471e-02,1.134805567562580109e-02,3.668894618749618530e-02,5.880249198526144028e-03,-1.473946776241064072e-02,-8.474898524582386017e-03,-3.221619874238967896e-02,-1.348280999809503555e-02,-1.745104789733886719e-02,-1.547393575310707092e-02,2.605426684021949768e-02,1.928222924470901489e-02,5.805674940347671509e-02,-7.220038771629333496e-02,9.983797557651996613e-03,3.471441939473152161e-02
1.169285178184509277e-02,-7.145913317799568176e-03,-2.737120026722550392e-03,1.285306410863995552e-03,1.039098389446735382e-02,-5.967792589217424393e-03,1.831218972802162170e-02,7.417037151753902435e-03,-1.255831122398376465e-02,1.775843277573585510e-02,1.081828121095895767e-02,-2.339205145835876465e-02,-3.159421612508594990e-04,-5.169672891497612000e-02,-9.195113088935613632e-04,-5.139853432774543762e-02,-1.269370038062334061e-02,-1.422194670885801315e-02,4.948016256093978882e-02,1.415535528212785721e-02,-4.614328593015670776e-02,-1.159697845578193665e-01,1.100400090217590332e-02,8.610654622316360474e-03,-2.261145971715450287e-03,5.757393315434455872e-03,5.024692788720130920e-02,-3.084647096693515778e-02,-1.330125518143177032e-02,-1.336486730724573135e-02,-1.234606653451919556e-02,5.448926612734794617e-02,3.794605145230889320e-03,1.589128375053405762e-02,3.391963616013526917e-02,2.006246894598007202e-02,1.191915012896060944e-02,-4.349844530224800110e-03,6.466406863182783127e-03,-1.871606521308422089e-02,2.999844588339328766e-02,-3.462182730436325073e-02,-4.678635392338037491e-03,-1.940704137086868286e-02,7.827761024236679077e-02,-1.567508443258702755e-03,5.653678625822067261e-02,7.257066667079925537e-02,-1.134091507992707193e-04,-6.080399034544825554e-04,6.680108141154050827e-03,-2.344266511499881744e-02,-3.238871321082115173e-02,-1.926321536302566528e-02,1.582265459001064301e-02,-6.860357825644314289e-05
1.115298643708229065e-02,-2.962948288768529892e-03,-3.315158933401107788e-02,-1.100546028465032578e-02,2.687937393784523010e-02,8.605356328189373016e-03,1.794800348579883575e-02,8.189902291633188725e-04,-1.812143437564373016e-02,8.157680742442607880e-03,-9.144155308604240417e-03,-9.032012894749641418e-04,1.158204022794961929e-02,-2.123028598725795746e-02,-1.650801161304116249e-03,5.934442859143018723e-03,-1.676594279706478119e-02,-2.267120964825153351e-02,2.525032684206962585e-02,1.006931662559509277e-01,-8.747588843107223511e-03,-6.689235568046569824e-02,5.104464665055274963e-02,-4.187234118580818176e-02,7.027001585811376572e-03,1.344962604343891144e-02,3.291538357734680176e-02,-1.661646366119384766e-02,-2.164048515260219574e-02,3.742811456322669983e-02,-1.471571624279022217e-02,2.207225561141967773e-02,-3.038099035620689392e-02,1.676270179450511932e-02,1.620556972920894623e-02,2.066405490040779114e-02,-1.981412619352340698e-02,-6.595968268811702728e-03,1.151784905232489109e-03,-1.440491899847984314e-02,-1.168058253824710846e-02,4.655215889215469360e-03,1.493652909994125366e-02,-4.773237160407006741e-04,6.910759955644607544e-02,5.283242091536521912e-03,-2.559576742351055145e-02,6.388790905475616455e-02,-2.886521443724632263e-02,-2.730995044112205505e-02,-1.618558540940284729e-02,9.183503687381744385e-03,-4.727499932050704956e-02,-4.353760741651058197e-03,2.114740572869777679e-02,-7.099792826920747757e-03
-1.723280176520347595e-02,-2.008784934878349304e-02,4.976063594222068787e-02,-3.318213857710361481e-03,8.944185450673103333e-03,1.445745676755905151e-02,-1.859473437070846558e-02,4.873594734817743301e-03,1.047211885452270508e-02,2.741402713581919670e-03,-2.131723053753376007e-02,6.065132911317050457e-04,-9.516394697129726410e-03,-3.385480120778083801e-02,1.547803264111280441e-02,1.136587187647819519e-02,1.439858786761760712e-02,1.289799064397811890e-02,-2.286809869110584259e-02,7.457701861858367920e-02,-6.499478220939636230e-02,-1.563378125429153442e-01,2.224619686603546143e-02,-7.839644327759742737e-03,-7.435868959873914719e-03,-1.374857127666473389e-02,9.484001435339450836e-03,2.610893733799457550e-02,3.018859715666621923e-04,-9.985691867768764496e-04,1.021267473697662354e-02,5.724062025547027588e-02,-3.398130089044570923e-02,-1.375152356922626495e-02,1.082636043429374695e-02,3.916017338633537292e-02,3.504600748419761658e-02,2.112016640603542328e-02,3.818589495494961739e-03,-1.862813532352447510e-02,1.652594469487667084e-02,8.624361827969551086e-03,-2.359030186198651791e-04,-3.389688208699226379e-02,6.884435564279556274e-02,-2.103757672011852264e-02,3.486471623182296753e-02,8.192043751478195190e-02,-4.652738198637962341e-02,7.056707981973886490e-04,8.959339931607246399e-03,1.938472315669059753e-02,9.568081237375736237e-03,-1.515624951571226120e-02,-1.348167192190885544e-02,3.978848829865455627e-02
