-2.190354168415069580e-01,3.258026763796806335e-02,-2.345490008592605591e-01,1.046055778861045837e-01,-6.217866018414497375e-02
1.490649068728089333e-03,9.381690993905067444e-03,3.824638575315475464e-02,8.660360239446163177e-03,7.408940698951482773e-03
1.143638323992490768e-02,-4.913440439850091934e-03,4.142801836133003235e-02,-3.877793904393911362e-03,-7.952255196869373322e-03
-2.488495558500289917e-01,6.572785228490829468e-02,-4.037779569625854492e-01,1.945427432656288147e-02,2.294232137501239777e-02
-2.293612994253635406e-02,-2.042857743799686432e-02,-3.321685642004013062e-02,-2.361913956701755524e-02,-2.399584464728832245e-02
5.875291228294372559e-01,-7.915750145912170410e-03,2.917284965515136719e-01,7.567378878593444824e-02,-2.409357428550720215e-01
3.627979604061692953e-04,-2.350672846660017967e-03,2.729423902928829193e-02,4.825272131711244583e-03,-4.624717985279858112e-04
-3.790207952260971069e-02,-5.904373712837696075e-03,1.147050037980079651e-01,4.368290305137634277e-03,5.018879892304539680e-04
1.103591290302574635e-03,1.386246923357248306e-02,9.405069868080317974e-04,4.540653433650732040e-03,6.426075939089059830e-03
-1.861606724560260773e-02,-2.570696175098419189e-02,9.088481217622756958e-02,-2.506452985107898712e-02,-3.084410354495048523e-02
1.385455112904310226e-02,2.648060023784637451e-02,4.056911543011665344e-02,3.021103888750076294e-02,3.069981187582015991e-02
5.863253772258758545e-02,-2.633866481482982635e-02,1.134928166866302490e-01,-2.232484519481658936e-02,-2.375242672860622406e-02
5.792337059974670410e-01,4.477929472923278809e-01,1.183113008737564087e-01,-4.105267673730850220e-02,-3.624818623065948486e-01
-4.028974473476409912e-01,-6.714352872222661972e-03,2.206372022628784180e-01,8.495328575372695923e-02,-3.953225910663604736e-02
-1.685255672782659531e-03,-8.889939635992050171e-04,-1.667812466621398926e-02,1.268377760425209999e-03,9.186528041027486324e-04
-9.173764288425445557e-02,-1.205986291170120239e-01,1.061665862798690796e-01,-9.612539410591125488e-02,1.578516215085983276e-01
6.736303865909576416e-02,-4.679907113313674927e-02,-1.910188049077987671e-01,-1.447906345129013062e-01,1.959486156702041626e-01
-7.993579655885696411e-02,2.663766443729400635e-01,1.872102320194244385e-01,-1.251028627157211304e-01,-4.047522693872451782e-02
4.370509460568428040e-02,2.889088094234466553e-01,-2.864342927932739258e-01,-5.847634375095367432e-02,-7.484572380781173706e-02
-2.087350487709045410e-01,1.619236022233963013e-01,-1.992067247629165649e-01,-7.588763535022735596e-02,9.773649275302886963e-02
-8.055254817008972168e-02,4.163109958171844482e-01,-1.180376857519149780e-01,2.085658721625804901e-02,-2.875010669231414795e-01
-7.234071381390094757e-03,-2.450877986848354340e-02,4.373699054121971130e-02,-1.902384869754314423e-02,-2.536833286285400391e-02
-3.732811212539672852e-01,3.265419974923133850e-02,-1.178108900785446167e-01,1.827739775180816650e-01,-7.847276329994201660e-02
7.127624470740556717e-03,-7.387431338429450989e-03,1.386650931090116501e-02,-8.732203394174575806e-03,-1.086733583360910416e-02
3.752502501010894775e-01,2.467806339263916016e-01,9.579834342002868652e-02,5.182916671037673950e-02,-2.915803492069244385e-01
-3.301870776340365410e-03,-8.743125014007091522e-03,5.150669068098068237e-02,-3.414518898352980614e-03,-8.035358041524887085e-03
-2.030020952224731445e-02,-1.442221924662590027e-02,3.726367279887199402e-02,-1.015210151672363281e-02,-1.133455894887447357e-02
2.555055543780326843e-02,1.268137805163860321e-02,-6.822741031646728516e-02,7.498078048229217529e-03,5.878799594938755035e-03
1.763089187443256378e-02,2.650978602468967438e-02,4.358386620879173279e-02,2.923956140875816345e-02,3.182786330580711365e-02
-1.371566858142614365e-02,1.290858536958694458e-02,-3.104153648018836975e-02,1.074621919542551041e-02,1.196373626589775085e-02
1.726237387629225850e-04,-3.794232383370399475e-03,2.069627679884433746e-02,-8.265304495580494404e-04,1.422048429958522320e-03
-7.007842510938644409e-02,-1.693419516086578369e-01,1.000000000000000000e+00,2.439039573073387146e-02,-4.180783405900001526e-02
-3.074655542150139809e-03,-9.228552691638469696e-03,-7.601115852594375610e-03,-1.336316671222448349e-02,-1.464556343853473663e-02
-9.169583208858966827e-03,-9.155660867691040039e-03,-1.700133271515369415e-02,-1.973566971719264984e-02,-1.767507195472717285e-02
-2.282370626926422119e-02,-1.695409975945949554e-02,7.321189343929290771e-02,-1.343265175819396973e-02,-1.505637634545564651e-02
1.321023982018232346e-02,1.583711430430412292e-02,-1.036802213639020920e-02,1.465685665607452393e-02,1.654241606593132019e-02
6.756966933608055115e-03,-1.772622927092015743e-03,-4.232342913746833801e-02,-5.249122157692909241e-03,-7.830600254237651825e-03
-1.110556200146675110e-01,-2.040284723043441772e-01,2.532297968864440918e-01,3.958285786211490631e-03,1.061016693711280823e-01
2.423469573259353638e-01,4.479814767837524414e-01,5.839384347200393677e-02,2.157356142997741699e-01,-4.938795566558837891e-01
-1.791874819900840521e-04,2.844044473022222519e-03,1.092085265554487705e-03,7.473573088645935059e-03,1.145353447645902634e-02
1.516879945993423462e-01,-5.046364665031433105e-01,1.647011935710906982e-01,-2.773601748049259186e-02,2.792468965053558350e-01
1.330921705812215805e-02,5.904338788241147995e-03,4.005362279713153839e-03,5.101805087178945541e-03,3.785334760323166847e-03
-4.596018418669700623e-02,-3.012269921600818634e-02,2.284850627183914185e-01,-2.403304725885391235e-02,-2.935868687927722931e-02
4.922105930745601654e-03,6.691295653581619263e-02,-2.148921787738800049e-01,-1.769922375679016113e-01,1.802820414304733276e-01
9.764715097844600677e-03,4.410746973007917404e-03,1.931906305253505707e-02,8.016731590032577515e-03,6.435243412852287292e-03
-1.368738943710923195e-03,-1.074118446558713913e-02,-9.783362038433551788e-03,-9.202751331031322479e-03,-1.261761318892240524e-02
1.579403281211853027e-01,6.880310922861099243e-02,-2.089836299419403076e-01,-1.601742580533027649e-02,-1.008159574121236801e-02
-4.153789021074771881e-03,-5.199111532419919968e-03,2.147485688328742981e-02,-1.222345698624849319e-02,-1.048843655735254288e-02
3.445969521999359131e-02,3.141913115978240967e-01,-8.593179285526275635e-02,-5.865480005741119385e-02,-9.179660677909851074e-02
-6.701981183141469955e-03,-2.411134541034698486e-03,1.256315223872661591e-02,4.853057209402322769e-03,2.639463637024164200e-03
9.921422228217124939e-03,7.783531211316585541e-03,7.249345537275075912e-03,1.109550800174474716e-02,7.498680148273706436e-03
-4.738283809274435043e-03,2.720977645367383957e-03,-6.198304519057273865e-02,-4.755287896841764450e-03,4.468408878892660141e-04
-4.223206043243408203e-01,-5.727995187044143677e-02,-1.555359512567520142e-01,1.293330639600753784e-01,-3.658633911982178688e-03
-1.570508480072021484e-01,-3.130751252174377441e-01,4.602466225624084473e-01,7.840826362371444702e-02,3.407694399356842041e-02
-2.801309106871485710e-03,-3.607457969337701797e-03,5.194648168981075287e-03,-6.096482742577791214e-03,-7.866011932492256165e-03
1.788945123553276062e-02,9.866437874734401703e-03,-5.269252881407737732e-02,9.519809857010841370e-03,9.600812569260597229e-03
-1.020841021090745926e-02,-2.290362305939197540e-02,9.727909229695796967e-03,-2.532703801989555359e-02,-2.951513044536113739e-02
2.018395811319351196e-02,1.022977847605943680e-02,8.377548656426370144e-04,1.747846417129039764e-02,1.849451847374439240e-02
1.876990427263081074e-03,4.902052693068981171e-03,1.130038592964410782e-02,2.894105622544884682e-03,9.926222264766693115e-04
-2.402598410844802856e-01,5.310465693473815918e-01,-2.488019317388534546e-02,-7.671830803155899048e-02,-1.626166701316833496e-01
-4.155288934707641602e-01,2.660380303859710693e-01,-2.450222671031951904e-01,-3.478968739509582520e-01,3.631395399570465088e-01
2.110719680786132812e-01,1.750888973474502563e-01,1.185181885957717896e-01,1.723783016204833984e-01,-3.614897429943084717e-01
-1.491926889866590500e-02,-6.900308653712272644e-03,4.290424287319183350e-03,-1.161425560712814331e-02,-1.074697077274322510e-02
-5.768353119492530823e-03,-7.366234809160232544e-02,-1.117779985070228577e-01,-3.180299997329711914e-01,3.670175075531005859e-01
1.617254763841629028e-01,4.076951742172241211e-02,-2.080919444561004639e-01,-4.514724016189575195e-02,-4.145459085702896118e-02
-3.891154006123542786e-02,7.344887591898441315e-03,7.356330007314682007e-02,2.738393656909465790e-02,2.636417187750339508e-02
4.945579767227172852e-01,-1.247041821479797363e-01,1.059978604316711426e-01,-9.716851264238357544e-02,-2.047035098075866699e-02
-1.069690659642219543e-02,-1.704330742359161377e-02,1.908256113529205322e-02,-2.016915753483772278e-02,-1.978363096714019775e-02
-4.960951805114746094e-01,-1.061251610517501831e-01,3.317510783672332764e-01,1.334053575992584229e-01,-4.608093202114105225e-02
1.579892635345458984e-02,2.646168507635593414e-02,-6.704574823379516602e-02,2.651105448603630066e-02,3.343640267848968506e-02
-2.372134849429130554e-02,8.185043931007385254e-03,-2.766204439103603363e-02,4.094691947102546692e-03,9.351951070129871368e-03
-5.992054473608732224e-03,-1.978153362870216370e-03,-2.011453174054622650e-02,-7.916557369753718376e-04,2.720058197155594826e-03
-4.326366353780031204e-03,-1.773760304786264896e-03,-1.323342509567737579e-02,-2.547668293118476868e-03,1.444324618205428123e-03
-2.497821003198623657e-01,-2.825936377048492432e-01,-7.783449441194534302e-02,1.724709570407867432e-02,1.780443787574768066e-01
2.114447997882962227e-03,7.596482988446950912e-03,1.763427630066871643e-02,-1.853055291576310992e-04,2.356222685193642974e-04
1.218570768833160400e-01,3.169595897197723389e-01,4.021887108683586121e-02,3.821772336959838867e-02,-2.307813018560409546e-01
-3.564666807651519775e-01,2.299928963184356689e-01,-3.150757849216461182e-01,3.897391632199287415e-02,4.222410917282104492e-02
-1.496777124702930450e-02,-1.902376115322113037e-02,1.071123108267784119e-01,-1.497955340892076492e-02,-1.385543681681156158e-02
6.184798199683427811e-03,7.849872112274169922e-02,-2.237960994243621826e-01,3.565510269254446030e-04,1.053990982472896576e-02
-7.896415889263153076e-03,-2.883855020627379417e-03,2.654124610126018524e-02,-1.885468489490449429e-03,-3.601054660975933075e-03
1.824720650911331177e-01,-1.879472285509109497e-01,1.860822737216949463e-01,8.588447235524654388e-03,2.169612236320972443e-02
-1.377765834331512451e-02,-2.574449032545089722e-02,-4.034421965479850769e-02,-2.070392854511737823e-02,-2.370007894933223724e-02
-6.912477314472198486e-03,4.228613376617431641e-01,-8.549819141626358032e-02,-7.535878568887710571e-02,-1.538966298103332520e-01
4.548428580164909363e-02,-7.841074839234352112e-03,-2.374302297830581665e-01,-1.468034926801919937e-02,-1.097760815173387527e-02
2.469068393111228943e-02,3.228867352008819580e-01,-1.875289976596832275e-01,6.603253632783889771e-02,-2.271696329116821289e-01
-1.022727508097887039e-02,1.292660133913159370e-03,-2.999824704602360725e-03,5.663278978317975998e-03,6.211395375430583954e-03
2.427272945642471313e-01,2.567959427833557129e-01,-6.576589774340391159e-03,8.126913756132125854e-02,-2.723718881607055664e-01
5.947207212448120117e-01,5.685679987072944641e-02,1.994618475437164307e-01,-3.806866332888603210e-02,-1.745964735746383667e-01
-4.976678639650344849e-03,2.001047134399414062e-02,-5.931081250309944153e-02,1.593330875039100647e-02,2.257037535309791565e-02
-1.802773326635360718e-01,5.033566951751708984e-01,-2.956436872482299805e-01,-1.093831434845924377e-01,-6.780994683504104614e-02
-5.978812277317047119e-02,6.733790785074234009e-02,-1.361980885267257690e-01,-9.895891696214675903e-02,9.699175506830215454e-02
-1.055348315276205540e-03,-1.202528947032988071e-03,-2.820144221186637878e-02,-6.238641217350959778e-03,-4.785034339874982834e-03
6.635463330894708633e-03,2.821940928697586060e-03,-1.164406072348356247e-02,-2.758317394182085991e-03,1.507283071987330914e-03
3.679735586047172546e-02,3.104464523494243622e-02,-2.058587372303009033e-01,2.124394290149211884e-02,2.448476664721965790e-02
2.288019061088562012e-01,1.024712175130844116e-01,-4.425941109657287598e-01,-4.059233888983726501e-02,-3.960417211055755615e-02
-2.535568177700042725e-02,-2.099578268826007843e-02,6.147795170545578003e-02,-2.085089869797229767e-02,-2.396788261830806732e-02
-3.144696354866027832e-02,1.844549365341663361e-02,2.347891405224800110e-02,1.631047204136848450e-02,1.512354798614978790e-02
2.449454963207244873e-01,1.939174532890319824e-01,-2.638931870460510254e-01,-5.378752946853637695e-02,-3.408716619014739990e-02
-4.554608464241027832e-02,1.535142511129379272e-01,-1.391765326261520386e-01,6.219604611396789551e-02,-9.745483100414276123e-02
-1.018460243940353394e-01,1.310149282217025757e-01,-1.886330544948577881e-01,9.981738775968551636e-02,-1.215727031230926514e-01
2.745682597160339355e-01,-3.479080200195312500e-01,1.494550406932830811e-01,6.404096633195877075e-02,7.366611971519887447e-04
-5.089168548583984375e-01,-2.727943062782287598e-01,3.714765012264251709e-01,1.160968095064163208e-01,1.474467217922210693e-01
2.323703607544302940e-03,4.873567086178809404e-04,-2.162371575832366943e-02,1.257732859812676907e-03,3.360176226124167442e-03
-1.710962802171707153e-01,-2.480238676071166992e-01,1.174908801913261414e-01,1.292827874422073364e-01,-1.019049319438636303e-03
-2.621840313076972961e-02,-3.351304307579994202e-02,8.751865625381469727e-01,-3.639825433492660522e-02,-3.532030433416366577e-02
-1.744977980852127075e-01,-6.618013978004455566e-01,3.941596448421478271e-01,2.819949090480804443e-01,1.040211766958236694e-01
-2.402300247922539711e-03,-4.289576783776283264e-03,-1.431789994239807129e-02,-3.387180157005786896e-03,-6.191762622620444745e-06
-4.736703820526599884e-03,-9.884411469101905823e-03,-2.655554190278053284e-02,-1.155426632612943649e-02,-1.429817918688058853e-02
-1.777789741754531860e-01,-1.459684967994689941e-01,1.604601591825485229e-01,-5.790416523814201355e-02,2.030741423368453979e-01
-1.737171709537506104e-01,-3.707000017166137695e-01,3.453927338123321533e-01,2.930524349212646484e-01,-9.288019686937332153e-02
-1.817990541458129883e-01,-1.865517050027847290e-01,1.297381520271301270e-01,7.867459207773208618e-02,4.906766861677169800e-02
4.220554139465093613e-03,-2.058477402897551656e-04,3.026657970622181892e-03,1.412885845638811588e-03,1.351844752207398415e-03
-1.819288879632949829e-01,-5.001498460769653320e-01,1.520116627216339111e-01,-3.736374676227569580e-01,6.351746916770935059e-01
-3.796373680233955383e-02,3.130709007382392883e-02,-5.650318861007690430e-01,2.528790943324565887e-02,2.370563335716724396e-02
5.407515168190002441e-01,-3.709317743778228760e-01,3.841049671173095703e-01,-8.060517907142639160e-02,1.471601128578186035e-01
-2.752496302127838135e-01,2.721952497959136963e-01,-2.539399266242980957e-01,-6.386589258909225464e-02,9.442695975303649902e-02
4.490172863006591797e-01,-2.091990970075130463e-02,1.755587458610534668e-01,-1.459100693464279175e-01,-2.504123002290725708e-02
-3.520044982433319092e-01,1.817255839705467224e-02,-2.533098682761192322e-02,2.350892573595046997e-01,-1.711562722921371460e-01
6.188732106238603592e-03,7.859946228563785553e-03,9.305472485721111298e-05,1.014180667698383331e-02,7.038246840238571167e-03
-2.560248598456382751e-02,-3.132858872413635254e-01,-1.088486164808273315e-01,4.712974280118942261e-02,1.870262473821640015e-01
2.802877221256494522e-03,-2.477578527759760618e-04,-1.275427453219890594e-02,-1.782671897672116756e-03,-3.210088470950722694e-03
-5.675797816365957260e-03,-9.226216934621334076e-03,3.786779195070266724e-02,-3.072181949391961098e-03,-7.352548185735940933e-03
1.064900457859039307e-01,1.421018987894058228e-01,1.494944840669631958e-01,-2.471539974212646484e-01,1.454641520977020264e-01
-4.374920129776000977e-01,6.537644863128662109e-01,-1.291683316230773926e-01,-2.013307362794876099e-01,-1.847019605338573456e-02
-1.235248753800988197e-03,-2.071705833077430725e-02,-1.749587245285511017e-02,-2.083278447389602661e-02,-2.376121841371059418e-02
-5.796439014375209808e-03,7.258982863277196884e-03,-6.008999049663543701e-02,3.285491606220602989e-03,2.105158986523747444e-03
-4.862073343247175217e-03,-5.979370791465044022e-03,-3.984277136623859406e-03,-3.300507785752415657e-03,-7.730871904641389847e-03
9.390728920698165894e-02,-4.752045869827270508e-02,1.645949929952621460e-01,-3.679762035608291626e-02,-4.071910306811332703e-02
7.870367728173732758e-03,3.441021253820508718e-04,-3.166778013110160828e-02,-2.533291699364781380e-03,-2.599421422928571701e-03
3.237388730049133301e-01,2.695150673389434814e-01,-2.811313271522521973e-01,-8.307172358036041260e-02,-8.820657432079315186e-02
2.422786206007003784e-01,2.479343712329864502e-01,2.357289493083953857e-01,4.072751104831695557e-02,-2.751649916172027588e-01
-1.354764495044946671e-02,-1.347728446125984192e-02,-2.736803330481052399e-02,-1.897111162543296814e-02,-2.192931063473224640e-02
2.098981989547610283e-03,-7.827581837773323059e-03,8.797399699687957764e-03,-7.198090665042400360e-03,-7.385336328297853470e-03
-1.757682859897613525e-01,1.575539708137512207e-01,-1.361237615346908569e-01,1.420843750238418579e-01,-1.635500788688659668e-01
-9.086049161851406097e-03,-9.733875282108783722e-03,1.680638454854488373e-02,-8.405771106481552124e-03,-9.215529076755046844e-03
-1.158196851611137390e-02,2.702224552631378174e-01,5.100165680050849915e-02,3.117692768573760986e-01,-4.591382145881652832e-01
-2.360111922025680542e-01,-2.334454059600830078e-01,4.397826641798019409e-02,-4.684361442923545837e-02,2.806472182273864746e-01
4.285440444946289062e-01,3.094024956226348877e-01,-2.521982491016387939e-01,-7.680605351924896240e-02,-1.982932835817337036e-01
-3.634256776422262192e-03,-1.396596059203147888e-02,3.851478174328804016e-02,-1.267878245562314987e-02,-1.691457629203796387e-02
4.901154432445764542e-03,1.006636954843997955e-02,6.541841197758913040e-03,1.347286719828844070e-02,1.334852539002895355e-02
8.124727755784988403e-03,1.472303736954927444e-02,-1.317225396633148193e-02,1.335746049880981445e-02,1.561011280864477158e-02
3.343664705753326416e-01,2.826487123966217041e-01,-2.929436564445495605e-01,5.682108923792839050e-02,-2.959975600242614746e-01
1.171064004302024841e-01,4.350752830505371094e-01,2.754185348749160767e-02,-1.520966272801160812e-02,-2.552485764026641846e-01
-8.281813934445381165e-03,-5.114553496241569519e-03,-2.491245977580547333e-02,-1.015769504010677338e-02,-1.125645358115434647e-02
-2.376629505306482315e-03,-4.122027195990085602e-03,-2.062224224209785461e-02,-7.286586798727512360e-03,-1.177955884486436844e-02
-4.395812749862670898e-03,-2.809657948091626167e-03,1.911649829708039761e-03,-1.527966116555035114e-03,-1.804719649953767657e-04
9.543709456920623779e-03,7.245250511914491653e-03,-1.390027534216642380e-02,6.468256469815969467e-03,9.837557561695575714e-03
-1.806251093512400985e-04,-1.249868888407945633e-02,1.091159507632255554e-02,-9.383635595440864563e-03,-1.309750042855739594e-02
1.153080463409423828e-01,1.348099261522293091e-01,-1.796775758266448975e-01,-1.311697512865066528e-01,1.365053951740264893e-01
-2.723889648914337158e-01,1.715466678142547607e-01,-8.987451344728469849e-02,9.079350158572196960e-03,1.653962209820747375e-02
6.513651460409164429e-03,2.330885641276836395e-02,6.228738278150558472e-02,2.412743493914604187e-02,2.496671490371227264e-02
3.122251629829406738e-01,2.256734967231750488e-01,-1.207946538925170898e-01,-2.286255508661270142e-01,5.241372436285018921e-02
2.174919284880161285e-02,3.015135414898395538e-02,-4.514897242188453674e-02,3.193386644124984741e-02,3.664453700184822083e-02
1.234637852758169174e-02,1.537297479808330536e-02,-2.974071726202964783e-02,1.632991805672645569e-02,1.709096506237983704e-02
1.925804316997528076e-01,-1.934863030910491943e-01,1.774807125329971313e-01,-1.111603155732154846e-01,1.208626106381416321e-01
9.542916901409626007e-03,5.824621766805648804e-03,1.773023605346679688e-02,1.203416753560304642e-02,8.669525384902954102e-03
-2.248572409152984619e-01,3.284131884574890137e-01,-1.780350320041179657e-02,-3.094699680805206299e-01,1.942357718944549561e-01
4.112776815891265869e-01,8.810295164585113525e-02,2.502022087574005127e-01,-1.535784751176834106e-01,-7.233750075101852417e-03
6.806298624724149704e-03,5.314795300364494324e-03,2.126323245465755463e-02,5.029771011322736740e-03,5.220783874392509460e-03
4.341045860201120377e-03,5.059032700955867767e-03,8.419138379395008087e-03,9.741373360157012939e-03,9.477276355028152466e-03
-1.327935308218002319e-01,-2.052720189094543457e-01,8.836606144905090332e-01,2.470811828970909119e-02,-9.804836474359035492e-03
-2.288644202053546906e-03,-1.824483741074800491e-03,-4.054384678602218628e-02,-2.461347263306379318e-03,1.330607337877154350e-03
2.105538733303546906e-03,-8.488782681524753571e-03,-7.590998895466327667e-03,-7.606751751154661179e-03,-7.177247665822505951e-03
6.952811032533645630e-02,2.525408752262592316e-02,-2.528670430183410645e-01,-1.996393315494060516e-03,-5.422325921244919300e-04
8.877457119524478912e-03,-2.579460619017481804e-03,3.691936284303665161e-02,-4.988760687410831451e-03,-6.749139633029699326e-03
-3.055871725082397461e-01,-4.933925867080688477e-01,3.781985118985176086e-02,-9.347602725028991699e-03,3.045035600662231445e-01
5.771431606262922287e-03,3.313185647130012512e-03,-1.705416478216648102e-03,4.521384835243225098e-04,3.498505800962448120e-03
-8.922071009874343872e-02,1.159694269299507141e-01,-6.545517593622207642e-02,7.868358492851257324e-02,-9.499659389257431030e-02
1.495927870273590088e-01,5.019961670041084290e-02,-5.672046542167663574e-01,4.957876168191432953e-03,1.391442026942968369e-02
2.673236727714538574e-01,-6.535211205482482910e-02,2.602028846740722656e-01,1.689728945493698120e-01,-2.474647164344787598e-01
-3.729301737621426582e-03,-4.767250735312700272e-03,-5.272643174976110458e-03,-8.781507611274719238e-03,-1.504655461758375168e-02
4.083437845110893250e-03,3.096678107976913452e-02,-2.208765149116516113e-01,2.358569391071796417e-02,3.025757707655429840e-02
-3.514700569212436676e-03,1.663534436374902725e-03,-1.381000038236379623e-02,-7.697214023210108280e-04,6.856461986899375916e-04
-1.081441715359687805e-02,-2.271797880530357361e-02,-2.692995034158229828e-02,-1.852529309689998627e-02,-2.169203571975231171e-02
-3.962168097496032715e-01,-1.336612403392791748e-01,2.894349023699760437e-02,6.093869451433420181e-03,1.673866957426071167e-01
4.046966135501861572e-01,1.954598426818847656e-01,-6.478168368339538574e-01,-1.399903893470764160e-01,8.616144210100173950e-02
-7.642826437950134277e-01,-1.651191264390945435e-01,-2.630861699581146240e-01,1.726361066102981567e-01,8.681354671716690063e-02
-4.809266887605190277e-03,-5.776892881840467453e-03,2.706527151167392731e-02,-4.420213401317596436e-03,-1.677777618169784546e-03
3.639159491285681725e-03,4.035715028294362128e-05,-1.753434073179960251e-03,5.250167101621627808e-03,7.589345332235097885e-03
1.475126296281814575e-02,-4.786877427250146866e-03,-1.344033237546682358e-02,-5.713085643947124481e-03,-6.858510430902242661e-03
-1.707681082189083099e-02,-1.926196552813053131e-02,-2.085315249860286713e-02,-2.049102261662483215e-02,-2.395905554294586182e-02
-3.495291173458099365e-01,-1.770867407321929932e-01,2.580149769783020020e-01,-4.713736474514007568e-02,2.030032724142074585e-01
-1.219922006130218506e-01,-1.032489687204360962e-01,2.542068362236022949e-01,1.750392168760299683e-01,-1.099458113312721252e-01
6.824793759733438492e-03,2.192033687606453896e-03,-4.099861159920692444e-02,-2.348189009353518486e-03,-2.629649825394153595e-03
-1.821437627077102661e-01,-2.412099018692970276e-02,3.711184114217758179e-02,5.366994440555572510e-02,5.219958350062370300e-02
5.302626639604568481e-03,-2.997929928824305534e-03,2.683505974709987640e-02,-2.747021499089896679e-04,-3.052730578929185867e-03
9.371077176183462143e-04,-3.881214186549186707e-03,-6.593925878405570984e-03,-5.634749308228492737e-03,-5.195327103137969971e-03
-1.162363588809967041e-02,-2.567617688328027725e-03,3.677009046077728271e-02,-4.310577642172574997e-03,-5.164725705981254578e-03
-1.352629158645868301e-02,-1.800030097365379333e-02,6.843177229166030884e-02,-1.901675388216972351e-02,-2.258112095296382904e-02
-1.367910485714673996e-02,-4.842901229858398438e-02,4.752231836318969727e-01,-3.074928559362888336e-02,-3.076504357159137726e-02
2.651970386505126953e-01,2.868250012397766113e-01,-8.452512323856353760e-02,1.036508530378341675e-01,-3.294992148876190186e-01
1.805881112813949585e-01,-1.273757964372634888e-01,3.414112031459808350e-01,-1.330841034650802612e-01,1.465670317411422729e-01
3.891192842274904251e-03,9.337593801319599152e-03,-9.172368794679641724e-03,6.163404323160648346e-03,9.953769855201244354e-03
-1.166876289062201977e-03,-3.860102966427803040e-03,-1.659282110631465912e-02,-7.248852867633104324e-03,-8.314730599522590637e-03
1.798632889986038208e-01,-2.289245426654815674e-01,1.736168414354324341e-01,-2.343047596514225006e-02,6.640277802944183350e-02
-1.507550594396889210e-03,-1.078430563211441040e-02,5.670769512653350830e-02,-1.094221137464046478e-02,-1.299368217587471008e-02
1.919624023139476776e-02,1.652399636805057526e-02,-6.853461265563964844e-03,1.942605897784233093e-02,1.951742917299270630e-02
7.734777871519327164e-03,3.891469212248921394e-03,-1.745344139635562897e-02,1.621588249690830708e-03,6.629017647355794907e-03
-3.021390549838542938e-02,6.298756003379821777e-01,-2.147319614887237549e-01,-1.732946485280990601e-01,-1.069712340831756592e-01
3.238454155507497489e-05,-1.735648885369300842e-02,2.719951272010803223e-01,-6.895628757774829865e-03,-7.358300965279340744e-03
-5.300635099411010742e-02,4.866293370723724365e-01,-2.142748981714248657e-01,-8.270053565502166748e-02,-1.206480786204338074e-01
-6.382890511304140091e-03,-9.745660237967967987e-03,-1.180643960833549500e-02,-5.822014529258012772e-03,-5.341465584933757782e-03
-7.856254465878009796e-03,-6.365652661770582199e-03,-3.387695923447608948e-02,-9.297235868871212006e-03,-1.157094724476337433e-02
-1.615731976926326752e-03,3.259136807173490524e-03,-2.058379165828227997e-02,5.589391570538282394e-03,4.028115887194871902e-03
-7.017090450972318649e-03,1.927614957094192505e-02,-8.532427251338958740e-02,1.388378813862800598e-02,1.984208077192306519e-02
-2.046491485089063644e-03,-3.383073490113019943e-03,2.566175721585750580e-02,-5.160652101039886475e-03,-2.366519067436456680e-03
5.252202041447162628e-03,-8.352521806955337524e-03,-4.990362748503684998e-02,-1.578154601156711578e-02,-1.752447150647640228e-02
1.117326319217681885e-01,-1.864752545952796936e-02,-2.717459201812744141e-01,-2.634658850729465485e-02,-2.133965678513050079e-02
-1.885578222572803497e-02,-1.576460152864456177e-02,8.987188339233398438e-02,-1.695767790079116821e-02,-1.854774542152881622e-02
4.857592880725860596e-01,3.957348763942718506e-01,-3.707376420497894287e-01,-1.909254789352416992e-01,-8.305990695953369141e-02
6.348837632685899734e-03,9.039589203894138336e-03,1.474607922136783600e-02,8.140953257679939270e-03,5.866143386811017990e-03
-3.318049311637878418e-01,-8.969237655401229858e-02,-7.319399714469909668e-02,-1.032279804348945618e-02,1.733577549457550049e-01
-1.225819811224937439e-02,-1.034952327609062195e-02,2.262955904006958008e-02,-4.213932435959577560e-03,-8.153838105499744415e-03
-4.811269342899322510e-01,1.581634283065795898e-01,-3.608323633670806885e-01,2.100245952606201172e-01,-1.313323378562927246e-01
7.264220714569091797e-01,-3.309418261051177979e-01,2.651955783367156982e-01,1.780331581830978394e-01,-1.829790771007537842e-01
4.140555858612060547e-03,2.556395158171653748e-02,2.714446373283863068e-02,2.039291337132453918e-02,2.345493808388710022e-02
-1.354822452412918210e-04,-3.398397937417030334e-03,3.283496201038360596e-02,-1.896903500892221928e-03,-4.306563176214694977e-03
-6.457094103097915649e-02,-3.439360111951828003e-02,3.524060547351837158e-01,-1.716442778706550598e-02,-1.923599466681480408e-02
9.053488820791244507e-02,2.635081708431243896e-01,-3.511192798614501953e-01,-4.880916327238082886e-02,-2.424232847988605499e-02
-1.128153782337903976e-02,-4.453326575458049774e-03,2.960233204066753387e-02,-3.125391900539398193e-03,-5.045031197369098663e-03
-1.242402195930480957e-02,-1.948375068604946136e-02,-4.378140345215797424e-02,-2.377299405634403229e-02,-2.473440021276473999e-02
4.711725283414125443e-03,3.844363149255514145e-03,-3.756527975201606750e-02,3.232943825423717499e-03,6.528816185891628265e-03
-2.122070491313934326e-01,4.172507822513580322e-01,-2.023916095495223999e-01,-8.985454589128494263e-02,-6.301788985729217529e-02
2.027198858559131622e-02,1.872953958809375763e-02,-7.180289831012487411e-03,1.460879389196634293e-02,1.744653657078742981e-02
-1.746109724044799805e-01,-2.879953682422637939e-01,-1.795013695955276489e-01,1.721184104681015015e-01,1.668283529579639435e-02
-3.169529438018798828e-01,1.939871907234191895e-02,-2.457260489463806152e-01,-1.065204888582229614e-01,2.246839255094528198e-01
-1.289883442223072052e-02,-2.782321907579898834e-02,3.953555971384048462e-02,-2.499213814735412598e-02,-3.348945453763008118e-02
1.901718229055404663e-01,-2.888742983341217041e-01,5.757720023393630981e-02,-1.257788389921188354e-01,2.071456462144851685e-01
-2.534542046487331390e-02,-1.739779673516750336e-02,8.948127180337905884e-02,-1.345196459442377090e-02,-1.564323343336582184e-02
-5.933269262313842773e-01,1.385171413421630859e-01,-1.773807853460311890e-01,2.544154226779937744e-01,-1.687572449445724487e-01
7.749764714390039444e-03,2.453136816620826721e-02,2.730432339012622833e-02,1.923605240881443024e-02,2.419459633529186249e-02
-8.192247711122035980e-03,-3.130847122520208359e-03,-1.025215908885002136e-02,-7.459649350494146347e-03,-3.352906787768006325e-03
7.268629036843776703e-03,1.943047940731048584e-01,1.282943189144134521e-01,-1.618656516075134277e-01,7.920682430267333984e-02
2.666141986846923828e-01,-4.395153839141130447e-03,-1.280764210969209671e-02,2.635441720485687256e-01,-3.007881045341491699e-01
3.873740509152412415e-02,6.304797530174255371e-01,-1.838067471981048584e-01,-1.716321706771850586e-01,-1.685233712196350098e-01
-4.539785981178283691e-01,-4.249997735023498535e-01,-5.475492477416992188e-01,5.092004686594009399e-02,3.188512027263641357e-01
-4.627380694728344679e-04,-8.805337361991405487e-03,-1.905316673219203949e-02,-5.725311115384101868e-03,-1.374433189630508423e-02
3.883983194828033447e-01,3.355602920055389404e-01,1.438179612159729004e-01,6.571017950773239136e-02,-3.063834607601165771e-01
1.560361310839653015e-02,1.609125360846519470e-02,-1.709718853235244751e-01,1.217861287295818329e-02,1.905990019440650940e-02
9.208579547703266144e-03,6.023236550390720367e-03,-9.363939985632896423e-03,6.161667872220277786e-03,7.061439100652933121e-03
-1.292562950402498245e-02,-2.115689963102340698e-02,-2.380894497036933899e-02,-2.075113169848918915e-02,-2.290969341993331909e-02
-8.852693252265453339e-03,1.437976360321044922e-01,-1.288968920707702637e-01,-1.272593885660171509e-01,1.150465011596679688e-01
1.370097883045673370e-02,2.653081901371479034e-02,2.885363064706325531e-02,2.486733905971050262e-02,2.842999435961246490e-02
3.598453244194388390e-03,7.171488832682371140e-03,-2.001652866601943970e-02,5.185766611248254776e-03,7.273389957845211029e-03
5.719355307519435883e-03,6.404130719602108002e-03,-9.499722160398960114e-03,4.944786895066499710e-03,1.020217873156070709e-02
1.200841274112462997e-02,1.657758839428424835e-02,-2.733831107616424561e-02,1.694968342781066895e-02,2.197752892971038818e-02
-4.154198616743087769e-02,-3.808862343430519104e-02,8.339843750000000000e-01,-3.924427554011344910e-02,-3.827770799398422241e-02
1.250990927219390869e-01,-2.590299956500530243e-02,2.103794515132904053e-01,1.556003391742706299e-01,-2.037556171417236328e-01
2.005718182772397995e-03,1.033774297684431076e-02,3.792389528825879097e-03,9.490549564361572266e-03,8.219457231462001801e-03
2.108535468578338623e-01,-4.001759290695190430e-01,1.714735105633735657e-02,1.600485444068908691e-01,1.852909801527857780e-03
-2.429864602163434029e-03,-1.281976792961359024e-02,-3.082528419326990843e-04,-8.646697737276554108e-03,-1.393807865679264069e-02
-3.922639414668083191e-02,-4.397380053997039795e-01,-2.390629649162292480e-01,6.767331808805465698e-02,1.781023144721984863e-01
-2.923121154308319092e-01,5.304566621780395508e-01,4.726019501686096191e-02,-2.211664244532585144e-02,-2.436845451593399048e-01
-1.441323459148406982e-01,2.111998200416564941e-01,-2.028353065252304077e-01,1.618821024894714355e-01,-2.118905186653137207e-01
-1.766740228049457073e-03,-2.095151320099830627e-02,-4.142155405133962631e-03,-2.034575305879116058e-02,-2.383098937571048737e-02
-5.869213491678237915e-04,-3.140056040138006210e-03,-1.199438702315092087e-02,-9.408655576407909393e-03,-8.915618993341922760e-03
-1.353433262556791306e-02,-1.308881398290395737e-02,-8.798377588391304016e-03,-1.097692176699638367e-02,-1.423401385545730591e-02
6.202745810151100159e-02,-2.561821341514587402e-01,1.189722046256065369e-01,-1.767589896917343140e-01,2.711657583713531494e-01
-1.077544614672660828e-01,-3.303589522838592529e-01,9.569130837917327881e-02,6.030712649226188660e-02,1.217396631836891174e-01
-3.087348537519574165e-03,-1.984076015651226044e-02,6.909899413585662842e-02,-1.514077745378017426e-02,-2.111177146434783936e-02
1.178632229566574097e-01,2.248264998197555542e-01,-1.862223260104656219e-02,1.358574926853179932e-01,-2.538627684116363525e-01
5.789042450487613678e-03,5.270875990390777588e-03,3.475612401962280273e-02,8.000900037586688995e-03,6.110514514148235321e-03
-7.101473808288574219e-01,1.929103583097457886e-01,-1.389391422271728516e-01,2.553010880947113037e-01,-1.791488826274871826e-01
2.383642084896564484e-02,1.422077324241399765e-02,1.396204996854066849e-02,2.046081423759460449e-02,1.970126479864120483e-02
-9.011383168399333954e-03,-2.975567243993282318e-03,6.241375114768743515e-03,-7.328273262828588486e-03,-8.562831208109855652e-03
3.301771590486168861e-03,-2.650916576385498047e-03,1.455035433173179626e-02,-1.992136938497424126e-03,-3.314764704555273056e-03
-7.518785074353218079e-03,-6.907420232892036438e-03,6.322715897113084793e-03,-9.705472737550735474e-03,-8.703188970685005188e-03
4.501594696193933487e-03,-8.135727257467806339e-04,-1.482870616018772125e-02,-6.175249000079929829e-04,-6.195403984747827053e-04
-5.873220972716808319e-03,-6.820460315793752670e-03,4.810015857219696045e-02,-6.321824621409177780e-03,-8.150421082973480225e-03
-1.794412881135940552e-01,2.201717197895050049e-01,-1.737481653690338135e-01,1.291632056236267090e-01,-2.024730443954467773e-01
-6.542510539293289185e-02,-3.088138699531555176e-01,2.878411710262298584e-01,1.577562093734741211e-01,-4.173213243484497070e-02
8.216879330575466156e-03,8.268793113529682159e-03,-5.130197852849960327e-02,1.036946196109056473e-02,8.247036486864089966e-03
1.354547450318932533e-03,4.441708792001008987e-03,1.573993638157844543e-02,3.816470503807067871e-03,6.481091026216745377e-03
4.610708914697170258e-03,-1.969611505046486855e-03,-3.613754734396934509e-02,-6.562456022948026657e-03,-7.175421807914972305e-03
-3.359211683273315430e-01,-8.653717488050460815e-02,1.451604962348937988e-01,-1.325328648090362549e-01,2.599512934684753418e-01
1.542647369205951691e-04,2.387403743341565132e-03,1.641323044896125793e-02,-2.816934138536453247e-03,6.768405437469482422e-04
3.126413524150848389e-01,2.169005572795867920e-01,-1.673211753368377686e-01,4.438704624772071838e-02,-2.381320446729660034e-01
-8.628175593912601471e-03,-4.675090312957763672e-03,-2.508836053311824799e-02,-6.504611577838659286e-03,-7.581936661154031754e-03
1.655274033546447754e-01,9.830711036920547485e-02,-4.288688898086547852e-01,-4.508335143327713013e-02,-4.367817938327789307e-02
-1.697621941566467285e-01,-3.555968999862670898e-01,-2.601796686649322510e-01,4.468343406915664673e-02,1.824952960014343262e-01
3.598871873691678047e-03,2.149452827870845795e-02,-2.422447688877582550e-02,1.875925250351428986e-02,2.318183891475200653e-02
5.560349225997924805e-01,-1.794739216566085815e-01,2.359626293182373047e-01,-3.246716856956481934e-01,2.197456359863281250e-01
2.786661982536315918e-01,4.295828044414520264e-01,-3.957686722278594971e-01,-1.881909966468811035e-01,-9.003248065710067749e-03
1.016507856547832489e-02,1.805905625224113464e-02,6.543961819261312485e-03,1.776535063982009888e-02,2.284739725291728973e-02
4.047848749905824661e-03,8.911262266337871552e-03,8.051334880292415619e-03,1.157856639474630356e-02,1.162785664200782776e-02
-2.560442686080932617e-01,5.706859380006790161e-02,-2.263859808444976807e-01,4.845428466796875000e-02,4.243443161249160767e-02
5.016059614717960358e-03,9.728840086609125137e-04,-2.921802736818790436e-02,-4.670046735554933548e-03,8.502551936544477940e-04
-1.738150231540203094e-02,-2.040953934192657471e-02,5.895004048943519592e-02,-1.974753662943840027e-02,-2.132445387542247772e-02
-4.205374512821435928e-03,6.061671883799135685e-04,-5.435020662844181061e-03,3.538167104125022888e-03,8.395980112254619598e-03
4.332159832119941711e-02,2.208834327757358551e-02,-3.924210965633392334e-01,2.140030032023787498e-03,2.398869255557656288e-03
1.026726607233285904e-02,2.264961600303649902e-02,5.646563321352005005e-02,2.517943456768989563e-02,2.419081702828407288e-02
1.859415024518966675e-01,2.495939135551452637e-01,-8.746657520532608032e-03,-2.095050513744354248e-01,7.937498390674591064e-02
-1.056595668196678162e-01,-2.581268846988677979e-01,4.135593175888061523e-01,-9.075286984443664551e-02,2.670391201972961426e-01
7.672707397432532161e-06,6.323740817606449127e-03,-3.135636448860168457e-02,4.091200418770313263e-03,6.490338128060102463e-03
4.463734105229377747e-03,2.150711417198181152e-02,5.811301991343498230e-02,2.403084002435207367e-02,2.614836208522319794e-02
3.423171862959861755e-02,2.575563080608844757e-02,-9.378881752490997314e-02,1.900652982294559479e-02,1.944127120077610016e-02
1.188410166651010513e-02,1.551208645105361938e-02,-4.979642108082771301e-02,1.567651145160198212e-02,1.862176135182380676e-02
-1.730290823616087437e-03,2.533435763325542212e-04,-6.652494426816701889e-03,-3.866576123982667923e-03,-1.170565723441541195e-03
5.669341888278722763e-03,6.584019400179386139e-03,1.482221996411681175e-03,7.579266093671321869e-04,2.008469309657812119e-03
9.383584558963775635e-02,1.875634193420410156e-01,-1.681832969188690186e-01,-5.787596106529235840e-02,-3.851999714970588684e-02
1.215404924005270004e-02,-7.023773156106472015e-03,1.535426359623670578e-02,-7.138305809348821640e-03,-5.594485905021429062e-03
5.578421354293823242e-01,2.217862308025360107e-01,-2.512317001819610596e-01,-8.997120708227157593e-02,-1.733862608671188354e-01
9.367415681481361389e-03,6.782625336199998856e-03,4.962147399783134460e-02,1.021519210189580917e-02,8.256196044385433197e-03
-9.512618416920304298e-04,4.342612810432910919e-03,-5.493508279323577881e-02,-1.379959867335855961e-03,7.243201602250337601e-03
2.550130486488342285e-01,2.760878801345825195e-01,-5.644285082817077637e-01,-1.342743784189224243e-01,4.297093302011489868e-02
-2.241135202348232269e-02,-3.619216382503509521e-02,4.514085054397583008e-01,-2.833673916757106781e-02,-2.922783792018890381e-02
4.460939764976501465e-02,6.016860529780387878e-02,-3.841247037053108215e-02,2.822970151901245117e-01,-3.224863409996032715e-01
2.514412440359592438e-02,2.933100983500480652e-02,-9.473726153373718262e-03,2.982467226684093475e-02,3.513022512197494507e-02
3.853569030761718750e-01,-2.352064400911331177e-01,3.448227047920227051e-01,-2.746493816375732422e-01,2.634482085704803467e-01
-3.006145060062408447e-01,-9.479013085365295410e-02,-1.994449794292449951e-01,3.367651700973510742e-01,-1.724247187376022339e-01
1.203564740717411041e-02,1.038027927279472351e-03,-1.801634952425956726e-02,6.145341321825981140e-03,3.892045468091964722e-03
3.385513722896575928e-01,-6.885989010334014893e-02,2.877190411090850830e-01,-2.838470786809921265e-02,-4.912922531366348267e-02
4.761894699186086655e-03,8.886233554221689701e-04,-3.128723055124282837e-02,-2.321724779903888702e-03,-2.073012990877032280e-03
3.469181358814239502e-01,2.065299600362777710e-01,1.460984200239181519e-01,3.963834047317504883e-02,-2.395474761724472046e-01
1.747821271419525146e-02,1.794412499293684959e-03,-8.417189121246337891e-02,-5.136643536388874054e-03,-3.108021570369601250e-03
2.606212496757507324e-01,7.286886684596538544e-03,3.403794467449188232e-01,-9.267523139715194702e-02,6.302176509052515030e-03
2.447505667805671692e-02,1.895181648433208466e-02,-2.655930630862712860e-02,2.386959642171859741e-02,2.502895146608352661e-02
-6.166469771414995193e-03,-5.999487359076738358e-03,-1.308162510395050049e-02,-1.211719866842031479e-02,-9.126923047006130219e-03
2.627646625041961670e-01,2.789331674575805664e-01,1.236485838890075684e-01,5.283941049128770828e-03,-1.956766694784164429e-01
1.747118681669235229e-02,1.630888879299163818e-02,9.789176285266876221e-03,1.653343066573143005e-02,1.903294958174228668e-02
2.511322796344757080e-01,-4.569413959980010986e-01,-1.011405736207962036e-01,3.074209392070770264e-01,-1.103426441550254822e-01
1.156094074249267578e-01,-2.177858501672744751e-01,-1.679384708404541016e-02,8.795239031314849854e-02,1.225783675909042358e-02
4.060727357864379883e-02,-2.221817672252655029e-01,6.514140963554382324e-02,3.604473918676376343e-02,6.699876487255096436e-02
5.920862779021263123e-03,-1.096112560480833054e-02,-2.150479145348072052e-02,-1.104049757122993469e-02,-1.011540181934833527e-02
-1.769631057977676392e-01,5.194612592458724976e-02,-1.259399950504302979e-01,2.747635357081890106e-02,2.119569666683673859e-02
1.298249699175357819e-02,5.065508652478456497e-03,-9.319633245468139648e-02,4.818363580852746964e-03,7.180406711995601654e-03
-3.570915460586547852e-01,-2.958456873893737793e-01,9.008442610502243042e-02,7.700491696596145630e-02,1.123091056942939758e-01
4.329913556575775146e-01,-1.451546400785446167e-01,4.064837992191314697e-01,-3.057517409324645996e-01,2.183892428874969482e-01
-1.229745522141456604e-02,-1.202675164677202702e-03,5.411696434020996094e-02,3.731822129338979721e-03,3.743891604244709015e-03
8.643808774650096893e-03,1.991168223321437836e-02,2.047476358711719513e-02,2.945984341204166412e-02,3.121192567050457001e-02
1.601779251359403133e-03,2.746504265815019608e-03,2.593126613646745682e-03,4.423773381859064102e-03,-1.993439393118023872e-03
6.624771654605865479e-02,4.100619852542877197e-01,6.978745572268962860e-03,4.983184337615966797e-01,-7.173626422882080078e-01
-1.286457385867834091e-02,-3.318662196397781372e-02,2.276244759559631348e-02,-2.884885109961032867e-02,-3.744874894618988037e-02
-2.891336083412170410e-01,2.534522116184234619e-01,-1.377099603414535522e-01,3.236833959817886353e-02,-4.852700978517532349e-02
1.139018591493368149e-02,6.781191332265734673e-04,-2.288197912275791168e-02,-3.582312201615422964e-04,1.833686837926506996e-03
-2.919988241046667099e-03,2.375614363700151443e-03,4.696708172559738159e-02,6.248475518077611923e-03,4.778351576533168554e-04
-1.549835875630378723e-02,-1.722821220755577087e-02,-2.346097677946090698e-02,-1.957250200212001801e-02,-1.732117123901844025e-02
-7.103775278665125370e-04,8.651269599795341492e-04,-2.873176522552967072e-02,-1.183795277029275894e-03,-4.236835055053234100e-03
4.447916522622108459e-03,-1.819099765270948410e-03,-9.965479373931884766e-03,-2.445314778015017509e-03,-2.362028229981660843e-03
1.453719683922827244e-03,1.158453710377216339e-02,3.663116320967674255e-02,1.588914357125759125e-02,1.695531234145164490e-02
1.326833516359329224e-01,4.122400581836700439e-01,-5.187718942761421204e-02,1.821242854930460453e-03,-2.058751434087753296e-01
-8.020934648811817169e-03,-1.184017024934291840e-02,9.639571420848369598e-03,-8.782394230365753174e-03,-1.209834124892950058e-02
-3.824274055659770966e-03,-9.995202533900737762e-03,-5.134022235870361328e-02,-1.226137299090623856e-02,-1.375597156584262848e-02
8.723094314336776733e-02,-3.991935551166534424e-01,1.124834343791007996e-01,-6.822470575571060181e-02,2.779587209224700928e-01
4.803690016269683838e-01,1.743141710758209229e-01,9.368912875652313232e-02,-1.347748637199401855e-01,-9.098730981349945068e-02
-4.548416137695312500e-01,-1.769854575395584106e-01,-3.478616476058959961e-01,-1.632286757230758667e-01,4.278498589992523193e-01
3.132724761962890625e-01,1.333288997411727905e-01,1.845010221004486084e-01,-8.142066001892089844e-02,-3.640702739357948303e-02
2.000640844926238060e-03,-2.084918133914470673e-02,3.563929721713066101e-02,-1.895441859960556030e-02,-2.313669398427009583e-02
1.077215559780597687e-02,9.171882411465048790e-04,1.932188495993614197e-02,7.736644241958856583e-03,8.435043506324291229e-03
1.394069287925958633e-02,-8.323733694851398468e-03,1.675602234899997711e-02,-4.712376743555068970e-03,-8.472939953207969666e-03
-1.004224084317684174e-02,-1.372161903418600559e-03,1.157907675951719284e-02,4.832115024328231812e-03,1.428274321369826794e-03
3.677622601389884949e-02,-1.262648552656173706e-01,5.657007917761802673e-02,-5.044703185558319092e-02,1.019488200545310974e-01
2.518575787544250488e-01,-1.951071470975875854e-01,1.391844153404235840e-01,-1.100630685687065125e-01,1.211197152733802795e-01
-1.208868715912103653e-02,-2.014210633933544159e-02,-3.614208474755287170e-02,-2.536523342132568359e-02,-2.506015636026859283e-02
3.380652051419019699e-03,1.549095730297267437e-03,-2.401147969067096710e-02,-2.238651737570762634e-03,1.459622308175312355e-05
-1.591311581432819366e-02,-6.388772279024124146e-03,1.106786169111728668e-02,-7.563174236565828323e-03,-7.681790273636579514e-03
1.898512803018093109e-02,1.934252120554447174e-02,2.797722443938255310e-02,2.338592708110809326e-02,2.118957415223121643e-02
-2.216822700574994087e-03,4.301678854972124100e-03,-1.192401070147752762e-02,5.956483073532581329e-03,4.491192288696765900e-03
-1.443960666656494141e-01,2.245565950870513916e-01,-3.126283586025238037e-01,-8.804321289062500000e-02,9.562413394451141357e-02
-1.362435072660446167e-01,-5.260340571403503418e-01,4.427883028984069824e-01,1.339994817972183228e-01,1.757568120956420898e-01
-2.470975220203399658e-01,-1.575856804847717285e-01,1.176268532872200012e-01,-1.734071820974349976e-01,2.909866869449615479e-01
3.267627060413360596e-01,-1.823316514492034912e-01,3.752551376819610596e-01,5.545731261372566223e-02,-1.009854823350906372e-01
-1.377247739583253860e-02,-9.662543423473834991e-03,1.463139336556196213e-02,-5.044543650001287460e-03,-7.929535582661628723e-03
4.278352484107017517e-03,-2.120381395798176527e-05,-7.887126877903938293e-03,-5.475678015500307083e-03,-5.518279969692230225e-03
7.924907654523849487e-02,-2.156504839658737183e-01,6.970103085041046143e-02,1.336907297372817993e-01,-6.644133478403091431e-02
1.674877293407917023e-02,1.023797411471605301e-02,3.743120655417442322e-02,1.537665352225303650e-02,1.498496718704700470e-02
2.309447526931762695e-02,2.213225886225700378e-02,9.228090755641460419e-03,2.660559117794036865e-02,2.555611729621887207e-02
4.835974425077438354e-03,3.835639916360378265e-03,-9.951191022992134094e-04,3.156299469992518425e-03,3.674080595374107361e-03
-5.431424360722303391e-03,-7.843692786991596222e-03,-1.645801216363906860e-02,-1.323518343269824982e-02,-1.125122886151075363e-02
2.277573198080062866e-01,3.959032595157623291e-01,-2.859020829200744629e-01,-2.245482951402664185e-01,-1.033716741949319839e-02
2.910517901182174683e-02,-1.050454657524824142e-02,-1.275607645511627197e-01,-1.389226689934730530e-02,-1.011944375932216644e-02
-2.795671224594116211e-01,-3.044819645583629608e-02,2.950676679611206055e-01,2.222106046974658966e-02,1.606165058910846710e-02
-3.193321824073791504e-01,-8.147560060024261475e-02,-4.919349029660224915e-02,6.392637640237808228e-02,1.045822650194168091e-01
-4.064154811203479767e-03,-8.435503579676151276e-03,-4.103490337729454041e-02,-3.413529484532773495e-04,-2.914812066592276096e-04
2.662289142608642578e-01,-6.022546812891960144e-02,-1.522418558597564697e-01,-3.976339474320411682e-02,-2.882192656397819519e-02
9.192242287099361420e-03,2.087830653181299567e-04,-4.804530180990695953e-03,1.915346365422010422e-03,5.182923283427953720e-03
3.721779910847544670e-03,-1.962213963270187378e-02,6.276676058769226074e-02,-1.502296142280101776e-02,-1.570487953722476959e-02
-8.196979761123657227e-02,3.974437415599822998e-01,-1.936397999525070190e-01,-2.953258156776428223e-01,8.031915873289108276e-02
-3.037927486002445221e-02,2.912948429584503174e-01,-1.931448727846145630e-01,7.519128173589706421e-02,-1.730609089136123657e-01
-1.364988088607788086e-01,-4.378841817378997803e-01,-9.427967015653848648e-04,3.208548575639724731e-02,2.267671674489974976e-01
-1.695395261049270630e-02,-1.111819129437208176e-02,3.517607972025871277e-02,-8.730566129088401794e-03,-1.098118163645267487e-02
