-9.348925203084945679e-02,-4.283012449741363525e-02,-1.430286280810832977e-02,3.087968565523624420e-03,1.451279222965240479e-01
-8.210144937038421631e-02,-7.329940795898437500e-02,2.090101093053817749e-01,3.132251277565956116e-02,6.285131722688674927e-02
3.179846405982971191e-01,-2.923009991645812988e-01,1.094029396772384644e-01,4.355893656611442566e-02,1.147344633936882019e-01
1.101617589592933655e-01,7.113955169916152954e-02,-8.182984590530395508e-02,1.963807083666324615e-02,-2.441811114549636841e-01
-1.832477003335952759e-02,-6.633691489696502686e-02,7.082093954086303711e-01,-1.994656622409820557e-01,2.459389120340347290e-01
-1.380649060010910034e-01,-7.187558710575103760e-02,7.822262644767761230e-01,-5.084243789315223694e-02,4.863547906279563904e-02
-3.237322568893432617e-01,-2.579216659069061279e-02,5.648866295814514160e-01,1.918433001264929771e-03,6.354631483554840088e-02
-2.700331509113311768e-01,1.588331013917922974e-01,-3.429769277572631836e-01,5.794638022780418396e-02,-2.086735144257545471e-02
-2.518402934074401855e-01,3.589905500411987305e-01,-5.928182601928710938e-02,-1.501417458057403564e-01,-1.479375213384628296e-01
9.773195534944534302e-02,9.533064067363739014e-02,-1.962207257747650146e-01,5.200814455747604370e-02,-2.058739811182022095e-01
-2.917809784412384033e-01,5.841681957244873047e-01,-3.008397817611694336e-01,-2.127752751111984253e-01,-2.148142606019973755e-01
7.546279579401016235e-02,4.724698886275291443e-02,2.473998665809631348e-01,1.696139946579933167e-02,-2.382857203483581543e-01
4.020693600177764893e-01,2.004338651895523071e-01,1.422818899154663086e-01,-2.443339079618453979e-01,-2.709718644618988037e-01
2.346725314855575562e-01,-3.456505537033081055e-01,-5.776756629347801208e-02,9.492208808660507202e-02,9.014722704887390137e-02
-1.812463849782943726e-01,-1.718522980809211731e-02,8.271479010581970215e-01,-2.090113796293735504e-02,-3.859507292509078979e-02
2.256249636411666870e-01,1.538519412279129028e-01,9.730170667171478271e-02,-3.402126133441925049e-01,3.038748167455196381e-02
-1.671192198991775513e-01,-1.053234115242958069e-01,7.824917882680892944e-02,-8.534331619739532471e-02,3.185499608516693115e-01
-2.606782913208007812e-01,1.856703013181686401e-01,6.956992745399475098e-01,-2.252437025308609009e-01,4.533743485808372498e-02
-3.962223231792449951e-02,-4.837901890277862549e-02,-2.143208235502243042e-01,1.463729329407215118e-02,2.178111672401428223e-01
3.085774481296539307e-01,1.355497539043426514e-01,-1.056687980890274048e-01,-3.337553516030311584e-02,-2.328143715858459473e-01
-1.890253573656082153e-01,4.523901343345642090e-01,-2.519400119781494141e-01,-1.378689557313919067e-01,-1.796720176935195923e-01
-4.400861561298370361e-01,7.462102770805358887e-01,2.535309195518493652e-01,-5.355775356292724609e-01,-1.442038267850875854e-01
-3.271082341670989990e-01,1.254882216453552246e-01,4.753913264721632004e-03,-2.570573054254055023e-02,-1.961648091673851013e-02
3.942274451255798340e-01,-9.240373969078063965e-02,7.165660262107849121e-01,-1.269133836030960083e-01,-1.439487487077713013e-01
-1.707049310207366943e-01,3.398072123527526855e-01,-2.100936621427536011e-01,-1.704681068658828735e-01,-1.766858845949172974e-01
1.074981093406677246e-01,2.622339427471160889e-01,-1.000000000000000000e+00,-8.308959007263183594e-02,-3.520372137427330017e-02
1.337565630674362183e-01,-5.721660256385803223e-01,2.975927889347076416e-01,2.240041941404342651e-01,3.298581242561340332e-01
-1.583106815814971924e-01,4.638683795928955078e-01,-1.936120837926864624e-01,-1.098915264010429382e-01,-1.173328384757041931e-01
2.416685819625854492e-01,-2.809621207416057587e-02,-5.277331471443176270e-01,-3.195345401763916016e-02,-1.504770200699567795e-02
-2.810708880424499512e-01,6.120713427662849426e-02,-6.903361678123474121e-01,1.214063614606857300e-01,1.283642351627349854e-01
3.030082285404205322e-01,-1.937021315097808838e-01,5.578086972236633301e-01,-1.048480197787284851e-01,2.939404919743537903e-02
-4.734263122081756592e-01,-2.136742472648620605e-01,3.211480677127838135e-01,6.175557151436805725e-02,3.773304522037506104e-01
6.126553565263748169e-02,3.908914700150489807e-02,2.336330264806747437e-01,-1.663503423333168030e-02,-2.033253759145736694e-01
3.983522951602935791e-01,6.454445421695709229e-03,1.405085474252700806e-01,-3.248024582862854004e-01,5.987518653273582458e-02
3.620795011520385742e-01,-3.836614191532135010e-01,-5.332211852073669434e-01,2.624766230583190918e-01,1.620981842279434204e-01
-1.294255554676055908e-01,-6.586880981922149658e-02,-3.009778857231140137e-01,-1.445076894015073776e-02,2.818831503391265869e-01
-1.185788512229919434e-01,3.592348694801330566e-01,-6.739387512207031250e-01,-1.395870894193649292e-01,-6.021662801504135132e-02
1.764637790620326996e-02,1.376644223928451538e-01,3.744017481803894043e-01,-2.981802523136138916e-01,1.246830821037292480e-02
-2.704280614852905273e-01,1.975008472800254822e-02,1.004036888480186462e-01,1.017403602600097656e-02,9.677302092313766479e-02
-1.306664496660232544e-01,-4.700926691293716431e-02,-9.603048115968704224e-02,-1.040623150765895844e-02,1.838644444942474365e-01
-1.112166419625282288e-01,2.207494080066680908e-01,-6.303905248641967773e-01,1.974236220121383667e-02,-9.308771044015884399e-02
1.099281162023544312e-01,9.204924106597900391e-02,-2.716510593891143799e-01,4.731621593236923218e-02,-1.886067390441894531e-01
-5.112921819090843201e-03,6.053510904312133789e-01,-3.786671161651611328e-01,-2.802592217922210693e-01,-3.343248665332794189e-01
2.370641380548477173e-01,-5.763819813728332520e-01,3.412030339241027832e-01,1.999559402465820312e-01,2.294321954250335693e-01
2.695221006870269775e-01,-5.452303290367126465e-01,7.587657570838928223e-01,1.833345443010330200e-01,1.992334872484207153e-01
5.292242392897605896e-02,4.292537271976470947e-02,6.566473245620727539e-01,-4.808730632066726685e-02,-2.052046507596969604e-01
-7.040264457464218140e-02,-4.050834104418754578e-02,-5.115735530853271484e-01,-5.935441702604293823e-03,1.744927167892456055e-01
-1.930118203163146973e-01,2.587467432022094727e-01,-5.919308066368103027e-01,1.953453868627548218e-01,-4.269942343235015869e-01
-3.127340376377105713e-01,-1.298217028379440308e-01,1.465145051479339600e-01,2.355555146932601929e-01,-6.549783796072006226e-02
2.862876653671264648e-01,-3.628184199333190918e-01,1.919182687997817993e-01,1.395588815212249756e-01,1.358190327882766724e-01
2.518147528171539307e-01,4.848228394985198975e-02,-5.014848709106445312e-01,-9.974402189254760742e-02,6.167432665824890137e-02
-4.352605640888214111e-01,7.581396400928497314e-02,6.130470037460327148e-01,-2.020499296486377716e-02,4.001170024275779724e-02
3.039186596870422363e-01,4.560648202896118164e-01,-1.526626497507095337e-01,-3.764444589614868164e-01,-3.950947225093841553e-01
-1.322975754737854004e-01,-1.427762061357498169e-01,2.390204071998596191e-01,1.404822766780853271e-01,2.310875803232192993e-02
3.042497634887695312e-01,-8.196012377738952637e-01,3.888830542564392090e-01,3.231859505176544189e-01,3.416362106800079346e-01
-3.984390795230865479e-01,-9.307578951120376587e-02,7.585434913635253906e-01,8.038084954023361206e-02,3.422295302152633667e-02
-1.536368876695632935e-01,-2.738890647888183594e-01,4.069833755493164062e-01,-4.247295856475830078e-02,4.019554853439331055e-01
