-8.189160871552303433e-05,-1.899314578622579575e-03,1.448494731448590755e-03,-4.126330895815044641e-05,-1.072612940333783627e-03,1.166785252280533314e-03,-7.729112439847085625e-06,-1.215197244164301082e-05,1.928841695189476013e-03,-2.364901411056052893e-05,-1.021350268274545670e-03,3.026507329195737839e-05
4.221563867758959532e-04,4.588036984205245972e-02,3.998965322971343994e-01,-7.495687168557196856e-05,6.939141154289245605e-01,1.000000000000000000e+00,6.096503784647211432e-05,-6.874587270431220531e-04,3.607670217752456665e-02,3.002892190124839544e-04,4.002783894538879395e-01,-1.173080760054290295e-03
-1.781320897862315178e-04,-1.678069233894348145e-01,4.923819564282894135e-03,-7.894475129432976246e-04,1.391271129250526428e-02,2.029231004416942596e-02,-5.705071380361914635e-04,8.800845826044678688e-04,-1.678013205528259277e-01,8.061557309702038765e-04,9.061392396688461304e-03,8.613378740847110748e-04
-6.594055448658764362e-04,3.343781828880310059e-02,1.943027891684323549e-04,-1.315083645749837160e-04,-2.792483428493142128e-03,-3.466149093583226204e-03,-1.028368569677695632e-05,-5.320364143699407578e-04,3.577369824051856995e-02,9.432520164409652352e-05,-1.135939965024590492e-03,1.205886437674053013e-04
2.484585857018828392e-04,2.511263359338045120e-03,1.026283134706318378e-03,-1.151242904597893357e-04,-1.760949380695819855e-04,-2.378714125370606780e-04,-2.323314984096214175e-04,-3.219642967451363802e-04,-5.868472624570131302e-03,4.573552723741158843e-05,-3.109865065198391676e-04,-8.019919732760172337e-06
-8.889007149264216423e-04,-4.788345657289028168e-03,-3.907233010977506638e-03,4.131237219553440809e-04,-8.623240864835679531e-04,3.073773696087300777e-04,1.274666748940944672e-03,-8.339367923326790333e-04,4.281318280845880508e-03,-1.207456341944634914e-03,1.927901757881045341e-04,8.634646073915064335e-04
-3.654225438367575407e-04,-9.631717577576637268e-03,-2.068881131708621979e-02,-7.534133619628846645e-04,2.025278285145759583e-03,6.965299602597951889e-03,2.478913984305108897e-06,-8.359910680155735463e-06,8.655661717057228088e-03,4.984377301298081875e-04,-2.330132760107517242e-03,6.668682181043550372e-05
3.654394997283816338e-03,-1.074552070349454880e-02,3.083014674484729767e-02,3.356214147061109543e-03,1.399039383977651596e-02,2.343064732849597931e-02,-6.629743147641420364e-04,-1.322343363426625729e-03,-5.783787928521633148e-03,2.611464355140924454e-03,3.973775357007980347e-02,-1.048263511620461941e-03
1.213202020153403282e-03,-5.338517017662525177e-03,-1.429057307541370392e-02,-2.832883968949317932e-03,1.768591464497148991e-03,1.628811005502939224e-03,7.320579607039690018e-04,5.166273564100265503e-03,1.691880077123641968e-02,-5.278953351080417633e-03,-4.735404625535011292e-03,-2.304662019014358521e-03
1.117938198149204254e-03,-2.433060109615325928e-02,-9.576927125453948975e-02,-4.142574034631252289e-03,-2.978425845503807068e-02,1.103444769978523254e-01,1.584943383932113647e-03,1.719531253911554813e-03,2.412822842597961426e-02,4.171472508460283279e-03,6.610683351755142212e-02,1.407330040819942951e-03
-1.628755824640393257e-03,-4.935192689299583435e-02,-8.748050034046173096e-02,-4.772327840328216553e-03,-7.338269352912902832e-01,-5.379258841276168823e-02,-4.062904044985771179e-03,2.411617664620280266e-03,5.028863623738288879e-02,-2.344660693779587746e-03,2.864041626453399658e-01,-1.000778356683440506e-04
-5.061819683760404587e-03,-2.641976065933704376e-02,-2.781299874186515808e-02,1.548093423480167985e-04,-8.303535170853137970e-03,5.200470611453056335e-02,7.220287807285785675e-03,-1.551914727315306664e-03,1.607865653932094574e-02,2.816249150782823563e-03,1.319180242717266083e-02,-2.183437580242753029e-03
6.918317172676324844e-03,8.758005686104297638e-03,-2.735786885023117065e-02,9.317402145825326443e-04,-1.667638868093490601e-02,1.828965730965137482e-02,-5.120162852108478546e-03,6.056585349142551422e-03,-2.162690972909331322e-03,2.362724859267473221e-03,-1.612700894474983215e-02,1.802523969672620296e-03
1.073144748806953430e-02,-5.207660607993602753e-03,6.878587603569030762e-02,-8.368255570530891418e-03,-1.844451390206813812e-02,-4.255787283182144165e-02,6.410551723092794418e-03,-8.709749090485274792e-04,-1.011627819389104843e-02,-1.118759810924530029e-02,3.853592206723988056e-04,-2.997010597027838230e-04
-4.873019643127918243e-03,-9.086398407816886902e-03,4.170090705156326294e-02,-4.350586677901446819e-04,-2.634133957326412201e-02,-3.609419241547584534e-02,-5.029910709708929062e-03,1.076100487262010574e-02,-1.227857824414968491e-02,6.447068299166858196e-04,7.424622029066085815e-02,9.625731967389583588e-03
4.468793049454689026e-04,2.006941940635442734e-03,2.366682887077331543e-02,-5.017188377678394318e-03,1.310429256409406662e-02,3.093988448381423950e-02,-6.508480757474899292e-03,5.022407043725252151e-03,-2.290462871314957738e-04,2.047475660219788551e-03,1.885651797056198120e-02,-2.365294058108702302e-04
7.757961750030517578e-03,2.665195800364017487e-02,5.612298846244812012e-03,-2.619217149913311005e-03,-7.548235356807708740e-02,-7.703548297286033630e-03,-1.056324969977140427e-02,-8.432203903794288635e-03,2.845348417758941650e-02,2.239482477307319641e-03,1.395467109978199005e-02,-3.769800765439867973e-03
4.021096043288707733e-03,-1.941087469458580017e-02,1.416304893791675568e-02,-1.364180725067853928e-02,5.115846171975135803e-02,1.301544625312089920e-02,-4.285026341676712036e-03,-5.877702496945858002e-03,-9.944820776581764221e-03,1.004461385309696198e-02,2.698729746043682098e-02,5.190006922930479050e-03
-4.678159020841121674e-03,-5.409493669867515564e-02,-1.563080213963985443e-02,1.349738333374261856e-02,3.211467713117599487e-02,4.831186309456825256e-02,1.021370943635702133e-02,-1.613246090710163116e-02,-1.977504789829254150e-02,-6.460160482674837112e-03,-5.641568917781114578e-03,-8.726890198886394501e-03
