5.796584300696849823e-04,2.246143296360969543e-03,-1.244495157152414322e-03,1.115249935537576675e-03,-3.666603297460824251e-04,-1.031440333463251591e-03,7.064464152790606022e-04,-1.151245553046464920e-03,3.905948018655180931e-03,3.234169853385537863e-04,4.408741835504770279e-03,3.066919976845383644e-03,1.978501677513122559e-03,-2.458832459524273872e-03,-1.876817666925489902e-03,1.801705220714211464e-03,-1.499643316492438316e-03,2.980968449264764786e-03
-1.422748528420925140e-02,-4.124560952186584473e-01,5.599882006645202637e-01,-5.791872143745422363e-01,-3.370340168476104736e-01,-5.655810832977294922e-01,-5.824238657951354980e-01,5.776115059852600098e-01,5.537350177764892578e-01,4.771935939788818359e-01,5.285564064979553223e-01,-4.490747451782226562e-01,5.212382078170776367e-01,1.118614897131919861e-01,4.176724255084991455e-01,-2.308374047279357910e-01,-4.629188776016235352e-01,-1.815353482961654663e-01
7.820707559585571289e-02,-1.899741007946431637e-03,-1.233092397451400757e-01,1.331665068864822388e-01,-6.060994789004325867e-02,1.122215092182159424e-01,1.145196110010147095e-01,-1.100463718175888062e-01,-9.590933471918106079e-02,-1.512442156672477722e-02,-3.373912721872329712e-02,1.076170876622200012e-01,-9.815763682126998901e-02,-8.686918765306472778e-02,-8.733619004487991333e-02,9.075534343719482422e-02,4.928492009639739990e-02,9.023208916187286377e-02
3.119558468461036682e-02,1.400080472230911255e-01,-2.163548171520233154e-01,2.513133585453033447e-01,4.158297553658485413e-02,3.509764075279235840e-01,1.880071908235549927e-01,-1.525549292564392090e-01,-1.833068132400512695e-01,-2.020156234502792358e-01,-1.569909304380416870e-01,1.728273928165435791e-01,-1.036096289753913879e-01,-4.960007593035697937e-02,-8.688026666641235352e-02,6.266206502914428711e-02,1.952629238367080688e-01,6.197960302233695984e-02
4.626187682151794434e-02,9.996945410966873169e-02,-1.952609419822692871e-01,2.139420509338378906e-01,1.476891152560710907e-02,2.841998338699340820e-01,1.762655079364776611e-01,-1.431094408035278320e-01,-1.526336371898651123e-01,-1.545185893774032593e-01,-1.036316081881523132e-01,1.502219736576080322e-01,-1.004614904522895813e-01,-6.499774754047393799e-02,-8.172975480556488037e-02,7.268678396940231323e-02,1.355680972337722778e-01,6.909775733947753906e-02
7.227600365877151489e-02,1.146510094404220581e-01,-2.585131525993347168e-01,2.847818136215209961e-01,1.064508128911256790e-02,3.524955213069915771e-01,2.435130327939987183e-01,-2.113728970289230347e-01,-2.229008972644805908e-01,-1.955139935016632080e-01,-1.789199411869049072e-01,2.055632770061492920e-01,-1.558737456798553467e-01,-9.242673218250274658e-02,-1.096352040767669678e-01,1.109810844063758850e-01,2.098332643508911133e-01,1.011063605546951294e-01
1.284955143928527832e-01,1.856057345867156982e-01,-3.850781023502349854e-01,4.070633947849273682e-01,1.381895784288644791e-02,4.458528161048889160e-01,3.699432909488677979e-01,-3.244248628616333008e-01,-3.491134941577911377e-01,-2.738971412181854248e-01,-2.757860720157623291e-01,3.416095972061157227e-01,-2.574405074119567871e-01,-1.504057645797729492e-01,-2.139031887054443359e-01,1.821638643741607666e-01,3.193426132202148438e-01,1.775334328413009644e-01
1.607476472854614258e-01,4.823816716670989990e-01,-6.969541311264038086e-01,7.205635309219360352e-01,1.220369637012481689e-01,7.288292646408081055e-01,6.378780007362365723e-01,-5.506244897842407227e-01,-7.084059715270996094e-01,-5.421639680862426758e-01,-6.435251832008361816e-01,6.819238662719726562e-01,-5.023555159568786621e-01,-2.011396735906600952e-01,-5.799263119697570801e-01,2.671988606452941895e-01,6.581072211265563965e-01,2.773140668869018555e-01
1.628940701484680176e-01,4.364646673202514648e-01,-6.547693014144897461e-01,6.806522607803344727e-01,9.557022154331207275e-02,6.903973221778869629e-01,6.043100953102111816e-01,-5.201745033264160156e-01,-6.640977859497070312e-01,-5.018138885498046875e-01,-5.997607707977294922e-01,6.380803585052490234e-01,-4.719845652580261230e-01,-1.997471451759338379e-01,-5.401026010513305664e-01,2.598398625850677490e-01,6.121754646301269531e-01,2.659151554107666016e-01
1.660759299993515015e-01,4.610149264335632324e-01,-6.704307794570922852e-01,6.935377120971679688e-01,9.636294096708297729e-02,6.860697269439697266e-01,6.216261982917785645e-01,-5.344443917274475098e-01,-6.897492408752441406e-01,-5.114331841468811035e-01,-6.355357170104980469e-01,6.769353747367858887e-01,-4.996795356273651123e-01,-2.037825584411621094e-01,-5.915014147758483887e-01,2.675904333591461182e-01,6.405912041664123535e-01,2.808466851711273193e-01
1.607419252395629883e-01,4.458522498607635498e-01,-6.601821780204772949e-01,6.845959424972534180e-01,9.426984190940856934e-02,6.881991624832153320e-01,6.070063710212707520e-01,-5.213629603385925293e-01,-6.849167943000793457e-01,-5.048534274101257324e-01,-6.270951032638549805e-01,6.547672152519226074e-01,-4.849358797073364258e-01,-1.936346441507339478e-01,-5.612213611602783203e-01,2.610245943069458008e-01,6.281578540802001953e-01,2.694725096225738525e-01
-1.683804541826248169e-01,-5.011363029479980469e-01,7.053984999656677246e-01,-7.323979735374450684e-01,-1.164970397949218750e-01,-7.279804348945617676e-01,-6.552473902702331543e-01,5.642363429069519043e-01,7.264753580093383789e-01,5.498959422111511230e-01,6.721101403236389160e-01,-7.167565822601318359e-01,5.267735123634338379e-01,2.066112607717514038e-01,6.248596310615539551e-01,-2.791103720664978027e-01,-6.789976954460144043e-01,-2.877773642539978027e-01
-1.732124984264373779e-01,-4.537246823310852051e-01,6.579883098602294922e-01,-6.817966103553771973e-01,-8.543293178081512451e-02,-6.663368940353393555e-01,-6.130737066268920898e-01,5.319731831550598145e-01,6.777570843696594238e-01,4.978736042976379395e-01,6.238120794296264648e-01,-6.719291806221008301e-01,4.976748824119567871e-01,2.078584581613540649e-01,5.937093496322631836e-01,-2.711870372295379639e-01,-6.315349936485290527e-01,-2.845109999179840088e-01
-1.692701131105422974e-01,-4.529617130756378174e-01,6.549559831619262695e-01,-6.753631234169006348e-01,-8.427532017230987549e-02,-6.664847135543823242e-01,-6.089632511138916016e-01,5.289650559425354004e-01,6.740541458129882812e-01,4.927553832530975342e-01,6.213519573211669922e-01,-6.658224463462829590e-01,4.957172572612762451e-01,2.058348506689071655e-01,5.908086895942687988e-01,-2.723380327224731445e-01,-6.271785497665405273e-01,-2.807507514953613281e-01
-1.709102988243103027e-01,-4.508778750896453857e-01,6.503976583480834961e-01,-6.728563308715820312e-01,-8.625795692205429077e-02,-6.626642942428588867e-01,-6.094031333923339844e-01,5.279976129531860352e-01,6.745792031288146973e-01,4.906231462955474854e-01,6.222270727157592773e-01,-6.664146780967712402e-01,4.967646896839141846e-01,2.037290185689926147e-01,5.896131992340087891e-01,-2.680880427360534668e-01,-6.252934336662292480e-01,-2.796725928783416748e-01
-1.688662171363830566e-01,-4.544745385646820068e-01,6.535745859146118164e-01,-6.763167381286621094e-01,-8.663421869277954102e-02,-6.618785858154296875e-01,-6.098798513412475586e-01,5.306649208068847656e-01,6.748300790786743164e-01,4.943548440933227539e-01,6.224598884582519531e-01,-6.650518774986267090e-01,4.971163272857666016e-01,2.061459273099899292e-01,5.922660827636718750e-01,-2.714167833328247070e-01,-6.285681724548339844e-01,-2.837796211242675781e-01
-1.700342297554016113e-01,-4.537650644779205322e-01,6.516721248626708984e-01,-6.738601922988891602e-01,-8.248655498027801514e-02,-6.655498147010803223e-01,-6.076264977455139160e-01,5.287935733795166016e-01,6.751312017440795898e-01,4.924424886703491211e-01,6.227617263793945312e-01,-6.652473211288452148e-01,4.985521435737609863e-01,2.074793130159378052e-01,5.902259945869445801e-01,-2.710909843444824219e-01,-6.250438690185546875e-01,-2.830823063850402832e-01
1.679706573486328125e-01,4.548466801643371582e-01,-6.532501578330993652e-01,6.738193035125732422e-01,8.466534316539764404e-02,6.621543169021606445e-01,6.077479124069213867e-01,-5.244769454002380371e-01,-6.744627952575683594e-01,-4.963541626930236816e-01,-6.247390508651733398e-01,6.656708717346191406e-01,-4.925073683261871338e-01,-2.031600326299667358e-01,-5.923487544059753418e-01,2.644735872745513916e-01,6.284826397895812988e-01,2.787407636642456055e-01
1.673571169376373291e-01,4.534932076930999756e-01,-6.495217680931091309e-01,6.751325130462646484e-01,8.497197180986404419e-02,6.652088165283203125e-01,6.072103381156921387e-01,-5.274296998977661133e-01,-6.763644218444824219e-01,-4.924896657466888428e-01,-6.224735379219055176e-01,6.639226675033569336e-01,-4.951573014259338379e-01,-2.050884217023849487e-01,-5.917091965675354004e-01,2.668472826480865479e-01,6.284976005554199219e-01,2.799006998538970947e-01
-7.399401161819696426e-03,9.610608220100402832e-03,1.392479613423347473e-02,-9.947923943400382996e-03,1.075770414900034666e-04,-3.581157419830560684e-03,-6.967217661440372467e-03,8.357684127986431122e-03,-2.169200964272022247e-02,3.006899962201714516e-03,-3.173255175352096558e-02,4.347269423305988312e-03,6.617050152271986008e-03,1.220251340419054031e-02,-4.045691806823015213e-03,-1.074169576168060303e-02,1.432721503078937531e-02,-6.427346728742122650e-03
2.074249321594834328e-03,3.300077980384230614e-03,1.638901070691645145e-03,-1.135889254510402679e-02,-1.855711685493588448e-03,-6.331330165266990662e-03,-4.691182170063257217e-03,4.273097496479749680e-03,4.382408689707517624e-03,6.634793709963560104e-03,1.028359401971101761e-02,-2.653323579579591751e-03,1.177105214446783066e-02,9.270063601434230804e-03,-3.552387002855539322e-03,-9.922981262207031250e-03,7.444567047059535980e-03,-4.448956809937953949e-03
-8.438927121460437775e-03,6.765058729797601700e-03,5.438659805804491043e-03,1.198302605189383030e-03,6.459617987275123596e-03,-1.804204308427870274e-03,-2.936931792646646500e-03,5.925965961068868637e-03,5.740029271692037582e-03,-6.214136257767677307e-03,-7.922014221549034119e-03,4.341450054198503494e-03,2.936210250481963158e-03,3.253155387938022614e-03,-6.576356943696737289e-03,-4.459087271243333817e-03,7.726254872977733612e-03,-3.854218404740095139e-03
2.835862804204225540e-03,1.427275408059358597e-02,4.065291024744510651e-03,-7.632077205926179886e-03,1.071492861956357956e-02,-2.232225146144628525e-03,-7.950331084430217743e-03,1.009435392916202545e-02,-7.484226953238248825e-04,-3.523149760439991951e-03,-3.061199560761451721e-03,5.787977133877575397e-04,1.134571805596351624e-02,-7.581791374832391739e-03,-2.207012148573994637e-03,-1.147160772234201431e-03,1.004585810005664825e-02,7.509625982493162155e-03
-3.802809631451964378e-03,8.303096517920494080e-03,-2.193103078752756119e-03,4.817721783183515072e-04,1.477566082030534744e-03,-6.137813325040042400e-04,5.302198696881532669e-03,-2.809965517371892929e-03,-9.544960223138332367e-03,3.370541671756654978e-04,-1.215067133307456970e-02,8.402501232922077179e-03,-1.925875549204647541e-03,1.172763109207153320e-02,-1.311721093952655792e-02,-7.102975156158208847e-03,1.062281802296638489e-02,9.051973756868392229e-05
1.052320655435323715e-02,-5.399631336331367493e-03,4.996278323233127594e-03,-1.296221860684454441e-03,-1.803938648663461208e-03,-1.903535448946058750e-03,-2.895006444305181503e-03,4.353713709861040115e-03,8.296865038573741913e-03,-6.408251938410103321e-04,8.606391958892345428e-03,5.993548547849059105e-04,6.081196261220611632e-06,-1.224633213132619858e-02,1.032574754208326340e-02,1.029518619179725647e-02,-4.498447757214307785e-03,5.568744614720344543e-03
2.376028150320053101e-02,-2.318574860692024231e-02,-8.101698011159896851e-03,-6.160869728773832321e-03,-2.998671494424343109e-02,-1.645167358219623566e-02,9.355235844850540161e-03,-1.311420276761054993e-02,1.558652031235396862e-03,2.732282318174839020e-02,2.882089093327522278e-02,-1.875547110103070736e-03,-1.085244026035070419e-02,-2.043941617012023926e-02,-1.006455253809690475e-02,1.941802166402339935e-02,-2.612490020692348480e-02,2.109564282000064850e-02
3.092256840318441391e-03,-2.318034507334232330e-02,3.006223961710929871e-02,-3.595282882452011108e-02,-1.233602967113256454e-02,-4.466752707958221436e-02,-2.230920083820819855e-02,1.806244254112243652e-02,3.247186169028282166e-02,3.682433813810348511e-02,4.505406692624092102e-02,-2.867409028112888336e-02,1.904090866446495056e-02,2.178490860387682915e-03,1.908393017947673798e-02,-4.762331955134868622e-03,-3.664157167077064514e-02,-3.799088997766375542e-03
-1.143222558312118053e-03,-1.830597175285220146e-03,-2.602654043585062027e-03,1.941388356499373913e-03,-8.265870274044573307e-04,1.553972135297954082e-03,2.118215663358569145e-03,1.152642187662422657e-03,-2.082164399325847626e-03,2.189609687775373459e-03,-4.168206360191106796e-04,1.691092620603740215e-03,-8.051695767790079117e-04,-9.479296277277171612e-04,-2.171082887798547745e-03,1.159769250079989433e-03,-3.498916048556566238e-03,1.970992889255285263e-03
1.804021000862121582e-02,-1.450327225029468536e-02,-1.033711712807416916e-02,3.482714761048555374e-03,-1.650432124733924866e-02,-1.272936165332794189e-02,9.162774309515953064e-03,-1.138526946306228638e-02,5.233776173554360867e-04,1.568124629557132721e-02,1.946992054581642151e-02,1.032470259815454483e-02,-1.319547649472951889e-02,-1.581681706011295319e-02,-1.183725148439407349e-02,1.479295268654823303e-02,-1.617835089564323425e-02,1.505491416901350021e-02
-1.536227110773324966e-02,1.452644634991884232e-02,1.094518788158893585e-02,-8.265609852969646454e-03,1.662672497332096100e-02,6.548156961798667908e-03,-1.277794688940048218e-02,1.329426933079957962e-02,4.343882203102111816e-03,-1.391724310815334320e-02,-2.855589380487799644e-03,-1.047591585665941238e-02,1.494840532541275024e-02,1.594704203307628632e-02,1.417395565658807755e-02,-1.715227030217647552e-02,4.000589717179536819e-03,-1.771971024572849274e-02
-1.170717924833297729e-02,2.017045579850673676e-02,-6.987256929278373718e-03,9.132659062743186951e-03,2.291588857769966125e-02,3.722554445266723633e-02,1.735650002956390381e-03,1.701639412203803658e-04,-5.582182668149471283e-03,-3.231221437454223633e-02,-1.904309540987014771e-02,-2.307025482878088951e-03,8.573736995458602905e-03,1.013238914310932159e-02,1.562897115945816040e-02,-7.273757830262184143e-03,2.858735807240009308e-02,-9.938574396073818207e-03
-2.575389109551906586e-02,3.425132110714912415e-02,5.301169119775295258e-03,2.391880843788385391e-03,3.460995107889175415e-02,5.053393542766571045e-02,-5.184092093259096146e-03,1.049612648785114288e-02,-5.361167713999748230e-03,-4.409355670213699341e-02,-3.828065469861030579e-02,-1.431989017874002457e-02,1.861874572932720184e-02,2.383989281952381134e-02,3.279852494597434998e-02,-2.528774552047252655e-02,4.207994416356086731e-02,-2.432862296700477600e-02
-1.645646244287490845e-02,-6.943972781300544739e-03,2.876472845673561096e-02,-2.544366195797920227e-02,1.734929345548152924e-02,-1.383516006171703339e-03,-2.100734412670135498e-02,1.398830953985452652e-02,3.012585639953613281e-02,-6.600091233849525452e-03,1.052903360687196255e-03,-4.447304084897041321e-02,2.298057265579700470e-02,1.786935888230800629e-02,5.278791114687919617e-02,-1.484368555247783661e-02,-7.858480326831340790e-03,-1.840319298207759857e-02
-2.452447079122066498e-02,4.265842959284782410e-03,2.647871524095535278e-02,-2.024419791996479034e-02,2.690782397985458374e-02,1.795522123575210571e-02,-1.839742437005043030e-02,1.309421285986900330e-02,2.838241495192050934e-02,-2.181728743016719818e-02,-7.589120417833328247e-03,-4.339484870433807373e-02,2.859404683113098145e-02,2.527503482997417450e-02,5.729895457625389099e-02,-2.130760438740253448e-02,4.609091207385063171e-03,-2.614638768136501312e-02
-1.604567095637321472e-02,1.587914419360458851e-03,1.752874813973903656e-02,-1.492477022111415863e-02,1.721441559493541718e-02,1.294373348355293274e-02,-9.857342578470706940e-03,6.342786364257335663e-03,2.081724070012569427e-02,-1.350168418139219284e-02,1.576284412294626236e-03,-3.578990325331687927e-02,1.803199201822280884e-02,1.607185229659080505e-02,4.768582433462142944e-02,-1.444427203387022018e-02,1.101483241654932499e-03,-1.756886951625347137e-02
3.250911459326744080e-02,-1.672233641147613525e-02,-2.762912213802337646e-02,2.099845372140407562e-02,-3.607511147856712341e-02,-2.365915477275848389e-02,2.591214142739772797e-02,-2.228786982595920563e-02,-2.857604622840881348e-02,2.934106253087520599e-02,8.239372633397579193e-03,4.335098713636398315e-02,-3.480886667966842651e-02,-3.221739083528518677e-02,-6.077384203672409058e-02,3.098095953464508057e-02,-1.069457363337278366e-02,3.545022383332252502e-02
8.350284770131111145e-03,1.153475884348154068e-02,-1.721394993364810944e-02,1.540989056229591370e-02,-1.271823421120643616e-02,-8.292498998343944550e-03,1.238688919693231583e-02,-5.047807469964027405e-03,-2.676762454211711884e-02,7.159757427871227264e-03,-9.276949800550937653e-03,3.687687218189239502e-02,-1.733562722802162170e-02,-6.887830793857574463e-03,-4.827867448329925537e-02,7.377292029559612274e-03,1.036616694182157516e-02,1.376274321228265762e-02
5.442846566438674927e-02,-1.441334374248981476e-02,-5.178287625312805176e-02,3.616692870855331421e-02,-4.932446777820587158e-02,-2.085865475237369537e-02,3.528738021850585938e-02,-3.508348390460014343e-02,-2.750879339873790741e-02,8.195772767066955566e-03,-7.051886990666389465e-03,5.182719230651855469e-02,-4.864758625626564026e-02,-4.234910383820533752e-02,-5.772250145673751831e-02,4.527273029088973999e-02,1.357704866677522659e-02,4.792863130569458008e-02
3.507532551884651184e-02,-1.429282315075397491e-02,-3.349191322922706604e-02,3.234907612204551697e-02,-3.337634354829788208e-02,-6.541538052260875702e-03,2.412847988307476044e-02,-2.695830725133419037e-02,-1.106659881770610809e-02,1.688379235565662384e-02,2.001986093819141388e-02,4.487144947052001953e-02,-2.962642535567283630e-02,-3.075885772705078125e-02,-4.365828633308410645e-02,3.491426631808280945e-02,-1.111526228487491608e-02,3.418951109051704407e-02
5.018713418394327164e-04,1.470529288053512573e-02,-7.882198318839073181e-03,6.129536195658147335e-04,-6.382949184626340866e-03,-6.384284235537052155e-03,1.229809131473302841e-02,-1.214964548125863075e-03,-2.307102829217910767e-02,-5.013003479689359665e-03,-2.980330400168895721e-02,2.284885570406913757e-02,-1.087783183902502060e-02,5.299980752170085907e-03,-2.740349993109703064e-02,-4.537792410701513290e-03,2.455637045204639435e-02,-2.186830388382077217e-03
-8.878703229129314423e-03,3.131818026304244995e-02,-2.161646261811256409e-03,1.841161982156336308e-03,7.440581917762756348e-03,3.327510552480816841e-03,-2.101228572428226471e-03,6.860757246613502502e-03,-1.112709101289510727e-02,-1.262127514928579330e-02,-9.429736062884330750e-03,1.939196884632110596e-02,7.898877374827861786e-03,9.110592072829604149e-04,-1.919171027839183807e-02,-3.149446798488497734e-03,1.723166927695274353e-02,3.523710649460554123e-03
-4.459486808627843857e-03,1.231575757265090942e-02,7.771752774715423584e-03,-3.379503497853875160e-03,1.177588710561394691e-03,1.516457065008580685e-03,2.624476095661520958e-03,3.634110325947403908e-03,-4.232412204146385193e-03,-3.161635249853134155e-03,-1.214105356484651566e-02,6.082041654735803604e-03,1.386858872137963772e-03,1.670422061579301953e-04,-5.375407170504331589e-03,-9.185758535750210285e-04,1.218315493315458298e-02,1.964569790288805962e-03
-4.825262352824211121e-03,8.936584927141666412e-03,1.102248951792716980e-02,-3.667899407446384430e-03,-2.366699976846575737e-03,-3.518658457323908806e-03,1.860933611169457436e-03,2.413002774119377136e-03,-1.049153506755828857e-02,5.029947962611913681e-03,-1.030371431261301041e-02,6.060418207198381424e-03,-8.758621406741440296e-04,1.252062618732452393e-03,-1.590078137814998627e-02,-2.257147571071982384e-03,7.674180902540683746e-03,3.703444963321089745e-03
7.870118133723735809e-03,-4.576278850436210632e-03,7.409805431962013245e-03,-3.732260316610336304e-03,-1.313834264874458313e-02,-6.829906720668077469e-03,9.978592395782470703e-03,-3.845044178888201714e-03,1.144098234362900257e-03,9.672761894762516022e-03,-1.462838961742818356e-03,8.360009640455245972e-03,-6.064376328140497208e-03,-8.688172325491905212e-03,-2.141531556844711304e-02,5.519155412912368774e-03,-2.765208948403596878e-03,1.428107079118490219e-02
1.190832932479679585e-03,-1.021871995180845261e-02,2.440348081290721893e-02,-1.917440257966518402e-02,-1.005348656326532364e-02,-3.109541349112987518e-02,-1.245349738746881485e-02,1.567529141902923584e-02,1.845501177012920380e-02,1.986962929368019104e-02,1.012451015412807465e-02,-1.207153778523206711e-03,9.209824725985527039e-03,1.019512419588863850e-03,-6.207866827026009560e-04,-2.444993704557418823e-03,-1.534270774573087692e-02,-3.923989424947649240e-04
3.587389364838600159e-02,-2.977307140827178955e-02,1.884445920586585999e-02,-1.839733868837356567e-02,-4.307698458433151245e-02,-3.862727805972099304e-02,-4.788903053849935532e-03,1.338473404757678509e-03,3.474240074865520000e-04,3.560258075594902039e-02,9.731891565024852753e-03,6.674272939562797546e-03,-2.095894329249858856e-02,-2.218840457499027252e-02,-2.176086604595184326e-02,2.035651542246341705e-02,-1.346753817051649094e-02,2.381025999784469604e-02
1.617041230201721191e-02,-2.251364849507808685e-02,1.771223358809947968e-02,-1.022185757756233215e-02,-2.870120108127593994e-02,-2.863871678709983826e-02,-7.998487912118434906e-03,1.341408118605613708e-02,-1.683649420738220215e-02,2.082818746566772461e-02,-1.269686222076416016e-02,1.735346764326095581e-02,-1.793354563415050507e-02,-6.166276056319475174e-03,-4.611039906740188599e-02,6.333515048027038574e-03,-4.287636838853359222e-03,1.002200786024332047e-02
-2.204184047877788544e-02,2.530037797987461090e-02,4.326784517616033554e-03,-3.291167318820953369e-03,3.993662074208259583e-03,-8.521077223122119904e-03,-3.638085676357150078e-03,2.377264574170112610e-02,-5.689122527837753296e-02,-7.696431595832109451e-03,-5.543109029531478882e-02,3.459048643708229065e-02,-1.387970987707376480e-02,2.938068285584449768e-02,-7.157591730356216431e-02,-2.806819044053554535e-02,3.145087137818336487e-02,-1.830387115478515625e-02
6.541793048381805420e-02,-4.580669570714235306e-03,-3.003408387303352356e-02,1.852578856050968170e-02,-6.723570078611373901e-02,-5.401232279837131500e-03,3.624281659722328186e-02,-2.095748670399188995e-02,-1.063182130455970764e-01,1.528587378561496735e-02,-6.861774623394012451e-02,6.858296692371368408e-02,-7.712240517139434814e-02,-3.414744511246681213e-02,-1.238628402352333069e-01,3.470386192202568054e-02,4.327248036861419678e-02,4.830532521009445190e-02
5.863828584551811218e-03,4.204293340444564819e-02,-2.694862708449363708e-02,2.808234281837940216e-02,1.476753270253539085e-03,2.045140974223613739e-02,2.289002947509288788e-02,4.340936895459890366e-03,-8.904200792312622070e-02,-3.033742681145668030e-02,-7.668257504701614380e-02,6.500338762998580933e-02,-4.980072006583213806e-02,2.676912210881710052e-02,-1.030120253562927246e-01,-1.576441712677478790e-02,5.924895033240318298e-02,-8.847626857459545135e-03
4.993655160069465637e-02,-1.886259950697422028e-02,-2.804507873952388763e-02,2.855896763503551483e-02,-2.716307900846004486e-02,1.294067688286304474e-02,1.666843146085739136e-02,-2.106783911585807800e-02,-3.883517533540725708e-02,-3.884495235979557037e-03,-1.624265499413013458e-02,2.569877728819847107e-02,-5.919384583830833435e-02,-3.610128536820411682e-02,-4.456605389714241028e-02,4.129711166024208069e-02,7.204804569482803345e-03,3.277999907732009888e-02
-2.867508865892887115e-02,-1.186973135918378830e-02,2.289487048983573914e-02,-2.422087825834751129e-02,2.094384282827377319e-02,-1.529002375900745392e-02,-2.715752460062503815e-02,3.115963749587535858e-02,1.333808526396751404e-02,2.696537645533680916e-03,8.028131909668445587e-03,-3.276653215289115906e-02,1.719145663082599640e-02,3.537021577358245850e-02,1.765185594558715820e-02,-2.905206754803657532e-02,-1.794307678937911987e-02,-4.039903357625007629e-02
8.915247395634651184e-03,-2.683445811271667480e-02,1.816769503057003021e-02,-2.245042100548744202e-02,-2.227514982223510742e-02,-2.412262931466102600e-02,-1.676605269312858582e-02,1.593224704265594482e-02,1.162102632224559784e-02,1.498815510421991348e-02,1.812269538640975952e-02,-2.769288420677185059e-02,4.327105823904275894e-03,-7.014608941972255707e-03,1.732013188302516937e-02,2.042075851932168007e-03,-2.614144422113895416e-02,-5.628156475722789764e-03
5.225140135735273361e-03,-1.750190369784832001e-02,1.319996081292629242e-02,-1.805873028934001923e-02,-1.883773878216743469e-02,-1.830582320690155029e-02,-1.004801969975233078e-02,1.139506325125694275e-02,4.446291830390691757e-03,9.974394924938678741e-03,8.586302399635314941e-03,-1.994744874536991119e-02,2.445062156766653061e-03,-4.178388975560665131e-03,1.105944905430078506e-02,-5.831528105773031712e-04,-1.990909501910209656e-02,-3.570436267182230949e-03
3.480099886655807495e-02,1.705074566416442394e-03,-2.727311477065086365e-02,4.257993027567863464e-02,1.482000807300209999e-03,3.834868222475051880e-02,2.417529374361038208e-02,-3.129637613892555237e-02,-1.189639791846275330e-02,-1.699774339795112610e-02,-1.898643188178539276e-02,3.330252319574356079e-02,-3.546024858951568604e-02,-2.962288632988929749e-02,-3.015653416514396667e-02,3.088916838169097900e-02,2.879463508725166321e-02,2.893458493053913116e-02
5.757029727101325989e-02,-1.821349188685417175e-02,-5.172203853726387024e-02,3.317604586482048035e-02,-5.340014770627021790e-02,-2.461740002036094666e-02,3.982733562588691711e-02,-3.809797018766403198e-02,-2.966105751693248749e-02,2.157054096460342407e-02,9.668475948274135590e-03,5.610870197415351868e-02,-5.393659695982933044e-02,-4.753395169973373413e-02,-7.095528393983840942e-02,4.913859814405441284e-02,4.116381984204053879e-03,5.426113307476043701e-02
2.775145322084426880e-02,-7.094833534210920334e-03,-2.489359676837921143e-02,2.319568395614624023e-02,-2.440608665347099304e-02,-1.177706941962242126e-02,1.636324450373649597e-02,-1.535275112837553024e-02,-5.889914464205503464e-03,1.170833501964807510e-02,1.713129878044128418e-02,3.943653777241706848e-02,-1.900623925030231476e-02,-2.214164659380912781e-02,-3.623954206705093384e-02,2.265633270144462585e-02,-7.617290131747722626e-03,2.819251641631126404e-02
1.089312788099050522e-02,7.991458289325237274e-03,-1.730514876544475555e-02,8.943532593548297882e-03,-1.860168203711509705e-02,-2.965563908219337463e-03,2.180802635848522186e-02,-8.331384509801864624e-03,-3.148747980594635010e-02,1.444544177502393723e-04,-2.311318367719650269e-02,3.189980983734130859e-02,-1.842261850833892822e-02,-3.393576713278889656e-03,-3.771786764264106750e-02,6.961560808122158051e-03,2.118145301938056946e-02,8.438343182206153870e-03
1.133021898567676544e-02,1.036416180431842804e-02,-2.006115391850471497e-02,1.933927275240421295e-02,-1.593179441988468170e-02,1.772223331499844790e-04,1.861157640814781189e-02,-1.253800187259912491e-02,-2.164901047945022583e-02,3.753610886633396149e-03,7.089208811521530151e-03,3.756803274154663086e-02,-1.328133046627044678e-02,-2.308223955333232880e-02,-3.861966356635093689e-02,1.634103804826736450e-02,2.644723048433661461e-03,2.686297707259654999e-02
1.377427764236927032e-02,-5.046260193921625614e-04,-6.746524479240179062e-03,1.076960097998380661e-02,-1.608850434422492981e-02,-1.229673041962087154e-03,1.581744104623794556e-02,-1.288619730621576309e-02,-1.452031079679727554e-02,6.377292331308126450e-03,5.753098521381616592e-04,2.054459974169731140e-02,-1.381458807736635208e-02,-1.683255098760128021e-02,-2.229825779795646667e-02,1.825059391558170319e-02,5.561228375881910324e-03,2.146435342729091644e-02
2.798078639898449183e-04,6.040476728230714798e-03,5.756759550422430038e-03,1.981256762519478798e-03,-4.036380443722009659e-03,-9.682556265033781528e-04,3.432445926591753960e-03,-2.383411396294832230e-03,-1.201680861413478851e-02,2.996401628479361534e-03,-1.038006693124771118e-02,8.167327381670475006e-03,-1.750210998579859734e-03,-1.291406922973692417e-03,-1.776543073356151581e-02,-1.799188088625669479e-03,1.006301864981651306e-02,7.484470959752798080e-03
1.464937697164714336e-03,2.193046268075704575e-03,1.094105001538991928e-02,-1.466169953346252441e-03,-6.291393190622329712e-03,-2.547852927818894386e-03,4.934438504278659821e-03,-3.453321987763047218e-03,-3.480947343632578850e-04,2.069951035082340240e-03,-3.353615291416645050e-03,5.461836233735084534e-03,-6.857994594611227512e-04,1.404964947141706944e-03,-1.741585694253444672e-02,-1.422188011929392815e-03,3.981653600931167603e-03,6.932304706424474716e-03
-4.032419994473457336e-03,1.108729001134634018e-02,1.310869306325912476e-02,-8.193762041628360748e-03,4.783507902175188065e-03,-7.597089279443025589e-03,-8.374273777008056641e-03,7.933055981993675232e-03,5.772879347205162048e-03,-4.917290993034839630e-03,-7.038249168545007706e-03,5.058984272181987762e-03,9.100376628339290619e-03,8.389798924326896667e-03,7.097390946000814438e-03,-6.524803582578897476e-03,8.471325971186161041e-03,-4.784142132848501205e-03
2.961917966604232788e-02,-7.623014040291309357e-03,2.636648481711745262e-03,-1.592726213857531548e-03,-2.423220314085483551e-02,-8.575449697673320770e-03,5.725921131670475006e-03,-1.302898023277521133e-02,-5.491026211529970169e-03,9.793167933821678162e-03,-2.838942920789122581e-03,1.292545720934867859e-02,-1.525660976767539978e-02,-1.938709989190101624e-02,-5.236671771854162216e-03,2.037767320871353149e-02,8.053733967244625092e-03,1.959231123328208923e-02
-1.087329350411891937e-02,3.936734050512313843e-03,3.155554085969924927e-02,-1.754762791097164154e-02,8.731663227081298828e-03,-1.006116159260272980e-02,-2.544359117746353149e-02,2.577289752662181854e-02,1.037246175110340118e-02,-2.016669139266014099e-03,-1.183126121759414673e-02,-5.976698361337184906e-03,1.583904400467872620e-02,1.427763327956199646e-02,5.510598421096801758e-03,-1.523468270897865295e-02,9.772725403308868408e-03,-1.461306307464838028e-02
-3.378861024975776672e-02,1.526114623993635178e-02,4.285913705825805664e-02,-3.549424931406974792e-02,3.018111549317836761e-02,-2.051853947341442108e-02,-3.836404159665107727e-02,4.207979515194892883e-02,2.203599549829959869e-02,-1.828465959988534451e-03,5.086877848953008652e-03,-2.295606955885887146e-02,5.064396560192108154e-02,3.672917187213897705e-02,2.255792357027530670e-02,-4.157924652099609375e-02,3.135343547910451889e-03,-3.484147787094116211e-02
3.769267350435256958e-02,-3.245564177632331848e-02,2.482653036713600159e-02,-2.118871361017227173e-02,-2.459395490586757660e-02,-3.129703551530838013e-02,-1.619911938905715942e-02,4.177280236035585403e-03,-1.085710804909467697e-02,4.235554113984107971e-02,1.723444275557994843e-02,1.256965242646401748e-05,7.420159876346588135e-03,-1.736651919782161713e-02,-8.145991712808609009e-03,1.688878983259201050e-02,2.036415506154298782e-03,1.955145597457885742e-02
-2.668576082214713097e-03,4.881700500845909119e-03,2.271345071494579315e-02,-2.121547050774097443e-02,1.116164866834878922e-02,-2.246098034083843231e-02,-3.014393895864486694e-02,3.555659949779510498e-02,-3.115196898579597473e-02,1.381889730691909790e-02,-1.268165744841098785e-02,-1.926464494317770004e-03,2.259735763072967529e-02,2.492189593613147736e-02,-1.747003383934497833e-02,-2.363976277410984039e-02,1.446151640266180038e-02,-2.286912873387336731e-02
3.719422593712806702e-02,-1.592764444649219513e-02,-1.546370424330234528e-02,6.151695735752582550e-03,-2.400816790759563446e-02,-1.448286604136228561e-02,6.439250428229570389e-03,-4.585143178701400757e-03,-5.542594194412231445e-02,1.312530133873224258e-02,-2.727832645177841187e-02,3.450065106153488159e-02,-4.095941036939620972e-02,-1.671502366662025452e-02,-6.148932129144668579e-02,2.139662578701972961e-02,1.973908953368663788e-02,2.326538227498531342e-02
-6.636983901262283325e-02,3.244985640048980713e-02,3.314110264182090759e-02,-3.238807618618011475e-02,5.727706849575042725e-02,-2.061282843351364136e-02,-5.145974457263946533e-02,7.497754693031311035e-02,-1.736404560506343842e-02,-1.686264760792255402e-02,-3.509412333369255066e-02,-9.943962097167968750e-03,4.319176077842712402e-02,9.016615897417068481e-02,-2.054702304303646088e-02,-8.245088160037994385e-02,2.591029368340969086e-02,-7.736188918352127075e-02
-4.495549947023391724e-02,-5.270476918667554855e-03,3.934157267212867737e-02,-3.443249315023422241e-02,3.401522338390350342e-02,-2.170940302312374115e-02,-5.190425738692283630e-02,5.962304398417472839e-02,2.044958993792533875e-02,4.751815460622310638e-03,9.205739013850688934e-03,-3.698063641786575317e-02,4.262968897819519043e-02,6.310039758682250977e-02,1.954105682671070099e-02,-5.905407294631004333e-02,-2.088720723986625671e-02,-6.440064311027526855e-02
-5.196505039930343628e-02,-3.469097986817359924e-02,7.522711157798767090e-02,-8.219426125288009644e-02,2.374419383704662323e-02,-5.850911140441894531e-02,-7.784903794527053833e-02,8.930471539497375488e-02,4.674068093299865723e-02,2.212848328053951263e-02,3.942998498678207397e-02,-8.743512630462646484e-02,6.404917687177658081e-02,7.111607491970062256e-02,6.331986188888549805e-02,-7.260204106569290161e-02,-5.374497175216674805e-02,-8.262566477060317993e-02
2.602790668606758118e-02,3.089299239218235016e-02,-4.542466625571250916e-02,5.418000370264053345e-02,-3.235808340832591057e-03,5.643339082598686218e-02,5.340148881077766418e-02,-3.755567967891693115e-02,-7.708128541707992554e-02,-4.703378677368164062e-02,-1.050128340721130371e-01,7.550574839115142822e-02,-5.054204910993576050e-02,-1.173568330705165863e-02,-7.792047411203384399e-02,2.150375582277774811e-02,9.812418371438980103e-02,2.043974027037620544e-02
6.042040511965751648e-02,-1.690351217985153198e-02,-4.734766855835914612e-02,3.561129420995712280e-02,-5.182091891765594482e-02,-2.563631348311901093e-02,4.276723414659500122e-02,-4.306923598051071167e-02,-2.562213689088821411e-02,2.576307766139507294e-02,5.719691514968872070e-03,5.903678014874458313e-02,-5.215803906321525574e-02,-5.467419698834419250e-02,-7.108366489410400391e-02,5.427590757608413696e-02,1.484912354499101639e-03,6.058486923575401306e-02
2.224615775048732758e-02,-8.113909512758255005e-03,-2.248872257769107819e-02,1.907439716160297394e-02,-2.654181793332099915e-02,-1.622691564261913300e-02,1.057231333106756210e-02,-1.359310932457447052e-02,-1.432037563063204288e-03,1.567298918962478638e-02,2.977853640913963318e-02,3.683379665017127991e-02,-1.830609329044818878e-02,-2.262970060110092163e-02,-3.546903654932975769e-02,2.314881607890129089e-02,-1.157313585281372070e-02,2.524967864155769348e-02
9.523467160761356354e-03,8.648587390780448914e-03,-1.785322092473506927e-02,1.117461454123258591e-02,-1.538672950118780136e-02,2.083792351186275482e-03,1.983818225562572479e-02,-7.241127081215381622e-03,-2.937366627156734467e-02,7.416448788717389107e-04,-1.845253817737102509e-02,3.235568106174468994e-02,-1.756504178047180176e-02,-2.137391828000545502e-03,-3.420468047261238098e-02,7.183816749602556229e-03,1.769063994288444519e-02,6.122291088104248047e-03
1.280832011252641678e-02,9.949726052582263947e-03,-1.729185506701469421e-02,1.545096561312675476e-02,-1.674965769052505493e-02,-4.458800889551639557e-03,1.551033742725849152e-02,-1.238700468093156815e-02,-2.024279348552227020e-02,7.993099279701709747e-03,7.476352155208587646e-03,3.516433015465736389e-02,-1.044952590018510818e-02,-2.172899805009365082e-02,-3.681997954845428467e-02,1.758648641407489777e-02,-1.535262563265860081e-03,2.570993639528751373e-02
1.830423250794410706e-02,-5.080566275864839554e-03,-1.231770776212215424e-02,1.273454073816537857e-02,-2.117192745208740234e-02,-1.047932775691151619e-03,1.912878826260566711e-02,-1.888544671237468719e-02,-1.405233889818191528e-02,1.139227394014596939e-02,2.273625461384654045e-03,2.169800549745559692e-02,-1.771922409534454346e-02,-2.075337432324886322e-02,-2.645884454250335693e-02,2.241687662899494171e-02,1.682224217802286148e-03,2.556833997368812561e-02
1.021324470639228821e-02,2.240670146420598030e-03,5.148628260940313339e-04,4.320438951253890991e-03,-1.419314928352832794e-02,-2.878822851926088333e-03,1.018602401018142700e-02,-1.121437456458806992e-02,-1.663147285580635071e-02,8.866365067660808563e-03,-4.628882277756929398e-03,1.537708938121795654e-02,-8.614253252744674683e-03,-1.035699713975191116e-02,-2.503211051225662231e-02,9.005008265376091003e-03,4.863492678850889206e-03,1.599892228841781616e-02
4.468624480068683624e-03,1.122939516790211201e-03,8.050497621297836304e-03,4.795818589627742767e-03,-8.331399410963058472e-03,-1.934951986186206341e-03,9.441678412258625031e-03,-6.015753839164972305e-03,-1.350769540295004845e-03,4.353064112365245819e-03,-4.799133632332086563e-03,1.136349700391292572e-02,-2.617938676849007607e-03,-6.065685767680406570e-03,-1.899783313274383545e-02,2.566503360867500305e-03,4.871766548603773117e-03,9.588903747498989105e-03
-1.353500527329742908e-03,1.511084381490945816e-02,1.050048787146806717e-02,-3.855575807392597198e-03,5.605583079159259796e-03,-1.018905895762145519e-04,-2.947103057522326708e-04,4.107785411179065704e-03,1.565091428346931934e-03,-4.030057229101657867e-03,-1.435163803398609161e-02,7.718012668192386627e-03,6.529016420245170593e-03,6.488617509603500366e-03,6.835521198809146881e-03,-4.982865881174802780e-03,8.955850265920162201e-03,-4.736952017992734909e-03
1.104013528674840927e-02,8.498919196426868439e-03,7.476137951016426086e-03,8.254499989561736584e-04,-4.900590516626834869e-03,3.011544002220034599e-03,9.804163128137588501e-04,-3.259240183979272842e-03,-4.188444931060075760e-03,-5.326187703758478165e-03,-1.432149205356836319e-02,1.025454234331846237e-02,-5.616974667645990849e-04,-5.803368985652923584e-03,7.556347642093896866e-03,7.186561822891235352e-03,2.325518988072872162e-02,4.190404433757066727e-03
-1.584816165268421173e-02,1.695833913981914520e-02,2.952035143971443176e-02,-7.729019504040479660e-03,1.422965060919523239e-02,4.378542769700288773e-03,-2.130818180739879608e-02,2.196105942130088806e-02,1.094799954444169998e-02,-1.438356470316648483e-02,-2.164536342024803162e-02,-6.450208369642496109e-03,2.234848774969577789e-02,2.142568677663803101e-02,1.453101169317960739e-02,-1.732480153441429138e-02,2.109156548976898193e-02,-2.038391493260860443e-02
-3.403520584106445312e-02,3.389597684144973755e-02,3.555642440915107727e-02,-2.195417881011962891e-02,4.795223847031593323e-02,2.116846386343240738e-03,-3.154553100466728210e-02,3.183861449360847473e-02,2.601013705134391785e-02,-2.137541398406028748e-02,-3.557639429345726967e-03,-2.208798937499523163e-02,5.721100047230720520e-02,3.738326951861381531e-02,3.765128925442695618e-02,-3.881423920392990112e-02,1.995421200990676880e-02,-3.525033220648765564e-02
8.284273557364940643e-03,-6.823760922998189926e-04,3.125896304845809937e-02,-1.806936040520668030e-02,1.577566377818584442e-02,-1.102141337469220161e-03,-2.464713342487812042e-02,1.131176203489303589e-02,2.103412523865699768e-02,1.037872489541769028e-02,2.231217734515666962e-02,-1.719175651669502258e-02,4.527637735009193420e-02,-3.284925187472254038e-04,3.838736563920974731e-02,-3.074730047956109047e-04,1.870090514421463013e-02,-1.556044444441795349e-03
-1.119119022041559219e-02,9.373765438795089722e-03,4.573069512844085693e-02,-2.354221418499946594e-02,5.043423920869827271e-02,2.761177951470017433e-03,-4.724988341331481934e-02,2.921079844236373901e-02,4.961465671658515930e-02,-4.972614347934722900e-03,3.913467004895210266e-02,-4.801996797323226929e-02,8.068232983350753784e-02,2.310704067349433899e-02,8.474563807249069214e-02,-2.136967703700065613e-02,9.994369000196456909e-03,-2.898044511675834656e-02
4.574043303728103638e-02,-3.584595769643783569e-02,1.203028019517660141e-02,-7.863556966185569763e-03,-1.495398581027984619e-02,-2.497953549027442932e-02,-7.417583372443914413e-03,-1.411170791834592819e-02,2.326441556215286255e-02,3.671551123261451721e-02,5.010660737752914429e-02,-1.321414858102798462e-02,1.384953130036592484e-02,-3.215010836720466614e-02,3.807595744729042053e-02,3.497431799769401550e-02,-1.121965982019901276e-02,2.938892133533954620e-02
-1.023536175489425659e-02,1.283701881766319275e-02,2.065266482532024384e-02,-2.499535866081714630e-02,2.664685063064098358e-02,-3.022244572639465332e-02,-3.532036766409873962e-02,3.831102699041366577e-02,-7.851978763937950134e-03,8.219526149332523346e-03,-2.796887420117855072e-03,-2.199676819145679474e-03,3.741736710071563721e-02,2.428398095071315765e-02,6.672590388916432858e-04,-2.408196777105331421e-02,1.902765594422817230e-02,-1.914577372372150421e-02
1.419138070195913315e-02,-9.270010516047477722e-03,2.251585572957992554e-02,-3.463958576321601868e-02,-1.312613766640424728e-02,-5.592488870024681091e-02,-3.764864057302474976e-02,3.449926525354385376e-02,-6.632253527641296387e-03,4.440561309456825256e-02,1.408536452800035477e-02,-6.665407679975032806e-03,2.425593137741088867e-02,7.806528825312852859e-03,-1.911696046590805054e-02,-7.997199892997741699e-03,-7.255435921251773834e-03,-8.600345812737941742e-03
-1.466581970453262329e-01,8.581672608852386475e-02,1.060165911912918091e-01,-1.088471189141273499e-01,1.225833892822265625e-01,-5.501179024577140808e-02,-1.308022290468215942e-01,1.663770079612731934e-01,4.658545833081007004e-03,-3.068318963050842285e-02,-6.025732308626174927e-02,-5.625646188855171204e-02,1.342699080705642700e-01,1.811861842870712280e-01,2.921824902296066284e-02,-1.748532056808471680e-01,4.523156210780143738e-02,-1.685682833194732666e-01
-4.277093708515167236e-02,6.501999497413635254e-02,1.810003258287906647e-02,-2.356091514229774475e-02,3.622064739465713501e-02,8.138781413435935974e-03,-1.815182156860828400e-02,4.079088196158409119e-02,-6.635980308055877686e-02,-5.179877579212188721e-02,-1.294276714324951172e-01,4.267461970448493958e-02,2.092864923179149628e-02,5.933681130409240723e-02,-4.442610219120979309e-02,-5.229250714182853699e-02,1.195827573537826538e-01,-4.220441728830337524e-02
5.340741947293281555e-02,-1.338495127856731415e-02,-4.755232855677604675e-02,3.246983513236045837e-02,-4.731947556138038635e-02,-2.873284928500652313e-02,3.844079002737998962e-02,-3.768385201692581177e-02,-2.923822961747646332e-02,2.306639403104782104e-02,-4.530814476311206818e-03,5.845170840620994568e-02,-4.975679516792297363e-02,-4.532607644796371460e-02,-7.547905296087265015e-02,4.625179991126060486e-02,7.750036660581827164e-03,5.291689187288284302e-02
2.196497842669487000e-02,-8.621916174888610840e-03,-2.354528941214084625e-02,1.987043768167495728e-02,-2.386685647070407867e-02,-1.145897898823022842e-02,2.090308442711830139e-02,-1.769192703068256378e-02,4.377818666398525238e-03,1.374761015176773071e-02,2.768626064062118530e-02,4.259526729583740234e-02,-2.019340358674526215e-02,-1.832590624690055847e-02,-4.130389541387557983e-02,1.795433461666107178e-02,-1.187253510579466820e-03,2.559436857700347900e-02
1.328847557306289673e-02,8.193625137209892273e-03,-2.070679329335689545e-02,1.317806262522935867e-02,-1.698187738656997681e-02,1.248962216777727008e-04,2.324170991778373718e-02,-1.212397217750549316e-02,-2.811669558286666870e-02,1.672723563387989998e-03,-8.901113644242286682e-03,3.272500261664390564e-02,-1.882651448249816895e-02,-7.718366570770740509e-03,-3.928007557988166809e-02,7.586188614368438721e-03,1.457831449806690216e-02,1.271037384867668152e-02
1.310671865940093994e-02,7.549876812845468521e-03,-2.065729908645153046e-02,1.717001758515834808e-02,-1.386481616646051407e-02,4.548891593003645539e-05,1.656309515237808228e-02,-1.682109013199806213e-02,-2.286300621926784515e-02,6.566648371517658234e-03,6.622667424380779266e-03,3.525096923112869263e-02,-1.300855726003646851e-02,-2.110794000327587128e-02,-3.798061609268188477e-02,1.767995208501815796e-02,-2.405167091637849808e-03,2.391066960990428925e-02
1.960385031998157501e-02,-5.518640391528606415e-03,-9.087545797228813171e-03,1.287118624895811081e-02,-2.070720680058002472e-02,-2.577489009127020836e-03,2.127281390130519867e-02,-1.617572270333766937e-02,-1.356790307909250259e-02,1.209342293441295624e-02,-1.464117030991474167e-05,2.379651740193367004e-02,-1.633576303720474243e-02,-2.036533690989017487e-02,-2.547373808920383453e-02,1.913703419268131256e-02,1.583042088896036148e-03,2.437650598585605621e-02
6.491331849247217178e-03,8.648851071484386921e-04,3.939274232834577560e-03,5.358020775020122528e-03,-1.378311123698949814e-02,-2.928545698523521423e-03,1.201142370700836182e-02,-7.852052338421344757e-03,-1.438654400408267975e-02,7.926291786134243011e-03,-7.816909812390804291e-03,1.151871494948863983e-02,-8.484602905809879303e-03,-8.996972814202308655e-03,-2.631076797842979431e-02,9.589034132659435272e-03,6.529225036501884460e-03,1.574522443115711212e-02
8.530756458640098572e-03,8.834534673951566219e-04,4.780912306159734726e-03,4.236451350152492523e-03,-1.211537607014179230e-02,1.570065389387309551e-03,1.477082911878824234e-02,-1.267799828201532364e-02,-2.251210389658808708e-03,4.989422857761383057e-03,-1.340828719548881054e-03,1.023833919316530228e-02,-7.577491458505392075e-03,-8.302897214889526367e-03,-2.278145030140876770e-02,9.447989054024219513e-03,2.396067138761281967e-03,1.488581672310829163e-02
9.440590627491474152e-03,4.677555523812770844e-03,-2.383989922236651182e-04,5.449568387120962143e-03,-8.833700791001319885e-03,-3.299153468105942011e-04,1.035127509385347366e-02,-8.925653062760829926e-03,-5.754284095019102097e-03,1.735146855935454369e-03,-1.074922271072864532e-02,1.540293637663125992e-02,-7.843943312764167786e-03,-8.746812120079994202e-03,-5.375655367970466614e-03,8.341292850673198700e-03,8.753893896937370300e-03,1.116332411766052246e-02
1.358991302549839020e-02,6.756479386240243912e-03,2.494924003258347511e-03,2.556851133704185486e-03,-9.030760265886783600e-03,3.910885192453861237e-03,4.598789848387241364e-03,-3.144781105220317841e-03,-5.367924924939870834e-03,-6.428727880120277405e-03,-1.677955873310565948e-02,1.031576190143823624e-02,-5.826419219374656677e-03,-7.467942778021097183e-03,7.896786555647850037e-03,8.607414551079273224e-03,2.406770363450050354e-02,6.865853443741798401e-03
2.862041443586349487e-02,-1.042647566646337509e-02,-1.101286266930401325e-03,1.552641112357378006e-02,-2.385154739022254944e-02,3.139195265248417854e-03,1.454721391201019287e-02,-1.282609160989522934e-02,-8.176459930837154388e-03,4.802464973181486130e-03,-7.962051779031753540e-03,1.992565765976905823e-02,-1.525434944778680801e-02,-2.084835618734359741e-02,-1.295531913638114929e-02,2.202163077890872955e-02,1.292604301124811172e-02,2.328593283891677856e-02
-1.062263734638690948e-02,2.593400143086910248e-02,1.856686733663082123e-02,-6.375119090080261230e-03,2.397470548748970032e-02,3.468501148745417595e-03,-1.162379141896963120e-02,1.019422896206378937e-02,1.661370880901813507e-02,-1.044569257646799088e-02,-2.050566487014293671e-03,-5.722536705434322357e-03,3.629250079393386841e-02,1.283944956958293915e-02,2.394919842481613159e-02,-1.316092722117900848e-02,1.613814383745193481e-02,-8.525058627128601074e-03
2.136373706161975861e-02,-2.841055393218994141e-04,2.066911756992340088e-02,-4.987527616322040558e-03,1.244570221751928329e-02,7.295030169188976288e-03,-9.402426891028881073e-03,-3.616388421505689621e-03,1.485747192054986954e-02,8.006194606423377991e-03,2.088121697306632996e-02,-7.807945366948843002e-03,3.845436498522758484e-02,-1.101862639188766479e-02,3.471333533525466919e-02,1.129376981407403946e-02,2.151962555944919586e-02,1.341571286320686340e-02
1.578691415488719940e-02,7.344703190028667450e-03,1.890541985630989075e-02,7.434537401422858238e-04,3.455132246017456055e-02,1.863429695367813110e-02,-1.697484217584133148e-02,-4.637498932424932718e-04,3.600363433361053467e-02,-7.772932294756174088e-03,3.299136832356452942e-02,-2.473257482051849365e-02,5.816162005066871643e-02,-5.518655758351087570e-03,7.147804647684097290e-02,9.479246102273464203e-03,2.098987251520156860e-02,2.545647788792848587e-03
3.449219092726707458e-02,-6.130788475275039673e-03,3.587801242247223854e-03,3.909659106284379959e-03,1.126782875508069992e-02,1.127946563065052032e-02,-2.656667260453104973e-03,-1.690340414643287659e-02,3.357912227511405945e-02,2.145838458091020584e-03,4.447656869888305664e-02,-9.489476680755615234e-03,3.052738308906555176e-02,-2.202538028359413147e-02,6.295187026262283325e-02,2.772155217826366425e-02,1.698921620845794678e-02,2.158287726342678070e-02
1.458179391920566559e-02,2.148272702470421791e-03,2.566926926374435425e-02,-2.590181119740009308e-02,3.005126863718032837e-02,-1.975381746888160706e-02,-3.261918574571609497e-02,1.584977097809314728e-02,6.331451237201690674e-02,1.086513884365558624e-02,7.161045074462890625e-02,-2.836901880800724030e-02,6.629791110754013062e-02,-4.891408141702413559e-03,7.867135852575302124e-02,5.230105016380548477e-03,2.299946267157793045e-03,4.811536986380815506e-03
1.009959727525711060e-01,-4.996795952320098877e-02,-1.324211899191141129e-02,1.535512786358594894e-02,-3.604827821254730225e-02,-1.835251227021217346e-02,1.250738278031349182e-02,-5.443817377090454102e-02,6.240233033895492554e-02,6.414753198623657227e-02,1.336505562067031860e-01,-1.135382149368524551e-02,2.304182201623916626e-02,-9.183210879564285278e-02,7.097566127777099609e-02,9.068031609058380127e-02,-4.012117162346839905e-02,8.693884313106536865e-02
-3.285102173686027527e-02,5.553042516112327576e-02,4.545090347528457642e-02,-5.929729342460632324e-02,5.026999488472938538e-02,-5.245750024914741516e-02,-6.976050138473510742e-02,7.437453418970108032e-02,2.593832090497016907e-03,-2.967635635286569595e-03,-4.292729776352643967e-03,-1.938408426940441132e-02,8.536881208419799805e-02,5.528878793120384216e-02,2.745614014565944672e-02,-5.637849867343902588e-02,3.624815493822097778e-02,-4.911379143595695496e-02
-4.706020653247833252e-02,7.482787966728210449e-02,7.024125196039676666e-03,-7.857077755033969879e-03,4.602259024977684021e-02,2.169163152575492859e-02,-1.712190359830856323e-02,3.621010482311248779e-02,-5.958871543407440186e-02,-6.073304638266563416e-02,-1.043322011828422546e-01,3.736014291644096375e-02,2.558153867721557617e-02,4.591405391693115234e-02,-4.214126989245414734e-02,-4.720153659582138062e-02,9.523773193359375000e-02,-3.466879948973655701e-02
7.822343707084655762e-02,-3.754769265651702881e-02,-5.535017326474189758e-02,3.708627074956893921e-02,-7.103277742862701416e-02,-3.890447691082954407e-02,5.292856693267822266e-02,-5.403213575482368469e-02,-3.501604497432708740e-02,4.558727517724037170e-02,1.308497227728366852e-02,6.617761403322219849e-02,-7.136481255292892456e-02,-6.892282515764236450e-02,-9.241999685764312744e-02,6.939052045345306396e-02,-1.043863035738468170e-02,7.586841285228729248e-02
1.398993562906980515e-02,-3.786363638937473297e-03,-1.596778444945812225e-02,1.646736077964305878e-02,-1.726219803094863892e-02,-2.430807799100875854e-03,1.367735397070646286e-02,-9.370370768010616302e-03,-2.522025257349014282e-03,7.816763594746589661e-03,1.357478927820920944e-02,3.702630102634429932e-02,-1.843526586890220642e-02,-1.006113365292549133e-02,-3.606335818767547607e-02,1.082345657050609589e-02,6.309332326054573059e-03,1.821992546319961548e-02
1.487624086439609528e-02,1.222212053835391998e-02,-2.446861565113067627e-02,1.838168501853942871e-02,-2.221046388149261475e-02,9.434728417545557022e-04,2.366738207638263702e-02,-1.556005515158176422e-02,-2.730423584580421448e-02,-4.742774181067943573e-04,-1.006714650429785252e-03,3.782628476619720459e-02,-2.125190198421478271e-02,-1.038213912397623062e-02,-3.961148858070373535e-02,1.360396668314933777e-02,-2.827224787324666977e-03,1.702294498682022095e-02
1.535063423216342926e-02,-1.567442086525261402e-03,-1.859167777001857758e-02,2.130347304046154022e-02,-1.905452273786067963e-02,3.543660277500748634e-04,1.862001232802867889e-02,-1.488460320979356766e-02,-2.560986578464508057e-02,1.066014915704727173e-02,5.925392266362905502e-03,3.363540023565292358e-02,-1.722759567201137543e-02,-2.256856858730316162e-02,-4.245216771960258484e-02,1.976440474390983582e-02,-5.307816434651613235e-03,2.600491046905517578e-02
8.906762115657329559e-03,4.352191928774118423e-03,-2.404381521046161652e-03,6.312971934676170349e-03,-1.151166949421167374e-02,-2.169845392927527428e-03,1.032513100653886795e-02,-1.164967380464076996e-02,-1.378288399428129196e-02,6.949643138796091080e-03,-6.789138074964284897e-03,1.606673561036586761e-02,-9.606232866644859314e-03,-1.139234099537134171e-02,-1.375475805252790451e-02,1.086026243865489960e-02,1.064459700137376785e-02,1.623635552823543549e-02
1.047231536358594894e-02,-1.722457120195031166e-03,3.102298593148589134e-03,4.101957660168409348e-03,-1.364968437701463699e-02,-1.243955572135746479e-03,1.068161334842443466e-02,-1.392252184450626373e-02,-1.278329920023679733e-02,9.169386699795722961e-03,-2.514315303415060043e-03,1.051655039191246033e-02,-1.247908733785152435e-02,-1.136190444231033325e-02,-2.206985093653202057e-02,1.052087079733610153e-02,8.103413274511694908e-04,1.679229550063610077e-02
9.635790251195430756e-03,-3.178921295329928398e-03,1.946649514138698578e-03,6.752074696123600006e-03,-1.116087101399898529e-02,-4.548448196146637201e-04,1.511386502534151077e-02,-9.258919395506381989e-03,-8.677165169501677155e-05,5.731382872909307480e-03,1.435038051567971706e-03,1.151518151164054871e-02,-8.605402894318103790e-03,-1.044272258877754211e-02,-1.874245703220367432e-02,9.331037290394306183e-03,8.788321283645927906e-04,1.383553911000490189e-02
1.271624583750963211e-02,5.830894224345684052e-04,-1.518249046057462692e-03,5.148562602698802948e-03,-9.896147996187210083e-03,-1.912254258058965206e-03,9.230308234691619873e-03,-6.817265879362821579e-03,-3.167021088302135468e-03,4.995960276573896408e-03,-4.535512998700141907e-03,1.558137405663728714e-02,-8.456525392830371857e-03,-1.218515634536743164e-02,-3.153696190565824509e-03,9.869336150586605072e-03,3.154522273689508438e-03,1.414823066443204880e-02
1.631273515522480011e-02,6.076778285205364227e-03,2.394828712567687035e-03,5.700640846043825150e-03,-8.521952666342258453e-03,3.693351289257407188e-03,1.064988318830728531e-02,-7.869802415370941162e-03,-7.543990854173898697e-03,-5.654035601764917374e-03,-1.428558304905891418e-02,1.145371142774820328e-02,-7.182555738836526871e-03,-9.410410188138484955e-03,2.851691562682390213e-03,1.183557230979204178e-02,2.082705497741699219e-02,1.362890657037496567e-02
3.727052733302116394e-02,-1.625051535665988922e-02,-7.461274974048137665e-03,1.803784072399139404e-02,-3.203808516263961792e-02,2.122798468917608261e-03,2.005611732602119446e-02,-2.215874195098876953e-02,-1.232560258358716965e-02,1.012478489428758621e-02,-4.950087051838636398e-03,2.633281424641609192e-02,-2.386824227869510651e-02,-2.911818958818912506e-02,-2.019203081727027893e-02,3.279490023851394653e-02,1.048272848129272461e-02,3.075331263244152069e-02
1.351057831197977066e-02,9.988505393266677856e-03,2.293486148118972778e-03,9.408944286406040192e-03,3.600293071940541267e-03,5.792535841464996338e-03,8.860452100634574890e-03,-1.281767990440130234e-02,7.633381523191928864e-03,3.909841689164750278e-05,3.870707936584949493e-03,1.048477739095687866e-02,1.453838311135768890e-02,-1.265079248696565628e-02,3.180301282554864883e-03,1.102665904909372330e-02,1.409085560590028763e-02,1.761625334620475769e-02
3.323183208703994751e-02,-7.090192288160324097e-03,7.165532093495130539e-03,7.318540476262569427e-03,6.906117196194827557e-04,7.925208657979965210e-03,4.747787490487098694e-03,-1.742017455399036407e-02,8.731929585337638855e-03,1.443743053823709488e-02,2.021923661231994629e-02,3.153258468955755234e-03,2.682743407785892487e-02,-2.480100467801094055e-02,2.472842670977115631e-02,2.442965283989906311e-02,2.120819315314292908e-02,2.758762799203395844e-02
6.258440017700195312e-02,-1.812440901994705200e-02,-1.270583923906087875e-02,3.265580534934997559e-02,-6.327044684439897537e-03,2.471535094082355499e-02,2.525292523205280304e-02,-4.598037898540496826e-02,1.678081788122653961e-02,1.266718655824661255e-02,3.919532895088195801e-02,5.606792401522397995e-03,1.463891938328742981e-02,-5.047394707798957825e-02,3.961492329835891724e-02,5.116847157478332520e-02,1.683138497173786163e-02,4.906248673796653748e-02
5.542868375778198242e-02,-1.742878369987010956e-02,-1.709635742008686066e-02,2.725268341600894928e-02,-7.298747077584266663e-03,2.004379406571388245e-02,1.933386735618114471e-02,-4.126097634434700012e-02,2.259292639791965485e-02,8.216423913836479187e-03,4.010778665542602539e-02,5.575585644692182541e-03,1.053097750991582870e-02,-4.246626421809196472e-02,4.923094063997268677e-02,4.955369606614112854e-02,2.277036570012569427e-02,4.305488243699073792e-02
6.898424774408340454e-02,-1.463322620838880539e-02,-2.715845964848995209e-02,2.707011252641677856e-02,-1.366399507969617844e-02,1.222509145736694336e-02,2.479775995016098022e-02,-4.446794465184211731e-02,2.895760908722877502e-02,1.751240529119968414e-02,6.057823076844215393e-02,1.512634474784135818e-02,1.354337297379970551e-02,-5.951753631234169006e-02,4.367213696241378784e-02,6.263551115989685059e-02,1.404276024550199509e-02,6.131511926651000977e-02
2.269841283559799194e-01,-1.105061545968055725e-01,-1.297258734703063965e-01,1.234005093574523926e-01,-1.389682292938232422e-01,2.842657454311847687e-02,1.418163627386093140e-01,-1.932260990142822266e-01,1.554889138787984848e-02,1.022123247385025024e-01,1.590724736452102661e-01,7.485426217317581177e-02,-9.307328611612319946e-02,-2.208210080862045288e-01,-4.977623932063579559e-03,2.186904251575469971e-01,-3.935701772570610046e-02,2.148952931165695190e-01
9.360561519861221313e-02,-1.718227751553058624e-02,-3.513874113559722900e-02,2.010760270059108734e-02,-4.250907897949218750e-02,-2.488191612064838409e-02,3.328504785895347595e-02,-5.484836548566818237e-02,1.853717491030693054e-02,4.732381552457809448e-02,8.145089447498321533e-02,2.654446102678775787e-02,6.703692954033613205e-03,-7.781406491994857788e-02,1.906327158212661743e-02,7.900531589984893799e-02,9.817144833505153656e-03,7.936263829469680786e-02
-1.937197335064411163e-02,4.739133641123771667e-02,7.959465496242046356e-03,-2.441603690385818481e-03,1.915274746716022491e-02,6.908977520652115345e-04,-3.855239367112517357e-03,1.933805458247661591e-02,-5.185112357139587402e-02,-2.542691677808761597e-02,-6.365507841110229492e-02,4.471649974584579468e-02,1.143948547542095184e-02,2.061787247657775879e-02,-5.746165290474891663e-02,-2.400203980505466461e-02,6.164823099970817566e-02,-8.832097984850406647e-03
-3.929419443011283875e-03,5.712540149688720703e-01,-5.635005831718444824e-01,6.252628564834594727e-01,3.742220103740692139e-01,7.362082004547119141e-01,5.231457352638244629e-01,-4.090436398983001709e-01,-4.694110155105590820e-01,-6.705672144889831543e-01,-5.426484942436218262e-01,5.620606541633605957e-01,-2.110288292169570923e-01,-2.499331533908843994e-02,-3.128739893436431885e-01,1.082715094089508057e-01,6.952071785926818848e-01,1.519304364919662476e-01
-3.097607009112834930e-02,4.594556242227554321e-02,1.121244486421346664e-02,-9.867473505437374115e-03,3.519608825445175171e-02,1.862027123570442200e-02,-1.335632521659135818e-02,2.078909426927566528e-02,-2.064041607081890106e-02,-3.316983580589294434e-02,-6.386476010084152222e-02,-6.314915604889392853e-03,1.966805197298526764e-02,3.333890438079833984e-02,5.566582549363374710e-03,-3.070119954645633698e-02,4.818983003497123718e-02,-3.377410024404525757e-02
-3.394488245248794556e-02,2.756772562861442566e-03,3.031079284846782684e-02,-2.775707980617880821e-03,3.338260203599929810e-02,3.188993409276008606e-02,-3.506318479776382446e-02,1.579330302774906158e-02,8.041460067033767700e-02,-1.069658435881137848e-02,5.802446603775024414e-02,-8.611039072275161743e-02,3.149264678359031677e-02,2.012178860604763031e-02,7.571309804916381836e-02,-2.310581877827644348e-02,-6.308449804782867432e-02,-3.386379033327102661e-02
-4.376029223203659058e-02,4.685760661959648132e-02,-2.145460993051528931e-02,6.121094152331352234e-02,6.542817503213882446e-02,1.295019984245300293e-01,5.418417975306510925e-03,-1.159878540784120560e-02,2.939201332628726959e-02,-7.978267967700958252e-02,1.104255858808755875e-02,-4.860538616776466370e-02,1.485711522400379181e-02,1.951737888157367706e-02,4.803977534174919128e-02,-2.035471610724925995e-02,-1.651733531616628170e-03,-3.054415620863437653e-02
-5.611956492066383362e-02,3.551200032234191895e-02,1.025442685931921005e-02,2.028728835284709930e-02,8.061081916093826294e-02,9.798241406679153442e-02,-2.016716822981834412e-02,1.028377562761306763e-02,4.775764793157577515e-02,-7.220797985792160034e-02,-4.415861330926418304e-03,-8.472723513841629028e-02,3.650148585438728333e-02,4.202797263860702515e-02,9.005159139633178711e-02,-4.036804661154747009e-02,1.319762319326400757e-03,-5.610600486397743225e-02
-6.253562867641448975e-02,-3.817454725503921509e-02,7.461945712566375732e-02,-5.242280289530754089e-02,6.658079475164413452e-02,-1.028757542371749878e-02,-7.536172121763229370e-02,4.896661639213562012e-02,9.192015230655670166e-02,5.952205043286085129e-03,4.285058379173278809e-02,-1.381432712078094482e-01,6.379022449254989624e-02,5.106504634022712708e-02,1.377548873424530029e-01,-5.116225033998489380e-02,-7.531277835369110107e-02,-7.933622598648071289e-02
-5.987958982586860657e-02,-2.416899502277374268e-01,3.388100862503051758e-01,-3.861960470676422119e-01,-1.437442749738693237e-01,-4.347867071628570557e-01,-3.198392093181610107e-01,3.084675967693328857e-01,2.060502916574478149e-01,2.989141047000885010e-01,2.071000337600708008e-01,-3.100732862949371338e-01,1.992248445749282837e-01,1.136440336704254150e-01,1.801057606935501099e-01,-1.449008285999298096e-01,-3.176469504833221436e-01,-1.551371663808822632e-01
-6.180519610643386841e-02,-1.688068062067031860e-01,2.590951919555664062e-01,-3.016980588436126709e-01,-8.438833057880401611e-02,-3.408575057983398438e-01,-2.566900551319122314e-01,2.534660696983337402e-01,1.442346870899200439e-01,2.184515893459320068e-01,1.365166008472442627e-01,-2.366397082805633545e-01,1.608782857656478882e-01,1.088789477944374084e-01,1.357370465993881226e-01,-1.254852712154388428e-01,-2.353752851486206055e-01,-1.376103758811950684e-01
-7.563731819391250610e-02,-8.987813442945480347e-02,2.161808013916015625e-01,-2.733636796474456787e-01,-6.147551164031028748e-02,-3.074422180652618408e-01,-2.256426215171813965e-01,2.578525245189666748e-01,5.336372554302215576e-02,1.618618816137313843e-01,4.134498536586761475e-02,-1.653108894824981689e-01,1.448864489793777466e-01,1.399911493062973022e-01,6.222938001155853271e-02,-1.509880870580673218e-01,-1.417316794395446777e-01,-1.515063792467117310e-01
-8.125931769609451294e-02,-1.896052807569503784e-01,3.189457058906555176e-01,-3.690436482429504395e-01,-8.500653505325317383e-02,-4.071508944034576416e-01,-3.030897080898284912e-01,2.925729453563690186e-01,1.738674193620681763e-01,2.551296949386596680e-01,1.549239158630371094e-01,-2.906784117221832275e-01,1.958478093147277832e-01,1.381914168596267700e-01,1.768232583999633789e-01,-1.571275442838668823e-01,-2.647840380668640137e-01,-1.714325249195098877e-01
7.875167578458786011e-02,1.388300955295562744e-01,-2.756655216217041016e-01,3.393313586711883545e-01,8.354661613702774048e-02,3.746810853481292725e-01,2.728489041328430176e-01,-2.922199964523315430e-01,-1.222643181681632996e-01,-2.122046500444412231e-01,-1.061532795429229736e-01,2.338150888681411743e-01,-1.833982616662979126e-01,-1.432876884937286377e-01,-1.276815682649612427e-01,1.562450975179672241e-01,2.089261412620544434e-01,1.630937010049819946e-01
9.486209601163864136e-02,-2.713332325220108032e-02,-9.496174752712249756e-02,1.420195698738098145e-01,-3.368342667818069458e-02,1.460322439670562744e-01,1.389877498149871826e-01,-1.893177330493927002e-01,2.594921737909317017e-02,-3.009504638612270355e-02,6.005453318357467651e-02,5.385285615921020508e-02,-9.582818299531936646e-02,-1.414701044559478760e-01,-5.328243132680654526e-04,1.375077366828918457e-01,1.122430898249149323e-02,1.380389183759689331e-01
9.259208291769027710e-02,-2.854163199663162231e-02,-9.337224066257476807e-02,1.368517726659774780e-01,-3.587450832128524780e-02,1.400496512651443481e-01,1.371351331472396851e-01,-1.895043402910232544e-01,2.897969447076320648e-02,-2.557645551860332489e-02,6.308180838823318481e-02,5.328903719782829285e-02,-9.351801127195358276e-02,-1.427117437124252319e-01,1.410151366144418716e-03,1.387558132410049438e-01,5.282398778945207596e-03,1.409345865249633789e-01
9.345491975545883179e-02,-2.938326820731163025e-02,-9.332489222288131714e-02,1.376489549875259399e-01,-3.665737807750701904e-02,1.402297914028167725e-01,1.369104236364364624e-01,-1.861893832683563232e-01,2.808204665780067444e-02,-2.454196102917194366e-02,6.247160211205482483e-02,5.204712599515914917e-02,-9.602905064821243286e-02,-1.424538791179656982e-01,-7.813214906491339207e-04,1.382132470607757568e-01,6.221340037882328033e-03,1.394345462322235107e-01
9.653402119874954224e-02,-3.099605254828929901e-02,-9.256693720817565918e-02,1.384019106626510620e-01,-3.489408642053604126e-02,1.423597931861877441e-01,1.364046633243560791e-01,-1.898879706859588623e-01,2.873496152460575104e-02,-2.357806079089641571e-02,6.660293042659759521e-02,5.449620261788368225e-02,-9.496617317199707031e-02,-1.421987265348434448e-01,1.801746198907494545e-03,1.385923027992248535e-01,5.101446062326431274e-03,1.411749869585037231e-01
9.907774627208709717e-02,-3.196172416210174561e-02,-9.579549729824066162e-02,1.360357552766799927e-01,-3.672026097774505615e-02,1.423164755105972290e-01,1.371072381734848022e-01,-1.897436529397964478e-01,2.825469337403774261e-02,-2.466166950762271881e-02,6.780420243740081787e-02,5.584433302283287048e-02,-9.585234522819519043e-02,-1.444542258977890015e-01,-2.640075108502060175e-04,1.412537395954132080e-01,3.308886429294943810e-03,1.410453617572784424e-01
-9.925010055303573608e-02,3.231727331876754761e-02,9.771347790956497192e-02,-1.386672854423522949e-01,4.214785993099212646e-02,-1.391424834728240967e-01,-1.375398337841033936e-01,1.907431483268737793e-01,-2.809290774166584015e-02,2.246441878378391266e-02,-6.781824678182601929e-02,-5.829253047704696655e-02,9.876356273889541626e-02,1.482373625040054321e-01,1.346363336779177189e-03,-1.445908993482589722e-01,-4.199331626296043396e-03,-1.441352963447570801e-01
-9.523395448923110962e-02,3.079329989850521088e-02,9.700556844472885132e-02,-1.386829465627670288e-01,3.563230112195014954e-02,-1.401343792676925659e-01,-1.367011964321136475e-01,1.908736974000930786e-01,-2.883930690586566925e-02,2.623369917273521423e-02,-6.302814930677413940e-02,-5.407300591468811035e-02,9.595927596092224121e-02,1.415545344352722168e-01,-6.988469976931810379e-04,-1.406872123479843140e-01,-7.653946056962013245e-03,-1.416366547346115112e-01
-1.327487081289291382e-02,5.176892504096031189e-02,-2.766051888465881348e-02,3.515848889946937561e-02,2.568812295794487000e-02,4.107993096113204956e-02,3.403085470199584961e-02,-2.858228795230388641e-02,-5.315038189291954041e-02,-3.501064702868461609e-02,-5.655543878674507141e-02,4.236779361963272095e-02,-1.524771470576524734e-02,5.716324783861637115e-03,-3.323281556367874146e-02,3.952422703150659800e-04,5.308456718921661377e-02,8.553500287234783173e-03
9.602771140635013580e-03,5.685381591320037842e-03,5.750922486186027527e-03,-1.087474822998046875e-02,-3.753484226763248444e-03,-1.355734560638666153e-02,-1.687937881797552109e-03,4.964402760379016399e-04,1.379929576069116592e-02,1.339575089514255524e-02,2.016377821564674377e-02,9.638557821745052934e-05,1.361191272735595703e-02,-3.936062275897711515e-04,-6.235858425498008728e-03,-3.351247170940041542e-03,5.924159195274114609e-03,4.683131817728281021e-03
-1.028927508741617203e-02,1.891860621981322765e-03,1.283939927816390991e-02,-1.042611617594957352e-02,8.709182031452655792e-03,-8.242393843829631805e-03,-8.796541020274162292e-03,1.051540765911340714e-02,1.965527981519699097e-02,1.810246496461331844e-03,6.176592316478490829e-03,-6.556489970535039902e-03,1.279886532574892044e-02,2.803666284307837486e-03,4.897458013147115707e-03,-8.236459456384181976e-03,-5.568121559917926788e-03,-6.076104473322629929e-03
-3.229367313906550407e-03,1.130336336791515350e-02,1.067730784416198730e-02,-9.690529666841030121e-03,1.352851558476686478e-02,-5.035219714045524597e-03,-1.485446654260158539e-02,1.622983068227767944e-02,5.710747092962265015e-03,-1.495564007200300694e-03,1.215686369687318802e-02,-6.551438011229038239e-03,2.494097873568534851e-02,1.035657129250466824e-03,8.548225276172161102e-03,-6.560081616044044495e-03,5.561032798141241074e-03,2.686335064936429262e-04
-1.316451467573642731e-02,4.477007780224084854e-03,2.763099037110805511e-03,-2.197495196014642715e-03,1.702544977888464928e-03,1.200398983201012015e-04,-1.891509018605574965e-04,3.151278244331479073e-03,7.017660420387983322e-03,-1.042949617840349674e-03,-4.971948917955160141e-03,-6.002971786074340343e-04,3.957360750064253807e-04,1.332885865122079849e-02,-1.059328089468181133e-03,-1.146836765110492706e-02,4.743854515254497528e-03,-1.248539239168167114e-02
4.899624269455671310e-03,-1.161884982138872147e-03,-1.769106020219624043e-03,-1.732332748360931873e-03,1.719103311188519001e-03,1.705141388811171055e-03,2.861481625586748123e-03,-7.453970611095428467e-04,-5.573836620897054672e-03,-1.516312127932906151e-03,-6.775472778826951981e-03,-3.262101439759135246e-03,-2.165876328945159912e-03,-5.885333288460969925e-03,4.669160582125186920e-03,4.643418826162815094e-03,-2.923313761129975319e-03,1.748527283780276775e-03
-4.326897207647562027e-03,-2.936396514996886253e-03,7.078875787556171417e-03,-1.719692535698413849e-02,-1.278491341508924961e-03,-2.101400867104530334e-02,-1.181531138718128204e-02,1.084930263459682465e-02,1.382448151707649231e-02,1.616236008703708649e-02,1.112828310579061508e-02,-1.789834350347518921e-02,1.168602984398603439e-02,3.712253412231802940e-03,1.051739417016506195e-02,-4.918683320283889771e-03,-2.070261351764202118e-02,-7.562593556940555573e-03
7.583054830320179462e-04,2.135446062311530113e-03,-2.152995904907584190e-03,2.741606673225760460e-03,1.710331300273537636e-03,1.768450252711772919e-03,-9.380202973261475563e-04,-1.821960904635488987e-03,1.197427263832651079e-04,-3.114007646217942238e-03,-4.551567602902650833e-03,1.700880005955696106e-03,-1.379303866997361183e-03,-3.761437721550464630e-03,-3.328551538288593292e-03,-7.134723273338750005e-05,3.508019493892788887e-03,9.721632814034819603e-04
2.516949083656072617e-03,-1.566428132355213165e-02,1.102804113179445267e-02,-1.373360119760036469e-02,-7.997025735676288605e-03,-2.364570647478103638e-02,-7.653010543435811996e-03,4.929447546601295471e-03,2.440409921109676361e-02,1.813434436917304993e-02,3.492155671119689941e-02,-1.419142447412014008e-02,2.559580141678452492e-03,-5.891718436032533646e-03,8.282252587378025055e-03,4.283641465008258820e-03,-3.286362066864967346e-02,5.241604987531900406e-03
-1.211808645166456699e-03,-5.706436932086944580e-03,8.432897739112377167e-03,-1.167971175163984299e-02,-9.907615603879094124e-04,-1.633089967072010040e-02,-8.360092528164386749e-03,7.779834326356649399e-03,1.746008545160293579e-02,7.269487250596284866e-03,2.155856415629386902e-02,-1.159342564642429352e-02,5.599039606750011444e-03,1.356967957690358162e-03,1.032399293035268784e-02,-2.107620006427168846e-03,-2.220292948186397552e-02,-4.286157432943582535e-03
1.182405394501984119e-03,1.024749130010604858e-03,4.353813361376523972e-03,-7.418899331241846085e-03,-3.256898373365402222e-03,-1.352694723755121231e-02,-2.447866369038820267e-03,1.419631298631429672e-03,6.516597233712673187e-03,8.053764700889587402e-03,1.745823957026004791e-02,-1.501263119280338287e-03,3.798690158873796463e-03,-2.523832255974411964e-03,7.906832615844905376e-04,7.045622915029525757e-04,-8.033009245991706848e-03,2.557554747909307480e-03
-1.024916418828070164e-04,-1.116525754332542419e-02,8.241669274866580963e-03,-1.275218557566404343e-02,-1.406283117830753326e-03,-6.896390113979578018e-03,-4.949373193085193634e-03,4.219152033329010010e-03,1.332684978842735291e-02,5.365375895053148270e-03,1.471184100955724716e-02,-1.429484877735376358e-02,6.211754865944385529e-03,2.292660064995288849e-03,1.814646460115909576e-02,-2.056130440905690193e-03,-1.798177510499954224e-02,-2.311920979991555214e-03
1.047941204160451889e-02,-2.700291015207767487e-02,2.033422142267227173e-02,-2.312950044870376587e-02,-1.464155409485101700e-02,-2.801550552248954773e-02,-8.596955798566341400e-03,5.872900946997106075e-04,2.541194856166839600e-02,2.703886292874813080e-02,3.509202226996421814e-02,-2.236716821789741516e-02,6.382140796631574631e-03,-6.658901460468769073e-03,2.607329376041889191e-02,4.708074498921632767e-03,-3.212377801537513733e-02,6.157703232020139694e-03
2.561027929186820984e-02,-2.574507147073745728e-02,-8.760716766119003296e-03,8.975496515631675720e-03,-2.193219400942325592e-02,-1.964740920811891556e-03,1.417963951826095581e-02,-2.081898972392082214e-02,1.729820505715906620e-03,1.390942092984914780e-02,2.581264264881610870e-02,-2.308949828147888184e-03,-1.552182063460350037e-02,-2.252443693578243256e-02,1.124119479209184647e-02,2.203102037310600281e-02,-1.913968846201896667e-02,2.152543328702449799e-02
1.518678292632102966e-02,-3.866120055317878723e-02,2.335800789296627045e-02,-2.658811584115028381e-02,-2.071065641939640045e-02,-4.458290711045265198e-02,-1.221400592476129532e-02,1.024842611514031887e-03,3.904753923416137695e-02,3.604189306497573853e-02,5.155961588025093079e-02,-3.020743466913700104e-02,5.121800117194652557e-03,-1.179445162415504456e-02,3.153805807232856750e-02,1.205605082213878632e-02,-4.788272827863693237e-02,7.318504154682159424e-03
1.466694008558988571e-02,-3.899546712636947632e-02,2.054512500762939453e-02,-2.895194664597511292e-02,-2.086775936186313629e-02,-4.288183897733688354e-02,-8.379572071135044098e-03,6.346954614855349064e-04,3.236526623368263245e-02,3.450892493128776550e-02,4.873754084110260010e-02,-3.171981498599052429e-02,4.456752445548772812e-03,-1.003551110625267029e-02,3.116886317729949951e-02,1.159985363483428955e-02,-4.663898423314094543e-02,9.262304753065109253e-03
-9.535943157970905304e-03,3.009456582367420197e-02,-1.601235009729862213e-02,2.065368555486202240e-02,1.356607861816883087e-02,3.084365837275981903e-02,6.534256041049957275e-03,1.783820334821939468e-03,-3.503601998090744019e-02,-2.650650031864643097e-02,-4.548518359661102295e-02,2.708994224667549133e-02,-5.355725530534982681e-03,9.751535020768642426e-03,-3.192920982837677002e-02,-9.610667824745178223e-03,3.795246407389640808e-02,-4.966656211763620377e-03
-1.763118617236614227e-02,4.603333771228790283e-02,-2.414510399103164673e-02,3.224321827292442322e-02,2.364980988204479218e-02,5.290988460183143616e-02,1.246195100247859955e-02,-9.018724667839705944e-04,-4.194766283035278320e-02,-4.084350541234016418e-02,-6.142918020486831665e-02,3.407715633511543274e-02,-4.759829491376876831e-03,1.375179924070835114e-02,-3.661328181624412537e-02,-1.106923818588256836e-02,6.208880618214607239e-02,-1.040194462984800339e-02
-5.790674127638339996e-03,1.648563519120216370e-02,2.112599834799766541e-02,-1.977126300334930420e-02,3.734370321035385132e-02,-2.678313851356506348e-02,-3.164741769433021545e-02,1.573286764323711395e-02,9.070456027984619141e-02,-1.259264629334211349e-02,7.227516174316406250e-02,-2.573965489864349365e-02,4.198551923036575317e-02,8.228157646954059601e-03,5.920259281992912292e-02,-6.576053332537412643e-03,-2.689903834834694862e-03,-1.684074522927403450e-04
1.130643859505653381e-02,-2.186854137107729912e-03,3.148895688354969025e-03,1.239519752562046051e-02,5.531906150281429291e-03,5.330827087163925171e-03,-5.576156079769134521e-03,-1.071285270154476166e-02,5.545892193913459778e-02,8.380574174225330353e-03,6.898465007543563843e-02,5.605939775705337524e-03,1.412066631019115448e-02,-1.760394312441349030e-02,1.627790555357933044e-02,1.400767453014850616e-02,-1.116131618618965149e-02,2.297816611826419830e-02
-1.805350370705127716e-02,1.107717305421829224e-02,2.436967380344867706e-02,-1.829849928617477417e-02,2.585926651954650879e-02,-2.288680989295244217e-03,-1.287082489579916000e-02,1.263369526714086533e-02,3.221819549798965454e-02,4.037673352286219597e-04,2.227803692221641541e-02,-1.544950157403945923e-02,2.915482036769390106e-02,1.426512561738491058e-02,2.293815650045871735e-02,-1.581112667918205261e-02,6.388223730027675629e-03,-1.349772419780492783e-02
-8.909858763217926025e-03,1.238700561225414276e-02,7.824396714568138123e-03,-1.508053275756537914e-03,1.816269755363464355e-02,2.231780905276536942e-03,-1.329203322529792786e-02,9.512510150671005249e-03,2.952828072011470795e-02,-3.759062616154551506e-03,3.744989261031150818e-02,-2.294780220836400986e-03,2.630080655217170715e-02,-1.567178172990679741e-03,9.527847170829772949e-03,-1.400592853315174580e-03,-1.346166618168354034e-02,1.248619635589420795e-03
-1.306061260402202606e-02,2.272950718179345131e-03,1.616378501057624817e-02,-7.673582062125205994e-03,1.621515862643718719e-02,9.982236661016941071e-03,-1.028328109532594681e-02,6.207974161952733994e-03,3.112634643912315369e-02,-5.960058420896530151e-03,2.062586694955825806e-02,-1.942565292119979858e-02,1.805337332189083099e-02,7.031751796603202820e-03,2.902707830071449280e-02,-5.206807982176542282e-03,-4.820092115551233292e-03,-7.228191941976547241e-03
-1.435793470591306686e-02,6.680676247924566269e-03,2.022243477404117584e-02,-5.465107504278421402e-03,1.519201602786779404e-02,3.603392280638217926e-03,-1.255833078175783157e-02,8.572695776820182800e-03,1.572882011532783508e-02,-6.152517627924680710e-03,6.487602367997169495e-03,-1.884608156979084015e-02,1.920093223452568054e-02,1.154912728816270828e-02,1.655502431094646454e-02,-1.432679127901792526e-02,-7.144473493099212646e-04,-1.253029052168130875e-02
-1.888703438453376293e-03,-6.084046792238950729e-03,1.177051011472940445e-02,-6.856343825347721577e-04,2.712616696953773499e-03,-1.208198955282568932e-03,6.703165126964449883e-04,-3.077593864873051643e-03,2.183154225349426270e-02,8.669575909152626991e-04,1.086148060858249664e-02,-6.711962167173624039e-03,4.221599549055099487e-03,-9.543937048874795437e-04,8.814068511128425598e-03,-2.926569432020187378e-03,-4.155530594289302826e-03,-2.301183529198169708e-03
-1.113308314234018326e-02,-7.109009660780429840e-03,2.612409740686416626e-02,-1.827730424702167511e-02,1.533600594848394394e-02,-1.227075979113578796e-02,-2.126902900636196136e-02,1.589599624276161194e-02,4.407500103116035461e-02,6.589532364159822464e-03,2.070420980453491211e-02,-2.545996569097042084e-02,2.681131102144718170e-02,9.172395803034305573e-03,3.974198177456855774e-02,-1.138927973806858063e-02,-1.833761110901832581e-02,-1.289739739149808884e-02
2.240242250263690948e-02,-3.438433632254600525e-02,2.528753876686096191e-02,-1.984516158699989319e-02,-1.929290406405925751e-02,-3.060311265289783478e-02,-1.560815330594778061e-02,3.731298027560114861e-03,3.182738646864891052e-02,2.650986239314079285e-02,2.375208027660846710e-02,-1.710934750735759735e-02,-1.026222947984933853e-03,-1.303789485245943069e-02,2.030167542397975922e-02,1.579801179468631744e-02,-2.210432477295398712e-02,7.104430347681045532e-03
-8.468737825751304626e-03,-1.906338334083557129e-02,4.119924083352088928e-02,-2.751095965504646301e-02,8.604299277067184448e-03,-2.363569103181362152e-02,-3.298930078744888306e-02,2.680543810129165649e-02,2.821135520935058594e-02,1.448937971144914627e-02,1.528996508568525314e-02,-2.322734706103801727e-02,2.344693988561630249e-02,1.379038952291011810e-02,1.857988722622394562e-02,-1.378006022423505783e-02,-1.529164332896471024e-02,-2.019594423472881317e-02
-2.429917268455028534e-02,2.044818922877311707e-02,1.261887047439813614e-02,-1.030488777905702591e-02,2.382936142385005951e-02,-4.038878250867128372e-03,-1.361142937093973160e-02,2.219843864440917969e-02,-2.531782165169715881e-02,-8.949385024607181549e-03,-2.719491161406040192e-02,7.133466657251119614e-03,1.444078795611858368e-02,2.951505035161972046e-02,-2.440243773162364960e-02,-3.313736990094184875e-02,1.771406643092632294e-02,-2.595165930688381195e-02
4.708845168352127075e-02,5.920488853007555008e-03,-4.222178086638450623e-02,3.029354289174079895e-02,-2.700412645936012268e-02,1.864072494208812714e-02,3.916294872760772705e-02,-2.864478901028633118e-02,-1.010749340057373047e-01,-2.915092743933200836e-03,-6.319908052682876587e-02,6.035140156745910645e-02,-5.674521997570991516e-02,-2.355097047984600067e-02,-9.166244417428970337e-02,3.091382049024105072e-02,5.081342160701751709e-02,3.329689055681228638e-02
-2.471201494336128235e-02,5.275494977831840515e-02,-1.594715937972068787e-02,1.592895574867725372e-02,2.453703433275222778e-02,1.377974636852741241e-02,-1.471409108489751816e-03,3.145777806639671326e-02,-9.114527702331542969e-02,-3.185828030109405518e-02,-8.202161639928817749e-02,5.590723082423210144e-02,-2.283264696598052979e-02,5.971335992217063904e-02,-9.497688710689544678e-02,-4.736622422933578491e-02,6.176355853676795959e-02,-4.101486504077911377e-02
-2.608821261674165726e-03,2.305100485682487488e-02,-3.050757013261318207e-02,4.031127318739891052e-02,3.694176301360130310e-02,4.093632847070693970e-02,1.455755159258842468e-02,-3.249147906899452209e-03,-5.563363805413246155e-02,-4.236595705151557922e-02,-5.315009877085685730e-02,4.033217579126358032e-02,-4.393317177891731262e-02,1.840232126414775848e-02,-5.573437362909317017e-02,-7.146426476538181305e-03,4.112442955374717712e-02,-1.212577149271965027e-02
-1.026974525302648544e-02,-3.005021018907427788e-03,1.773646072251722217e-04,3.259766148403286934e-03,2.064123935997486115e-02,5.479753017425537109e-03,-6.155061069875955582e-03,8.589758537709712982e-03,-5.640781950205564499e-03,-8.454634808003902435e-03,-5.967496428638696671e-03,-9.060056880116462708e-03,-8.170410059392452240e-03,1.949783600866794586e-02,-1.117649860680103302e-02,-1.473659183830022812e-02,-2.528698882088065147e-03,-1.907515525817871094e-02
-5.976680666208267212e-03,-2.773524448275566101e-02,2.919428981840610504e-02,-2.774124592542648315e-02,-5.216242279857397079e-03,-2.545507252216339111e-02,-3.136745467782020569e-02,2.529899589717388153e-02,1.807121559977531433e-02,1.377492770552635193e-02,2.172082103788852692e-02,-3.986417874693870544e-02,1.467730849981307983e-02,1.009140163660049438e-02,2.920434437692165375e-02,-1.247199345380067825e-02,-3.527378290891647339e-02,-2.527452446520328522e-02
-3.327144542708992958e-03,-2.456815540790557861e-02,2.487672120332717896e-02,-3.287839889526367188e-02,-2.059887908399105072e-02,-3.011886775493621826e-02,-2.276323921978473663e-02,2.218532748520374298e-02,1.120379474014043808e-02,1.441429462283849716e-02,1.924451999366283417e-02,-3.413664549589157104e-02,1.253902260214090347e-02,3.930520731955766678e-03,2.213912084698677063e-02,-7.525046821683645248e-03,-3.093265183269977570e-02,-1.605827547609806061e-02
4.086415097117424011e-02,1.685938239097595215e-02,-4.359185695648193359e-02,6.198808923363685608e-02,9.968973696231842041e-03,5.493605881929397583e-02,4.280026257038116455e-02,-4.938963428139686584e-02,-2.946179360151290894e-02,-3.085985034704208374e-02,-3.605306521058082581e-02,5.649433284997940063e-02,-4.847785457968711853e-02,-4.060458764433860779e-02,-5.165695771574974060e-02,4.439989104866981506e-02,4.701673239469528198e-02,4.493238776922225952e-02
-1.086721196770668030e-02,2.712170965969562531e-02,2.172777429223060608e-02,-1.927223987877368927e-02,3.760465234518051147e-02,-2.091996744275093079e-02,-2.972405590116977692e-02,1.261660456657409668e-02,7.125319540500640869e-02,-6.013362668454647064e-03,5.650503560900688171e-02,-1.709619164466857910e-02,3.599547594785690308e-02,1.307091303169727325e-02,3.275125473737716675e-02,-1.094014476984739304e-02,8.836235851049423218e-03,-4.958390723913908005e-03
5.060044350102543831e-04,8.134347386658191681e-03,1.153870392590761185e-02,3.255618037655949593e-03,1.522337924689054489e-02,1.896558329463005066e-03,-1.922317780554294586e-02,1.454373006708920002e-03,5.799035727977752686e-02,5.634503439068794250e-03,6.326303631067276001e-02,-4.085225984454154968e-03,2.173479087650775909e-02,-6.387331523001194000e-03,2.155758813023567200e-02,3.768407739698886871e-03,-3.911834210157394409e-03,1.197560038417577744e-02
-1.216452475637197495e-02,7.379093673080205917e-03,1.933557167649269104e-02,-1.092254091054201126e-02,1.839812472462654114e-02,-1.460953266359865665e-03,-9.972581639885902405e-03,7.911417633295059204e-03,3.032559901475906372e-02,6.743965786881744862e-04,2.802379429340362549e-02,-1.013149134814739227e-02,2.524317428469657898e-02,8.086887188255786896e-03,1.758852973580360413e-02,-8.716226555407047272e-03,-5.255122669041156769e-04,-5.641077645123004913e-03
1.459903432987630367e-03,3.561584278941154480e-03,2.470194594934582710e-03,5.577347707003355026e-03,5.670463200658559799e-03,-2.057566307485103607e-03,-6.057263817638158798e-03,-1.492313807830214500e-03,2.370765805244445801e-02,5.677422042936086655e-03,4.287938773632049561e-02,5.453730002045631409e-03,1.616293378174304962e-02,-1.070246193557977676e-02,4.200061317533254623e-03,8.899638429284095764e-03,-1.953405328094959259e-02,1.205711346119642258e-02
6.927920971065759659e-03,-1.155594922602176666e-02,1.406159251928329468e-03,5.639870651066303253e-03,-3.912082756869494915e-04,6.703649647533893585e-03,3.054934553802013397e-03,-6.890154909342527390e-03,2.059130184352397919e-02,5.592412315309047699e-03,2.850462682545185089e-02,-3.369535785168409348e-03,4.341621417552232742e-03,-1.009943336248397827e-02,1.475533191114664078e-02,1.201666146516799927e-02,-1.170775294303894043e-02,1.007440034300088882e-02
-5.912484601140022278e-03,1.305047539062798023e-03,1.023233029991388321e-02,-7.970576407387852669e-04,8.382353000342845917e-03,6.796721369028091431e-03,-3.942034672945737839e-03,5.633700056932866573e-04,1.215565763413906097e-02,-1.276008319109678268e-03,7.871106266975402832e-03,-1.080131530761718750e-02,1.121696364134550095e-02,5.217151716351509094e-03,1.182206161320209503e-02,-6.908669136464595795e-03,-1.309552812017500401e-03,-4.387131426483392715e-03
-1.277069933712482452e-02,2.660315949469804764e-03,1.255937386304140091e-02,-3.297053975984454155e-03,1.034098211675882339e-02,5.541527178138494492e-03,-2.173775108531117439e-03,5.049814004451036453e-03,2.060749195516109467e-02,-5.709636490792036057e-03,6.403198931366205215e-03,-1.297892164438962936e-02,1.088680047541856766e-02,9.745061397552490234e-03,1.703190617263317108e-02,-1.149433664977550507e-02,-1.530339242890477180e-03,-8.075192570686340332e-03
-1.493933983147144318e-02,9.874669834971427917e-03,1.951718144118785858e-02,-9.719701483845710754e-03,2.602272853255271912e-02,4.025489091873168945e-03,-1.695679873228073120e-02,1.576191000640392303e-02,3.551366925239562988e-02,-1.214084401726722717e-02,6.855971645563840866e-03,-1.776154711842536926e-02,2.652898244559764862e-02,1.328111253678798676e-02,4.379339516162872314e-02,-1.514721848070621490e-02,2.070300513878464699e-03,-1.881686225533485413e-02
7.624160964041948318e-03,-6.969570182263851166e-03,1.765676029026508331e-02,-9.125771000981330872e-03,2.532354323193430901e-03,-6.691070739179849625e-04,-9.138317778706550598e-03,2.313446719199419022e-03,2.433827705681324005e-02,1.268036314286291599e-03,9.025271050631999969e-03,-1.269318256527185440e-02,1.158993970602750778e-02,-3.169185947626829147e-03,3.774601593613624573e-02,6.025482900440692902e-03,4.775353241711854935e-03,-2.862858586013317108e-03
-4.325669631361961365e-02,1.877975463867187500e-02,5.295683816075325012e-02,-2.665344625711441040e-02,5.027183517813682556e-02,4.431833978742361069e-03,-4.601290449500083923e-02,4.683690518140792847e-02,4.575063660740852356e-02,-2.488103136420249939e-02,-2.570989541709423065e-03,-3.944586589932441711e-02,5.622365698218345642e-02,4.545355588197708130e-02,6.280738860368728638e-02,-4.573222994804382324e-02,1.318110153079032898e-02,-4.969144612550735474e-02
-2.255683206021785736e-02,5.021997261792421341e-03,3.755094856023788452e-02,-2.899956144392490387e-02,3.240656852722167969e-02,-1.162499375641345978e-02,-3.052125871181488037e-02,2.594017051160335541e-02,3.960313647985458374e-02,1.107736025005578995e-03,2.830373123288154602e-02,-3.838581591844558716e-02,5.002507567405700684e-02,2.287985943257808685e-02,5.056291073560714722e-02,-2.347482927143573761e-02,-7.913907058537006378e-03,-2.391739562153816223e-02
1.606843434274196625e-02,-1.919608749449253082e-02,2.385765127837657928e-02,-1.474609039723873138e-02,1.110946293920278549e-02,-2.747620455920696259e-03,-1.928295195102691650e-02,-2.099440171150490642e-04,1.549692079424858093e-02,1.572110503911972046e-02,3.259618207812309265e-02,-2.201451919972896576e-02,3.511139377951622009e-02,-6.990960333496332169e-03,3.633586317300796509e-02,7.086746860295534134e-03,2.351289149373769760e-03,1.805396052077412605e-03
-2.584573067724704742e-02,-3.983356582466512918e-04,5.963533371686935425e-02,-4.333431646227836609e-02,4.669385030865669250e-02,-2.755323797464370728e-02,-6.248938292264938354e-02,5.833874642848968506e-02,1.862351410090923309e-02,1.040324848145246506e-02,1.733733527362346649e-02,-3.822144493460655212e-02,7.085219770669937134e-02,4.386872053146362305e-02,4.087553173303604126e-02,-4.303971305489540100e-02,6.759937386959791183e-04,-4.813427850604057312e-02
3.805570537224411964e-03,-1.151391479652374983e-04,5.191816948354244232e-03,-1.953596714884042740e-03,1.691200397908687592e-02,-8.011283352971076965e-03,-1.830573566257953644e-02,1.980368979275226593e-02,-3.204778209328651428e-02,2.554447855800390244e-03,-1.946705207228660583e-02,1.246985234320163727e-02,-2.554430684540420771e-04,1.443466357886791229e-02,-2.332711964845657349e-02,-6.638596765697002411e-03,1.615863107144832611e-02,-1.328796241432428360e-02
-4.575163498520851135e-02,4.683319479227066040e-02,7.570366375148296356e-03,-1.423085201531648636e-02,5.086100473999977112e-02,-1.036869455128908157e-02,-2.612489461898803711e-02,5.211513489484786987e-02,-4.801117256283760071e-02,-2.212096191942691803e-02,-6.376482546329498291e-02,2.672886289656162262e-02,1.429589558392763138e-02,6.759368628263473511e-02,-6.286039203405380249e-02,-6.001461669802665710e-02,5.161216482520103455e-02,-5.119141191244125366e-02
-7.350488007068634033e-02,5.081202834844589233e-03,5.090914294123649597e-02,-3.963844850659370422e-02,8.149430155754089355e-02,-1.364019978791475296e-02,-6.360428035259246826e-02,7.625169306993484497e-02,3.073023073375225067e-02,-1.597349345684051514e-02,5.686102900654077530e-03,-5.433693900704383850e-02,6.441382318735122681e-02,8.864954113960266113e-02,4.675294458866119385e-02,-8.039132505655288696e-02,-1.494488213211297989e-02,-9.099560230970382690e-02
-1.239801198244094849e-02,-5.251633375883102417e-02,4.897530376911163330e-02,-4.549355059862136841e-02,-2.645835978910326958e-03,-4.019183292984962463e-02,-5.481440201401710510e-02,5.556408688426017761e-02,4.085374623537063599e-02,2.361905016005039215e-02,4.735745117068290710e-02,-6.954947113990783691e-02,3.334458544850349426e-02,2.617137320339679718e-02,5.257339030504226685e-02,-2.870192378759384155e-02,-5.956445634365081787e-02,-4.370671510696411133e-02
3.753727767616510391e-03,9.958579391241073608e-02,-7.780732959508895874e-02,9.344334155321121216e-02,5.021759867668151855e-02,1.215239688754081726e-01,7.664208114147186279e-02,-5.658175051212310791e-02,-1.178331822156906128e-01,-1.103949472308158875e-01,-1.489699035882949829e-01,1.199045330286026001e-01,-4.757585749030113220e-02,5.779808387160301208e-03,-9.333626180887222290e-02,8.405861444771289825e-03,1.708074808120727539e-01,1.790513470768928528e-02
-1.118129026144742966e-02,3.172473981976509094e-02,2.332790940999984741e-02,-2.038582600653171539e-02,3.989122435450553894e-02,-2.247643098235130310e-02,-2.856429666280746460e-02,1.384426094591617584e-02,7.850366830825805664e-02,-5.063066259026527405e-03,4.969399422407150269e-02,-1.516958419233560562e-02,4.360730201005935669e-02,9.881899692118167877e-03,3.850238025188446045e-02,-1.510463654994964600e-02,1.068995613604784012e-02,-6.726574152708053589e-03
-1.493010204285383224e-04,1.353512983769178391e-02,9.778521023690700531e-03,3.769030561670660973e-03,1.552305091172456741e-02,5.562433507293462753e-03,-1.614268124103546143e-02,-9.623861405998468399e-04,4.828614369034767151e-02,-1.926515600644052029e-03,6.024122610688209534e-02,2.680697944015264511e-03,2.120788767933845520e-02,-3.311013802886009216e-03,1.113548595458269119e-02,8.306175586767494678e-04,4.973147064447402954e-03,9.781454689800739288e-03
-1.092450506985187531e-02,5.801924038678407669e-03,1.905135810375213623e-02,-1.433540228754281998e-02,2.149100229144096375e-02,-1.384934177622199059e-03,-1.121944934129714966e-02,8.967897854745388031e-03,3.533114865422248840e-02,2.943840110674500465e-03,3.821980208158493042e-02,-1.331913750618696213e-02,2.570605836808681488e-02,8.937675505876541138e-03,2.447283081710338593e-02,-7.504620589315891266e-03,-6.242528092116117477e-03,-5.818743724375963211e-03
-2.134367357939481735e-03,2.822902984917163849e-03,3.315157024189829826e-03,1.037360867485404015e-03,4.704821389168500900e-03,-2.457969821989536285e-03,-4.901734646409749985e-03,-9.640494827181100845e-04,2.431438863277435303e-02,5.397712346166372299e-03,4.794793203473091125e-02,4.173444584012031555e-03,1.995983719825744629e-02,-1.074930746108293533e-02,5.288791842758655548e-03,6.868403404951095581e-03,-2.508393861353397369e-02,1.182822138071060181e-02
5.951026454567909241e-03,-1.034097187221050262e-02,3.884982434101402760e-04,6.656218320131301880e-03,-4.397201817482709885e-03,8.785680867731571198e-03,4.076574463397264481e-03,-1.141057815402746201e-02,2.314895018935203552e-02,7.562829181551933289e-03,3.399574756622314453e-02,-3.073949599638581276e-03,3.171851392835378647e-03,-1.489207334816455841e-02,1.118297781795263290e-02,1.323698554188013077e-02,-1.440334878861904144e-02,1.202972605824470520e-02
-8.718450553715229034e-04,-2.519991016015410423e-03,6.027170922607183456e-03,1.058200607076287270e-03,1.215723808854818344e-03,4.971775691956281662e-03,3.036161069758236408e-04,-4.457307513803243637e-03,9.856219403445720673e-03,2.234283601865172386e-03,1.049944199621677399e-02,-8.723575621843338013e-03,3.117349231615662575e-03,-2.641451545059680939e-03,4.402443766593933105e-03,3.474135301075875759e-04,-3.220001235604286194e-03,1.763533684425055981e-03
-2.890762872993946075e-03,-1.251833280548453331e-03,9.066602215170860291e-03,1.328925485722720623e-03,4.526594653725624084e-03,4.019065294414758682e-03,3.037664573639631271e-03,-2.082555089145898819e-03,1.854474470019340515e-02,-2.486553508788347244e-03,7.893911562860012054e-03,-8.210023865103721619e-03,3.404126269742846489e-03,1.688489457592368126e-03,1.039629802107810974e-02,-3.328062128275632858e-03,-9.263698011636734009e-04,-2.478413283824920654e-03
-9.228137321770191193e-03,4.889037460088729858e-03,1.429002638906240463e-02,-2.392917405813932419e-03,1.664674468338489532e-02,7.616619579493999481e-03,-9.158155880868434906e-03,6.861919071525335312e-03,2.785696089267730713e-02,-8.427888154983520508e-03,6.447062827646732330e-03,-1.240478176623582840e-02,1.872254721820354462e-02,6.165083497762680054e-03,3.820541501045227051e-02,-6.847197655588388443e-03,9.466473711654543877e-04,-1.109333802014589310e-02
-8.618182502686977386e-03,6.640179548412561417e-03,2.511039935052394867e-02,-9.088648483157157898e-03,1.890546828508377075e-02,6.975039374083280563e-03,-1.674449816346168518e-02,1.325593702495098114e-02,2.986017428338527679e-02,-1.258951239287853241e-02,-2.836262807250022888e-03,-2.320368401706218719e-02,2.220950834453105927e-02,1.449400559067726135e-02,5.299982428550720215e-02,-1.031572930514812469e-02,1.412856671959161758e-02,-1.980209909379482269e-02
-4.127822443842887878e-02,2.564138174057006836e-02,4.629506170749664307e-02,-2.212151326239109039e-02,5.067042261362075806e-02,1.538472622632980347e-02,-4.003363847732543945e-02,3.881808370351791382e-02,4.481956735253334045e-02,-3.337211161851882935e-02,-1.008949335664510727e-02,-3.620703518390655518e-02,5.498856678605079651e-02,4.479549080133438110e-02,6.827095150947570801e-02,-4.097707942128181458e-02,2.050360105931758881e-02,-4.754184931516647339e-02
-1.640136167407035828e-02,1.195753365755081177e-02,2.932507731020450592e-02,-1.403616927564144135e-02,3.314394503831863403e-02,-8.042154368013143539e-04,-2.033285982906818390e-02,1.623261347413063049e-02,4.201662540435791016e-02,-4.254484549164772034e-03,2.460751868784427643e-02,-3.235879167914390564e-02,4.785856977105140686e-02,1.787258498370647430e-02,5.475665628910064697e-02,-1.709236204624176025e-02,1.869171857833862305e-03,-1.609802991151809692e-02
-2.686296124011278152e-03,4.856106359511613846e-03,3.254554793238639832e-02,-1.419582404196262360e-02,4.107601195573806763e-02,1.598428376019001007e-02,-2.795713581144809723e-02,8.136510848999023438e-03,4.088475555181503296e-02,-8.751116693019866943e-03,3.603557124733924866e-02,-3.237792477011680603e-02,6.086896732449531555e-02,1.058121677488088608e-02,6.908271461725234985e-02,-7.370924111455678940e-03,1.781360618770122528e-02,-1.354763004928827286e-02
-4.514347389340400696e-02,2.614205144345760345e-02,7.455357164144515991e-02,-4.054494947195053101e-02,8.890698850154876709e-02,5.396935623139142990e-03,-7.725104689598083496e-02,5.578170344233512878e-02,7.714552432298660278e-02,-2.285121753811836243e-02,3.937033936381340027e-02,-7.179685682058334351e-02,1.175230816006660461e-01,5.349379405379295349e-02,1.174995079636573792e-01,-5.184086039662361145e-02,1.776164583861827850e-02,-5.991762876510620117e-02
-2.678406308405101299e-04,-5.679004825651645660e-03,3.192218393087387085e-02,-1.656027138233184814e-02,4.549635574221611023e-02,1.852733432315289974e-03,-3.711939603090286255e-02,1.746620610356330872e-02,5.652871727943420410e-02,-1.768317306414246559e-03,4.697409644722938538e-02,-3.950277715921401978e-02,6.075166538357734680e-02,9.559105150401592255e-03,8.259091526269912720e-02,-7.138256449252367020e-03,1.986339455470442772e-03,-1.136450748890638351e-02
-2.406360022723674774e-02,2.157205156981945038e-02,3.791881725192070007e-02,-4.505189508199691772e-02,4.146811366081237793e-02,-4.062740877270698547e-02,-5.045568197965621948e-02,5.059330537915229797e-02,2.621384104713797569e-03,7.474984508007764816e-03,-4.027174320071935654e-03,-1.002344116568565369e-02,5.862309411168098450e-02,3.956324979662895203e-02,1.302542444318532944e-02,-3.827311471104621887e-02,2.834763936698436737e-02,-3.401529788970947266e-02
-1.524624973535537720e-01,7.742986083030700684e-02,1.174491792917251587e-01,-1.113471686840057373e-01,1.612457931041717529e-01,-4.053715988993644714e-02,-1.501236259937286377e-01,1.667137444019317627e-01,5.265699326992034912e-02,-3.630450740456581116e-02,-1.242356933653354645e-02,-9.206018596887588501e-02,1.770164370536804199e-01,1.691780537366867065e-01,1.131651997566223145e-01,-1.675218492746353149e-01,2.043171972036361694e-02,-1.704730689525604248e-01
-7.892809808254241943e-02,8.548465557396411896e-03,8.895477652549743652e-02,-8.851659297943115234e-02,5.395313352346420288e-02,-6.711389124393463135e-02,-1.043054908514022827e-01,1.202573105692863464e-01,3.183604776859283447e-02,1.318055577576160431e-02,-1.039419430526322685e-06,-6.224416196346282959e-02,9.275341033935546875e-02,1.056885644793510437e-01,4.245600849390029907e-02,-1.035057529807090759e-01,-1.175527088344097137e-02,-1.040094718337059021e-01
-6.157605722546577454e-02,8.162692934274673462e-02,2.931973151862621307e-02,-3.098730742931365967e-02,6.516695022583007812e-02,2.201384492218494415e-02,-3.121664933860301971e-02,4.901326820254325867e-02,-4.662648215889930725e-02,-6.739715486764907837e-02,-1.162109449505805969e-01,2.887903340160846710e-02,4.622310772538185120e-02,7.162769138813018799e-02,-1.518627069890499115e-02,-6.365268677473068237e-02,1.315046995878219604e-01,-5.345633998513221741e-02
-2.338822185993194580e-02,4.114262387156486511e-02,2.509600482881069183e-02,-1.716801337897777557e-02,5.439461395144462585e-02,-1.910843513906002045e-02,-3.496473282575607300e-02,2.285400032997131348e-02,7.282114773988723755e-02,-1.564215309917926788e-02,3.481331467628479004e-02,-1.518251467496156693e-02,4.654137045145034790e-02,2.207874134182929993e-02,2.997956052422523499e-02,-2.427214384078979492e-02,2.046613208949565887e-02,-1.419796142727136612e-02
