-7.903559133410453796e-03,8.223988115787506104e-03,5.336668342351913452e-03,-7.683019153773784637e-03,-8.670967072248458862e-03,1.918486505746841431e-02,-8.530841208994388580e-03,6.151725538074970245e-03,-1.258633565157651901e-02,8.260978385806083679e-03,-7.822654210031032562e-03,2.003840729594230652e-02,3.855446819216012955e-03,8.132065995596349239e-04,1.102364156395196915e-02,-2.154192328453063965e-02,9.144810028374195099e-03,8.735584095120429993e-03,-7.148786447942256927e-03,1.887165824882686138e-03,7.886708714067935944e-03,-8.678709156811237335e-03,-1.646043383516371250e-04,-1.022510044276714325e-02,2.119797840714454651e-02,1.190669834613800049e-02,2.611335366964340210e-02,-2.397841075435280800e-03,8.571741171181201935e-03,9.121438488364219666e-03,-2.032921882346272469e-03,-1.053465995937585831e-02,-8.723981678485870361e-03,9.366234764456748962e-03,-2.690799301490187645e-03,7.177954073995351791e-03,-2.476948313415050507e-02,1.053007412701845169e-02,-1.711699180305004120e-02,8.209352381527423859e-03,7.743121124804019928e-03,8.480578660964965820e-03,1.069687027484178543e-02,8.247115649282932281e-03,9.330872446298599243e-03,9.174533188343048096e-03,5.471367388963699341e-03,1.346179749816656113e-02,1.155472546815872192e-02,9.429870173335075378e-03,5.961848655715584755e-04,-1.017018780112266541e-02,-7.548818830400705338e-03,1.833561691455543041e-04,-8.059337735176086426e-03,2.124476805329322815e-02,9.105892851948738098e-03,1.964875846169888973e-04,2.563840709626674652e-03,7.703030016273260117e-03,1.063662022352218628e-02,-1.084599178284406662e-02,-7.968358695507049561e-03,9.326897561550140381e-03,2.264783717691898346e-02,1.913058222271502018e-03,9.964673779904842377e-03,1.438748184591531754e-02,-7.706486620008945465e-03,9.123601019382476807e-03,-1.266390644013881683e-02,7.140832953155040741e-03,-8.352244272828102112e-03,7.245271001011133194e-03,-7.918204180896282196e-03,8.189279586076736450e-03,5.298155359923839569e-03,1.000094600021839142e-02,5.665703676640987396e-03,-7.726028095930814743e-03,3.126377996522933245e-04,-8.112767711281776428e-03,9.426578879356384277e-03,1.003140397369861603e-02,9.100236929953098297e-03,-1.484964159317314625e-04,6.826745811849832535e-03,-2.484543807804584503e-02,8.178600110113620758e-03,-8.678435347974300385e-03,8.425232954323291779e-03,6.358666811138391495e-03,-7.078111171722412109e-03,7.598175667226314545e-03,-6.184362340718507767e-03,1.661025173962116241e-02,-7.918346673250198364e-03,-7.056271657347679138e-03,-8.654874749481678009e-03,6.654391530901193619e-03,7.971029728651046753e-03,-7.388928439468145370e-03,2.570257289335131645e-03,5.770529154688119888e-03,8.914437144994735718e-03,2.111394889652729034e-02,-9.063384495675563812e-03,9.305452927947044373e-03,2.498814649879932404e-02,-1.177607476711273193e-02
-1.058828532695770264e-01,-2.305202484130859375e-01,1.612595319747924805e-01,1.362532377243041992e-01,-9.349109977483749390e-02,-9.925449267029762268e-03,7.694032043218612671e-02,7.368182297796010971e-03,-4.591693729162216187e-02,-1.088022515177726746e-01,-4.406882822513580322e-02,1.564442552626132965e-02,-3.683343157172203064e-02,-9.326559305191040039e-02,3.614253550767898560e-02,-2.177205495536327362e-02,2.664741594344377518e-03,-4.840750619769096375e-02,-2.178493142127990723e-02,2.815140783786773682e-02,7.227479666471481323e-02,3.749245405197143555e-01,-1.763362623751163483e-02,-8.887098431587219238e-01,6.720447447150945663e-03,-3.062403947114944458e-02,1.078735850751399994e-02,6.429558247327804565e-02,3.732359409332275391e-02,-1.115293335169553757e-02,1.899956762790679932e-01,2.378441840410232544e-01,-2.047855593264102936e-02,1.655738800764083862e-02,2.158363908529281616e-01,8.373991400003433228e-02,-2.082465775310993195e-02,1.507935374975204468e-01,-2.099706418812274933e-02,1.030992567539215088e-01,-5.920567363500595093e-02,6.136408448219299316e-02,-9.052361361682415009e-03,3.331986442208290100e-02,6.257800757884979248e-02,3.943610936403274536e-02,-2.116300314664840698e-01,2.630370669066905975e-02,3.490796312689781189e-02,5.433789640665054321e-02,-2.381099946796894073e-02,-7.026236504316329956e-02,3.547590970993041992e-01,2.045724391937255859e-01,-2.616093680262565613e-02,1.330447196960449219e-02,-1.131942123174667358e-02,1.567285358905792236e-01,-5.411633290350437164e-03,3.037769347429275513e-02,-6.245184689760208130e-02,-6.352815777063369751e-02,-3.988573793321847916e-03,4.333446547389030457e-02,1.447882317006587982e-02,-2.071563899517059326e-01,-3.832634910941123962e-02,-1.257307827472686768e-02,4.112792909145355225e-01,-5.288778543472290039e-01,1.138960644602775574e-01,-4.493476822972297668e-02,9.531199932098388672e-02,-2.168058156967163086e-01,5.696383863687515259e-02,-3.770318999886512756e-02,3.893439471721649170e-02,3.379393368959426880e-02,-5.800310522317886353e-02,4.586374387145042419e-02,1.944161765277385712e-02,9.096732363104820251e-03,-1.329898536205291748e-01,-1.266929320991039276e-02,-2.863659262657165527e-01,-7.135841250419616699e-02,-4.806047305464744568e-02,-1.618630625307559967e-02,8.523696102201938629e-03,-9.680525213479995728e-02,-1.260011941194534302e-01,1.508844047784805298e-01,1.364405751228332520e-01,3.739287704229354858e-02,-1.292004734277725220e-01,3.377346321940422058e-02,6.027472615242004395e-01,1.564483791589736938e-01,-1.329557001590728760e-01,-6.247126683592796326e-02,5.379635840654373169e-02,1.559361368417739868e-01,7.861988991498947144e-02,1.820252686738967896e-01,2.227846765890717506e-03,2.638284303247928619e-02,1.674806885421276093e-02,-3.023930788040161133e-01,8.295880630612373352e-03,4.327635094523429871e-02
-2.377729304134845734e-02,-2.911097109317779541e-01,-4.850498959422111511e-02,-2.147583104670047760e-02,8.269581198692321777e-02,3.424170613288879395e-02,1.255114097148180008e-03,-4.798465967178344727e-02,3.854991123080253601e-02,9.217606484889984131e-02,-1.572149246931076050e-02,3.959822654724121094e-02,1.060095243155956268e-02,-6.978541612625122070e-02,4.665604978799819946e-02,-3.785190358757972717e-02,2.059819735586643219e-02,-2.449798434972763062e-01,5.623567849397659302e-02,7.208392769098281860e-02,9.089336730539798737e-03,-4.223766624927520752e-01,2.503461204469203949e-02,-2.885475158691406250e-01,3.523557260632514954e-02,3.096127137541770935e-02,3.449288755655288696e-02,2.779579721391201019e-02,-5.343296797946095467e-04,-1.351487077772617340e-02,-3.237267723307013512e-03,4.509437829256057739e-02,3.380989283323287964e-02,2.655985392630100250e-02,4.407700523734092712e-02,8.026551455259323120e-02,-3.857581317424774170e-02,-9.818186610937118530e-02,-3.756282478570938110e-02,-2.648357860743999481e-02,-5.958976689726114273e-03,-1.216048300266265869e-01,-7.680200040340423584e-02,-7.444957643747329712e-02,2.630132436752319336e-02,-1.249048579484224319e-02,2.959993900731205940e-03,-3.464437276124954224e-02,4.732620716094970703e-02,3.130938857793807983e-02,-5.304633174091577530e-03,-2.872400358319282532e-02,9.499715268611907959e-02,6.382688879966735840e-02,-1.141677275300025940e-01,3.905705735087394714e-02,-7.475850731134414673e-02,2.918809652328491211e-02,-4.189472179859876633e-03,7.233673334121704102e-02,-1.430757343769073486e-01,2.790976502001285553e-02,1.101807877421379089e-02,-9.512777440249919891e-03,3.193059191107749939e-02,5.396448541432619095e-03,-2.396173216402530670e-02,4.499956965446472168e-02,-1.148227602243423462e-02,-1.861701905727386475e-01,-3.599220514297485352e-02,-1.105867233127355576e-02,2.970935078337788582e-03,-1.020479761064052582e-02,4.497913271188735962e-02,9.291274845600128174e-02,-1.233735820278525352e-04,-3.377497568726539612e-02,-3.952997922897338867e-02,-2.377012558281421661e-02,-3.000560030341148376e-02,-2.328457497060298920e-02,1.269565522670745850e-01,2.452760003507137299e-02,7.322718948125839233e-02,8.664416149258613586e-03,-6.128494068980216980e-02,-2.646895311772823334e-02,2.513480000197887421e-02,1.660967171192169189e-01,-8.588130027055740356e-02,-7.800456881523132324e-02,1.075307428836822510e-01,5.236908048391342163e-02,-1.416989602148532867e-02,4.853768274188041687e-02,-1.069255620241165161e-01,-2.082558814436197281e-03,-3.835649788379669189e-02,-1.082024071365594864e-02,5.611280351877212524e-02,-2.511167339980602264e-02,-1.709410687908530235e-03,8.859500288963317871e-03,-3.316000401973724365e-01,4.573381971567869186e-03,-1.074278354644775391e-01,4.535866677761077881e-01,3.709719702601432800e-02,-4.183985665440559387e-02
1.304073259234428406e-02,3.512071967124938965e-01,-1.420603245496749878e-01,4.911128431558609009e-02,-6.179937720298767090e-02,1.150346710346639156e-03,-4.014408588409423828e-02,2.338832803070545197e-02,-7.233023643493652344e-02,-4.721478745341300964e-02,-1.781757018761709332e-04,1.353439781814813614e-02,1.565951667726039886e-02,-1.130013354122638702e-02,6.454317364841699600e-03,-1.571916602551937103e-02,1.997065031901001930e-03,-1.917148828506469727e-01,-2.108696615323424339e-03,-1.563744619488716125e-02,1.057440135627985001e-02,2.205530405044555664e-01,-2.384783513844013214e-02,-5.650694295763969421e-02,8.971059694886207581e-03,-5.040041636675596237e-03,1.218979619443416595e-02,-1.350606698542833328e-02,-1.409340091049671173e-02,3.321185708045959473e-03,4.851711168885231018e-02,-6.942671537399291992e-02,2.677907701581716537e-03,-3.129905089735984802e-02,5.480770766735076904e-02,-2.081174962222576141e-02,-1.500368956476449966e-02,6.075652688741683960e-02,-1.586326397955417633e-02,2.938240580260753632e-02,2.469230629503726959e-02,6.594444811344146729e-02,5.219617113471031189e-02,-7.316751871258020401e-03,1.129092765040695667e-03,-4.837347194552421570e-02,-4.550622031092643738e-02,2.216992527246475220e-02,-9.958765986084472388e-06,4.244818817824125290e-03,-3.075873665511608124e-02,-6.827262695878744125e-04,5.888216942548751831e-02,2.063004486262798309e-02,1.554629579186439514e-02,1.188661344349384308e-02,8.217209577560424805e-02,3.457629680633544922e-02,1.435874681919813156e-02,1.709687151014804840e-02,1.802291348576545715e-02,-1.383048761636018753e-02,2.162689575925469398e-03,3.102948190644383430e-03,1.481084059923887253e-02,-4.752950370311737061e-02,-2.865904197096824646e-02,-7.534564007073640823e-03,4.429537802934646606e-02,-3.491516113281250000e-01,6.970355287194252014e-03,-1.433088257908821106e-02,-8.240056037902832031e-02,1.424221545457839966e-01,5.541572719812393188e-02,-1.692233420908451080e-02,9.397231973707675934e-03,1.701811328530311584e-02,1.291084382683038712e-02,-5.003737285733222961e-02,2.077821269631385803e-02,-3.478148579597473145e-01,-8.010667748749256134e-03,-7.597335148602724075e-03,3.711711615324020386e-02,2.939153695479035378e-03,3.889643028378486633e-02,-1.750858500599861145e-02,-3.891416266560554504e-02,-2.003622800111770630e-02,-1.273818314075469971e-02,8.122009783983230591e-02,-2.130744606256484985e-01,2.384167723357677460e-02,1.180466497316956520e-03,1.672047562897205353e-02,-6.660788785666227341e-03,2.049593254923820496e-02,-4.650703072547912598e-02,1.047315821051597595e-02,2.209734730422496796e-02,7.606278359889984131e-02,-2.980279549956321716e-02,6.702721118927001953e-02,-1.061019003391265869e-01,1.773233339190483093e-02,1.104509532451629639e-01,-3.650104105472564697e-01,8.292344398796558380e-03,5.106188729405403137e-02
1.664319634437561035e-02,1.262757033109664917e-01,1.636311113834381104e-01,-1.247037854045629501e-02,-7.527317851781845093e-02,-1.002903282642364502e-02,4.331965744495391846e-02,2.874246984720230103e-02,1.705845817923545837e-02,5.275795236229896545e-02,-1.788230240345001221e-02,-1.145660318434238434e-02,-3.359039500355720520e-02,3.314049169421195984e-02,-9.615537710487842560e-03,1.505481172353029251e-02,-6.925390567630529404e-03,-2.729888074100017548e-02,-3.372778370976448059e-02,-5.408560857176780701e-03,4.849531874060630798e-02,6.410494446754455566e-03,1.336509012617170811e-03,1.702679693698883057e-01,-1.099194958806037903e-02,-8.706987835466861725e-03,-9.902868419885635376e-03,-9.551210328936576843e-03,1.541557721793651581e-02,-1.509319874458014965e-03,-5.261327140033245087e-03,-1.116625871509313583e-02,-2.024786546826362610e-02,-9.565395303070545197e-03,-4.203108325600624084e-02,-2.480843290686607361e-02,1.333203446120023727e-02,-4.655100405216217041e-02,1.704140752553939819e-02,6.078179460018873215e-03,-1.219979394227266312e-02,-1.147663965821266174e-01,5.193370580673217773e-02,2.231835853308439255e-03,-7.178119383752346039e-03,-2.380712190642952919e-03,4.631580784916877747e-03,2.617641352117061615e-02,-2.327570691704750061e-02,-4.330226033926010132e-02,9.208762086927890778e-03,-1.384724769741296768e-02,-3.636708483099937439e-02,-3.131344541907310486e-02,9.758339822292327881e-02,-1.721866801381111145e-02,-4.962223768234252930e-02,-2.279417403042316437e-02,8.961697109043598175e-03,-1.511337980628013611e-02,-1.970470324158668518e-02,-1.152904704213142395e-02,-1.662229932844638824e-02,1.808280497789382935e-02,-1.082203816622495651e-02,3.621218353509902954e-02,5.133463069796562195e-03,-1.459777913987636566e-02,-1.079585477709770203e-01,2.503811419010162354e-01,-1.140108145773410797e-02,-2.319384180009365082e-02,4.986729845404624939e-02,1.019821465015411377e-01,-6.916299462318420410e-03,4.315447062253952026e-02,-1.101307664066553116e-02,1.506170909851789474e-02,1.063247583806514740e-02,-2.258037962019443512e-02,2.462464617565274239e-03,5.155226588249206543e-01,-1.567668840289115906e-02,7.507490925490856171e-03,1.049370616674423218e-01,2.330509887542575598e-04,3.228936716914176941e-02,1.037375349551439285e-02,1.851690560579299927e-02,1.430957764387130737e-02,5.853319074958562851e-03,2.785570546984672546e-02,7.449038326740264893e-02,-2.083450183272361755e-02,2.824310213327407837e-03,-1.810601726174354553e-02,1.072796285152435303e-01,-1.815135218203067780e-02,2.504109777510166168e-02,-4.093883559107780457e-02,-2.486009337007999420e-02,-2.390029095113277435e-02,-4.183901846408843994e-02,8.187661319971084595e-02,-1.096555367112159729e-01,-8.903624489903450012e-03,-4.237616807222366333e-02,9.076314419507980347e-02,-1.285882480442523956e-02,1.524703297764062881e-02
-8.558248728513717651e-02,-1.085840016603469849e-01,6.830676645040512085e-02,-1.265286281704902649e-02,1.573625952005386353e-01,1.555779745103791356e-04,-2.993776090443134308e-02,2.331507019698619843e-02,8.417396247386932373e-02,-1.219038516283035278e-01,-1.432788837701082230e-02,-3.642338851932436228e-04,1.705994480289518833e-03,-2.584397792816162109e-03,6.196500733494758606e-03,3.144210495520383120e-04,-5.819014040753245354e-04,-1.557011902332305908e-02,2.145598642528057098e-02,-6.115630734711885452e-03,-7.334042340517044067e-02,3.719168528914451599e-02,1.312974281609058380e-02,-5.689036101102828979e-02,-1.142646651715040207e-03,3.244774416089057922e-03,-9.250188013538718224e-04,-1.123703178018331528e-02,-7.470617536455392838e-03,7.715159095823764801e-03,-1.442816108465194702e-02,-2.215823344886302948e-02,1.970111019909381866e-02,-5.567331332713365555e-03,-9.789956733584403992e-03,-1.576942577958106995e-02,2.996036084368824959e-03,-2.350581623613834381e-02,2.075839787721633911e-03,-3.615212161093950272e-03,-3.099709516391158104e-03,1.944636404514312744e-01,6.460165604948997498e-03,7.130138576030731201e-03,9.233017452061176300e-03,5.085867270827293396e-02,1.931442506611347198e-02,4.890497773885726929e-03,8.557901531457901001e-02,-7.636578753590583801e-03,-4.999859258532524109e-03,-2.914926409721374512e-02,-8.095121011137962341e-03,-6.564710289239883423e-03,-9.147512912750244141e-02,1.788742520147934556e-04,1.355106849223375320e-02,-1.590064167976379395e-02,1.436987076885998249e-03,2.137615345418453217e-02,4.384519159793853760e-02,-3.457310795783996582e-02,1.846025511622428894e-02,-4.254146479070186615e-03,2.699673059396445751e-04,2.053389325737953186e-02,1.992391236126422882e-02,-1.073455496225506067e-05,4.039913415908813477e-02,-8.854365348815917969e-02,-1.185764279216527939e-02,-6.843643262982368469e-03,-4.828890785574913025e-02,2.673995867371559143e-02,-3.157714009284973145e-02,5.176209658384323120e-02,-1.438158098608255386e-02,-5.905842781066894531e-02,1.123041380196809769e-02,5.606010183691978455e-02,-1.159493066370487213e-02,1.069647297263145447e-01,-2.478715963661670685e-02,6.607288029044866562e-03,-4.019493609666824341e-02,8.990937843918800354e-03,-3.826573863625526428e-02,-2.334816846996545792e-03,-3.262265771627426147e-02,-4.843916743993759155e-02,3.475411981344223022e-02,-7.130450010299682617e-02,-1.341912057250738144e-02,-1.307021081447601318e-02,-4.356198385357856750e-02,-4.477709997445344925e-03,-2.103808335959911346e-03,3.400205448269844055e-02,4.251651838421821594e-02,1.177360862493515015e-01,-5.887999664992094040e-03,-1.304684486240148544e-02,6.650120764970779419e-02,-1.138541176915168762e-01,-3.400555998086929321e-02,2.859509317204356194e-03,2.038420364260673523e-02,-9.994968771934509277e-03,-4.364581254776567221e-04,-2.032858552411198616e-03
8.041188865900039673e-02,-8.470669388771057129e-02,-9.865889325737953186e-03,-8.239795453846454620e-03,-1.012676581740379333e-01,2.454758156090974808e-03,-2.994994446635246277e-02,-3.456298634409904480e-02,-3.886333480477333069e-02,-2.720229886472225189e-02,-1.525479089468717575e-02,-5.633398541249334812e-04,9.982577525079250336e-03,-2.700148336589336395e-02,-2.907140180468559265e-03,4.823308438062667847e-03,-7.660160306841135025e-03,6.432362645864486694e-02,-6.333502382040023804e-02,-2.771940082311630249e-02,1.352290157228708267e-02,1.107537224888801575e-01,1.110417395830154419e-02,7.355619966983795166e-02,1.729168696328997612e-03,4.928160458803176880e-03,9.560154467180836946e-06,-3.957964363507926464e-04,-3.506409749388694763e-02,3.961714357137680054e-02,1.482142973691225052e-02,1.867937482893466949e-02,-9.969083592295646667e-03,5.327303707599639893e-02,3.775006160140037537e-02,-1.052067242562770844e-02,9.821563726291060448e-04,-1.364239770919084549e-02,-3.136116312816739082e-03,-5.728422198444604874e-03,8.796402253210544586e-04,-1.235958933830261230e-01,1.606925204396247864e-02,-4.714270122349262238e-03,-8.447739295661449432e-03,-3.296463564038276672e-02,1.976908184587955475e-02,-3.783204127103090286e-03,-3.459384292364120483e-02,-2.584614418447017670e-02,-4.693602677434682846e-03,7.032319903373718262e-02,-4.631533846259117126e-02,-2.208669437095522881e-03,-4.667440056800842285e-02,1.711903256364166737e-03,4.483728855848312378e-02,1.147968135774135590e-02,-2.303871884942054749e-02,-5.187492817640304565e-03,1.353162806481122971e-02,3.156139981001615524e-03,-1.579488441348075867e-02,1.265929918736219406e-02,-3.017847775481641293e-04,-2.367700636386871338e-02,-3.979100380092859268e-03,2.580939326435327530e-03,2.657106518745422363e-02,-8.060135692358016968e-02,2.958464063704013824e-02,-3.397561982274055481e-02,4.164560139179229736e-02,-4.229005053639411926e-02,-1.205537840723991394e-02,7.983958348631858826e-03,1.415762305259704590e-02,4.577401280403137207e-02,3.307710168883204460e-03,-3.894553333520889282e-02,-8.695308119058609009e-03,-3.707530498504638672e-01,2.310487069189548492e-02,1.778465695679187775e-02,-2.131646312773227692e-02,1.198578905314207077e-02,2.508383477106690407e-03,-2.172847278416156769e-03,4.076339304447174072e-02,-1.411034725606441498e-03,-6.017778813838958740e-02,6.113633885979652405e-02,-2.239125519990921021e-01,2.190169692039489746e-02,-1.507831178605556488e-02,-2.424975158646702766e-03,-9.664025157690048218e-02,1.230713073164224625e-02,2.306728623807430267e-03,-4.510064795613288879e-02,-3.966408781707286835e-03,1.052738633006811142e-03,-1.622430048882961273e-02,2.891935594379901886e-02,-7.107648253440856934e-02,-1.924560870975255966e-03,-8.519426919519901276e-03,8.900102227926254272e-02,7.594710332341492176e-04,-2.918776590377092361e-03
-6.254492700099945068e-02,2.158302515745162964e-01,-2.410397306084632874e-02,1.487746275961399078e-02,2.538834884762763977e-02,-3.441289998590946198e-03,3.031829558312892914e-02,-3.523651137948036194e-02,-2.661633118987083435e-02,1.365302246995270252e-03,4.195380955934524536e-03,-3.299960168078541756e-03,7.972285384312272072e-04,4.805236309766769409e-02,-2.442418783903121948e-02,2.636483171954751015e-03,-2.332176314666867256e-03,8.614713326096534729e-03,1.262085884809494019e-01,3.629070520401000977e-02,5.703132227063179016e-02,-2.526290416717529297e-01,-1.129726227372884750e-02,-5.353369633667171001e-04,-3.806859254837036133e-03,-3.308296436443924904e-03,-3.852323861792683601e-03,4.445833619683980942e-04,6.146400701254606247e-04,2.897823043167591095e-02,8.583420887589454651e-03,9.117622673511505127e-02,2.148368582129478455e-02,5.515029281377792358e-02,-2.254169993102550507e-02,-3.704524412751197815e-02,3.979826346039772034e-03,4.721142351627349854e-03,2.907089656218886375e-03,-7.602473255246877670e-03,9.893529117107391357e-03,8.729525870876386762e-05,-7.382147014141082764e-03,-1.039419881999492645e-02,-1.012747958302497864e-01,2.625117637217044830e-02,1.200763322412967682e-02,1.378494780510663986e-03,1.294282823801040649e-01,-6.093757227063179016e-03,8.224692195653915405e-03,-8.358660340309143066e-02,1.459727436304092407e-01,2.474537584930658340e-03,2.040897309780120850e-02,-1.991242403164505959e-03,-2.242074906826019287e-02,-1.268608588725328445e-02,6.749971304088830948e-03,-1.100209262222051620e-02,4.718579724431037903e-02,1.361158024519681931e-02,-7.265792228281497955e-03,7.888700813055038452e-03,-2.858588006347417831e-03,3.048069216310977936e-02,-7.229708135128021240e-03,-2.533149905502796173e-03,3.065272793173789978e-02,1.652614623308181763e-01,-8.389029651880264282e-03,-3.545560315251350403e-02,8.669996634125709534e-03,-6.630966067314147949e-02,-1.727076061069965363e-02,-5.322329234331846237e-03,3.906612691935151815e-04,1.198517251759767532e-02,-2.209291560575366020e-03,1.204202882945537567e-02,8.824991062283515930e-03,3.849453926086425781e-01,4.996061790734529495e-03,-2.987104700878262520e-03,-1.736531732603907585e-03,-1.158476527780294418e-02,4.415759444236755371e-02,2.846081973984837532e-03,-7.705427706241607666e-02,6.637642160058021545e-03,2.707264758646488190e-02,-5.244977399706840515e-02,-1.569461822509765625e-02,-5.075075663626194000e-03,-3.504361212253570557e-02,-3.329774830490350723e-03,7.634241133928298950e-02,2.126203849911689758e-02,-4.643083363771438599e-02,1.698258332908153534e-02,-3.291695145890116692e-03,-8.879130706191062927e-03,1.478309556841850281e-02,-9.145883470773696899e-02,-5.276263132691383362e-02,-2.366314409300684929e-03,-1.456817146390676498e-02,-5.335419252514839172e-02,-2.862526569515466690e-03,1.290863612666726112e-03
7.088031619787216187e-03,-9.315538406372070312e-02,4.025439545512199402e-02,1.491702161729335785e-02,1.802567276172339916e-03,-1.958163687959313393e-03,5.365071352571249008e-03,6.045707687735557556e-02,7.815904915332794189e-02,-2.315258793532848358e-02,2.107657119631767273e-02,4.266038304194808006e-04,2.527988282963633537e-03,-1.132478122599422932e-03,-2.326290821656584740e-03,6.993659306317567825e-03,-4.869868047535419464e-03,-7.205219566822052002e-02,-1.357545852661132812e-01,-3.016238100826740265e-02,-1.331693530082702637e-01,1.283215284347534180e-01,-1.319773960858583450e-02,1.129388529807329178e-02,-1.923807314597070217e-03,-3.292840672656893730e-03,-1.107751973904669285e-03,-4.989867098629474640e-03,-8.680325932800769806e-03,2.159097604453563690e-02,-2.149281650781631470e-02,-1.218831911683082581e-02,-2.964192070066928864e-03,8.114116266369819641e-03,7.256800308823585510e-03,3.227207437157630920e-02,2.833117730915546417e-03,5.489293951541185379e-03,6.456026458181440830e-04,-2.225845493376255035e-02,-5.849864799529314041e-03,4.160572215914726257e-02,-1.177926454693078995e-02,2.105255424976348877e-02,2.484556473791599274e-02,2.315008081495761871e-02,-1.244506053626537323e-02,7.261177990585565567e-03,-6.090777739882469177e-02,1.911966502666473389e-02,-1.185747049748897552e-02,2.215959876775741577e-02,-1.059346795082092285e-01,4.005801398307085037e-03,1.991065405309200287e-02,-6.327133160084486008e-04,-1.515591982752084732e-03,5.963417701423168182e-03,-6.099586375057697296e-03,-8.268170990049839020e-03,1.584565080702304840e-02,-4.865330830216407776e-02,-6.461102515459060669e-03,4.398021381348371506e-03,9.834115626290440559e-04,-5.540829151868820190e-02,-1.368149183690547943e-02,-1.942517468705773354e-03,-9.433460421860218048e-03,-1.628564596176147461e-01,1.094272360205650330e-02,-2.076444961130619049e-02,-9.908352978527545929e-03,3.254650533199310303e-02,-4.463822580873966217e-03,1.644764328375458717e-03,-1.022139284759759903e-02,2.063462696969509125e-02,-7.491803262382745743e-03,-1.991909742355346680e-02,1.239473279565572739e-02,-1.255681216716766357e-01,-3.614535182714462280e-02,-8.646556176245212555e-03,-1.282889163121581078e-03,-6.416406482458114624e-03,4.222352523356676102e-03,3.790080081671476364e-03,1.203092113137245178e-01,1.137074269354343414e-02,-7.463195826858282089e-03,4.766401275992393494e-02,1.810429804027080536e-02,-3.671704907901585102e-04,-6.864886730909347534e-02,-3.542158752679824829e-03,-4.856397863477468491e-03,-1.800452917814254761e-02,1.992905288934707642e-01,1.953524909913539886e-02,-2.769492799416184425e-03,9.337696246802806854e-03,6.335539370775222778e-02,9.208232909440994263e-02,5.984806921333074570e-04,-2.344253240153193474e-03,-4.173088446259498596e-02,3.452159464359283447e-02,-9.068811195902526379e-04,3.375222673639655113e-03
-5.655720457434654236e-02,1.061000004410743713e-01,-4.050259292125701904e-02,1.017647329717874527e-03,-2.221634984016418457e-02,-1.345601631328463554e-04,-5.997119471430778503e-03,-1.996101997792720795e-02,-7.107646763324737549e-02,-1.215535961091518402e-02,1.975908502936363220e-02,1.073237508535385132e-03,-1.428135763853788376e-02,7.310815155506134033e-03,-4.901290405541658401e-03,7.118065375834703445e-03,1.054028980433940887e-02,9.393829107284545898e-02,7.375160604715347290e-02,-4.240121692419052124e-03,1.159675046801567078e-01,-2.454668356222100556e-05,4.949604626744985580e-03,-5.936703458428382874e-02,3.575586888473480940e-04,-1.480549341067671776e-03,-1.651310449233278632e-04,7.995920255780220032e-03,5.562685057520866394e-02,1.839741505682468414e-02,1.313860621303319931e-02,-6.123877246864140034e-04,1.702054776251316071e-02,-1.089270692318677902e-02,-6.804797449149191380e-04,-1.113421376794576645e-02,1.699031563475728035e-03,-9.058201685547828674e-03,-9.895054390653967857e-04,3.083558753132820129e-02,-1.299731200560927391e-03,-8.376651257276535034e-02,-1.279281172901391983e-02,-1.436641719192266464e-02,-1.235815696418285370e-02,-4.485204815864562988e-03,2.977949939668178558e-02,-6.459147203713655472e-03,4.873969778418540955e-02,-4.681248217821121216e-03,1.206861156970262527e-02,1.580209471285343170e-02,2.994654886424541473e-02,-1.370690390467643738e-02,1.836840645410120487e-03,9.859368437901139259e-04,9.799601510167121887e-03,-4.681596066802740097e-03,6.272062659263610840e-03,-2.764309570193290710e-02,5.058217421174049377e-02,2.412894554436206818e-02,-1.265658345073461533e-02,2.446061698719859123e-03,2.106690080836415291e-03,3.260725736618041992e-02,-3.760786028578877449e-03,9.797236416488885880e-04,4.017244093120098114e-03,-3.230490162968635559e-02,-5.500395223498344421e-02,-4.093459248542785645e-02,-2.245702780783176422e-03,3.209265694022178650e-02,-1.414841879159212112e-02,-6.890675984323024750e-03,2.190643362700939178e-02,1.656189374625682831e-02,7.491653668694198132e-04,9.207724779844284058e-02,-7.095516193658113480e-03,-1.312090177088975906e-02,8.772376924753189087e-02,7.683489006012678146e-03,-2.022265456616878510e-02,7.748774252831935883e-03,1.733518578112125397e-02,2.823868300765752792e-03,-7.616519927978515625e-02,-2.270212717121466994e-04,3.386816754937171936e-02,-4.116968251764774323e-03,2.341159619390964508e-02,1.665341318584978580e-03,1.081125363707542419e-01,-4.249750636518001556e-03,-2.028185687959194183e-02,-8.717827498912811279e-03,-1.792318224906921387e-01,1.721628010272979736e-03,-1.155888821813277900e-04,4.574191052597598173e-07,-7.495742291212081909e-02,4.379886668175458908e-03,-6.775878369808197021e-02,9.658397757448256016e-04,-1.653449982404708862e-02,-8.362267166376113892e-03,7.026826497167348862e-04,9.712377795949578285e-04
6.447650492191314697e-02,-2.414848506450653076e-01,1.158093847334384918e-02,-1.128120254725217819e-02,8.639030903577804565e-02,-3.276278148405253887e-04,9.109762497246265411e-03,3.262932226061820984e-02,8.494661748409271240e-02,2.963535953313112259e-03,6.213477626442909241e-02,1.493159797973930836e-03,2.067066915333271027e-02,-2.223290875554084778e-02,1.510070823132991791e-02,1.207425445318222046e-02,-7.861562073230743408e-03,-7.236120849847793579e-02,2.887189388275146484e-02,4.786634445190429688e-02,-4.402767121791839600e-02,-2.153865694999694824e-01,1.236333325505256653e-02,1.167642697691917419e-01,4.841996124014258385e-04,-7.938278140500187874e-04,3.454875841271132231e-04,9.741960093379020691e-03,-6.727950647473335266e-03,-1.639042980968952179e-02,-5.188941955566406250e-03,-1.719930954277515411e-02,2.717699110507965088e-02,-4.650303162634372711e-03,-2.578190760686993599e-04,-4.981410503387451172e-02,1.475966884754598141e-03,-6.778466049581766129e-03,-2.131258836016058922e-03,1.541903708130121231e-02,4.936119541525840759e-03,-1.865760795772075653e-02,-1.147566828876733780e-02,2.228379063308238983e-02,6.087598949670791626e-02,2.213020576164126396e-03,1.145457848906517029e-02,4.718244541436433792e-03,3.265386074781417847e-02,-2.772138826549053192e-02,-8.859030902385711670e-03,-8.101300895214080811e-02,-3.844487667083740234e-02,-2.606536727398633957e-03,1.362530607730150223e-02,-2.616920392028987408e-04,3.420066088438034058e-02,4.979042336344718933e-03,-7.196699827909469604e-02,3.549806028604507446e-02,1.535789854824542999e-02,-7.822152227163314819e-02,5.607712548226118088e-03,-2.965763211250305176e-03,1.901900628581643105e-03,-2.136575244367122650e-02,-1.967538706958293915e-02,1.774987758835777640e-04,1.488242857158184052e-02,1.038367077708244324e-01,8.304206281900405884e-02,6.651894189417362213e-03,-6.674887146800756454e-03,-6.775304675102233887e-02,1.521235099062323570e-03,9.990362450480461121e-03,-7.283124141395092010e-03,2.627261914312839508e-02,-1.148112933151423931e-03,-1.924612186849117279e-02,-9.563367813825607300e-03,-3.694738028571009636e-03,-4.531202465295791626e-02,-1.016098423860967159e-03,-1.591551676392555237e-02,1.679315697401762009e-03,-6.766861677169799805e-02,4.212477710098028183e-03,2.596224471926689148e-02,5.858530756086111069e-03,-4.247548431158065796e-02,-3.129416704177856445e-02,8.132931776344776154e-03,-7.390698883682489395e-04,-7.984211668372154236e-03,-3.358803456649184227e-03,-1.667999289929866791e-02,1.760259643197059631e-02,-7.559337187558412552e-03,2.176904585212469101e-03,2.520798239856958389e-03,-7.267727050930261612e-04,2.069590147584676743e-03,-4.629587754607200623e-02,6.686902046203613281e-02,-1.601313822902739048e-03,-3.447724133729934692e-02,1.295581907033920288e-01,1.426029775757342577e-04,-5.884508718736469746e-04
-3.240155056118965149e-02,2.134385108947753906e-01,6.755183637142181396e-02,5.333636421710252762e-03,-7.707586884498596191e-02,-7.216400699689984322e-04,-1.409348100423812866e-02,-1.605107821524143219e-02,-9.875027090311050415e-02,-2.570860960986465216e-04,-5.665314197540283203e-01,-1.201249891892075539e-03,-1.597075350582599640e-02,1.487339287996292114e-02,1.922696642577648163e-02,8.923726156353950500e-03,2.841974375769495964e-03,2.352794632315635681e-02,-7.621180266141891479e-02,-9.418132156133651733e-02,6.757875531911849976e-02,3.326881229877471924e-01,-1.349606551229953766e-02,-1.022813958115875721e-03,-1.013683155179023743e-03,-9.131369879469275475e-04,-1.619721413590013981e-03,2.729788422584533691e-02,2.008643746376037598e-02,-4.573876410722732544e-02,-5.683365091681480408e-02,-6.244311574846506119e-03,-4.064737819135189056e-03,1.225104741752147675e-02,-3.491774201393127441e-03,2.879534475505352020e-02,2.899735700339078903e-03,-2.034361287951469421e-02,4.798602021764963865e-04,-7.839076220989227295e-02,-3.167946357280015945e-03,1.937660723924636841e-01,-1.883095502853393555e-02,2.323850058019161224e-02,-1.509292330592870712e-02,1.538845617324113846e-02,-2.303342148661613464e-02,4.021464381366968155e-03,-8.037970215082168579e-02,4.366185143589973450e-02,4.190235212445259094e-02,1.668747365474700928e-01,5.059802532196044922e-02,9.764748625457286835e-03,-4.088218847755342722e-04,-1.532254507765173912e-03,-3.075918368995189667e-02,-9.967985562980175018e-03,2.275259345769882202e-01,1.967459917068481445e-02,2.726191468536853790e-02,1.133698895573616028e-01,8.009932003915309906e-03,1.519159134477376938e-02,-7.885511149652302265e-04,1.343072298914194107e-02,-7.619522977620363235e-03,-1.063910429365932941e-03,6.152510177344083786e-03,-4.302938282489776611e-02,-3.076391667127609253e-02,-3.772438038140535355e-03,-1.631599850952625275e-02,4.530951753258705139e-02,1.764127518981695175e-03,1.005125790834426880e-02,-4.842836875468492508e-03,-2.553281374275684357e-02,-2.087726257741451263e-03,6.441227160394191742e-03,1.311826985329389572e-02,-2.955546975135803223e-02,1.049184426665306091e-02,3.809462214121595025e-05,1.705940440297126770e-02,-2.347432635724544525e-02,5.922249704599380493e-02,4.440663848072290421e-03,3.767287731170654297e-02,-2.770696766674518585e-03,9.610901586711406708e-03,-2.786309085786342621e-02,-3.249929100275039673e-02,1.856236369349062443e-03,-3.933630418032407761e-03,-4.085566848516464233e-03,-9.275750257074832916e-03,-1.422645151615142822e-02,-3.194430470466613770e-02,-8.909582393243908882e-04,-1.193146687000989914e-03,4.751486412715166807e-04,-2.651472762227058411e-02,4.526965320110321045e-02,1.918672025203704834e-02,-2.218591049313545227e-03,2.701628953218460083e-02,-2.226393073797225952e-01,-1.349437981843948364e-03,1.958688721060752869e-03
4.585320129990577698e-02,-8.336932957172393799e-02,-9.485363215208053589e-02,-1.572985667735338211e-03,8.661704510450363159e-02,-1.059037167578935623e-03,3.397684078663587570e-03,-2.075306605547666550e-03,8.676228672266006470e-02,-2.032370865345001221e-02,2.925821244716644287e-01,-2.915142395067960024e-04,6.144328974187374115e-03,6.531932158395648003e-04,4.307127092033624649e-03,1.026646699756383896e-02,7.597157731652259827e-03,-4.165023937821388245e-02,6.587140262126922607e-02,6.548204272985458374e-02,-5.356059595942497253e-02,-1.248789802193641663e-01,6.177394185215234756e-03,-5.368889868259429932e-02,-1.149984542280435562e-03,-1.177317113615572453e-03,-3.190727438777685165e-04,-1.013802140951156616e-01,-2.534981258213520050e-02,-5.683220550417900085e-02,3.874252364039421082e-02,-1.933474838733673096e-02,-3.012372180819511414e-02,3.259188262745738029e-03,-5.711301695555448532e-03,2.854469232261180878e-02,4.266960546374320984e-03,-1.546204276382923126e-02,5.640294984914362431e-04,9.189055301249027252e-03,5.887201055884361267e-03,-2.493076175451278687e-01,4.178918153047561646e-02,1.587179116904735565e-02,5.110420286655426025e-02,1.037245499901473522e-03,-7.253246440086513758e-05,2.968571847304701805e-03,-6.793756503611803055e-03,-2.108164690434932709e-02,-2.951529994606971741e-02,-1.579834371805191040e-01,1.937585324048995972e-02,5.021372344344854355e-03,2.357272058725357056e-02,-2.315753605216741562e-03,1.395096722990274429e-02,4.592576064169406891e-03,-1.684842258691787720e-01,-3.461455181241035461e-02,-6.808457430452108383e-03,-6.031913310289382935e-02,1.620823517441749573e-02,2.168874293565750122e-01,7.744173053652048111e-04,-2.348787093069404364e-04,-2.792751765809953213e-04,-1.510981237515807152e-03,6.022677989676594734e-04,-2.728145010769367218e-02,-2.458375645801424980e-03,2.190824598073959351e-03,4.339081642683595419e-04,-2.432344481348991394e-02,-3.043510718271136284e-03,-8.248400874435901642e-03,-3.150891140103340149e-02,-3.989291843026876450e-03,-1.111227273941040039e-02,9.446485899388790131e-03,-6.655515637248754501e-03,2.156238444149494171e-02,4.163885954767465591e-03,-5.608520470559597015e-03,-3.775088489055633545e-02,5.237655714154243469e-03,-2.535542286932468414e-02,5.597182549536228180e-03,2.748220576904714108e-04,1.559920050203800201e-02,5.567967519164085388e-02,-8.860492962412536144e-04,-1.491959113627672195e-02,-3.286468563601374626e-04,1.251464523375034332e-02,-6.102876272052526474e-03,-9.583426290191709995e-04,8.884125854820013046e-04,3.304366767406463623e-02,2.412656089290976524e-03,1.177016645669937134e-03,4.103725659660995007e-04,1.665267720818519592e-02,2.918733051046729088e-03,-1.002064440399408340e-02,-3.902154508978128433e-03,-2.549042925238609314e-02,2.800149917602539062e-01,-1.336689339950680733e-03,1.937994849868118763e-03
-7.579863071441650391e-02,9.513257071375846863e-03,2.987265214323997498e-02,-1.370514649897813797e-02,-3.315130621194839478e-02,-2.260307228425517678e-04,-7.395958993583917618e-03,7.549732457846403122e-03,-8.850375562906265259e-02,-3.112680464982986450e-02,-2.423421666026115417e-02,2.670276211574673653e-03,-4.772265441715717316e-03,-1.862232573330402374e-02,3.322167694568634033e-02,7.722704671323299408e-03,-1.378874015063047409e-02,6.722435355186462402e-02,-3.200479596853256226e-02,1.116075646132230759e-02,-1.085107121616601944e-02,-4.219786822795867920e-02,-1.518382318317890167e-02,5.033528804779052734e-02,6.549925892613828182e-04,-3.074225969612598419e-03,2.330621937289834023e-03,9.389966726303100586e-02,7.183530367910861969e-03,3.278065323829650879e-01,-2.605453878641128540e-02,-9.126532822847366333e-03,1.982515603303909302e-01,2.363755181431770325e-02,2.194099593907594681e-03,-4.531326517462730408e-02,4.645215813070535660e-03,2.104502916336059570e-02,-1.270872657187283039e-03,4.469114914536476135e-02,7.678677793592214584e-03,1.883423775434494019e-01,-2.748241275548934937e-02,-7.191847264766693115e-02,-7.424470037221908569e-02,6.870416458696126938e-03,4.491934925317764282e-02,9.932398796081542969e-03,-5.801180750131607056e-02,-2.573322877287864685e-02,1.308345608413219452e-02,7.631456106901168823e-02,-3.540770336985588074e-02,2.137796254828572273e-03,1.253543980419635773e-02,-3.177803708240389824e-03,-9.536677040159702301e-03,2.433881629258394241e-03,4.426559060811996460e-02,2.331630885601043701e-02,-8.452851325273513794e-02,-1.115116029977798462e-01,-3.022769838571548462e-02,-3.743042647838592529e-01,7.050500717014074326e-03,-9.763300418853759766e-03,-2.227698639035224915e-02,-2.724359743297100067e-03,1.362054143100976944e-03,1.070571132004261017e-02,2.332088164985179901e-02,2.335985936224460602e-02,8.729851804673671722e-03,-7.723980583250522614e-03,5.791558418422937393e-03,6.017777603119611740e-03,5.039572343230247498e-02,-2.995099639520049095e-04,-1.480468176305294037e-02,-8.148025721311569214e-03,1.083375513553619385e-02,-3.157685697078704834e-02,-5.764206126332283020e-02,-4.215638153254985809e-03,-4.744165111333131790e-03,-4.464221186935901642e-03,3.663189709186553955e-02,5.973678547888994217e-03,-2.675260417163372040e-02,-5.879710428416728973e-03,-3.426175191998481750e-02,1.481767743825912476e-03,-1.340180728584527969e-02,-1.127189677208662033e-02,2.078972384333610535e-02,-6.669366732239723206e-03,-4.373119398951530457e-02,-7.079814095050096512e-04,1.389322429895401001e-02,-1.941269822418689728e-02,-4.980723373591899872e-03,-2.853337209671735764e-03,3.368531540036201477e-02,-2.539529465138912201e-02,-4.590228572487831116e-02,-4.071259405463933945e-03,-3.105820529162883759e-02,-2.406446337699890137e-01,-7.696657557971775532e-04,8.348443545401096344e-03
-1.000109501183032990e-02,3.601540625095367432e-02,-1.027749385684728622e-02,-1.496001332998275757e-02,-1.987461932003498077e-02,1.633637875784188509e-04,-3.948907554149627686e-02,-2.499907277524471283e-02,-9.943885356187820435e-02,2.827638201415538788e-02,-6.168585270643234253e-02,-5.559214390814304352e-03,-1.316015725024044514e-03,1.962262019515037537e-02,8.510780520737171173e-03,1.529030874371528625e-02,-3.570084273815155029e-02,4.883555695414543152e-02,6.706059910356998444e-03,2.121950965374708176e-03,6.908518821001052856e-02,7.300700992345809937e-02,1.943712309002876282e-02,-2.558783814311027527e-02,-1.838491181842982769e-03,1.405992312356829643e-03,-3.880555275827646255e-03,6.102124189055757597e-06,1.182961910963058472e-01,-3.375511765480041504e-01,-1.788396202027797699e-02,-4.666656255722045898e-03,-2.694877386093139648e-01,-8.191263303160667419e-03,-2.804172039031982422e-02,1.145013049244880676e-02,7.005329243838787079e-03,5.086224898695945740e-02,9.842474246397614479e-04,-1.379710715264081955e-02,-3.401390835642814636e-02,-2.014557719230651855e-01,-1.344832964241504669e-02,1.973585784435272217e-01,1.134427264332771301e-02,-1.481273304671049118e-02,4.744181782007217407e-02,-1.240839133970439434e-03,2.381608635187149048e-02,-3.475838107988238335e-03,2.665353938937187195e-02,1.238468568772077560e-03,1.623750664293766022e-02,-2.295370958745479584e-02,-1.729411818087100983e-02,7.735436665825545788e-04,1.346303801983594894e-02,-2.405745722353458405e-02,-2.125005237758159637e-02,-5.674740299582481384e-03,2.515972219407558441e-02,4.067768156528472900e-02,-4.471392184495925903e-02,1.395491957664489746e-01,-3.786120098084211349e-03,1.943049393594264984e-02,1.014175862073898315e-01,1.735866884700953960e-03,-2.152870409190654755e-02,3.175185620784759521e-02,1.509016472846269608e-02,5.146120488643646240e-02,-1.126520615071058273e-02,3.124024532735347748e-02,-4.295451939105987549e-02,2.013533003628253937e-02,-2.257692627608776093e-02,8.178574033081531525e-03,-2.359774559736251831e-01,-1.824696920812129974e-02,-2.279652096331119537e-02,-3.665403649210929871e-02,2.920440956950187683e-02,1.555760391056537628e-03,3.730018856003880501e-03,1.582220941781997681e-02,1.951368153095245361e-02,8.759689517319202423e-03,-6.582034379243850708e-02,7.990812882781028748e-03,2.836474403738975525e-02,-1.855165138840675354e-02,8.882769383490085602e-03,-1.027073618024587631e-02,8.247512392699718475e-03,-9.609844535589218140e-03,-7.355252280831336975e-03,-2.776683121919631958e-02,-4.239707067608833313e-02,3.690400347113609314e-02,-1.126377563923597336e-02,2.702813409268856049e-02,-5.143429152667522430e-03,8.070871233940124512e-03,-1.686218567192554474e-02,-8.290808647871017456e-03,-3.125766292214393616e-03,1.102369204163551331e-01,-3.540786565281450748e-04,-4.956850782036781311e-03
4.031695425510406494e-02,1.219496317207813263e-02,1.831924356520175934e-02,3.550599887967109680e-02,1.288103964179754257e-02,-1.877902308478951454e-03,5.228404328227043152e-02,-2.626883052289485931e-02,1.036579012870788574e-01,-4.833596944808959961e-02,2.036923542618751526e-02,2.568321069702506065e-03,5.905471742153167725e-03,-2.037408761680126190e-02,-3.375630825757980347e-02,-1.129271835088729858e-02,3.181520104408264160e-02,-8.565161377191543579e-02,9.172095917165279388e-03,1.896338909864425659e-02,-9.574057906866073608e-02,-4.161173850297927856e-02,-9.766531176865100861e-03,-1.415273826569318771e-02,-1.525105762993916869e-04,-5.927867721766233444e-03,2.455032663419842720e-03,1.151186693459749222e-02,-3.093179166316986084e-01,7.291961461305618286e-02,3.224535286426544189e-02,5.442726425826549530e-03,1.348705589771270752e-01,7.659353315830230713e-02,2.409728616476058960e-02,-3.807083889842033386e-02,-8.612251258455216885e-04,-6.316985934972763062e-02,1.913966727443039417e-03,-1.302814576774835587e-02,-1.418269425630569458e-01,1.677685230970382690e-01,-3.067780658602714539e-02,-2.112878262996673584e-01,-9.181724488735198975e-02,2.106908708810806274e-02,-2.614632621407508850e-02,-2.699861070141196251e-03,-5.839285627007484436e-02,1.923373900353908539e-02,-3.336720913648605347e-02,4.139994084835052490e-02,1.694743148982524872e-02,2.663720212876796722e-02,1.983127556741237640e-02,-2.840457600541412830e-04,-1.488357898779213428e-03,2.937756106257438660e-02,2.893345803022384644e-02,2.543945796787738800e-02,-3.197569772601127625e-02,-1.007148623466491699e-01,9.196924977004528046e-03,-1.356049068272113800e-02,2.183154691010713577e-03,-3.444808349013328552e-02,-1.311793774366378784e-01,-4.072507843375205994e-03,3.945523127913475037e-02,4.545662924647331238e-02,1.487258705310523510e-03,-3.047001361846923828e-02,1.795362448319792747e-03,-3.570180153474211693e-03,7.803949713706970215e-02,-4.514069855213165283e-02,9.056897833943367004e-03,2.397037856280803680e-02,5.112574696540832520e-01,3.242066130042076111e-02,2.144924923777580261e-02,5.039666220545768738e-02,-5.121123418211936951e-02,-3.919235896319150925e-03,1.215995941311120987e-02,-1.380518637597560883e-02,-5.938006937503814697e-02,-4.245092626661062241e-03,3.496219962835311890e-02,-3.167315572500228882e-02,3.110768739134073257e-03,-1.141384616494178772e-02,8.484929800033569336e-03,1.091453339904546738e-02,2.711470006033778191e-03,3.269627923145890236e-03,-1.151493564248085022e-02,3.062924742698669434e-02,-1.546667795628309250e-02,-1.957363262772560120e-02,6.148523185402154922e-03,2.461230941116809845e-02,-1.457809470593929291e-02,5.799944046884775162e-03,-1.985242404043674469e-02,6.257380824536085129e-03,-4.383889958262443542e-03,-6.194300949573516846e-02,-2.129767322912812233e-03,5.992812104523181915e-03
-5.900149419903755188e-02,2.256636507809162140e-02,1.617771200835704803e-02,-2.979554608464241028e-02,-2.215402387082576752e-02,-1.933317980729043484e-03,-4.615575820207595825e-02,6.453735986724495888e-04,-2.756282128393650055e-02,-9.266540408134460449e-03,7.936844974756240845e-02,-3.636586247012019157e-03,5.759383930126205087e-05,-5.908869206905364990e-03,-3.804973559454083443e-03,1.706190779805183411e-02,1.331176236271858215e-02,6.059690192341804504e-02,-1.995531097054481506e-02,-1.071200822480022907e-03,1.013231575489044189e-01,1.404790394008159637e-02,1.518989074975252151e-02,-3.925962664652615786e-04,-3.238871693611145020e-03,1.447207410819828510e-03,-3.520418656989932060e-03,2.699486212804913521e-04,8.295972645282745361e-02,1.570965535938739777e-02,4.713688031188212335e-05,-2.555441670119762421e-02,1.586024835705757141e-02,-1.612005531787872314e-01,8.113295771181583405e-03,7.471352815628051758e-03,5.462211091071367264e-03,5.699517577886581421e-02,6.944998749531805515e-04,-4.089980386197566986e-03,5.925754308700561523e-01,-1.026585474610328674e-01,2.575206384062767029e-02,1.004879251122474670e-01,1.089009046554565430e-01,-1.376833021640777588e-02,-1.243780273944139481e-02,2.390920417383313179e-03,4.968621581792831421e-02,2.400273951934650540e-04,-2.334048226475715637e-02,-7.246555294841527939e-03,-2.110291086137294769e-02,-1.151021383702754974e-02,-5.212123040109872818e-03,-7.412068080157041550e-04,2.313936315476894379e-02,-6.011107470840215683e-03,-2.817661873996257782e-02,-1.430125162005424500e-02,2.259019762277603149e-02,5.460533127188682556e-02,8.878515660762786865e-02,-3.571204468607902527e-02,-1.801212929422035813e-04,8.600131841376423836e-04,-4.904489964246749878e-02,-1.177969155833125114e-03,-1.476686075329780579e-02,-8.072884380817413330e-02,-2.622840227559208870e-03,-1.467172987759113312e-02,3.373563755303621292e-03,-1.469655800610780716e-02,-2.121214754879474640e-02,-8.397565223276615143e-03,1.621130271814763546e-03,-5.642622336745262146e-02,-5.314754843711853027e-01,-2.747549675405025482e-02,-1.570447161793708801e-02,-3.498870134353637695e-02,1.714831776916980743e-02,2.271918347105383873e-03,-1.693899743258953094e-02,3.023869730532169342e-02,4.181750863790512085e-02,8.766162209212779999e-03,1.071200612932443619e-02,8.193322271108627319e-02,-5.928112939000129700e-02,5.729185789823532104e-02,8.854000479914247990e-04,-1.008740905672311783e-02,3.506988659501075745e-02,-8.774315007030963898e-03,9.922079741954803467e-03,2.983856759965419769e-02,6.856195162981748581e-03,-3.502453118562698364e-02,-7.605248596519231796e-03,-9.613484889268875122e-02,4.115334246307611465e-03,-1.023768074810504913e-02,-3.243562579154968262e-02,-2.310082083567976952e-03,-9.303493425250053406e-03,2.826775610446929932e-02,-5.830033333040773869e-04,-9.170889388769865036e-04
7.354664802551269531e-02,-1.159442961215972900e-02,-5.106111988425254822e-02,-9.651398658752441406e-02,2.071082033216953278e-02,6.067811045795679092e-04,4.751406144350767136e-03,-1.453861501067876816e-02,6.226348131895065308e-02,5.239222664386034012e-03,-4.282456636428833008e-02,1.148648839443922043e-02,4.905762523412704468e-02,1.787910424172878265e-02,5.277403444051742554e-02,-7.716569962212815881e-05,-1.376261468976736069e-02,-2.345075458288192749e-02,-2.404463011771440506e-03,3.662893548607826233e-02,-5.670677125453948975e-02,2.850863151252269745e-02,1.470413710922002792e-02,-4.998548328876495361e-02,7.510141469538211823e-03,2.427011029794812202e-03,5.508966743946075439e-03,-3.621809184551239014e-02,3.112982511520385742e-01,-1.765674911439418793e-02,-2.188375033438205719e-02,7.196797523647546768e-03,-2.259681820869445801e-01,1.176377832889556885e-01,-2.647374570369720459e-02,-1.740575022995471954e-02,-1.477144844830036163e-02,-1.694750413298606873e-02,-2.592064999043941498e-02,4.204622469842433929e-03,-8.472076654434204102e-01,2.188722975552082062e-02,-1.773744821548461914e-02,-2.785970456898212433e-02,-7.233795523643493652e-02,4.969691112637519836e-02,3.783919289708137512e-02,-5.928038153797388077e-03,-4.805755801498889923e-03,1.549913920462131500e-02,2.826903201639652252e-02,1.336766593158245087e-02,1.624261401593685150e-02,-2.127078920602798462e-02,-2.112587727606296539e-02,1.919032260775566101e-02,1.992323063313961029e-02,-1.774511672556400299e-02,-1.419362053275108337e-02,-4.008268471807241440e-03,5.167371779680252075e-02,-2.348408102989196777e-02,-3.248008787631988525e-01,5.680425465106964111e-02,1.154401525855064392e-02,9.435981512069702148e-03,8.896338194608688354e-02,8.398544043302536011e-03,-8.645228110253810883e-03,6.905166059732437134e-02,1.724726147949695587e-02,8.569879829883575439e-02,-1.798781007528305054e-02,2.880270406603813171e-02,-1.538948565721511841e-01,2.511376515030860901e-02,4.802981391549110413e-03,8.503104746341705322e-02,-8.927809074521064758e-03,-2.461231779307126999e-03,-2.587281726300716400e-02,5.788766779005527496e-03,4.053722694516181946e-02,1.802967488765716553e-02,2.780277468264102936e-02,-3.196757286787033081e-03,-1.075860578566789627e-03,-6.397854536771774292e-03,-4.040555283427238464e-02,-1.039970964193344116e-01,7.046548277139663696e-02,-2.406810037791728973e-02,-4.248637706041336060e-02,1.122149080038070679e-02,-5.593392997980117798e-02,1.246573310345411301e-02,9.181036613881587982e-03,-2.456778101623058319e-02,-3.787776455283164978e-02,9.355075657367706299e-02,1.116240117698907852e-02,-8.304350823163986206e-02,3.303785342723131180e-03,1.900327205657958984e-02,1.524532120674848557e-02,9.233768098056316376e-03,5.814062897115945816e-03,2.770529501140117645e-02,1.413229573518037796e-02,-1.747356168925762177e-02
-3.436606749892234802e-02,4.394925385713577271e-02,9.185214340686798096e-02,1.509420871734619141e-01,5.403432995080947876e-03,6.767124868929386139e-03,3.059712983667850494e-02,1.632808148860931396e-02,-4.952236078679561615e-03,2.113747596740722656e-02,-6.309848278760910034e-02,-1.427890092600136995e-04,-4.961587116122245789e-02,-1.587589085102081299e-02,-3.442896902561187744e-02,-1.304717641323804855e-02,-2.850677073001861572e-02,1.706895977258682251e-02,2.150082774460315704e-02,-4.438173770904541016e-02,1.257425080984830856e-02,-1.787228393368422985e-03,-9.029890410602092743e-03,4.282252863049507141e-02,3.944019321352243423e-03,6.992468261159956455e-04,4.132780246436595917e-03,4.381534829735755920e-02,-3.014703989028930664e-01,-1.082878783345222473e-01,-3.216732060536742210e-03,1.598662324249744415e-02,2.428405135869979858e-01,-1.501317322254180908e-01,2.083319984376430511e-02,-4.101505130529403687e-02,2.516390231903642416e-04,2.673619240522384644e-02,2.059146575629711151e-02,1.687838579528033733e-03,7.153803110122680664e-01,-8.221739903092384338e-03,-6.328350864350795746e-03,-8.494997746311128139e-04,2.740347571671009064e-02,-4.034810140728950500e-02,-3.899148479104042053e-02,1.186570711433887482e-02,7.003687322139739990e-03,-4.113039001822471619e-03,-1.520962640643119812e-02,1.592153497040271759e-02,1.702730543911457062e-02,1.621789112687110901e-02,7.603839039802551270e-03,-1.180306263267993927e-02,-4.373277723789215088e-02,1.273160707205533981e-02,-2.925029257312417030e-03,1.571262441575527191e-02,-6.460914015769958496e-02,1.378796808421611786e-02,2.432150095701217651e-01,1.710754074156284332e-02,-1.756008481606841087e-03,-1.865754835307598114e-03,3.164594247937202454e-02,2.485261298716068268e-03,2.402103133499622345e-02,-1.157899480313062668e-02,2.487059682607650757e-02,-5.559509992599487305e-02,8.229826577007770538e-03,-6.590586155652999878e-02,1.768445223569869995e-01,-1.499531604349613190e-02,1.759529672563076019e-02,-9.699286520481109619e-02,2.573722600936889648e-01,3.932511806488037109e-02,1.740145683288574219e-02,6.225431803613901138e-03,-5.028629302978515625e-02,-1.294632442295551300e-02,-8.529790677130222321e-03,-1.148246810771524906e-03,-2.074645087122917175e-02,-5.737339146435260773e-03,2.196499705314636230e-02,5.860289931297302246e-02,-1.536450535058975220e-02,6.513617932796478271e-03,-2.234483137726783752e-02,1.434664154658094049e-04,3.534705191850662231e-02,5.711994133889675140e-03,-1.275199116207659245e-03,3.841334208846092224e-02,4.788929969072341919e-02,-8.504921197891235352e-02,1.920136390253901482e-03,3.593512475490570068e-01,-2.335924073122441769e-04,-5.994816892780363560e-04,-2.033533900976181030e-02,-9.543579653836786747e-04,-1.887608133256435394e-02,-3.674205020070075989e-02,-7.594266906380653381e-03,4.252251703292131424e-03
7.116099004633724689e-04,-1.063250843435525894e-02,-1.863497644662857056e-01,-8.266608417034149170e-02,-2.670854330062866211e-02,3.284532343968749046e-03,-2.493430674076080322e-02,-4.598575830459594727e-02,-3.565230593085289001e-02,-3.291036561131477356e-02,-4.317267666920088232e-05,9.421760216355323792e-03,-8.128979243338108063e-03,-1.377231255173683167e-02,4.056288301944732666e-02,-4.154476802796125412e-03,7.443118095397949219e-02,-4.801995679736137390e-02,-6.149245798587799072e-02,1.758002676069736481e-02,1.464624539948999882e-03,-4.401004407554864883e-03,-2.151533588767051697e-02,-8.630421943962574005e-03,5.595197435468435287e-03,3.696040716022253036e-03,6.051245611160993576e-03,-3.732863697223365307e-04,-6.437236815690994263e-02,4.898824915289878845e-02,3.763563185930252075e-02,-8.212363347411155701e-03,2.620134875178337097e-02,2.053355053067207336e-02,2.325515635311603546e-02,3.654212877154350281e-02,-5.184121429920196533e-03,5.389411002397537231e-02,-1.035844068974256516e-02,-1.346553117036819458e-02,-2.371280193328857422e-01,-3.299200162291526794e-02,-1.884996704757213593e-02,9.675285220146179199e-02,3.922088444232940674e-02,2.222364582121372223e-02,8.991971611976623535e-03,2.073720656335353851e-02,-2.412513457238674164e-02,3.184775589033961296e-03,3.477253485471010208e-04,-2.357264515012502670e-03,-4.966320842504501343e-02,3.228172659873962402e-02,-6.001047790050506592e-03,1.109411660581827164e-02,-1.307471934705972672e-02,3.400459513068199158e-02,2.107536792755126953e-02,1.559597346931695938e-02,-1.288711279630661011e-02,8.507849648594856262e-03,4.647265747189521790e-02,-1.159900650382041931e-01,8.954749442636966705e-03,-2.105050906538963318e-02,-1.506818830966949463e-01,1.180951949208974838e-03,3.231365606188774109e-02,-7.866951636970043182e-03,-1.272751763463020325e-02,1.471019908785820007e-02,-6.070912349969148636e-04,9.650275111198425293e-02,1.404046453535556793e-02,1.008358784019947052e-02,2.502016350626945496e-02,3.341183299198746681e-03,-2.138804495334625244e-01,-1.390975154936313629e-02,2.563104033470153809e-02,-2.068909071385860443e-02,-1.647520251572132111e-02,6.101868115365505219e-03,6.287125404924154282e-03,-2.491675782948732376e-03,2.720567025244235992e-02,-7.145918905735015869e-03,-1.096526719629764557e-02,-3.099351888522505760e-03,2.836149744689464569e-02,1.395294815301895142e-02,-2.587027847766876221e-02,3.974665887653827667e-03,-2.405808493494987488e-02,5.257417913526296616e-03,-3.528817743062973022e-02,-1.705104112625122070e-02,-1.284068077802658081e-02,-9.267716668546199799e-03,9.485528804361820221e-03,-6.344395875930786133e-01,-2.095834352076053619e-02,-8.591672405600547791e-03,-2.287724986672401428e-02,8.829533122479915619e-03,-2.364251576364040375e-02,3.056191653013229370e-02,7.942062802612781525e-03,2.832507016137242317e-03
-2.160355262458324432e-02,1.293565984815359116e-02,1.677733659744262695e-01,-1.128240525722503662e-01,3.567101433873176575e-02,7.948380080051720142e-04,6.290365476161241531e-03,8.441744372248649597e-03,3.235816489905118942e-03,6.694586016237735748e-03,7.495968788862228394e-02,2.781034680083394051e-03,-1.399219315499067307e-02,7.393506355583667755e-03,-3.286245837807655334e-02,-1.382627408020198345e-03,2.394005842506885529e-02,3.273798897862434387e-02,1.958321593701839447e-02,-2.045406028628349304e-02,-3.654923290014266968e-03,-1.229888293892145157e-02,1.959619857370853424e-02,5.210319068282842636e-04,3.278568154200911522e-03,1.774669159203767776e-03,3.468235256150364876e-03,9.839113801717758179e-03,7.598886638879776001e-02,-7.980997860431671143e-02,-1.854622736573219299e-02,1.022413186728954315e-02,-1.830104552209377289e-02,5.323811993002891541e-02,-2.195695228874683380e-02,-1.795795187354087830e-02,-1.281316508539021015e-03,7.134780753403902054e-03,-2.189727034419775009e-03,1.882577128708362579e-02,6.393118202686309814e-02,3.014270216226577759e-02,-3.528744354844093323e-02,-1.040194258093833923e-01,-3.509841859340667725e-02,1.066004298627376556e-02,4.367781803011894226e-02,-1.013134699314832687e-02,1.603867672383785248e-02,1.522042695432901382e-02,1.265698112547397614e-02,-3.313779132440686226e-03,4.713251069188117981e-02,-1.842732913792133331e-02,6.054955068975687027e-03,2.780382754281163216e-03,-1.090857945382595062e-02,-2.216222882270812988e-02,-1.001640222966670990e-02,-8.642527274787425995e-03,5.686470493674278259e-02,8.110594353638589382e-04,7.845791429281234741e-02,7.788905501365661621e-02,4.337015096098184586e-03,5.545936990529298782e-03,7.337683439254760742e-02,2.187099307775497437e-03,-8.162628859281539917e-03,7.153812330216169357e-03,2.817453816533088684e-02,-3.196532279253005981e-02,3.761557489633560181e-02,-6.226298958063125610e-02,-2.933915518224239349e-02,-1.108114607632160187e-02,-1.088165096007287502e-03,3.457782417535781860e-02,1.267452836036682129e-01,2.784627489745616913e-02,-2.645631879568099976e-02,1.440957654267549515e-02,-3.173266071826219559e-03,-1.102845650166273117e-03,5.239224061369895935e-03,1.306139118969440460e-02,-1.176114752888679504e-02,-1.722165266983211040e-03,-2.384420298039913177e-02,-4.175236972514539957e-04,-1.679022982716560364e-02,-2.537067979574203491e-02,3.556343913078308105e-02,-1.133340294472873211e-03,3.304686769843101501e-02,1.304047880694270134e-03,3.853970766067504883e-02,1.721447147428989410e-02,-5.180763080716133118e-03,-1.852311939001083374e-02,-3.559035714715719223e-03,3.689737021923065186e-01,-2.689970191568136215e-03,-8.251251652836799622e-03,3.165384382009506226e-02,-6.626507383771240711e-04,1.876727119088172913e-02,-3.131734952330589294e-02,3.502936335280537605e-03,-9.400992654263973236e-03
9.652466513216495514e-03,3.856093809008598328e-02,-9.678468108177185059e-02,9.538426250219345093e-02,5.280220415443181992e-03,-2.718739910051226616e-03,-1.646853983402252197e-02,-1.946830004453659058e-02,-1.512826140969991684e-02,-6.902231834828853607e-03,-2.264930307865142822e-02,-3.328678663820028305e-03,-4.991382360458374023e-03,-9.034292772412300110e-03,1.297464221715927124e-02,1.220043282955884933e-03,-1.594755053520202637e-02,-4.969473183155059814e-02,-2.642335742712020874e-02,7.748255971819162369e-03,4.130247980356216431e-03,-2.303689252585172653e-03,-1.027770433574914932e-02,-1.145013421773910522e-02,-2.868939656764268875e-03,-1.399936852976679802e-03,-2.810790902003645897e-03,1.290320698171854019e-02,-3.044059872627258301e-02,7.516919821500778198e-02,-3.988347889389842749e-04,-1.275101024657487869e-02,-3.800143254920840263e-03,-6.028593704104423523e-02,4.728273954242467880e-03,-3.304478526115417480e-02,2.221331698819994926e-03,-2.229475416243076324e-02,3.799901576712727547e-03,-3.052719123661518097e-02,-5.469209700822830200e-02,-2.336858399212360382e-02,2.928802277892827988e-03,8.270983397960662842e-02,-5.527777131646871567e-03,9.307538159191608429e-03,-2.013036422431468964e-02,-5.469956900924444199e-03,-1.800167188048362732e-02,-7.638383191078901291e-03,1.279459334909915924e-02,2.044866560027003288e-03,-3.145072981715202332e-02,1.546859368681907654e-02,-1.227890327572822571e-02,-3.945796750485897064e-03,3.624617238529026508e-05,9.411018341779708862e-03,2.236285619437694550e-02,1.415185048244893551e-03,-2.492470853030681610e-02,2.131715603172779083e-02,-1.094945222139358521e-01,-2.911393344402313232e-02,-4.580381326377391815e-03,5.243011750280857086e-03,2.321524173021316528e-02,-6.614977028220891953e-03,-4.352867603302001953e-03,-2.163254842162132263e-02,6.760850548744201660e-03,2.349712327122688293e-02,-3.924306854605674744e-02,6.495284289121627808e-02,3.988883399870246649e-04,-5.839702207595109940e-04,1.317840814590454102e-02,-4.708033986389636993e-03,-5.256395414471626282e-02,-1.432499103248119354e-02,2.508304081857204437e-02,1.961071975529193878e-02,-1.395009551197290421e-02,-8.353536017239093781e-03,2.065223082900047302e-02,-1.405192445963621140e-02,2.574583701789379120e-02,2.932810457423329353e-03,6.784144788980484009e-03,7.493752054870128632e-03,1.022298168390989304e-02,-3.773734904825687408e-03,-2.194135077297687531e-02,-2.741629257798194885e-03,4.234316572546958923e-02,1.673623104579746723e-03,-5.830059200525283813e-02,1.046120002865791321e-02,-4.459344781935214996e-03,2.489836188033223152e-04,9.455901454202830791e-04,-1.474450230598449707e-01,-2.195816719904541969e-03,-2.306363731622695923e-02,-6.942828744649887085e-02,-6.776176858693361282e-03,-1.484385505318641663e-02,2.571458462625741959e-03,-3.876564791426062584e-03,9.329424356110394001e-04
1.919827796518802643e-02,7.136804051697254181e-04,-4.815506981685757637e-04,-9.393942356109619141e-02,-2.703751809895038605e-02,-1.641933433711528778e-02,1.359843742102384567e-02,1.754176802933216095e-02,-1.254224404692649841e-02,-8.196419104933738708e-03,-2.907953411340713501e-02,-3.749749390408396721e-03,-3.164245560765266418e-02,9.793728590011596680e-03,-6.031904486007988453e-04,8.375299163162708282e-03,3.215218707919120789e-02,-7.663728669285774231e-03,7.562086102552711964e-04,-7.311192341148853302e-03,-3.191145136952400208e-02,-4.306019470095634460e-02,-3.489094600081443787e-02,2.447999827563762665e-02,-5.987118463963270187e-03,-2.350856550037860870e-02,-3.624433418735861778e-03,-4.428967367857694626e-03,4.001448862254619598e-03,-5.753714963793754578e-02,4.682210274040699005e-03,2.954477677121758461e-03,-5.938563030213117599e-03,-3.817921131849288940e-02,-7.791596581228077412e-04,2.342516183853149414e-02,7.223939988762140274e-03,1.379918586462736130e-02,9.087407030165195465e-03,1.067265588790178299e-02,-9.279799414798617363e-04,-1.053049135953187943e-02,-9.730469435453414917e-03,-3.807312250137329102e-02,3.774870932102203369e-02,8.176217786967754364e-03,-2.811496378853917122e-03,-2.139187417924404144e-02,1.669866964221000671e-02,-1.884037628769874573e-02,2.388262888416647911e-03,-1.491018384695053101e-02,-8.539779810234904289e-04,1.101477071642875671e-02,1.167739741504192352e-03,-1.240072119981050491e-02,-2.842886745929718018e-02,1.120173558592796326e-02,-1.979035884141921997e-02,2.617801912128925323e-02,-2.368353493511676788e-02,-2.310575544834136963e-02,6.915621459484100342e-02,-3.515413496643304825e-03,-6.818985100835561752e-03,1.573960483074188232e-02,-1.008874624967575073e-01,-1.625696569681167603e-02,-4.718186333775520325e-02,5.050012096762657166e-02,-6.690874695777893066e-03,-2.509417012333869934e-02,5.698820203542709351e-02,8.086191490292549133e-03,2.992011420428752899e-02,-8.073272183537483215e-03,4.036306217312812805e-02,-3.285042941570281982e-02,-1.844705268740653992e-02,1.879199640825390816e-03,3.595596179366111755e-02,-4.088813439011573792e-02,-3.466591984033584595e-02,-2.659307233989238739e-02,-9.354272857308387756e-03,-2.761662565171718597e-02,3.830626141279935837e-03,7.664120756089687347e-03,-1.909898035228252411e-02,3.951633814722299576e-03,7.858059369027614594e-03,1.752557791769504547e-02,-1.343227177858352661e-02,-1.971360994502902031e-03,1.739167422056198120e-02,-7.036804221570491791e-03,-1.022226293571293354e-03,-4.355669766664505005e-02,-2.916629426181316376e-02,-5.496462341398000717e-03,-1.326210680417716503e-03,-1.450285464525222778e-01,3.424189984798431396e-02,2.708754688501358032e-02,3.661815775558352470e-03,-9.139622561633586884e-03,2.545472979545593262e-02,1.097107026726007462e-02,-9.605650790035724640e-03,2.324291132390499115e-02
9.521620348095893860e-03,4.069168120622634888e-02,3.721870854496955872e-02,1.861294507980346680e-01,1.801501214504241943e-02,3.330981358885765076e-03,-7.082287687808275223e-03,-1.525608007796108723e-03,2.716946788132190704e-02,4.889488220214843750e-02,6.967912614345550537e-02,-1.343266852200031281e-02,5.845921114087104797e-03,5.734041915275156498e-04,-5.847130715847015381e-02,-2.168884675484150648e-04,-7.650674134492874146e-02,3.891850635409355164e-02,2.936972863972187042e-02,-1.582316495478153229e-02,1.857994310557842255e-02,8.245892822742462158e-03,2.936320938169956207e-02,2.393206581473350525e-02,-6.984835024923086166e-03,1.607055030763149261e-02,-1.210100203752517700e-02,-1.428621727973222733e-02,4.100744798779487610e-02,5.531033501029014587e-02,-1.182260271161794662e-02,-1.907528191804885864e-02,-5.573285743594169617e-02,-9.363161399960517883e-03,-1.154844556003808975e-02,-2.540608122944831848e-02,4.490497987717390060e-03,8.148204535245895386e-03,6.205092649906873703e-03,3.578547912184149027e-04,3.464880958199501038e-02,9.599246550351381302e-04,2.228669822216033936e-02,3.810790926218032837e-02,-1.134958211332559586e-02,-2.853444591164588928e-02,-2.655756101012229919e-02,1.662381179630756378e-02,1.159659214317798615e-02,1.623036153614521027e-02,2.418199554085731506e-03,5.603108927607536316e-02,-5.846054758876562119e-03,-2.468501217663288116e-02,-1.275085651286644861e-05,-2.393139293417334557e-03,1.909565366804599762e-02,-2.252551540732383728e-02,3.533300710842013359e-03,1.615329645574092865e-02,2.469318732619285583e-02,1.427650172263383865e-02,-1.122605204582214355e-01,1.822067983448505402e-02,-1.161590591073036194e-02,3.950837999582290649e-03,1.453274339437484741e-01,1.113493228331208229e-03,1.057418808341026306e-02,-8.721210062503814697e-03,-2.718246541917324066e-02,9.157660417258739471e-03,-3.842124342918395996e-02,-2.448056451976299286e-02,-6.883879005908966064e-02,-2.322169393301010132e-02,-3.382597863674163818e-02,3.735539689660072327e-02,9.402921050786972046e-02,1.829923503100872040e-02,-3.033391758799552917e-02,1.891897246241569519e-02,-1.014423184096813202e-02,7.678756490349769592e-03,-2.137237228453159332e-02,1.157717965543270111e-02,-8.292822167277336121e-03,2.792685991153120995e-03,5.328437313437461853e-02,1.193297654390335083e-02,-4.365979135036468506e-02,1.749488525092601776e-03,2.185470052063465118e-02,-1.382899750024080276e-02,-5.287536233663558960e-02,-4.715675022453069687e-03,-2.739342674612998962e-02,2.500497363507747650e-02,3.927258774638175964e-03,7.092580199241638184e-03,-1.360528822988271713e-02,3.111262917518615723e-01,2.830953337252140045e-03,-1.782007887959480286e-02,-2.652910724282264709e-02,-2.917652716860175133e-03,-3.021350689232349396e-02,3.523789346218109131e-04,-2.332557924091815948e-03,-4.608943592756986618e-03
-3.386751050129532814e-03,8.612841367721557617e-03,-4.357668757438659668e-02,-2.479637414216995239e-01,-2.362743020057678223e-02,3.247833345085382462e-03,-1.187965553253889084e-02,-1.182373845949769020e-03,-1.102631445974111557e-02,-7.413516938686370850e-02,-6.191346421837806702e-02,1.523322518914937973e-02,1.429995335638523102e-02,-5.898339208215475082e-03,3.107857331633567810e-02,-9.682212956249713898e-03,9.912333637475967407e-02,-2.513401582837104797e-02,-1.174973044544458389e-02,-1.116943638771772385e-02,-1.916348235681653023e-03,-2.331841923296451569e-02,-5.547805223613977432e-03,-3.956615552306175232e-02,1.282093208283185959e-02,-6.341828033328056335e-03,1.538321562111377716e-02,2.523112809285521507e-03,-4.215560108423233032e-02,-6.050436198711395264e-02,1.759803853929042816e-02,-1.826140657067298889e-02,7.392812520265579224e-02,6.796105951070785522e-02,1.708166860044002533e-02,4.684112593531608582e-02,-7.975569926202297211e-03,-3.931029886007308960e-02,-9.784316644072532654e-03,-1.658665575087070465e-02,-9.583009034395217896e-02,3.722371533513069153e-03,5.456952843815088272e-03,-6.057639420032501221e-02,2.264824323356151581e-02,2.027099393308162689e-02,2.631825767457485199e-02,1.641220785677433014e-02,1.494629215449094772e-02,-4.259231034666299820e-03,-1.344441715627908707e-02,-1.626646704971790314e-02,1.090027298778295517e-02,1.623186841607093811e-02,-3.911542892456054688e-02,1.047394331544637680e-02,1.191200688481330872e-03,2.661960385739803314e-02,-4.255583509802818298e-03,2.763454988598823547e-02,2.908642403781414032e-03,-3.347662277519702911e-03,1.406098306179046631e-01,-9.415901452302932739e-02,1.353396940976381302e-02,-3.724560374394059181e-03,-2.183103412389755249e-01,5.164450034499168396e-03,-7.863563485443592072e-03,-1.428041048347949982e-02,2.284531109035015106e-02,-1.873841881752014160e-02,1.905232109129428864e-02,-1.580083929002285004e-02,6.374045461416244507e-02,5.351741611957550049e-02,1.964744925498962402e-02,-1.728812791407108307e-02,-1.352025419473648071e-01,-6.139745935797691345e-03,6.047813221812248230e-04,-5.307395011186599731e-03,7.636759895831346512e-03,9.488040581345558167e-03,-1.672627218067646027e-02,7.734301965683698654e-03,1.286039035767316818e-02,-1.046856120228767395e-02,-3.245362639427185059e-02,2.352766878902912140e-02,5.221600458025932312e-02,1.028806218528188765e-04,-1.767258904874324799e-02,1.333055365830659866e-02,3.860477730631828308e-02,9.230710566043853760e-03,1.534234918653964996e-02,-2.930696867406368256e-02,2.353630727156996727e-03,-1.900590211153030396e-02,1.271228957921266556e-02,-3.938414156436920166e-01,-1.768662035465240479e-02,1.125888433307409286e-02,1.778841949999332428e-02,1.280105765908956528e-02,-3.304347395896911621e-02,8.988145738840103149e-03,1.233042404055595398e-02,-9.517077356576919556e-03
-4.723921045660972595e-02,-4.374969005584716797e-02,2.940377406775951385e-02,2.429307997226715088e-01,4.127449542284011841e-02,9.190280921757221222e-03,2.961784228682518005e-02,-4.249831661581993103e-03,-1.080319192260503769e-02,-7.590976078063249588e-03,-1.113555021584033966e-02,-1.041689328849315643e-02,-5.027978659200016409e-06,1.488463208079338074e-02,1.476382650434970856e-02,1.547315530478954315e-02,-1.044543012976646423e-01,-2.072378993034362793e-02,-3.113959543406963348e-02,2.817591279745101929e-02,-3.495958074927330017e-02,2.694872952997684479e-02,1.422741450369358063e-02,-3.014662861824035645e-02,-7.631320971995592117e-03,1.221542153507471085e-02,-1.307449769228696823e-02,-1.000103726983070374e-02,4.084049537777900696e-02,7.750820368528366089e-02,-1.151297334581613541e-02,3.787043318152427673e-02,1.749919378198683262e-03,-1.352394074201583862e-01,-1.118483394384384155e-02,-5.485938861966133118e-03,9.532067924737930298e-03,1.800279319286346436e-02,1.505578286014497280e-03,1.730663143098354340e-02,9.455183148384094238e-02,-2.265480160713195801e-02,7.047114521265029907e-02,6.326928734779357910e-02,-3.966308012604713440e-02,1.315770018845796585e-02,-3.393178572878241539e-03,2.800704678520560265e-03,2.416254393756389618e-02,-2.821072004735469818e-02,-5.321560893207788467e-03,-4.787213355302810669e-02,-8.450690656900405884e-04,-3.455772623419761658e-02,3.930158168077468872e-02,-4.953003954142332077e-03,-2.309032017365098000e-03,-2.656219340860843658e-02,-1.915501989424228668e-02,-3.063074685633182526e-02,-2.512001059949398041e-02,5.643546581268310547e-02,-1.050845310091972351e-01,5.792573466897010803e-02,-9.627655148506164551e-03,1.106088515371084213e-02,1.709553748369216919e-01,-5.318845505826175213e-04,-1.997322589159011841e-02,6.400579586625099182e-03,9.135856479406356812e-02,6.039311364293098450e-02,6.414004601538181305e-03,-1.828187704086303711e-02,-4.664101451635360718e-02,-3.726686537265777588e-02,-1.206710468977689743e-02,-4.992629960179328918e-02,9.940978139638900757e-02,1.089410018175840378e-02,-1.295152865350246429e-02,3.161966428160667419e-02,1.919998228549957275e-02,-7.117465138435363770e-03,-4.079123958945274353e-03,1.131083816289901733e-02,-4.224949516355991364e-03,1.351884845644235611e-02,3.040436655282974243e-02,-1.976920850574970245e-02,-1.004440709948539734e-02,-6.022783927619457245e-03,-1.495879888534545898e-02,-5.826251115649938583e-03,4.022324457764625549e-03,-9.871458634734153748e-03,1.765601336956024170e-02,2.573517896234989166e-02,-3.823529556393623352e-02,2.656858228147029877e-02,-1.448547840118408203e-02,3.456704914569854736e-01,-1.226211665198206902e-03,1.081379689276218414e-02,2.719724923372268677e-02,-1.200955919921398163e-02,2.895863167941570282e-02,3.437955677509307861e-02,-7.655985653400421143e-03,8.865644223988056183e-03
1.247293222695589066e-02,2.051971480250358582e-02,-2.363138087093830109e-02,-2.149570435285568237e-01,-1.214511692523956299e-02,-1.372967474162578583e-02,2.560350671410560608e-02,-8.257090114057064056e-03,-3.943461179733276367e-02,2.080189622938632965e-02,-4.180743545293807983e-02,4.243328701704740524e-03,-2.794215269386768341e-02,-6.373567506670951843e-03,9.492501616477966309e-03,5.750920972786843777e-04,8.462870866060256958e-02,4.076602309942245483e-02,2.305871434509754181e-02,-2.649831399321556091e-02,2.322817593812942505e-02,-4.414749145507812500e-02,-2.159391157329082489e-02,4.493053629994392395e-02,-2.015050500631332397e-03,-1.419673673808574677e-02,5.619707517325878143e-03,3.105755895376205444e-02,-4.528350755572319031e-02,-1.239985786378383636e-02,1.158200763165950775e-02,-2.502189949154853821e-02,5.719643831253051758e-02,1.003657281398773193e-01,5.079853348433971405e-03,-7.845364511013031006e-03,-2.092369686579331756e-04,1.464427565224468708e-03,8.910931646823883057e-03,-9.551659459248185158e-04,-1.065075322985649109e-01,-1.601716503500938416e-02,-5.739457532763481140e-02,-5.484914779663085938e-02,1.621581986546516418e-02,-2.053342387080192566e-02,2.781491493806242943e-03,-1.891857571899890900e-02,-2.318287454545497894e-02,1.876131072640419006e-02,1.418488658964633942e-02,1.655947230756282806e-02,3.886074945330619812e-02,3.862443566322326660e-02,3.103057481348514557e-02,-4.681897349655628204e-03,-1.227673701941967010e-02,2.405690029263496399e-02,-3.026475198566913605e-03,-1.023951731622219086e-02,8.042006753385066986e-03,-3.778239712119102478e-02,7.139416784048080444e-02,-6.110201403498649597e-02,2.981915837153792381e-03,-2.293962240219116211e-02,-9.590938687324523926e-02,-6.744278594851493835e-03,2.269062027335166931e-02,4.549509380012750626e-03,-1.506798435002565384e-02,-5.419557541608810425e-02,-6.352275144308805466e-03,-3.075189143419265747e-02,5.322406440973281860e-02,2.564643323421478271e-02,3.000602312386035919e-02,7.364880293607711792e-02,-6.280769407749176025e-02,-8.474355563521385193e-03,2.288497239351272583e-02,-1.249478608369827271e-01,-2.780693396925926208e-02,-9.472224861383438110e-03,2.973038889467716217e-02,-1.436838973313570023e-02,-9.210980497300624847e-03,-2.708374056965112686e-03,-2.074474655091762543e-02,3.283965867012739182e-03,2.385958097875118256e-02,-2.327466383576393127e-03,-2.471127733588218689e-02,-8.036117069423198700e-03,-4.271379858255386353e-02,-2.334851305931806564e-03,-2.962182089686393738e-02,-3.004050441086292267e-02,4.324489831924438477e-02,-3.361596539616584778e-02,7.445901632308959961e-03,-2.852036952972412109e-01,-1.180996000766754150e-02,1.783567294478416443e-02,-2.089526690542697906e-02,-7.031324203126132488e-04,-5.457377992570400238e-03,-2.956093475222587585e-02,-1.175996265374124050e-03,3.398591186851263046e-03
2.275658026337623596e-02,1.678945869207382202e-02,-1.373583544045686722e-02,4.587779287248849869e-03,5.095151253044605255e-03,-1.445577130652964115e-03,-2.454935945570468903e-02,-7.846567779779434204e-03,5.215101875364780426e-03,1.292632799595594406e-02,4.610322788357734680e-02,-3.703272202983498573e-03,4.718139301985502243e-03,-8.598944172263145447e-03,-1.990289241075515747e-02,5.532683804631233215e-03,7.661499083042144775e-03,3.681996092200279236e-02,-1.006749644875526428e-02,-5.547847598791122437e-03,1.227635703980922699e-02,-1.067757140845060349e-02,1.294926367700099945e-02,-2.142483741044998169e-02,-1.242879312485456467e-03,2.778729540295898914e-04,-6.188732804730534554e-04,-6.724458653479814529e-03,-2.650297014042735100e-03,5.019066855311393738e-02,-1.827177964150905609e-02,-3.652988374233245850e-02,-3.212763229385018349e-03,-6.269450485706329346e-02,-2.044482901692390442e-02,-3.178742714226245880e-03,3.761531785130500793e-03,-2.431053854525089264e-02,1.841247663833200932e-03,-2.490961924195289612e-02,7.113225013017654419e-02,-3.314940258860588074e-02,2.199707785621285439e-03,-4.152942856308072805e-04,-4.360053688287734985e-03,1.140105631202459335e-02,3.931137546896934509e-02,8.804566226899623871e-03,1.505966950207948685e-02,-1.045044604688882828e-02,-6.616216152906417847e-03,-2.428737841546535492e-02,2.268748730421066284e-02,-1.161543186753988266e-02,-2.930110320448875427e-02,-2.964188111945986748e-03,-2.857425482943654060e-03,-6.491552572697401047e-03,-2.138271695002913475e-03,1.216577924787998199e-02,3.209928423166275024e-02,3.650620579719543457e-02,-1.524625113233923912e-04,1.178621407598257065e-02,-1.294104382395744324e-03,2.723134355619549751e-03,-6.014434620738029480e-02,-2.222130540758371353e-03,-1.269967108964920044e-02,3.498170117381960154e-04,-6.091982498764991760e-02,6.259500980377197266e-03,-5.871046334505081177e-03,1.865586079657077789e-02,-2.384497784078121185e-02,-8.904506452381610870e-03,-1.655592955648899078e-02,-5.730558186769485474e-02,5.217973608523607254e-03,1.686829142272472382e-02,-1.139819715172052383e-02,-7.676613517105579376e-03,6.282914429903030396e-03,2.876559039577841759e-03,-1.736718788743019104e-02,1.806809566915035248e-02,7.616071496158838272e-03,3.016193630173802376e-03,2.094300463795661926e-02,-3.916689381003379822e-02,-3.480246290564537048e-02,-2.090135216712951660e-02,4.727272316813468933e-02,-1.481645856983959675e-03,6.536348909139633179e-02,-2.832200145348906517e-03,1.037306617945432663e-02,2.035722136497497559e-02,-2.273518778383731842e-02,2.540857531130313873e-02,-7.139525841921567917e-03,1.242908835411071777e-02,-3.236421325709670782e-04,-2.902065403759479523e-02,-4.340384900569915771e-02,-2.725451253354549408e-03,2.843105932697653770e-03,-1.790340244770050049e-02,-2.671242924407124519e-03,2.462408272549510002e-03
7.408943492919206619e-03,-1.583067327737808228e-02,-1.149073429405689240e-02,-2.042159251868724823e-02,7.010892964899539948e-03,8.167527616024017334e-03,1.940099149942398071e-02,3.308927267789840698e-02,1.884127408266067505e-02,3.824587166309356689e-02,-5.235292762517929077e-02,1.173089444637298584e-02,-1.610678806900978088e-02,-1.291932165622711182e-02,4.603881016373634338e-02,6.031123339198529720e-04,-6.658250000327825546e-03,8.907120674848556519e-03,1.811207272112369537e-02,1.826202310621738434e-02,-3.177244216203689575e-02,1.727574318647384644e-02,4.937320947647094727e-03,-5.637183785438537598e-02,9.670156054198741913e-03,7.479158695787191391e-03,9.456460364162921906e-03,4.382576327770948410e-03,1.315293833613395691e-02,-5.928175151348114014e-02,1.156126242130994797e-02,7.174560427665710449e-02,1.264391187578439713e-02,-1.199122052639722824e-02,2.080305293202400208e-02,1.870672218501567841e-02,-5.812063347548246384e-03,6.858658045530319214e-02,-1.147771719843149185e-02,6.212116032838821411e-02,-6.770244985818862915e-02,-2.772966027259826660e-02,-3.301113471388816833e-02,-5.882319994270801544e-03,-1.612935960292816162e-02,-5.092401430010795593e-02,-4.527016077190637589e-03,-1.015037763863801956e-02,-4.493846092373132706e-03,1.553148217499256134e-02,7.461897097527980804e-03,3.571344539523124695e-02,-2.555421926081180573e-02,1.726672612130641937e-02,7.289772480726242065e-02,8.454411290585994720e-03,-3.586113220080733299e-03,1.608278788626194000e-02,-1.977602764964103699e-02,-1.339004095643758774e-02,3.799445927143096924e-02,-7.266845554113388062e-02,-2.469561807811260223e-02,1.677774637937545776e-02,1.226194668561220169e-02,-4.173028748482465744e-03,2.142934687435626984e-02,1.012611109763383865e-02,2.930837683379650116e-02,-1.659397780895233154e-02,6.161201745271682739e-02,2.460325136780738831e-02,-8.565566502511501312e-03,-3.186148777604103088e-02,-2.612033858895301819e-02,9.276270866394042969e-03,1.834242045879364014e-02,5.970927700400352478e-02,2.523695118725299835e-03,-8.101053535938262939e-03,-4.864921327680349350e-03,-3.330835700035095215e-02,-1.359433680772781372e-02,5.582282319664955139e-03,2.871347777545452118e-02,-2.274108352139592171e-03,-1.520904153585433960e-02,-3.598365932703018188e-03,1.048361882567405701e-02,1.886251196265220642e-02,4.597839713096618652e-02,5.322743207216262817e-03,2.008941024541854858e-02,9.243194013833999634e-03,-6.580724567174911499e-02,3.043169854208827019e-03,2.422670833766460419e-02,4.034351557493209839e-03,3.524755313992500305e-02,-2.399842441082000732e-02,8.362328633666038513e-03,-6.135893054306507111e-03,1.285218913108110428e-02,5.365801975131034851e-02,5.414699763059616089e-02,6.301921326667070389e-03,2.103432267904281616e-02,1.266428735107183456e-02,9.131774306297302246e-03,-2.565581584349274635e-03
-1.258637569844722748e-02,-4.733313620090484619e-02,1.622758433222770691e-02,-2.832657890394330025e-03,5.765985231846570969e-03,1.060893852263689041e-02,-3.260204941034317017e-02,1.788556389510631561e-02,-2.656054450199007988e-03,-4.756946861743927002e-02,3.303627297282218933e-02,5.569490604102611542e-03,6.628389470279216766e-03,-3.467520233243703842e-03,-1.045336760580539703e-02,-7.135154213756322861e-03,2.406293526291847229e-02,2.069923095405101776e-03,-5.325280595570802689e-03,1.530316844582557678e-02,2.317510545253753662e-02,-3.677330538630485535e-02,1.309268642216920853e-02,7.146072573959827423e-03,1.105182711035013199e-02,9.805657900869846344e-03,9.343782439827919006e-03,1.963674090802669525e-03,-2.575350925326347351e-02,5.653874948620796204e-02,-1.170179620385169983e-02,3.103495016694068909e-02,4.824651405215263367e-02,-5.997344851493835449e-02,6.023673340678215027e-03,1.925986260175704956e-02,-6.291725207120180130e-03,-3.716500848531723022e-02,-8.906783536076545715e-03,-2.624810487031936646e-02,3.663247078657150269e-02,-5.919255688786506653e-02,5.070239305496215820e-02,-4.733178019523620605e-02,-1.601398363709449768e-02,2.936279028654098511e-02,-1.579782180488109589e-02,1.976124010980129242e-02,-3.148937597870826721e-03,2.797047048807144165e-02,5.665493197739124298e-03,4.195286333560943604e-02,3.540770336985588074e-02,-4.366554785519838333e-03,-1.363742258399724960e-02,6.022387184202671051e-03,4.967233631759881973e-03,-1.078915083780884743e-03,1.736927032470703125e-02,5.144591256976127625e-02,-3.053105808794498444e-02,-4.132896661758422852e-02,1.789254695177078247e-02,-2.794506028294563293e-02,9.892418980598449707e-03,1.933629438281059265e-02,-1.218708232045173645e-02,6.976877339184284210e-03,-3.675550222396850586e-02,-1.926329918205738068e-02,1.422905828803777695e-02,3.527814149856567383e-02,2.042035944759845734e-02,-1.574336178600788116e-02,-6.814443040639162064e-03,1.728083379566669464e-02,-2.975654788315296173e-03,-5.835149437189102173e-02,1.003284845501184464e-02,1.011205371469259262e-02,-9.752862155437469482e-03,-6.175243109464645386e-02,-4.366423003375530243e-03,4.865173716098070145e-03,-6.872830539941787720e-02,9.630726650357246399e-03,-5.728280637413263321e-03,-6.199645344167947769e-03,-1.416124589741230011e-02,-5.329042673110961914e-03,6.948072696104645729e-04,-9.620512835681438446e-03,5.065232142806053162e-02,2.773865591734647751e-03,4.208992049098014832e-02,5.680919159203767776e-03,2.863699570298194885e-03,-1.421129796653985977e-02,-2.139277569949626923e-02,3.519702702760696411e-02,7.230720017105340958e-03,2.099521085619926453e-02,7.533405907452106476e-03,-2.800908125936985016e-02,-5.857230350375175476e-02,1.094150915741920471e-02,-4.045810550451278687e-02,1.085519138723611832e-02,7.765782531350851059e-03,-8.188702631741762161e-04
-9.510524570941925049e-03,-6.377640366554260254e-02,3.348247706890106201e-02,-1.049630064517259598e-02,-8.967229165136814117e-03,1.913937181234359741e-02,7.988653145730495453e-03,-2.096618898212909698e-02,-3.861272707581520081e-02,-5.376042332500219345e-03,-1.667771115899085999e-02,1.131400652229785919e-02,3.086586715653538704e-03,-2.069249935448169708e-02,-7.494354154914617538e-03,-8.720271289348602295e-03,-1.413633488118648529e-02,3.178664296865463257e-02,1.095663104206323624e-02,-2.494140062481164932e-03,-1.427889894694089890e-02,-3.534663468599319458e-03,9.047748520970344543e-03,-1.473677810281515121e-03,1.689724810421466827e-02,1.939772628247737885e-02,1.246212515980005264e-02,7.821483537554740906e-03,6.182555574923753738e-03,7.891161367297172546e-03,3.187269321642816067e-04,-3.058609180152416229e-02,-3.969548642635345459e-02,-5.673273652791976929e-02,1.616505905985832214e-02,4.245090484619140625e-02,-1.156226638704538345e-02,-2.722256816923618317e-02,-1.359709538519382477e-02,-2.532355859875679016e-02,1.129501778632402420e-02,-3.480562241747975349e-03,7.314614951610565186e-03,6.403967738151550293e-02,-2.433041855692863464e-02,-3.229489549994468689e-03,-2.965521300211548805e-03,1.762184686958789825e-02,2.572321146726608276e-02,1.522851549088954926e-02,3.142121713608503342e-03,-6.820755079388618469e-03,1.369805634021759033e-02,9.923178702592849731e-03,3.506428748369216919e-02,8.355583064258098602e-03,1.879785768687725067e-02,9.805843234062194824e-03,-1.170836109668016434e-02,-6.174236536026000977e-03,-2.070558443665504456e-02,8.335986174643039703e-03,8.200718089938163757e-03,2.792035415768623352e-02,1.127773057669401169e-02,-1.367335394024848938e-02,-1.537473872303962708e-02,2.166390605270862579e-02,5.616885051131248474e-02,-5.503937602043151855e-03,-3.216048702597618103e-02,9.083362296223640442e-03,-3.091172128915786743e-02,-5.029943585395812988e-02,1.543130539357662201e-02,1.259745936840772629e-02,9.823234286159276962e-04,-3.677086159586906433e-02,-3.258785232901573181e-03,-2.483480796217918396e-02,-6.843350362032651901e-03,-6.445917487144470215e-02,2.214863710105419159e-02,2.234392333775758743e-03,5.917765665799379349e-03,2.470570150762796402e-03,-8.608186617493629456e-03,-6.632923148572444916e-03,3.154864162206649780e-02,2.759997174143791199e-02,-5.306860897690057755e-03,-6.506605073809623718e-03,-1.543395873159170151e-02,1.469205692410469055e-02,-8.628726750612258911e-02,8.740460500121116638e-03,1.958461664617061615e-02,1.804468571208417416e-03,1.146673224866390228e-02,-2.641092054545879364e-02,1.747877337038516998e-02,2.378775179386138916e-02,2.164582908153533936e-02,2.079776488244533539e-02,4.269910231232643127e-02,9.666232392191886902e-03,2.457493357360363007e-02,3.811457427218556404e-03,1.021446008235216141e-02,-1.139807887375354767e-02
-1.980464719235897064e-02,-1.433018036186695099e-02,-2.184394560754299164e-02,1.059377449564635754e-03,-3.111628443002700806e-02,-6.292203441262245178e-03,2.254698984324932098e-02,3.743828833103179932e-02,-1.698999665677547455e-02,2.118345908820629120e-02,-2.039787359535694122e-02,-1.673414721153676510e-03,-7.988099940121173859e-03,-4.333484917879104614e-03,-3.133963327854871750e-03,1.211120374500751495e-02,-8.447304368019104004e-03,9.092863765545189381e-04,-9.131945669651031494e-03,2.808620920404791832e-03,-2.220911160111427307e-02,-4.524597153067588806e-02,-6.244319956749677658e-03,-7.038448937237262726e-03,-1.388196949847042561e-03,-1.019013021141290665e-02,-4.965724074281752110e-04,-1.175193861126899719e-02,-5.006347596645355225e-02,1.289749983698129654e-02,2.764400839805603027e-02,-4.394134879112243652e-02,-1.405179593712091446e-02,-5.771243199706077576e-02,1.853495091199874878e-02,5.031285807490348816e-02,4.529403988271951675e-03,2.185845514759421349e-03,5.412764847278594971e-03,3.379125520586967468e-02,-9.909254498779773712e-03,-5.452461168169975281e-02,-2.344152703881263733e-02,-4.197239503264427185e-02,-4.284877795726060867e-03,-5.398125387728214264e-03,1.930676773190498352e-02,5.065726581960916519e-03,7.892475277185440063e-02,1.536540128290653229e-02,-1.364036928862333298e-02,-1.572193764150142670e-02,-4.215562657918781042e-04,6.470528431236743927e-03,1.619703322649002075e-02,-8.526358753442764282e-03,-2.003355510532855988e-02,1.188411284238100052e-02,-3.536261152476072311e-03,1.330490107648074627e-03,3.650401160120964050e-02,-4.175167158246040344e-02,-8.728558197617530823e-03,-2.329551614820957184e-02,-1.632587751373648643e-03,-1.983317732810974121e-02,-2.390732057392597198e-02,-9.805215522646903992e-03,-1.882852241396903992e-02,-1.483396068215370178e-02,-4.811161011457443237e-02,-1.994304172694683075e-02,2.154988609254360199e-02,-1.528271660208702087e-02,1.627381704747676849e-02,-6.265355739742517471e-03,-1.026906073093414307e-03,-2.586643211543560028e-02,1.841100491583347321e-02,3.686864802148193121e-04,1.257622055709362030e-02,-5.539219826459884644e-02,-3.716376796364784241e-02,-1.387026254087686539e-02,3.329640626907348633e-02,-1.243957504630088806e-02,3.171620517969131470e-02,9.172923862934112549e-03,9.435478132218122482e-04,1.163156982511281967e-02,-1.758033968508243561e-02,7.892607711255550385e-03,1.742920279502868652e-02,-5.054784473031759262e-03,-1.814100146293640137e-02,-8.738309144973754883e-03,-3.463581204414367676e-02,-3.645528480410575867e-02,3.823056071996688843e-02,5.608459934592247009e-03,-1.032365718856453896e-03,1.447830628603696823e-02,1.041813846677541733e-02,2.120800316333770752e-02,3.247218206524848938e-03,-2.175372559577226639e-03,3.310921415686607361e-02,2.781816758215427399e-02,-4.081370774656534195e-03,1.994886435568332672e-02
6.176079623401165009e-03,-3.702108934521675110e-02,1.265679136849939823e-03,9.039688855409622192e-03,-9.746526367962360382e-03,-2.780140377581119537e-03,-3.214343637228012085e-02,3.108823858201503754e-02,1.323836855590343475e-02,-2.981930412352085114e-02,1.222988031804561615e-02,-5.324292927980422974e-03,3.230680525302886963e-02,7.479637861251831055e-04,1.159168593585491180e-02,1.412451174110174179e-02,-2.231844328343868256e-02,3.661435097455978394e-02,-4.790098406374454498e-03,-2.032712072832509875e-04,-1.362876687198877335e-02,-9.538578800857067108e-03,7.428009994328022003e-03,4.790840321220457554e-04,-1.630028942599892616e-03,-3.133933758363127708e-03,-1.674307626672089100e-03,-3.027867339551448822e-02,1.538566686213016510e-02,4.354510828852653503e-02,-9.077451191842556000e-03,3.101249411702156067e-02,6.672111339867115021e-03,-5.764483660459518433e-02,-6.866372423246502876e-04,-3.279068693518638611e-02,6.076817400753498077e-03,8.894317783415317535e-03,8.876007050275802612e-03,2.315422333776950836e-02,2.065100707113742828e-02,-6.635756045579910278e-02,1.103944424539804459e-02,3.938684239983558655e-02,-2.208206802606582642e-02,-1.727144233882427216e-02,1.725597307085990906e-02,-1.648833975195884705e-02,-2.657664753496646881e-02,-5.019009578973054886e-03,-8.908887393772602081e-03,-1.627489575184881687e-03,8.325179805979132652e-04,-1.349049247801303864e-02,3.128996491432189941e-02,-9.415323846042156219e-03,5.223179981112480164e-02,-8.639978244900703430e-03,-1.342407334595918655e-02,-2.119568176567554474e-02,-9.291208349168300629e-03,-4.234110191464424133e-02,1.543901395052671432e-02,2.777108550071716309e-02,-2.498468849807977676e-03,1.884368434548377991e-02,-4.271119832992553711e-03,-4.561046138405799866e-03,3.490058239549398422e-03,-9.158424101769924164e-03,2.083313837647438049e-02,3.135788068175315857e-02,-4.485888034105300903e-02,3.494967008009552956e-03,-1.817506621591746807e-03,8.075435180217027664e-04,-2.371209487318992615e-02,-3.109199926257133484e-03,-4.707214981317520142e-02,-4.146626964211463928e-02,-8.680106140673160553e-03,-7.746807485818862915e-02,1.021003263304010034e-04,-2.002934925258159637e-02,2.255459502339363098e-02,8.153903181664645672e-04,-1.120946928858757019e-02,8.019860833883285522e-03,1.367249432951211929e-02,7.807674352079629898e-03,1.693222555331885815e-03,9.160005487501621246e-03,1.051738765090703964e-02,-1.141614932566881180e-02,8.546224795281887054e-03,-1.336790807545185089e-02,-5.238805711269378662e-02,2.633299736771732569e-04,3.959089517593383789e-02,2.833533287048339844e-02,-6.821448914706707001e-03,2.395744901150465012e-03,6.652283947914838791e-03,-2.185670845210552216e-02,1.840057037770748138e-02,-5.234606564044952393e-03,-2.973508089780807495e-02,6.146854907274246216e-02,-4.948432557284832001e-03,1.854463666677474976e-02
2.027611248195171356e-02,-1.928037032485008240e-02,1.625848817639052868e-03,1.862573996186256409e-02,-4.296453204005956650e-03,-2.053539454936981201e-02,-4.979530349373817444e-03,5.452717468142509460e-02,-5.614636093378067017e-02,2.621320635080337524e-02,-1.071446761488914490e-02,-2.108247019350528717e-02,-2.712376881390810013e-03,5.248844157904386520e-03,-4.553598165512084961e-02,2.124776691198348999e-02,5.996081512421369553e-03,4.418016225099563599e-02,1.104448549449443817e-02,-1.152601186186075211e-02,3.596059232950210571e-02,-1.940415985882282257e-02,-5.782797001302242279e-03,-8.003024756908416748e-02,-2.123139053583145142e-02,-2.026182785630226135e-02,-2.084663324058055878e-02,-7.796227000653743744e-03,-5.892827641218900681e-03,3.109124489128589630e-02,-1.181400194764137268e-02,-1.689457148313522339e-02,1.600725017488002777e-02,-7.278862595558166504e-02,-9.086551144719123840e-03,1.080960407853126526e-02,2.010443061590194702e-02,-2.769522927701473236e-02,1.901747845113277435e-02,-2.107950486242771149e-02,1.613361574709415436e-02,1.080167107284069061e-02,-7.870941422879695892e-03,-3.359915316104888916e-02,8.169428445398807526e-03,-1.676530763506889343e-02,-4.757207534566987306e-06,-1.758864847943186760e-03,1.914920844137668610e-02,-1.975291594862937927e-02,-4.720365162938833237e-03,-1.499015372246503830e-02,-2.218290232121944427e-02,-5.827044602483510971e-03,4.559973254799842834e-02,-2.003522031009197235e-02,-5.524132866412401199e-03,-9.980461560189723969e-03,-1.364743243902921677e-02,-5.474120378494262695e-03,2.433679625391960144e-02,-1.624351367354393005e-02,2.077770186588168144e-03,-3.624069690704345703e-02,-2.138581871986389160e-02,-2.374954754486680031e-03,-5.522906407713890076e-02,-1.878885179758071899e-02,-2.228473499417304993e-02,3.009079024195671082e-02,-2.377378055825829506e-03,-3.275793790817260742e-02,-1.108172815293073654e-03,-5.486937239766120911e-02,7.651081541553139687e-04,5.940510425716638565e-03,-8.963610045611858368e-03,7.908234372735023499e-03,-1.019283197820186615e-02,2.340248972177505493e-02,1.557881571352481842e-02,-6.890099495649337769e-02,-1.860654167830944061e-02,-1.559642981737852097e-02,-3.536244854331016541e-03,5.739921703934669495e-03,9.928790852427482605e-03,2.343534678220748901e-02,2.494911104440689087e-02,1.408868469297885895e-03,9.551203809678554535e-03,1.367930416017770767e-02,-4.146418177697341889e-06,-1.576901599764823914e-02,1.903638243675231934e-02,-1.860164478421211243e-02,-4.836802836507558823e-03,8.756798692047595978e-03,1.048238296061754227e-02,5.076177883893251419e-03,-1.913026161491870880e-02,6.237435154616832733e-03,2.869373187422752380e-03,1.591168902814388275e-02,5.964930728077888489e-02,-1.924688927829265594e-02,-3.153268480673432350e-03,3.618537681177258492e-03,-1.960414089262485504e-02,1.875313743948936462e-02
5.022437777370214462e-03,6.433681398630142212e-02,1.281419396400451660e-02,-7.527734618633985519e-03,-1.006913278251886368e-02,-1.582745462656021118e-02,-2.453324757516384125e-02,-1.898164115846157074e-02,2.269159071147441864e-02,-2.784223295748233795e-02,-2.696203999221324921e-02,-1.097974088042974472e-02,3.377339337021112442e-03,2.640942484140396118e-02,-1.003689714707434177e-03,2.999488264322280884e-03,-2.041323110461235046e-02,1.117389928549528122e-02,-2.831317670643329620e-02,-8.342013694345951080e-03,5.673530511558055878e-03,4.362041130661964417e-02,-7.857070304453372955e-03,1.783194020390510559e-02,-1.527078449726104736e-02,-1.007928326725959778e-02,-1.250176969915628433e-02,5.608855281025171280e-03,-9.571331553161144257e-03,-4.434335604310035706e-02,8.430701680481433868e-03,-4.855227842926979065e-02,1.794625632464885712e-02,1.061459630727767944e-01,-2.050839178264141083e-02,-2.268063835799694061e-02,9.017693810164928436e-03,2.963038347661495209e-02,1.220859121531248093e-02,-1.436739135533571243e-02,-7.395827770233154297e-02,5.658213794231414795e-02,-1.224188134074211121e-02,9.174589999020099640e-03,4.000633209943771362e-02,2.234895341098308563e-02,-7.353127468377351761e-03,-2.063699997961521149e-02,-1.324499398469924927e-02,-1.520955562591552734e-02,1.912482839543372393e-04,-5.740078631788492203e-03,-9.680912829935550690e-03,-1.768808439373970032e-02,-3.061898611485958099e-02,-8.765967562794685364e-03,8.770169690251350403e-03,-1.736105792224407196e-02,-1.603429089300334454e-03,-5.206154659390449524e-03,2.363089099526405334e-02,3.023356571793556213e-02,6.479741074144840240e-03,9.178579784929752350e-03,-1.227867975831031799e-02,7.115312851965427399e-03,1.683828607201576233e-02,-1.119949668645858765e-02,-2.151869796216487885e-02,-5.227530375123023987e-03,3.007381781935691833e-02,-1.766200549900531769e-02,-6.585779599845409393e-03,3.842299804091453552e-02,1.519449520856142044e-02,-1.346943434327840805e-02,1.287093502469360828e-03,2.468390204012393951e-02,-2.123859245330095291e-03,-2.057004347443580627e-02,5.547615233808755875e-03,3.235108032822608948e-02,-3.480508225038647652e-03,-3.857754345517605543e-04,3.271255642175674438e-02,2.957657910883426666e-03,3.446998074650764465e-02,6.480746436864137650e-03,-9.736035950481891632e-03,1.711194962263107300e-02,4.079224169254302979e-02,3.366963705047965050e-03,-7.230697572231292725e-02,-1.972161047160625458e-02,4.621485620737075806e-02,-6.670504342764616013e-03,-1.365358661860227585e-02,-3.782495111227035522e-02,-2.187091857194900513e-03,2.578295068815350533e-03,-1.727658696472644806e-02,-1.333291642367839813e-02,-1.112051657401025295e-03,-5.850807297974824905e-03,-2.274992316961288452e-02,-8.692283183336257935e-03,-3.430508077144622803e-03,-2.328066155314445496e-02,-1.209518685936927795e-02,-5.230338778346776962e-03
