-5.806303117424249649e-03,6.758909206837415695e-03,-6.081080529838800430e-03,-2.169065992347896099e-04,-5.196254234760999680e-03,5.186481401324272156e-03,2.802813469315879047e-06,-4.455468115338589996e-06,5.206284578889608383e-03,4.857193678617477417e-03,3.089306876063346863e-02,-2.170660300180315971e-04,-7.444906048476696014e-03,5.954883061349391937e-03,6.172966677695512772e-03,2.705765329301357269e-02,2.552417851984500885e-02,-6.916839629411697388e-03,6.948593072593212128e-03,-1.269671786576509476e-02,-4.394783638417720795e-03,-2.838826272636651993e-03,6.578328087925910950e-03,6.195500958710908890e-03,6.701992824673652649e-03,-3.858343698084354401e-03,6.834574975073337555e-03,-3.532847358655999415e-06,-6.802617106586694717e-03,-6.562211550772190094e-03,-6.669764406979084015e-03,-3.111774846911430359e-02,5.902364850044250488e-03,6.368671543896198273e-03,-6.675370037555694580e-03,2.201113151386380196e-03,7.002145051956176758e-03,-3.888640319928526878e-03,1.621154078748077154e-04,-8.591938763856887817e-03,3.322415286675095558e-03,7.271619513630867004e-03,7.033255416899919510e-03,-5.668548401445150375e-03,3.473125616437755525e-05,-3.353059873916208744e-04,-7.260480895638465881e-03,4.886816721409559250e-03,5.772931501269340515e-03,2.569634839892387390e-02,-6.032774690538644791e-03,6.671511102467775345e-03,-5.645423196256160736e-03,-7.053018780425190926e-04,-1.100007793866097927e-03,4.714748822152614594e-03,-8.508203551173210144e-03,4.720353463198989630e-04,-1.695551909506320953e-02,-6.572102196514606476e-03,1.918454840779304504e-02,-7.764960639178752899e-03,-1.952577196061611176e-02,2.491096500307321548e-03,3.748698392882943153e-03,6.058624014258384705e-03,-6.488475482910871506e-03,-7.228119764477014542e-03,6.154632195830345154e-03,6.143699400126934052e-03,1.401070767315104604e-05,-6.768806837499141693e-03,-6.658475380390882492e-03,2.156106010079383850e-02,-5.731914192438125610e-03,7.869668304920196533e-03,7.009619366726838052e-06,2.061856139334850013e-05,-2.506058430299162865e-03,5.375524517148733139e-03,7.009332533925771713e-03,1.606217585504055023e-02,7.989567704498767853e-03,3.097144421190023422e-03,4.844237584620714188e-03,-5.218241363763809204e-03,-7.933995686471462250e-03,7.568953093141317368e-03,-1.080990536138415337e-03,2.117524668574333191e-02,-7.403977680951356888e-03,-5.588155239820480347e-03,-5.560863763093948364e-03,-6.078205537050962448e-03,7.760987151414155960e-03,6.323798093944787979e-03,8.359804749488830566e-03,9.907867759466171265e-03,2.774081379175186157e-02,-6.532955449074506760e-03,-1.761504099704325199e-03,6.885745096951723099e-03,6.047596689313650131e-03,-7.067790254950523376e-03,7.118689827620983124e-03,5.177982151508331299e-03,6.133333779871463776e-03,7.778415922075510025e-03,2.591666532680392265e-03,6.134036928415298462e-03
-5.503997206687927246e-02,-1.139867678284645081e-02,5.496494099497795105e-02,1.510760784149169922e-01,-2.054429985582828522e-02,-3.329523652791976929e-02,-2.034325152635574341e-02,2.021386660635471344e-02,-2.114260643720626831e-01,-1.237507723271846771e-02,5.411355756223201752e-03,-4.579820856451988220e-02,-2.868450619280338287e-02,-1.078685745596885681e-02,-7.195919007062911987e-02,8.463550359010696411e-03,8.225612342357635498e-03,2.868437767028808594e-02,7.997224479913711548e-02,3.137515857815742493e-02,-3.066753447055816650e-01,-1.741234213113784790e-02,-5.314885377883911133e-01,-2.710364200174808502e-02,2.258337587118148804e-01,4.918002709746360779e-02,3.400986269116401672e-02,-2.530415356159210205e-02,1.026577968150377274e-02,-1.184123978018760681e-01,-1.833656802773475647e-02,-8.384281769394874573e-03,-4.637893736362457275e-01,-3.332267748191952705e-03,4.661077167838811874e-03,-2.711433917284011841e-02,5.788175016641616821e-02,1.749205589294433594e-01,7.374687492847442627e-02,-7.241707295179367065e-02,-1.188368275761604309e-01,-2.306332899024710059e-04,-2.582998573780059814e-01,8.390618115663528442e-02,1.820335350930690765e-02,-1.209956035017967224e-01,3.923206031322479248e-01,2.518160045146942139e-01,-5.272291600704193115e-02,8.184084668755531311e-03,2.022629044950008392e-02,3.799611628055572510e-01,1.432016342878341675e-01,-1.175631284713745117e-01,1.135359182953834534e-01,7.181710749864578247e-02,-2.896786667406558990e-02,-1.407731324434280396e-01,4.494816064834594727e-02,3.233901038765907288e-02,1.214761100709438324e-02,4.779828712344169617e-02,1.501620374619960785e-02,4.911487177014350891e-02,-1.215251535177230835e-01,-1.684385351836681366e-02,1.114979535341262817e-01,2.122800983488559723e-02,-1.102741714566946030e-02,-4.860449954867362976e-02,-4.171539843082427979e-02,-9.961577504873275757e-02,3.050009012222290039e-01,-3.126075316686183214e-04,2.251810947200283408e-04,3.575414046645164490e-02,-1.948329620063304901e-02,-1.078382600098848343e-02,3.524181619286537170e-02,-1.329814195632934570e-01,5.248443223536014557e-03,1.538540143519639969e-02,3.270235285162925720e-02,-3.200871404260396957e-03,-7.086437195539474487e-02,-2.032614871859550476e-02,1.128109693527221680e-01,2.362678386270999908e-02,-6.879814714193344116e-02,1.366879208944737911e-03,-1.769549027085304260e-02,-2.338724210858345032e-03,-2.576591670513153076e-01,-8.127210289239883423e-02,5.209748074412345886e-02,1.850755959749221802e-01,-1.527181118726730347e-01,-1.246794033795595169e-02,6.451434455811977386e-03,-3.802981972694396973e-02,1.602171659469604492e-01,-1.390325427055358887e-01,5.890241265296936035e-02,6.394229829311370850e-02,3.301542624831199646e-02,7.319922093302011490e-03,-1.626444011926651001e-01,-1.494936048984527588e-01,-1.177472323179244995e-01,-8.402005583047866821e-02
3.298069536685943604e-02,3.594872727990150452e-02,-9.242494404315948486e-02,5.152365565299987793e-02,4.063531383872032166e-02,4.172950983047485352e-02,-2.238015271723270416e-02,3.370478004217147827e-02,-1.437355428934097290e-01,-8.012073114514350891e-03,2.025446854531764984e-02,-9.152609854936599731e-03,-1.622346974909305573e-02,1.793228089809417725e-02,2.343244478106498718e-02,1.786650158464908600e-02,2.601325139403343201e-02,-1.321756048128008842e-03,-4.086145758628845215e-02,-5.478438362479209900e-02,-2.952112816274166107e-02,-4.662910848855972290e-02,1.885811239480972290e-01,-8.688875287771224976e-02,-5.302888154983520508e-01,8.989276736974716187e-02,2.274724096059799194e-02,-2.025057375431060791e-02,-3.754531592130661011e-02,-1.702971011400222778e-02,-6.467808969318866730e-03,-2.621909603476524353e-02,8.578357100486755371e-02,1.345979142934083939e-02,-2.713406272232532501e-02,1.458207052201032639e-02,-1.556123048067092896e-01,5.752075463533401489e-02,3.056279383599758148e-02,3.565177321434020996e-02,-5.920972302556037903e-02,3.263797610998153687e-02,5.836675316095352173e-02,2.437643110752105713e-01,7.767480798065662384e-03,-2.656269259750843048e-02,2.678411453962326050e-02,2.521575894206762314e-03,2.207002416253089905e-02,1.935447007417678833e-02,-3.904451057314872742e-02,4.712885618209838867e-01,-2.961876988410949707e-01,-4.373594745993614197e-02,3.096764907240867615e-02,1.582891121506690979e-02,-3.045771643519401550e-02,-5.805159732699394226e-02,-6.339404731988906860e-02,8.119081705808639526e-02,5.307932849973440170e-03,-1.358243525028228760e-01,-2.865121699869632721e-02,3.986344207078218460e-03,-4.993008449673652649e-02,-2.262196037918329239e-03,9.200316667556762695e-02,-1.524736988358199596e-03,4.934035241603851318e-03,-2.582454495131969452e-02,-1.367372833192348480e-02,7.889315485954284668e-02,8.055118471384048462e-02,1.318189781159162521e-02,1.442699227482080460e-02,2.987359836697578430e-02,-2.430517971515655518e-02,-2.812395803630352020e-03,5.225829780101776123e-02,-3.618493303656578064e-02,-8.367662876844406128e-02,-2.351119741797447205e-02,-9.643795900046825409e-03,3.392929211258888245e-02,2.500230632722377777e-02,-3.578601405024528503e-02,7.935147150419652462e-04,1.917370967566967010e-02,-2.679677866399288177e-02,5.917287897318601608e-03,-6.880969274789094925e-03,3.059296868741512299e-03,2.937441170215606689e-01,-9.376456588506698608e-02,4.760608077049255371e-02,-1.177730038762092590e-01,-4.574631154537200928e-02,2.643463760614395142e-02,2.351744472980499268e-02,-6.325620412826538086e-02,-3.586053475737571716e-02,1.462791711091995239e-01,6.271085143089294434e-02,2.055412344634532928e-02,9.527641232125461102e-04,3.344441205263137817e-02,4.881825670599937439e-02,-1.378377825021743774e-01,1.025545410811901093e-02,2.189422585070133209e-02
1.582968980073928833e-02,-7.191306911408901215e-03,1.623595319688320160e-02,1.727472431957721710e-02,-2.313976548612117767e-02,-4.240720719099044800e-02,-2.524457406252622604e-03,-1.946696662344038486e-03,-8.231925219297409058e-02,3.018734569195657969e-04,1.099419686943292618e-02,-7.610354572534561157e-03,-1.805333606898784637e-02,1.539449952542781830e-02,-1.214260049164295197e-02,9.603623300790786743e-03,7.454107049852609634e-03,-6.031129043549299240e-03,1.073122993111610413e-01,-6.504131015390157700e-03,-4.519029706716537476e-02,-8.616606704890727997e-03,-1.722081154584884644e-01,3.284034505486488342e-02,3.997278511524200439e-01,5.643735826015472412e-02,1.505993772298097610e-02,-5.830227863043546677e-03,2.874780632555484772e-02,5.253539606928825378e-02,-1.138922851532697678e-02,-1.375152636319398880e-02,-1.098020374774932861e-01,-4.438691958785057068e-02,6.359231658279895782e-03,-2.778575755655765533e-03,1.855686157941818237e-01,3.529455140233039856e-02,-8.868288132362067699e-04,-2.806262811645865440e-03,-1.100921072065830231e-02,-4.962856322526931763e-02,-1.660515666007995605e-01,-1.539485808461904526e-02,4.023614339530467987e-03,-1.919080503284931183e-02,1.393029093742370605e-01,-1.997434645891189575e-01,-2.201652619987726212e-03,1.010885927826166153e-02,2.027554996311664581e-02,-1.141505837440490723e-01,5.594411119818687439e-02,-1.984904892742633820e-02,7.270969916135072708e-03,3.914952278137207031e-02,3.363273665308952332e-02,6.129324436187744141e-03,1.515703462064266205e-02,6.487498432397842407e-02,-4.379579331725835800e-03,4.396132007241249084e-02,5.615985719487071037e-04,1.094308774918317795e-02,-1.671526581048965454e-02,2.623870782554149628e-02,-5.471204221248626709e-02,-1.401829347014427185e-02,-5.950844846665859222e-03,2.509392984211444855e-02,-8.066148147918283939e-04,-1.223783642053604126e-01,-2.962491214275360107e-01,6.025373470038175583e-03,-2.326770313084125519e-02,4.720038548111915588e-02,-4.567922092974185944e-03,-2.070512855425477028e-03,-2.029040269553661346e-02,1.811608485877513885e-02,9.213840588927268982e-03,-6.897645536810159683e-03,-1.085030101239681244e-02,1.693569868803024292e-02,-1.929750479757785797e-02,-7.583140861243009567e-03,-4.143538419157266617e-03,1.410723198205232620e-02,-2.460492309182882309e-03,3.943487070500850677e-03,-4.366604983806610107e-02,-2.306138724088668823e-02,-1.465957164764404297e-01,1.857509836554527283e-02,1.262960582971572876e-02,2.291699871420860291e-02,-2.820586785674095154e-02,-2.281435532495379448e-03,1.279498543590307236e-02,2.934814617037773132e-02,4.097811132669448853e-02,-9.457738697528839111e-02,-1.242208760231733322e-03,-1.092690881341695786e-02,-2.664769254624843597e-02,6.106895394623279572e-03,-5.618543550372123718e-02,-1.753596067428588867e-01,-2.968710847198963165e-02,-2.075636573135852814e-02
-1.137551735155284405e-03,1.960052410140633583e-03,-5.480572581291198730e-04,1.989853382110595703e-02,-5.727729294449090958e-03,4.050180688500404358e-02,1.632937579415738583e-03,-3.242845996282994747e-04,1.612611114978790283e-01,-6.459492724388837814e-03,6.685314700007438660e-03,-9.862774051725864410e-03,6.713120732456445694e-03,-1.238640304654836655e-02,2.888554520905017853e-02,5.822548177093267441e-03,8.424717001616954803e-03,2.680491097271442413e-02,-3.942636027932167053e-02,9.658222086727619171e-03,3.698821738362312317e-02,1.519063673913478851e-02,4.653535038232803345e-02,-2.467852644622325897e-02,-1.274668127298355103e-01,-2.746934629976749420e-02,1.173998974263668060e-02,1.391152618452906609e-03,2.377177588641643524e-02,8.889771066606044769e-03,-3.087210468947887421e-02,-3.247739979997277260e-03,8.665308356285095215e-02,1.406751293689012527e-02,7.180051412433385849e-03,-2.493385411798954010e-02,-3.576127439737319946e-02,1.691766083240509033e-02,1.595625188201665878e-03,-1.315986365079879761e-02,-1.840453036129474640e-02,-1.669964840402826667e-04,6.869146972894668579e-02,3.711525117978453636e-03,-2.403817605227231979e-03,1.568775773048400879e-01,2.381280623376369476e-02,2.365797460079193115e-01,-5.583145655691623688e-03,5.813947878777980804e-03,-2.533519826829433441e-02,-2.608118765056133270e-02,5.857603996992111206e-02,9.555405704304575920e-04,1.265450264327228069e-03,-1.965946285054087639e-03,-2.231302112340927124e-02,-2.616781368851661682e-02,3.506267676129937172e-03,-2.125439941883087158e-01,1.131680328398942947e-02,7.838295400142669678e-02,-4.245710093528032303e-03,-5.444492562673985958e-04,-1.925079850479960442e-03,-5.968007724732160568e-03,-1.273994520306587219e-02,1.055766195058822632e-01,-8.566501550376415253e-03,-1.134561281651258469e-02,-2.925889799371361732e-03,9.681566618382930756e-03,-2.657913416624069214e-02,4.852558951824903488e-03,1.140191592276096344e-02,3.583448473364114761e-03,1.448679831810295582e-03,-2.724858466535806656e-03,1.426918897777795792e-02,-4.808178171515464783e-03,-6.425676345825195312e-01,6.645403336733579636e-03,-2.889811061322689056e-02,4.259602632373571396e-03,-2.081911265850067139e-02,1.409114059060811996e-02,-4.774112603627145290e-04,1.115314895287156105e-03,-2.647548448294401169e-03,8.643302135169506073e-03,1.322150230407714844e-02,2.636509947478771210e-03,-2.302072569727897644e-02,-3.481092676520347595e-02,-2.024690806865692139e-02,2.767693996429443359e-02,-6.177377421408891678e-03,7.412010338157415390e-03,3.781133564189076424e-03,8.809003978967666626e-03,-5.611855536699295044e-02,-9.782902151346206665e-02,-2.322971448302268982e-02,-4.525358974933624268e-02,1.723782904446125031e-02,-1.159350480884313583e-02,-9.172330610454082489e-03,-6.401626020669937134e-02,-1.735206879675388336e-02,-3.299563378095626831e-02
9.786643786355853081e-04,-3.258630260825157166e-02,-1.127580180764198303e-01,-3.798834979534149170e-02,9.770791977643966675e-03,-5.210598185658454895e-02,4.593669145833700895e-04,-1.899939728900790215e-03,3.718799352645874023e-02,-1.914319582283496857e-02,-5.631615294987568632e-06,-1.306455582380294800e-02,-3.067547688260674477e-03,-1.152272708714008331e-02,6.318530067801475525e-03,-3.415238461457192898e-04,3.587683662772178650e-03,8.705739310244098306e-05,2.353697316721081734e-03,-1.962408982217311859e-02,4.419081844389438629e-03,-8.358312770724296570e-03,-4.127116501331329346e-02,3.582092747092247009e-02,-1.894665136933326721e-02,-6.653325632214546204e-03,-9.525026381015777588e-02,-1.303774886764585972e-03,4.943736363202333450e-03,-9.902817197144031525e-03,2.158779883757233620e-03,2.388543449342250824e-03,8.858183398842811584e-03,1.049985177814960480e-03,-3.493305761367082596e-03,-5.036683287471532822e-03,5.871824920177459717e-03,-2.454689517617225647e-02,-1.045900490134954453e-02,-1.788665726780891418e-02,1.151629537343978882e-02,-4.751479253172874451e-03,-7.570456713438034058e-02,-1.634240522980690002e-02,-3.675614425446838140e-04,-2.859419770538806915e-02,-2.821376547217369080e-02,-1.162025704979896545e-01,-1.691571250557899475e-02,-9.508205112069845200e-04,9.211890399456024170e-02,1.868649572134017944e-02,-1.762609812431037426e-03,1.109458971768617630e-03,-1.880388148128986359e-02,-2.165129780769348145e-02,-3.998039290308952332e-02,1.215483061969280243e-02,6.354034878313541412e-03,1.953135728836059570e-01,-1.424977963324636221e-04,-1.298358105123043060e-02,-5.450305179692804813e-04,2.367508364841341972e-03,2.061226963996887207e-02,6.763989105820655823e-03,-9.451863355934619904e-03,-5.443901941180229187e-02,1.169623574241995811e-03,-5.416884087026119232e-03,-1.415257458575069904e-03,4.199771955609321594e-02,3.305341303348541260e-02,-8.350473945029079914e-04,-9.528537280857563019e-03,3.970807418227195740e-02,-7.580326055176556110e-04,4.933786840410903096e-05,1.202696189284324646e-02,5.972168873995542526e-03,5.165207758545875549e-02,2.790243132039904594e-03,-1.356450468301773071e-02,9.818972088396549225e-03,1.001607067883014679e-02,9.705356322228908539e-03,-1.558729261159896851e-02,6.672218441963195801e-03,2.669806219637393951e-02,-1.238058903254568577e-04,-5.933759268373250961e-03,-6.212374195456504822e-03,5.891330540180206299e-03,2.707218751311302185e-02,2.544815652072429657e-03,-6.463380996137857437e-04,4.538292996585369110e-04,-3.002014476805925369e-03,-2.313297940418124199e-03,4.761330317705869675e-03,1.660135388374328613e-02,1.613371074199676514e-01,5.933959037065505981e-03,6.324454210698604584e-03,-1.203163526952266693e-03,3.120956942439079285e-02,-1.040086732245981693e-03,2.723473869264125824e-02,-5.494968965649604797e-03,2.875380963087081909e-02
-3.051226213574409485e-02,8.666191250085830688e-03,-1.359006948769092560e-02,1.070455834269523621e-02,-1.678383094258606434e-03,8.450256288051605225e-02,1.270837237825617194e-04,-2.082083607092499733e-03,-6.731665879487991333e-02,-6.566816591657698154e-04,-4.332892131060361862e-03,-4.834515042603015900e-03,-1.253955531865358353e-02,-5.089348182082176208e-03,-2.247745357453823090e-02,-4.479980561882257462e-03,-5.601239390671253204e-03,-7.294079288840293884e-03,-1.130496244877576828e-02,3.622349351644515991e-02,-3.677708655595779419e-02,2.962947636842727661e-02,1.331560313701629639e-01,2.986898459494113922e-02,2.095826417207717896e-01,4.191390424966812134e-02,-5.586436949670314789e-03,-1.426759292371571064e-03,-1.733600860461592674e-03,9.517202526330947876e-02,-3.242986649274826050e-02,4.881250672042369843e-03,-2.502340264618396759e-02,-8.898620493710041046e-03,5.368206184357404709e-03,1.743420958518981934e-02,-8.395940065383911133e-03,-1.709814881905913353e-03,7.668814621865749359e-03,6.392979063093662262e-03,-1.249982602894306183e-02,5.557212047278881073e-03,6.396768987178802490e-02,9.502112865447998047e-03,1.945823780260980129e-03,5.406984128057956696e-04,1.236805915832519531e-01,1.838791817426681519e-01,-4.353815224021673203e-03,-3.174476791173219681e-03,2.199412137269973755e-02,-1.334461420774459839e-01,-2.287071570754051208e-02,-5.261007230728864670e-03,4.021869227290153503e-02,3.754530102014541626e-02,4.306356236338615417e-02,9.050315245985984802e-03,1.525509450584650040e-02,8.880663663148880005e-04,-6.339139770716428757e-03,3.063988871872425079e-02,1.617502607405185699e-02,2.452216483652591705e-02,-3.321969136595726013e-02,1.973264617845416069e-03,-7.591568399220705032e-03,-7.153986394405364990e-02,1.940870843827724457e-02,-1.783849298954010010e-02,4.986739368177950382e-04,-4.290969669818878174e-02,-2.766963094472885132e-02,-3.208152716979384422e-03,1.998879248276352882e-03,2.686065994203090668e-02,-4.886090755462646484e-04,1.324733253568410873e-03,-1.241349522024393082e-02,1.082219742238521576e-02,1.477025449275970459e-02,-2.766279794741421938e-05,-9.658275172114372253e-03,-2.832353301346302032e-02,1.401235256344079971e-02,2.825636882334947586e-03,3.314904868602752686e-02,-1.529384497553110123e-02,-1.651904731988906860e-02,-3.199187107384204865e-03,-9.690562263131141663e-03,-1.667107455432415009e-02,2.466716570779681206e-03,9.088489226996898651e-03,3.122920915484428406e-02,-2.703047916293144226e-02,1.895078644156455994e-02,-7.814535871148109436e-03,-3.939424641430377960e-03,-2.558580785989761353e-02,1.061402447521686554e-02,-8.780241757631301880e-02,-8.510794490575790405e-02,-2.509319595992565155e-02,-2.680141106247901917e-02,3.617968037724494934e-02,5.769353825598955154e-03,-2.283560670912265778e-02,3.660819679498672485e-02,-9.829127788543701172e-02
5.402692407369613647e-02,9.838491678237915039e-03,-1.926468499004840851e-02,-4.198808688670396805e-03,4.031795542687177658e-03,-4.151372238993644714e-02,1.266768318600952625e-03,-1.071937382221221924e-03,2.417912483215332031e-01,2.349111624062061310e-02,-2.901720814406871796e-03,7.065406069159507751e-03,-2.052565850317478180e-02,-3.868081420660018921e-02,-2.945650834590196609e-03,-2.048402326181530952e-03,-2.906320150941610336e-03,7.793580647557973862e-03,8.589635603129863739e-03,-6.029074080288410187e-03,-5.456493049860000610e-02,-5.333328247070312500e-02,2.611381188035011292e-02,2.053669840097427368e-02,-2.733891904354095459e-01,-3.822502214461565018e-03,6.285008974373340607e-03,5.955335800535976887e-04,1.136597804725170135e-02,-4.534196853637695312e-02,1.215485669672489166e-02,3.012931440025568008e-03,-1.895603165030479431e-02,-2.883817767724394798e-03,1.011628657579421997e-03,-1.529081538319587708e-02,1.658331304788589478e-01,1.487912260927259922e-03,5.602091085165739059e-03,2.116855699568986893e-03,3.983567003160715103e-04,6.572312861680984497e-02,3.874075040221214294e-02,-1.276461686939001083e-02,3.293363552074879408e-04,-1.885030977427959442e-02,-1.873100697994232178e-01,-4.785744249820709229e-01,-4.516966291703283787e-04,-1.865867758169770241e-03,7.375151384621858597e-03,5.951225757598876953e-02,-8.182924240827560425e-03,1.007056795060634613e-02,-3.536552190780639648e-02,-1.085736230015754700e-02,-9.665128588676452637e-02,-4.118586366530507803e-04,-1.315088244155049324e-03,-5.318906158208847046e-02,-3.591128159314393997e-03,3.134134691208600998e-03,-2.356304088607430458e-03,-1.351997908204793930e-02,-9.367422899231314659e-04,-1.811738009564578533e-03,6.057462468743324280e-02,1.410392858088016510e-02,-1.142782066017389297e-02,3.705332800745964050e-02,8.821606170386075974e-04,-2.138816379010677338e-02,-1.185503043234348297e-02,-2.434892812743782997e-03,3.582797653507441282e-04,-9.783283621072769165e-02,1.061558839865028858e-03,4.371149698272347450e-04,1.728439144790172577e-02,-1.656940393149852753e-02,7.139580696821212769e-02,-4.006661940366029739e-03,9.599931538105010986e-03,-6.513366475701332092e-03,1.571293920278549194e-02,1.172288786619901657e-02,-3.158885287120938301e-03,2.816396299749612808e-03,3.049381542950868607e-03,-2.119848039001226425e-03,-1.674615778028964996e-03,-5.775215104222297668e-02,-2.170976949855685234e-03,2.528236473153810948e-05,-1.918623782694339752e-02,-3.460764884948730469e-03,5.638582166284322739e-03,-2.014757832512259483e-03,-2.939491532742977142e-03,5.033297836780548096e-02,-1.142872571945190430e-01,-2.938787266612052917e-02,2.359437011182308197e-02,1.061101164668798447e-02,1.543872058391571045e-02,-2.708012238144874573e-02,-7.909032516181468964e-03,-1.825557276606559753e-02,-2.066457644104957581e-02,-3.974508028477430344e-03
-1.199958100914955139e-02,-7.663508877158164978e-03,8.406821638345718384e-03,-1.602648384869098663e-02,1.899018534459173679e-03,8.830646425485610962e-02,6.163241923786699772e-04,-6.967844674363732338e-04,-3.185661435127258301e-01,6.287035532295703888e-03,-2.674908842891454697e-03,2.035158220678567886e-03,-8.533356711268424988e-03,8.587445132434368134e-03,1.781451515853404999e-02,-8.700378239154815674e-04,3.355240449309349060e-03,-1.578161865472793579e-02,-3.404012648388743401e-03,3.177700564265251160e-03,1.618012338876724243e-01,2.614586241543292999e-02,-4.082576930522918701e-02,1.572830416262149811e-02,4.956792667508125305e-02,1.520043984055519104e-02,-1.386407576501369476e-02,-1.720265718176960945e-04,3.422939218580722809e-03,-3.701088950037956238e-03,3.629948198795318604e-02,3.158547449856996536e-03,-3.421892644837498665e-03,2.167707495391368866e-02,1.028085593134164810e-02,1.233636867254972458e-02,-1.362994760274887085e-01,-8.136738091707229614e-03,-4.600869957357645035e-03,-4.436180461198091507e-04,9.301053360104560852e-03,-4.479407519102096558e-02,1.218188460916280746e-02,3.526132553815841675e-02,-3.718171501532196999e-04,-2.192631922662258148e-02,9.729456901550292969e-02,3.161751329898834229e-01,-3.993195015937089920e-03,-1.503862091340124607e-03,1.147699821740388870e-02,-2.856021001935005188e-02,-9.644692181609570980e-04,-6.557213491760194302e-04,5.260642617940902710e-03,-1.195552106946706772e-02,-2.462257817387580872e-02,1.019724993966519833e-03,1.706198781903367490e-05,-2.094181440770626068e-02,-2.385621191933751106e-03,8.554761298000812531e-03,5.429263226687908173e-03,3.790824115276336670e-02,-7.066202349960803986e-03,7.930485531687736511e-03,-1.871689036488533020e-02,6.722899619489908218e-03,8.028760552406311035e-03,-3.209067136049270630e-02,7.499714847654104233e-04,8.999457582831382751e-03,6.096545606851577759e-03,-1.850163913331925869e-03,-1.220113132148981094e-02,3.576122224330902100e-02,2.387621207162737846e-04,4.256556858308613300e-04,-3.938250709325075150e-03,2.645223215222358704e-02,1.498408913612365723e-01,-1.402153167873620987e-03,-5.696066655218601227e-03,1.606659381650388241e-03,-7.644784171134233475e-03,9.993213228881359100e-03,-8.367672562599182129e-02,-2.140455879271030426e-02,8.884482085704803467e-03,-1.821288722567260265e-03,-1.143549755215644836e-02,-5.045462865382432938e-03,1.134386518970131874e-03,-5.848907306790351868e-02,2.344670332968235016e-02,-9.898925782181322575e-06,1.223672367632389069e-02,-2.252205973491072655e-03,-2.867087256163358688e-03,1.495369244366884232e-02,2.177268862724304199e-01,1.169886067509651184e-02,2.344239130616188049e-02,-3.143429290503263474e-03,8.664698339998722076e-03,-2.037349622696638107e-03,4.762396682053804398e-03,-1.057147793471813202e-02,-2.782313339412212372e-02,-1.361099909991025925e-02
-3.407529368996620178e-02,-7.467640191316604614e-02,3.828559769317507744e-03,-2.467425307258963585e-03,4.783072043210268021e-03,-1.456850580871105194e-02,-3.650234139058738947e-04,-4.577266518026590347e-04,1.392886340618133545e-01,5.961679853498935699e-03,-1.082420858438126743e-04,-3.417961997911334038e-03,4.119860008358955383e-02,-1.452386938035488129e-02,5.777178332209587097e-03,1.039255410432815552e-03,1.142156310379505157e-03,-1.483990903943777084e-02,-2.032933756709098816e-02,-5.491690826602280140e-04,-8.537620306015014648e-02,-1.046484056860208511e-02,-1.614020555280148983e-03,1.807989738881587982e-02,-1.207700092345476151e-02,-8.611333556473255157e-03,-6.283645518124103546e-03,-4.585682181641459465e-04,1.172795332968235016e-02,4.046370461583137512e-02,-6.128940358757972717e-02,1.032449581543914974e-04,-2.390596084296703339e-03,-2.989100106060504913e-02,1.156425941735506058e-02,-2.909707603976130486e-03,3.990699723362922668e-02,-1.478465273976325989e-02,-2.266987226903438568e-03,8.386228233575820923e-03,-7.749352138489484787e-03,3.831890225410461426e-02,-1.288017630577087402e-01,-3.299362584948539734e-02,1.717046019621193409e-03,7.461965549737215042e-03,-2.424684911966323853e-02,-9.424221515655517578e-02,-8.785976096987724304e-03,4.839652392547577620e-04,6.484150071628391743e-04,7.270552217960357666e-02,-5.730570293962955475e-03,-1.652764528989791870e-02,-6.199654191732406616e-03,8.118530735373497009e-03,-1.174575556069612503e-02,2.559062093496322632e-02,-3.814851399511098862e-03,4.400099813938140869e-02,1.491591101512312889e-03,-1.965801231563091278e-02,2.115549752488732338e-03,-1.608460396528244019e-02,-1.652915962040424347e-02,-4.963105675415135920e-05,-2.776749897748231888e-03,-6.380588281899690628e-03,-1.458178833127021790e-02,-5.886073689907789230e-03,3.857816918753087521e-04,-2.736315317451953888e-02,-3.295836597681045532e-02,5.204519256949424744e-04,5.209360737353563309e-03,4.318180307745933533e-02,2.099467819789424539e-04,1.055963803082704544e-03,-6.662843748927116394e-03,-8.131890557706356049e-03,-7.585512101650238037e-02,4.256709478795528412e-03,5.783832166343927383e-03,-1.328450255095958710e-02,6.289758603088557720e-04,6.167809478938579559e-03,1.390691548585891724e-01,1.692856661975383759e-02,-6.287572905421257019e-03,-2.799447102006524801e-04,-1.563531905412673950e-02,8.819046430289745331e-03,-3.093457315117120743e-03,5.990106984972953796e-02,1.387413311749696732e-02,-7.930911146104335785e-03,-6.537332665175199509e-03,5.866471678018569946e-03,2.627201029099524021e-04,-3.659379109740257263e-02,-8.778004348278045654e-02,-5.771217495203018188e-02,6.441371887922286987e-02,-2.517432160675525665e-02,9.987144730985164642e-04,-3.547257510945200920e-03,-4.682722035795450211e-03,-1.305522024631500244e-02,3.646928817033767700e-03,-1.511187385767698288e-02
1.535503380000591278e-02,-1.246216371655464172e-01,3.569136606529355049e-03,-5.808210116811096668e-04,-2.387959323823451996e-02,7.438722066581249237e-03,-1.939155117725022137e-05,-1.955719664692878723e-03,5.913928896188735962e-02,2.187835238873958588e-02,3.944449417758733034e-04,6.740992888808250427e-03,-2.091567404568195343e-02,9.501710534095764160e-03,-2.719414886087179184e-03,-2.409573062323033810e-04,-1.573610468767583370e-03,-1.125749945640563965e-02,4.858521744608879089e-03,1.241202466189861298e-03,1.267850119620561600e-02,-2.099117822945117950e-02,1.220292504876852036e-02,2.036285400390625000e-02,-7.021627854555845261e-03,1.289336383342742920e-02,-4.718418233096599579e-03,-3.951803955715149641e-04,1.093547418713569641e-02,2.168381586670875549e-02,1.715509779751300812e-02,-3.375633095856755972e-04,-7.505245739594101906e-04,2.960859984159469604e-02,-4.904866218566894531e-03,1.746368594467639923e-02,-4.551577381789684296e-03,8.147523738443851471e-03,-1.847481937147676945e-03,-3.152628662064671516e-03,1.160248275846242905e-02,-6.147770956158638000e-02,1.127610877156257629e-01,3.180613741278648376e-02,1.637109322473406792e-03,-1.970715075731277466e-02,-8.015415817499160767e-02,-5.878026410937309265e-02,6.915138103067874908e-03,-1.915211323648691177e-04,2.593137789517641068e-03,-2.089950740337371826e-01,-2.235433319583535194e-03,1.119362562894821167e-02,8.321101963520050049e-02,-5.537134595215320587e-03,-5.532258749008178711e-02,-1.728829368948936462e-02,5.412365426309406757e-04,-1.005836389958858490e-02,6.537504959851503372e-04,-1.533164293505251408e-03,1.951490645296871662e-03,-2.169168926775455475e-02,1.732806302607059479e-02,-4.835222847759723663e-03,-1.476107910275459290e-02,-6.349476985633373260e-03,2.745447913184762001e-03,2.448994293808937073e-02,1.222026185132563114e-03,3.355751931667327881e-02,1.153293475508689880e-01,2.928611065726727247e-04,5.600719712674617767e-03,-6.469660252332687378e-02,1.633511710679158568e-04,1.036386820487678051e-03,3.845864906907081604e-02,1.777997799217700958e-02,9.401058405637741089e-02,-7.775151170790195465e-04,-1.637330651283264160e-02,5.050757527351379395e-02,4.600264132022857666e-03,1.124392915517091751e-02,-9.609080851078033447e-02,-1.833517476916313171e-02,1.172663830220699310e-02,2.551135185058228672e-05,6.254208856262266636e-04,1.977455802261829376e-03,4.148313775658607483e-03,-7.684825919568538666e-03,-4.253860935568809509e-02,-3.896415699273347855e-03,-2.777006942778825760e-03,-2.193542430177330971e-03,4.444921796675771475e-04,8.367421105504035950e-03,8.302462287247180939e-03,1.804997622966766357e-01,1.456866692751646042e-02,7.537197787314653397e-03,1.253366563469171524e-02,2.544443681836128235e-02,3.346890676766633987e-03,7.758974097669124603e-03,-2.764697745442390442e-02,2.869668044149875641e-02
-3.695200383663177490e-02,3.725456893444061279e-01,-1.177924219518899918e-02,3.856648923829197884e-03,9.320824407041072845e-03,-1.683320291340351105e-02,-5.055996589362621307e-04,-1.673834281973540783e-03,-5.242480710148811340e-02,4.741965606808662415e-02,-2.871601842343807220e-03,-1.611535064876079559e-02,-1.540947007015347481e-03,-9.471216239035129547e-03,-2.173713967204093933e-02,-1.250145607627928257e-03,3.772735653910785913e-04,-4.056201432831585407e-04,1.966120675206184387e-03,7.767149363644421101e-04,-7.184071000665426254e-03,4.871265590190887451e-02,-2.230986952781677246e-02,2.575434930622577667e-02,-6.725445389747619629e-03,7.540625333786010742e-02,-6.130544003099203110e-03,-9.738946100696921349e-04,2.547334134578704834e-02,-2.052898146212100983e-02,-1.423509977757930756e-02,2.294601639732718468e-03,3.131035773549228907e-04,-1.260270923376083374e-02,-5.080577451735734940e-03,-6.241769716143608093e-02,-4.416294395923614502e-02,-6.852584891021251678e-03,2.195701468735933304e-03,4.403793253004550934e-03,-1.517319306731224060e-02,6.384810060262680054e-02,-4.461200907826423645e-03,1.199629995971918106e-02,-7.955115288496017456e-04,1.851942017674446106e-02,1.501466631889343262e-01,8.598670363426208496e-02,1.334351603873074055e-03,-1.634410116821527481e-03,-1.233752910047769547e-02,1.391041278839111328e-01,6.903796922415494919e-03,-2.336566522717475891e-02,-1.306061148643493652e-01,3.746152855455875397e-03,1.281170397996902466e-01,4.486781079322099686e-03,3.439548891037702560e-03,-1.283622980117797852e-01,-2.392759342910721898e-04,1.141825877130031586e-02,7.022560574114322662e-03,-4.057000856846570969e-03,-2.487807348370552063e-02,-1.174094853922724724e-03,1.072189658880233765e-01,-6.739082746207714081e-03,3.463959554210305214e-03,-5.953269544988870621e-03,1.135465572588145733e-03,-1.270915288478136063e-02,-1.292934119701385498e-01,-2.506068674847483635e-03,1.176966540515422821e-02,3.837963938713073730e-02,-9.130502003245055676e-04,-1.341183320619165897e-03,2.425453392788767815e-03,-3.830662369728088379e-02,-1.770655065774917603e-02,-1.455816207453608513e-03,1.391367986798286438e-02,-1.582945138216018677e-02,2.807624870911240578e-03,1.241571619175374508e-03,2.130726911127567291e-02,2.251853048801422119e-02,-1.525930780917406082e-02,-2.999264048412442207e-03,-4.047706350684165955e-02,1.976434886455535889e-02,1.020773220807313919e-02,3.400323167443275452e-02,3.156443708576261997e-04,-6.157620809972286224e-03,2.582347206771373749e-02,-3.714498830959200859e-03,-2.139763440936803818e-03,2.140189148485660553e-02,2.844841405749320984e-02,-8.192214369773864746e-02,-1.358628505840897560e-04,9.643649682402610779e-03,2.283767983317375183e-02,-3.058763686567544937e-03,1.219562022015452385e-03,1.679927483201026917e-02,1.130872312933206558e-02,2.447475912049412727e-03
7.915417104959487915e-02,-9.891110658645629883e-02,1.688883639872074127e-02,2.299308544024825096e-03,-3.957706503570079803e-03,2.591575309634208679e-02,-5.086594610475003719e-04,-1.402182271704077721e-03,5.967739969491958618e-03,-1.488355547189712524e-02,1.753220021782908589e-05,2.435222640633583069e-02,6.020763143897056580e-02,1.248750742524862289e-02,-9.543252177536487579e-03,-7.739924330962821841e-05,6.310701370239257812e-03,2.283482626080513000e-02,-5.370414350181818008e-03,-1.296490617096424103e-02,-2.126194164156913757e-02,-8.716288954019546509e-03,2.229234762489795685e-02,-5.294600501656532288e-03,9.405234013684093952e-04,-1.003955900669097900e-01,-9.487525559961795807e-03,-7.842660997994244099e-04,-7.174900267273187637e-03,7.607935462146997452e-03,-6.693081464618444443e-03,1.720823347568511963e-03,7.330441381782293320e-03,-2.901032380759716034e-02,-8.659390732645988464e-03,4.236328601837158203e-02,6.661357730627059937e-02,1.294850185513496399e-02,-4.185587167739868164e-03,-1.489160582423210144e-02,9.390433318912982941e-03,4.231376573443412781e-02,-7.007410284131765366e-03,-2.726242505013942719e-02,-1.897015143185853958e-03,-3.677866654470562935e-03,-7.651271671056747437e-02,-5.554550141096115112e-02,6.216690875589847565e-03,-9.592248243279755116e-04,3.222269471734762192e-03,-6.322927772998809814e-02,4.368751775473356247e-03,1.964910328388214111e-02,4.176723212003707886e-02,-1.155892387032508850e-02,-1.210430786013603210e-01,5.476154852658510208e-03,3.207059344276785851e-03,1.537416577339172363e-01,6.834398955106735229e-04,-1.538712251931428909e-02,3.624802455306053162e-03,4.623600747436285019e-03,2.050156891345977783e-02,-6.379715166985988617e-03,-5.105040967464447021e-02,-3.735512727871537209e-03,8.711254224181175232e-03,-8.980598300695419312e-03,1.063404022715985775e-03,-9.314407594501972198e-03,3.488799557089805603e-02,-3.270667511969804764e-04,7.776692975312471390e-03,4.989922046661376953e-02,-5.612051463685929775e-04,-5.351008730940520763e-04,-7.191151380538940430e-03,6.077747419476509094e-02,1.781607232987880707e-02,-1.207113149575889111e-03,1.968700671568512917e-03,4.116373509168624878e-02,5.234128795564174652e-03,-3.365015238523483276e-02,1.076335785910487175e-03,-2.536821737885475159e-02,1.028499472886323929e-02,-1.780573256837669760e-05,5.672962963581085205e-02,4.008218238595873117e-04,7.551188115030527115e-03,-6.719838082790374756e-02,4.288925323635339737e-03,2.750383457168936729e-03,2.237840145826339722e-01,-2.975404728204011917e-03,-1.636891160160303116e-03,2.002235874533653259e-02,2.048448193818330765e-03,-7.774920761585235596e-02,-2.401276119053363800e-02,-2.637498453259468079e-02,-2.355065196752548218e-03,-7.508792448788881302e-03,1.637935754843056202e-03,8.741368539631366730e-03,-1.235339697450399399e-02,-5.126297473907470703e-03
-4.626447334885597229e-02,-5.365448072552680969e-02,1.372132636606693268e-02,-2.783423406071960926e-04,1.247420534491539001e-02,-1.853555813431739807e-02,2.866357797756791115e-03,-5.537316668778657913e-03,-2.093253843486309052e-02,3.034759871661663055e-02,-7.310255896300077438e-03,-2.391457743942737579e-02,-5.852047726511955261e-02,1.843513222411274910e-03,5.356939509510993958e-02,-6.106654647737741470e-03,6.420607678592205048e-03,-2.240847796201705933e-02,1.303027011454105377e-02,1.383914146572351456e-02,1.710025779902935028e-02,5.784630309790372849e-03,-1.579241128638386726e-03,2.231837483122944832e-03,1.561622228473424911e-02,6.130439415574073792e-02,3.289227932691574097e-02,1.535030663944780827e-03,9.578153491020202637e-03,-6.370895076543092728e-03,1.222574990242719650e-02,1.068651303648948669e-02,2.222967334091663361e-03,4.212408885359764099e-02,9.336832910776138306e-02,-2.259140089154243469e-02,-8.579921908676624298e-03,-8.911061100661754608e-03,9.340585093013942242e-04,-1.468878937885165215e-03,-1.018262747675180435e-02,-1.436854302883148193e-01,-1.976048573851585388e-02,-4.885028465650975704e-04,-2.807420445606112480e-03,-1.666547358036041260e-02,2.352264523506164551e-02,2.992083132266998291e-02,4.607876297086477280e-03,-7.154466584324836731e-03,2.261635474860668182e-02,1.335741579532623291e-02,-8.614401333034038544e-03,-1.772049255669116974e-02,1.720027625560760498e-02,1.649703085422515869e-02,6.120539456605911255e-02,1.694390666671097279e-03,1.163435261696577072e-02,-7.948292791843414307e-02,-7.798179518431425095e-03,7.172489073127508163e-03,1.344323717057704926e-02,1.819572784006595612e-02,-1.625035703182220459e-02,1.241422221064567566e-01,-2.955508790910243988e-02,-5.795917473733425140e-03,-1.977429725229740143e-02,-2.059708494925871491e-04,5.046539474278688431e-03,3.642618888989090919e-03,1.784579269587993622e-02,-9.583618491888046265e-03,4.899678006768226624e-02,6.352711468935012817e-03,1.831824309192597866e-03,2.859933301806449890e-03,-1.851510070264339447e-02,-3.631718829274177551e-02,-3.866315819323062897e-03,-1.064124330878257751e-02,-3.392238169908523560e-02,-6.239331513643264771e-02,1.091584265232086182e-01,3.014400973916053772e-02,3.865206986665725708e-02,-8.565907180309295654e-02,7.542190141975879669e-03,-9.139103814959526062e-03,-4.728477820754051208e-02,1.553492341190576553e-02,1.320147700607776642e-02,6.388786435127258301e-02,8.859427645802497864e-03,1.641131378710269928e-02,-4.225113689899444580e-01,-1.020286791026592255e-02,-1.023639179766178131e-02,-2.512020990252494812e-02,-6.656338926404714584e-03,1.382309198379516602e-01,8.707050234079360962e-03,5.096727609634399414e-02,7.463687215931713581e-04,2.586615039035677910e-03,-6.843805313110351562e-03,-5.022399127483367920e-02,-5.435998318716883659e-04,2.838529460132122040e-02
3.516263142228126526e-02,-2.594509394839406013e-03,-1.622661016881465912e-02,-7.565911859273910522e-03,-2.031228132545948029e-02,-4.105454683303833008e-02,2.410203596809878945e-04,6.651810370385646820e-03,-2.466614544391632080e-02,9.148724377155303955e-02,1.199772767722606659e-02,1.278251502662897110e-02,3.119670413434505463e-02,5.080432817339897156e-02,-5.591916292905807495e-02,2.693580230697989464e-03,-7.102589588612318039e-04,-2.997030271217226982e-03,-6.561013287864625454e-04,-2.774732559919357300e-02,1.722555793821811676e-02,3.706491552293300629e-03,-1.074384991079568863e-02,2.117807418107986450e-02,1.165731577202677727e-03,3.758498653769493103e-02,-7.462584972381591797e-02,-1.308740349486470222e-03,-7.649545371532440186e-02,1.230315584689378738e-02,1.429172698408365250e-02,-7.660972885787487030e-03,7.077083922922611237e-03,-4.349551349878311157e-02,-1.050929129123687744e-01,1.377029158174991608e-02,-6.904568523168563843e-02,1.060569309629499912e-03,1.500615663826465607e-02,-1.564231514930725098e-02,8.910868316888809204e-03,1.171136125922203064e-01,-9.523072093725204468e-02,-2.413409017026424408e-02,-2.794168656691908836e-03,1.412406563758850098e-02,-2.920315833762288094e-03,1.161561696790158749e-03,-4.709793627262115479e-02,1.208105550176696852e-05,-1.909808628261089325e-02,3.646276192739605904e-03,-7.780043873935937881e-03,1.385158300399780273e-02,-3.338661976158618927e-03,-2.048562653362751007e-02,9.834944456815719604e-02,2.728214720264077187e-03,-3.731859847903251648e-03,-1.453418470919132233e-02,4.772276617586612701e-03,6.971557624638080597e-03,-9.751291945576667786e-03,5.898576229810714722e-03,-8.005833253264427185e-03,-3.065682649612426758e-01,-2.491531521081924438e-02,-1.049780636094510555e-03,3.542843461036682129e-02,3.403788432478904724e-03,-2.182672731578350067e-03,-9.557897225022315979e-03,-4.468214139342308044e-02,3.782293060794472694e-03,7.801467180252075195e-02,3.207958117127418518e-02,-2.392608439549803734e-03,-4.977745003998279572e-03,9.235749021172523499e-03,9.461173904128372669e-04,3.697311878204345703e-02,-2.573055913671851158e-03,-6.001422181725502014e-02,-1.234689075499773026e-02,1.054190173745155334e-01,-1.701158471405506134e-02,-1.369102671742439270e-02,-3.166834637522697449e-02,-1.627947390079498291e-02,3.463218454271554947e-03,5.714347120374441147e-03,-1.336610969156026840e-02,1.742112450301647186e-02,-8.594249188899993896e-02,1.365114189684391022e-02,-1.933532301336526871e-03,1.000576540827751160e-01,7.207611110061407089e-03,5.470911972224712372e-03,-2.432704716920852661e-02,-1.191358547657728195e-02,4.360763728618621826e-02,2.369697950780391693e-02,-3.322532400488853455e-02,-1.225664746016263962e-02,6.053206976503133774e-03,2.615909033920615911e-04,9.206938557326793671e-03,2.028914727270603180e-02,-5.370147153735160828e-02
-4.158648476004600525e-02,7.564514875411987305e-03,6.345601286739110947e-03,-2.004933077841997147e-03,1.565493270754814148e-02,3.511719033122062683e-02,2.321903157280758023e-04,1.628230820642784238e-04,4.492932464927434921e-03,4.962555249221622944e-04,-4.061308689415454865e-03,-2.060803957283496857e-02,-2.688271924853324890e-02,-8.955559134483337402e-02,7.744397968053817749e-02,2.259101951494812965e-03,3.119147615507245064e-03,7.614941336214542389e-03,-6.492175627499818802e-03,2.594488859176635742e-02,-1.021147426217794418e-02,3.824135661125183105e-02,-2.543197758495807648e-02,-3.425382077693939209e-02,-4.153253044933080673e-03,-1.111736707389354706e-02,7.229796797037124634e-02,2.778180409222841263e-03,2.139948122203350067e-02,-5.995913594961166382e-02,-5.783338099718093872e-03,6.285829003900289536e-04,-8.691718801856040955e-03,2.507854066789150238e-02,-9.995914995670318604e-03,-7.100348360836505890e-03,8.113465458154678345e-02,-5.318303592503070831e-04,-4.109597951173782349e-02,-2.558365929871797562e-03,-4.911520518362522125e-03,-7.070451229810714722e-02,8.859853446483612061e-02,-6.651573814451694489e-03,4.034402314573526382e-03,-2.663620933890342712e-02,-1.046414207667112350e-02,3.261588886380195618e-02,8.104662597179412842e-02,1.736649544909596443e-03,3.557046130299568176e-02,-1.855250634253025055e-02,-1.878427527844905853e-02,-1.005457527935504913e-02,1.656178012490272522e-02,8.416605181992053986e-03,-1.048544570803642273e-01,9.483746252954006195e-03,8.984179235994815826e-03,1.248219516128301620e-02,1.451802527299150825e-04,-1.941859349608421326e-02,1.310423389077186584e-02,-1.474619936197996140e-02,1.227695029228925705e-02,2.332785874605178833e-01,2.462460100650787354e-02,-1.382815185934305191e-02,-3.673987835645675659e-02,1.249803230166435242e-02,5.537765100598335266e-03,4.763534525409340858e-04,1.550660468637943268e-02,-2.093806862831115723e-03,-2.070008814334869385e-01,-1.929040625691413879e-02,2.318860031664371490e-03,-9.179154876619577408e-04,-1.983752474188804626e-02,-3.102184971794486046e-03,-1.921474933624267578e-02,-4.322330467402935028e-03,1.526493951678276062e-02,2.757419086992740631e-02,-4.618230462074279785e-01,1.871040835976600647e-02,-2.123567648231983185e-02,1.184185594320297241e-02,4.599767550826072693e-02,-2.383627928793430328e-03,1.917611062526702881e-02,8.058793842792510986e-02,-1.179524697363376617e-02,1.107561364769935608e-01,1.084789633750915527e-02,3.116293065249919891e-02,1.995525881648063660e-02,-3.445413894951343536e-03,-1.625288743525743484e-03,2.950151823461055756e-02,-1.731850765645503998e-02,-6.269120424985885620e-02,-3.131468221545219421e-02,6.862074881792068481e-02,-7.683223579078912735e-03,-4.170619323849678040e-02,-1.476484443992376328e-02,-3.412217274308204651e-02,-1.144450344145298004e-02,1.439309865236282349e-02
3.042310103774070740e-02,1.640136167407035828e-02,2.199726738035678864e-02,2.028203941881656647e-02,-6.111154332756996155e-02,3.536385251209139824e-03,-6.691181915812194347e-04,-7.964168325997889042e-04,-1.233786065131425858e-02,-3.740203976631164551e-01,3.785681445151567459e-03,-3.762471675872802734e-02,-7.517024409025907516e-03,1.636824198067188263e-02,-1.896473318338394165e-01,2.881317399442195892e-03,-4.023942630738019943e-03,-2.124026790261268616e-02,-1.664404408074915409e-03,-2.496078424155712128e-02,3.636727854609489441e-02,-5.046403035521507263e-02,8.443590253591537476e-03,3.677113354206085205e-02,1.827964372932910919e-02,2.327224612236022949e-02,-5.079848691821098328e-02,-3.919929804396815598e-05,1.006271457299590111e-03,8.426218479871749878e-02,-3.141321474686264992e-03,-4.880316089838743210e-03,1.128588151186704636e-02,7.406323216855525970e-03,2.640518918633460999e-02,-3.553869668394327164e-03,-7.098608184605836868e-03,1.132209226489067078e-02,2.199896611273288727e-02,-4.847314557991921902e-04,-1.408064085990190506e-02,2.876916551031172276e-04,-5.113143473863601685e-02,1.665899530053138733e-02,-1.110577257350087166e-03,-1.334154326468706131e-02,-1.259236712940037251e-03,-3.235127776861190796e-02,-1.214278191328048706e-01,2.759219380095601082e-03,1.493386551737785339e-02,5.670551955699920654e-02,1.854910515248775482e-02,-4.085930436849594116e-02,-9.216713719069957733e-03,1.329803559929132462e-02,7.241335511207580566e-02,-1.429893262684345245e-02,-7.108027115464210510e-03,3.437776491045951843e-02,-2.185845747590065002e-03,-5.025937687605619431e-03,-7.893984206020832062e-03,-1.367552764713764191e-02,-3.480201587080955505e-02,-1.198777556419372559e-01,-1.936477981507778168e-02,1.127223949879407883e-02,-6.944396998733282089e-03,-9.141871705651283264e-03,-3.252368653193116188e-03,-1.915320567786693573e-02,-8.698100224137306213e-03,5.797754507511854172e-03,-1.394553929567337036e-01,1.365125365555286407e-02,-3.659654466900974512e-04,-6.360901985317468643e-03,-1.349264290183782578e-02,1.492970250546932220e-02,1.009141094982624054e-02,-1.254301052540540695e-03,2.562247961759567261e-02,-3.445922583341598511e-02,6.861031055450439453e-01,1.540760230273008347e-02,7.121098786592483521e-02,-1.237850543111562729e-02,-1.816004887223243713e-02,2.750992542132735252e-03,-4.020329192280769348e-02,-8.148448169231414795e-02,-2.699111960828304291e-02,-7.392650842666625977e-02,8.114828728139400482e-03,-4.818994924426078796e-02,-4.045942053198814392e-02,7.863651029765605927e-03,6.538614165037870407e-03,-2.263838052749633789e-02,-6.832246202975511551e-03,5.157604813575744629e-02,3.660542145371437073e-02,-1.034401357173919678e-01,-2.472198382019996643e-02,2.182972803711891174e-02,-3.030732914339751005e-04,-1.331962365657091141e-02,-1.625994034111499786e-02,1.798463426530361176e-02
-1.382409967482089996e-02,2.230161614716053009e-02,-3.040182963013648987e-02,-2.131199277937412262e-02,-6.118879839777946472e-02,-5.924330651760101318e-02,5.824044812470674515e-03,4.108715802431106567e-03,-1.151074469089508057e-02,3.868878781795501709e-01,1.742767286486923695e-03,8.595439791679382324e-02,1.316662039607763290e-02,7.939607650041580200e-02,1.101442649960517883e-01,-8.888555748853832483e-05,3.620243631303310394e-03,1.958302594721317291e-02,-5.323457531630992889e-03,-3.014478599652647972e-03,-1.046829624101519585e-03,6.149315088987350464e-02,-5.217957310378551483e-03,1.158649753779172897e-02,5.601440090686082840e-03,-1.396705396473407745e-03,2.576185390353202820e-02,3.161844797432422638e-03,4.577130544930696487e-03,-1.435175687074661255e-01,-6.576363462954759598e-03,-2.302334411069750786e-03,1.465366221964359283e-02,-1.817468670196831226e-03,1.042358055710792542e-01,3.496511280536651611e-02,-1.711081713438034058e-02,-1.646782271564006805e-03,2.786415629088878632e-03,-1.668288558721542358e-02,3.915727138519287109e-02,1.928005740046501160e-02,-1.614918373525142670e-02,-2.090250700712203979e-02,-3.634571912698447704e-04,4.489358887076377869e-02,1.062325667589902878e-02,8.095286786556243896e-03,-2.171618789434432983e-01,-5.514550139196217060e-04,-2.767077460885047913e-02,-6.519094109535217285e-02,-2.758223190903663635e-02,7.326610386371612549e-02,1.961163245141506195e-03,-2.243694104254245758e-02,-5.413091555237770081e-02,5.132815800607204437e-03,-1.035343483090400696e-02,8.281892165541648865e-03,9.988535894080996513e-04,-5.834410432726144791e-03,-9.077201597392559052e-03,1.225027535110712051e-02,7.723626494407653809e-02,9.050542861223220825e-02,2.743370644748210907e-02,1.203198172152042389e-02,9.421125054359436035e-02,-4.722894635051488876e-03,-3.373781917616724968e-03,3.290400281548500061e-02,-2.532806620001792908e-02,1.828387961722910404e-03,6.836172938346862793e-01,-4.864295572042465210e-02,3.201461164280772209e-03,2.861045999452471733e-03,1.623403280973434448e-02,-1.456066220998764038e-02,2.198295854032039642e-02,4.773735534399747849e-03,2.045210218057036400e-03,-6.380575709044933319e-03,-3.017378747463226318e-01,-9.442873299121856689e-02,-6.862102448940277100e-02,-1.128417160362005234e-02,2.245530253276228905e-03,1.949073979631066322e-03,1.397878583520650864e-02,-1.116889864206314087e-01,-3.954695072025060654e-03,2.859044354408979416e-03,-2.826740499585866928e-03,3.454178199172019958e-02,1.307587027549743652e-01,4.471636377274990082e-03,3.247689222916960716e-03,-1.088176295161247253e-02,-1.160697359591722488e-02,-1.492964942008256912e-02,-3.059504553675651550e-02,3.324477747082710266e-02,1.312967482954263687e-02,1.506132911890745163e-02,6.539013236761093140e-02,-4.284120630472898483e-03,5.360500887036323547e-02,-2.088457904756069183e-02
4.232858307659626007e-03,-3.533198311924934387e-02,2.553323283791542053e-02,2.045391127467155457e-02,1.773695349693298340e-01,3.743619099259376526e-02,-1.265302021056413651e-02,8.479698561131954193e-03,-2.134722890332341194e-03,-2.248675525188446045e-01,3.259803634136915207e-03,-5.584259703755378723e-02,-1.496470533311367035e-02,-1.852679997682571411e-01,-5.126276612281799316e-02,4.200623836368322372e-03,-3.135614562779664993e-03,-2.891595847904682159e-02,3.660802170634269714e-02,2.569040283560752869e-02,3.347384557127952576e-02,-3.788811713457107544e-02,2.346496284008026123e-02,-4.538826271891593933e-02,-5.581761244684457779e-03,-2.405467256903648376e-02,-2.366510033607482910e-02,-5.830928683280944824e-03,3.477462101727724075e-03,7.249126583337783813e-02,1.171795465052127838e-02,-3.232594463042914867e-04,-1.651497930288314819e-02,-2.357997000217437744e-02,-2.080899327993392944e-01,-5.105273425579071045e-02,2.648279815912246704e-02,3.838639706373214722e-03,-3.593444824218750000e-02,7.005708757787942886e-03,-3.099282644689083099e-02,-1.588886976242065430e-02,2.994219213724136353e-02,-2.840719930827617645e-02,-5.932808853685855865e-03,-2.215249650180339813e-02,-2.756558544933795929e-02,-3.362829238176345825e-02,4.480229616165161133e-01,5.497809033840894699e-03,5.673439055681228638e-02,4.288351908326148987e-02,6.354696117341518402e-03,-3.823570534586906433e-02,-1.835194416344165802e-02,2.768841199576854706e-02,1.154138799756765366e-02,-6.375225260853767395e-03,1.047571562230587006e-02,1.787177845835685730e-02,-1.287192804738879204e-03,-6.166129605844616890e-04,6.085881963372230530e-03,-3.740170970559120178e-02,-1.996653340756893158e-02,-1.365151405334472656e-01,-2.486320212483406067e-03,-5.358667299151420593e-02,-9.584353119134902954e-02,4.719609767198562622e-02,-8.965262677520513535e-04,-3.191356360912322998e-02,-1.231641881167888641e-02,8.825289114611223340e-05,-6.342440247535705566e-01,3.697257861495018005e-02,-6.923236418515443802e-03,-6.035970989614725113e-03,1.691944152116775513e-02,-3.038994502276182175e-03,6.535550951957702637e-02,-1.779143116436898708e-03,7.054418674670159817e-04,1.569752022624015808e-02,6.308585405349731445e-02,9.862492978572845459e-02,6.845638155937194824e-02,-3.139176964759826660e-02,3.412082046270370483e-02,3.113401122391223907e-03,1.371992100030183792e-02,1.583554744720458984e-01,1.157996878027915955e-01,-3.885464509949088097e-03,1.316931750625371933e-02,9.072381071746349335e-03,-1.277668923139572144e-01,-2.136334776878356934e-03,-1.320672337897121906e-03,1.724616810679435730e-02,-1.390031725168228149e-02,9.949220344424247742e-03,5.201149731874465942e-03,-5.958870984613895416e-03,-2.093435637652873993e-02,-7.620851974934339523e-03,1.786308363080024719e-02,6.621088832616806030e-03,-5.671314522624015808e-02,-5.087325815111398697e-03
2.228031121194362640e-02,7.054539769887924194e-02,-3.229510411620140076e-02,-1.882097870111465454e-02,2.547372691333293915e-02,-3.916864749044179916e-03,2.566276676952838898e-02,-1.515506487339735031e-02,5.216219462454319000e-03,3.933880850672721863e-02,-6.500937044620513916e-03,-1.352221891283988953e-02,-1.993286795914173126e-02,1.269339174032211304e-01,-8.679457753896713257e-02,-2.948107663542032242e-03,-5.236899480223655701e-03,2.261824533343315125e-02,-1.248183101415634155e-02,1.502509042620658875e-02,-7.982249557971954346e-02,-3.079737944062799215e-04,-5.341755691915750504e-03,1.762440055608749390e-02,1.896958425641059875e-02,2.541841752827167511e-02,2.461980096995830536e-02,1.761089824140071869e-02,-5.155060812830924988e-02,-5.475095938891172409e-03,8.285687305033206940e-03,-9.260242804884910583e-04,-1.418305281549692154e-02,9.651301801204681396e-02,6.085938215255737305e-02,3.463806584477424622e-02,-4.248242080211639404e-02,6.472924258559942245e-03,4.089023172855377197e-02,3.121408633887767792e-02,2.343405410647392273e-02,9.742625057697296143e-03,-1.446601562201976776e-02,2.295278944075107574e-03,4.246942233294248581e-03,6.093934644013643265e-04,8.818486332893371582e-02,4.090583883225917816e-03,-4.687347710132598877e-01,1.401460496708750725e-03,-3.603933611884713173e-03,-3.334498405456542969e-02,2.123411279171705246e-03,-9.975782595574855804e-03,3.327723219990730286e-02,-2.801580913364887238e-02,2.062695100903511047e-02,7.807960268110036850e-03,4.884227644652128220e-03,-2.656195871531963348e-02,-7.159986067563295364e-03,2.060526283457875252e-03,9.872151538729667664e-03,4.181372374296188354e-02,-7.358395308256149292e-02,4.212139919400215149e-02,-1.685720123350620270e-02,2.011273056268692017e-02,-8.941727690398693085e-03,-5.518252775073051453e-02,-4.164369776844978333e-03,-1.096011977642774582e-02,-5.173328332602977753e-03,-3.993567079305648804e-03,-6.852465867996215820e-02,1.748288422822952271e-02,2.174583077430725098e-02,4.056129138916730881e-03,-6.107287108898162842e-02,-1.291762944310903549e-02,-2.194292470812797546e-02,-5.801953841000795364e-03,-1.695241928100585938e-01,-2.758435904979705811e-03,-3.389090672135353088e-02,-2.725143544375896454e-02,-4.431652277708053589e-02,-3.659694688394665718e-03,-4.650139063596725464e-02,-4.680253565311431885e-03,-3.152619302272796631e-02,-4.520390182733535767e-02,-2.182027697563171387e-01,-3.451466932892799377e-02,1.408697851002216339e-02,-8.250758983194828033e-03,6.010985746979713440e-02,-8.944211527705192566e-03,2.375869778916239738e-03,-5.417934432625770569e-02,3.027916327118873596e-02,-8.259307593107223511e-03,2.402351796627044678e-02,-2.652687020599842072e-02,7.843448780477046967e-03,-5.013376474380493164e-02,-8.980681002140045166e-02,-4.391939938068389893e-02,4.496037214994430542e-02,-3.550274297595024109e-02
1.518379431217908859e-03,-7.604279369115829468e-02,1.545220497064292431e-03,-1.181934378109872341e-03,-1.217603981494903564e-01,3.857424249872565269e-03,-2.426246181130409241e-03,-7.822156883776187897e-03,-3.938989341259002686e-02,-3.622848913073539734e-02,-8.459079079329967499e-03,-1.624277047812938690e-02,2.996113710105419159e-02,-6.559817492961883545e-02,6.725976616144180298e-02,-5.208498798310756683e-03,2.453497145324945450e-03,-1.610740832984447479e-02,-8.835545741021633148e-03,8.331438526511192322e-03,1.710028573870658875e-02,3.755744546651840210e-03,1.774404756724834442e-02,4.822439048439264297e-03,-1.565589103847742081e-03,-8.860535919666290283e-03,-7.500051520764827728e-03,-2.689644694328308105e-03,4.899082705378532410e-02,-1.116143446415662766e-02,-2.111934591084718704e-03,8.092913776636123657e-03,-5.913604516535997391e-03,-8.490569889545440674e-02,-8.655542135238647461e-02,-1.293896604329347610e-02,3.623162955045700073e-02,-3.828464820981025696e-02,-1.246002037078142166e-02,9.272542782127857208e-03,-4.034905880689620972e-02,-2.474318491294980049e-03,-2.189309336245059967e-02,-6.548536475747823715e-04,1.503677223809063435e-03,1.108120940625667572e-02,-6.720895320177078247e-02,-3.497022390365600586e-02,3.382282853126525879e-01,-5.595185793936252594e-03,-1.143969036638736725e-02,3.708303347229957581e-02,-1.684543490409851074e-02,-2.015325240790843964e-02,-1.162587385624647141e-02,3.571178531274199486e-03,-1.258405391126871109e-02,5.801070481538772583e-03,1.265439949929714203e-02,-2.330544963479042053e-02,-4.479008726775646210e-03,7.853631861507892609e-03,7.580704521387815475e-03,-2.733775600790977478e-02,-1.106996368616819382e-02,6.894360482692718506e-02,-3.365127136930823326e-03,-1.129526179283857346e-02,-1.905830390751361847e-02,2.529892325401306152e-02,-1.028763363137841225e-03,1.020219549536705017e-02,1.512058638036251068e-02,-9.839916601777076721e-03,1.369099915027618408e-01,-1.882232353091239929e-02,-2.389512956142425537e-03,-2.493773121386766434e-03,1.431679353117942810e-02,1.427326630800962448e-02,4.921619314700365067e-03,-7.619473617523908615e-03,2.129203081130981445e-01,-2.404947532340884209e-03,6.871528923511505127e-02,4.174619913101196289e-02,1.748080365359783173e-02,2.889421768486499786e-02,2.611185051500797272e-02,-6.025966256856918335e-03,-6.177718285471200943e-03,-7.376015651971101761e-03,2.055087983608245850e-01,1.435104757547378540e-02,6.132138893008232117e-03,1.341596059501171112e-02,-5.209819413721561432e-03,-1.013188902288675308e-02,-9.249171242117881775e-03,7.599411904811859131e-02,-2.635123953223228455e-02,3.471208736300468445e-03,7.689053192734718323e-03,-2.239492908120155334e-02,7.574786432087421417e-04,2.406980097293853760e-02,-2.771630696952342987e-02,7.951728999614715576e-03,-1.254230365157127380e-02,7.518142811022698879e-04
4.420872312039136887e-03,8.406399935483932495e-02,5.892802029848098755e-03,-9.372780099511146545e-03,1.369130611419677734e-01,-3.976444154977798462e-02,-4.811025864910334349e-04,-4.614075180143117905e-03,3.359182551503181458e-02,9.453050792217254639e-02,1.145848631858825684e-02,1.598443090915679932e-02,-2.917925361543893814e-03,3.921369463205337524e-02,-4.752883315086364746e-02,7.300878409296274185e-03,7.928114384412765503e-03,7.891196757555007935e-03,-1.282465760596096516e-03,-5.208063405007123947e-03,-9.256236255168914795e-03,-2.333916258066892624e-03,-3.082132898271083832e-03,-7.327331695705652237e-05,6.493934197351336479e-04,4.493467509746551514e-02,-2.831050567328929901e-02,-1.898807677207514644e-04,-2.039849758148193359e-02,-1.474058721214532852e-02,6.715097930282354355e-03,-1.242622453719377518e-02,1.025283616036176682e-02,1.630623126402497292e-03,8.543053269386291504e-02,1.529374439269304276e-02,-2.706987969577312469e-02,5.289442464709281921e-02,2.356495521962642670e-02,1.374224666506052017e-03,2.858687564730644226e-02,2.065621688961982727e-02,-6.040675565600395203e-03,-2.601281739771366119e-02,-6.824441254138946533e-03,-1.608712365850806236e-03,2.457057125866413116e-02,8.891885168850421906e-03,-1.840978711843490601e-01,7.892864756286144257e-03,8.329330943524837494e-03,-1.521287392824888229e-02,7.499494589865207672e-03,7.769115734845399857e-03,8.092069998383522034e-03,-4.249235149472951889e-03,1.245100703090429306e-02,6.070546805858612061e-03,-2.109446376562118530e-02,3.582493402063846588e-03,7.448220625519752502e-03,1.945727318525314331e-02,-1.831649430096149445e-02,3.212438896298408508e-02,2.883507311344146729e-02,-5.022253468632698059e-02,3.609941806644201279e-03,1.189983915537595749e-02,2.784762531518936157e-02,-3.060632199048995972e-02,1.393905025906860828e-03,-1.198190636932849884e-02,-1.491378154605627060e-02,9.920808486640453339e-03,-5.424852296710014343e-02,6.052737310528755188e-02,-1.650312449783086777e-03,1.247031963430345058e-03,-1.093988679349422455e-02,-7.682339753955602646e-03,-2.775669097900390625e-02,4.098056349903345108e-03,-1.460506767034530640e-01,-6.529358681291341782e-03,-6.309940665960311890e-02,-3.113443404436111450e-02,-6.947925314307212830e-03,-1.547355297952890396e-02,-4.368586093187332153e-02,1.118744071573019028e-02,-3.286036662757396698e-04,-3.510550782084465027e-02,-1.039569452404975891e-01,-1.071897149085998535e-02,-5.554697941988706589e-03,-2.044022781774401665e-03,2.294071018695831299e-02,1.315706875175237656e-02,1.135624572634696960e-02,-4.862072691321372986e-02,3.196610778104513884e-04,-2.698056166991591454e-03,-1.467683352530002594e-02,2.624528482556343079e-02,-6.968111731112003326e-03,-2.036346681416034698e-02,5.923045799136161804e-02,1.714024459943175316e-03,2.559843240305781364e-03,-8.422907441854476929e-03
7.171320728957653046e-03,-7.277193013578653336e-03,-1.946003548800945282e-02,1.017145719379186630e-02,-4.204633831977844238e-02,7.601555902510881424e-03,-3.591022919863462448e-03,4.170893691480159760e-03,1.778786629438400269e-02,-2.777526527643203735e-02,6.665251217782497406e-03,2.117654948960989714e-04,-1.265563629567623138e-02,-9.298808872699737549e-02,-1.600209251046180725e-02,5.472120363265275955e-03,-9.032987290993332863e-04,-2.346389740705490112e-02,-1.954603940248489380e-02,7.817116566002368927e-03,1.964214257895946503e-02,1.800731755793094635e-02,-9.662466123700141907e-03,-2.236488275229930878e-02,1.952891796827316284e-02,3.414426930248737335e-03,-3.724024072289466858e-02,-3.363289870321750641e-03,3.222193103283643723e-03,4.434841498732566833e-02,-1.502108667045831680e-02,-7.052379194647073746e-03,-1.680132932960987091e-02,-1.280122715979814529e-02,-4.891875758767127991e-02,-1.773879746906459332e-03,6.333117838948965073e-03,-9.710821323096752167e-03,1.843440812081098557e-03,-9.480192326009273529e-03,1.270474749617278576e-03,-1.025600731372833252e-02,-6.462341640144586563e-03,-3.084301576018333435e-02,-4.735454916954040527e-03,1.914255507290363312e-02,-2.158892713487148285e-02,5.710498988628387451e-02,4.572630673646926880e-02,5.946813616901636124e-03,1.859699375927448273e-02,1.951778656803071499e-03,1.722435280680656433e-02,6.161045748740434647e-03,-6.550208199769258499e-03,4.870354663580656052e-03,-2.094797603785991669e-02,-4.727896011900156736e-04,-4.348934162408113480e-03,-4.337314981967210770e-03,2.090224996209144592e-03,2.204060181975364685e-02,-1.091466285288333893e-02,-1.127351261675357819e-02,1.604508236050605774e-02,2.110905479639768600e-03,-1.127863209694623947e-02,2.414078079164028168e-02,5.293617770075798035e-02,4.360100720077753067e-04,3.642368363216519356e-03,1.188189350068569183e-02,-4.651274159550666809e-02,6.459688767790794373e-03,3.899201378226280212e-02,-6.909074727445840836e-03,-3.801324171945452690e-03,3.326012229081243277e-04,7.186503615230321884e-03,-9.592980146408081055e-03,6.078919395804405212e-02,3.627582453191280365e-03,7.265049219131469727e-02,-4.373155534267425537e-03,3.197881579399108887e-02,-3.795391821768134832e-04,-2.963885292410850525e-02,-1.362351886928081512e-02,3.439496736973524094e-03,4.254353698343038559e-03,-3.686564275994896889e-03,1.931813918054103851e-02,8.521275012753903866e-04,6.599933374673128128e-03,-9.893364273011684418e-03,1.318327058106660843e-02,-5.598425492644309998e-02,4.514438100159168243e-03,7.091575302183628082e-03,2.730801003053784370e-03,5.866593681275844574e-03,-1.405488047748804092e-02,-8.360831066966056824e-03,1.171914115548133850e-02,2.334544248878955841e-02,-5.791717022657394409e-02,7.263731211423873901e-02,-3.720839321613311768e-02,4.517767578363418579e-03,7.459355983883142471e-03
1.237406954169273376e-02,-4.489918239414691925e-03,-9.728850796818733215e-03,-6.910512689501047134e-03,-4.778774382430128753e-05,-2.396529912948608398e-02,3.401087829843163490e-03,9.971466351998969913e-05,-1.614226843230426311e-03,-4.240357875823974609e-02,-9.130897000432014465e-03,1.673251274041831493e-03,-1.697396114468574524e-02,1.073818281292915344e-01,2.998657152056694031e-02,-8.328864350914955139e-03,-1.132609229534864426e-02,4.619623348116874695e-02,1.893201656639575958e-02,-7.011379580944776535e-03,-2.272025309503078461e-02,1.953857578337192535e-02,3.356920322403311729e-03,2.369244396686553955e-02,-1.068688184022903442e-02,-8.937674574553966522e-03,6.301327142864465714e-03,6.678025238215923309e-03,2.708493731915950775e-02,-1.066520437598228455e-02,1.597579009830951691e-02,3.762538312003016472e-03,-1.071069017052650452e-02,8.524956554174423218e-02,-8.303291350603103638e-02,4.752543289214372635e-03,2.797925472259521484e-02,-3.527732100337743759e-03,1.181062031537294388e-02,2.532327175140380859e-02,1.783395744860172272e-02,1.424230914562940598e-02,1.523074135184288025e-02,3.088177368044853210e-02,4.630217328667640686e-03,3.186469152569770813e-02,-3.533845767378807068e-03,-1.967695308849215508e-03,1.990792900323867798e-02,-7.745216134935617447e-03,-4.942721128463745117e-02,-4.858660759055055678e-05,-3.476324956864118576e-03,-2.983790356665849686e-03,1.984677975997328758e-03,-1.652752980589866638e-02,-7.431299425661563873e-03,3.291872562840580940e-03,4.654254298657178879e-03,7.962229661643505096e-03,-1.232656277716159821e-02,-3.556057065725326538e-02,1.229630690068006516e-02,1.506254542618989944e-03,-1.759817823767662048e-02,5.326349660754203796e-02,-6.372771691530942917e-03,1.163980178534984589e-02,-1.147314757108688354e-01,6.654837634414434433e-03,-3.741490887477993965e-03,1.660597324371337891e-02,-4.618500825017690659e-03,-1.147191412746906281e-02,2.162232063710689545e-03,-1.144029758870601654e-02,5.524200852960348129e-03,-1.398460444761440158e-04,-1.924225501716136932e-02,2.056450024247169495e-02,-1.692110858857631683e-02,-6.468559149652719498e-03,-4.376801475882530212e-02,1.044300105422735214e-02,-6.211947184056043625e-04,-5.549767054617404938e-03,3.634072374552488327e-03,-7.049228530377149582e-03,-4.228287842124700546e-03,-6.879117805510759354e-03,-3.070602193474769592e-03,-8.436841890215873718e-03,2.407062711426988244e-04,2.125880867242813110e-02,5.098386853933334351e-02,-9.634967893362045288e-03,5.282184854149818420e-02,-7.812275085598230362e-03,-5.397284869104623795e-03,1.485259365290403366e-02,-2.364100655540823936e-03,1.640398614108562469e-02,2.471584454178810120e-02,-1.679488085210323334e-02,1.688508345978334546e-04,1.181156560778617859e-02,-1.697737723588943481e-01,1.155786123126745224e-02,2.420787885785102844e-02,-6.426861975342035294e-03
-3.328385576605796814e-02,-1.311034429818391800e-02,-1.799024455249309540e-02,1.410856936126947403e-02,2.554346108809113503e-03,1.430556440027430654e-04,-8.600948378443717957e-03,5.229929927736520767e-03,-3.380245761945843697e-03,8.456793427467346191e-02,7.732891477644443512e-03,1.714848796837031841e-03,9.097494184970855713e-03,-1.255085170269012451e-01,-5.099183320999145508e-02,2.523344242945313454e-03,9.087557904422283173e-03,-7.847460359334945679e-02,-1.332559436559677124e-02,5.937130656093358994e-03,-1.554719824343919754e-02,-1.581221632659435272e-02,1.589152589440345764e-02,3.374624531716108322e-03,3.371913358569145203e-02,-4.692912916652858257e-04,1.458280952647328377e-03,-5.277904681861400604e-03,-3.881569951772689819e-02,2.790957875549793243e-02,-1.706746057607233524e-03,-2.481982577592134476e-03,2.140971459448337555e-02,-6.991723179817199707e-02,8.628013730049133301e-02,-5.109361838549375534e-03,1.380701456218957901e-02,4.841926041990518570e-03,-1.471835188567638397e-02,-2.812138199806213379e-02,-2.040360495448112488e-02,-2.704457566142082214e-02,-8.764448575675487518e-03,-3.552149608731269836e-02,-6.406103726476430893e-03,-2.105367183685302734e-02,-9.758902713656425476e-03,-1.826116442680358887e-02,-5.848936736583709717e-03,6.315690698102116585e-04,5.789130181074142456e-02,1.445656962459906936e-04,2.853694604709744453e-03,1.299671549350023270e-02,1.242829021066427231e-03,1.190745085477828979e-02,-6.987481843680143356e-03,-6.598839536309242249e-03,2.340464619919657707e-03,-1.563228294253349304e-02,6.974131334573030472e-03,2.309859916567802429e-02,-1.157948933541774750e-02,5.399974528700113297e-03,4.316932708024978638e-02,-2.993521653115749359e-02,-1.423686509951949120e-03,-1.455475948750972748e-02,1.530577093362808228e-01,1.344664115458726883e-02,-1.010413165204226971e-03,-2.181438356637954712e-02,8.725947700440883636e-03,2.811041660606861115e-03,2.580494619905948639e-02,1.422708295285701752e-02,-6.338043604046106339e-03,-2.300672233104705811e-03,2.391151152551174164e-02,-2.932463027536869049e-02,1.039493456482887268e-02,-1.314691733568906784e-03,1.238881330937147141e-02,-7.358754053711891174e-03,-4.511746391654014587e-02,1.086408924311399460e-02,1.085538417100906372e-03,2.345191128551959991e-02,1.698422431945800781e-02,3.636892186477780342e-03,-4.670992959290742874e-03,2.448930591344833374e-02,1.229889504611492157e-02,-9.842550382018089294e-03,-2.968140132725238800e-02,-2.327955514192581177e-02,-5.576227605342864990e-02,1.378683664370328188e-04,1.378284185193479061e-03,-5.748179741203784943e-03,1.438059844076633453e-02,1.635963656008243561e-02,2.036953717470169067e-02,7.631638087332248688e-03,-3.437980078160762787e-03,-8.352388627827167511e-03,2.646772265434265137e-01,5.642204545438289642e-03,-3.915754333138465881e-02,-4.930165037512779236e-02
2.580207400023937225e-02,8.537676185369491577e-02,7.089977711439132690e-02,-1.096420362591743469e-02,-4.032959043979644775e-02,-1.011144486255943775e-03,1.450372487306594849e-02,-1.001272816210985184e-02,-1.925110444426536560e-02,-8.427587896585464478e-02,-2.312356047332286835e-02,-1.472334284335374832e-02,-4.437714815139770508e-03,9.422718733549118042e-02,1.350668966770172119e-01,-1.851640176028013229e-03,5.383625626564025879e-03,1.266511082649230957e-01,4.021021723747253418e-02,1.218022592365741730e-02,8.683411404490470886e-03,2.208636328577995300e-02,2.163337729871273041e-02,-1.245889347046613693e-02,-3.802540525794029236e-02,-1.858396572060883045e-04,3.828377649188041687e-02,1.000654231756925583e-02,4.393167793750762939e-03,-4.186902195215225220e-02,-4.083565250039100647e-02,1.747330091893672943e-02,-1.343735400587320328e-02,9.916194528341293335e-02,-1.042593494057655334e-01,2.207873621955513954e-03,-3.437193110585212708e-02,-1.123516261577606201e-02,2.833968214690685272e-02,1.374265458434820175e-02,5.364748183637857437e-03,1.156275626271963120e-02,1.379379443824291229e-02,2.841831371188163757e-02,1.134811528027057648e-02,1.916852407157421112e-02,6.340337451547384262e-03,1.185422670096158981e-02,-4.432353004813194275e-02,-5.126301199197769165e-03,3.362084552645683289e-02,4.399778321385383606e-03,1.263062353245913982e-03,-2.390713617205619812e-02,1.994529180228710175e-02,1.373372506350278854e-03,-4.312318749725818634e-03,-5.437275976873934269e-04,2.045017667114734650e-02,-1.621708460152149200e-02,-1.119668409228324890e-02,2.485603652894496918e-02,3.260084614157676697e-02,1.401641219854354858e-02,-1.075596213340759277e-01,1.353938877582550049e-02,-1.962783001363277435e-02,3.391834348440170288e-02,-1.810417473316192627e-01,-1.670680195093154907e-02,1.026461366564035416e-02,3.754796087741851807e-02,2.100538834929466248e-02,-1.499438565224409103e-02,-7.323370128870010376e-02,-4.692288488149642944e-02,1.362601481378078461e-02,1.933585968799889088e-03,-3.887828439474105835e-02,2.267494983971118927e-02,-3.696819394826889038e-02,-6.463352125138044357e-03,4.205531999468803406e-02,-1.626424863934516907e-02,1.212787851691246033e-01,8.183606900274753571e-03,-5.069501698017120361e-03,1.580616086721420288e-02,-2.073980867862701416e-02,-7.613624911755323410e-03,6.846112199127674103e-03,-1.250598300248384476e-02,-5.509361624717712402e-02,-2.220185846090316772e-02,-6.267560273408889771e-02,1.772840693593025208e-02,3.144633397459983826e-02,-1.393976155668497086e-02,-1.368182431906461716e-02,-2.698663249611854553e-02,3.783697728067636490e-03,-2.215934172272682190e-02,-4.488544911146163940e-02,1.454187370836734772e-02,4.804652184247970581e-03,-4.404740035533905029e-02,-3.882676064968109131e-01,4.474550858139991760e-02,3.616447746753692627e-02,1.171915009617805481e-01
-3.469500690698623657e-02,-2.960547804832458496e-02,-4.320357367396354675e-02,1.919688656926155090e-02,4.347342252731323242e-02,-1.861825585365295410e-03,-1.527552213519811630e-02,1.064186170697212219e-02,3.530834987759590149e-02,1.158077865839004517e-01,2.183173596858978271e-02,2.218651957809925079e-02,-1.341250631958246231e-02,-8.339849114418029785e-02,-2.165957987308502197e-01,9.173468686640262604e-03,6.625880487263202667e-03,-1.227505505084991455e-01,-3.375402837991714478e-02,-3.029842488467693329e-02,-3.043723292648792267e-02,-1.448638737201690674e-02,3.172103688120841980e-02,2.790763275697827339e-03,2.971160598099231720e-02,-2.374395495280623436e-03,3.883633390069007874e-02,-5.499887280166149139e-03,3.291808813810348511e-02,2.933262288570404053e-02,1.541975140571594238e-02,-1.880893297493457794e-02,-7.428668439388275146e-03,-4.747831076383590698e-02,6.907839328050613403e-02,-1.008270774036645889e-02,1.266314741224050522e-02,2.888243086636066437e-02,-1.765803806483745575e-02,-1.698444597423076630e-02,-3.837264375761151314e-03,-1.280422229319810867e-02,-4.993070033378899097e-04,-6.012417376041412354e-03,-1.242614910006523132e-02,-2.042674645781517029e-02,-2.893884666264057159e-02,-6.433452479541301727e-03,3.323254734277725220e-02,1.080490276217460632e-02,-6.933361291885375977e-02,-3.849247470498085022e-02,3.710604971274733543e-03,4.158288612961769104e-02,5.776900332421064377e-03,1.992620760574936867e-03,-9.271506220102310181e-03,-1.017436757683753967e-02,-1.165432017296552658e-02,2.938135899603366852e-02,1.976897194981575012e-02,-1.970058307051658630e-02,-2.292571216821670532e-02,-2.413283102214336395e-02,1.066581681370735168e-01,-1.437330991029739380e-02,1.893299259245395660e-02,-1.007777918130159378e-02,1.615929901599884033e-01,5.877886433154344559e-03,1.888233819045126438e-03,-3.066989779472351074e-02,-2.935026213526725769e-02,1.966941356658935547e-02,7.113562524318695068e-02,-1.059930189512670040e-03,-1.150989346206188202e-02,4.014162346720695496e-03,4.756328463554382324e-02,-2.678355388343334198e-02,5.981560423970222473e-02,1.525489240884780884e-02,-3.737793117761611938e-02,1.544422842562198639e-02,-1.244583874940872192e-01,-1.473969966173171997e-02,9.348324500024318695e-03,-2.221261523663997650e-02,1.442924886941909790e-02,1.298844069242477417e-02,2.424285188317298889e-02,1.184057258069515228e-02,7.364495843648910522e-02,2.063958207145333290e-03,5.040852818638086319e-03,-8.332846686244010925e-03,-4.352488368749618530e-02,2.374828420579433441e-02,1.462233625352382660e-02,5.046211183071136475e-03,1.907270774245262146e-02,-8.187164552509784698e-03,3.528098016977310181e-02,9.255632758140563965e-03,2.053314074873924255e-02,2.301642298698425293e-02,3.417695164680480957e-01,-7.016947120428085327e-02,-7.361257076263427734e-02,-6.993855535984039307e-02
-4.316888377070426941e-02,-5.577409174293279648e-03,2.209795080125331879e-02,1.583340205252170563e-02,1.747016049921512604e-02,-1.571164838969707489e-02,-3.122660797089338303e-03,2.681063255295157433e-03,3.890723222866654396e-03,-4.032580927014350891e-02,1.613775617443025112e-03,5.137820728123188019e-03,-1.726116170175373554e-03,4.005239903926849365e-02,1.393656879663467407e-01,2.100035315379500389e-03,-1.106706331484019756e-03,2.548031881451606750e-02,5.170217249542474747e-03,-5.400427151471376419e-03,-7.881247438490390778e-03,-8.313890546560287476e-03,8.554860018193721771e-03,-1.432101987302303314e-02,-7.416994310915470123e-03,-1.322290953248739243e-02,-7.141428440809249878e-02,-1.871241023764014244e-03,-8.330086246132850647e-03,2.229802682995796204e-02,7.869372144341468811e-03,-4.102302715182304382e-03,2.061965316534042358e-02,-1.542674843221902847e-02,-2.567213028669357300e-03,-2.267393283545970917e-02,-2.643736265599727631e-02,8.009928278625011444e-03,-6.649526767432689667e-03,-1.191879156976938248e-02,1.279997266829013824e-02,3.525209799408912659e-02,1.696967333555221558e-02,-5.138310370966792107e-04,-1.986403483897447586e-03,5.289166001603007317e-04,6.377960089594125748e-03,3.634932637214660645e-02,1.612295769155025482e-02,4.524752032011747360e-03,9.153348952531814575e-02,-1.337034045718610287e-03,1.822621747851371765e-02,1.926603913307189941e-02,8.929407224059104919e-03,2.141804667189717293e-03,-1.582501456141471863e-02,-1.545186340808868408e-02,-9.338470175862312317e-03,-2.530275471508502960e-02,6.064788438379764557e-03,1.861820183694362640e-02,-1.097335573285818100e-02,3.160468861460685730e-02,-9.979592869058251381e-04,-4.049060121178627014e-02,7.827072404325008392e-03,2.001844346523284912e-02,-3.671828657388687134e-02,-3.737951628863811493e-03,-2.077083918265998363e-04,-6.070482078939676285e-03,3.938050568103790283e-02,5.699235480278730392e-03,8.159526623785495758e-03,-1.459483522921800613e-02,-1.075953361578285694e-03,2.273517660796642303e-03,2.427675947546958923e-02,-2.308589639142155647e-03,3.334367647767066956e-02,-8.792121079750359058e-04,8.637002669274806976e-03,-1.192879956215620041e-02,6.515392661094665527e-02,-6.951961549930274487e-04,-4.375740885734558105e-03,7.255771663039922714e-03,1.594896614551544189e-02,4.057222511619329453e-03,1.686439290642738342e-02,5.236123129725456238e-02,-3.063971363008022308e-02,1.062772981822490692e-02,1.323742568492889404e-01,1.625114306807518005e-02,-4.058369901031255722e-03,7.291495334357023239e-03,4.543727263808250427e-03,4.407939314842224121e-02,-1.331791048869490623e-03,-2.155205234885215759e-02,7.227294147014617920e-03,8.543659932911396027e-04,-2.336027100682258606e-02,-3.562723472714424133e-02,-4.173571988940238953e-02,2.468875423073768616e-02,-3.377729095518589020e-03,3.793518617749214172e-02
1.004636287689208984e-02,4.681689199060201645e-03,-6.697910837829113007e-03,-1.240963349118828773e-03,-2.129253232851624489e-03,1.918994355946779251e-03,-1.298626302741467953e-03,-7.136491592973470688e-03,2.676815353333950043e-02,1.978570362553000450e-03,-6.183059886097908020e-03,-3.735193749889731407e-03,5.528523121029138565e-03,-2.431571856141090393e-02,-1.617544144392013550e-01,-2.512311330065131187e-03,6.831222679466009140e-03,-1.433747820556163788e-02,7.606155239045619965e-03,-2.821459202095866203e-04,1.774165034294128418e-02,1.766364090144634247e-02,-1.493473164737224579e-02,5.697925575077533722e-03,-1.465271506458520889e-02,2.548224851489067078e-02,6.732102483510971069e-02,-7.029874250292778015e-03,-7.545882370322942734e-03,-2.684676647186279297e-02,-9.516186080873012543e-03,8.391590788960456848e-03,-1.943941041827201843e-02,1.423217914998531342e-02,7.393420208245515823e-03,7.459926884621381760e-03,7.734942249953746796e-03,-1.940402667969465256e-03,4.912810400128364563e-03,2.985121449455618858e-03,-5.902242846786975861e-03,-2.798150666058063507e-02,9.043951518833637238e-03,1.403591316193342209e-02,6.354646757245063782e-03,-1.008476596325635910e-02,-1.313213165849447250e-02,-3.174426034092903137e-02,-6.717780232429504395e-02,-3.742298809811472893e-03,-1.034912839531898499e-01,-1.395754748955368996e-03,9.867213666439056396e-03,-1.446093898266553879e-02,-3.087605815380811691e-03,-7.004341110587120056e-03,4.185415804386138916e-03,6.427480839192867279e-03,8.502400480210781097e-03,-2.067654579877853394e-02,-4.240856971591711044e-03,2.615106059238314629e-03,5.655107088387012482e-03,-1.290342397987842560e-02,-7.502993568778038025e-03,9.739974513649940491e-03,-1.686806045472621918e-02,-3.672771155834197998e-03,6.648901849985122681e-02,-1.308352593332529068e-02,-2.444204408675432205e-03,-2.303849672898650169e-03,1.234037056565284729e-02,-5.161227658390998840e-03,-1.064846012741327286e-02,1.345776952803134918e-02,-3.148595569655299187e-03,3.917488269507884979e-03,-1.059427019208669662e-02,9.186206385493278503e-03,1.872351765632629395e-02,-5.198882427066564560e-03,-1.205587200820446014e-02,-1.468862779438495636e-02,-7.905569672584533691e-02,-4.461226984858512878e-03,-1.459891442209482193e-02,1.750624738633632660e-02,-2.787206787616014481e-03,-5.505800712853670120e-03,-2.716277539730072021e-02,-2.782590128481388092e-02,3.517466038465499878e-02,-3.690064325928688049e-02,-9.206166863441467285e-02,1.945426128804683685e-02,-1.522830780595541000e-02,-9.012864902615547180e-03,-7.243126165121793747e-03,5.240259226411581039e-03,1.119630504399538040e-02,1.667382381856441498e-02,1.510176248848438263e-02,-2.985834144055843353e-03,2.263257512822747231e-03,3.493824973702430725e-02,4.348937049508094788e-02,4.742659628391265869e-03,4.313244950026273727e-03,-7.682282011955976486e-03
-7.253590039908885956e-03,1.185624394565820694e-02,3.869348904117941856e-03,1.160396542400121689e-02,-1.200482901185750961e-02,-1.522690337151288986e-02,-2.117969328537583351e-03,1.323383185081183910e-03,1.242749509401619434e-03,1.369613222777843475e-02,-3.882895922288298607e-03,-7.390410639345645905e-03,-3.262102976441383362e-02,1.665792195126414299e-03,2.911105193197727203e-02,-2.765956800431013107e-03,-1.114169042557477951e-02,-1.639544032514095306e-02,-3.413672372698783875e-02,-2.803822234272956848e-02,-5.695023387670516968e-02,-5.334980320185422897e-03,-1.063895644620060921e-03,-2.202211320400238037e-02,-3.225285559892654419e-02,-5.492903757840394974e-03,-3.484409302473068237e-02,-8.627698407508432865e-04,2.180146798491477966e-02,-6.721093505620956421e-02,3.650623932480812073e-02,3.046176629140973091e-03,-2.166380360722541809e-02,-4.645803570747375488e-02,-1.785836555063724518e-02,-9.446217678487300873e-03,-9.422842413187026978e-03,2.725753234699368477e-03,-7.465497124940156937e-03,7.358510978519916534e-03,-9.730411693453788757e-03,1.369054149836301804e-02,4.416360706090927124e-02,1.026552869006991386e-03,8.368513954337686300e-05,-2.636421471834182739e-03,6.004252936691045761e-03,-3.945893608033657074e-03,2.842507697641849518e-02,-2.412096364423632622e-03,6.019977107644081116e-02,-2.081698272377252579e-03,-1.083855796605348587e-02,-6.965722423046827316e-03,9.016998112201690674e-03,2.121300203725695610e-03,-9.282026439905166626e-03,-1.123774517327547073e-02,-2.701076213270425797e-03,-1.120032649487257004e-02,-2.984564518555998802e-03,-5.698455870151519775e-02,1.647034077905118465e-03,-2.049172297120094299e-03,-2.680856175720691681e-02,-3.321825340390205383e-02,2.539121173322200775e-02,5.060696974396705627e-03,-2.826378121972084045e-02,-5.414590705186128616e-04,3.300988115370273590e-03,2.208893187344074249e-02,5.585868656635284424e-02,3.990388941019773483e-04,2.914894185960292816e-02,2.323028817772865295e-02,-2.518022898584604263e-03,7.953708060085773468e-03,-4.759363364428281784e-03,-1.744300709106028080e-03,1.797683304175734520e-03,-7.791292853653430939e-03,-1.557980943471193314e-02,2.675971947610378265e-02,4.305149242281913757e-02,-9.964987635612487793e-03,3.134004026651382446e-02,1.277264207601547241e-02,4.183622077107429504e-03,1.791597605915740132e-04,-5.392503459006547928e-03,-2.063857391476631165e-02,-4.435342736542224884e-03,1.533964276313781738e-02,2.145752124488353729e-02,-2.845246903598308563e-02,-1.340687647461891174e-02,1.913850661367177963e-03,-1.285237143747508526e-03,5.256763659417629242e-03,1.505902782082557678e-02,-1.854836195707321167e-02,1.860007457435131073e-02,-1.607553660869598389e-02,5.634045810438692570e-04,-1.581842079758644104e-02,-2.141057886183261871e-02,-5.329761281609535217e-02,1.165260281413793564e-02,6.008653715252876282e-02
1.053804182447493076e-03,9.636679664254188538e-03,1.985200308263301849e-02,5.523658357560634613e-03,-9.122298797592520714e-04,1.026222202926874161e-02,-1.051342207938432693e-02,1.103597134351730347e-02,-4.825311712920665741e-03,-2.570572867989540100e-02,2.558588748797774315e-03,2.922959392890334129e-03,2.980906749144196510e-03,5.683785304427146912e-03,-6.384853273630142212e-02,5.011441651731729507e-03,1.032420434057712555e-02,1.903645507991313934e-02,4.606027528643608093e-02,-5.059567838907241821e-02,1.626941934227943420e-02,-1.224109809845685959e-02,3.281313553452491760e-02,1.201723888516426086e-02,1.276424713432788849e-02,-9.946501813828945160e-03,4.116516932845115662e-02,-9.868793189525604248e-03,1.978588290512561798e-02,4.192488640546798706e-02,-2.909165434539318085e-02,-1.304398989304900169e-03,1.262151869013905525e-03,4.497570917010307312e-02,-2.533455379307270050e-02,-1.184088271111249924e-02,-3.582509933039546013e-03,-1.865616254508495331e-02,-2.799264388158917427e-03,-1.576744951307773590e-03,-7.992863538675010204e-04,2.152980677783489227e-02,2.664640359580516815e-02,4.140079021453857422e-02,1.139299012720584869e-02,-7.147435680963099003e-04,2.944388426840305328e-02,3.713660314679145813e-02,-2.963974140584468842e-02,8.094173972494900227e-04,-1.848098635673522949e-02,-3.050332888960838318e-04,1.266558375209569931e-02,-5.170074291527271271e-03,1.695304177701473236e-02,9.329300373792648315e-03,-3.190617263317108154e-02,-1.554094348102807999e-02,-1.234641950577497482e-02,1.723243296146392822e-02,4.822980612516403198e-03,2.127949520945549011e-02,-9.216622449457645416e-03,7.593363989144563675e-03,-1.170220505446195602e-02,1.128885801881551743e-02,7.969129830598831177e-03,1.513161510229110718e-02,-1.229570712894201279e-02,7.620111573487520218e-03,6.256924010813236237e-03,-3.510811552405357361e-02,2.770226076245307922e-02,5.049569997936487198e-03,-1.925072283484041691e-03,-6.490775849670171738e-03,-7.488345261663198471e-03,4.795804154127836227e-03,2.734281308948993683e-02,-1.001563388854265213e-02,4.142315685749053955e-02,3.771965857595205307e-04,-2.962139062583446503e-02,-1.763141155242919922e-02,-2.622969634830951691e-02,1.025914400815963745e-02,-3.252288093790411949e-03,4.004603624343872070e-02,3.540187608450651169e-03,3.967693541198968887e-03,6.436492782086133957e-03,-3.693330101668834686e-03,-2.751260623335838318e-02,9.807879105210304260e-04,4.230681806802749634e-02,-1.918403618037700653e-02,2.383640781044960022e-02,5.547358654439449310e-03,1.643964089453220367e-03,1.431707479059696198e-02,2.357664750888943672e-03,1.063250098377466202e-02,-8.295298554003238678e-03,8.254913613200187683e-03,3.747077658772468567e-02,7.370501291006803513e-03,-1.745497621595859528e-02,5.347790196537971497e-02,-7.993297651410102844e-03,9.668852388858795166e-02
-1.465525012463331223e-02,2.257190179079771042e-03,-8.081703446805477142e-03,6.863530725240707397e-03,1.228501833975315094e-02,1.801823452115058899e-02,-3.775996621698141098e-03,6.707136519253253937e-03,3.368937224149703979e-02,1.614683680236339569e-02,1.031824038363993168e-03,-4.895889200270175934e-03,1.739988848567008972e-02,-2.559482678771018982e-02,-6.203531473875045776e-02,5.490786395967006683e-03,4.665271379053592682e-03,4.598759114742279053e-03,3.006666433066129684e-03,-2.417783252894878387e-02,-3.630697901826351881e-04,-1.901171356439590454e-02,2.829047385603189468e-03,-1.271814666688442230e-02,6.512680556625127792e-03,1.868614926934242249e-02,1.078520063310861588e-02,-1.046583522111177444e-03,-1.827934756875038147e-03,-2.735258452594280243e-02,-1.378938090056180954e-02,-3.428929485380649567e-03,1.624169200658798218e-02,-5.003067664802074432e-03,2.170959301292896271e-02,-1.142514124512672424e-02,-1.099881902337074280e-02,2.511746995151042938e-02,-8.646434172987937927e-03,-1.852227188646793365e-02,-1.506881788372993469e-02,2.848843671381473541e-02,1.414404623210430145e-02,2.671911614015698433e-03,3.537718206644058228e-03,-1.108739525079727173e-02,-4.780848510563373566e-03,1.079899631440639496e-02,1.515407767146825790e-02,4.320793319493532181e-03,-3.629427030682563782e-02,3.199563827365636826e-03,-9.026003070175647736e-03,-2.282219938933849335e-03,-1.274550892412662506e-02,-1.876738481223583221e-02,3.263546852394938469e-03,-8.502347627654671669e-04,-3.978071268647909164e-03,-7.822241634130477905e-03,6.245818454772233963e-03,-2.092791721224784851e-02,5.293840658850967884e-04,-2.329442463815212250e-02,-2.189434878528118134e-02,-3.332471940666437149e-03,2.258200943470001221e-02,2.010827511548995972e-02,1.574924215674400330e-02,4.581860732287168503e-03,5.445219576358795166e-04,-2.649663388729095459e-02,3.117241524159908295e-02,2.102427650243043900e-03,2.845028229057788849e-02,-1.588658429682254791e-02,-3.251120680943131447e-03,-1.100111170671880245e-03,3.017243696376681328e-03,-9.656750597059726715e-03,1.541421189904212952e-02,2.076357603073120117e-03,3.900682553648948669e-02,-2.498482726514339447e-02,-2.063059248030185699e-02,2.695046365261077881e-03,1.638902351260185242e-02,6.012993678450584412e-02,6.133726797997951508e-03,2.975047798827290535e-03,7.188247516751289368e-03,2.269408851861953735e-02,1.131431013345718384e-02,-4.444122686982154846e-02,2.170929498970508575e-02,3.419410064816474915e-02,3.753855079412460327e-02,1.694372738711535931e-03,4.651923663914203644e-03,3.162942454218864441e-02,3.864018246531486511e-02,-3.237174078822135925e-02,2.267423458397388458e-02,1.477509457617998123e-02,8.435859344899654388e-03,-1.891754940152168274e-02,-5.687901284545660019e-04,-2.896091900765895844e-02,-1.534258853644132614e-02,2.110435441136360168e-02
-1.718390919268131256e-02,3.635885426774621010e-03,5.969682708382606506e-03,1.295799016952514648e-02,1.344456430524587631e-02,2.523329854011535645e-02,-1.209883112460374832e-02,1.531531102955341339e-02,2.746588177978992462e-02,2.156760543584823608e-02,1.055662333965301514e-02,8.457905612885951996e-03,-2.546098828315734863e-02,2.876509726047515869e-02,-1.833312027156352997e-02,1.651391014456748962e-02,1.781759224832057953e-02,2.582111582159996033e-02,9.422170929610729218e-03,-1.195021998137235641e-02,3.997586295008659363e-02,9.403900243341922760e-03,2.331990934908390045e-02,1.159717887639999390e-02,-1.130706537514925003e-02,-5.944992881268262863e-03,-3.956941887736320496e-02,-4.175174515694379807e-03,1.702449657022953033e-02,2.715620025992393494e-02,1.542610209435224533e-02,-1.535538211464881897e-02,-5.466515198349952698e-02,1.166119612753391266e-02,1.359248626977205276e-02,-5.113635677844285965e-03,-4.065638780593872070e-02,4.296207043807953596e-04,1.493538357317447662e-02,1.098334789276123047e-02,1.136676780879497528e-02,1.780906319618225098e-02,4.463174566626548767e-02,3.448737785220146179e-02,1.619684975594282150e-03,-1.303521450608968735e-02,-2.221893751993775368e-03,-4.136183299124240875e-03,-2.373502403497695923e-02,1.691504195332527161e-02,3.344413638114929199e-02,2.933619730174541473e-02,3.182790055871009827e-02,5.404016934335231781e-03,2.207297220593318343e-04,3.181700035929679871e-02,-3.916202858090400696e-02,-7.950079627335071564e-03,-3.221314866095781326e-03,-4.324349761009216309e-02,-1.598393893800675869e-03,-6.811859202571213245e-04,-6.212393753230571747e-03,-1.095495838671922684e-02,3.332846239209175110e-02,-5.864398181438446045e-02,5.673640407621860504e-03,5.565052852034568787e-03,1.837027072906494141e-02,-3.164235095027834177e-04,-5.518827121704816818e-03,-1.463448069989681244e-02,5.176911130547523499e-02,1.387572288513183594e-02,1.182077080011367798e-02,1.529372110962867737e-02,-8.027007803320884705e-03,3.343726973980665207e-03,1.109842769801616669e-02,-4.036161117255687714e-03,9.965769015252590179e-03,-1.758354366756975651e-03,-2.374437171965837479e-03,1.846417598426342010e-02,3.031108714640140533e-02,-1.219937205314636230e-02,1.668756641447544098e-02,2.426175959408283234e-02,-3.513309638947248459e-04,1.367060188204050064e-02,3.432090207934379578e-02,1.476397505030035973e-03,-1.801132597029209137e-02,-3.614867851138114929e-02,2.670232020318508148e-02,-8.296914398670196533e-03,-4.432773590087890625e-02,-1.230903726536780596e-04,1.700432412326335907e-02,6.034945603460073471e-03,1.292006112635135651e-03,-2.235143631696701050e-02,1.458123297197744250e-04,1.133356615900993347e-02,-1.701855473220348358e-02,-1.477203052490949631e-02,1.572800613939762115e-02,4.897186905145645142e-02,-2.688855491578578949e-02,4.760020971298217773e-02
4.731517750769853592e-03,1.006169430911540985e-02,6.165938451886177063e-03,-5.648873746395111084e-03,9.769971482455730438e-03,-1.733236014842987061e-02,-1.608396414667367935e-03,-4.157033283263444901e-03,1.566163264214992523e-02,-2.192701213061809540e-02,-1.062301266938447952e-02,-1.490229554474353790e-02,-1.008952781558036804e-02,-2.562548033893108368e-02,-5.073465406894683838e-02,-5.921907257288694382e-03,-6.662667728960514069e-03,-1.434343401342630386e-03,1.872992888092994690e-02,-7.770502008497714996e-03,-3.652494773268699646e-02,-9.866124950349330902e-03,-5.823261570185422897e-03,-2.569818496704101562e-02,-1.969624683260917664e-02,-1.029488723725080490e-02,5.925413221120834351e-03,3.652882587630301714e-04,4.959262907505035400e-02,-3.244635835289955139e-02,6.010251585394144058e-03,8.301425725221633911e-03,2.542171999812126160e-02,9.265033528208732605e-03,-2.079475484788417816e-02,3.964839503169059753e-03,-1.122635207138955593e-03,1.640917325858026743e-04,2.903219428844749928e-04,-6.991290487349033356e-03,-2.541841240599751472e-03,1.088338904082775116e-02,3.382287546992301941e-02,1.586119458079338074e-02,7.223111111670732498e-03,2.220515161752700806e-03,-7.403842755593359470e-04,-1.610568724572658539e-02,-2.891703508794307709e-03,-7.655951194465160370e-03,-2.108509838581085205e-02,-1.065965089946985245e-02,-2.807536162436008453e-02,-2.818283066153526306e-02,1.379529759287834167e-02,-7.872875779867172241e-03,-2.532972767949104309e-02,5.395421292632818222e-03,-5.003452301025390625e-03,2.380291745066642761e-02,-7.262364379130303860e-04,-2.829092368483543396e-02,5.803056992590427399e-03,-1.458065491169691086e-02,-3.313587605953216553e-02,1.883039623498916626e-02,1.841599121689796448e-02,-1.914589852094650269e-02,-3.337293118238449097e-02,8.147774497047066689e-04,1.793186675058677793e-04,-1.094468496739864349e-02,1.326385699212551117e-02,-1.066656969487667084e-02,4.171176813542842865e-03,-1.584999263286590576e-02,1.563942292705178261e-03,1.672587939538061619e-03,-1.523210480809211731e-02,8.785078302025794983e-03,5.832798779010772705e-02,-8.072497323155403137e-03,-4.486104100942611694e-02,1.430044136941432953e-02,1.508791930973529816e-02,8.336606435477733612e-03,2.207390964031219482e-02,4.181881085969507694e-04,1.592616783455014229e-03,-1.263577677309513092e-02,-3.908295929431915283e-02,-3.250867128372192383e-02,3.541165031492710114e-03,2.494415827095508575e-02,8.240153081715106964e-03,1.292586792260408401e-02,-1.050447858870029449e-02,-4.004678688943386078e-03,-7.816390134394168854e-03,-1.583298482000827789e-02,8.543392643332481384e-03,-2.354639116674661636e-03,-1.803044811822474003e-03,-2.405855804681777954e-03,1.492790691554546356e-02,4.517028573900461197e-03,-4.260209947824478149e-02,-3.158712014555931091e-02,-1.068822667002677917e-02,1.683311723172664642e-02
1.127826329320669174e-02,3.180377930402755737e-02,-1.319359708577394485e-02,-1.796592213213443756e-02,-2.898886986076831818e-02,2.308665215969085693e-02,-6.239486858248710632e-03,1.413001155015081167e-04,-4.400505218654870987e-03,2.382701635360717773e-02,-2.355075906962156296e-03,3.811858594417572021e-03,3.293675556778907776e-02,-2.112503163516521454e-02,4.800608009099960327e-02,-8.071283809840679169e-03,-1.227708440274000168e-02,-2.195254340767860413e-02,-1.748437993228435516e-02,2.049877494573593140e-02,3.727943450212478638e-02,-4.002203699201345444e-03,-2.602315694093704224e-02,4.584659263491630554e-02,4.517956078052520752e-02,-1.469857525080442429e-02,2.336773090064525604e-02,-7.068879902362823486e-03,2.799008600413799286e-02,-2.697634324431419373e-02,-1.291764434427022934e-02,7.021841127425432205e-03,3.001059591770172119e-02,-4.490103200078010559e-02,4.058791697025299072e-02,-8.126088418066501617e-03,2.950514294207096100e-02,-1.579209603369235992e-02,-7.680223789066076279e-03,3.101503942161798477e-03,1.634128019213676453e-02,-3.791206330060958862e-02,-1.927084662020206451e-02,-5.431978404521942139e-02,1.423032837919890881e-03,-1.151633478002622724e-04,4.709640890359878540e-02,5.200027488172054291e-03,-2.767236344516277313e-02,-1.118756551295518875e-02,-3.529751207679510117e-03,1.240372774191200733e-03,-2.641332708299160004e-02,-6.414636300178244710e-05,3.443948691710829735e-03,-1.521491538733243942e-02,1.555733010172843933e-02,1.295938063412904739e-02,-4.729708656668663025e-03,-2.986258594319224358e-03,1.614365610294044018e-03,-1.896853186190128326e-02,2.392917172983288765e-03,4.836966283619403839e-03,1.356113702058792114e-03,-2.030853927135467529e-02,4.046549554914236069e-03,-3.821366233751177788e-03,-1.252712681889533997e-02,9.866161271929740906e-04,9.119037538766860962e-03,9.697008499642834067e-05,-3.727189823985099792e-02,-5.239270161837339401e-03,2.716307714581489563e-02,-1.040872465819120407e-02,-7.301707752048969269e-03,5.790655501186847687e-03,-1.480820402503013611e-02,6.437234114855527878e-03,-4.816133156418800354e-02,-2.011776668950915337e-03,1.281090197153389454e-03,1.646146364510059357e-02,-3.274030983448028564e-02,-9.527674992568790913e-04,1.517819240689277649e-02,-2.367486059665679932e-02,4.217691719532012939e-03,-7.067439612001180649e-03,-1.259557064622640610e-02,2.589440532028675079e-02,-4.250808618962764740e-03,-1.793956384062767029e-02,-4.278289899230003357e-02,2.403704449534416199e-02,1.101220399141311646e-02,4.474232555367052555e-04,-8.184504695236682892e-03,1.700806990265846252e-02,-7.974061183631420135e-03,-2.128834137693047523e-03,1.353444997221231461e-02,6.822390947490930557e-03,-2.672416856512427330e-03,7.193990051746368408e-03,3.530909493565559387e-02,-1.216815877705812454e-02,1.836684998124837875e-03,-7.668928802013397217e-02
