1.255630515515804291e-02,-3.796197474002838135e-02,-2.539640478789806366e-02,6.530134379863739014e-02,-6.575056351721286774e-03,-4.953186959028244019e-02,-4.510708525776863098e-02,1.445526629686355591e-02,-3.250743821263313293e-02,9.642537683248519897e-03,6.686114240437746048e-03,8.791503496468067169e-03,-3.468440473079681396e-02,8.922374807298183441e-03,2.523533999919891357e-02,-3.421243652701377869e-02,-1.250487938523292542e-02,-3.700040653347969055e-02,-8.817388676106929779e-03,-2.822168357670307159e-02,-1.775049045681953430e-02,-1.428396534174680710e-02,5.017009750008583069e-02,5.286007747054100037e-02,-2.410750649869441986e-02,7.478413637727499008e-03,2.285698894411325455e-03,-5.594714893959462643e-04,-2.251170389354228973e-02,-5.520604178309440613e-02,-6.713619455695152283e-03,3.155654761940240860e-03,5.226191715337336063e-04,-1.309593301266431808e-02,7.379281520843505859e-02,-8.619615808129310608e-03,-2.102716825902462006e-02,2.495782636106014252e-02,4.803387075662612915e-02,-1.493325456976890564e-02,-4.389177542179822922e-03,-9.173749946057796478e-03,2.415439346805214882e-03,8.758843876421451569e-03,-1.759487390518188477e-02,-4.890051111578941345e-02,2.589248493313789368e-02,-4.329072684049606323e-02,5.153515934944152832e-02,8.102023974061012268e-03,6.583057343959808350e-02,-6.419466435909271240e-02,-1.144423522055149078e-02,-9.718307293951511383e-03,3.180301189422607422e-02,-4.490984976291656494e-02,1.886681839823722839e-02,1.909511163830757141e-02,1.432148180902004242e-02,-1.444325968623161316e-02,9.059233218431472778e-02,3.664569929242134094e-02,-2.023849263787269592e-02,-2.271008444949984550e-03,-2.365219406783580780e-02,-5.818497762084007263e-02,3.361560031771659851e-02,7.001239806413650513e-02,-1.825154386460781097e-02,-1.351862121373414993e-02,-2.201205119490623474e-02,3.783707693219184875e-02,3.385343402624130249e-02,-9.894833900034427643e-03,-3.020592965185642242e-03,-6.094577722251415253e-03,-2.068491280078887939e-02,-4.449003189802169800e-02,2.525399811565876007e-02,-2.526670135557651520e-02,-1.073866803199052811e-02,-2.426725067198276520e-02,5.568132735788822174e-03,1.546214893460273743e-02,-1.972461864352226257e-02,3.153450787067413330e-02,-3.135742619633674622e-02,3.921682760119438171e-02,8.537233807146549225e-03,5.922915879637002945e-03,-6.238666549324989319e-02,1.583668217062950134e-02,-2.620758675038814545e-02,4.399111494421958923e-02,3.427140181884169579e-04,-8.210677653551101685e-03,-4.391512367874383926e-03,-8.106744644464924932e-06,-2.072883397340774536e-02,-2.701782807707786560e-02,5.801547691226005554e-02,-3.874830529093742371e-02,-4.333060234785079956e-03,-7.351147383451461792e-02,-5.290829576551914215e-03,-2.715325914323329926e-02,2.709532342851161957e-02,1.060375384986400604e-02,3.938281163573265076e-02,5.912744626402854919e-02,-2.465552464127540588e-02,3.351981192827224731e-02,-4.796391353011131287e-03,1.216563163325190544e-03,2.306008897721767426e-02,-1.525295246392488480e-02,2.386187203228473663e-02,2.661310695111751556e-02,2.822068519890308380e-02,1.548425853252410889e-02,3.331663459539413452e-02,1.014001108705997467e-02,-2.953564561903476715e-02,1.065993122756481171e-02,2.316128835082054138e-02,7.008715532720088959e-03,-1.765212509781122208e-03,2.281993813812732697e-02,1.030750758945941925e-02,-2.463950775563716888e-03,9.429445490241050720e-04,-2.292764000594615936e-02,8.305779658257961273e-03,-2.622138336300849915e-02,4.307100176811218262e-02,3.524151630699634552e-03,3.437705710530281067e-02,-3.459995239973068237e-02,-2.390237525105476379e-02,-5.170360673218965530e-03,2.179464139044284821e-02,-1.987879164516925812e-02,-8.468816056847572327e-03,2.265895903110504150e-02,3.702193498611450195e-02,-6.493086367845535278e-02,-7.060185819864273071e-02,5.293886363506317139e-02,6.630752980709075928e-02,-5.894763767719268799e-02,1.751902699470520020e-02,2.462117373943328857e-02,-6.749160122126340866e-03,7.349465042352676392e-02,-1.944575831294059753e-02,-1.926458999514579773e-02,-1.145683322101831436e-02,4.525959957391023636e-03,-3.528670221567153931e-02,-2.291230857372283936e-02,-6.800429895520210266e-03,2.719012461602687836e-02,2.292976900935173035e-02,4.673956573242321610e-05,9.926701895892620087e-03,1.532060839235782623e-02,-1.636455021798610687e-02,-2.828342840075492859e-02,4.280528798699378967e-02,-3.431760519742965698e-02,-4.890651628375053406e-02,1.601842045783996582e-02,1.338904444128274918e-02,-8.299794979393482208e-03,-1.970201171934604645e-02,2.151152491569519043e-02,5.149459466338157654e-02,2.112470008432865143e-02,-8.984632790088653564e-03,-6.551238149404525757e-02,1.081221178174018860e-02,2.169374749064445496e-02,-3.793702274560928345e-02,-7.886702194809913635e-03,3.046486526727676392e-02,-4.673062637448310852e-02,-1.047830581665039062e-01,-1.920437323860824108e-03,2.509057288989424706e-03,-9.862701408565044403e-03,-5.214573070406913757e-02,-1.910642161965370178e-02,4.832058772444725037e-02,-2.386267151450738311e-04,1.230445876717567444e-02,-4.176052659749984741e-02,-3.092681290581822395e-03,3.537448868155479431e-02,-1.587906968779861927e-03,3.320016339421272278e-02,4.669815301895141602e-02,-2.871898747980594635e-02,-4.286075010895729065e-02,3.593986108899116516e-02,-3.430943191051483154e-02,-1.786404289305210114e-02,-1.648263074457645416e-02,2.239618077874183655e-02,-1.728763990104198456e-02,-2.193687297403812408e-02,-7.649122178554534912e-02,1.075330227613449097e-01,-1.180753856897354126e-02,3.899312764406204224e-02,-1.818782533518970013e-03,-3.373810648918151855e-02,-7.268218789249658585e-03,-9.424839168787002563e-02,-2.969869598746299744e-02,2.896878868341445923e-02,-5.942925810813903809e-03,-1.895782537758350372e-02,-4.216250963509082794e-03,-1.081817827071063221e-04,-2.113576792180538177e-02,2.839543856680393219e-02,-2.327403426170349121e-02,-4.862900078296661377e-02,-7.251492701470851898e-03,-1.103446446359157562e-02,-2.136793173849582672e-02,1.058721989393234253e-01,-4.768100380897521973e-02,1.998605579137802124e-02,4.424565657973289490e-02,1.472985744476318359e-02,-3.910082578659057617e-02,1.979436539113521576e-02,4.139088094234466553e-02,-8.633287623524665833e-03,5.908569321036338806e-02,-4.648238047957420349e-02,2.597515657544136047e-02,2.448670752346515656e-02,4.620586521923542023e-03,2.815192099660634995e-03,2.900949493050575256e-02,1.617049798369407654e-02,-2.753396332263946533e-02,-6.954781711101531982e-02,-3.013365902006626129e-02,-6.005433853715658188e-03,-2.019460126757621765e-02,-1.926436088979244232e-02,9.837915748357772827e-02,3.871233761310577393e-02,-4.017808288335800171e-02,-3.381611034274101257e-02,-4.818376526236534119e-02,2.772717550396919250e-02,3.117901273071765900e-03,-3.301830962300300598e-02,2.854212932288646698e-02,3.562768921256065369e-02,-2.042211964726448059e-02,1.410710811614990234e-02,8.139925077557563782e-03,3.777169808745384216e-02,-1.085499022156000137e-02,-6.573591381311416626e-02,-5.474683269858360291e-02,-2.205352298915386200e-03,-1.469197403639554977e-02
3.347699344158172607e-01,4.350964725017547607e-02,5.317641794681549072e-02,-3.711347654461860657e-02,2.638425529003143311e-01,7.722391188144683838e-02,5.940574407577514648e-02,6.554991006851196289e-02,-1.167801022529602051e-02,-9.243790060281753540e-02,-6.100153550505638123e-02,-2.145568095147609711e-02,2.172714658081531525e-02,3.806356398854404688e-04,1.004420220851898193e-01,7.146629691123962402e-02,-3.578563919290900230e-03,-1.615443229675292969e-01,1.466921344399452209e-02,2.333869487047195435e-01,1.694498956203460693e-02,-7.019786536693572998e-02,-4.647591337561607361e-02,-2.696110866963863373e-02,1.840202808380126953e-01,-1.597817242145538330e-01,1.373391449451446533e-01,-2.070188522338867188e-01,4.898981377482414246e-02,1.277425140142440796e-01,1.732845604419708252e-02,7.368766516447067261e-02,-7.133197039365768433e-02,-1.122486684471368790e-02,3.558242926374077797e-03,-4.010524228215217590e-02,-3.605778142809867859e-02,-5.497256666421890259e-02,-6.492579728364944458e-02,3.938195109367370605e-02,-1.127732172608375549e-01,-9.679462015628814697e-02,2.377481609582901001e-01,1.700360029935836792e-01,7.554004341363906860e-02,2.231984585523605347e-02,2.829361520707607269e-02,-5.365457758307456970e-02,-7.487795501947402954e-02,-1.964319497346878052e-02,-5.577176064252853394e-02,-4.952957108616828918e-02,-1.783378273248672485e-01,-6.523852795362472534e-02,-1.236474663019180298e-01,-7.987900823354721069e-02,3.620264679193496704e-02,-4.615900665521621704e-02,1.241740491241216660e-02,1.000219210982322693e-01,-4.864014685153961182e-02,-2.008763998746871948e-01,-1.553992182016372681e-01,8.744446188211441040e-02,-1.862253993749618530e-02,-2.502195909619331360e-02,-6.496864557266235352e-02,-4.253781586885452271e-02,-1.252692192792892456e-01,-4.456275608390569687e-03,-6.885470449924468994e-02,-2.660674415528774261e-02,-9.604950435459613800e-03,-1.176493242383003235e-01,3.463437408208847046e-02,1.073601767420768738e-01,-9.036307781934738159e-02,5.647615343332290649e-02,2.088211178779602051e-01,6.857445091009140015e-02,-8.494061231613159180e-02,9.576315991580486298e-03,-4.066679254174232483e-02,2.092457003891468048e-02,5.470531061291694641e-02,1.172368824481964111e-01,6.731844693422317505e-02,1.046941149979829788e-02,1.184047758579254150e-01,2.222027480602264404e-01,3.190595284104347229e-02,2.384231239557266235e-01,-1.937818340957164764e-02,-6.942949444055557251e-02,-3.701385483145713806e-02,-7.820415496826171875e-02,-2.469907701015472412e-01,1.414703018963336945e-02,-2.415202260017395020e-01,6.649503856897354126e-02,2.623899653553962708e-02,-4.391301795840263367e-02,-1.396296266466379166e-02,-2.453000657260417938e-02,-1.574411690235137939e-01,2.365698292851448059e-02,-1.628115773200988770e-03,2.083975672721862793e-01,-1.045966818928718567e-01,-2.347790822386741638e-02,1.105464063584804535e-02,8.620826900005340576e-02,1.652737855911254883e-01,-4.315957427024841309e-02,-6.660435348749160767e-02,-1.271741837263107300e-01,4.342136532068252563e-02,3.046071343123912811e-02,1.484183520078659058e-01,8.944888412952423096e-02,-1.315838098526000977e-01,-9.364525973796844482e-02,1.504993140697479248e-01,-2.447862364351749420e-02,1.167453452944755554e-01,2.073402702808380127e-02,5.165795981884002686e-02,1.000869497656822205e-01,-1.355384662747383118e-02,-1.010790690779685974e-01,-1.950065791606903076e-02,-8.865692466497421265e-02,3.524728491902351379e-02,-5.761741101741790771e-02,-9.902568906545639038e-02,-1.263228207826614380e-01,1.821459829807281494e-02,1.055002659559249878e-01,-1.482369005680084229e-01,2.245843969285488129e-02,-1.118924170732498169e-01,-5.307204648852348328e-02,-1.361622214317321777e-01,4.239878803491592407e-02,-3.531695902347564697e-02,2.538423053920269012e-02,4.740079492330551147e-02,-7.749172300100326538e-02,-4.723619669675827026e-02,-1.302418261766433716e-01,-7.783128321170806885e-02,-2.045145630836486816e-01,-3.983671963214874268e-02,2.429747767746448517e-02,-5.096611380577087402e-02,-4.080439358949661255e-02,-1.085991738364100456e-03,-4.257925599813461304e-02,3.843323141336441040e-02,9.795562177896499634e-02,-1.290284991264343262e-01,-1.965839043259620667e-02,-3.034964948892593384e-02,9.007290937006473541e-04,-1.617935001850128174e-01,-9.103584289550781250e-02,-3.661858662962913513e-02,3.429037705063819885e-02,-8.691769093275070190e-02,4.419437900651246309e-04,9.760632365942001343e-02,-2.322789467871189117e-02,2.441384494304656982e-01,4.085436463356018066e-02,-1.095542535185813904e-01,2.645127847790718079e-02,3.557440638542175293e-02,-2.198770828545093536e-02,-7.397309690713882446e-02,-7.759521156549453735e-02,1.352158933877944946e-01,-1.309690475463867188e-01,6.048654764890670776e-02,6.478972733020782471e-02,-5.992930755019187927e-02,5.677616223692893982e-02,4.096067324280738831e-02,1.915155500173568726e-01,1.714473217725753784e-01,-5.877359211444854736e-02,-6.682016700506210327e-02,-5.500409379601478577e-02,5.098065361380577087e-02,1.365468930453062057e-02,-6.575404852628707886e-02,2.569388411939144135e-02,4.856112599372863770e-02,-2.892729593440890312e-03,7.240051403641700745e-03,2.858279272913932800e-02,-1.661264002323150635e-01,8.271012455224990845e-02,-4.965309426188468933e-02,1.028557047247886658e-01,1.786231249570846558e-01,-4.729551821947097778e-02,5.494244396686553955e-02,-5.206451937556266785e-02,1.319395657628774643e-02,-8.963426575064659119e-03,9.830074012279510498e-02,2.432936429977416992e-02,-2.895681560039520264e-02,3.833006694912910461e-02,-8.409346640110015869e-02,-9.157437086105346680e-02,3.484668582677841187e-02,-4.023342952132225037e-02,1.319063901901245117e-01,1.110168844461441040e-01,1.886777281761169434e-01,-1.800688356161117554e-01,-5.738569796085357666e-02,-1.220326498150825500e-01,-3.139761835336685181e-02,3.455294668674468994e-02,1.052214056253433228e-01,-3.593370318412780762e-02,1.509646028280258179e-01,4.941683262586593628e-02,-1.240945234894752502e-01,-2.185283042490482330e-02,-4.547210410237312317e-02,5.454779788851737976e-02,-5.534731224179267883e-02,-3.235341608524322510e-02,-2.717747166752815247e-02,9.713958948850631714e-02,1.990162394940853119e-02,3.718970576301217079e-03,-1.327131986618041992e-01,-8.266578428447246552e-03,-8.408349938690662384e-03,-7.391503080725669861e-03,-1.174885705113410950e-01,1.572990864515304565e-01,-8.330017328262329102e-03,1.638779044151306152e-01,1.119384635239839554e-02,-3.966358490288257599e-03,5.940432846546173096e-02,9.880658239126205444e-02,-1.294470392167568207e-02,2.647471427917480469e-02,1.147947506979107857e-03,5.655597895383834839e-02,6.031467393040657043e-02,9.523359686136245728e-02,1.037920340895652771e-01,5.264657363295555115e-02,-8.874367922544479370e-02,-1.607715897262096405e-02,5.696725100278854370e-02,4.277278110384941101e-02,-1.550267785787582397e-01,-3.973491489887237549e-02,7.664671540260314941e-02,-2.436048723757266998e-02,1.168387681245803833e-01,9.207582473754882812e-02,-8.958407491445541382e-02,-1.090169027447700500e-01,9.143161773681640625e-02
1.691590808331966400e-02,-3.212294355034828186e-02,-2.646006047725677490e-01,-7.165884971618652344e-02,-8.796032518148422241e-03,-4.403412342071533203e-02,-4.555958881974220276e-02,1.414668839424848557e-02,8.636759221553802490e-02,1.181561686098575592e-02,8.494381606578826904e-02,2.901509776711463928e-02,-2.834169007837772369e-02,-3.965326398611068726e-02,-9.454548358917236328e-02,-1.473380476236343384e-01,1.745533943176269531e-02,2.472730912268161774e-02,6.534361839294433594e-02,-4.074147716164588928e-02,-1.925606466829776764e-02,-1.073889508843421936e-01,-1.737719029188156128e-02,-3.791050612926483154e-02,-1.128621324896812439e-01,7.779755443334579468e-02,5.627929791808128357e-02,-2.634061966091394424e-03,-1.032031606882810593e-02,3.947745636105537415e-02,2.689911425113677979e-02,-1.153504252433776855e-01,-3.124008327722549438e-02,2.352216094732284546e-02,5.781461298465728760e-02,4.803907498717308044e-02,-1.314493417739868164e-01,1.140112504363059998e-01,1.297253519296646118e-01,1.163587495684623718e-01,-1.239070668816566467e-01,7.517168670892715454e-02,-2.571426704525947571e-02,6.383708864450454712e-02,-3.435547649860382080e-02,-6.192312762141227722e-02,-2.343655936419963837e-02,1.222621351480484009e-01,-4.398103803396224976e-03,-3.142174333333969116e-02,-5.954817752353847027e-04,-4.642912372946739197e-02,9.047567844390869141e-02,-6.271635740995407104e-02,3.645169734954833984e-02,9.987480938434600830e-02,-7.865032181143760681e-03,1.428560614585876465e-01,-1.003992557525634766e-01,-1.782532036304473877e-01,-9.076605550944805145e-03,-1.409455109387636185e-02,1.079546958208084106e-01,-4.347287490963935852e-02,2.075863778591156006e-01,7.777068763971328735e-02,-3.912894427776336670e-02,7.144378125667572021e-02,6.186114624142646790e-02,4.882794339209794998e-03,1.464728638529777527e-02,2.791307121515274048e-02,2.326352754607796669e-03,1.060251053422689438e-02,-4.336938261985778809e-02,-6.710742413997650146e-02,6.020518019795417786e-02,-8.493493497371673584e-02,-4.611345008015632629e-03,4.022004827857017517e-02,5.221925675868988037e-02,-6.526711396872997284e-03,2.715978585183620453e-02,-5.378109216690063477e-02,3.945320844650268555e-02,2.191087603569030762e-02,-5.190301686525344849e-02,7.755446434020996094e-02,-6.992690614424645901e-04,1.523922234773635864e-01,1.563973166048526764e-02,-4.322057589888572693e-02,-8.950421959161758423e-02,2.971296571195125580e-02,1.439255625009536743e-01,-4.234822094440460205e-02,7.993814349174499512e-02,8.474593609571456909e-02,-7.918220013380050659e-03,2.762775309383869171e-02,4.759318009018898010e-02,-1.777515746653079987e-02,4.013339430093765259e-02,-2.450137864798307419e-03,-6.455997377634048462e-02,-2.005567550659179688e-01,-1.970097608864307404e-02,-4.538477957248687744e-02,1.988222301006317139e-01,-1.279771700501441956e-02,-9.790915995836257935e-02,8.963388949632644653e-02,-6.657239049673080444e-02,-3.219555690884590149e-02,-8.088896423578262329e-02,-3.224638104438781738e-02,3.808324038982391357e-02,1.197354868054389954e-01,-1.018106639385223389e-01,-1.131904590874910355e-02,4.837185889482498169e-02,-2.668919786810874939e-02,3.383709862828254700e-02,1.301307529211044312e-01,4.639084264636039734e-02,-2.437650226056575775e-02,1.016217619180679321e-01,1.092363744974136353e-01,-2.277387492358684540e-02,-5.076707899570465088e-02,5.160805210471153259e-02,1.261698156595230103e-01,-1.005485206842422485e-01,1.101795732975006104e-01,4.556977376341819763e-02,5.783873796463012695e-02,-4.842063039541244507e-02,-4.602057486772537231e-02,4.972749948501586914e-02,-2.712342329323291779e-02,4.724584892392158508e-02,1.050697788596153259e-01,4.525856301188468933e-02,-1.179744005203247070e-01,2.933713234961032867e-02,3.746795654296875000e-02,1.403933297842741013e-02,6.259962916374206543e-02,5.496331676840782166e-02,-1.039616111665964127e-02,3.733281418681144714e-02,5.272455140948295593e-02,4.881040658801794052e-03,6.753965467214584351e-02,1.069795638322830200e-01,1.097227111458778381e-01,3.795700520277023315e-02,1.175914585473947227e-04,1.393194347620010376e-01,4.039798304438591003e-02,1.262110322713851929e-01,3.447636589407920837e-02,-6.368757039308547974e-02,-2.544697746634483337e-02,-2.294990420341491699e-02,9.684760868549346924e-02,8.969341218471527100e-02,-8.724842220544815063e-02,5.023356527090072632e-02,7.117149978876113892e-02,-2.488975673913955688e-01,-4.405083134770393372e-02,3.236208856105804443e-02,-1.010228991508483887e-01,-3.952712193131446838e-02,1.152726635336875916e-02,-7.355520874261856079e-02,1.917189359664916992e-01,6.755887717008590698e-02,-1.027803588658571243e-02,-6.480981409549713135e-02,-1.179493889212608337e-01,-3.337254002690315247e-02,2.991827391088008881e-02,-7.183480076491832733e-03,-2.200627233833074570e-03,1.348153967410326004e-02,4.485128819942474365e-02,3.965378552675247192e-02,1.487282961606979370e-01,-1.219679489731788635e-01,1.018391549587249756e-01,-1.884641684591770172e-02,-4.957124590873718262e-02,-5.930090695619583130e-02,-3.872485831379890442e-02,7.803686708211898804e-02,-1.078921183943748474e-02,7.288496941328048706e-03,-7.481443136930465698e-02,4.946014657616615295e-02,4.587960988283157349e-02,4.706860333681106567e-02,3.972050175070762634e-02,-1.542806997895240784e-02,-5.875589698553085327e-02,4.687972739338874817e-02,9.248652495443820953e-03,1.161813363432884216e-01,-1.243576705455780029e-01,1.087520737200975418e-02,-6.840792298316955566e-02,-1.440461128950119019e-01,6.566485017538070679e-02,-9.637434035539627075e-03,6.425389647483825684e-02,-4.642150551080703735e-02,-1.312639936804771423e-02,-1.091625774279236794e-03,-7.283458858728408813e-02,-1.743265613913536072e-02,6.337405741214752197e-02,5.777993798255920410e-02,-4.147313535213470459e-02,7.434440404176712036e-02,-5.864075571298599243e-02,-4.969765245914459229e-02,4.420902580022811890e-02,-8.941753953695297241e-02,3.514320030808448792e-02,-9.204066544771194458e-02,1.713454164564609528e-02,3.415569197386503220e-03,1.568936109542846680e-01,5.263518542051315308e-02,1.212111413478851318e-01,2.992507815361022949e-02,1.048075929284095764e-01,-3.631750866770744324e-02,-9.559209644794464111e-02,3.227767767384648323e-03,-6.293347477912902832e-02,-2.470794320106506348e-02,-6.360041350126266479e-02,3.770609572529792786e-02,-8.445954322814941406e-02,3.373485757037997246e-03,-7.743866741657257080e-02,6.225502863526344299e-02,1.383287739008665085e-02,-5.692240968346595764e-02,-9.019248932600021362e-02,-1.435176585800945759e-03,2.846671268343925476e-02,-1.567519456148147583e-02,7.391796261072158813e-02,2.902086358517408371e-03,6.255286186933517456e-02,7.738385349512100220e-02,-3.356151655316352844e-02,-1.132569164037704468e-01,-3.888488560914993286e-02,-8.545355498790740967e-02,7.395865023136138916e-02,-9.919900912791490555e-04,-3.177496790885925293e-02,-2.151595987379550934e-02,-6.404216587543487549e-02,2.434668131172657013e-02,-3.180072084069252014e-02,6.338738650083541870e-02,1.478066295385360718e-01,-3.874197974801063538e-02
-1.836336217820644379e-02,3.868789644911885262e-03,-2.642148546874523163e-02,-4.518204182386398315e-02,-2.496550604701042175e-02,-4.828254505991935730e-02,-1.051431521773338318e-01,1.537737250328063965e-02,1.173153445124626160e-01,2.698348090052604675e-02,2.992769889533519745e-02,-3.610217827372252941e-04,1.862960867583751678e-02,2.047975361347198486e-02,-1.352149695158004761e-01,-7.034868001937866211e-02,3.579012677073478699e-02,6.198201328516006470e-02,2.634710446000099182e-02,-4.901563748717308044e-02,-5.187087878584861755e-02,-1.040606945753097534e-01,4.363927617669105530e-02,-1.085980013012886047e-01,-8.992390334606170654e-02,6.507859379053115845e-02,-2.325637638568878174e-02,-3.616739762946963310e-03,2.767640165984630585e-02,1.015116199851036072e-01,2.144109085202217102e-02,-4.979837685823440552e-02,-2.910428866744041443e-02,-1.232400909066200256e-01,-3.407751908525824547e-03,2.720879949629306793e-02,-5.301308259367942810e-02,5.153857916593551636e-02,8.523692935705184937e-02,1.473689079284667969e-01,-8.258230984210968018e-02,7.581927627325057983e-02,-2.320236153900623322e-02,7.546672970056533813e-02,-3.243299201130867004e-02,-8.683327585458755493e-02,-1.028079167008399963e-01,1.511524319648742676e-01,-2.975864522159099579e-02,-4.071589559316635132e-02,4.557488113641738892e-02,2.425337955355644226e-02,4.417915269732475281e-02,-6.171886622905731201e-02,5.064655840396881104e-02,1.372057572007179260e-02,3.899180330336093903e-03,6.979087740182876587e-02,-1.077262982726097107e-01,-3.254416957497596741e-02,-6.076561287045478821e-02,6.848989427089691162e-02,4.125358164310455322e-02,2.078729122877120972e-02,5.495202913880348206e-02,7.689049094915390015e-02,-4.184210672974586487e-02,1.258447184227406979e-03,4.881079122424125671e-02,-1.061431318521499634e-01,-6.830972433090209961e-02,6.086797639727592468e-02,-1.972854323685169220e-02,4.249753057956695557e-02,-1.056067994795739651e-03,-4.597442224621772766e-02,9.266613423824310303e-02,-6.846553087234497070e-02,-5.093145743012428284e-02,3.798403963446617126e-02,7.432245463132858276e-02,-6.160132959485054016e-02,-1.245718523859977722e-01,4.222884029150009155e-02,-7.583893835544586182e-02,-4.850389435887336731e-02,-6.511303037405014038e-02,7.139071077108383179e-02,-1.490001659840345383e-02,1.027401164174079895e-01,1.915223151445388794e-02,-4.801973700523376465e-03,-9.363736957311630249e-02,3.658006340265274048e-02,1.384160816669464111e-01,1.857170648872852325e-02,9.557982534170150757e-02,1.141108721494674683e-01,4.126171395182609558e-02,2.431271038949489594e-02,4.783922806382179260e-02,-6.277687847614288330e-03,6.234410777688026428e-02,3.829970955848693848e-02,-1.115972772240638733e-01,-9.886369109153747559e-02,-3.073037229478359222e-02,-6.585320085287094116e-02,3.711824864149093628e-02,1.526906620711088181e-02,-2.144414745271205902e-02,-3.943976480513811111e-03,-5.278072133660316467e-02,-4.193725809454917908e-02,-4.892221465706825256e-02,-1.177859865128993988e-02,3.290687501430511475e-02,5.369811877608299255e-02,-1.175316646695137024e-01,-2.457256428897380829e-03,8.590614050626754761e-02,3.768929094076156616e-02,-3.857927769422531128e-02,2.094051241874694824e-02,-3.988038375973701477e-02,-5.829520896077156067e-02,1.051597818732261658e-01,5.954225733876228333e-02,1.258952766656875610e-01,-4.401347041130065918e-02,8.708650618791580200e-02,1.134289056062698364e-01,-6.846450269222259521e-02,3.921520709991455078e-02,1.488731242716312408e-02,-3.023142181336879730e-02,-5.925593897700309753e-02,-7.128608971834182739e-02,2.623238041996955872e-02,9.806358255445957184e-03,1.548228412866592407e-01,8.224486559629440308e-02,1.770646125078201294e-02,-7.637502998113632202e-02,1.373477745801210403e-02,1.226858142763376236e-02,5.973529443144798279e-02,9.345666039735078812e-04,6.287050992250442505e-02,-6.635558384004980326e-05,-7.713266462087631226e-02,-4.189157858490943909e-03,2.669385448098182678e-02,4.192835092544555664e-02,1.080746650695800781e-01,2.621429972350597382e-02,6.249371916055679321e-02,-6.709384173154830933e-02,6.774140894412994385e-02,-2.097101509571075439e-01,1.784953773021697998e-01,1.833001337945461273e-02,-3.634297102689743042e-02,-3.444030880928039551e-02,5.209629610180854797e-02,1.893681846559047699e-02,3.952603787183761597e-02,-5.148905515670776367e-02,2.380063012242317200e-02,5.018484592437744141e-02,-1.680755317211151123e-01,-1.088054291903972626e-02,-1.174143329262733459e-01,-5.618635565042495728e-02,-3.070096671581268311e-02,-1.394365914165973663e-03,-8.578235656023025513e-02,7.825262844562530518e-02,-2.374519128352403641e-03,1.973174884915351868e-02,-4.946179315447807312e-02,-3.840212896466255188e-02,2.574586123228073120e-02,8.549171686172485352e-02,-1.120045129209756851e-02,-3.168487548828125000e-02,-3.128454089164733887e-03,5.193077772855758667e-02,-2.335183881223201752e-02,3.864948451519012451e-02,-6.123606488108634949e-02,2.424134872853755951e-02,-5.730570107698440552e-02,5.179796833544969559e-03,-9.543417394161224365e-02,1.346679311245679855e-02,3.185820300132036209e-03,1.766794174909591675e-02,1.766975969076156616e-02,-2.865070477128028870e-02,7.956524938344955444e-02,6.271691527217626572e-03,4.679930210113525391e-02,-2.480251155793666840e-02,4.826794937252998352e-02,-1.239686533808708191e-01,-2.956882864236831665e-02,-3.169299289584159851e-02,1.262695640325546265e-01,-5.542815476655960083e-02,1.310547068715095520e-02,-5.283430218696594238e-02,-1.096638813614845276e-01,4.381563141942024231e-02,-2.489982917904853821e-02,1.204146724194288254e-02,-3.378816694021224976e-02,3.612276166677474976e-02,4.127832129597663879e-03,-3.579610958695411682e-02,4.001136496663093567e-02,4.785225912928581238e-02,-3.682485222816467285e-02,2.276537939906120300e-03,9.645029157400131226e-02,-7.553140819072723389e-02,-4.101838916540145874e-02,2.425382286310195923e-02,-6.287662684917449951e-02,5.183416977524757385e-02,-7.114680111408233643e-02,1.253607403486967087e-02,1.908959634602069855e-02,8.766359835863113403e-02,1.216638684272766113e-01,2.737848088145256042e-03,-5.131090525537729263e-03,4.085875116288661957e-03,1.469212025403976440e-02,-1.668901741504669189e-02,-3.602827712893486023e-02,-5.987196415662765503e-02,-2.787931822240352631e-02,-7.935314625501632690e-02,5.736486986279487610e-02,-5.909298360347747803e-02,-7.355511188507080078e-02,-5.239583179354667664e-02,2.167671918869018555e-02,1.294865924865007401e-02,-1.914592832326889038e-02,-3.434855118393898010e-02,1.293482165783643723e-02,1.096930876374244690e-01,-2.127713151276111603e-02,8.292064070701599121e-02,-2.709086611866950989e-02,-1.982482522726058960e-02,9.155512601137161255e-02,-2.546934038400650024e-02,-1.004490330815315247e-01,-6.821919977664947510e-02,2.324360888451337814e-03,-1.350706350058317184e-02,1.274237502366304398e-02,-6.514906138181686401e-02,-3.738265857100486755e-02,-2.255948819220066071e-02,3.854177147150039673e-02,-7.493112934753298759e-04,8.875752985477447510e-02,7.089434657245874405e-03,-9.309814125299453735e-02
3.790726885199546814e-02,-1.126131508499383926e-02,-1.032039225101470947e-01,-4.342121630907058716e-02,1.241005957126617432e-02,-7.828776538372039795e-02,-6.980157643556594849e-02,-5.475392565131187439e-02,-2.222652733325958252e-02,-4.079684615135192871e-02,1.544752344489097595e-02,2.118016965687274933e-02,-5.025752633810043335e-02,1.501151709817349911e-03,-3.542070090770721436e-02,-1.599810421466827393e-01,1.292773988097906113e-02,5.461164936423301697e-02,2.995482273399829865e-02,-4.918538033962249756e-02,-9.972134977579116821e-02,-1.159653887152671814e-01,8.205115795135498047e-03,2.818424813449382782e-02,-6.876522302627563477e-02,7.195730507373809814e-02,-1.233020946383476257e-01,-1.401659846305847168e-02,-2.260529994964599609e-02,-1.276751700788736343e-02,2.220799587666988373e-02,-6.843383610248565674e-02,-1.385382749140262604e-02,-1.446037143468856812e-01,-5.116606131196022034e-03,1.074958145618438721e-01,-8.480752259492874146e-02,5.060482025146484375e-02,9.482365101575851440e-02,6.769797205924987793e-02,-6.441623717546463013e-02,2.460783906280994415e-02,4.911330714821815491e-02,3.463286533951759338e-02,-3.511147573590278625e-02,-1.391917318105697632e-01,-1.290633529424667358e-01,1.542783081531524658e-01,-3.550701215863227844e-02,-6.932375580072402954e-02,5.776865407824516296e-02,-2.140622027218341827e-02,1.134926676750183105e-01,4.033044725656509399e-02,-6.550811231136322021e-02,7.404094934463500977e-02,8.895505219697952271e-02,1.014504730701446533e-01,-3.620281442999839783e-02,-7.782629132270812988e-02,-2.193035185337066650e-02,-2.166741713881492615e-02,1.829897612333297729e-02,3.489150432869791985e-03,5.887385457754135132e-02,-6.338739395141601562e-02,8.658662438392639160e-03,9.690659120678901672e-03,1.322790980339050293e-01,-1.029474735260009766e-01,2.206453494727611542e-02,2.220522798597812653e-02,2.349572256207466125e-02,6.738632172346115112e-02,6.092437542974948883e-03,-4.457676410675048828e-02,1.162141487002372742e-01,-1.234953403472900391e-01,-1.414795964956283569e-01,5.369407311081886292e-02,4.964761435985565186e-02,-1.058207228779792786e-01,-1.528669381514191628e-03,6.505091488361358643e-02,-1.051601991057395935e-01,6.695970147848129272e-02,-1.562967002391815186e-01,6.088338419795036316e-02,-6.610056757926940918e-02,7.251928001642227173e-02,3.297182172536849976e-02,-3.872533887624740601e-02,-5.176854878664016724e-02,6.110148131847381592e-02,9.558558464050292969e-02,-3.541557816788554192e-03,1.615921035408973694e-02,1.908220117911696434e-03,-2.158703655004501343e-02,-4.000550881028175354e-02,2.567396871745586395e-02,-5.413705110549926758e-02,1.483995020389556885e-01,1.904124021530151367e-02,-8.838011883199214935e-03,-6.336873769760131836e-02,9.067748486995697021e-02,-8.788674324750900269e-02,8.464278280735015869e-02,1.855787821114063263e-02,-9.446470439434051514e-02,-1.310860663652420044e-01,-5.824014171957969666e-02,-8.021313697099685669e-02,3.874728921800851822e-03,-7.137472927570343018e-02,1.205524504184722900e-01,1.022848784923553467e-01,-1.192214265465736389e-01,1.393859088420867920e-02,1.096018180251121521e-01,2.299197390675544739e-02,2.508608810603618622e-02,2.456701174378395081e-02,-1.526785269379615784e-02,-2.138831838965415955e-02,7.234820723533630371e-02,6.207445263862609863e-02,2.974321879446506500e-02,-5.930182058364152908e-03,1.465662419795989990e-01,9.637752920389175415e-02,-1.208799928426742554e-01,1.070708408951759338e-02,1.089687868952751160e-01,-1.377922110259532928e-02,1.683902554214000702e-02,-9.733427315950393677e-02,5.802208185195922852e-02,-1.121019124984741211e-01,8.285514265298843384e-02,7.837728410959243774e-02,1.330500394105911255e-01,-3.202925994992256165e-02,4.294672608375549316e-02,3.767127869650721550e-03,8.262963593006134033e-02,9.751830995082855225e-02,1.111709773540496826e-01,-8.601332083344459534e-03,4.365832731127738953e-02,2.168745920062065125e-02,-4.990050103515386581e-03,7.164235413074493408e-02,3.176928684115409851e-02,-9.178993292152881622e-03,6.655938923358917236e-02,-5.732534825801849365e-02,1.502930186688899994e-02,-2.173001021146774292e-01,4.898703470826148987e-02,8.869986981153488159e-02,-4.093163460493087769e-02,-1.061008572578430176e-01,1.451481133699417114e-01,6.620217114686965942e-02,5.785684287548065186e-02,-8.042746037244796753e-02,6.613907963037490845e-02,1.471803337335586548e-02,-7.567709684371948242e-02,2.511006966233253479e-02,-2.079605907201766968e-01,-7.164901494979858398e-02,7.212256640195846558e-02,2.246660366654396057e-02,4.680697247385978699e-02,3.632582724094390869e-02,3.138640662655234337e-03,-3.264726139605045319e-03,-3.861872479319572449e-02,-1.307102572172880173e-02,6.382610648870468140e-02,8.193314820528030396e-02,2.461002953350543976e-02,-7.012934237718582153e-02,-8.203586563467979431e-03,1.032128259539604187e-01,-1.350563615560531616e-01,4.420802742242813110e-02,-1.017579063773155212e-01,9.300794452428817749e-03,3.939310554414987564e-03,-3.562894463539123535e-02,2.225438132882118225e-03,9.725839644670486450e-02,-6.257446855306625366e-02,3.982244431972503662e-02,-4.173736553639173508e-03,5.037655122578144073e-03,4.292462766170501709e-02,1.946939039044082165e-03,-4.498023539781570435e-02,1.473315432667732239e-02,1.593770459294319153e-02,-9.471382945775985718e-02,-1.300372183322906494e-01,6.001107767224311829e-02,6.626818329095840454e-02,-1.126148104667663574e-01,1.087602414190769196e-02,-5.203012749552726746e-02,-3.018477745354175568e-02,-1.734522357583045959e-02,5.283268913626670837e-02,2.646043524146080017e-02,-4.453741759061813354e-02,1.906073838472366333e-02,1.446398813277482986e-02,5.289738625288009644e-02,1.751758530735969543e-02,-1.434570411220192909e-03,-3.935680538415908813e-02,8.927558362483978271e-02,8.294895291328430176e-02,-5.049031972885131836e-02,-2.431260980665683746e-02,5.723334103822708130e-02,-5.012952163815498352e-02,4.584822431206703186e-02,-4.596899077296257019e-02,7.825067266821861267e-03,9.945419430732727051e-02,3.660995140671730042e-02,1.637504994869232178e-01,4.171294718980789185e-02,2.119347080588340759e-02,-3.227678686380386353e-02,-6.062179803848266602e-03,-9.355184435844421387e-02,-3.462810814380645752e-02,-1.063213869929313660e-01,5.997132975608110428e-03,4.846116155385971069e-02,1.450871229171752930e-01,-5.685565248131752014e-02,3.664918616414070129e-02,-1.392614692449569702e-01,2.826595492660999298e-02,1.822026446461677551e-03,-2.918093698099255562e-03,-7.300588488578796387e-02,-2.441312000155448914e-02,5.093873664736747742e-02,1.012642029672861099e-02,8.223840594291687012e-02,-1.179084926843643188e-01,-3.544931998476386070e-03,1.051881238818168640e-01,-6.137226894497871399e-02,-2.619607746601104736e-02,-1.285715103149414062e-01,2.402954548597335815e-02,6.539182737469673157e-03,6.744295358657836914e-02,-1.260846853256225586e-02,-3.292642533779144287e-02,-1.878283917903900146e-02,7.666079793125391006e-03,-2.702157571911811829e-02,2.240808680653572083e-02,2.709233574569225311e-02,-8.983762562274932861e-02
-8.787234313786029816e-03,2.138563664630055428e-03,-6.393413245677947998e-02,-3.758943080902099609e-02,-4.005233198404312134e-02,-8.406072854995727539e-02,-1.031203120946884155e-01,-2.052455209195613861e-02,-6.625607144087553024e-03,1.421397738158702850e-02,4.435086995363235474e-02,3.675007494166493416e-03,-2.429565228521823883e-02,-3.795274347066879272e-02,-3.731992095708847046e-02,-9.102898836135864258e-02,-4.733185842633247375e-02,3.661373257637023926e-02,3.952290117740631104e-02,-4.727969318628311157e-02,-2.707541547715663910e-02,-6.983020901679992676e-02,1.785805821418762207e-02,2.328123524785041809e-02,-7.450161129236221313e-02,4.971459135413169861e-02,-4.509368538856506348e-02,1.327448897063732147e-02,-8.801983669400215149e-03,1.300975400954484940e-02,4.564301297068595886e-02,-5.668762326240539551e-02,-5.020034499466419220e-03,-6.014537066221237183e-02,-2.477242425084114075e-02,6.538000702857971191e-02,-5.376757308840751648e-02,4.371498152613639832e-02,5.411492660641670227e-02,3.745079785585403442e-02,-7.887705415487289429e-02,6.266620010137557983e-02,-3.409243002533912659e-02,-6.708994042128324509e-03,-3.720803558826446533e-02,-8.738549798727035522e-02,-1.337979286909103394e-01,5.665827915072441101e-02,8.965723682194948196e-04,-1.142833977937698364e-01,4.829207062721252441e-02,-3.517237678170204163e-02,3.816861659288406372e-02,4.330294206738471985e-03,-1.464056875556707382e-02,1.887428015470504761e-02,1.656714081764221191e-02,4.938941448926925659e-02,-7.899399101734161377e-02,-7.697917520999908447e-02,1.026690471917390823e-02,3.271272033452987671e-02,4.475327208638191223e-03,5.184780806303024292e-02,1.196426376700401306e-01,1.450464129447937012e-02,4.071953520178794861e-02,-1.667926087975502014e-02,1.343908756971359253e-01,-6.970482319593429565e-02,1.322951819747686386e-02,6.333518773317337036e-02,2.992270886898040771e-02,1.772629469633102417e-02,-2.344289235770702362e-02,-5.093854293227195740e-02,1.357837915420532227e-01,-7.796106487512588501e-02,-9.608893841505050659e-02,3.598366677761077881e-02,2.009792067110538483e-02,-7.050727307796478271e-02,3.124226815998554230e-02,8.481232076883316040e-02,-4.540001973509788513e-02,-9.259192273020744324e-03,-1.279440224170684814e-01,7.307642698287963867e-02,-4.379672929644584656e-02,7.873254269361495972e-02,3.511359542608261108e-02,-7.440845016390085220e-03,-5.401910468935966492e-02,8.160469681024551392e-02,1.085109263658523560e-01,2.664084732532501221e-02,4.871096089482307434e-02,2.041449624812230468e-05,2.123043499886989594e-02,-2.184870652854442596e-02,3.938366100192070007e-02,-1.637228019535541534e-02,1.027227267622947693e-01,-1.677748560905456543e-02,-1.448572892695665359e-02,-4.163244739174842834e-02,8.716940134763717651e-02,-8.752499520778656006e-02,7.540459930896759033e-02,-1.900435052812099457e-02,-8.173850178718566895e-02,-4.243568703532218933e-02,-3.379839658737182617e-02,5.241140350699424744e-02,-1.841678842902183533e-02,-7.080698758363723755e-02,6.904347240924835205e-02,4.127299040555953979e-02,-1.497651785612106323e-01,-2.031611278653144836e-02,1.067880690097808838e-01,3.282253071665763855e-02,-1.081037241965532303e-02,4.999986663460731506e-02,-2.369836904108524323e-02,-1.429157680831849575e-03,1.065187677741050720e-01,-6.238510832190513611e-02,7.256147265434265137e-02,2.150521613657474518e-02,8.468746393918991089e-02,1.101474165916442871e-01,-1.148141473531723022e-01,2.144027315080165863e-02,8.461895585060119629e-02,-1.496777683496475220e-02,-6.579767912626266479e-02,-7.183792442083358765e-02,2.680291421711444855e-02,-5.956813320517539978e-02,1.367670744657516479e-01,8.602954447269439697e-02,1.068042889237403870e-01,-2.252629026770591736e-02,2.783202752470970154e-02,2.199358865618705750e-02,4.645894840359687805e-02,1.470126025378704071e-02,7.496879249811172485e-02,4.550209268927574158e-03,1.890912465751171112e-02,4.059458151459693909e-02,-1.393076311796903610e-02,5.838353186845779419e-02,1.113775670528411865e-01,4.678000882267951965e-02,8.332950621843338013e-02,-4.832605645060539246e-02,5.658685415983200073e-02,-1.890723705291748047e-01,1.173518672585487366e-01,5.116375908255577087e-02,-4.676489159464836121e-02,-5.097445100545883179e-02,7.926204055547714233e-02,3.204503655433654785e-02,3.974514082074165344e-02,-5.623068660497665405e-02,4.865350946784019470e-02,-2.332651801407337189e-02,-1.527959555387496948e-01,-2.365299500524997711e-02,-1.530230492353439331e-01,-1.053097844123840332e-01,6.715578958392143250e-03,5.505661293864250183e-02,-3.027912601828575134e-02,5.546476319432258606e-02,1.872043684124946594e-02,4.077260568737983704e-02,-5.441707000136375427e-02,-3.693002508953213692e-03,5.754850804805755615e-02,3.415102884173393250e-02,-2.039834298193454742e-02,-4.765490815043449402e-02,-3.242609649896621704e-02,6.475540250539779663e-02,-6.522671133279800415e-02,6.016394123435020447e-02,-6.829284876585006714e-02,-7.884957827627658844e-03,-4.619808867573738098e-02,-6.499729305505752563e-02,9.476717561483383179e-03,6.152855604887008667e-02,-1.223059650510549545e-02,-1.529064215719699860e-02,4.239046201109886169e-02,-3.393029049038887024e-02,6.396093964576721191e-02,-5.054474249482154846e-02,-1.099359802901744843e-02,8.799681439995765686e-03,1.516836974769830704e-02,-4.510770365595817566e-02,-9.051295369863510132e-02,1.300716493278741837e-02,3.784942626953125000e-02,-4.798911511898040771e-02,2.443841658532619476e-02,-2.299757860600948334e-02,-5.789009109139442444e-02,2.694750949740409851e-02,8.262204937636852264e-03,4.862323775887489319e-02,-1.974989660084247589e-02,4.962224978953599930e-03,1.094566471874713898e-02,-2.465290389955043793e-02,-1.959285140037536621e-02,7.182692736387252808e-02,3.895799070596694946e-02,5.629028007388114929e-02,5.025758966803550720e-02,-6.464815139770507812e-02,-1.623010821640491486e-02,7.538785692304372787e-03,-4.897425696253776550e-02,-3.423730656504631042e-02,-6.939346436411142349e-03,6.727114785462617874e-03,5.473494157195091248e-02,2.042558230459690094e-02,1.582593470811843872e-01,4.274370148777961731e-02,-5.275668948888778687e-02,-5.992561578750610352e-03,-1.149195060133934021e-02,-5.228633061051368713e-02,3.359199734404683113e-03,-4.620606452226638794e-02,1.195948850363492966e-02,-3.291755681857466698e-03,1.035884991288185120e-01,-5.311694368720054626e-02,7.046829909086227417e-02,-9.729254990816116333e-02,6.843283772468566895e-02,-1.317813061177730560e-02,-1.397736929357051849e-02,-2.536409348249435425e-02,-4.347669333219528198e-02,3.578327968716621399e-02,1.068487949669361115e-02,2.020481228828430176e-02,-5.199734494090080261e-02,-2.616059407591819763e-02,8.347474783658981323e-02,-1.267401967197656631e-02,-9.677065536379814148e-03,-7.565673440694808960e-02,4.115261137485504150e-03,4.899002611637115479e-03,3.389109298586845398e-02,-3.116907551884651184e-02,3.228963166475296021e-02,-3.402255475521087646e-02,1.067553646862506866e-02,-4.078534897416830063e-03,3.630752861499786377e-02,6.012351065874099731e-02,-1.062304675579071045e-01
3.697049571201205254e-03,3.474463894963264465e-02,-4.682930558919906616e-02,8.629139512777328491e-03,-9.165030904114246368e-03,-2.545410022139549255e-02,-2.596278861165046692e-02,3.946790471673011780e-03,-2.423276379704475403e-02,-4.542721435427665710e-02,2.615688741207122803e-02,-1.428150758147239685e-02,-6.674478203058242798e-02,-5.007545277476310730e-02,-3.811073675751686096e-02,-9.852689504623413086e-02,-2.348368242383003235e-02,-1.434435695409774780e-02,3.889453038573265076e-02,-4.016958177089691162e-02,-6.910032778978347778e-02,-6.824826821684837341e-03,8.981517702341079712e-02,1.332637388259172440e-02,-6.535006314516067505e-02,4.773272946476936340e-02,-7.200291007757186890e-02,1.872813329100608826e-02,-1.796106062829494476e-02,-2.092353254556655884e-02,-1.033533811569213867e-01,-6.950337439775466919e-03,3.172754496335983276e-02,-1.627558842301368713e-03,4.084174986928701401e-03,9.115701168775558472e-02,-3.163082152605056763e-02,3.230290114879608154e-02,6.959672272205352783e-02,4.763466492295265198e-02,-3.583921864628791809e-02,4.687299206852912903e-02,1.126954914070665836e-03,-7.378710061311721802e-02,-4.062505438923835754e-02,-5.943914130330085754e-02,-3.009733185172080994e-02,1.133190840482711792e-01,1.839434169232845306e-02,-1.342680901288986206e-01,3.993337601423263550e-02,-7.858627475798130035e-03,8.870559930801391602e-02,2.416133880615234375e-02,-5.154404416680335999e-02,1.008777916431427002e-01,-1.723131723701953888e-02,5.824029818177223206e-02,6.571714580059051514e-02,-2.791537530720233917e-02,1.194196753203868866e-02,5.695078987628221512e-03,3.309604153037071228e-02,1.570112816989421844e-02,2.502081915736198425e-02,-7.686724513769149780e-02,4.759500175714492798e-02,2.703556045889854431e-02,8.044522255659103394e-02,-6.571654975414276123e-02,-1.019991040229797363e-01,5.351092293858528137e-02,1.745092682540416718e-02,3.720147535204887390e-02,2.745159901678562164e-02,-5.410222336649894714e-02,2.020766288042068481e-01,-4.420305602252483368e-03,-1.047352626919746399e-01,1.026418805122375488e-02,4.410295933485031128e-02,-6.340014189481735229e-02,6.682869046926498413e-02,2.259295992553234100e-02,-7.142826169729232788e-02,3.870095312595367432e-02,-3.410745039582252502e-02,5.234326794743537903e-02,-1.321437656879425049e-01,3.779999166727066040e-02,1.883293315768241882e-02,-1.886516436934471130e-02,-4.173939581960439682e-03,2.003080956637859344e-02,9.769032895565032959e-02,1.041787192225456238e-01,5.065843835473060608e-02,-1.563454978168010712e-02,-1.082252711057662964e-02,-4.179539903998374939e-02,4.607830569148063660e-02,-2.250930294394493103e-02,6.405783444643020630e-02,3.919097129255533218e-03,5.599654838442802429e-02,-3.334263747092336416e-04,8.013919740915298462e-02,-1.279277503490447998e-01,5.500236898660659790e-02,1.475922530516982079e-03,-7.523132860660552979e-02,-2.328442782163619995e-02,-1.506494358181953430e-02,1.799095794558525085e-02,8.238998241722583771e-03,-5.526725202798843384e-03,4.073213040828704834e-02,-2.679416723549365997e-02,-1.632750034332275391e-01,4.820660874247550964e-02,8.856483548879623413e-02,-4.292455688118934631e-02,-2.176165580749511719e-02,2.020430378615856171e-02,-6.424533575773239136e-02,-2.271394804120063782e-02,2.383017726242542267e-02,-2.015791460871696472e-02,4.177395999431610107e-02,3.345308080315589905e-02,4.683194682002067566e-02,3.492478653788566589e-02,2.017358783632516861e-03,-3.644795622676610947e-03,1.021743565797805786e-01,4.207878187298774719e-02,-1.513955593109130859e-01,-7.473172992467880249e-02,-5.399386398494243622e-03,-8.183139562606811523e-02,6.830085068941116333e-02,5.035869777202606201e-02,2.032476961612701416e-01,-3.476793318986892700e-02,5.148069933056831360e-02,-1.997710764408111572e-02,-1.493544410914182663e-02,5.789938196539878845e-02,5.100417137145996094e-02,-7.938571274280548096e-03,6.742808967828750610e-02,6.209959834814071655e-02,-5.588090419769287109e-02,1.891056820750236511e-02,8.174587786197662354e-02,1.872934587299823761e-02,-6.234144419431686401e-02,-7.279384881258010864e-03,-1.482898183166980743e-02,-4.763445258140563965e-02,3.616070747375488281e-02,7.432904839515686035e-02,-2.789682894945144653e-02,-5.692550539970397949e-02,7.979644089937210083e-02,1.963058859109878540e-02,2.717652544379234314e-02,5.340755451470613480e-03,-2.511863969266414642e-02,3.094217181205749512e-02,-5.464974790811538696e-02,3.671292215585708618e-02,-1.352894455194473267e-01,-3.324138000607490540e-02,2.785323560237884521e-02,1.192105859518051147e-01,4.423700273036956787e-02,5.931483954191207886e-02,3.246958553791046143e-02,4.479333013296127319e-02,-5.842345952987670898e-02,5.912235751748085022e-02,2.720391936600208282e-02,2.544637769460678101e-02,2.800255827605724335e-02,-1.212154328823089600e-02,3.796718083322048187e-03,6.246952805668115616e-03,-1.191543638706207275e-01,3.153888508677482605e-02,-5.515686050057411194e-02,-9.328145533800125122e-02,-7.162070833146572113e-03,-3.254200890660285950e-02,-1.514563057571649551e-02,3.219826146960258484e-02,-5.393398553133010864e-02,-1.392286084592342377e-02,-4.935449105687439442e-04,-3.483906388282775879e-02,7.776710391044616699e-02,-3.195012360811233521e-02,-7.640313357114791870e-02,-9.479545056819915771e-03,3.767579793930053711e-02,-3.883753344416618347e-02,-4.503645002841949463e-02,5.189779400825500488e-02,2.027910575270652771e-02,-1.425816956907510757e-02,-9.789059869945049286e-03,-2.329424954950809479e-02,3.109769523143768311e-02,3.669029846787452698e-02,3.957529086619615555e-03,5.584491789340972900e-02,-2.886150777339935303e-02,1.985978707671165466e-02,-3.378299251198768616e-02,-3.178136795759201050e-02,-3.109306842088699341e-02,2.374855428934097290e-02,1.753096841275691986e-02,2.286157570779323578e-02,4.588268697261810303e-02,-2.741445787250995636e-02,-7.258387282490730286e-03,-1.917979121208190918e-02,-4.447981342673301697e-02,4.719004780054092407e-02,-4.150585830211639404e-02,-6.907586939632892609e-03,4.109656438231468201e-02,1.880973461084067822e-03,7.474115490913391113e-02,8.194837719202041626e-02,4.670066013932228088e-02,-6.860088557004928589e-02,1.856548525393009186e-02,-2.484855800867080688e-02,-1.162019209004938602e-03,-4.935522563755512238e-03,-4.261266812682151794e-02,1.774985156953334808e-02,1.221643760800361633e-01,-8.773280680179595947e-02,5.636290460824966431e-02,-7.367437332868576050e-02,1.146562583744525909e-02,5.747130606323480606e-03,-1.371558103710412979e-02,-6.032044067978858948e-02,9.744872897863388062e-02,-1.962964609265327454e-02,1.956689171493053436e-02,2.463011071085929871e-02,-5.002653598785400391e-02,2.437914535403251648e-02,6.608388572931289673e-02,1.035851612687110901e-02,3.335719695314764977e-03,-9.232521057128906250e-02,-2.527543157339096069e-02,-9.816532582044601440e-02,7.396947592496871948e-02,5.244828015565872192e-02,2.971200458705425262e-02,1.481387764215469360e-03,1.345587708055973053e-02,-1.792640425264835358e-02,-1.820995472371578217e-02,6.875073909759521484e-02,-7.153368741273880005e-02
2.082454599440097809e-02,6.073809228837490082e-03,-6.568537652492523193e-02,1.761414483189582825e-02,-7.230664603412151337e-03,-2.439048700034618378e-02,-3.251754865050315857e-02,-4.128374159336090088e-02,-1.567098125815391541e-02,7.952250540256500244e-03,2.484518475830554962e-02,-1.506664120825007558e-04,-3.861104696989059448e-02,-5.105615407228469849e-02,-2.127918601036071777e-02,-9.037615358829498291e-02,-3.772012190893292427e-03,-1.018429058603942394e-03,6.285400688648223877e-02,-4.427568987011909485e-03,-1.795738749206066132e-02,4.458781704306602478e-02,4.310617595911026001e-02,-2.603354305028915405e-02,-7.908676564693450928e-02,6.323559582233428955e-02,-5.400465801358222961e-02,1.085129287093877792e-02,5.154080688953399658e-03,5.393995717167854309e-02,-1.525959074497222900e-01,-8.757317066192626953e-02,9.118271619081497192e-02,2.830859273672103882e-02,-1.224092021584510803e-02,5.517064779996871948e-02,-2.217092923820018768e-02,4.026226326823234558e-02,3.490132838487625122e-02,-9.443324804306030273e-02,-8.474057540297508240e-03,4.168399795889854431e-02,-1.570412889122962952e-02,-7.014731317758560181e-02,-1.554281357675790787e-02,-2.328555285930633545e-02,2.614642493426799774e-02,1.135784313082695007e-01,-2.002813620492815971e-03,-9.512965381145477295e-02,6.158314645290374756e-04,2.676398679614067078e-02,7.888262718915939331e-02,7.158990949392318726e-02,-4.388897120952606201e-02,8.053010702133178711e-02,-5.899467039853334427e-03,1.129614375531673431e-02,1.958015747368335724e-02,-8.027246221899986267e-03,4.111156240105628967e-02,1.489162165671586990e-02,3.007172979414463043e-02,2.463480830192565918e-02,8.661232888698577881e-02,-2.282729139551520348e-03,-1.856552436947822571e-03,2.851010113954544067e-02,4.056550189852714539e-02,-5.757139623165130615e-02,-5.636092275381088257e-02,5.226863175630569458e-02,3.774403128772974014e-03,6.790122389793395996e-02,2.754797227680683136e-02,5.199315026402473450e-03,1.209993809461593628e-01,-4.462887346744537354e-02,-5.701733753085136414e-02,8.186630904674530029e-02,1.509665790945291519e-02,-2.386202104389667511e-02,5.349681898951530457e-02,3.215274959802627563e-02,2.117288671433925629e-02,-3.942479565739631653e-02,-8.122535794973373413e-02,8.413966745138168335e-02,-7.402493059635162354e-02,-3.934652358293533325e-02,-1.803727261722087860e-02,-1.165740936994552612e-02,3.376422449946403503e-02,2.298899739980697632e-02,1.044886931777000427e-01,1.065376698970794678e-01,5.040530487895011902e-02,-1.065231934189796448e-01,-7.335210684686899185e-03,2.799213305115699768e-02,3.255147859454154968e-02,3.379356861114501953e-02,5.660809949040412903e-02,-2.767390199005603790e-02,9.293008595705032349e-02,-2.265360904857516289e-03,3.532936796545982361e-02,-6.412526965141296387e-02,4.927363619208335876e-02,-4.658483713865280151e-02,-4.131830856204032898e-02,7.866077125072479248e-03,-2.530568651854991913e-02,7.445157319307327271e-02,9.087523818016052246e-02,-2.153483405709266663e-02,1.722400635480880737e-02,-5.010154843330383301e-02,-7.702019810676574707e-02,1.322230231016874313e-02,7.734907418489456177e-02,-1.162384264171123505e-02,-7.018765434622764587e-03,6.033279001712799072e-02,-5.948215350508689880e-02,7.063582539558410645e-02,-2.104324474930763245e-02,6.706069689244031906e-03,3.895164281129837036e-02,5.795959755778312683e-02,4.243008792400360107e-02,4.065753892064094543e-02,-1.931925117969512939e-02,2.205582335591316223e-02,7.722625881433486938e-02,5.303598195314407349e-02,-8.544870465993881226e-02,-5.640085041522979736e-02,3.859263844788074493e-03,-7.846328616142272949e-02,2.792644314467906952e-02,4.579016938805580139e-02,1.177991628646850586e-01,-2.187232486903667450e-02,3.618219494819641113e-02,-3.047980181872844696e-02,1.991936936974525452e-03,3.107565455138683319e-02,2.514885365962982178e-02,-2.978632412850856781e-02,1.729175150394439697e-01,4.224737733602523804e-02,-1.465779170393943787e-02,2.712264843285083771e-02,2.110963501036167145e-02,4.642477259039878845e-03,-4.040749743580818176e-02,2.977433381602168083e-03,-1.062721945345401764e-02,2.451412007212638855e-02,5.338776856660842896e-02,3.680214658379554749e-02,-2.809309633448719978e-03,-4.127854853868484497e-02,4.760070145130157471e-02,-2.747802063822746277e-02,1.140432804822921753e-02,-5.461321212351322174e-03,-3.493463620543479919e-02,5.531913787126541138e-02,-1.828358881175518036e-02,-3.665946191176772118e-03,-7.468843460083007812e-02,-2.339209057390689850e-02,8.670990914106369019e-02,6.754522025585174561e-02,4.265583120286464691e-03,4.369868710637092590e-02,4.146068915724754333e-02,3.837992623448371887e-02,-6.462793797254562378e-02,9.069720655679702759e-02,6.387273222208023071e-02,-3.573255613446235657e-02,-2.362033911049365997e-02,-1.842136867344379425e-02,-4.276596009731292725e-02,-9.145559370517730713e-02,-5.726785957813262939e-02,-3.690905496478080750e-02,-1.851513236761093140e-02,-1.022800356149673462e-01,-6.936367601156234741e-02,-6.608286499977111816e-02,7.325202226638793945e-02,6.911818403750658035e-03,-5.911517422646284103e-03,-3.759909048676490784e-02,-2.426577545702457428e-02,-1.762100867927074432e-02,1.081267837435007095e-02,-4.911734908819198608e-02,-1.376702915877103806e-02,-2.963110245764255524e-02,-2.393701858818531036e-02,1.342662516981363297e-02,4.039913043379783630e-02,2.135718986392021179e-02,-5.569033324718475342e-02,-2.471244521439075470e-02,-6.028553936630487442e-03,-1.543714571744203568e-02,9.625892341136932373e-02,-4.156409949064254761e-02,1.667955517768859863e-02,2.489644289016723633e-02,-1.808549650013446808e-02,-3.582263132557272911e-03,-2.357691712677478790e-02,-5.322696641087532043e-02,-2.012256719172000885e-02,5.551410373300313950e-03,4.124118760228157043e-02,6.694063544273376465e-02,5.029284954071044922e-02,-4.541852697730064392e-02,-2.045278623700141907e-02,-5.510389432311058044e-02,-3.555979579687118530e-02,3.201012685894966125e-02,5.581501172855496407e-04,-1.925873383879661560e-02,4.042516462504863739e-03,-2.729355730116367340e-02,5.639883875846862793e-02,3.830366209149360657e-02,5.034992471337318420e-02,-2.339036017656326294e-02,5.147936567664146423e-02,2.309020236134529114e-02,-1.543181482702493668e-02,-3.351984545588493347e-02,-4.304085858166217804e-03,-1.443726103752851486e-02,8.465474843978881836e-02,-5.687578767538070679e-02,-8.534821099601686001e-04,-3.252145648002624512e-02,1.608583144843578339e-02,-6.365092005580663681e-03,-1.801818609237670898e-02,-4.080650210380554199e-02,7.368039339780807495e-02,-7.837816327810287476e-02,-3.929396159946918488e-03,-2.862297696992754936e-03,-1.978102326393127441e-02,-2.448556572198867798e-02,9.972044266760349274e-03,1.751797460019588470e-02,1.322000473737716675e-01,-2.718737162649631500e-02,-3.482557833194732666e-02,-1.540735270828008652e-02,3.930507227778434753e-02,4.124581068754196167e-02,8.369445800781250000e-02,-4.617701843380928040e-02,-8.094677329063415527e-02,1.367750694043934345e-03,-1.802967861294746399e-02,8.439864963293075562e-02,-9.761587530374526978e-02
-2.768225036561489105e-02,3.422907739877700806e-02,-1.128625571727752686e-01,-9.677737252786755562e-04,-6.490845978260040283e-02,-1.059021707624197006e-02,-8.114011585712432861e-02,-7.906762510538101196e-02,9.984375536441802979e-02,2.795786364004015923e-03,-9.704344905912876129e-03,-1.278792135417461395e-02,-5.945610627532005310e-02,1.736410707235336304e-02,-5.894161760807037354e-02,-7.713246345520019531e-02,-9.037132374942302704e-03,-4.766994155943393707e-03,5.606239289045333862e-02,-6.373388320207595825e-02,5.035714432597160339e-02,-5.997350811958312988e-02,-1.990597229450941086e-03,3.463838994503021240e-02,-7.428658008575439453e-02,9.308420121669769287e-02,-8.646726608276367188e-02,5.434720590710639954e-02,1.927306689321994781e-02,4.496678709983825684e-03,-1.740950644016265869e-01,-5.883626639842987061e-02,1.293940693140029907e-01,5.241979286074638367e-02,-2.936829812824726105e-02,-1.824723673053085804e-03,-4.236166551709175110e-02,2.562700957059860229e-02,8.870263583958148956e-03,-4.915603902190923691e-03,-1.185862068086862564e-02,8.696649223566055298e-02,-4.472678154706954956e-02,-8.768538944423198700e-03,-2.207066118717193604e-02,-9.741833060979843140e-02,-4.021076485514640808e-02,4.565757885575294495e-02,-1.796042919158935547e-02,-3.307559341192245483e-02,3.765380382537841797e-02,8.286127820611000061e-03,2.517827227711677551e-02,2.627205103635787964e-02,2.221010439097881317e-02,4.840067401528358459e-02,3.561863675713539124e-02,2.942842431366443634e-02,-1.330557465553283691e-02,-2.780822291970252991e-02,3.298244252800941467e-02,1.845681294798851013e-02,5.656372755765914917e-02,1.136709228157997131e-01,5.318845435976982117e-02,5.177263543009757996e-02,3.814611211419105530e-02,-2.478347904980182648e-02,2.767720632255077362e-02,-8.700778335332870483e-02,-1.204536333680152893e-01,1.400895230472087860e-02,6.560907512903213501e-02,9.349930286407470703e-02,4.276823997497558594e-02,3.667185083031654358e-02,5.471420660614967346e-02,-7.843796908855438232e-02,-5.240526050329208374e-02,3.912119194865226746e-02,5.047006160020828247e-02,-4.972626268863677979e-02,-2.839239686727523804e-02,4.714178666472434998e-02,2.071669138967990875e-02,-7.213275879621505737e-02,-5.223836749792098999e-02,1.041269227862358093e-01,-4.640893265604972839e-02,-1.099906768649816513e-02,-6.848740857094526291e-03,-5.344171077013015747e-02,5.024506151676177979e-02,2.764865197241306305e-02,1.457127481698989868e-01,5.752127990126609802e-02,5.362312495708465576e-02,1.431107055395841599e-02,6.669066101312637329e-02,6.407333165407180786e-02,-1.148157520219683647e-03,-1.352095627225935459e-03,4.404583573341369629e-02,5.497149657458066940e-03,7.255060598254203796e-03,-6.534394621849060059e-02,1.563798449933528900e-02,-2.135157212615013123e-02,5.093504860997200012e-02,-3.590590879321098328e-02,-8.112166821956634521e-02,2.320788055658340454e-02,-2.274496294558048248e-02,4.308541491627693176e-02,-2.674104832112789154e-02,-1.570955663919448853e-02,7.759170979261398315e-02,-2.697364799678325653e-02,1.662958599627017975e-02,2.838475257158279419e-02,4.026834294199943542e-02,1.901853270828723907e-02,-4.952332004904747009e-02,3.667471557855606079e-02,-2.641490288078784943e-02,2.509207697585225105e-03,7.904955744743347168e-02,-2.581309713423252106e-02,5.602076649665832520e-03,-2.724405005574226379e-02,6.108888238668441772e-02,7.746856659650802612e-02,2.888568118214607239e-02,6.060037761926651001e-02,9.173458069562911987e-02,3.546796739101409912e-02,-7.602501660585403442e-02,-4.973439499735832214e-02,1.046266034245491028e-02,-4.873988032341003418e-02,-5.445635877549648285e-03,2.028283663094043732e-02,1.843217574059963226e-02,-7.880672812461853027e-03,2.289518155157566071e-02,2.161555166821926832e-04,1.033123303204774857e-02,4.237662628293037415e-02,4.035673290491104126e-02,-3.115244954824447632e-02,5.466420203447341919e-03,1.104073300957679749e-01,-6.013632193207740784e-02,6.287660449743270874e-02,3.463949263095855713e-02,1.313241571187973022e-02,4.704747721552848816e-02,-4.599539097398519516e-03,2.956187725067138672e-02,1.705929636955261230e-02,8.588273823261260986e-02,6.658475846052169800e-02,-4.140537604689598083e-02,2.605687640607357025e-02,3.167108073830604553e-02,7.084093987941741943e-03,6.356230378150939941e-02,-3.566022962331771851e-02,1.164244674146175385e-02,4.487896710634231567e-02,2.897147834300994873e-02,6.067233905196189880e-02,1.641906984150409698e-02,-2.141430042684078217e-03,2.491158060729503632e-02,9.554479271173477173e-02,3.180098906159400940e-02,3.194268420338630676e-02,-1.198855414986610413e-02,3.563948720693588257e-02,-8.452508598566055298e-02,2.704040147364139557e-02,-1.078267488628625870e-02,2.944610780104994774e-03,-2.658588811755180359e-02,-5.843851342797279358e-02,-1.512748468667268753e-02,-1.345359534025192261e-01,1.491291355341672897e-02,-3.401607647538185120e-02,-1.699745841324329376e-02,-8.515448123216629028e-02,-1.922458782792091370e-02,4.634536802768707275e-02,-1.608515623956918716e-03,-1.176664382219314575e-01,-1.177869271486997604e-02,-6.773474067449569702e-02,-3.140706568956375122e-03,-4.062325507402420044e-02,3.844208270311355591e-02,-1.048961840569972992e-02,2.437171898782253265e-02,-1.981646940112113953e-02,1.608165912330150604e-02,1.608102768659591675e-02,2.425392158329486847e-03,1.171199511736631393e-02,1.575909089297056198e-03,-5.903526395559310913e-02,1.918540708720684052e-02,-4.350210074335336685e-03,7.292769849300384521e-02,-9.094581007957458496e-03,-5.458219908177852631e-03,3.054560720920562744e-02,-4.614446312189102173e-02,7.947613485157489777e-03,-1.011514291167259216e-01,-5.029883980751037598e-02,-5.006043612957000732e-02,-1.241776626557111740e-02,6.255676597356796265e-02,-1.329981442540884018e-02,1.132854372262954712e-01,-3.494013100862503052e-02,-5.492020398378372192e-02,-5.019433330744504929e-03,-5.725814774632453918e-02,-2.752599073573946953e-03,-4.948086570948362350e-03,-1.575955376029014587e-02,-6.119058281183242798e-02,-2.400608919560909271e-02,7.322783768177032471e-02,2.544738911092281342e-02,3.494069725275039673e-02,-7.622527331113815308e-02,5.661546438932418823e-02,2.687292918562889099e-02,-3.659689053893089294e-02,3.586153499782085419e-03,-5.517258774489164352e-03,3.587701171636581421e-02,7.584814727306365967e-02,-3.007055819034576416e-02,-3.175745904445648193e-02,4.193473234772682190e-02,3.155615925788879395e-02,1.481310650706291199e-02,4.840258136391639709e-02,-4.436708241701126099e-02,2.576511725783348083e-02,8.536309935152530670e-03,-1.014662999659776688e-02,4.976396262645721436e-02,-9.959672391414642334e-02,-5.112840235233306885e-02,1.320419646799564362e-02,5.130530893802642822e-02,1.525336410850286484e-02,-2.839318849146366119e-02,-3.732838854193687439e-02,1.731094159185886383e-02,6.605302542448043823e-02,-5.187251046299934387e-02,3.756541013717651367e-02,-5.425218492746353149e-02,-4.420068487524986267e-02,-6.561865657567977905e-02,7.575769443064928055e-03,2.793117426335811615e-02,-4.866473749279975891e-02
-2.588859014213085175e-02,6.436905264854431152e-02,9.367157705128192902e-03,1.130048092454671860e-02,-8.049374818801879883e-02,1.536494586616754532e-03,-8.694758266210556030e-02,-5.828145146369934082e-02,5.878968164324760437e-02,1.469933241605758667e-02,3.438734449446201324e-03,-1.119762659072875977e-02,-4.212728142738342285e-02,-2.864578552544116974e-02,-2.682228758931159973e-02,-2.078506909310817719e-02,1.103558391332626343e-02,-1.599523425102233887e-02,1.667809486389160156e-02,-6.680917739868164062e-02,4.519660025835037231e-02,3.905402123928070068e-02,4.876736924052238464e-02,3.472316265106201172e-02,-5.403220281004905701e-02,9.005219489336013794e-02,-5.302309989929199219e-02,5.929160863161087036e-02,1.953007094562053680e-02,-1.965452358126640320e-02,-1.147460266947746277e-01,-1.385633200407028198e-01,1.050496101379394531e-01,4.171002656221389771e-02,-1.880581304430961609e-02,-4.344441741704940796e-02,1.157262269407510757e-02,-6.288474053144454956e-02,-2.780370041728019714e-02,-3.107900172472000122e-02,4.648878425359725952e-02,6.475982815027236938e-02,-5.724958330392837524e-02,-2.592740952968597412e-02,-5.986838042736053467e-02,-5.500254780054092407e-02,-2.256802469491958618e-02,1.452676393091678619e-02,2.241481654345989227e-02,-3.252717480063438416e-02,4.079454392194747925e-02,-3.497820580378174782e-03,3.011258877813816071e-02,5.327079445123672485e-02,-7.773929275572299957e-03,4.439526051282882690e-02,2.645520865917205811e-02,1.268143858760595322e-02,-4.885524511337280273e-02,1.711733639240264893e-02,4.364379495382308960e-02,5.110901966691017151e-02,4.040065780282020569e-02,3.369848430156707764e-02,3.790606185793876648e-02,2.505196444690227509e-02,4.986472055315971375e-02,-7.106240093708038330e-02,1.591738313436508179e-02,-2.132145129144191742e-02,-4.454111307859420776e-02,3.568549826741218567e-02,6.488338857889175415e-02,5.057404562830924988e-02,9.099943190813064575e-02,2.099706605076789856e-02,4.086787998676300049e-02,-1.908156275749206543e-02,-4.489406570792198181e-02,1.832671090960502625e-02,4.805063828825950623e-02,-8.863736875355243683e-03,-2.878888277336955070e-03,8.930436521768569946e-02,1.801594533026218414e-02,-9.788274019956588745e-02,-8.757122606039047241e-02,6.347315013408660889e-02,-3.188031492754817009e-03,-5.806706100702285767e-02,5.336151923984289169e-03,-4.016593471169471741e-02,1.420551091432571411e-01,4.082018509507179260e-02,9.535976499319076538e-02,2.250098064541816711e-02,4.716290161013603210e-02,-1.704933121800422668e-03,4.856109246611595154e-02,5.340542644262313843e-02,4.988293163478374481e-03,-1.389175560325384140e-02,4.951123893260955811e-02,-9.141607210040092468e-03,7.110070902854204178e-03,-2.747747860848903656e-02,2.674011886119842529e-02,-1.914659398607909679e-03,-6.365257780998945236e-03,-3.630789928138256073e-03,-5.471205338835716248e-02,1.606001146137714386e-02,-4.142444208264350891e-02,4.381920769810676575e-02,-3.667536005377769470e-02,-1.641454920172691345e-02,3.698785975575447083e-02,-9.080041199922561646e-02,6.531948223710060120e-03,3.600266575813293457e-02,6.141953542828559875e-02,4.723889380693435669e-02,-6.706101447343826294e-02,4.721122235059738159e-02,-3.498351946473121643e-02,1.532452274113893509e-02,1.643198356032371521e-02,-6.120188534259796143e-02,3.749016299843788147e-02,-1.473741792142391205e-02,9.391850791871547699e-03,4.498630296438932419e-03,1.248168293386697769e-02,7.462324947118759155e-02,1.489272713661193848e-02,5.346079915761947632e-02,-8.184065669775009155e-02,-5.226703733205795288e-02,3.840910736471414566e-03,-5.964934080839157104e-02,-9.573025628924369812e-03,4.890499170869588852e-03,-1.059665437787771225e-02,-1.987023511901497841e-03,2.079993300139904022e-02,1.921814307570457458e-02,-3.459591791033744812e-02,-5.170207004994153976e-03,-1.437767781317234039e-02,-5.320150405168533325e-03,2.107666060328483582e-02,5.582670494914054871e-02,-3.492781519889831543e-02,4.000467061996459961e-02,8.921646326780319214e-02,4.335810616612434387e-02,6.523808836936950684e-02,3.836291655898094177e-02,2.481834776699542999e-02,5.974003113806247711e-03,7.919961214065551758e-02,4.238951951265335083e-02,-5.952777341008186340e-02,1.777357235550880432e-02,7.140459865331649780e-02,-5.573305115103721619e-02,5.244943499565124512e-02,4.860055446624755859e-02,1.848635962232947350e-03,4.139326885342597961e-02,1.828216202557086945e-02,3.652098402380943298e-02,3.363520279526710510e-02,-1.410692464560270309e-03,5.037609860301017761e-02,5.891268700361251831e-02,-4.374434705823659897e-03,2.304872497916221619e-03,6.139524746686220169e-03,3.663509339094161987e-02,-5.162215605378150940e-02,4.917933791875839233e-02,1.937144808471202850e-02,-4.377793520689010620e-02,-1.986486092209815979e-02,-5.281258374452590942e-02,-2.954030595719814301e-02,-1.605493128299713135e-01,8.168792352080345154e-03,-1.510874927043914795e-02,2.289802581071853638e-02,-6.869054585695266724e-02,-1.289940439164638519e-02,1.365966908633708954e-02,4.936710000038146973e-02,-7.220436632633209229e-02,-1.881518401205539703e-02,-8.253778517246246338e-02,-2.645565755665302277e-02,-4.146749526262283325e-02,-4.592271987348794937e-03,-1.410679705440998077e-02,-1.039314735680818558e-02,-5.335016921162605286e-02,1.769377477467060089e-02,4.176083207130432129e-02,-4.868308547884225845e-03,1.506945863366127014e-02,-3.606138378381729126e-02,-3.795035183429718018e-02,2.962328307330608368e-02,-6.396775692701339722e-02,1.054375767707824707e-01,-3.831216890830546618e-04,-5.199257284402847290e-02,-7.258572150021791458e-04,-3.350491821765899658e-02,-2.241676487028598785e-02,-8.353842794895172119e-02,-8.478587120771408081e-02,-3.557493165135383606e-02,8.767914958298206329e-03,3.005771897733211517e-02,-1.289462950080633163e-02,9.656628966331481934e-02,-2.537953108549118042e-02,-6.040868908166885376e-02,-2.611666545271873474e-02,-4.382022470235824585e-02,9.000445716083049774e-03,1.011963412165641785e-01,-3.292169654741883278e-03,-5.823490023612976074e-02,-2.559713646769523621e-02,4.367132484912872314e-02,4.657895490527153015e-02,6.531990948133170605e-04,-7.915332913398742676e-02,5.887386575341224670e-02,6.373476237058639526e-02,1.032150443643331528e-02,1.216399250552058220e-03,3.137902542948722839e-02,-2.001664042472839355e-02,6.248965859413146973e-02,-7.170878350734710693e-02,-1.915943063795566559e-02,4.719414189457893372e-02,8.439511805772781372e-02,7.311916560865938663e-04,6.505541503429412842e-02,-4.813257604837417603e-02,-3.143645823001861572e-02,-5.122501403093338013e-02,1.777417771518230438e-02,1.765134371817111969e-02,-8.806389570236206055e-02,-6.962332874536514282e-02,3.219295758754014969e-03,3.374932333827018738e-02,1.812193915247917175e-02,-1.483209338039159775e-02,-3.381793573498725891e-02,6.916687637567520142e-02,3.813004866242408752e-02,-9.644751437008380890e-03,1.223314702510833740e-01,-3.712784498929977417e-02,-2.076407708227634430e-02,-6.571443378925323486e-02,6.282781809568405151e-02,3.590547665953636169e-02,-1.185712404549121857e-02
2.686394564807415009e-02,2.818446792662143707e-02,-4.008706286549568176e-02,-1.910642534494400024e-02,-3.093937598168849945e-02,-3.221906721591949463e-02,-7.570957764983177185e-03,-3.430280461907386780e-02,-4.747090488672256470e-02,-5.458295345306396484e-02,3.755239397287368774e-02,-3.964435309171676636e-02,-1.132757589221000671e-01,-4.939122498035430908e-02,3.149345284327864647e-03,-7.490703463554382324e-02,-2.802004478871822357e-02,1.939279958605766296e-02,7.339921593666076660e-02,-1.110609471797943115e-01,-1.886601373553276062e-02,-9.121952205896377563e-02,-4.067084565758705139e-02,7.141187787055969238e-02,-8.724428713321685791e-02,2.367461659014225006e-02,1.260671019554138184e-01,5.575561523437500000e-02,-3.346940502524375916e-02,-3.543062135577201843e-02,5.624028388410806656e-03,-8.683424443006515503e-02,-6.843047589063644409e-02,-1.157036516815423965e-03,-2.137209376087412238e-04,-2.587488386780023575e-03,-2.343522012233734131e-02,3.689679875969886780e-02,2.567850798368453979e-02,-5.306715518236160278e-02,1.849045604467391968e-02,3.516340628266334534e-02,-1.900198310613632202e-02,6.890672445297241211e-02,-4.151244834065437317e-02,-7.141796499490737915e-02,-4.630444571375846863e-03,-2.000010386109352112e-02,2.509660646319389343e-02,-3.203495591878890991e-02,3.634335100650787354e-02,3.240888193249702454e-02,3.574960678815841675e-02,-1.650699041783809662e-02,3.308624401688575745e-02,1.033197995275259018e-02,6.154629215598106384e-02,9.175550192594528198e-02,1.435366924852132797e-02,-4.888403415679931641e-02,3.317049937322735786e-03,-1.033475971780717373e-03,3.395968675613403320e-02,1.652383059263229370e-02,5.939546599984169006e-02,-8.205633610486984253e-02,5.435724928975105286e-02,-4.727536067366600037e-02,-2.313244389370083809e-03,6.761005148291587830e-03,7.718092529103159904e-04,4.591920413076877594e-03,6.331924349069595337e-02,6.695786863565444946e-02,4.751212149858474731e-02,-4.360698536038398743e-02,9.097506408579647541e-04,-3.691493347287178040e-02,-5.162146314978599548e-02,-9.722127579152584076e-03,9.964267909526824951e-02,-5.251126363873481750e-02,2.855711057782173157e-02,-1.662274263799190521e-02,9.281751513481140137e-02,-9.955828078091144562e-03,3.378217667341232300e-02,9.748291224241256714e-02,-7.798796892166137695e-02,4.663438594434410334e-04,4.113458096981048584e-02,6.485594902187585831e-03,1.047501713037490845e-01,3.550167381763458252e-02,-1.290816068649291992e-02,6.022231280803680420e-02,4.540422931313514709e-02,2.844630554318428040e-02,-6.258618086576461792e-02,-1.161807030439376831e-02,-9.763703681528568268e-03,5.447379127144813538e-02,7.579562067985534668e-02,1.553759071975946426e-02,-2.385510690510272980e-02,-7.740257680416107178e-02,8.797869831323623657e-02,-5.186447128653526306e-02,2.383299171924591064e-02,2.043429017066955566e-02,-3.043828997761011124e-03,-1.096650585532188416e-02,-6.847056001424789429e-02,-2.291848696768283844e-02,-3.842976316809654236e-02,3.402650356292724609e-02,3.402067720890045166e-02,-3.211687132716178894e-02,-5.363807454705238342e-02,5.597112234681844711e-03,6.657923012971878052e-02,1.145507674664258957e-03,-5.426243692636489868e-02,8.259585499763488770e-02,-3.476052358746528625e-02,-2.873448096215724945e-02,-2.974925795570015907e-03,-1.613327674567699432e-02,8.329964242875576019e-03,1.285287551581859589e-02,9.498818218708038330e-02,-1.323305722326040268e-02,-4.965640604496002197e-02,1.426399685442447662e-02,9.752124547958374023e-02,4.365389421582221985e-02,-6.290993094444274902e-02,-8.501724153757095337e-02,3.464648127555847168e-02,-1.459100246429443359e-01,-7.412468641996383667e-02,-6.974588613957166672e-03,2.917414717376232147e-02,-4.685183987021446228e-02,2.531886845827102661e-02,-1.591699756681919098e-02,-3.220698609948158264e-02,8.937099575996398926e-02,2.769087068736553192e-02,4.912591539323329926e-03,-6.114165298640727997e-04,4.513388872146606445e-02,-1.107758209109306335e-01,1.091489940881729126e-01,5.590776726603507996e-02,3.558655455708503723e-02,-1.119836512953042984e-02,-2.719218656420707703e-02,-2.477267943322658539e-02,6.721162050962448120e-02,1.878668088465929031e-03,6.196284294128417969e-02,-9.689760394394397736e-03,-5.099949613213539124e-02,-8.005144447088241577e-02,2.774693816900253296e-02,6.561874598264694214e-02,1.987494528293609619e-02,2.373926714062690735e-02,5.290790274739265442e-02,1.426377706229686737e-02,6.512808054685592651e-02,4.367563233245164156e-04,-8.811683952808380127e-02,3.421438450459390879e-04,4.990842193365097046e-02,4.971635341644287109e-02,2.378211729228496552e-02,-4.117990657687187195e-02,1.846819184720516205e-02,-3.241626545786857605e-02,-5.574317276477813721e-02,1.236194279044866562e-02,-7.423760369420051575e-03,3.459759429097175598e-02,-3.415811806917190552e-02,1.139753311872482300e-02,8.469517529010772705e-02,-6.151083111763000488e-02,7.240790873765945435e-02,-2.914050780236721039e-02,9.381758980453014374e-03,9.882205165922641754e-03,7.676826789975166321e-03,-2.112998440861701965e-02,1.662695831328164786e-05,-8.356494829058647156e-03,-2.104995772242546082e-02,1.275558397173881531e-02,-2.508783340454101562e-02,6.834700703620910645e-03,3.574649570509791374e-03,2.379359444603323936e-03,-3.427806496620178223e-02,-8.822982199490070343e-04,-5.333212204277515411e-03,-5.151247978210449219e-02,6.384180486202239990e-02,5.208721384406089783e-02,-3.813834488391876221e-02,1.937926188111305237e-02,-7.215221878141164780e-03,-7.200548797845840454e-02,-2.460231818258762360e-02,2.787563577294349670e-02,4.171974956989288330e-02,-8.543708175420761108e-02,1.696470379829406738e-02,-5.859037116169929504e-02,-3.987494483590126038e-02,-6.931250542402267456e-02,2.348177880048751831e-02,6.690191477537155151e-02,4.718836396932601929e-02,4.126698523759841919e-02,-5.228646099567413330e-02,-4.779738932847976685e-02,8.278366178274154663e-02,-7.880546152591705322e-02,-4.139164835214614868e-02,6.354284472763538361e-03,-2.722526341676712036e-02,2.873114775866270065e-03,-1.192141324281692505e-02,-2.244005911052227020e-02,4.580580443143844604e-02,7.761928252875804901e-03,-3.345882892608642578e-02,-9.173288941383361816e-03,7.289228960871696472e-03,6.304055452346801758e-02,-3.489491343498229980e-02,-1.137907709926366806e-02,4.999839887022972107e-02,9.502626955509185791e-02,-1.006386205554008484e-01,2.940951846539974213e-02,5.011255294084548950e-02,4.269981011748313904e-02,3.598499344661831856e-03,-1.804992370307445526e-02,-8.913793414831161499e-02,4.613149911165237427e-03,-6.997256726026535034e-02,1.177815138362348080e-03,5.158434808254241943e-02,-8.816741406917572021e-02,4.721705615520477295e-02,3.297460824251174927e-02,-8.953724056482315063e-02,1.300963852554559708e-02,-4.225183650851249695e-02,-9.414958208799362183e-02,4.060739278793334961e-02,6.704768538475036621e-02,-2.832755260169506073e-02,6.074880436062812805e-02,1.312617398798465729e-02,-1.471037045121192932e-03,-8.955331146717071533e-02,5.561758950352668762e-02,5.567175894975662231e-02,-1.227517239749431610e-02
-6.644564867019653320e-02,2.880452759563922882e-02,3.453183174133300781e-02,-1.372714806348085403e-02,-1.020136475563049316e-01,-5.716363340616226196e-02,-1.434359848499298096e-01,-4.676849767565727234e-02,5.323009192943572998e-02,1.530407462269067764e-03,2.532753162086009979e-02,-6.970238685607910156e-02,1.027306076139211655e-02,-3.928877040743827820e-02,4.552797973155975342e-02,-8.065566420555114746e-02,-7.386385463178157806e-03,-2.082457952201366425e-02,1.135644596070051193e-02,-7.747015357017517090e-02,9.530765237286686897e-04,-4.435166716575622559e-02,-5.673226341605186462e-02,2.450425177812576294e-02,-9.884516708552837372e-03,7.850386202335357666e-02,1.128325685858726501e-01,5.342113599181175232e-02,2.387980185449123383e-02,-6.303279101848602295e-02,8.449923992156982422e-02,-4.331836476922035217e-02,-9.124705195426940918e-02,1.944376180063045467e-07,-1.364735607057809830e-02,-3.104531206190586090e-02,1.271651033312082291e-02,-1.472811773419380188e-02,5.728575866669416428e-03,-7.931860536336898804e-02,1.253143697977066040e-01,6.016532331705093384e-02,-6.907648593187332153e-02,-7.130885124206542969e-02,-4.880549386143684387e-02,-6.504050642251968384e-02,-8.070187270641326904e-02,1.634917594492435455e-02,4.000356793403625488e-02,-2.405580505728721619e-02,4.914236441254615784e-02,3.222903236746788025e-02,2.383173629641532898e-02,6.598702073097229004e-02,3.530741855502128601e-02,-2.025987207889556885e-02,-2.324374765157699585e-02,4.802718758583068848e-03,-1.222222577780485153e-02,1.835017651319503784e-02,1.800171099603176117e-03,2.866483479738235474e-02,6.282023340463638306e-02,3.948209807276725769e-02,4.498531296849250793e-02,-1.993864588439464569e-02,5.796385928988456726e-02,-5.741468444466590881e-02,2.820207737386226654e-02,-8.445126004517078400e-03,2.570515871047973633e-02,2.093510329723358154e-02,3.264043852686882019e-02,-1.512144692242145538e-03,2.738099358975887299e-02,-6.072833016514778137e-02,1.280457433313131332e-02,2.589168259873986244e-03,-7.744807284325361252e-03,-1.425304822623729706e-02,5.054010450839996338e-02,-2.432901039719581604e-02,1.807884424924850464e-01,-4.809487145394086838e-03,1.753015071153640747e-01,2.703307010233402252e-02,3.879800066351890564e-02,5.714616551995277405e-02,-2.446642145514488220e-02,-1.795058548450469971e-01,2.060936577618122101e-02,-1.554405223578214645e-02,9.491024166345596313e-02,8.212183415889739990e-02,-1.896323449909687042e-02,-2.724195644259452820e-02,3.936534374952316284e-02,-5.546539649367332458e-02,-7.215195801109075546e-03,-6.407920736819505692e-03,-1.171057019382715225e-02,3.092962503433227539e-02,-1.058362238109111786e-02,-3.216513199731707573e-03,7.878644019365310669e-02,-6.574875675141811371e-03,4.331557080149650574e-02,-5.104430764913558960e-02,-3.009721077978610992e-02,-5.204112455248832703e-02,-9.216711670160293579e-02,2.807631390169262886e-03,-1.031149644404649734e-02,8.402708172798156738e-02,6.312153488397598267e-02,5.691562220454216003e-02,7.439789921045303345e-02,-3.828752413392066956e-02,-5.689394474029541016e-02,7.253207266330718994e-02,5.741605907678604126e-02,-2.094046445563435555e-03,-6.346832960844039917e-02,6.044161692261695862e-02,-5.088803917169570923e-02,5.729870498180389404e-02,-8.503841608762741089e-02,-9.842358529567718506e-02,-3.725683316588401794e-02,8.499450981616973877e-02,-3.738945582881569862e-03,4.945454001426696777e-02,-1.128744035959243774e-01,7.112909853458404541e-02,8.425728976726531982e-02,6.209147721529006958e-02,-7.823066785931587219e-03,-9.232670068740844727e-02,3.838123008608818054e-02,-1.255915015935897827e-01,-2.476732991635799408e-02,6.555818766355514526e-02,-2.708979137241840363e-02,-1.073692832142114639e-02,-2.333816606551408768e-03,-4.034718149341642857e-04,-5.033815279603004456e-02,3.637468442320823669e-02,7.675126940011978149e-02,2.858441136777400970e-02,5.800659209489822388e-02,6.542424112558364868e-02,-5.218143016099929810e-02,9.013684093952178955e-02,1.318478211760520935e-02,4.932966083288192749e-02,-9.162175655364990234e-02,2.397232502698898315e-02,-1.812439225614070892e-02,-1.153310947120189667e-02,1.169459614902734756e-02,8.299037814140319824e-02,-1.256452314555644989e-02,-2.069500647485256195e-02,-1.788749732077121735e-02,3.068812191486358643e-02,-2.557379193603992462e-02,9.957670420408248901e-02,3.047980740666389465e-02,4.105353727936744690e-02,1.486535998992621899e-03,6.444066017866134644e-02,-1.250177063047885895e-02,-4.952555522322654724e-02,8.352668024599552155e-03,1.116504240781068802e-02,6.802902370691299438e-02,3.371334820985794067e-02,3.648669272661209106e-02,5.838187411427497864e-02,-1.448283642530441284e-01,7.272582501173019409e-02,3.728494048118591309e-02,-7.612475007772445679e-02,1.683319715084508061e-04,9.867141023278236389e-03,-2.075034566223621368e-02,5.185995250940322876e-02,-2.532578818500041962e-02,3.618704155087471008e-02,-1.649326086044311523e-02,6.964223086833953857e-02,-3.729539737105369568e-02,-5.355935916304588318e-02,7.442086189985275269e-02,-9.840791672468185425e-02,3.496230579912662506e-03,-6.088109686970710754e-02,2.584107033908367157e-02,-6.410087645053863525e-02,5.328161641955375671e-02,-7.293257117271423340e-02,-3.365676384419202805e-03,-7.992288470268249512e-02,-3.573724254965782166e-02,2.166973426938056946e-02,-4.361015930771827698e-02,5.419239774346351624e-02,2.195012196898460388e-02,-1.290111616253852844e-02,-1.377185457386076450e-03,-4.830976203083992004e-02,-1.032916270196437836e-02,3.182921558618545532e-02,-8.154564350843429565e-02,4.820128530263900757e-02,-6.343752890825271606e-02,2.251866832375526428e-02,-3.711602836847305298e-02,-9.893554449081420898e-02,-1.199843510985374451e-01,-9.900053031742572784e-03,3.270837292075157166e-02,1.384175419807434082e-01,2.238908968865871429e-02,-3.942587226629257202e-02,-4.646792262792587280e-02,4.489590227603912354e-02,6.708800327032804489e-03,6.492889486253261566e-03,9.005527198314666748e-02,1.177836209535598755e-02,2.364207059144973755e-02,6.189332809299230576e-03,-2.340079098939895630e-02,5.762438848614692688e-02,6.012196466326713562e-02,-9.467949718236923218e-02,-3.902892768383026123e-02,1.071968954056501389e-02,1.423739362508058548e-02,-2.019161731004714966e-02,-6.013761460781097412e-02,6.235099583864212036e-02,1.031962782144546509e-01,-6.814664602279663086e-02,4.093932360410690308e-02,9.066086262464523315e-03,5.936527252197265625e-02,-1.615126617252826691e-02,-9.132142364978790283e-02,-3.972714394330978394e-02,3.715217113494873047e-02,-2.477146685123443604e-02,1.165624242275953293e-02,-4.793232306838035583e-02,-6.349085271358489990e-02,5.829165130853652954e-02,1.054429914802312851e-02,-6.058624130673706532e-04,-1.142546907067298889e-02,1.080941967666149139e-02,-8.369648456573486328e-02,-6.606772541999816895e-03,6.267916411161422729e-03,-3.727495670318603516e-02,1.090861260890960693e-01,-7.150002568960189819e-02,-1.573884487152099609e-01,-7.850117236375808716e-02,5.561903864145278931e-02,9.845984727144241333e-02,-2.789253368973731995e-02
-1.156919598579406738e-01,2.902743406593799591e-02,3.979925438761711121e-02,-3.619944676756858826e-02,-1.261664927005767822e-01,-7.158667594194412231e-02,-9.671438485383987427e-02,-7.260754704475402832e-02,6.443790346384048462e-02,4.186776280403137207e-02,-1.956185698509216309e-02,-4.350818693637847900e-02,-4.882657527923583984e-02,1.678832620382308960e-02,-6.843878328800201416e-02,3.004510886967182159e-03,-1.632260344922542572e-02,-1.419312600046396255e-02,7.102961186319589615e-03,-9.026365727186203003e-02,-2.767719328403472900e-02,-1.228782907128334045e-02,1.533094700425863266e-02,9.824356436729431152e-02,-4.446035251021385193e-02,1.063879057765007019e-01,-2.252256125211715698e-02,9.821256995201110840e-02,1.963794347830116749e-04,-6.612323224544525146e-02,4.022756591439247131e-02,-1.137017533183097839e-01,2.651879331097006798e-03,-3.250494971871376038e-02,-4.719504341483116150e-02,-4.357257857918739319e-02,9.356366097927093506e-02,-6.887566298246383667e-02,-3.448434546589851379e-02,-7.979008555412292480e-02,1.146657913923263550e-01,1.002689301967620850e-01,-9.169793874025344849e-02,-3.766752779483795166e-02,-9.431903064250946045e-02,-5.580502003431320190e-02,-8.942589908838272095e-02,-1.652335375547409058e-02,5.879729986190795898e-02,-2.684088982641696930e-02,7.925000786781311035e-02,2.437698096036911011e-02,7.229440659284591675e-02,4.171003028750419617e-02,5.658641457557678223e-02,4.835904017090797424e-02,2.036876790225505829e-02,6.671278178691864014e-02,-2.583153173327445984e-02,2.279419824481010437e-02,-9.816803969442844391e-03,5.697729066014289856e-02,7.517953962087631226e-02,2.438662946224212646e-02,9.845878928899765015e-02,-7.261138875037431717e-03,4.284473508596420288e-02,5.071516707539558411e-02,-1.617567031644284725e-03,-1.956848055124282837e-02,2.643623203039169312e-02,1.453187316656112671e-02,4.598451405763626099e-02,-9.451799560338258743e-04,4.810108616948127747e-02,-9.051156230270862579e-03,2.650731801986694336e-02,-1.110922079533338547e-02,-6.972684711217880249e-02,-1.610806025564670563e-02,7.879933714866638184e-02,-5.887575820088386536e-02,2.061878517270088196e-02,4.156617075204849243e-02,4.677835851907730103e-02,-5.960610508918762207e-02,-3.789392486214637756e-02,1.112569123506546021e-01,1.957663148641586304e-02,-1.321069747209548950e-01,6.738660484552383423e-02,-9.693375974893569946e-02,1.039685532450675964e-01,7.593608647584915161e-02,3.632462024688720703e-02,-3.084461204707622528e-03,1.089390888810157776e-01,-6.258095800876617432e-02,4.829220101237297058e-02,-2.508191391825675964e-02,-8.050451055169105530e-03,6.600678432732820511e-03,3.557285666465759277e-02,6.799599621444940567e-03,6.226040050387382507e-02,-2.251252345740795135e-02,2.334209159016609192e-02,-1.593616232275962830e-02,-1.504665333777666092e-02,-6.503932923078536987e-02,-1.091988459229469299e-01,8.968167938292026520e-03,-7.609897106885910034e-02,1.644898764789104462e-02,8.509241789579391479e-02,6.684484332799911499e-02,5.454139783978462219e-02,2.460920624434947968e-02,-2.987822331488132477e-02,-3.026547143235802650e-03,-1.799726858735084534e-03,3.913290426135063171e-02,-6.586696952581405640e-02,6.342027336359024048e-02,1.602862775325775146e-02,4.716713353991508484e-02,-7.079464942216873169e-02,-5.826900154352188110e-02,1.892324420623481274e-03,8.857037127017974854e-02,8.594241738319396973e-02,-1.436839625239372253e-02,-4.495149105787277222e-02,8.795461058616638184e-02,7.146615535020828247e-02,6.171605736017227173e-02,-1.809021271765232086e-02,-1.031137034296989441e-01,5.092704668641090393e-02,-4.434972628951072693e-02,2.612709626555442810e-02,1.827347092330455780e-02,-2.933076582849025726e-02,-3.110014088451862335e-02,-1.686567626893520355e-02,1.076209265738725662e-02,-9.461840242147445679e-02,6.683745980262756348e-02,2.490312419831752777e-02,1.478987839072942734e-02,2.970116026699542999e-02,7.094113528728485107e-02,-6.444136053323745728e-02,7.002869248390197754e-02,4.217683151364326477e-02,9.067022055387496948e-02,-2.482613362371921539e-02,-7.931004464626312256e-02,-3.625973314046859741e-02,-1.455262419767677784e-03,7.682029157876968384e-02,1.072445958852767944e-01,7.290182169526815414e-03,-6.239567697048187256e-02,5.870021879673004150e-02,3.243988752365112305e-02,-4.544012481346726418e-04,4.966896027326583862e-02,1.480324566364288330e-02,3.475282341241836548e-02,-2.276652865111827850e-02,9.655271470546722412e-02,4.823608323931694031e-02,-4.036440327763557434e-02,6.619466841220855713e-02,1.218030788004398346e-02,1.092329993844032288e-01,1.158895716071128845e-02,5.770655348896980286e-02,8.169092237949371338e-02,-1.572453379631042480e-01,-1.142764929682016373e-02,1.663228683173656464e-02,-1.350727770477533340e-02,5.698746815323829651e-02,-1.241477299481630325e-02,1.645251549780368805e-02,-1.723784394562244415e-02,-2.625340712256729603e-04,3.769901022315025330e-02,1.929883472621440887e-02,-1.796809025108814240e-02,-1.016090810298919678e-02,2.012843079864978790e-02,8.804658800363540649e-02,-4.363218694925308228e-02,1.617617718875408173e-02,-5.846248194575309753e-02,-4.389469698071479797e-02,-5.874969065189361572e-02,3.977429494261741638e-02,-2.677844278514385223e-02,-1.052550375461578369e-01,4.221582319587469101e-03,-7.921006530523300171e-02,-1.663151010870933533e-02,-5.867935344576835632e-02,7.637040317058563232e-02,3.111980855464935303e-02,2.550103887915611267e-02,2.380672842264175415e-03,-6.637716293334960938e-02,3.690262511372566223e-02,-3.502668812870979309e-02,-3.910298645496368408e-02,6.870552897453308105e-02,-5.343807116150856018e-02,1.850167661905288696e-02,-5.955088138580322266e-02,-8.375783264636993408e-02,-1.050544828176498413e-01,4.974533617496490479e-02,-5.024235695600509644e-03,1.173018738627433777e-01,2.935829199850559235e-02,-4.938970506191253662e-02,-3.247209638357162476e-02,-1.652111532166600227e-03,-2.181625925004482269e-02,-2.380354888737201691e-02,1.084844246506690979e-01,5.151288351044058800e-04,-8.608947508037090302e-03,-1.658591628074645996e-02,-1.486355811357498169e-02,2.022770047187805176e-02,1.226269546896219254e-02,-1.015068069100379944e-01,-2.074883505702018738e-02,-3.033902123570442200e-02,8.458471298217773438e-02,-6.417192518711090088e-02,-1.890773139894008636e-02,4.116757959127426147e-02,8.338373154401779175e-02,-1.228561848402023315e-01,2.458882518112659454e-02,5.216780304908752441e-02,6.582866609096527100e-02,-1.078772265464067459e-02,-4.409798607230186462e-02,-1.197605952620506287e-01,-8.580397814512252808e-03,-5.545420572161674500e-03,-1.548954378813505173e-02,-7.441349327564239502e-02,-6.641164422035217285e-02,-3.906471654772758484e-02,6.143194437026977539e-02,1.663049496710300446e-02,2.808723226189613342e-02,-4.296794161200523376e-02,-9.086056798696517944e-02,1.825601793825626373e-02,5.816496908664703369e-03,5.271953716874122620e-02,6.260522454977035522e-02,-8.688320219516754150e-02,-1.066713333129882812e-01,-7.789464294910430908e-02,6.561226677149534225e-03,5.863865092396736145e-02,-4.201423376798629761e-02
-7.359141111373901367e-02,4.304935038089752197e-02,-3.112802049145102501e-03,-4.646177962422370911e-02,-1.086928546428680420e-01,-1.276234239339828491e-01,-4.797795787453651428e-02,-7.999618351459503174e-02,3.033109381794929504e-02,-3.649302059784531593e-03,-7.116508483886718750e-02,-9.455095278099179268e-04,-1.178285665810108185e-02,3.876071050763130188e-02,-3.229926899075508118e-02,-3.640709444880485535e-02,-1.651434227824211121e-02,-4.015962127596139908e-03,-3.783124312758445740e-02,-4.657774418592453003e-02,-4.562534391880035400e-02,4.187654703855514526e-03,-4.148665443062782288e-02,7.317829132080078125e-02,-2.746799727901816368e-03,8.386296778917312622e-02,-1.189896371215581894e-02,1.274574920535087585e-02,-2.178427204489707947e-02,-1.024475768208503723e-01,2.158348262310028076e-02,-1.968449167907238007e-02,1.292529236525297165e-02,-4.172067716717720032e-02,-8.533522486686706543e-02,-9.768226183950901031e-03,8.379109203815460205e-02,-3.355103358626365662e-02,-5.086328089237213135e-02,-9.125956147909164429e-02,6.225400790572166443e-02,6.688970327377319336e-02,-7.702930271625518799e-02,-2.687332034111022949e-02,9.845818392932415009e-03,-4.527742415666580200e-02,-4.538045451045036316e-02,-8.035520464181900024e-02,4.016054794192314148e-02,-6.450350861996412277e-03,7.412841171026229858e-02,5.817481502890586853e-02,-1.254662778228521347e-02,7.095636427402496338e-02,8.500489592552185059e-02,-1.080963760614395142e-02,6.077372003346681595e-03,3.891626000404357910e-02,1.347539480775594711e-02,1.915110833942890167e-02,2.800480928272008896e-03,2.645988017320632935e-02,2.124314568936824799e-02,-2.930940315127372742e-02,9.717033058404922485e-02,-2.891276217997074127e-02,9.608213603496551514e-02,1.858070865273475647e-02,2.475521061569452286e-03,-2.141175419092178345e-02,4.166775569319725037e-02,-3.923025354743003845e-02,3.611297905445098877e-02,-5.494325235486030579e-02,-8.656308986246585846e-03,1.740148290991783142e-02,-6.556477397680282593e-02,-1.837767288088798523e-02,-3.421298041939735413e-02,-3.333940729498863220e-02,4.806815087795257568e-02,-5.113535374402999878e-02,-9.078442119061946869e-03,4.007345065474510193e-02,4.971382021903991699e-02,-1.806865446269512177e-02,6.603542249649763107e-03,1.078091040253639221e-01,5.650814995169639587e-02,-1.870973557233810425e-01,7.438164204359054565e-02,-1.763872988522052765e-02,8.879242092370986938e-02,7.143288105726242065e-02,1.383068878203630447e-02,-4.715891554951667786e-02,1.020946353673934937e-01,-5.183260515332221985e-02,4.770002886652946472e-02,-3.241013363003730774e-02,-6.508123595267534256e-03,4.961818922311067581e-03,4.875293001532554626e-03,4.253701493144035339e-02,4.837676137685775757e-02,-5.225482862442731857e-03,8.879062533378601074e-02,7.505182921886444092e-02,-1.248697936534881592e-02,-8.189226686954498291e-02,-6.814865022897720337e-02,-1.316523272544145584e-02,-6.335015594959259033e-02,3.430623561143875122e-02,9.008415788412094116e-02,5.157998949289321899e-02,8.125807344913482666e-02,1.018158253282308578e-02,7.522403448820114136e-02,-2.930913493037223816e-02,-3.832767158746719360e-02,8.487168699502944946e-02,-6.070541217923164368e-02,5.900902673602104187e-02,3.273198753595352173e-02,9.363494813442230225e-02,-1.048390120267868042e-01,-1.602648384869098663e-02,-1.509057078510522842e-02,8.775737136602401733e-02,1.057320535182952881e-01,-5.879244953393936157e-02,1.570013910531997681e-02,9.410796314477920532e-02,6.766676902770996094e-02,2.576226741075515747e-02,4.540690034627914429e-02,-5.940315872430801392e-02,7.345169782638549805e-02,-1.546239480376243591e-02,-4.288807883858680725e-02,-3.812033683061599731e-02,-7.578174769878387451e-02,-2.163758128881454468e-02,7.397017441689968109e-03,3.302068263292312622e-02,-8.769483864307403564e-02,8.825467526912689209e-02,6.145690008997917175e-02,8.183497935533523560e-03,8.227425813674926758e-02,1.355522722005844116e-01,-9.713190048933029175e-02,3.169055655598640442e-02,3.978636860847473145e-02,8.707299828529357910e-02,-7.541199773550033569e-02,-5.245770141482353210e-02,-8.271069079637527466e-02,2.047066204249858856e-02,6.315343081951141357e-02,7.376223057508468628e-02,2.501322515308856964e-02,-9.413227438926696777e-03,-2.632915275171399117e-03,2.585159428417682648e-02,1.085201930254697800e-02,3.788771107792854309e-02,-5.926202517002820969e-03,3.454305231571197510e-02,-2.103764377534389496e-02,1.222380176186561584e-01,-9.322147816419601440e-03,-1.259633433073759079e-02,9.512716531753540039e-02,-5.264806095510721207e-03,1.120448634028434753e-01,-1.693784445524215698e-02,7.869598269462585449e-02,7.399013638496398926e-02,-9.934040904045104980e-02,2.143344283103942871e-02,4.502530395984649658e-02,-7.096495945006608963e-03,8.055757731199264526e-02,-2.616354450583457947e-02,3.458611667156219482e-02,4.593182820826768875e-03,-4.983669350622221828e-05,1.086331438273191452e-02,6.268389523029327393e-03,-3.487265855073928833e-02,2.547871135175228119e-02,2.256550081074237823e-02,1.114244163036346436e-01,1.441701594740152359e-02,-1.357726473361253738e-02,-5.785355344414710999e-02,-4.984975233674049377e-02,-6.500688195228576660e-02,6.183413416147232056e-02,-2.969123609364032745e-02,-1.418060213327407837e-01,2.576596476137638092e-02,-1.056351810693740845e-01,-1.298322156071662903e-02,-1.176177710294723511e-01,4.943297803401947021e-02,-3.387672081589698792e-02,5.976950749754905701e-03,-1.490491069853305817e-02,-6.000496447086334229e-02,1.303443592041730881e-02,-5.492890253663063049e-02,-1.987263932824134827e-02,6.571781635284423828e-02,-7.813551276922225952e-02,2.574098110198974609e-02,-7.577286660671234131e-02,-1.235561147332191467e-01,-1.108926162123680115e-01,2.016112022101879120e-02,7.499139010906219482e-02,1.589888334274291992e-01,5.371813103556632996e-02,-8.166414685547351837e-03,-4.796355590224266052e-02,1.067083235830068588e-02,4.764256253838539124e-02,-1.000286340713500977e-01,6.484794616699218750e-02,-2.379437442868947983e-03,-1.217466313391923904e-02,-7.162673398852348328e-03,-5.578308925032615662e-02,-6.812059879302978516e-02,-1.206262316554784775e-02,-7.849403470754623413e-02,-1.437208522111177444e-02,-2.672146633267402649e-02,6.920433044433593750e-02,-7.659099996089935303e-02,-1.331843901425600052e-02,7.572837918996810913e-02,9.993398934602737427e-02,-7.904437184333801270e-02,3.434798493981361389e-02,5.432017147541046143e-02,5.641902238130569458e-02,2.158608473837375641e-02,-1.919159479439258575e-02,-8.534108102321624756e-02,-2.191108651459217072e-02,-1.611604541540145874e-02,-2.550506219267845154e-02,-2.191651053726673126e-02,-5.507171526551246643e-02,-3.361401334404945374e-02,1.826749555766582489e-02,2.563168667256832123e-02,4.227234423160552979e-02,-6.237157806754112244e-02,-7.077992707490921021e-02,1.046646479517221451e-02,-4.970683157444000244e-02,7.753288745880126953e-02,4.739934578537940979e-02,-1.142231673002243042e-01,-8.411338180303573608e-02,-8.195857703685760498e-02,-7.881202735006809235e-03,2.463825792074203491e-02,-1.015383377671241760e-02
