-1.229202916874783114e-05,1.689035911113023758e-03,-2.646560096764005721e-05,1.624850905500352383e-03,3.113395534455776215e-03,-1.248278713319450617e-04,-1.505968393757939339e-03,-2.822905313223600388e-03,-3.013865170942153782e-05,-2.366478787735104561e-03,1.517613185569643974e-03,-1.883741060737520456e-04,4.344946864875964820e-05,5.984585732221603394e-05,-5.651976152876159176e-06,1.448839338991092518e-05,1.697222032817080617e-04,-1.919109490700066090e-03,1.282222074223682284e-04,-5.859584052814170718e-05,-1.257812255062162876e-04,-1.031752035487443209e-04,1.267846673727035522e-03,3.282100195065140724e-03,2.585836220532655716e-03,2.490450162440538406e-03,-2.484204305801540613e-04,-1.475837198086082935e-03,-3.758719423785805702e-03,2.264065435156226158e-03,-2.117325493600219488e-05,-3.069971920922398567e-03,-1.295546418987214565e-03,-1.350858714431524277e-03,2.162025339202955365e-04,-2.482312964275479317e-03,-2.453109345879056491e-06,3.501690343910013326e-06,-3.007681516464799643e-04,-2.679429948329925537e-03,1.923219766467809677e-03,2.599758488486259012e-07,2.123250626027584076e-03,-1.975551567738875747e-04,9.318866068497300148e-05,-1.886941208795178682e-05,3.653426392702385783e-05,-6.650642899330705404e-05,-5.783266533399000764e-05,-5.262984268483705819e-05,-3.666152711957693100e-03,-1.227023778483271599e-03,-7.573323091492056847e-05,1.422935980372130871e-03,-1.981364097446203232e-03,-6.674756878055632114e-05,-6.095141088735545054e-06,3.347034362377598882e-05,-3.877673952956683934e-05,-9.829024929786100984e-05,-7.530282891821116209e-05,-2.537372754886746407e-03,-1.793203875422477722e-03,6.156015297165140510e-05,-2.520598936825990677e-03,2.395262708887457848e-03,-5.439062442746944726e-05,6.348959868773818016e-05,9.460638975724577904e-04,7.456073217326775193e-05,-5.796516416012309492e-05,1.202327912324108183e-04,-1.029098784783855081e-04,8.738187170820310712e-05,-2.348178066313266754e-03,6.812604988226667047e-05,2.570231736171990633e-04,4.219607944833114743e-06,2.036140300333499908e-03,2.923262582044117153e-05,-8.861872629495337605e-05,1.838383963331580162e-03,-2.097600838169455528e-03,-2.133264439180493355e-03,1.404696609824895859e-03,-1.518757635494694114e-04,1.289749488933011889e-04,-9.883898746920749545e-05,-2.079529920592904091e-03,6.133558053988963366e-05,-1.365283678751438856e-04,-2.486274112015962601e-03,-2.189529128372669220e-03,1.882264223240781575e-05,7.864111103117465973e-05,-2.701456196518847719e-06,1.697756699286401272e-03,2.027055481448769569e-03,-2.309299816261045635e-05,4.724677419289946556e-04,2.449852647259831429e-03,2.212394494563341141e-03,1.442754582967609167e-04,1.910731407406274229e-05,1.474392629461362958e-04,-2.472712891176342964e-03,2.530723577365279198e-03,5.217089346842840314e-05,1.051804632879793644e-03,-5.626731945085339248e-05
7.144049741327762604e-04,-5.260997265577316284e-02,4.540414735674858093e-02,2.806888148188591003e-02,-1.235745549201965332e-01,-4.954364523291587830e-02,-3.524519503116607666e-02,1.249036639928817749e-01,-3.576549515128135681e-02,8.408411592245101929e-02,1.065553072839975357e-02,4.252135287970304489e-03,-1.134524401277303696e-02,-2.375352010130882263e-02,2.715877257287502289e-02,-2.739639952778816223e-02,-5.094229802489280701e-02,-6.904321908950805664e-02,-6.352994590997695923e-02,-1.482026651501655579e-02,3.603935614228248596e-02,1.078904978930950165e-02,-1.491943467408418655e-02,-1.376054808497428894e-02,1.748666912317276001e-02,-1.856095641851425171e-01,1.960390619933605194e-02,6.111167669296264648e-01,-4.137872159481048584e-02,4.767469689249992371e-02,-2.720939368009567261e-02,6.644976884126663208e-02,1.373783200979232788e-01,4.712795466184616089e-02,-7.966589927673339844e-02,6.462059170007705688e-02,1.144473999738693237e-02,-3.762164711952209473e-02,-2.866328135132789612e-02,-5.290866270661354065e-02,-6.584030389785766602e-01,3.098627924919128418e-02,1.025848761200904846e-01,-4.335654899477958679e-02,-4.174879193305969238e-02,1.922627538442611694e-02,-5.205972120165824890e-02,5.599626526236534119e-02,-7.515463512390851974e-03,1.130198594182729721e-02,6.841859221458435059e-02,5.559488534927368164e-01,5.986083298921585083e-02,-5.174093842506408691e-01,2.459338009357452393e-01,-2.720289304852485657e-02,-1.843482069671154022e-02,-5.009755864739418030e-02,6.716819014400243759e-03,-3.957122936844825745e-02,-1.343170646578073502e-02,-5.808340758085250854e-02,1.028288900852203369e-01,-6.392279267311096191e-02,3.471716493368148804e-02,-2.960172891616821289e-01,-2.251215279102325439e-02,1.104677002876996994e-02,-4.503274802118539810e-03,1.240759063512086868e-02,-2.039353735744953156e-02,5.863495916128158569e-02,-2.923381514847278595e-02,6.360859610140323639e-03,3.730611060746014118e-04,9.673604741692543030e-03,3.083530440926551819e-02,-5.099222809076309204e-02,1.875543594360351562e-02,1.894710399210453033e-02,-2.069007977843284607e-02,-7.784939836710691452e-03,-1.185303181409835815e-01,-7.095694541931152344e-02,1.031325737130828202e-04,-1.987528242170810699e-02,3.070177137851715088e-02,-1.187813904834911227e-04,9.214215911924839020e-03,4.436805471777915955e-02,3.135688975453376770e-02,-1.005980819463729858e-01,1.000000000000000000e+00,1.023953687399625778e-02,-1.149480510503053665e-02,-3.194943815469741821e-02,-6.563921570777893066e-01,-4.026693999767303467e-01,9.036760777235031128e-03,-8.128041774034500122e-02,-8.534598350524902344e-02,-8.459609150886535645e-01,1.365455612540245056e-02,1.916049234569072723e-02,5.094643309712409973e-02,4.081193357706069946e-02,-3.081615455448627472e-02,-2.243673801422119141e-02,-1.197965932078659534e-03,-2.247083559632301331e-02
5.183395463973283768e-03,-4.964904114603996277e-02,2.403092756867408752e-02,2.171342819929122925e-02,5.917620658874511719e-02,-3.090577200055122375e-02,-1.616559363901615143e-02,2.318427152931690216e-02,-3.707953914999961853e-02,2.234392799437046051e-02,2.591018937528133392e-02,7.115839514881372452e-03,-1.254170946776866913e-02,5.229771137237548828e-03,2.529108524322509766e-02,-2.441228367388248444e-03,-4.941802844405174255e-02,-6.003904342651367188e-02,-5.923835933208465576e-02,1.316590793430805206e-02,1.936670951545238495e-02,-1.447740197181701660e-02,-3.595136571675539017e-03,-9.013226255774497986e-03,-1.079023107886314392e-01,-9.860282763838768005e-03,-2.047695219516754150e-02,2.083735167980194092e-01,-2.730402350425720215e-02,3.232941031455993652e-03,-2.334048599004745483e-02,-4.889231640845537186e-03,1.939432322978973389e-01,-5.829933099448680878e-03,-3.011783957481384277e-02,4.687929153442382812e-02,3.897724673151969910e-02,-1.016508694738149643e-02,5.305649247020483017e-04,1.646129996515810490e-03,-2.771380841732025146e-01,5.431001074612140656e-03,6.639682687819004059e-03,-8.732880465686321259e-03,-4.163787513971328735e-02,3.148553520441055298e-02,-1.409531384706497192e-02,3.402018174529075623e-02,-2.325375331565737724e-03,1.372981001622974873e-03,-1.232922635972499847e-02,-7.098392844200134277e-01,6.158137694001197815e-02,-4.180667102336883545e-01,9.336909651756286621e-02,-1.441633794456720352e-02,-2.013557590544223785e-02,-3.161855041980743408e-02,-8.929724805057048798e-03,-2.695692330598831177e-02,-1.123059913516044617e-02,-1.481346692889928818e-02,-2.129305154085159302e-02,-3.800736740231513977e-02,1.238061953336000443e-02,5.540955066680908203e-02,-1.645169034600257874e-02,2.134505845606327057e-02,3.393020853400230408e-02,1.472024247050285339e-02,-2.942790836095809937e-02,4.510068893432617188e-02,-2.916004322469234467e-02,3.165931627154350281e-02,2.224802225828170776e-02,-5.029933992773294449e-03,2.953905845060944557e-03,-2.281455695629119873e-02,-2.516073361039161682e-02,1.346291787922382355e-02,-1.050783693790435791e-02,-1.570287495851516724e-01,-1.908743530511856079e-01,3.244557185098528862e-03,-2.400901168584823608e-01,-1.510180905461311340e-02,2.735132351517677307e-02,8.709198795258998871e-03,1.795675233006477356e-02,3.835849463939666748e-02,2.131627500057220459e-02,-5.337515845894813538e-02,7.783057540655136108e-02,1.846921164542436600e-03,-1.342506799846887589e-02,-4.298641905188560486e-02,2.621430158615112305e-01,-3.803726285696029663e-02,1.170901022851467133e-02,-6.359541788697242737e-03,7.197822630405426025e-02,1.953828148543834686e-02,-1.914514973759651184e-02,7.981027476489543915e-03,3.138996288180351257e-02,1.226535299792885780e-03,1.557203195989131927e-02,-3.123468346893787384e-02,1.187859009951353073e-02,-3.537388518452644348e-02
1.053407322615385056e-03,-1.482149586081504822e-02,1.247635111212730408e-02,-1.449475716799497604e-02,-1.865687966346740723e-02,-9.586629457771778107e-03,5.725907627493143082e-03,-1.835344918072223663e-02,-1.079716626554727554e-02,-9.014325041789561510e-05,-2.220318652689456940e-02,1.741869025863707066e-03,-8.724913932383060455e-03,-3.962724469602108002e-03,4.437342868186533451e-04,-1.309178397059440613e-02,-1.361884525977075100e-03,5.858525168150663376e-03,-1.888652704656124115e-02,1.811091089621186256e-03,7.742190500721335411e-04,1.291239168494939804e-02,-2.384128794074058533e-02,3.010020591318607330e-02,-1.509591788053512573e-01,-8.675912022590637207e-02,3.647643700242042542e-02,-3.688778877258300781e-01,7.733882521279156208e-04,4.471423476934432983e-02,-7.584798615425825119e-03,2.724284119904041290e-02,-2.997680604457855225e-01,4.589159041643142700e-02,-2.532668411731719971e-02,-3.316655755043029785e-02,1.014425326138734818e-02,7.866061641834676266e-04,-2.380325458943843842e-03,-5.737552419304847717e-02,3.934927880764007568e-01,8.144735475070774555e-04,7.456366717815399170e-02,-1.702026836574077606e-02,-8.969194255769252777e-03,3.639833768829703331e-03,-8.924866095185279846e-03,1.932548359036445618e-02,-6.644552107900381088e-03,6.607861723750829697e-03,3.238375857472419739e-02,1.769098788499832153e-01,1.533607207238674164e-02,8.086600899696350098e-02,1.713022738695144653e-01,7.594991941004991531e-03,8.301442721858620644e-04,-2.076957002282142639e-02,8.686849847435951233e-03,-5.456359125673770905e-03,5.953422747552394867e-03,-2.433045022189617157e-02,1.677661947906017303e-02,-1.296271197497844696e-02,1.030850224196910858e-02,-5.719614773988723755e-02,-2.709036925807595253e-03,-3.076329128816723824e-03,4.480640869587659836e-03,3.893423359841108322e-03,-3.461268730461597443e-03,7.118696812540292740e-03,-5.987996235489845276e-03,5.311200511641800404e-04,-2.138370648026466370e-02,2.149356529116630554e-03,-9.420811547897756100e-04,-8.276489679701626301e-04,3.848594427108764648e-02,2.672700444236397743e-03,4.774637054651975632e-03,-5.899711698293685913e-02,1.010706499218940735e-01,-6.516195088624954224e-02,1.082880347967147827e-01,6.074325647205114365e-03,6.288502831012010574e-03,-2.466574776917695999e-03,-2.761293053627014160e-01,1.113693416118621826e-02,-4.742393735796213150e-03,-5.889338441193103790e-03,1.843821257352828979e-01,-3.458999563008546829e-03,9.803866269066929817e-04,-6.656522862613201141e-03,-3.643957972526550293e-01,-3.959091603755950928e-01,-4.737765993922948837e-04,-4.282202199101448059e-02,-4.330566618591547012e-03,7.267335802316665649e-02,-5.683262366801500320e-03,8.200725540518760681e-03,1.844674721360206604e-02,4.119629506021738052e-03,-1.492159161716699600e-02,-4.110593814402818680e-03,-3.370432183146476746e-02,-5.487137939780950546e-03
1.897811191156506538e-03,4.399461671710014343e-03,2.530985279008746147e-03,1.935541816055774689e-02,3.360887244343757629e-02,-5.540454294532537460e-03,-2.037205174565315247e-02,1.171156298369169235e-02,-1.607641461305320263e-03,-1.060604304075241089e-02,2.596879750490188599e-02,5.835368763655424118e-03,3.227998502552509308e-03,-1.006235368549823761e-02,-1.231500995345413685e-03,-2.055460208794102073e-04,-6.941538886167109013e-04,4.111863300204277039e-02,1.489860704168677330e-03,-1.145064644515514374e-02,4.859725479036569595e-03,4.339521285146474838e-03,1.829459331929683685e-02,-1.325811352580785751e-02,1.464227885007858276e-01,-7.172621786594390869e-02,-6.863390444777905941e-04,3.471777215600013733e-02,-3.039794415235519409e-02,-3.351153805851936340e-03,4.159961827099323273e-03,7.876615971326828003e-03,-1.025955304503440857e-01,-8.984831161797046661e-03,7.494394201785326004e-03,1.881623058579862118e-03,-3.062552423216402531e-04,-7.188215851783752441e-03,6.629633135162293911e-04,3.527566045522689819e-02,2.357604913413524628e-03,2.452994231134653091e-03,-1.705544814467430115e-02,-6.816351320594549179e-03,-3.052211832255125046e-05,-1.066166325472295284e-03,-1.173399388790130615e-02,2.336762612685561180e-03,2.004015259444713593e-03,6.322367116808891296e-04,-5.317121278494596481e-03,-2.344057522714138031e-02,-5.933845881372690201e-03,-7.853595167398452759e-02,-6.196850165724754333e-02,-7.493704324588179588e-04,-3.849718777928501368e-04,-1.112929778173565865e-03,-1.525747706182301044e-03,-5.834535695612430573e-03,-7.628405932337045670e-03,3.866648301482200623e-02,2.417159266769886017e-04,-5.098943598568439484e-03,-1.929050486069172621e-04,-5.975668132305145264e-02,8.760343189351260662e-04,2.392809139564633369e-03,-5.921872332692146301e-02,9.587902575731277466e-03,1.756132813170552254e-03,2.292456803843379021e-03,-1.471429131925106049e-03,-3.719963133335113525e-03,3.004175983369350433e-02,9.028918109834194183e-03,6.740625016391277313e-03,-1.456343452446162701e-03,2.024903334677219391e-02,5.249544978141784668e-03,7.682588882744312286e-03,2.917928621172904968e-03,-3.554622828960418701e-02,2.175138331949710846e-02,-6.554920971393585205e-02,5.263390950858592987e-03,-1.139103202149271965e-03,-1.447725575417280197e-03,1.660468429327011108e-01,4.589265212416648865e-03,-4.548639990389347076e-03,-4.027808085083961487e-02,-6.029624864459037781e-02,-2.001701388508081436e-03,7.170562166720628738e-03,4.705265164375305176e-03,-5.151796713471412659e-02,1.596496403217315674e-01,3.201750339940190315e-03,5.247136112302541733e-03,-1.096487883478403091e-02,-3.704778477549552917e-02,9.918966330587863922e-03,1.915446628117933869e-04,1.803763210773468018e-03,2.048718975856900215e-03,8.076305501163005829e-03,-7.896745228208601475e-04,9.572733193635940552e-03,3.792895004153251648e-03
-2.390119516348931938e-05,-1.610930194146931171e-03,1.015647314488887787e-03,-1.651521399617195129e-02,-2.178471535444259644e-02,-5.676633445546030998e-04,1.529950741678476334e-02,-2.117329044267535210e-03,-2.545287599787116051e-03,1.850644871592521667e-02,1.492772280471399426e-04,2.989075845107436180e-03,-3.799128346145153046e-03,5.566173058468848467e-05,1.707252580672502518e-03,-3.196822945028543472e-03,3.132739337161183357e-03,-4.554216563701629639e-02,4.289622884243726730e-03,-9.350300766527652740e-03,3.583603305742144585e-03,2.288173418492078781e-03,-5.444748676382005215e-04,-9.469592943787574768e-03,1.118567306548357010e-02,4.154083132743835449e-02,-1.020383904688060284e-03,4.394681751728057861e-02,1.434384472668170929e-02,-4.851769655942916870e-02,-3.830252215266227722e-03,-1.220043748617172241e-02,3.871749341487884521e-02,7.427436765283346176e-03,-1.387005485594272614e-02,1.806881651282310486e-02,-3.738256404176354408e-03,-3.600133932195603848e-04,3.694295184686779976e-03,-3.101245034486055374e-03,-1.160727813839912415e-02,1.762233558110892773e-03,-5.254482966847717762e-04,2.092142589390277863e-03,-3.791985101997852325e-03,-7.813552394509315491e-03,1.652265782468020916e-03,-1.915177563205361366e-03,-5.441485554911196232e-04,3.135060658678412437e-03,6.692794850096106529e-04,-1.909917034208774567e-02,-1.483341446146368980e-03,-4.692114889621734619e-03,-1.536515541374683380e-02,-3.758264705538749695e-03,-2.437691669911146164e-03,2.072238363325595856e-03,7.439883891493082047e-03,-1.476911711506545544e-03,3.583641955628991127e-03,-3.796372562646865845e-02,5.300809862092137337e-04,6.401317659765481949e-03,8.721926133148372173e-05,-4.053106158971786499e-02,8.478675736114382744e-04,-1.621840987354516983e-03,-2.219540253281593323e-02,5.049513652920722961e-03,1.874634530395269394e-03,-9.089258965104818344e-04,1.975880732061341405e-04,-5.969599355012178421e-03,5.999877676367759705e-02,-6.756464135833084583e-04,-9.326763101853430271e-04,-3.899491857737302780e-03,8.103626966476440430e-02,1.081328722648322582e-03,8.886028081178665161e-04,-1.121256034821271896e-03,3.584551438689231873e-02,-9.872354567050933838e-03,-6.746323779225349426e-03,-5.722635542042553425e-04,6.474099354818463326e-04,2.251775877084583044e-04,-3.116954118013381958e-02,2.194463449995964766e-04,3.998489584773778915e-03,3.578579053282737732e-02,-2.726355334743857384e-03,7.445812225341796875e-04,-1.748906448483467102e-03,1.006516395136713982e-03,1.437587291002273560e-02,-5.923323798924684525e-03,4.841596819460391998e-03,7.174739730544388294e-04,2.572379261255264282e-02,3.766812011599540710e-02,-8.777206530794501305e-04,3.581736003980040550e-03,-7.439985638484358788e-04,3.033004468306899071e-03,-8.302109315991401672e-03,-8.951691561378538609e-04,1.376042608171701431e-02,1.745499903336167336e-03
6.068194124964065850e-05,-1.113226916640996933e-02,4.209769889712333679e-03,1.582496985793113708e-02,-3.413519263267517090e-02,-2.878492930904030800e-03,-2.616623416543006897e-03,6.849766243249177933e-03,-2.402481622993946075e-03,-4.492657724767923355e-03,2.871327335014939308e-03,5.845645864610560238e-05,-1.589969149790704250e-03,1.304162316955626011e-03,-1.183300395496189594e-03,-1.135677797719836235e-03,-2.296601742273196578e-04,9.729829616844654083e-03,4.294831596780568361e-04,-2.166036283597350121e-03,2.422173740342259407e-03,-7.903907098807394505e-04,-1.280069258064031601e-02,4.045426100492477417e-02,4.967822879552841187e-02,2.728886157274246216e-02,-5.014023277908563614e-03,-1.355131417512893677e-01,-7.167503703385591507e-03,-1.661302335560321808e-02,-1.936077023856341839e-03,5.265652388334274292e-02,3.271552734076976776e-03,-5.135247949510812759e-03,-2.606447087600827217e-03,9.110085666179656982e-03,4.008975811302661896e-03,1.856423332355916500e-03,-5.917108152061700821e-03,-2.088813809677958488e-03,-1.015214920043945312e-01,9.241076768375933170e-04,5.793214775621891022e-03,-4.901495762169361115e-03,9.275148622691631317e-04,-1.051048282533884048e-03,4.056682344526052475e-03,3.891626372933387756e-03,-2.213271334767341614e-03,8.228400256484746933e-04,1.401182636618614197e-02,-2.395832678303122520e-03,-1.304980687564238906e-04,1.325478404760360718e-02,3.881856054067611694e-02,9.758623782545328140e-04,-2.400463214144110680e-03,-6.000751163810491562e-03,1.724386122077703476e-03,4.759390838444232941e-03,7.415170548483729362e-04,3.915826231241226196e-02,-5.608901381492614746e-03,2.876086393371224403e-03,-4.040723200887441635e-03,-6.434675306081771851e-02,5.485123838298022747e-04,-1.271321089006960392e-03,8.843977935612201691e-03,-7.645033765584230423e-04,-9.649398270994424820e-04,2.976870164275169373e-03,8.644014596939086914e-04,-1.902989810332655907e-03,-7.558541744947433472e-02,1.733440789394080639e-03,-1.818754710257053375e-03,-5.614854861050844193e-03,-8.089105039834976196e-02,6.655978504568338394e-04,-2.466336591169238091e-04,1.899567246437072754e-02,1.186607219278812408e-02,-9.510684758424758911e-03,3.638018295168876648e-02,2.381739905104041100e-03,3.783599473536014557e-03,-4.461306380107998848e-04,1.470354385673999786e-02,1.143562258221209049e-03,3.237616503611207008e-03,-3.390152752399444580e-02,3.193887695670127869e-02,-1.442561508156359196e-03,-1.055933302268385887e-03,-3.691929625347256660e-03,-1.248760372400283813e-01,6.814710050821304321e-02,-1.378386165015399456e-03,1.122643519192934036e-02,-4.596147686243057251e-03,8.849892020225524902e-02,-4.104351624846458435e-03,5.548731423914432526e-03,4.149471933487802744e-04,-7.212718948721885681e-03,2.095611533150076866e-03,4.296609200537204742e-03,-2.375959232449531555e-02,-5.888863233849406242e-04
-8.022684487514197826e-04,1.097858045250177383e-02,-9.642993099987506866e-04,3.093753708526492119e-03,1.547258230857551098e-03,-1.207032357342541218e-03,3.322169941384345293e-04,-2.371567767113447189e-03,-3.942608600482344627e-04,1.042299438267946243e-02,-3.659792477265000343e-03,6.026910268701612949e-04,2.948477864265441895e-03,4.594643600285053253e-03,-5.250873509794473648e-03,5.188885261304676533e-04,3.157693659886717796e-03,2.929039997979998589e-03,-2.252584090456366539e-03,-1.915240543894469738e-03,1.365339965559542179e-03,-7.447376265190541744e-04,8.545150049030780792e-03,4.406892694532871246e-03,-7.443387992680072784e-03,-3.316024318337440491e-02,-2.377324039116501808e-03,2.446638792753219604e-01,3.805221244692802429e-02,-2.632201183587312698e-03,4.200717376079410315e-04,-8.591207675635814667e-03,-1.226285379379987717e-02,3.248017979785799980e-03,3.685632487758994102e-03,-1.629519276320934296e-02,7.492965669371187687e-04,9.829460177570581436e-04,-9.489580406807363033e-04,-6.273687351495027542e-03,1.997341960668563843e-01,-4.240199923515319824e-04,-7.161014713346958160e-03,1.932053826749324799e-03,-3.086843993514776230e-03,-1.836473122239112854e-03,-3.318881848827004433e-03,1.665106159634888172e-03,6.787473125768883619e-07,-1.972761470824480057e-03,-2.440875396132469177e-02,2.227091640233993530e-01,2.688574139028787613e-03,1.022974960505962372e-02,-1.820468809455633163e-03,-5.244292551651597023e-04,2.376424148678779602e-03,-2.594944555312395096e-03,-2.559890890552196652e-05,-9.749362943693995476e-04,-1.482466235756874084e-03,-1.476384495617821813e-04,5.382381379604339600e-03,-5.972020444460213184e-04,-7.352821063250303268e-03,-1.512664835900068283e-02,-2.372069517150521278e-03,7.478465704480186105e-05,5.904088728129863739e-03,1.874338835477828979e-03,3.329855389893054962e-04,1.746238092891871929e-03,1.566655118949711323e-04,-1.082327682524919510e-03,-5.791941192001104355e-03,1.243458245880901814e-03,2.014960628002882004e-03,-5.285250488668680191e-03,-1.979322358965873718e-02,-1.509686699137091637e-03,3.001002187374979258e-04,-1.279614772647619247e-02,-2.411398738622665405e-01,2.865413669496774673e-03,-9.191785752773284912e-02,1.417630468495190144e-03,-3.024723380804061890e-03,4.568553064018487930e-03,-9.690642356872558594e-03,1.114158425480127335e-03,-2.399087883532047272e-03,-5.925270961597561836e-04,1.902612112462520599e-02,6.067065987735986710e-04,-1.108946162275969982e-03,5.972203216515481472e-04,2.439597994089126587e-01,-2.694022953510284424e-01,-1.830092631280422211e-03,-1.107572112232446671e-03,-2.448301296681165695e-03,4.291987419128417969e-02,4.103580140508711338e-04,9.958676673704758286e-05,-2.951619389932602644e-04,6.807486992329359055e-03,5.166523158550262451e-03,-1.488723210059106350e-03,1.196027034893631935e-03,-1.356285065412521362e-03
1.742938766255974770e-04,-9.809610433876514435e-03,-1.579199451953172684e-03,3.610238200053572655e-04,3.993468824774026871e-03,2.154511865228414536e-03,-3.522546263411641121e-03,-2.446398604661226273e-03,-1.294872723519802094e-03,-2.725733676925301552e-03,2.769203623756766319e-03,7.003108621574938297e-04,3.198861842975020409e-03,3.698242362588644028e-04,-1.395468832924962044e-03,-1.834381255321204662e-04,-4.344793967902660370e-03,8.008495904505252838e-03,-1.463014748878777027e-03,-6.529343780130147934e-03,1.290142419748008251e-03,-2.984024467878043652e-04,-1.855461043305695057e-03,2.239753259345889091e-03,-1.530252490192651749e-02,-5.864214617758989334e-03,5.340975709259510040e-03,-3.845810890197753906e-02,-8.913912810385227203e-03,-8.440587553195655346e-04,-2.877141814678907394e-03,-1.187619473785161972e-02,7.253205869346857071e-03,-5.444062408059835434e-03,2.814531326293945312e-03,-1.164706237614154816e-02,6.447780760936439037e-04,2.238652901723980904e-03,1.861448516137897968e-03,-4.991193301975727081e-03,-6.861399859189987183e-02,-1.163882669061422348e-03,3.534523770213127136e-03,3.745594294741749763e-03,-8.278890163637697697e-04,2.160675125196576118e-03,-4.832683131098747253e-03,3.777839243412017822e-03,-6.297344225458800793e-04,6.125676445662975311e-03,3.289654152467846870e-03,-8.001782000064849854e-02,2.975552808493375778e-03,-1.861576549708843231e-02,-1.021323166787624359e-02,4.065981600433588028e-03,1.238078228197991848e-03,4.880426451563835144e-03,-2.090813359245657921e-03,-2.949710469692945480e-03,3.389664459973573685e-03,5.752719007432460785e-04,8.525486104190349579e-03,1.645258860662579536e-03,7.215931080281734467e-03,-8.311538025736808777e-03,-1.618369482457637787e-03,-1.789566595107316971e-03,-6.761651486158370972e-03,1.962246606126427650e-03,1.190694001707015559e-05,2.263795118778944016e-03,4.020207095891237259e-03,-1.661213929764926434e-03,6.403301376849412918e-03,2.338840626180171967e-03,-2.868611365556716919e-03,-1.420768530806526542e-04,5.282246507704257965e-03,-2.731963060796260834e-03,-7.602918194606900215e-04,8.014465682208538055e-03,4.501561820507049561e-02,-6.640225765295326710e-04,1.530466950498521328e-03,-1.157769467681646347e-03,-2.851187018677592278e-03,3.755329176783561707e-03,-2.747408114373683929e-02,-9.387228055857121944e-04,1.925142016261816025e-03,5.526131950318813324e-03,2.941205911338329315e-02,3.304889658465981483e-03,6.469259387813508511e-04,1.220172620378434658e-03,-4.400189593434333801e-02,5.077214539051055908e-02,-3.100793264820822515e-06,1.386024989187717438e-03,-3.167435294017195702e-03,1.825781725347042084e-02,-1.886002719402313232e-03,-3.856083611026406288e-03,-1.459665014408528805e-03,4.396493081003427505e-03,-4.589339368976652622e-04,-1.539703924208879471e-03,1.241688732989132404e-04,3.836684918496757746e-04
1.268010935746133327e-03,-1.852524001151323318e-03,-6.697015487588942051e-04,5.447447299957275391e-03,9.562732651829719543e-03,-5.428395699709653854e-03,-4.358024336397647858e-03,7.614140864461660385e-03,5.688686505891382694e-04,-6.748543586581945419e-03,8.411677117692306638e-05,-1.820709207095205784e-03,2.457579365000128746e-03,-3.312740940600633621e-03,-1.672938466072082520e-03,1.469423063099384308e-03,6.894371006637811661e-03,-6.298680324107408524e-03,-6.557154469192028046e-03,-3.779831109568476677e-03,-4.532696621026843786e-04,1.782102393917739391e-03,-9.700891561806201935e-03,-5.116316955536603928e-03,6.059022052795626223e-05,6.070769391953945160e-03,1.880343537777662277e-03,-1.570506766438484192e-02,8.369375951588153839e-03,-3.999762237071990967e-03,-5.541200749576091766e-03,8.685082138981670141e-05,5.402482673525810242e-02,-3.291331464424729347e-03,-1.041626650840044022e-02,-8.359105559065937996e-04,-1.496145268902182579e-04,-2.159969182685017586e-03,1.896766480058431625e-03,-1.084243785589933395e-02,1.562038436532020569e-02,-1.564082107506692410e-03,5.401206202805042267e-03,6.904038600623607635e-03,-5.143533926457166672e-03,4.827707074582576752e-03,1.354579930193722248e-03,-2.578240353614091873e-03,-2.643819898366928101e-03,-1.346292323432862759e-03,-8.184141479432582855e-03,-1.972261257469654083e-02,3.521411446854472160e-03,2.482403442263603210e-02,-7.854503579437732697e-03,-3.025124548003077507e-03,-5.840163677930831909e-03,1.599032781086862087e-03,-2.123834565281867981e-03,2.243556082248687744e-04,1.685553579591214657e-03,-1.058782509062439203e-04,1.268804632127285004e-02,8.905230788514018059e-04,-5.233627744019031525e-03,-1.350334845483303070e-02,7.502391817979514599e-04,1.276509865419939160e-04,-5.703274160623550415e-03,1.859348732978105545e-03,-4.088246787432581186e-04,4.372055642306804657e-03,-6.863193120807409286e-03,4.213297739624977112e-03,7.282361853867769241e-03,-3.958899993449449539e-03,2.023367676883935928e-03,1.932075292643276043e-06,1.361969509162008762e-03,2.471160143613815308e-03,2.802894683554768562e-03,-1.302833855152130127e-02,2.771321497857570648e-02,-4.912567324936389923e-03,-4.441512748599052429e-03,-6.094287964515388012e-04,1.033003209158778191e-03,5.459152162075042725e-04,-3.611365333199501038e-02,4.827393684536218643e-03,-4.810622485820204020e-04,-1.145822228863835335e-03,1.214026659727096558e-02,7.865987136028707027e-04,2.432079345453530550e-04,-6.021742010489106178e-04,-1.014667656272649765e-02,-1.289914827793836594e-02,4.789556842297315598e-03,6.050008814781904221e-03,-5.220771767199039459e-03,1.907224021852016449e-02,4.014926089439541101e-04,-7.456682506017386913e-04,-5.685620708391070366e-04,-1.425567432306706905e-03,7.491374853998422623e-03,-3.749429015442728996e-04,6.365618668496608734e-03,-7.437854073941707611e-04
1.090724836103618145e-03,-1.293539069592952728e-02,1.612713822396472096e-04,7.563771214336156845e-04,1.630801334977149963e-02,-3.471711534075438976e-04,5.268999841064214706e-03,7.370326202362775803e-04,1.070155994966626167e-03,1.586568728089332581e-02,-6.951767718419432640e-04,2.322376167285256088e-05,-6.151567213237285614e-04,-1.249491586349904537e-03,-3.002202371135354042e-03,2.439542207866907120e-03,4.600834567099809647e-03,-1.975890772882848978e-04,7.057951879687607288e-04,-3.096751170232892036e-04,-2.420193981379270554e-03,4.151370376348495483e-03,-1.772764604538679123e-03,8.122009225189685822e-03,-1.099536288529634476e-02,2.341756410896778107e-02,-1.522199745522812009e-04,8.422246202826499939e-03,-6.248510908335447311e-04,-1.839802949689328671e-03,1.900667302834335715e-05,-6.607400253415107727e-03,-1.267987638711929321e-01,7.051866268739104271e-04,-1.505794818513095379e-03,5.169131234288215637e-02,1.620683935470879078e-03,-2.818421227857470512e-03,5.200549028813838959e-03,1.765924505889415741e-02,-1.468623280525207520e-01,4.159785807132720947e-03,1.136769540607929230e-02,5.275374860502779484e-04,-3.845378058031201363e-03,-3.862268058583140373e-03,-1.812384347431361675e-03,-3.771739546209573746e-03,-2.223293762654066086e-03,4.075685981661081314e-03,-1.382496021687984467e-02,1.107634007930755615e-01,1.850289292633533478e-03,-6.599869579076766968e-02,-5.208618007600307465e-03,-3.542150603607296944e-03,-2.981333527714014053e-03,-3.085141070187091827e-03,-2.441905206069350243e-03,-5.044367164373397827e-03,-7.965750410221517086e-04,-4.668409819714725018e-04,-1.221649465151131153e-03,4.095438867807388306e-03,-1.500366255640983582e-03,1.969788689166307449e-03,1.337855006568133831e-03,4.698513075709342957e-03,-3.918963950127363205e-03,2.874797675758600235e-03,-1.265560858882963657e-03,-3.665800439193844795e-03,-4.095759708434343338e-03,1.692754914984107018e-03,5.572111345827579498e-03,5.941198905929923058e-04,-1.133026788011193275e-03,3.729581367224454880e-03,-4.474590998142957687e-03,4.305428883526474237e-04,3.480074461549520493e-03,8.910092711448669434e-02,-1.464264933019876480e-02,-5.324700847268104553e-03,4.652464122045785189e-04,1.900371629744768143e-03,-3.561551216989755630e-03,-4.180828982498496771e-04,1.209956482052803040e-01,2.838064683601260185e-03,3.035557456314563751e-04,6.773192901164293289e-03,-9.361927956342697144e-02,-2.456785179674625397e-03,3.504738910123705864e-03,-5.384421441704034805e-03,4.925959743559360504e-03,1.158142983913421631e-01,1.178266364149749279e-03,5.376902874559164047e-03,-4.445651173591613770e-02,3.750982461497187614e-03,7.518998463638126850e-04,1.291578635573387146e-03,2.106654457747936249e-03,5.159788765013217926e-03,2.930919639766216278e-03,1.694429665803909302e-03,2.860832493752241135e-03,4.619782790541648865e-03
5.237631557974964380e-05,1.865237834863364697e-03,-2.753270324319601059e-03,-5.654023960232734680e-03,4.529302939772605896e-03,-2.628943650051951408e-03,-7.815925404429435730e-03,-1.963793765753507614e-03,6.456782110035419464e-03,-8.602067828178405762e-03,5.629929364658892155e-04,1.725014299154281616e-03,2.005733083933591843e-03,4.859746433794498444e-03,2.713399881031364202e-04,-1.124372356571257114e-03,3.407823387533426285e-04,-1.464678323827683926e-03,4.554819781333208084e-03,-4.996309289708733559e-04,-1.185059547424316406e-03,4.321119340602308512e-04,-5.701080895960330963e-03,-1.071592210792005062e-03,-3.515321528539061546e-03,-1.102075679227709770e-03,1.679432345554232597e-03,-8.272801642306149006e-04,-2.902052598074078560e-03,-2.522371360100805759e-04,2.389269648119807243e-03,4.705989733338356018e-02,-3.326476737856864929e-02,-5.213872995227575302e-03,8.909299969673156738e-03,-2.105029672384262085e-02,3.665658412501215935e-03,-2.015469508478417993e-04,3.772562136873602867e-03,1.080850418657064438e-02,1.926203966140747070e-01,-2.476630499586462975e-03,9.678648784756660461e-03,-1.948592253029346466e-03,9.301775135099887848e-04,-2.832551253959536552e-03,1.538435171823948622e-04,2.267469884827733040e-03,2.341342391446232796e-03,4.936766927130520344e-04,8.633544668555259705e-03,-1.180630773305892944e-01,-1.980032771825790405e-03,6.813377141952514648e-02,-1.204617088660597801e-03,-3.851250512525439262e-03,1.136287581175565720e-03,5.541507620364427567e-03,-1.791128306649625301e-03,-4.005740862339735031e-03,1.630515092983841896e-03,7.818961166776716709e-04,-1.269211410544812679e-03,-8.188993087969720364e-04,4.785648081451654434e-03,5.934679415076971054e-03,-9.923932375386357307e-04,2.487887628376483917e-03,7.461175788193941116e-03,-3.497059224173426628e-03,4.067709378432482481e-04,-2.550703706219792366e-03,-2.770250895991921425e-03,6.420795689336955547e-04,3.163825953379273415e-03,2.419425582047551870e-04,-2.518859459087252617e-03,-1.182835316285490990e-03,1.028253417462110519e-02,-3.849293803796172142e-03,1.394748571328818798e-03,-1.251659244298934937e-01,4.661184921860694885e-02,-8.287305245175957680e-04,7.109974394552409649e-04,4.493639571592211723e-04,3.630848135799169540e-03,4.079496953636407852e-03,3.584476187825202942e-02,8.057661354541778564e-03,7.828000932931900024e-03,6.439391989260911942e-03,8.255648612976074219e-02,-7.707836630288511515e-05,-3.610128071159124374e-03,-4.795313347131013870e-03,-4.046611860394477844e-02,-1.410439610481262207e-01,5.774928722530603409e-03,5.294283386319875717e-03,7.242271304130554199e-02,-1.557681709527969360e-02,5.346104153431952000e-04,2.675769210327416658e-04,5.527224857360124588e-03,-1.732572168111801147e-02,-9.603353100828826427e-04,1.287753111682832241e-03,5.556836724281311035e-03,2.829168690368533134e-03
4.416460171341896057e-03,4.703950835391879082e-04,-5.990270059555768967e-03,-1.421987253706902266e-04,4.772184416651725769e-03,-3.594932612031698227e-03,1.257215859368443489e-03,-1.973108155652880669e-03,-5.310447886586189270e-03,-1.134565100073814392e-02,5.589661188423633575e-03,-7.974251639097929001e-04,-1.883521443232893944e-03,5.373324267566204071e-03,1.854915171861648560e-03,-2.894507721066474915e-03,-1.052498072385787964e-02,5.844351835548877716e-03,8.845674805343151093e-03,-1.771703246049582958e-03,4.364342428743839264e-03,-4.844704177230596542e-03,1.342905336059629917e-03,3.933578729629516602e-02,8.303147740662097931e-03,-2.593873068690299988e-02,1.661679707467556000e-03,1.819184049963951111e-02,2.054356411099433899e-02,-1.414571655914187431e-03,-2.463934710249304771e-03,-1.280260155908763409e-03,1.293152421712875366e-01,-2.774971770122647285e-03,-7.784016197547316551e-04,-1.766915619373321533e-02,-8.169313659891486168e-04,-1.496331999078392982e-03,-3.519752644933760166e-04,-6.986390799283981323e-04,-9.556189924478530884e-02,2.636336954310536385e-03,3.717237617820501328e-03,5.997099447995424271e-03,1.335196546278893948e-03,9.227496339008212090e-04,1.032960251905024052e-03,2.046858891844749451e-03,9.419667767360806465e-04,1.146583817899227142e-03,8.535531349480152130e-03,1.054104268550872803e-01,2.110103669110685587e-04,-3.325181826949119568e-02,3.618051065132021904e-03,2.223218325525522232e-03,-2.123770071193575859e-03,3.898956929333508015e-04,-4.072875715792179108e-03,1.153967925347387791e-03,1.264487043954432011e-03,-1.276843016967177391e-03,1.088321302086114883e-02,-2.965853083878755569e-03,-1.028181426227092743e-02,-3.878801129758358002e-03,-5.375602748245000839e-03,-6.176248658448457718e-03,1.498363446444272995e-03,1.917908433824777603e-03,-6.728968583047389984e-03,-9.884206578135490417e-03,2.304925117641687393e-03,6.618357147090137005e-04,-1.614661142230033875e-02,3.820546669885516167e-03,-1.264167949557304382e-03,-1.120264991186559200e-03,2.390895737335085869e-03,8.452865295112133026e-04,2.975919051095843315e-03,8.273050934076309204e-02,-2.283686771988868713e-02,-5.732438527047634125e-03,1.522264163941144943e-02,-1.526544895023107529e-02,1.273977686651051044e-03,1.366687007248401642e-03,-1.020739153027534485e-01,6.040821317583322525e-03,3.084548516198992729e-04,-2.360742539167404175e-03,-6.466781347990036011e-02,-8.315568789839744568e-03,3.009924897924065590e-03,-1.004987745545804501e-03,-2.772743115201592445e-03,1.255798786878585815e-01,-2.072405768558382988e-03,-2.704587997868657112e-03,-7.598172128200531006e-02,-5.568891763687133789e-03,1.256571122212335467e-04,-1.750779774738475680e-04,3.869486507028341293e-03,2.921204455196857452e-02,1.520448480732738972e-03,1.086797099560499191e-03,-3.453794866800308228e-03,2.710592467337846756e-03
-2.809090772643685341e-03,-1.616291585378348827e-03,-1.651445403695106506e-02,1.622703159227967262e-03,2.825620211660861969e-02,8.858537185005843639e-04,-4.955210722982883453e-03,2.368370257318019867e-02,1.059517846442759037e-03,5.756120197474956512e-03,-6.039625033736228943e-03,3.913036547601222992e-03,9.827258065342903137e-03,-2.749625360593199730e-03,-1.939179259352385998e-03,3.091406542807817459e-03,9.264979511499404907e-03,2.762562595307826996e-03,-8.919272804632782936e-04,2.859132131561636925e-03,7.437141146510839462e-03,-2.205345081165432930e-03,-1.180864870548248291e-02,-1.738828420639038086e-02,2.897026389837265015e-02,4.603079706430435181e-02,3.970702178776264191e-03,-5.589814390987157822e-03,8.516160771250724792e-03,6.633391603827476501e-03,9.252803865820169449e-04,4.381635412573814392e-02,-1.026593372225761414e-01,-2.252648584544658661e-02,3.102268790826201439e-03,-1.086494978517293930e-02,7.191584445536136627e-04,-1.244947127997875214e-02,-6.532473023980855942e-03,6.087586749345064163e-03,-7.121772039681673050e-03,-2.071144292131066322e-03,1.185517478734254837e-02,-1.018308661878108978e-02,9.392325766384601593e-03,3.745299065485596657e-03,4.252125043421983719e-03,-5.094223655760288239e-03,-7.044270168989896774e-03,1.321326196193695068e-02,-2.221676148474216461e-02,-3.597633913159370422e-02,1.149193104356527328e-02,9.520718827843666077e-03,2.456469461321830750e-02,7.061993237584829330e-04,-6.019156891852617264e-03,5.377868656069040298e-03,2.699783304706215858e-03,8.909433963708579540e-04,-6.592276506125926971e-03,1.143600020441226661e-04,-2.839829539880156517e-03,1.123718265444040298e-02,2.095259260386228561e-03,-2.282826462760567665e-03,-4.335359204560518265e-03,3.851324319839477539e-03,1.248644944280385971e-02,8.182434365153312683e-03,6.184701342135667801e-03,3.489869879558682442e-03,3.699864260852336884e-03,6.376750301569700241e-03,8.955186232924461365e-03,-1.605673506855964661e-02,-1.577344723045825958e-03,2.951724454760551453e-04,-1.519051380455493927e-03,-1.342866569757461548e-03,-1.600887975655496120e-03,-5.470898002386093140e-02,7.529014721512794495e-03,-1.236441778019070625e-03,-2.279844693839550018e-02,-1.817336864769458771e-02,-2.575207035988569260e-03,3.703003982082009315e-03,6.042462587356567383e-02,6.933681201189756393e-03,1.385212759487330914e-03,4.097716882824897766e-03,5.589777976274490356e-02,-5.358899012207984924e-03,-1.287512853741645813e-02,3.020806936547160149e-03,1.834424212574958801e-02,-4.656037315726280212e-02,-1.916613057255744934e-02,-4.642807471100240946e-04,6.482180953025817871e-02,6.582896225154399872e-03,9.564306586980819702e-03,-5.348395090550184250e-03,5.492944270372390747e-03,-8.970846422016620636e-03,1.231493521481752396e-02,-1.420315529685467482e-04,3.926887176930904388e-03,-4.435645416378974915e-03
1.168354414403438568e-02,3.749842988327145576e-03,-5.939347669482231140e-03,2.068678149953484535e-03,-1.935057938098907471e-01,2.067401073873043060e-03,5.957236979156732559e-03,-1.666427589952945709e-02,-5.999859422445297241e-03,-1.655458100140094757e-02,-6.983863189816474915e-03,7.271517533808946609e-03,6.882780697196722031e-03,-5.667549557983875275e-03,-1.505736960098147392e-03,-5.116512067615985870e-03,-2.381845610216259956e-03,-9.222979657351970673e-03,-5.629990249872207642e-03,-1.422409154474735260e-02,-2.281754277646541595e-03,6.827896460890769958e-03,4.020625259727239609e-03,-1.158215478062629700e-02,2.706904523074626923e-02,-2.901987731456756592e-02,-4.652922041714191437e-03,1.836254494264721870e-03,-1.692572608590126038e-02,7.287248503416776657e-03,3.588437393773347139e-04,7.031028624624013901e-03,-2.069288492202758789e-02,-1.647938415408134460e-02,4.876007733400911093e-04,2.615433558821678162e-02,-9.474087506532669067e-03,-7.717038970440626144e-04,-4.838146734982728958e-03,-1.678737811744213104e-02,3.293614834547042847e-02,5.284375045448541641e-03,5.520065315067768097e-03,-1.320846471935510635e-02,1.397809199988842010e-02,-2.866375725716352463e-03,1.321730902418494225e-03,7.177363149821758270e-04,9.211693890392780304e-03,-3.316021524369716644e-03,1.411646418273448944e-02,-1.997696608304977417e-02,1.307690422981977463e-02,5.515633523464202881e-02,1.382595580071210861e-02,-1.491229515522718430e-03,1.655772328376770020e-02,-1.997496699914336205e-03,8.474322035908699036e-03,-2.759457193315029144e-02,1.437002327293157578e-02,7.127678953111171722e-03,-1.023197472095489502e-01,9.699716232717037201e-03,-3.147301496937870979e-03,1.883584991446696222e-05,5.508566740900278091e-03,-7.287479937076568604e-03,-4.162534698843955994e-02,-8.046013303101062775e-03,-1.671308884397149086e-03,-7.020235527306795120e-03,-4.591611679643392563e-03,-9.450182318687438965e-03,-2.703855745494365692e-03,1.148470956832170486e-02,-9.405846940353512764e-04,-2.395692747086286545e-03,-1.223484147340059280e-02,9.326047264039516449e-03,3.801782731898128986e-04,2.445620857179164886e-02,-5.070023704320192337e-03,-1.246481202542781830e-02,-1.447943039238452911e-02,5.573397967964410782e-03,1.967967953532934189e-03,-8.089391514658927917e-03,3.227714076638221741e-02,5.104240961372852325e-03,2.953924704343080521e-03,-6.677957251667976379e-03,-3.565013408660888672e-03,-2.989118918776512146e-03,6.255572661757469177e-03,4.458072129637002945e-03,-3.496015910059213638e-03,-4.241681471467018127e-02,1.444238610565662384e-02,-1.130792684853076935e-02,7.427357137203216553e-02,-3.754884470254182816e-03,-4.637207603082060814e-04,3.143098438158631325e-03,-8.689441718161106110e-03,-3.015057649463415146e-03,1.567257940769195557e-02,-8.915999904274940491e-03,-5.716682411730289459e-03,-2.366791013628244400e-03
1.872431114315986633e-02,-1.141156535595655441e-02,5.727332551032304764e-03,7.615531212650239468e-04,3.696557283401489258e-01,1.789901987649500370e-03,2.228757599368691444e-03,-1.478199362754821777e-01,-1.396884676069021225e-03,-4.309840966016054153e-03,3.098095534369349480e-03,3.453271638136357069e-04,-8.679127320647239685e-03,3.133801277726888657e-03,-1.081265602260828018e-02,-5.539599806070327759e-04,4.613657481968402863e-03,1.154154911637306213e-02,-1.200571190565824509e-02,6.185245234519243240e-03,2.512049104552716017e-04,-1.121394056826829910e-02,1.210104394704103470e-02,1.304139010608196259e-02,-7.897322066128253937e-03,-1.177515648305416107e-02,9.183206595480442047e-03,-5.524997133761644363e-03,3.745661582797765732e-03,-1.016406249254941940e-02,-3.092836355790495872e-03,2.241737954318523407e-02,6.693659722805023193e-02,1.370283216238021851e-02,1.828107400797307491e-03,-9.148275479674339294e-03,-2.018274273723363876e-03,-3.588449544622562826e-05,-1.170042995363473892e-02,9.715440683066844940e-03,-1.429270207881927490e-02,3.717405954375863075e-03,-4.700346034951508045e-04,-8.382930420339107513e-03,1.637847046367824078e-03,-9.878090582787990570e-03,-4.144749604165554047e-03,-2.907576737925410271e-03,-2.499728230759501457e-03,-6.982485298067331314e-03,1.776928082108497620e-02,-9.357877075672149658e-03,7.335047237575054169e-03,-4.400047659873962402e-02,1.501931226812303066e-03,-1.123646926134824753e-02,3.984831273555755615e-03,1.564146019518375397e-02,9.456793777644634247e-04,-5.169061478227376938e-04,1.016198657453060150e-02,8.519946713931858540e-04,2.759620249271392822e-01,-3.682922339066863060e-03,7.238090503960847855e-03,3.007869236171245575e-03,1.161037664860486984e-02,5.194717552512884140e-03,1.565779000520706177e-02,-1.007177308201789856e-02,2.694395836442708969e-03,3.742899512872099876e-03,3.634519409388303757e-03,-1.297630136832594872e-03,3.507409617304801941e-02,-3.373433137312531471e-03,-1.679017441347241402e-03,-1.916489447467029095e-03,-6.497614085674285889e-03,-1.324356812983751297e-02,-3.777483245357871056e-03,7.742818444967269897e-03,1.058171153999865055e-03,4.805271513760089874e-03,2.062103245407342911e-03,-3.541140118613839149e-03,5.272250622510910034e-03,2.566684270277619362e-04,-4.944325983524322510e-02,2.662251470610499382e-03,6.095574237406253815e-03,4.520028363913297653e-03,-2.913374826312065125e-02,-9.834258817136287689e-03,3.429219825193285942e-03,-5.968291312456130981e-03,1.533918641507625580e-02,3.617711365222930908e-03,-1.045832876116037369e-02,1.831214874982833862e-02,-1.321853548288345337e-01,2.950435969978570938e-03,4.211196210235357285e-03,1.015927828848361969e-02,1.779427169822156429e-03,2.438498428091406822e-03,-3.198982775211334229e-02,-2.595353173092007637e-03,1.525562070310115814e-02,-3.957225941121578217e-03
6.588458549231290817e-03,2.358907088637351990e-02,-2.755734371021389961e-03,-1.815776899456977844e-02,-5.628589987754821777e-01,1.261324342340230942e-02,1.566758006811141968e-02,3.589873015880584717e-01,1.012289244681596756e-02,-8.120968006551265717e-03,-1.378338434733450413e-03,-2.623583422973752022e-03,8.366284891963005066e-03,6.056198035366833210e-04,4.369701258838176727e-03,-4.830076068174093962e-04,-3.085426753386855125e-03,9.820148348808288574e-03,-6.868896540254354477e-03,-4.362738691270351410e-03,-1.776871387846767902e-03,6.925038527697324753e-03,-2.391862915828824043e-03,7.537816185504198074e-03,-5.106553435325622559e-03,-1.508639287203550339e-02,-1.471880677854642272e-04,4.828358534723520279e-03,-1.022102776914834976e-02,-3.670126432552933693e-03,-1.325672026723623276e-02,-2.141186594963073730e-02,-5.714476853609085083e-02,-1.167719718068838120e-03,8.121947757899761200e-04,4.861386958509683609e-03,7.204588968306779861e-03,9.394215419888496399e-03,1.301444601267576218e-03,4.115568008273839951e-03,2.287024632096290588e-03,-2.703080244828015566e-04,-6.118872668594121933e-03,-4.663830040954053402e-04,-5.878507508896291256e-04,-7.230565883219242096e-03,-3.079168731346726418e-03,1.410162821412086487e-02,-7.777414430165663362e-05,-5.583678721450269222e-04,1.089117024093866348e-02,6.732548121362924576e-03,2.655284013599157333e-03,2.180849947035312653e-02,4.380204714834690094e-03,-3.557353920768946409e-04,1.625736057758331299e-02,-1.601589657366275787e-02,1.750551396980881691e-03,1.540039852261543274e-02,-2.298406790941953659e-03,3.444454632699489594e-04,-4.828676283359527588e-01,8.518902584910392761e-03,-7.375372573733329773e-03,1.098056789487600327e-02,-1.120722503401339054e-03,-2.946280874311923981e-03,-1.923097297549247742e-02,1.984869828447699547e-03,-3.127566771581768990e-03,-7.036665454506874084e-03,-1.588526531122624874e-03,3.447408787906169891e-03,-7.993322610855102539e-02,-7.536543416790664196e-04,4.127173218876123428e-03,1.503764372318983078e-02,4.050680994987487793e-02,-4.691232927143573761e-03,-3.173049539327621460e-03,1.278515346348285675e-02,1.522445306181907654e-02,-1.348340418189764023e-03,1.320622488856315613e-02,1.171511877328157425e-02,1.289918646216392517e-02,-5.137704312801361084e-03,5.764957517385482788e-02,-7.974055595695972443e-03,-1.065018121153116226e-02,1.890458079287782311e-04,2.250152407214045525e-03,5.490877665579319000e-03,-7.704469608142971992e-04,6.159401964396238327e-03,-9.678070433437824249e-03,8.439374156296253204e-03,-1.265980023890733719e-02,4.202412310405634344e-05,1.264297515153884888e-01,1.037520635873079300e-02,-2.797831257339566946e-04,6.323888897895812988e-03,2.116439165547490120e-03,-1.142428256571292877e-02,1.604194752871990204e-02,-2.540992340072989464e-03,2.600316191092133522e-03,-5.909664090722799301e-03
-3.515271237120032310e-03,-7.036751601845026016e-03,-3.102772403508424759e-03,1.073688082396984100e-02,5.552312135696411133e-01,4.733515903353691101e-03,-2.496848173905164003e-04,-4.278749525547027588e-01,1.275486685335636139e-02,9.092743508517742157e-03,1.096748933196067810e-02,-7.661876734346151352e-03,6.935782264918088913e-03,7.605129387229681015e-03,4.205793607980012894e-03,9.650178253650665283e-05,7.918728515505790710e-03,6.973912473767995834e-03,7.486815098673105240e-03,4.990777466446161270e-03,7.536828052252531052e-03,-1.179079990833997726e-03,7.291282527148723602e-03,2.521764673292636871e-02,-5.911224987357854843e-03,-8.416119031608104706e-03,1.522588077932596207e-02,1.487548556178808212e-02,-2.372162882238626480e-03,7.728162221610546112e-03,3.237089607864618301e-03,-7.903916761279106140e-03,5.203421041369438171e-02,-6.261653732508420944e-03,-5.549092777073383331e-03,-5.639187991619110107e-03,-2.862420165911316872e-03,8.503822609782218933e-03,-7.408258388750255108e-04,-7.344454992562532425e-03,2.356380969285964966e-02,-5.325125530362129211e-03,5.229313392192125320e-03,6.509961560368537903e-03,7.185063324868679047e-03,1.592266000807285309e-02,2.406735206022858620e-03,7.297758478671312332e-03,2.832585247233510017e-03,-7.808511611074209213e-03,1.078952290117740631e-02,3.415178880095481873e-02,1.006124191917479038e-03,1.040483824908733368e-02,1.527544856071472168e-02,5.789689254015684128e-03,3.603432094678282738e-03,1.027718186378479004e-02,-2.221528207883238792e-03,-1.557216886430978775e-02,1.127919461578130722e-02,7.749664597213268280e-03,4.465639293193817139e-01,-9.142816066741943359e-03,1.770620420575141907e-02,-2.661323174834251404e-03,3.968909382820129395e-03,4.365012515336275101e-03,9.563305415213108063e-03,9.459310211241245270e-03,-4.052977543324232101e-03,-8.424484170973300934e-03,-4.328604787588119507e-03,-5.600565113127231598e-03,9.022479504346847534e-02,-1.061531435698270798e-02,1.576536707580089569e-02,4.853070713579654694e-03,-4.970541223883628845e-02,1.434757956303656101e-03,7.302213925868272781e-03,-3.862092643976211548e-02,-2.353134192526340485e-02,-5.908724851906299591e-03,-4.076888784766197205e-03,5.302483681589365005e-03,1.761009730398654938e-02,1.353816222399473190e-02,-3.882039338350296021e-02,-4.440523218363523483e-03,-7.405086886137723923e-03,-7.864826358854770660e-03,-4.815933108329772949e-02,-1.002247072756290436e-02,-1.873146393336355686e-03,1.907404366647824645e-04,-1.574406982399523258e-03,-4.941165912896394730e-03,-3.636714303866028786e-03,-9.389917366206645966e-03,-1.190111562609672546e-01,-5.046782549470663071e-03,-7.283811457455158234e-03,-5.517348647117614746e-03,6.344462744891643524e-04,2.574429474771022797e-02,-1.404292508959770203e-02,1.234910544008016586e-02,1.848267763853073120e-02,6.815105676651000977e-03
-1.329076010733842850e-02,9.034563787281513214e-03,-1.221328880637884140e-02,-1.221381127834320068e-02,-2.358782589435577393e-01,-1.582759059965610504e-02,1.697236148174852133e-04,3.133543133735656738e-01,1.348670944571495056e-02,1.502029714174568653e-03,-1.019419729709625244e-02,-4.055941477417945862e-03,-9.729866869747638702e-03,6.145780906081199646e-03,-1.218487694859504700e-02,3.943267278373241425e-03,6.485532037913799286e-03,-9.307168424129486084e-03,6.502669304609298706e-03,5.241509992629289627e-03,1.133596710860729218e-02,3.733787918463349342e-03,8.468633517622947693e-03,1.505520049249753356e-04,2.618391625583171844e-02,1.000817120075225830e-02,5.303450860083103180e-03,-2.700241468846797943e-02,1.227967534214258194e-02,1.844137150328606367e-04,6.027510389685630798e-03,3.250266984105110168e-02,-1.872648298740386963e-02,9.144959039986133575e-03,-2.188887679949402809e-03,2.130613662302494049e-03,1.760870777070522308e-02,1.112169958651065826e-02,2.292323391884565353e-03,-1.583886099979281425e-03,-1.681223744526505470e-03,-7.211528718471527100e-03,2.033146098256111145e-02,-2.810835605487227440e-03,-2.664414979517459869e-02,-4.522342700511217117e-03,-8.233116008341312408e-03,1.178153045475482941e-02,-2.598781511187553406e-02,-5.575684830546379089e-03,-4.939214792102575302e-03,-2.603860944509506226e-02,-1.494196616113185883e-02,4.164996091276407242e-03,-7.158662192523479462e-03,-1.442820206284523010e-02,1.046548504382371902e-02,6.500814575701951981e-03,6.233041640371084213e-03,-7.111160666681826115e-04,-7.594143506139516830e-03,1.440781075507402420e-02,-2.454117685556411743e-01,2.001287182793021202e-03,-1.413885690271854401e-02,-2.844285219907760620e-02,-2.063100039958953857e-02,1.417514402419328690e-02,7.901613600552082062e-03,-1.702127605676651001e-02,2.089686319231987000e-02,-9.233409538865089417e-03,-5.985765601508319378e-04,6.557515356689691544e-03,-6.297736614942550659e-02,7.949187420308589935e-03,-1.395192742347717285e-02,1.162185147404670715e-02,2.995836175978183746e-02,-4.348657093942165375e-03,-7.923022843897342682e-03,1.985827460885047913e-03,1.459879335016012192e-02,-1.212386321276426315e-02,-1.038220338523387909e-02,1.608548453077673912e-03,7.259431760758161545e-03,-1.564824767410755157e-02,5.167081207036972046e-02,-2.670573012437671423e-04,1.336536556482315063e-02,4.450892563909292221e-03,4.388615861535072327e-02,-2.323898952454328537e-03,-5.674743093550205231e-03,1.346359378658235073e-03,-2.703331597149372101e-02,-7.301833829842507839e-04,1.774963020579889417e-04,1.438576541841030121e-02,1.215022653341293335e-01,1.620675995945930481e-02,1.111489720642566681e-02,8.792140521109104156e-03,1.390918390825390816e-03,-1.968070119619369507e-02,-5.436677485704421997e-03,-1.196528878062963486e-02,1.032867003232240677e-02,-5.424013826996088028e-03
-4.479163326323032379e-03,-2.263970486819744110e-02,3.599493531510233879e-03,5.158515647053718567e-03,-2.449616231024265289e-02,4.215625580400228500e-03,3.961841575801372528e-03,7.572394609451293945e-02,8.537773974239826202e-03,-2.527781389653682709e-02,-3.716892329975962639e-03,5.346791353076696396e-03,9.503631852567195892e-03,-1.220006612129509449e-03,6.599759217351675034e-03,5.057212430983781815e-03,-6.866928189992904663e-03,4.930400755256414413e-03,-2.133985050022602081e-03,1.160822901874780655e-02,-8.409706875681877136e-03,9.719072841107845306e-03,7.291712798178195953e-03,4.062157496809959412e-02,8.451174944639205933e-03,2.022814191877841949e-02,2.867364091798663139e-03,-2.324491366744041443e-02,1.883889175951480865e-02,9.342435514554381371e-04,4.637191072106361389e-03,3.875302849337458611e-03,-3.094389801844954491e-03,2.157194307073950768e-03,-2.560206688940525055e-03,-4.386268556118011475e-03,-7.952414453029632568e-03,1.045348495244979858e-02,-6.885557901114225388e-03,-1.120090018957853317e-02,6.471162196248769760e-03,2.843249589204788208e-02,-2.506641484797000885e-02,-1.495612203143537045e-03,1.102029066532850266e-02,1.073490642011165619e-02,7.181494962424039841e-03,-3.096210211515426636e-02,-1.799611188471317291e-02,1.456989673897624016e-03,2.248056232929229736e-02,2.568691852502524853e-04,1.077016466297209263e-03,3.266887739300727844e-02,2.276624366641044617e-02,-1.299561280757188797e-02,4.356064368039369583e-03,-1.377783622592687607e-02,2.602681145071983337e-02,1.108191348612308502e-02,-2.529661357402801514e-02,2.406657222309149802e-05,-2.721722237765789032e-02,-6.075065117329359055e-03,-3.036141861230134964e-03,1.450279820710420609e-02,6.584367714822292328e-03,2.441782690584659576e-02,2.850068360567092896e-02,2.136396709829568863e-03,-6.607638206332921982e-03,-1.315788272768259048e-02,9.613851085305213928e-03,-1.217231061309576035e-02,-8.837445639073848724e-03,4.482830408960580826e-03,-2.452873066067695618e-02,2.553915604948997498e-03,3.241727536078542471e-04,-1.376482378691434860e-02,1.972604915499687195e-02,3.041701391339302063e-02,1.953663490712642670e-02,-2.072537317872047424e-03,1.187477353960275650e-02,1.807520724833011627e-02,1.316793961450457573e-03,-1.853219233453273773e-02,-1.301550678908824921e-02,-6.674481090158224106e-03,-2.164102392271161079e-03,-3.863770514726638794e-03,-1.067154575139284134e-02,-1.354623585939407349e-02,1.528515387326478958e-02,1.530965883284807205e-02,3.414490073919296265e-02,-2.638617902994155884e-02,-4.987365566194057465e-03,-3.589960979297757149e-03,1.310985721647739410e-02,-5.978038068860769272e-03,3.528689267113804817e-03,6.763317622244358063e-03,-1.008651498705148697e-02,4.159847274422645569e-03,4.117970541119575500e-02,-1.270846370607614517e-02,-1.940730842761695385e-03,8.490484207868576050e-03
3.520623082295060158e-03,-7.010552566498517990e-03,1.171315275132656097e-02,-1.469328068196773529e-02,-3.923411294817924500e-02,1.890715584158897400e-02,-2.834462502505630255e-04,-1.223093271255493164e-01,1.676093973219394684e-02,-1.283155940473079681e-02,1.550194225274026394e-03,1.024807919748127460e-03,1.481206971220672131e-03,-8.409607224166393280e-03,1.190936937928199768e-02,2.811238402500748634e-03,-1.445433031767606735e-02,-1.119319815188646317e-02,-1.446792110800743103e-02,5.254763178527355194e-03,6.345259957015514374e-03,-1.493761409074068069e-02,8.120778948068618774e-03,-1.844132132828235626e-02,7.664438337087631226e-03,4.885966423898935318e-03,-9.210479329340159893e-04,2.934103831648826599e-02,-1.723729074001312256e-02,9.653310291469097137e-03,2.460919553413987160e-03,-1.754409819841384888e-02,-1.105725299566984177e-02,-1.466889586299657822e-02,-4.056678619235754013e-03,9.880287572741508484e-03,-6.333656143397092819e-03,-2.061268547549843788e-03,-9.388644248247146606e-03,2.890461683273315430e-02,2.155240625143051147e-02,-5.237651639617979527e-04,-3.157372353598475456e-03,-6.919168867170810699e-03,2.573308302089571953e-03,5.968206096440553665e-03,9.674284607172012329e-03,8.468004874885082245e-03,5.537863355129957199e-03,9.364154539071023464e-04,2.658317098394036293e-03,-2.771636657416820526e-02,3.673063765745609999e-04,-2.410547062754631042e-02,1.666068471968173981e-02,1.445209980010986328e-02,6.782452692277729511e-04,1.677692867815494537e-02,-1.326712779700756073e-03,-7.943259552121162415e-03,8.489033207297325134e-03,5.087143741548061371e-03,1.706757955253124237e-02,-1.027534622699022293e-02,-3.329075640067458153e-03,2.653614245355129242e-02,9.383974596858024597e-03,-1.261531934142112732e-02,-1.716336421668529510e-02,8.073091506958007812e-03,5.748788826167583466e-03,-1.502749277278780937e-03,-8.740708231925964355e-03,4.462423268705606461e-03,1.301177684217691422e-02,8.969906717538833618e-03,-1.138017419725656509e-02,-1.170633919537067413e-02,-1.902898587286472321e-02,1.217962894588708878e-02,-2.420848235487937927e-02,-8.346392959356307983e-02,-9.133780375123023987e-03,8.496662601828575134e-03,-1.575818099081516266e-02,-9.098199196159839630e-03,-1.037401147186756134e-02,1.198494457639753819e-03,2.156989648938179016e-02,7.742783520370721817e-03,3.409839235246181488e-03,-7.563185878098011017e-03,-2.340548112988471985e-02,6.232088344404473901e-05,2.787240548059344292e-03,2.779485890641808510e-03,-1.257792115211486816e-02,4.783892631530761719e-02,4.464039113372564316e-03,2.308718161657452583e-03,4.277918487787246704e-03,6.375247612595558167e-03,-1.188495289534330368e-02,4.252576269209384918e-03,-5.678368732333183289e-03,-1.235351548530161381e-03,-2.283205278217792511e-02,4.311360418796539307e-03,-1.329761371016502380e-02,-9.304188191890716553e-03
-1.976058119907975197e-03,8.909340947866439819e-03,2.273660793434828520e-04,4.164011683315038681e-03,-2.105850540101528168e-02,-1.807144470512866974e-02,1.465230528265237808e-02,8.292260020971298218e-02,-2.333127707242965698e-02,1.246460806578397751e-02,-1.795156672596931458e-02,5.009770393371582031e-03,-1.079442724585533142e-02,-5.910192150622606277e-03,-7.383441552519798279e-03,-4.328920971602201462e-03,-9.571895934641361237e-03,2.923795953392982483e-03,2.372211217880249023e-02,-8.346457965672016144e-03,5.569532513618469238e-03,1.059140544384717941e-02,-2.269204147160053253e-02,-2.071614935994148254e-02,-6.328119197860360146e-04,7.092676125466823578e-03,-1.270156499231234193e-04,-2.072452753782272339e-02,6.763878278434276581e-03,1.162423100322484970e-02,-2.106740605086088181e-03,-1.655453629791736603e-02,1.676268316805362701e-02,2.136467397212982178e-02,6.269620731472969055e-03,-2.003155968850478530e-04,-2.357599092647433281e-03,2.077686600387096405e-03,1.362444087862968445e-02,-4.371501971036195755e-03,-2.686349302530288696e-02,-6.859897635877132416e-03,-1.407820452004671097e-02,1.511317491531372070e-02,-1.601743139326572418e-02,-1.121607143431901932e-02,-1.636447012424468994e-02,2.539171371608972549e-03,8.175294846296310425e-03,1.224258355796337128e-02,1.373753417283296585e-02,9.707753546535968781e-03,5.272345151752233505e-03,2.022147923707962036e-02,-8.282395079731941223e-03,-5.548661109060049057e-03,-7.108332938514649868e-04,-1.807336695492267609e-03,-6.670398171991109848e-03,-1.075018942356109619e-02,-7.785923779010772705e-03,-1.243128627538681030e-02,-4.355391860008239746e-02,2.486280351877212524e-02,-1.773539697751402855e-03,-1.983922161161899567e-02,1.542841928312554955e-04,8.391569717787206173e-04,5.874027498066425323e-03,6.598721258342266083e-03,-6.624948699027299881e-03,-2.543959766626358032e-03,-6.346121896058320999e-03,6.432674825191497803e-03,-1.319865114055573940e-03,1.165738049894571304e-02,8.353758603334426880e-04,-1.375153101980686188e-02,3.737137466669082642e-02,-6.446419749408960342e-03,-8.945453912019729614e-03,8.964206278324127197e-02,1.048761606216430664e-02,-1.230085734277963638e-03,-7.203998044133186340e-03,-7.766935974359512329e-03,-5.575925577431917191e-03,-9.348303079605102539e-03,-2.905133366584777832e-02,-4.284794908016920090e-03,1.404607389122247696e-02,-1.111280731856822968e-02,3.371830657124519348e-02,2.998983021825551987e-03,-2.806853735819458961e-03,-1.235680282115936279e-02,6.929216906428337097e-03,-2.397827617824077606e-02,3.119210014119744301e-03,1.601318642497062683e-02,4.174272995442152023e-03,-2.500134054571390152e-03,1.019674632698297501e-02,-1.528823561966419220e-02,-8.634526282548904419e-03,-3.315758658573031425e-03,4.447361920028924942e-03,1.615939429029822350e-03,-9.605763480067253113e-03,-1.664460077881813049e-02
1.005204161629080772e-03,1.788469613529741764e-03,6.110590882599353790e-03,1.470266189426183701e-02,4.203553870320320129e-02,-1.773815415799617767e-02,-9.424376301467418671e-03,-3.124490147456526756e-03,1.476824562996625900e-02,-2.612055279314517975e-02,-1.990654040127992630e-03,3.034018212929368019e-03,9.129906073212623596e-03,-1.210049493238329887e-03,-1.852163299918174744e-02,7.396709639579057693e-03,-5.506935063749551773e-03,1.184648601338267326e-03,-1.235281024128198624e-02,-1.330072898417711258e-02,8.834841661155223846e-03,-1.190263591706752777e-02,8.644642308354377747e-03,-1.065599033609032631e-03,2.877218357753008604e-04,-2.752053737640380859e-02,1.019230764359235764e-02,1.110263261944055557e-02,1.005383394658565521e-02,-3.929382190108299255e-03,-6.597584113478660583e-03,1.831193827092647552e-02,1.450184732675552368e-02,-1.046221237629652023e-02,1.553795207291841507e-02,1.954236067831516266e-02,-1.052382122725248337e-02,2.203151956200599670e-02,-2.758215367794036865e-02,1.783776283264160156e-02,1.818002434447407722e-03,1.369914133101701736e-02,-1.224310137331485748e-02,9.049694985151290894e-03,-5.184811889193952084e-04,-2.815133426338434219e-03,8.263005875051021576e-03,5.838078446686267853e-03,3.251661779358983040e-03,4.625111818313598633e-03,-2.008222974836826324e-03,7.747397292405366898e-03,-4.461186472326517105e-04,-2.161323279142379761e-02,3.534382674843072891e-03,9.148858487606048584e-03,-6.429683882743120193e-03,1.335784513503313065e-02,-4.754704787046648562e-05,6.806278252042829990e-04,-8.268104866147041321e-04,1.261982135474681854e-02,-8.214312605559825897e-03,-5.502808373421430588e-03,-1.256230939179658890e-02,-1.659067533910274506e-02,1.799044385552406311e-02,2.963537164032459259e-02,-3.193146083503961563e-03,3.099052468314766884e-03,-4.574589431285858154e-03,9.444633498787879944e-03,-2.979797683656215668e-02,-1.854240335524082184e-02,3.334062173962593079e-02,-2.537748217582702637e-02,1.088609639555215836e-02,-1.687854155898094177e-02,-2.835605852305889130e-02,1.036045886576175690e-02,-9.815087541937828064e-03,-1.398099120706319809e-02,-3.016378032043576241e-03,7.208836730569601059e-03,3.565341001376509666e-03,-5.165594164282083511e-03,-1.450013834983110428e-02,2.397201955318450928e-03,6.677987053990364075e-03,-8.737155236303806305e-03,-1.976096443831920624e-02,1.770568639039993286e-02,-2.732140477746725082e-03,1.099598780274391174e-02,1.983894594013690948e-02,4.430482629686594009e-03,2.268376387655735016e-02,-3.896282287314534187e-03,6.113902200013399124e-03,3.380901180207729340e-03,-3.136707097291946411e-02,1.494249515235424042e-02,6.904765963554382324e-03,-1.773169636726379395e-02,8.134141564369201660e-03,2.636182354763150215e-03,1.455605868250131607e-02,1.646751165390014648e-02,1.935145555762574077e-04,-3.633692103903740644e-04
-4.746495280414819717e-03,-4.261934664100408554e-03,9.943715296685695648e-03,-1.539002550998702645e-04,4.208544641733169556e-02,2.555411495268344879e-02,3.608027938753366470e-03,1.297456864267587662e-02,6.416085176169872284e-03,-2.351590897887945175e-03,-6.184004247188568115e-03,-2.034356445074081421e-02,-5.252862349152565002e-03,-2.112758718430995941e-02,1.457038242369890213e-02,1.389890559948980808e-03,5.576891824603080750e-03,-3.348439931869506836e-02,4.039933439344167709e-03,5.304950755089521408e-03,-2.294679637998342514e-03,7.549058645963668823e-03,-5.065352655947208405e-03,1.720366999506950378e-02,-1.826640218496322632e-02,2.267613774165511131e-03,1.211421098560094833e-02,-2.949693473055958748e-03,-4.509701393544673920e-03,-2.092304825782775879e-02,3.712157253175973892e-03,2.276263199746608734e-02,-1.942983479239046574e-03,-4.760479088872671127e-03,-1.208023913204669952e-02,1.332526328042149544e-03,5.302987061440944672e-03,4.981709062121808529e-04,1.091331709176301956e-02,-1.453748438507318497e-02,-2.037374302744865417e-02,8.219311013817787170e-03,6.073027383536100388e-03,6.491214036941528320e-03,1.026768935844302177e-03,7.559287361800670624e-03,-4.471369611565023661e-04,-9.066313505172729492e-03,-2.101123798638582230e-03,4.182081669569015503e-03,8.044981397688388824e-03,-6.776850670576095581e-03,1.805938780307769775e-02,1.606224849820137024e-02,3.638398274779319763e-02,1.888294331729412079e-02,6.756804883480072021e-03,2.292127814143896103e-03,-2.829396631568670273e-03,-8.137120865285396576e-03,8.726706728339195251e-03,-1.992652937769889832e-02,3.752982616424560547e-02,-1.723081246018409729e-02,1.488107722252607346e-02,1.963458582758903503e-02,-1.238970831036567688e-02,-1.276387181133031845e-02,1.662811264395713806e-02,-5.705380346626043320e-03,1.539108809083700180e-02,7.737420499324798584e-03,1.347408350557088852e-02,-9.506457485258579254e-03,-2.343070134520530701e-02,1.767058856785297394e-02,-1.243450585752725601e-02,-2.912215888500213623e-03,6.309269228950142860e-04,1.751412265002727509e-02,2.121931314468383789e-02,7.781375461490824819e-05,-2.190370112657546997e-03,3.195796906948089600e-02,-1.419981569051742554e-02,-4.476726055145263672e-03,1.585171371698379517e-02,-9.566733613610267639e-03,-2.501686103641986847e-02,-1.683319732546806335e-02,2.363310381770133972e-02,1.286804210394620895e-02,9.718122892081737518e-04,-2.093627303838729858e-02,-1.429441943764686584e-02,1.591378264129161835e-02,-1.670576445758342743e-02,4.634524695575237274e-03,-4.728606436401605606e-03,-2.171840053051710129e-03,-3.129396587610244751e-03,7.950236089527606964e-03,-1.623801141977310181e-02,9.760183282196521759e-03,4.205641453154385090e-04,-1.276632864028215408e-02,1.013850234448909760e-02,-1.108202990144491196e-02,1.770881377160549164e-02,1.077564153820276260e-02
-1.282372232526540756e-02,-2.228848170489072800e-03,-2.262841910123825073e-02,1.452046167105436325e-02,-4.457389190793037415e-02,-9.131910279393196106e-03,5.117913242429494858e-04,4.676850512623786926e-02,5.220600869506597519e-03,-1.219294127076864243e-02,-6.412445567548274994e-03,8.543850854039192200e-03,-1.267586927860975266e-02,1.105443458072841167e-03,2.885440771933645010e-04,1.850235089659690857e-02,1.243382040411233902e-02,-1.879656501114368439e-02,-7.503795903176069260e-03,-9.004441089928150177e-03,5.021282471716403961e-03,-9.503691457211971283e-03,-1.010010298341512680e-02,1.109388470649719238e-02,3.196366503834724426e-02,-3.688564896583557129e-02,-1.183904148638248444e-02,-3.874079324305057526e-03,-4.556730855256319046e-03,1.417547184973955154e-02,1.457197219133377075e-02,-1.141218841075897217e-02,-1.441640593111515045e-02,-1.958870142698287964e-02,1.910247141495347023e-03,-1.027105003595352173e-02,1.710150763392448425e-02,3.761698026210069656e-03,3.783189877867698669e-02,5.485131405293941498e-03,8.896535728126764297e-04,-4.699484258890151978e-02,3.805885789915919304e-03,-1.011251751333475113e-02,1.446748850867152214e-03,-8.845619857311248779e-03,2.944921329617500305e-02,-2.439969591796398163e-02,-4.358434118330478668e-03,-1.290276553481817245e-02,-5.524053238332271576e-03,-3.431024728342890739e-03,-4.776094108819961548e-03,6.008050986565649509e-04,-2.142371051013469696e-02,-1.443075016140937805e-02,8.762445300817489624e-03,-6.192798260599374771e-03,4.677678924053907394e-03,1.837507449090480804e-02,-2.719712676480412483e-03,-1.068406458944082260e-02,-1.492143142968416214e-02,1.694341190159320831e-02,-5.219792015850543976e-03,-2.574184164404869080e-02,-1.032608095556497574e-02,-9.505439549684524536e-03,-2.707081288099288940e-02,4.027129337191581726e-02,-2.019025152549147606e-03,1.639929041266441345e-02,6.274440092965960503e-04,2.921823970973491669e-02,3.709246590733528137e-02,-1.046773698180913925e-02,-2.663668943569064140e-03,1.321919634938240051e-02,-2.817738335579633713e-03,-1.553378067910671234e-03,-2.302938885986804962e-02,1.238235272467136383e-02,-2.845631213858723640e-03,-2.818379318341612816e-03,2.651646034792065620e-03,-8.593846112489700317e-03,5.744712427258491516e-03,3.861180506646633148e-03,-2.431767992675304413e-03,-2.805849071592092514e-03,-6.678012199699878693e-03,5.216940771788358688e-03,1.553228707052767277e-03,-6.099264137446880341e-03,4.895005375146865845e-03,8.706257678568363190e-03,-1.058721169829368591e-02,1.629352010786533356e-02,-4.572021309286355972e-03,7.035699207335710526e-03,-2.825490373652428389e-04,-1.608707825653254986e-03,-2.579107182100415230e-03,2.027569524943828583e-02,-8.144159801304340363e-03,-1.278323680162429810e-02,1.425066147930920124e-03,-1.297335885465145111e-02,-5.509434267878532410e-03,-2.010699361562728882e-02
5.813001655042171478e-03,-3.236508928239345551e-03,-6.861226633191108704e-03,-4.639034159481525421e-03,2.856993861496448517e-02,1.519272569566965103e-02,-1.743410155177116394e-02,-5.078042298555374146e-02,-2.120054326951503754e-02,5.052545107901096344e-03,6.196894217282533646e-03,-1.387715339660644531e-03,-1.817993447184562683e-02,1.576290279626846313e-02,-2.246619947254657745e-02,-8.980779908597469330e-03,1.418640650808811188e-02,-1.253799349069595337e-02,-9.146613068878650665e-03,-8.143561892211437225e-03,-3.032863512635231018e-02,-1.234001759439706802e-02,5.876058712601661682e-03,-1.116838399320840836e-02,-1.935650408267974854e-02,-2.026716247200965881e-02,2.621829044073820114e-03,-3.747905418276786804e-02,-2.103236969560384750e-03,-1.851240172982215881e-02,-9.475929662585258484e-03,-2.308521606028079987e-02,-3.033687062270473689e-05,9.624538943171501160e-04,-5.392050370573997498e-03,-8.513996377587318420e-03,-3.638000460341572762e-03,-7.608355022966861725e-03,-2.247222699224948883e-02,-1.340726111084222794e-02,1.796317100524902344e-02,-1.280013471841812134e-02,-4.397602286189794540e-03,3.831962123513221741e-02,1.321468222886323929e-02,1.224123872816562653e-02,-2.696552127599716187e-02,-1.075896807014942169e-02,-1.095621613785624504e-03,1.222393754869699478e-02,-9.328763931989669800e-03,-1.768367178738117218e-02,-1.945349574089050293e-02,-2.980359422508627176e-04,-3.005782142281532288e-02,1.990590710192918777e-03,-2.540902048349380493e-02,1.859740121290087700e-03,-1.684261299669742584e-02,-1.915599917992949486e-03,3.394854441285133362e-02,3.361425828188657761e-03,1.117853634059429169e-02,-2.863744273781776428e-02,-1.516532432287931442e-02,2.933753421530127525e-03,6.597504019737243652e-03,7.675244123674929142e-04,9.193259291350841522e-03,-2.088284678757190704e-02,-1.483274437487125397e-02,9.627646068111062050e-04,-7.608368177898228168e-04,3.505436470732092857e-03,-6.566285621374845505e-03,2.696941141039133072e-03,1.774365268647670746e-02,-2.709559537470340729e-02,-2.350741252303123474e-02,-1.361894886940717697e-02,2.925381530076265335e-03,-9.817969985306262970e-03,-3.706328570842742920e-03,-1.132338191382586956e-03,4.663579165935516357e-03,1.055654324591159821e-02,7.907915860414505005e-03,3.932167310267686844e-03,-2.860160358250141144e-02,2.734961360692977905e-02,-1.922298409044742584e-02,-8.489804342389106750e-03,-1.162835303694009781e-02,2.100914862239733338e-04,-2.651612274348735809e-03,-1.709193363785743713e-02,2.116264076903462410e-03,4.096478968858718872e-02,4.344725515693426132e-03,7.262643426656723022e-03,-2.756039611995220184e-02,7.166818249970674515e-03,-1.365140452980995178e-02,-8.796436712145805359e-03,4.283912858227267861e-05,-1.809547096490859985e-02,1.213969942182302475e-02,2.745017036795616150e-02,4.285223316401243210e-03,6.647878792136907578e-03
9.274336509406566620e-03,-1.778223738074302673e-02,1.122910156846046448e-02,1.413016952574253082e-02,-3.961161151528358459e-02,-4.690629895776510239e-03,-2.409483771771192551e-03,2.024667710065841675e-02,1.139017008244991302e-02,-3.533936105668544769e-03,2.281716093420982361e-03,1.709104515612125397e-02,-5.786138586699962616e-03,-1.625049859285354614e-02,8.875031024217605591e-03,2.218187786638736725e-03,-2.356886863708496094e-03,9.151354432106018066e-03,-1.382913440465927124e-02,4.923566011711955070e-04,2.793169952929019928e-02,1.500435988418757915e-03,-1.359316706657409668e-02,-2.195880003273487091e-02,2.214686712250113487e-03,4.703076556324958801e-03,9.809948503971099854e-03,2.428910462185740471e-03,1.805581152439117432e-02,2.087184228003025055e-02,-3.853793023154139519e-03,3.526525571942329407e-02,-1.223656814545392990e-02,-7.344265002757310867e-03,4.099552053958177567e-03,3.464096039533615112e-02,8.652226068079471588e-03,-1.689411140978336334e-02,5.226390436291694641e-03,8.595733670517802238e-04,-3.361856192350387573e-02,1.062027364969253540e-02,2.021875977516174316e-02,-2.048200368881225586e-02,-5.681696813553571701e-03,-2.060714364051818848e-02,-2.479254268109798431e-03,1.072816736996173859e-02,-3.989308141171932220e-03,5.806099623441696167e-03,3.365823999047279358e-02,1.230099238455295563e-03,5.176217760890722275e-03,-4.617941449396312237e-04,1.756537146866321564e-02,1.487498544156551361e-02,4.135802388191223145e-03,-1.986502856016159058e-02,7.067677564918994904e-03,-1.433020271360874176e-02,1.123314257711172104e-03,-2.231241762638092041e-02,-4.493496567010879517e-02,1.561184786260128021e-02,1.129011809825897217e-02,-1.500318641774356365e-03,-2.590304007753729820e-03,1.607983186841011047e-02,-5.527685862034559250e-03,3.563522594049572945e-03,3.252820170018821955e-04,1.469202712178230286e-02,-1.314935856498777866e-03,-8.033674210309982300e-03,1.341950520873069763e-02,8.788693696260452271e-03,-1.573145389556884766e-02,1.309219468384981155e-02,2.736312896013259888e-02,-4.988759756088256836e-03,1.352641452103853226e-02,6.122331600636243820e-03,4.801346454769372940e-03,-2.357491105794906616e-02,6.085131317377090454e-04,-3.960217349231243134e-03,-1.368816755712032318e-02,-9.398273192346096039e-03,-8.549138437956571579e-04,-6.056951358914375305e-03,7.615432608872652054e-03,5.739646498113870621e-03,1.554744411259889603e-02,-5.047217942774295807e-03,-9.825989603996276855e-03,2.079527266323566437e-02,-1.532044447958469391e-02,-2.791176736354827881e-02,1.140759605914354324e-02,1.107223611325025558e-02,4.665609449148178101e-02,4.184011835604906082e-03,6.719658616930246353e-03,1.226046960800886154e-02,1.189084164798259735e-02,-3.538654185831546783e-03,-6.047350354492664337e-03,1.931115984916687012e-02,1.096502784639596939e-02,-1.250310335308313370e-02
7.646914455108344555e-04,9.170246310532093048e-03,-1.448970724595710635e-04,-1.059403177350759506e-02,-1.243464369326829910e-02,-7.747801952064037323e-03,2.212468348443508148e-02,2.280979603528976440e-02,8.330279961228370667e-03,-6.533280480653047562e-03,6.984720006585121155e-03,-2.471573650836944580e-02,2.367843687534332275e-02,-1.929616322740912437e-03,-2.863442059606313705e-04,3.576498478651046753e-03,-8.984211599454283714e-04,-1.022248715162277222e-02,1.008171215653419495e-02,-1.638309098780155182e-03,-1.077249553054571152e-02,-1.177197322249412537e-02,1.083681359887123108e-02,1.796598173677921295e-02,4.206969216465950012e-02,7.297432050108909607e-03,1.835298538208007812e-02,-2.148983441293239594e-02,1.569290272891521454e-02,2.742384560406208038e-03,1.243910100311040878e-02,-2.120517939329147339e-02,-2.708825841546058655e-02,9.238919243216514587e-03,-1.181063894182443619e-02,-2.177934907376766205e-02,7.341822143644094467e-03,2.542041614651679993e-02,8.724612183868885040e-03,1.351771689951419830e-02,-6.736147217452526093e-03,1.790408790111541748e-02,-1.257162075489759445e-02,-2.646664902567863464e-02,-1.221300754696130753e-02,3.482380183413624763e-03,2.878586389124393463e-02,-6.772215478122234344e-03,8.382405154407024384e-03,1.172358286567032337e-03,-3.241118788719177246e-02,-4.045465029776096344e-04,-2.732089196797460318e-04,-4.985447041690349579e-03,-6.112305447459220886e-03,3.300140378996729851e-03,1.348152942955493927e-02,1.681346073746681213e-02,1.648866198956966400e-02,-3.284620121121406555e-03,-2.648188918828964233e-02,-4.218635614961385727e-03,1.439992431551218033e-02,-2.266617864370346069e-02,6.560252048075199127e-03,5.189502239227294922e-02,2.338250726461410522e-02,-3.791025839745998383e-03,-3.135740756988525391e-02,7.277366705238819122e-03,4.264390561729669571e-03,1.275512203574180603e-02,-5.431497003883123398e-03,1.644951477646827698e-02,6.395517848432064056e-03,-3.256395459175109863e-03,6.845306605100631714e-03,-5.448348820209503174e-03,-8.368961862288415432e-04,1.108392141759395599e-02,7.038999814540147781e-03,3.472555056214332581e-02,-2.828659862279891968e-02,-1.552412984892725945e-03,-2.399617340415716171e-03,1.672953553497791290e-02,1.846158644184470177e-03,-1.708051376044750214e-02,8.985837921500205994e-04,1.308124698698520660e-02,1.318281982094049454e-02,2.519796136766672134e-03,-3.089537611231207848e-03,-1.131545938551425934e-02,-5.090230144560337067e-03,1.204661838710308075e-02,-1.565200625918805599e-03,1.129152718931436539e-02,1.602613180875778198e-02,3.140366170555353165e-03,2.585797198116779327e-02,-5.301629751920700073e-02,3.731717821210622787e-03,-7.904103258624672890e-04,-4.953301511704921722e-03,-1.622095471248030663e-03,-3.138588368892669678e-02,-6.373608484864234924e-03,-7.823923602700233459e-03,8.914632722735404968e-03
-1.127437967807054520e-02,-1.137895323336124420e-02,1.307391375303268433e-02,8.479864336550235748e-03,-7.337119430303573608e-02,-1.102398522198200226e-02,-3.478138893842697144e-02,1.394834090024232864e-02,-1.258706324733793736e-03,-1.473040226846933365e-02,5.384423304349184036e-03,1.913953386247158051e-02,-5.714103463105857372e-04,5.533536750590428710e-05,3.334554145112633705e-03,2.964628627523779869e-03,-1.251564361155033112e-02,5.841105058789253235e-02,-3.126122173853218555e-04,-9.244415909051895142e-03,1.437805499881505966e-02,-1.709233224391937256e-02,9.445063769817352295e-03,1.929669757373631001e-03,-4.609235376119613647e-02,-4.009811207652091980e-02,1.202537678182125092e-02,-5.839521810412406921e-02,7.763183210045099258e-03,-2.054464071989059448e-02,-1.867198199033737183e-02,4.798490554094314575e-02,-6.644249428063631058e-03,-5.416172556579113007e-03,2.764465985819697380e-03,6.133416667580604553e-03,-1.370617561042308807e-02,-1.869320287369191647e-03,5.981367081403732300e-03,-3.300466109067201614e-03,-4.183551296591758728e-02,-4.788087215274572372e-03,7.422549184411764145e-03,2.134363353252410889e-02,-8.229946251958608627e-04,2.266238257288932800e-02,-9.982000105082988739e-03,-1.663884893059730530e-02,-6.000905763357877731e-03,-4.881930537521839142e-03,3.056512959301471710e-02,-4.106834158301353455e-02,3.633758518844842911e-03,-9.538085199892520905e-03,1.855562441051006317e-02,9.924538433551788330e-03,-2.509958110749721527e-02,-4.519842565059661865e-03,-5.838117562234401703e-03,-2.032386884093284607e-02,1.863092742860317230e-02,-1.752396859228610992e-02,7.992176711559295654e-02,-1.790013280697166920e-03,-1.122519467025995255e-02,3.993537276983261108e-03,-2.855082787573337555e-02,2.987114712595939636e-02,7.784507423639297485e-02,2.153853885829448700e-02,6.350827869027853012e-03,-1.420870609581470490e-02,9.687157347798347473e-03,-2.193023264408111572e-02,2.889041230082511902e-02,-6.814884953200817108e-03,-6.566106341779232025e-03,-9.175969287753105164e-03,9.740144014358520508e-03,-2.020317828282713890e-03,3.387691685929894447e-03,-4.487349465489387512e-02,-4.664699546992778778e-03,1.187191344797611237e-03,1.159064751118421555e-02,3.560520708560943604e-03,1.418538950383663177e-02,1.388402748852968216e-02,-1.964296214282512665e-02,8.195668342523276806e-04,-2.254506340250372887e-03,6.706683780066668987e-04,1.943736895918846130e-02,2.245000563561916351e-02,-1.171273272484540939e-02,6.829338613897562027e-03,1.411238778382539749e-02,-5.612491630017757416e-03,-1.504868641495704651e-02,-7.277457189047709107e-05,-7.133864611387252808e-02,-2.351200906559824944e-03,-1.159764733165502548e-02,8.924266323447227478e-03,2.477322332561016083e-02,3.512507071718573570e-03,1.611080765724182129e-02,-6.117467768490314484e-03,2.663407288491725922e-02,-6.286541465669870377e-03
-3.571311244741082191e-03,-9.660633280873298645e-03,-1.994204521179199219e-02,3.130335360765457153e-02,9.394103288650512695e-02,-1.302074640989303589e-02,-8.655287325382232666e-03,-8.130982518196105957e-03,8.540424518287181854e-03,5.148414056748151779e-03,7.220111321657896042e-03,-1.399597618728876114e-02,1.925782673060894012e-02,1.040077395737171173e-02,2.922588214278221130e-02,-2.206872915849089622e-03,9.111101739108562469e-03,-8.297378569841384888e-02,-2.070905081927776337e-02,5.112198181450366974e-03,3.661589464172720909e-03,-6.397579330950975418e-03,1.090652123093605042e-02,-1.152110006660223007e-02,2.356871590018272400e-02,-2.162085473537445068e-02,-2.538481540977954865e-02,-1.804271526634693146e-02,-1.694169826805591583e-02,3.020406886935234070e-02,-4.383088089525699615e-03,2.172683365643024445e-02,4.251017700880765915e-03,-9.637734852731227875e-03,5.341737996786832809e-03,2.268723025918006897e-02,5.410317797213792801e-03,-6.551201920956373215e-03,-8.441929705440998077e-03,1.145742426160722971e-04,-5.673969537019729614e-02,-8.931834250688552856e-03,1.792145334184169769e-02,-6.594954989850521088e-03,1.215759757906198502e-02,-1.078166346997022629e-02,8.208482526242733002e-03,2.186232060194015503e-02,-7.837973535060882568e-04,2.413045987486839294e-02,6.944873020984232426e-04,5.104811862111091614e-03,2.597016841173171997e-02,-3.136085718870162964e-02,-2.062991075217723846e-02,8.744117803871631622e-03,1.225858554244041443e-02,-1.365186646580696106e-02,-5.860999226570129395e-03,1.102303713560104370e-02,-1.029437314718961716e-02,-7.706386037170886993e-03,-2.472710795700550079e-02,1.634761691093444824e-02,2.022256702184677124e-02,-2.841449715197086334e-02,-1.431007776409387589e-02,-2.376957423985004425e-02,-4.688403382897377014e-02,-5.043984856456518173e-03,-7.723110727965831757e-03,1.549134310334920883e-02,-1.907277968712151051e-03,2.904234454035758972e-02,-4.374301061034202576e-03,-1.302660163491964340e-02,8.420476689934730530e-03,-3.125997725874185562e-03,-2.424336783587932587e-02,1.114776171743869781e-02,-2.010116726160049438e-02,2.615881524980068207e-02,6.201952230185270309e-03,6.662337575107812881e-03,-2.619564719498157501e-02,-5.191402975469827652e-03,-9.698107838630676270e-03,-1.359464018605649471e-03,1.332245580852031708e-02,-3.447640221565961838e-03,-2.025651000440120697e-02,8.940648287534713745e-02,2.928821602836251259e-03,-2.136975154280662537e-02,-9.720642701722681522e-04,-1.885548792779445648e-02,-6.692912895232439041e-03,-1.250136829912662506e-02,-1.438826788216829300e-03,-6.222391501069068909e-03,1.359663903713226318e-02,-1.170313078910112381e-02,7.568648084998130798e-03,6.056389305740594864e-03,-1.115454826503992081e-02,-2.649917034432291985e-03,-2.964918501675128937e-02,-8.444611914455890656e-03,9.074867703020572662e-03,5.942245014011859894e-03
9.624425321817398071e-03,-1.983935199677944183e-02,3.367135068401694298e-04,-1.066084299236536026e-02,-4.600393027067184448e-02,1.123520638793706894e-02,-4.473242443054914474e-03,1.773000694811344147e-02,-1.758803240954875946e-02,1.451271865516901016e-02,-8.079349994659423828e-03,1.008500251919031143e-02,-2.221576496958732605e-02,-8.493487723171710968e-03,-1.486873161047697067e-02,-2.224680269137024879e-03,-2.040940709412097931e-02,6.215707585215568542e-02,3.202451160177588463e-03,-1.805987325496971607e-03,1.786967157386243343e-03,9.052331559360027313e-03,-3.470564633607864380e-02,-3.172557801008224487e-03,5.810576491057872772e-03,-2.914990298449993134e-02,1.009964616969227791e-03,-5.056167021393775940e-02,3.443036973476409912e-02,1.098885200917720795e-02,-3.354975488036870956e-03,1.885244622826576233e-03,2.610811591148376465e-02,3.221645951271057129e-03,-1.849820837378501892e-02,6.408239249140024185e-03,8.773253648541867733e-04,-2.509861020371317863e-03,1.920616487041115761e-03,-2.970647811889648438e-02,-6.546241044998168945e-02,1.593668572604656219e-02,1.336170919239521027e-02,-1.129316631704568863e-03,-1.410013996064662933e-02,1.979807391762733459e-03,1.320200599730014801e-02,1.347894873470067978e-02,-1.196935772895812988e-02,-3.085829084739089012e-03,-8.329359814524650574e-03,3.144251415506005287e-03,6.218785420060157776e-04,-2.270931005477905273e-02,9.615410817787051201e-04,-3.750115260481834412e-02,1.619564485736191273e-03,-3.424235328566282988e-04,-6.575989071279764175e-03,-2.345437742769718170e-02,-3.198222839273512363e-05,-3.135302290320396423e-02,3.719877079129219055e-02,-3.365483367815613747e-03,-2.789459563791751862e-02,1.455571223050355911e-02,-2.547987096477299929e-04,1.084294356405735016e-02,7.639773190021514893e-03,-2.046858333051204681e-02,-4.312481265515089035e-03,-5.588932894170284271e-03,-4.190941341221332550e-03,2.284873276948928833e-03,2.418642863631248474e-03,7.786354981362819672e-03,-1.259671710431575775e-02,1.536583807319402695e-02,2.969541214406490326e-02,-8.075661957263946533e-03,1.946758292615413666e-02,-4.391042166389524937e-04,-7.051666267216205597e-03,-2.460160106420516968e-02,2.634643111377954483e-03,-5.153541918843984604e-03,6.480994168668985367e-03,1.008040923625230789e-02,8.262005634605884552e-03,1.532607898116111755e-02,3.718982683494687080e-03,-5.842999368906021118e-02,6.050401180982589722e-02,-4.071675240993499756e-03,4.404257982969284058e-03,3.260532626882195473e-03,-2.862724848091602325e-02,-1.218761038035154343e-02,2.945763245224952698e-02,2.314791548997163773e-03,-2.567895315587520599e-02,2.271017758175730705e-03,7.369539234787225723e-03,-6.737075746059417725e-03,-2.366350032389163971e-03,1.003823988139629364e-02,2.382702194154262543e-02,1.945185661315917969e-02,-2.111808583140373230e-02,-1.878544501960277557e-02
3.593812696635723114e-03,-1.731840777210891247e-03,1.870104670524597168e-02,2.474188245832920074e-02,7.828508317470550537e-02,-2.032476849853992462e-02,-1.017809566110372543e-02,-3.224824368953704834e-02,-4.434323403984308243e-03,1.597923971712589264e-02,2.541724033653736115e-02,3.498100442811846733e-03,1.870538806542754173e-03,-1.671005971729755402e-02,2.931069117039442062e-03,-1.419340167194604874e-02,9.635590831749141216e-04,6.214252207428216934e-03,-3.747782320715487003e-04,1.465651206672191620e-03,1.691302470862865448e-02,-2.446549758315086365e-02,-1.272925548255443573e-02,-2.251981943845748901e-02,-1.983029302209615707e-03,-2.496105991303920746e-02,1.000823546200990677e-02,-6.608475744724273682e-02,1.772324740886688232e-02,1.288375537842512131e-02,-7.856615819036960602e-03,3.042587451636791229e-02,3.264616429805755615e-02,8.739914046600461006e-04,4.812382627278566360e-03,4.333164915442466736e-02,1.984645612537860870e-02,6.966248038224875927e-04,-1.310892868787050247e-03,1.011393684893846512e-02,-1.765845157206058502e-02,-2.878414280712604523e-02,3.655924648046493530e-02,-1.492150686681270599e-02,-9.012101218104362488e-03,-3.755130106583237648e-03,-5.143936723470687866e-03,2.855612197890877724e-03,1.438533049076795578e-02,1.070668268948793411e-02,2.526062540709972382e-02,-3.621557727456092834e-02,1.207792479544878006e-02,-3.249111399054527283e-02,-1.503332331776618958e-02,1.036567031405866146e-03,-4.528502002358436584e-03,-2.060739137232303619e-02,1.004433818161487579e-02,-4.610007628798484802e-03,-1.753962226212024689e-02,-1.985814981162548065e-02,4.849106445908546448e-02,-4.040752071887254715e-03,8.696879260241985321e-03,-1.437901798635721207e-02,3.866307088173925877e-04,3.292773908469825983e-04,6.872045341879129410e-03,-8.956349454820156097e-03,-1.267005503177642822e-02,8.193662390112876892e-03,-4.966039676219224930e-03,1.469714101403951645e-02,3.133768960833549500e-02,-7.011941634118556976e-03,-9.064064361155033112e-03,-9.142091497778892517e-03,-1.160762272775173187e-02,1.649907417595386505e-02,-2.151584438979625702e-02,4.138669371604919434e-02,8.039422333240509033e-03,3.940660972148180008e-03,-1.206080056726932526e-02,4.794063977897167206e-03,1.167855411767959595e-02,4.413921851664781570e-03,1.577362418174743652e-02,1.685890741646289825e-02,-1.002831151708960533e-03,5.477928742766380310e-02,1.222633291035890579e-03,2.333945594727993011e-03,-2.159610576927661896e-02,-2.797273686155676842e-03,-5.779796279966831207e-03,6.178499199450016022e-03,7.364140823483467102e-03,-1.270212978124618530e-02,-4.261587932705879211e-02,2.356887422502040863e-02,-2.208217978477478027e-02,-2.103303186595439911e-02,2.526971511542797089e-02,3.341488540172576904e-03,-1.009152363985776901e-02,-8.876262232661247253e-03,2.099338453263044357e-03,-1.080586202442646027e-02
-1.945476233959197998e-02,-5.995545070618391037e-03,3.057991154491901398e-03,-1.625518128275871277e-02,-3.725903853774070740e-02,-2.431344706565141678e-03,1.357567403465509415e-02,1.058973278850317001e-02,1.036825589835643768e-02,-1.802174490876495838e-03,-1.702221482992172241e-02,4.812707193195819855e-03,5.444954149425029755e-04,1.132942456752061844e-02,2.542421966791152954e-02,-4.604910966008901596e-03,-1.467965915799140930e-02,-3.631916642189025879e-02,1.216689310967922211e-02,1.157980994321405888e-03,2.009120956063270569e-02,1.243479643017053604e-02,7.762120803818106651e-04,-3.910823911428451538e-02,-1.839595474302768707e-02,2.916159667074680328e-02,1.901755854487419128e-02,1.279569324105978012e-02,3.620309382677078247e-02,1.813150197267532349e-02,-2.182374522089958191e-02,2.252106368541717529e-02,1.664983108639717102e-02,4.550454206764698029e-03,1.019872142933309078e-03,-1.013977080583572388e-02,-2.787218056619167328e-02,-4.670573398470878601e-03,1.124949939548969269e-02,-4.961049184203147888e-03,-6.447818130254745483e-02,2.056568861007690430e-02,-1.932796463370323181e-02,2.246707864105701447e-02,1.285029388964176178e-02,1.115981768816709518e-02,-1.109557785093784332e-02,-1.937733497470617294e-03,-9.559541940689086914e-03,1.079546520486474037e-03,-3.856405150145292282e-03,-1.097225211560726166e-02,-4.199533257633447647e-03,-1.133844908326864243e-02,-5.835289601236581802e-03,-8.391776122152805328e-03,9.492458048043772578e-05,-1.073664147406816483e-02,5.619778297841548920e-03,-3.292308421805500984e-03,5.642928183078765869e-03,-1.017045881599187851e-02,-3.960353508591651917e-02,1.952742692083120346e-03,-1.250259391963481903e-02,2.154851332306861877e-02,2.276801737025380135e-03,4.356449469923973083e-03,6.771388580091297626e-04,3.119935572613030672e-04,-4.517736306297592819e-05,1.844858634285628796e-03,1.240332238376140594e-02,1.365850958973169327e-02,1.137705519795417786e-02,-5.269203800708055496e-03,1.353277009911835194e-03,4.180643707513809204e-03,1.268006581813097000e-02,-1.525154151022434235e-02,1.998300850391387939e-02,9.793648496270179749e-04,1.970936171710491180e-02,-1.238130219280719757e-02,-2.372962608933448792e-02,1.512701041065156460e-03,2.868945593945682049e-04,3.124884562566876411e-03,-1.443952228873968124e-02,-3.379928879439830780e-03,-1.224459894001483917e-02,-6.287191528826951981e-03,3.829114884138107300e-02,-1.471332646906375885e-02,-1.209733262658119202e-02,8.863388211466372013e-04,2.012742497026920319e-02,2.770442701876163483e-02,1.335565932095050812e-02,-8.181381970643997192e-03,1.907327445223927498e-03,-3.634655103087425232e-02,7.526096422225236893e-03,2.680447883903980255e-02,-1.026687771081924438e-02,8.222133852541446686e-03,-1.219920068979263306e-02,-2.895032055675983429e-03,-1.318324077874422073e-02,-4.388336674310266972e-04
-9.714667685329914093e-03,-2.517982386052608490e-02,1.034403976518660784e-04,7.771472912281751633e-03,-3.779247030615806580e-02,-3.945364733226597309e-04,-2.312555164098739624e-02,-2.231340110301971436e-02,-2.461558952927589417e-02,1.837648451328277588e-02,1.625491864979267120e-02,-2.601228421553969383e-03,4.319500876590609550e-04,2.053854987025260925e-02,-3.153287246823310852e-02,-1.156978122889995575e-02,-4.917691461741924286e-03,7.884597405791282654e-03,-2.741627953946590424e-02,2.245785295963287354e-02,1.002887822687625885e-02,2.010939456522464752e-02,6.776255089789628983e-03,2.581935934722423553e-02,2.463044784963130951e-02,-2.778327465057373047e-02,-7.331022061407566071e-03,-2.268483303487300873e-02,2.051908336579799652e-02,-1.361668226309120655e-03,1.372124006593367085e-05,-4.110815003514289856e-03,1.542454957962036133e-02,-1.450359541922807693e-02,-8.569321595132350922e-03,-1.194246299564838409e-02,1.572705619037151337e-02,8.482001721858978271e-03,-1.299574878066778183e-02,1.657641405472531915e-05,-4.284117370843887329e-02,-1.634081080555915833e-02,1.574131101369857788e-02,-2.367297420278191566e-03,-2.560917846858501434e-02,6.974616087973117828e-03,4.239937290549278259e-03,-2.502763178199529648e-03,1.462508644908666611e-02,-3.614391607698053122e-05,1.722223311662673950e-02,2.713255025446414948e-02,1.997556164860725403e-02,-1.579780504107475281e-02,-1.578947901725769043e-02,2.950049936771392822e-02,6.229188293218612671e-03,7.685991469770669937e-03,-1.787240058183670044e-02,-4.322803113609552383e-03,4.548101220279932022e-03,1.716873492114245892e-03,2.461926825344562531e-02,6.276542320847511292e-03,2.385025285184383392e-02,1.892957137897610664e-03,-6.961023900657892227e-03,-6.778831593692302704e-03,4.784037359058856964e-03,-1.202103029936552048e-02,4.439936019480228424e-03,3.618258051574230194e-03,-1.864552870392799377e-02,7.041275966912508011e-03,3.249538829550147057e-03,1.945379190146923065e-02,2.308364585041999817e-02,-1.648301142267882824e-03,2.024932019412517548e-02,6.637562531977891922e-03,6.810446735471487045e-03,1.633645035326480865e-03,3.459756821393966675e-02,-1.613018475472927094e-02,8.511187508702278137e-03,-5.146416835486888885e-03,-1.351674785837531090e-03,9.553766576573252678e-04,2.721375972032546997e-02,1.451998017728328705e-02,-1.832887028285767883e-05,3.539892286062240601e-02,3.011194802820682526e-02,1.711877621710300446e-02,8.872929960489273071e-03,1.989381387829780579e-02,1.674000406637787819e-03,-9.715635329484939575e-03,5.869735963642597198e-03,-1.634449698030948639e-02,1.316260825842618942e-02,-8.745118044316768646e-03,-2.182805212214589119e-03,-5.715994120691902936e-05,5.211344105191528797e-04,-7.687393110245466232e-03,4.381533712148666382e-03,-3.735704347491264343e-03,6.687838584184646606e-03,5.061890929937362671e-03
3.176238015294075012e-02,3.112272173166275024e-02,1.426749583333730698e-02,-2.112162997946143150e-03,4.058121517300605774e-02,1.991843245923519135e-02,-3.900596930179744959e-04,1.093563716858625412e-02,-4.645111039280891418e-03,-1.053374633193016052e-02,1.984176039695739746e-02,5.134094506502151489e-03,-2.003878541290760040e-02,-2.668697945773601532e-02,1.125699258409440517e-03,1.976235769689083099e-03,1.351146958768367767e-02,4.249968007206916809e-02,1.060080528259277344e-02,-2.333101071417331696e-02,-2.098346315324306488e-02,-2.879332192242145538e-02,1.370836514979600906e-02,-5.415769759565591812e-03,-6.739254109561443329e-03,-3.036519140005111694e-02,-1.864192192442715168e-03,4.235167801380157471e-02,-7.757853250950574875e-03,-1.408619061112403870e-02,1.653897226788103580e-03,-7.303830701857805252e-03,-2.240318059921264648e-02,-2.409049496054649353e-02,1.437817350961267948e-03,-1.414859853684902191e-02,-8.168928325176239014e-03,7.800776511430740356e-03,6.020760047249495983e-04,2.276749722659587860e-02,5.451094359159469604e-02,1.279425621032714844e-02,-6.244244519621133804e-03,1.896488294005393982e-02,1.092049200087785721e-02,-6.182337645441293716e-03,1.459611020982265472e-02,-2.241147123277187347e-02,-8.838122710585594177e-03,3.441925393417477608e-03,-1.636078208684921265e-02,6.636437028646469116e-03,-1.071646809577941895e-03,2.292554266750812531e-02,-3.164024557918310165e-03,3.778592683374881744e-03,-1.511845155619084835e-03,1.375248190015554428e-03,-4.769461229443550110e-03,3.285541897639632225e-03,9.537853300571441650e-03,2.413848973810672760e-02,-5.324256420135498047e-02,1.285209041088819504e-02,6.019452121108770370e-03,1.496049761772155762e-02,5.818992853164672852e-03,-1.696132123470306396e-02,-3.415143350139260292e-03,6.690130103379487991e-03,1.245728787034749985e-02,-4.047232214361429214e-03,3.174321027472615242e-03,-7.008723914623260498e-03,-2.933115465566515923e-03,-2.196549437940120697e-02,-2.563896961510181427e-02,-8.857412263751029968e-03,-1.417567115277051926e-02,1.309075392782688141e-03,-6.362698506563901901e-03,-1.843515597283840179e-02,2.391734160482883453e-03,1.663660816848278046e-02,-3.903744742274284363e-03,-3.295543836429715157e-03,1.337831281125545502e-02,1.500547956675291061e-02,-1.205430366098880768e-02,1.204112078994512558e-02,6.926766131073236465e-03,-1.512192748486995697e-02,-7.238762918859720230e-03,-2.900583110749721527e-02,4.422797355800867081e-03,-7.480991072952747345e-03,-2.787295915186405182e-02,-8.061281405389308929e-03,-9.818321093916893005e-03,1.189518719911575317e-02,1.369400788098573685e-02,3.172392770648002625e-02,-1.953876763582229614e-02,-2.121231704950332642e-02,-5.038650240749120712e-03,-1.061013154685497284e-02,-1.091227121651172638e-02,-6.245292723178863525e-03,3.081242926418781281e-02,1.492974720895290375e-02
