-2.113408744335174561e-01,4.119465127587318420e-02,-1.904136389493942261e-01,8.111480623483657837e-02,-4.285614565014839172e-02
-1.266924478113651276e-02,-2.024897374212741852e-02,2.335988543927669525e-02,-2.457255683839321136e-02,-2.543475665152072906e-02
1.286140992306172848e-03,8.245181292295455933e-03,2.060087770223617554e-02,8.711042813956737518e-03,8.158524520695209503e-03
2.789811491966247559e-01,-4.168427288532257080e-01,-3.600685624405741692e-03,2.816044986248016357e-01,-1.087248995900154114e-01
-1.223984360694885254e-02,-1.365180499851703644e-02,-2.945668622851371765e-02,-1.488400902599096298e-02,-1.295118965208530426e-02
-2.777988612651824951e-01,-3.087418153882026672e-02,3.147025033831596375e-02,2.033064514398574829e-01,-1.479999870061874390e-01
1.068730801343917847e-01,-2.050186693668365479e-01,-2.558420300483703613e-01,-6.366410851478576660e-02,2.363956421613693237e-01
-2.992699146270751953e-01,-4.135346785187721252e-02,2.183253914117813110e-01,5.220862850546836853e-02,4.428792372345924377e-02
-2.090106904506683350e-01,6.558659672737121582e-02,-1.412679702043533325e-01,4.154114425182342529e-02,5.298564210534095764e-02
-4.113520309329032898e-02,4.898087680339813232e-01,-1.509048789739608765e-01,6.365759298205375671e-03,-3.506058454513549805e-01
2.655639685690402985e-02,3.651435300707817078e-02,4.744147881865501404e-02,4.076936468482017517e-02,3.973756358027458191e-02
-8.735021576285362244e-03,-5.526295397430658340e-03,1.328488159924745560e-02,-8.735715411603450775e-03,-6.540321744978427887e-03
-8.878926187753677368e-02,4.976513236761093140e-02,-2.062629312276840210e-01,2.186190709471702576e-02,6.069815717637538910e-03
2.348758131265640259e-01,1.918200999498367310e-01,-6.421027332544326782e-02,-7.024893164634704590e-02,-1.131049469113349915e-01
7.382881361991167068e-03,1.122890855185687542e-03,1.972885802388191223e-03,1.112491358071565628e-03,2.532927086576819420e-03
5.029537715017795563e-03,1.948498934507369995e-02,2.077175490558147430e-02,2.096675522625446320e-02,1.912764273583889008e-02
8.096557110548019409e-03,3.303975760936737061e-01,-1.386400014162063599e-01,-4.014239013195037842e-01,2.434946596622467041e-01
1.341654453426599503e-02,2.278394997119903564e-02,-2.648967877030372620e-02,2.111383713781833649e-02,2.085350081324577332e-02
1.883645504713058472e-01,1.853315681219100952e-01,-1.544561684131622314e-01,-6.224963068962097168e-02,-5.530321598052978516e-02
3.290491877123713493e-03,3.712968667969107628e-03,-1.043279306031763554e-03,4.257347900420427322e-03,7.715815212577581406e-03
-3.198859691619873047e-01,-2.204151153564453125e-01,-2.473949790000915527e-01,-5.432514473795890808e-02,3.173151016235351562e-01
-1.212672814726829529e-01,-3.543663322925567627e-01,-2.561257779598236084e-01,1.880541592836380005e-01,3.591579571366310120e-02
-1.216507554054260254e-01,2.954889833927154541e-01,1.965811848640441895e-02,1.300401985645294189e-01,-3.372555375099182129e-01
-1.058825291693210602e-02,-1.816857419908046722e-02,-3.284504637122154236e-02,-2.246924676001071930e-02,-2.281946130096912384e-02
-6.892403587698936462e-03,5.673781037330627441e-02,-6.425851583480834961e-01,4.177732393145561218e-02,4.437304660677909851e-02
-8.581057190895080566e-02,1.540164835751056671e-02,7.434479426592588425e-03,1.975149934878572822e-04,-9.771297685801982880e-03
2.407872378826141357e-01,2.071018069982528687e-01,4.183417186141014099e-02,-1.826789113692939281e-03,-2.107626348733901978e-01
-9.595046751201152802e-03,-2.235591784119606018e-02,1.537877600640058517e-02,-2.157206274569034576e-02,-2.020738087594509125e-02
-7.276914548128843307e-03,-2.503030374646186829e-02,2.016765438020229340e-02,-2.713818103075027466e-02,-2.602308429777622223e-02
-9.645698592066764832e-03,-2.528461860492825508e-03,-2.610704116523265839e-02,-3.118708962574601173e-03,-4.398984834551811218e-03
1.167934834957122803e-01,-1.912067458033561707e-02,-2.271339893341064453e-01,-8.198146708309650421e-03,-9.796625003218650818e-03
-2.965955063700675964e-03,1.264962484128773212e-03,3.724024072289466858e-02,5.472474731504917145e-03,9.036244824528694153e-03
-1.269451063126325607e-02,-1.117638498544692993e-02,-4.017666913568973541e-03,-1.385614182800054550e-02,-1.575761847198009491e-02
2.869659662246704102e-01,-2.035277187824249268e-01,3.911642730236053467e-02,-2.174669690430164337e-02,6.198703870177268982e-02
1.981387883424758911e-01,3.078534901142120361e-01,-2.224823385477066040e-01,-2.166410908102989197e-02,-2.382256537675857544e-01
4.798111040145158768e-03,9.598916396498680115e-03,2.550896629691123962e-02,1.376966666430234909e-02,1.002237107604742050e-02
1.409002672880887985e-02,4.052651301026344299e-02,-3.199147880077362061e-01,4.537199065089225769e-02,4.716354981064796448e-02
-3.331996267661452293e-03,1.051532337442040443e-03,-8.748317137360572815e-03,-7.647796999663114548e-03,-6.736016832292079926e-03
-3.828789666295051575e-02,2.981238663196563721e-01,-1.253255009651184082e-01,-7.963428646326065063e-02,-7.982442528009414673e-02
-5.263093393296003342e-03,-8.297205786220729351e-04,-1.393212284892797470e-02,-3.429282456636428833e-03,-3.391880774870514870e-03
-2.377039641141891479e-01,-2.477654963731765747e-01,-4.834223911166191101e-02,-1.411227229982614517e-02,2.488850951194763184e-01
1.876606047153472900e-01,3.945048153400421143e-01,4.384820535778999329e-02,1.046845316886901855e-02,-2.630785703659057617e-01
-2.862511901184916496e-03,1.900926465168595314e-03,-2.319095283746719360e-02,-1.344326592516154051e-04,4.088282585144042969e-04
-6.406650543212890625e-01,-3.629353642463684082e-01,-2.182371318340301514e-01,6.457350403070449829e-02,2.457298040390014648e-01
-3.661003196612000465e-03,-9.096839348785579205e-04,-5.431602708995342255e-03,-8.667486254125833511e-04,-2.870728028938174248e-03
-6.245563738048076630e-03,-9.899003431200981140e-03,-2.712304145097732544e-02,-1.763257756829261780e-02,-1.719356700778007507e-02
1.385848820209503174e-01,-4.175946116447448730e-01,1.088567376136779785e-01,6.744974851608276367e-02,9.488469362258911133e-02
-6.778904050588607788e-02,-2.141138613224029541e-01,8.955354988574981689e-02,9.332925081253051758e-02,-1.059336774051189423e-02
1.504633482545614243e-02,2.905243262648582458e-02,1.803964551072567701e-04,2.706008963286876678e-02,3.006464987993240356e-02
-1.235712989000603557e-04,1.296926569193601608e-02,3.626124933362007141e-02,9.902374818921089172e-03,1.043850835412740707e-02
-1.132049132138490677e-03,-7.414843887090682983e-03,2.341246791183948517e-02,-7.079502567648887634e-03,-5.614773835986852646e-03
1.058425568044185638e-02,6.843276787549257278e-03,2.445136569440364838e-02,9.645054116845130920e-03,1.078567188233137131e-02
-2.739343047142028809e-01,-2.132132649421691895e-01,3.827219605445861816e-01,6.585846841335296631e-02,9.877724200487136841e-02
-3.797741532325744629e-01,-1.703330427408218384e-01,2.506026327610015869e-01,8.534459024667739868e-02,6.182801350951194763e-02
-3.897261321544647217e-01,-5.850666016340255737e-02,-1.247794926166534424e-01,1.103538200259208679e-01,7.149380445480346680e-02
-1.552006229758262634e-02,-3.855998395010828972e-03,-1.735648512840270996e-02,-5.192012060433626175e-03,-4.247962497174739838e-03
-1.156910147983580828e-04,1.168699469417333603e-02,3.359013050794601440e-02,9.833436459302902222e-03,8.300022222101688385e-03
-7.445746101438999176e-03,-8.103698492050170898e-03,-1.211980474181473255e-03,-9.636184200644493103e-03,-1.030164677649736404e-02
-1.731746830046176910e-02,-6.244227662682533264e-02,2.788511104881763458e-02,1.370408833026885986e-01,-1.397660672664642334e-01
4.229999780654907227e-01,-2.410173565149307251e-01,2.283532917499542236e-01,-5.304936319589614868e-02,-6.129951775074005127e-02
6.912336219102144241e-03,-8.046305738389492035e-04,2.797390334308147430e-02,1.533284084871411324e-03,4.890152718871831894e-03
-4.327384755015373230e-03,3.588903844356536865e-01,-1.133182197809219360e-01,-1.767012625932693481e-01,3.076825989410281181e-03
1.941076479852199554e-03,6.685200612992048264e-03,2.301314659416675568e-02,9.765953756868839264e-03,1.102315727621316910e-02
-6.031875498592853546e-03,5.956023000180721283e-03,-1.891339779831469059e-03,6.766137667000293732e-03,4.565339535474777222e-03
1.360220164060592651e-01,-9.809567593038082123e-03,-6.263484954833984375e-01,5.128249060362577438e-03,9.119304828345775604e-03
1.875144988298416138e-02,1.307296473532915115e-02,-2.495796233415603638e-02,2.029803581535816193e-02,1.854239217936992645e-02
1.330021955072879791e-02,1.114604622125625610e-02,4.751560837030410767e-02,1.569080539047718048e-02,1.922859996557235718e-02
1.263730321079492569e-02,-8.091728202998638153e-03,-5.247945711016654968e-02,-8.256291970610618591e-03,-7.364511489868164062e-03
-6.676194816827774048e-02,5.614270567893981934e-01,-1.396298259496688843e-01,3.182031586766242981e-02,-2.941977679729461670e-01
2.791882157325744629e-01,2.492437809705734253e-01,-5.750396251678466797e-01,-1.489682793617248535e-01,6.300885975360870361e-02
-3.839462101459503174e-01,-3.182174861431121826e-01,5.018604397773742676e-01,2.180975675582885742e-01,-4.909170418977737427e-02
-4.072296246886253357e-02,-4.739761725068092346e-02,6.662318110466003418e-01,-1.606604270637035370e-02,-1.881408132612705231e-02
4.388087093830108643e-01,3.734626173973083496e-01,-2.978475093841552734e-01,-1.161311641335487366e-01,-9.460009634494781494e-02
8.321392349898815155e-03,1.133648399263620377e-02,2.557877637445926666e-02,1.286283973604440689e-02,1.169582828879356384e-02
1.158007886260747910e-02,-9.854308882495388389e-05,-3.394732624292373657e-02,3.778556711040437222e-04,1.141593093052506447e-03
2.921196632087230682e-03,6.748820655047893524e-03,1.261842530220746994e-02,2.369686728343367577e-03,1.276142313145101070e-03
2.954772412776947021e-01,5.042079091072082520e-01,-1.372675299644470215e-01,3.626028001308441162e-01,-7.741436958312988281e-01
-4.819504320621490479e-01,5.266634821891784668e-01,-6.924345344305038452e-02,-1.057762503623962402e-01,-1.081862524151802063e-01
-8.436534553766250610e-03,-8.273266255855560303e-03,-3.420171141624450684e-02,-9.537302888929843903e-03,-1.153176650404930115e-02
-2.389290183782577515e-02,-3.034627810120582581e-02,3.083268180489540100e-02,-3.120521269738674164e-02,-3.406071290373802185e-02
6.393010728061199188e-03,4.496277833823114634e-04,-2.678164280951023102e-03,3.614719607867300510e-04,1.273021567612886429e-03
-5.584519356489181519e-03,-5.867225117981433868e-03,-4.557631164789199829e-02,-1.305040903389453888e-02,-1.330648362636566162e-02
-2.880144417285919189e-01,-2.964017093181610107e-01,5.622768998146057129e-01,-3.132817894220352173e-02,2.251094579696655273e-01
-1.025666743516921997e-01,-1.153357550501823425e-01,6.028600782155990601e-02,4.636968672275543213e-02,4.764569923281669617e-02
1.567854546010494232e-02,1.757841743528842926e-02,1.410384755581617355e-02,2.555183134973049164e-02,2.582291699945926666e-02
1.615993380546569824e-01,-2.243481874465942383e-01,2.594180405139923096e-01,7.148689031600952148e-02,-6.501788645982742310e-02
1.331649720668792725e-01,2.642955183982849121e-01,8.041537553071975708e-02,1.102944090962409973e-01,-3.378233015537261963e-01
-1.387363225221633911e-01,1.276798993349075317e-01,-6.275432649999856949e-03,-6.924156565219163895e-03,-6.653786636888980865e-03
1.364714000374078751e-02,1.683954894542694092e-02,-5.484157707542181015e-03,1.816184446215629578e-02,1.872745528817176819e-02
1.889359438791871071e-03,6.938310434634331614e-06,1.591645739972591400e-02,-1.813131500966846943e-03,-1.190143986605107784e-03
-6.699173711240291595e-03,7.058557122945785522e-03,-2.073298441246151924e-03,8.245868608355522156e-03,8.817074820399284363e-03
-8.288020268082618713e-03,-2.465079538524150848e-02,1.264322176575660706e-02,-2.579583413898944855e-02,-2.350315824151039124e-02
-2.957209646701812744e-01,2.907250449061393738e-02,-2.582282125949859619e-01,4.267292842268943787e-02,2.553926967084407806e-02
7.764989510178565979e-03,4.636262953281402588e-01,-1.104758456349372864e-01,-2.951008453965187073e-02,-2.172295451164245605e-01
1.037967012962326407e-04,9.091610088944435120e-03,3.308360278606414795e-02,7.676699664443731308e-03,6.297849584370851517e-03
-1.615681312978267670e-02,-1.345135923475027084e-02,-9.540308266878128052e-03,-2.015635371208190918e-02,-1.815758831799030304e-02
-5.027849110774695873e-04,7.281454745680093765e-04,4.701530933380126953e-02,2.265283372253179550e-03,2.583491848781704903e-03
2.698407173156738281e-01,-1.645589321851730347e-01,2.823029458522796631e-01,-6.325416266918182373e-02,1.915956474840641022e-02
-1.436221003532409668e-01,-3.855039179325103760e-02,8.561815321445465088e-02,7.762998342514038086e-02,7.895267009735107422e-02
-5.381304025650024414e-01,-2.018520534038543701e-01,6.111259460449218750e-01,1.185821294784545898e-01,-1.231889985501766205e-02
-4.914171695709228516e-01,3.976217210292816162e-01,-3.549785614013671875e-01,2.741182744503021240e-01,-2.633298039436340332e-01
1.407652497291564941e-01,-5.795383825898170471e-02,3.118956387042999268e-01,-3.675916418433189392e-02,-3.459345921874046326e-02
-6.798624526709318161e-03,-7.435801904648542404e-03,8.076895773410797119e-02,-6.286056246608495712e-03,-7.493194658309221268e-03
-1.552943699061870575e-02,-4.669169429689645767e-03,3.508944809436798096e-02,-4.124378785490989685e-03,-6.421689875423908234e-03
-8.088415488600730896e-03,-1.585631747730076313e-03,4.066260159015655518e-02,8.014281629584729671e-04,1.636103028431534767e-03
3.133349418640136719e-01,-7.953181117773056030e-02,2.080236077308654785e-01,-7.467076182365417480e-02,-4.973654821515083313e-02
-1.106677809730172157e-04,1.545760128647089005e-02,-5.861633643507957458e-02,1.340771093964576721e-02,1.238862425088882446e-02
8.092085481621325016e-04,2.171223051846027374e-02,3.696808591485023499e-02,1.882416941225528717e-02,1.987682469189167023e-02
-3.809653967618942261e-02,-9.832709096372127533e-03,1.446214765310287476e-01,8.301228284835815430e-03,8.389247581362724304e-03
2.621849812567234039e-02,3.282635286450386047e-02,2.521924488246440887e-02,3.559816256165504456e-02,3.342428430914878845e-02
-1.638267785310745239e-01,3.312005102634429932e-02,3.006738126277923584e-01,2.618532255291938782e-02,2.727581933140754700e-02
9.233502671122550964e-03,4.933132324367761612e-03,-4.559865687042474747e-03,2.762197051197290421e-03,4.027782008051872253e-03
8.631101995706558228e-02,4.321306049823760986e-01,-1.971958875656127930e-01,-7.385993748903274536e-02,-1.577073484659194946e-01
-2.598332986235618591e-02,-3.049670159816741943e-02,3.732715845108032227e-01,-3.266236558556556702e-02,-3.532968461513519287e-02
2.295424975454807281e-02,1.372661627829074860e-02,6.181699410080909729e-02,1.736705005168914795e-02,1.840983144938945770e-02
-9.820997714996337891e-03,-7.801942061632871628e-03,-2.595425210893154144e-02,-1.188690029084682465e-02,-1.458798162639141083e-02
-1.712096482515335083e-02,-2.707678638398647308e-02,2.380344085395336151e-02,-2.484103664755821228e-02,-2.972303144633769989e-02
-7.196365855634212494e-03,2.696349918842315674e-01,1.818697601556777954e-01,-5.404866300523281097e-03,-1.654602289199829102e-01
4.060268402099609375e-02,1.914135813713073730e-01,-2.768099904060363770e-01,-3.619385361671447754e-01,2.634437978267669678e-01
1.309738866984844208e-02,1.448577083647251129e-02,-4.498836025595664978e-02,1.236878335475921631e-02,1.304946839809417725e-02
1.212247908115386963e-01,-2.466105818748474121e-01,-3.975049033761024475e-02,-1.182792559266090393e-01,3.101505935192108154e-01
4.062714055180549622e-03,2.407706575468182564e-03,4.062090534716844559e-03,4.155104979872703552e-03,6.224388198461383581e-05
1.701891981065273285e-02,1.908090338110923767e-02,-1.248805895447731018e-01,1.988282054662704468e-02,2.198444306850433350e-02
1.452777301892638206e-03,3.163145156577229500e-03,5.874041933566331863e-03,5.854683462530374527e-03,3.784815315157175064e-03
-2.361148968338966370e-02,-7.264191508293151855e-01,1.797398179769515991e-01,2.393718808889389038e-01,1.647402942180633545e-01
-9.661786258220672607e-03,-3.035025857388973236e-02,2.161516435444355011e-02,-3.077408857643604279e-02,-3.145079687237739563e-02
-3.988251090049743652e-03,-1.258596405386924744e-02,1.082629896700382233e-02,-1.206208765506744385e-02,-1.453732792288064957e-02
-4.988514780998229980e-01,2.193414866924285889e-01,-1.049201712012290955e-01,1.054955571889877319e-01,-1.987294666469097137e-02
7.667060494422912598e-01,1.915878504514694214e-01,2.013638019561767578e-01,-3.263740837574005127e-01,3.703850135207176208e-02
5.327429249882698059e-02,-7.888712733983993530e-02,2.031260132789611816e-01,-1.572438478469848633e-01,1.597379446029663086e-01
1.932609826326370239e-02,7.723785471171140671e-03,-3.209139704704284668e-01,1.555426325649023056e-02,1.820748858153820038e-02
-1.065094373188912868e-03,7.314873859286308289e-03,1.919259130954742432e-02,6.468693260103464127e-03,6.507864221930503845e-03
-1.096248626708984375e-02,-2.314085885882377625e-02,-1.524167228490114212e-02,-2.422042749822139740e-02,-2.490560896694660187e-02
1.023506163619458675e-03,-6.317876279354095459e-03,6.538213044404983521e-02,-4.254776984453201294e-03,-1.750637311488389969e-03
-8.588831871747970581e-02,-3.929664939641952515e-02,6.676984429359436035e-01,-1.050892379134893417e-02,-1.032022852450609207e-02
1.000000000000000000e+00,1.149717569351196289e-01,9.645176678895950317e-02,-2.751188874244689941e-01,-1.239281799644231796e-02
-1.278237625956535339e-02,3.347200900316238403e-02,-1.502696871757507324e-01,2.412694506347179413e-02,2.089120633900165558e-02
1.070256009697914124e-01,4.318340122699737549e-02,-6.426810026168823242e-01,1.445662509649991989e-02,1.987188868224620819e-02
1.769837141036987305e-01,3.653615415096282959e-01,-3.097349405288696289e-01,-9.339914470911026001e-02,-9.857421368360519409e-02
-1.595360785722732544e-02,-2.015118300914764404e-02,2.220920100808143616e-02,-2.124839276075363159e-02,-2.322886697947978973e-02
-6.815940141677856445e-03,3.692737221717834473e-02,-1.843161582946777344e-01,2.318012714385986328e-02,2.009345032274723053e-02
2.026111324084922671e-04,-4.561995621770620346e-03,1.262233778834342957e-02,-6.342494161799550056e-04,5.175699479877948761e-04
-2.124053835868835449e-01,1.304807811975479126e-01,-2.705397605895996094e-01,-3.917603567242622375e-02,8.043111115694046021e-02
9.090193361043930054e-02,-8.502421528100967407e-02,3.401171863079071045e-01,-4.742347076535224915e-02,4.471170902252197266e-02
1.776616647839546204e-02,2.642882801592350006e-02,-2.725304104387760162e-02,2.730144374072551727e-02,2.668135613203048706e-02
-1.365583837032318115e-01,3.628903925418853760e-01,-7.006284594535827637e-02,-1.004211232066154480e-01,-2.787207439541816711e-02
9.211969375610351562e-02,2.438891977071762085e-01,-1.982637941837310791e-01,1.068836078047752380e-01,-2.068372517824172974e-01
-2.055289782583713531e-02,-3.682704642415046692e-02,-7.932017557322978973e-03,-3.764517605304718018e-02,-3.878070786595344543e-02
6.696072220802307129e-01,2.516583204269409180e-01,-4.433739781379699707e-01,-2.281575947999954224e-01,-1.242756005376577377e-02
-5.311241000890731812e-02,-3.389340341091156006e-01,1.948910057544708252e-01,1.163078844547271729e-01,7.750092446804046631e-02
1.354391723871231079e-01,-1.002608090639114380e-01,-1.592483185231685638e-02,-9.746319055557250977e-02,1.068135648965835571e-01
1.018926687538623810e-02,6.386430002748966217e-03,-1.713000424206256866e-02,8.504165336489677429e-03,4.393745213747024536e-03
4.096890799701213837e-03,2.631766162812709808e-02,-1.085068192332983017e-02,2.507291734218597412e-02,2.359897829592227936e-02
-4.911507964134216309e-01,-9.252139925956726074e-02,-1.966312527656555176e-01,-1.301742345094680786e-01,3.365340232849121094e-01
5.905617028474807739e-03,7.442285306751728058e-03,-9.091047570109367371e-03,8.069709874689579010e-03,5.998513661324977875e-03
-1.415776610374450684e-01,-3.469766974449157715e-01,2.046788930892944336e-01,3.926512002944946289e-01,-1.962148845195770264e-01
3.906480595469474792e-02,-3.359094262123107910e-01,2.648856341838836670e-01,-1.581134349107742310e-01,3.011642098426818848e-01
-8.273032307624816895e-02,1.501628570258617401e-02,1.273425519466400146e-01,6.062626373022794724e-03,7.128340657800436020e-03
6.296766549348831177e-02,-4.288828372955322266e-02,2.803793847560882568e-01,-2.544327452778816223e-02,-2.221972122788429260e-02
-2.732217544689774513e-03,7.148193661123514175e-03,2.455933392047882080e-02,3.324780263938009739e-04,1.679731067270040512e-03
-2.577500184997916222e-03,-3.245449857786297798e-03,5.385207012295722961e-03,-2.954201074317097664e-03,-1.200112863443791866e-03
6.892652017995715141e-04,-2.653995901346206665e-02,1.444784253835678101e-01,-1.927241683006286621e-02,-1.890876144170761108e-02
-9.188878349959850311e-03,-3.106654584407806396e-01,2.073710560798645020e-01,1.971640139818191528e-01,-3.574055060744285583e-02
-6.230420619249343872e-02,7.431508600711822510e-02,-2.095942348241806030e-01,2.101453989744186401e-01,-2.178949117660522461e-01
-2.540218830108642578e-01,3.778374195098876953e-01,-2.063494920730590820e-01,-6.873758137226104736e-02,-6.206933781504631042e-02
-1.206357404589653015e-02,3.552660346031188965e-04,3.254937753081321716e-02,-1.259944867342710495e-03,-1.020483206957578659e-03
3.302793949842453003e-02,2.023982629179954529e-02,-1.501481533050537109e-01,1.991932094097137451e-02,2.187041752040386200e-02
2.827324867248535156e-01,4.643679261207580566e-01,-8.290673047304153442e-02,1.375564932823181152e-02,-3.883106410503387451e-01
1.218009740114212036e-02,-1.172363385558128357e-02,-4.955784231424331665e-02,-9.688718244433403015e-03,-7.761666551232337952e-03
9.225171525031328201e-04,-8.877514861524105072e-03,-2.520490903407335281e-03,-1.355907227843999863e-02,-1.015051454305648804e-02
-3.270502388477325439e-02,-4.172218218445777893e-02,2.462034374475479126e-01,-2.127188816666603088e-02,-2.131140232086181641e-02
2.530712783336639404e-01,3.812889158725738525e-01,-4.816345274448394775e-01,-4.253559932112693787e-02,-1.273256540298461914e-01
8.967570029199123383e-03,8.883735164999961853e-03,-1.283056568354368210e-02,1.176453009247779846e-02,6.844836752861738205e-03
-2.309845983982086182e-01,-1.512914448976516724e-01,-3.417968750000000000e-01,7.614038884639739990e-02,1.250067949295043945e-01
-1.810630783438682556e-02,4.261906258761882782e-03,-2.589432895183563232e-02,3.796878037974238396e-03,1.780114369466900826e-03
-9.624579921364784241e-03,-2.077786996960639954e-02,2.124193124473094940e-02,-1.653490029275417328e-02,-1.600072160363197327e-02
-2.343898266553878784e-01,-2.444100230932235718e-01,4.772659838199615479e-01,2.013055980205535889e-01,-1.339268591254949570e-02
1.527026947587728500e-02,2.934795431792736053e-02,-1.122369617223739624e-02,2.537184394896030426e-02,2.448255009949207306e-02
-2.710668444633483887e-01,4.775501787662506104e-01,2.310116738080978394e-01,-7.485696673393249512e-02,-1.705820858478546143e-01
-1.704444293864071369e-03,-1.282604783773422241e-02,-2.668582648038864136e-02,-1.290124654769897461e-02,-1.376732066273689270e-02
-1.297737564891576767e-02,-1.267648395150899887e-02,4.510593600571155548e-03,-1.185350771993398666e-02,-1.063370797783136368e-02
1.751238107681274414e-02,-6.237627938389778137e-03,4.817731305956840515e-02,-7.706391159445047379e-03,-9.999971836805343628e-03
9.612682275474071503e-03,1.149426586925983429e-02,-2.912164293229579926e-02,1.223965920507907867e-02,1.267934590578079224e-02
-1.334114372730255127e-02,-2.066983282566070557e-02,-2.290816791355609894e-02,-2.418879978358745575e-02,-2.284134551882743835e-02
1.440436113625764847e-03,4.658376798033714294e-03,7.300945930182933807e-03,1.091215386986732483e-02,9.913725778460502625e-03
-4.505677148699760437e-03,-3.938025794923305511e-03,-1.707012392580509186e-02,-7.654151879251003265e-03,-7.749198935925960541e-03
-1.456929892301559448e-01,5.690701305866241455e-02,-2.687884271144866943e-01,4.521764442324638367e-02,4.496357217431068420e-02
-3.215103149414062500e-01,-2.873862981796264648e-01,4.969018995761871338e-01,8.930847793817520142e-02,6.766095012426376343e-02
1.227865647524595261e-02,1.514111272990703583e-02,3.979406505823135376e-02,1.877277158200740814e-02,1.895499974489212036e-02
-1.540511567145586014e-02,-3.626604750752449036e-02,-1.064589899033308029e-02,-3.550811484456062317e-02,-3.569035232067108154e-02
-1.655112653970718384e-01,2.937676198780536652e-02,-1.343625485897064209e-01,2.290425635874271393e-02,2.429619058966636658e-02
8.001217618584632874e-03,1.130648981779813766e-02,8.606181479990482330e-03,1.310207042843103409e-02,1.270802505314350128e-02
1.820633560419082642e-01,-2.487433403730392456e-01,-1.749341785907745361e-01,-3.958986997604370117e-01,5.499324798583984375e-01
1.087356451898813248e-02,7.283746264874935150e-03,2.471466781571507454e-03,1.150310970842838287e-02,1.120403595268726349e-02
-3.706583380699157715e-01,1.870401501655578613e-01,-3.058003485202789307e-01,-3.035373985767364502e-02,3.639754652976989746e-02
-2.316711284220218658e-02,-7.960678078234195709e-03,1.119594946503639221e-01,6.159787997603416443e-03,7.683175615966320038e-03
1.470347773283720016e-02,1.264952216297388077e-02,1.075817923992872238e-02,1.537963841110467911e-02,1.904850639402866364e-02
3.190922364592552185e-02,-3.713893145322799683e-02,2.353600412607192993e-01,-2.239820547401905060e-02,-2.312065102159976959e-02
4.786259029060602188e-03,-7.355120964348316193e-03,-3.729241341352462769e-02,-7.023357786238193512e-03,-9.818149730563163757e-03
2.628583014011383057e-01,2.406298667192459106e-01,-1.857510022819042206e-02,1.717305332422256470e-01,-3.794318735599517822e-01
1.254031062126159668e-02,1.698356121778488159e-02,-3.125610575079917908e-02,1.624689623713493347e-02,1.513794530183076859e-02
7.240248844027519226e-03,1.600315910764038563e-03,5.766006186604499817e-03,-2.512575156288221478e-05,-1.766252680681645870e-03
4.187737591564655304e-03,-4.710455425083637238e-03,1.395610999315977097e-02,-3.194187767803668976e-03,-2.502298448234796524e-03
1.080764457583427429e-02,1.664196327328681946e-02,5.038947798311710358e-03,2.140365168452262878e-02,2.228317409753799438e-02
-7.774201035499572754e-02,4.501747786998748779e-01,9.543006308376789093e-03,1.137766987085342407e-02,-2.686164379119873047e-01
2.556938305497169495e-02,1.415370777249336243e-02,-2.795742824673652649e-02,1.470233220607042313e-02,1.439261436462402344e-02
-8.416966795921325684e-01,-4.554588347673416138e-02,-1.861381530761718750e-01,2.020310610532760620e-02,2.755650877952575684e-01
4.920748993754386902e-03,2.991380915045738220e-02,-3.675560001283884048e-03,2.832692116498947144e-02,2.562132664024829865e-02
3.469448536634445190e-02,1.311710663139820099e-02,-1.715843528509140015e-01,5.715557839721441269e-03,6.111402995884418488e-03
-1.829364001750946045e-01,2.528160810470581055e-01,8.919014781713485718e-02,-1.928681321442127228e-02,-3.743862733244895935e-02
-5.351113080978393555e-01,2.710148096084594727e-01,-4.345183074474334717e-01,3.375269174575805664e-01,-2.325489819049835205e-01
-2.257162705063819885e-02,-7.308213971555233002e-03,-1.452823076397180557e-02,-9.548115544021129608e-03,-1.132507808506488800e-02
4.104122519493103027e-03,1.263766083866357803e-02,-2.457408420741558075e-02,1.183979213237762451e-02,1.027919817715883255e-02
-6.632035225629806519e-02,1.138199642300605774e-01,-1.242946013808250427e-01,-2.835293412208557129e-01,2.918999791145324707e-01
5.047861021012067795e-03,-1.181935146450996399e-02,1.364478915929794312e-01,-5.143033340573310852e-03,-5.503989290446043015e-03
5.401939526200294495e-02,2.197408303618431091e-02,-1.810548901557922363e-01,1.083747629309073091e-04,-5.518165417015552521e-03
-2.399141937494277954e-01,1.207240894436836243e-01,-2.533388137817382812e-01,4.057525098323822021e-02,1.542032603174448013e-02
5.411061048507690430e-01,1.088941097259521484e-01,1.022670976817607880e-02,-2.779491543769836426e-01,1.733919084072113037e-01
-3.011145454365760088e-04,-4.978378489613533020e-02,1.985863000154495239e-01,-4.761429876089096069e-02,-4.948494583368301392e-02
2.254558028653264046e-03,4.955446813255548477e-03,2.351813390851020813e-02,4.928135778754949570e-03,5.013968329876661301e-03
-1.134333759546279907e-02,-4.172299813944846392e-04,4.425879940390586853e-02,-1.286912709474563599e-03,-2.503249328583478928e-03
-1.796179264783859253e-01,-5.309835076332092285e-01,-7.927000522613525391e-02,-1.524474122561514378e-03,2.994615435600280762e-01
-1.703814864158630371e-01,5.701787024736404419e-02,-4.361060857772827148e-01,2.803980559110641479e-02,2.062062360346317291e-02
-4.063530359417200089e-03,-3.239332872908562422e-04,-2.900938503444194794e-03,-2.903047949075698853e-03,-1.902453717775642872e-03
2.977284230291843414e-02,2.717958688735961914e-01,-2.400339208543300629e-02,4.074603319168090820e-01,-5.651211738586425781e-01
4.013699293136596680e-02,-4.617482423782348633e-02,6.643452495336532593e-02,1.737820655107498169e-01,-2.037587761878967285e-01
-1.490470767021179199e-01,-1.597999781370162964e-01,1.922600418329238892e-01,4.901306331157684326e-02,3.989319503307342529e-02
-9.266336448490619659e-03,-2.007589861750602722e-02,1.310098357498645782e-02,-2.177144028246402740e-02,-2.066333591938018799e-02
2.401142716407775879e-01,3.868136107921600342e-01,-9.224344789981842041e-02,6.930447369813919067e-02,-2.727494537830352783e-01
2.454593777656555176e-02,3.349320217967033386e-02,5.703790113329887390e-02,3.745387494564056396e-02,4.047562181949615479e-02
1.288227830082178116e-02,7.948147132992744446e-03,-6.735493894666433334e-03,1.492389664053916931e-02,1.698284037411212921e-02
-1.857534646987915039e-01,-2.451151758432388306e-01,2.612466216087341309e-01,8.886505663394927979e-02,8.816029876470565796e-02
-3.553643357008695602e-03,1.655841991305351257e-02,1.255289837718009949e-02,1.506854128092527390e-02,1.642939262092113495e-02
8.037147112190723419e-03,6.960773374885320663e-03,1.890491135418415070e-02,-2.833474194630980492e-03,-2.468613209202885628e-03
-3.268259763717651367e-01,7.663447260856628418e-01,3.098865225911140442e-02,-3.070029914379119873e-01,2.556004561483860016e-02
4.185165762901306152e-01,-1.627206355333328247e-01,2.946071624755859375e-01,-1.208810508251190186e-01,8.750436827540397644e-03
2.429582923650741577e-01,2.470976114273071289e-01,-1.990281492471694946e-01,-1.677511185407638550e-01,3.173968289047479630e-03
4.868429154157638550e-03,4.030523356050252914e-03,-1.678439043462276459e-02,1.490273862145841122e-03,1.959440764039754868e-03
1.008745133876800537e-01,-1.601649820804595947e-01,2.426495254039764404e-01,1.413161307573318481e-01,-2.046993672847747803e-01
5.724382027983665466e-02,-4.052711129188537598e-01,1.492073088884353638e-01,1.034149527549743652e-01,6.336300075054168701e-02
-5.546383094042539597e-03,8.521168492734432220e-03,9.807675378397107124e-04,8.699646219611167908e-03,7.491779047995805740e-03
2.108445763587951660e-02,1.427744328975677490e-02,3.709250595420598984e-03,1.647508703172206879e-02,1.438114326447248459e-02
-9.062533825635910034e-02,7.039353251457214355e-02,-8.348705619573593140e-02,-1.137680374085903168e-02,-1.212183758616447449e-02
-2.159873545169830322e-01,1.923515796661376953e-01,-8.073894679546356201e-02,-1.924740076065063477e-01,1.213982477784156799e-01
1.817290931940078735e-01,-2.203631401062011719e-01,1.399526894092559814e-01,-3.846330195665359497e-02,8.578149229288101196e-02
8.138947188854217529e-03,-1.062105875462293625e-02,-4.717552103102207184e-03,-9.980980306863784790e-03,-7.536229677498340607e-03
1.430564589099958539e-04,2.183693945407867432e-01,8.581335656344890594e-03,9.828934818506240845e-02,-2.093140631914138794e-01
1.042438857257366180e-02,6.294693332165479660e-03,3.253353014588356018e-02,6.656973157078027725e-03,7.903608493506908417e-03
4.881046712398529053e-03,1.085251290351152420e-02,-1.407811045646667480e-02,1.024264749139547348e-02,1.001611445099115372e-02
-2.436351776123046875e-02,1.358011215925216675e-01,-2.298461049795150757e-01,-3.574048355221748352e-02,4.502870514988899231e-02
-1.285563111305236816e-01,3.491429090499877930e-01,-2.076154053211212158e-01,1.663268953561782837e-01,-2.593308687210083008e-01
-6.102390587329864502e-03,-1.536485739052295685e-02,-3.887797519564628601e-02,-1.847358234226703644e-02,-2.051077783107757568e-02
9.606366604566574097e-02,2.070143073797225952e-02,-2.655058801174163818e-01,-3.977057337760925293e-02,-3.956343978643417358e-02
-3.500274717807769775e-01,-3.019727468490600586e-01,3.121314346790313721e-01,1.701343357563018799e-01,-1.849373243749141693e-02
1.637066714465618134e-02,1.241437625139951706e-02,4.472450911998748779e-02,1.354566868394613266e-02,1.736935414373874664e-02
-8.139233291149139404e-02,-1.810694932937622070e-01,1.408816576004028320e-01,1.315887272357940674e-01,-1.431984640657901764e-02
-1.273704916238784790e-01,-3.165915906429290771e-01,3.696589469909667969e-01,2.623095810413360596e-01,-9.998979419469833374e-02
-2.161588054150342941e-03,2.584586292505264282e-02,3.488072380423545837e-02,2.248621173202991486e-02,2.027988620102405548e-02
-1.516369916498661041e-02,-3.496663272380828857e-02,4.551513865590095520e-02,-3.546682745218276978e-02,-3.666471689939498901e-02
5.561647005379199982e-03,1.187331508845090866e-03,-6.428642664104700089e-03,8.935388177633285522e-04,2.164243720471858978e-03
2.045139670372009277e-02,2.978892810642719269e-02,5.060657486319541931e-02,3.298227861523628235e-02,3.543315455317497253e-02
1.362547278404235840e-01,1.094130128622055054e-01,-8.444933891296386719e-01,2.348448708653450012e-02,1.734334416687488556e-02
-1.045860871672630310e-01,4.671189934015274048e-02,7.341135293245315552e-02,3.238281980156898499e-02,3.492381796240806580e-02
-1.254756376147270203e-02,-7.647048681974411011e-03,-5.540986545383930206e-03,-1.535734441131353378e-02,-1.135639566928148270e-02
-1.906788093037903309e-03,-3.163606394082307816e-03,-2.337500685825943947e-03,-9.722108952701091766e-04,3.671057347673922777e-04
-5.766970105469226837e-03,6.592348217964172363e-03,-1.587374880909919739e-02,1.074237562716007233e-02,1.133341062813997269e-02
-1.465350240468978882e-01,-2.076732218265533447e-01,-6.084484234452247620e-02,-1.747235059738159180e-01,3.217703104019165039e-01
9.854312241077423096e-02,1.085387021303176880e-01,-8.876066803932189941e-01,1.724237017333507538e-02,2.022680640220642090e-02
-9.943169355392456055e-02,-1.835176721215248108e-03,2.585667371749877930e-01,3.980365768074989319e-02,4.223932698369026184e-02
1.593597698956727982e-03,-1.084668096154928207e-03,-4.542544111609458923e-02,-1.445662113837897778e-03,-3.298668423667550087e-03
2.203452400863170624e-02,1.886534877121448517e-02,-3.514727577567100525e-02,2.202721871435642242e-02,2.338735014200210571e-02
-1.840201169252395630e-01,-5.844938158988952637e-01,3.395078480243682861e-01,2.673785984516143799e-01,4.715850204229354858e-02
7.636918686330318451e-03,1.321505103260278702e-02,1.638864912092685699e-02,9.243650361895561218e-03,9.163324721157550812e-03
-1.065191905945539474e-02,-1.808872818946838379e-02,-2.622935548424720764e-02,-1.752394251525402069e-02,-1.931086741387844086e-02
-1.637295931577682495e-01,3.073513507843017578e-01,-3.141825273633003235e-02,-3.533695042133331299e-01,2.659185230731964111e-01
2.910806564614176750e-03,1.894693821668624878e-02,-4.899192135781049728e-03,2.146746218204498291e-02,1.927885599434375763e-02
-4.358808975666761398e-03,5.892693065106868744e-03,-9.351748041808605194e-03,3.632775042206048965e-03,-4.380620666779577732e-04
-2.345455139875411987e-01,-4.805370792746543884e-02,1.719655236229300499e-03,-9.401920251548290253e-03,1.191462874412536621e-01
1.809031143784523010e-02,3.856855630874633789e-02,-1.569983512163162231e-01,3.988214582204818726e-02,4.033634066581726074e-02
-1.515197157859802246e-01,5.637910217046737671e-02,-2.670592665672302246e-01,1.476734783500432968e-02,1.639448851346969604e-02
-8.560726046562194824e-02,-2.398522794246673584e-01,3.174230158329010010e-01,-1.688759922981262207e-01,3.346446752548217773e-01
-3.306559752672910690e-03,2.518196357414126396e-03,1.773539744317531586e-02,-2.651047892868518829e-03,-2.189290011301636696e-03
-8.382567204535007477e-03,3.277184441685676575e-02,-1.938723325729370117e-01,3.083025291562080383e-02,3.123409859836101532e-02
-1.453217584639787674e-02,-2.178748324513435364e-02,-2.900734916329383850e-02,-2.462404966354370117e-02,-2.311761491000652313e-02
1.482956260442733765e-01,-8.030768036842346191e-01,3.261317312717437744e-02,1.913035959005355835e-01,1.456735730171203613e-01
-5.846250057220458984e-02,-2.482307851314544678e-01,2.197167575359344482e-01,-9.950332343578338623e-02,2.007430046796798706e-01
-1.967194974422454834e-01,5.958759784698486328e-02,-3.469526469707489014e-01,4.256241768598556519e-02,3.277194499969482422e-02
-1.650102436542510986e-02,-1.941173709928989410e-02,4.440521076321601868e-02,-1.702422089874744415e-02,-1.335591077804565430e-02
7.965973578393459320e-03,2.289924956858158112e-02,3.153961896896362305e-02,2.681048400700092316e-02,2.263910882174968719e-02
2.543138265609741211e-01,-6.312455981969833374e-02,1.373815834522247314e-01,-2.921882458031177521e-02,-5.824062228202819824e-02
1.967966184020042419e-02,1.152962818741798401e-02,1.850419677793979645e-02,1.324390899389982224e-02,1.493531279265880585e-02
-2.893745601177215576e-01,-2.713522911071777344e-01,-2.024308145046234131e-01,2.425096035003662109e-01,-4.586820304393768311e-02
-3.070724487770348787e-04,-4.704095423221588135e-03,-9.075504931388422847e-05,-7.851666770875453949e-03,-6.239246111363172531e-03
-8.667087182402610779e-03,-9.076154790818691254e-03,-1.803700998425483704e-02,-3.906539641320705414e-03,-3.739812644198536873e-03
2.295666188001632690e-01,1.132248491048812866e-01,-1.733019351959228516e-01,-5.131358280777931213e-02,-4.623005166649818420e-02
5.055489018559455872e-03,5.797494668513536453e-03,-9.644780657254159451e-04,3.376918146386742592e-03,2.581893699243664742e-03
2.602235181257128716e-03,-5.934008862823247910e-03,5.066170706413686275e-04,-5.351086612790822983e-03,-5.586765706539154053e-03
-2.088261544704437256e-01,-1.637417636811733246e-02,-1.820296794176101685e-01,4.114115610718727112e-02,2.376298233866691589e-02
-1.593597116880118847e-03,-1.639883965253829956e-02,2.656090632081031799e-02,-1.338972058147192001e-02,-1.168909948319196701e-02
-3.071852028369903564e-01,9.444845467805862427e-02,-4.556145668029785156e-01,3.855419531464576721e-02,1.967984437942504883e-02
-4.031597673892974854e-01,-4.271214082837104797e-02,-2.396983951330184937e-01,2.298609465360641479e-01,-7.127252966165542603e-02
7.763327658176422119e-02,-5.313964933156967163e-02,-8.853039145469665527e-02,-1.697509735822677612e-01,2.112883627414703369e-01
-3.766861511394381523e-03,-1.024977024644613266e-02,2.633901312947273254e-02,-1.302032917737960815e-02,-1.479030027985572815e-02
-9.370927698910236359e-03,3.002130659297108650e-03,7.402287796139717102e-03,3.741205902770161629e-03,9.291850146837532520e-04
-8.600672334432601929e-02,-2.363412529230117798e-01,1.102543473243713379e-01,2.038728632032871246e-02,1.236802935600280762e-01
-8.646116591989994049e-03,1.187028363347053528e-02,-8.434755206108093262e-01,5.221202224493026733e-02,5.646625906229019165e-02
5.543375387787818909e-02,8.488232269883155823e-03,-2.567269504070281982e-01,-2.428469061851501465e-02,-2.828345820307731628e-02
-3.010437488555908203e-01,-2.460679113864898682e-01,1.832432150840759277e-01,-7.428404688835144043e-02,2.274238169193267822e-01
1.978265792131423950e-01,1.938176155090332031e-02,-6.816316395998001099e-02,-5.938667058944702148e-02,-5.462868511676788330e-02
2.128763347864151001e-01,4.135239124298095703e-02,-2.318412959575653076e-01,-3.509751707315444946e-02,-1.776456646621227264e-02
-5.183297395706176758e-01,-5.244150757789611816e-01,2.445917278528213501e-01,3.160156011581420898e-01,2.255122363567352295e-02
9.841344319283962250e-03,1.764426007866859436e-02,3.865985199809074402e-02,2.188631892204284668e-02,2.084922417998313904e-02
-2.788254320621490479e-01,-8.129036426544189453e-02,3.071075379848480225e-01,6.279265880584716797e-02,6.475199759006500244e-02
5.381968617439270020e-02,5.060142874717712402e-01,-2.720183134078979492e-01,-9.835523366928100586e-02,-1.695162802934646606e-01
1.550630200654268265e-02,6.747109349817037582e-03,-3.454384952783584595e-02,6.618693005293607712e-03,6.333333905786275864e-03
1.531835794448852539e-01,-1.118152588605880737e-01,2.810387611389160156e-01,2.021678909659385681e-02,-5.020039901137351990e-02
-1.649306621402502060e-03,-7.229244336485862732e-03,-4.962158272974193096e-04,-7.379333954304456711e-03,-7.745343260467052460e-03
-6.958045810461044312e-02,2.890291251242160797e-02,-1.026220545172691345e-01,2.507551386952400208e-02,2.370578609406948090e-02
-2.312602102756500244e-02,-1.293227728456258774e-02,1.000715494155883789e-01,-1.743727363646030426e-02,-1.978461071848869324e-02
-3.047827184200286865e-01,-2.921017110347747803e-01,1.460545212030410767e-01,1.616654247045516968e-01,-9.124920703470706940e-03
-2.920944057404994965e-02,-1.702766567468643188e-01,2.295514941215515137e-01,-3.887622803449630737e-02,1.047062650322914124e-01
7.742829155176877975e-03,-4.539986606687307358e-03,2.902751974761486053e-02,4.914887831546366215e-04,-7.018095930106937885e-04
3.799417018890380859e-01,1.095828339457511902e-01,4.508771002292633057e-01,2.330382764339447021e-01,-4.776205718517303467e-01
-5.083106458187103271e-03,4.563633203506469727e-01,-1.412525027990341187e-01,-7.117276638746261597e-02,-2.112090140581130981e-01
3.726566731929779053e-01,1.318243741989135742e-01,2.205255925655364990e-01,-1.018101647496223450e-01,-9.823529422283172607e-02
-1.838132888078689575e-01,-1.487208753824234009e-01,2.436132282018661499e-01,2.272618375718593597e-02,5.717983469367027283e-02
6.949315667152404785e-01,-1.064443588256835938e-01,-2.988828532397747040e-02,4.487030580639839172e-02,-1.898394227027893066e-01
-6.168415420688688755e-04,5.860359407961368561e-03,-4.316388070583343506e-02,1.638233661651611328e-03,1.129310461692512035e-03
9.555091857910156250e-01,-1.870527267456054688e-01,4.394927024841308594e-01,-2.915585339069366455e-01,7.770327478647232056e-02
-1.388893648982048035e-02,-2.480306290090084076e-02,-4.435563832521438599e-02,-2.951620332896709442e-02,-2.891048602759838104e-02
2.880643308162689209e-01,6.035810708999633789e-02,1.829736083745956421e-01,-3.274302184581756592e-02,-1.410928219556808472e-01
7.040930446237325668e-03,1.151685602962970734e-02,2.476116269826889038e-02,9.253193624317646027e-03,1.081601530313491821e-02
-1.078130230307579041e-01,3.026861138641834259e-02,-1.988010294735431671e-02,1.847387477755546570e-02,9.271652437746524811e-03
-2.493323700036853552e-04,3.259451594203710556e-03,-8.750707638682797551e-05,5.404715426266193390e-03,6.662569474428892136e-03
6.574257276952266693e-03,7.274936884641647339e-03,1.627669297158718109e-02,7.680085022002458572e-03,5.816454067826271057e-03
3.990719094872474670e-03,2.118499018251895905e-02,4.047182574868202209e-02,1.906408928334712982e-02,1.644699461758136749e-02
2.263647317886352539e-01,2.927014529705047607e-01,-6.403073668479919434e-01,-7.176119834184646606e-02,-7.159675657749176025e-02
-9.743040427565574646e-03,1.887066662311553955e-02,9.347788058221340179e-03,1.886560767889022827e-02,1.845240592956542969e-02
7.928040577098727226e-04,-6.752166748046875000e-01,6.168581172823905945e-02,2.958349883556365967e-01,6.223702430725097656e-02
-7.240468170493841171e-03,2.363638021051883698e-03,4.878807440400123596e-02,5.796315614134073257e-03,8.650853298604488373e-03
1.965412348508834839e-01,-1.415230780839920044e-01,3.981677442789077759e-02,-1.859233379364013672e-01,1.929737031459808350e-01
-1.910750567913055420e-02,-3.048674948513507843e-02,-1.284865103662014008e-02,-3.139564767479896545e-02,-3.272019326686859131e-02
-5.109867453575134277e-01,1.056474745273590088e-01,-2.291868925094604492e-01,-1.036405339837074280e-01,2.522171735763549805e-01
2.768799662590026855e-01,-2.249533496797084808e-02,3.486899137496948242e-01,1.505911201238632202e-01,-2.273343950510025024e-01
1.300662942230701447e-02,2.023719251155853271e-02,-1.499129366129636765e-02,1.815099269151687622e-02,1.667536050081253052e-02
-2.129170745611190796e-01,-1.513702273368835449e-01,-6.520237028598785400e-02,1.106842532753944397e-01,9.251685440540313721e-02
-1.007630862295627594e-02,-1.419293507933616638e-02,-1.084303669631481171e-02,-1.529705431312322617e-02,-1.298300176858901978e-02
5.946561577729880810e-04,-2.754617948085069656e-03,-1.668755337595939636e-02,-5.681107286363840103e-03,-1.259789685718715191e-03
1.643857831368222833e-04,-9.321018587797880173e-04,-1.554106548428535461e-02,-6.093965377658605576e-03,-5.716737825423479080e-03
-9.287355467677116394e-03,-9.884664788842201233e-03,-4.951217025518417358e-02,-9.500966407358646393e-03,-8.210090920329093933e-03
-1.995029486715793610e-02,2.982526645064353943e-02,1.182018592953681946e-01,1.609460413455963135e-01,-1.631039679050445557e-01
-1.201817486435174942e-02,-8.498586714267730713e-03,-2.364120073616504669e-02,-7.785893045365810394e-03,-9.645492769777774811e-03
4.649541806429624557e-03,-6.802885327488183975e-03,7.772763259708881378e-03,-3.852445399388670921e-03,-4.048206901643425226e-04
2.663338324055075645e-03,-2.301205694675445557e-02,1.211772114038467407e-01,-2.143274806439876556e-02,-2.271518670022487640e-02
2.377469837665557861e-01,4.907946288585662842e-02,-1.515026539564132690e-01,9.091881662607192993e-02,-1.577326804399490356e-01
-7.125002145767211914e-02,-2.855054736137390137e-01,2.630431354045867920e-01,2.365151643753051758e-01,-1.118340194225311279e-01
1.136892754584550858e-02,7.478515617549419403e-03,2.121921628713607788e-03,1.147698238492012024e-02,9.088509716093540192e-03
7.452069967985153198e-02,-5.149685963988304138e-02,4.210346043109893799e-01,-3.842337056994438171e-02,-3.964078798890113831e-02
-6.821940187364816666e-03,-1.107777841389179230e-02,-3.561189770698547363e-02,-1.657685451209545135e-02,-1.927108317613601685e-02
-9.485710412263870239e-02,-1.262330114841461182e-01,4.005193412303924561e-01,2.145519405603408813e-01,-1.673898845911026001e-01
-1.067315577529370785e-03,3.046729601919651031e-03,4.117873497307300568e-03,8.139302022755146027e-03,5.666494835168123245e-03
-1.691211014986038208e-02,2.523920834064483643e-01,-1.456180363893508911e-01,1.476950496435165405e-01,-3.356500566005706787e-01
7.973900064826011658e-03,8.663699030876159668e-03,-1.463105343282222748e-02,7.008253596723079681e-03,6.985288579016923904e-03
-6.751413922756910324e-03,-5.172669887542724609e-03,3.891935944557189941e-02,-1.265635713934898376e-03,-2.637581201270222664e-03
8.946996182203292847e-02,3.585691750049591064e-01,-4.880432784557342529e-01,2.879441715776920319e-02,-2.616111934185028076e-01
1.329595036804676056e-02,1.380132231861352921e-02,-2.084703417494893074e-03,1.628149859607219696e-02,1.686518825590610504e-02
5.888342112302780151e-02,1.449561715126037598e-01,-1.728521734476089478e-01,-4.572559148073196411e-02,-3.232330456376075745e-02
-8.183915051631629467e-04,-7.462764042429625988e-04,-1.115391496568918228e-03,-2.961086807772517204e-03,-2.288924530148506165e-03
-5.946480669081211090e-03,4.346694331616163254e-03,1.959270983934402466e-02,1.220655161887407303e-03,-2.824278781190514565e-03
8.109166473150253296e-02,-2.277988754212856293e-02,-3.786315023899078369e-01,-2.163267490686848760e-04,4.800859373062849045e-03
5.837096646428108215e-02,-3.128793032374233007e-04,-1.040983721613883972e-01,6.387656088918447495e-03,6.852358579635620117e-03
7.299334276467561722e-03,1.455751247704029083e-02,3.701581060886383057e-02,1.771803759038448334e-02,2.044806815683841705e-02
5.199391162022948265e-04,-3.697308013215661049e-03,6.393663585186004639e-03,-3.079147078096866608e-03,-3.594545880332589149e-03
-5.700112786144018173e-03,-3.298224648460745811e-03,-1.676713931374251842e-03,-8.273199200630187988e-03,-8.284731768071651459e-03
-3.289177082479000092e-03,-7.069190964102745056e-03,2.419141121208667755e-02,-1.034542173147201538e-02,-9.687471203505992889e-03
-4.477591812610626221e-01,-4.377060532569885254e-01,6.219142582267522812e-03,3.601539880037307739e-02,3.630759418010711670e-01
-9.107629768550395966e-03,-8.545360527932643890e-03,-2.029721625149250031e-02,-1.331074535846710205e-02,-1.165941916406154633e-02
-3.814618885517120361e-01,-1.761856675148010254e-02,1.046670377254486084e-01,3.436511382460594177e-02,1.072563081979751587e-01
2.077713310718536377e-01,2.312601655721664429e-01,-1.764417886734008789e-01,2.256321161985397339e-01,-3.795424401760101318e-01
-1.384845003485679626e-02,-1.480037625879049301e-02,7.187920063734054565e-02,-1.580567657947540283e-02,-1.664072275161743164e-02
-1.394382119178771973e-02,-6.659558508545160294e-03,-2.841775491833686829e-02,-8.360099047422409058e-03,-9.312309324741363525e-03
