3.841557726263999939e-02,-5.758505780249834061e-03,-1.000000000000000000e+00,3.908653184771537781e-02,1.738537847995758057e-01
2.915204875171184540e-02,2.341639250516891479e-02,-6.049378216266632080e-02,2.481801807880401611e-02,1.935794204473495483e-02
-8.858189103193581104e-04,-3.026154823601245880e-03,-7.712880149483680725e-03,-5.526804365217685699e-03,1.507141976617276669e-03
-9.652299806475639343e-03,-6.257946603000164032e-03,1.528117340058088303e-03,-5.180571228265762329e-03,-4.056207835674285889e-03
9.640571661293506622e-03,1.103943772614002228e-02,-2.246357500553131104e-03,1.252643205225467682e-02,5.807560868561267853e-03
5.428456701338291168e-03,6.287408992648124695e-03,3.223533276468515396e-03,7.030840963125228882e-03,4.909537732601165771e-03
2.551614306867122650e-02,2.006731554865837097e-02,-1.151963174343109131e-01,2.312655560672283173e-02,2.444072440266609192e-02
-3.033423563465476036e-03,-2.554458007216453552e-02,3.316657990217208862e-02,1.381251262500882149e-03,1.273978780955076218e-02
-5.023851990699768066e-03,-7.329927291721105576e-03,1.504755765199661255e-01,-1.212396286427974701e-02,-3.258043527603149414e-02
-5.589644424617290497e-03,1.344371028244495392e-02,-4.712978377938270569e-02,-1.101851463317871094e-02,-1.301038730889558792e-02
-6.304016336798667908e-03,1.916909217834472656e-02,7.308054715394973755e-02,1.282239612191915512e-02,4.519118461757898331e-03
-6.182639859616756439e-03,-9.534996934235095978e-03,-6.957194767892360687e-03,-8.210252970457077026e-03,-6.473669200204312801e-04
7.913728244602680206e-03,4.993430804461240768e-03,2.752604149281978607e-02,3.940659109503030777e-03,-3.761951578781008720e-03
2.263958886032924056e-04,-7.044357480481266975e-04,-9.838470257818698883e-03,-1.516144839115440845e-04,-1.162213366478681564e-02
-5.728851538151502609e-03,2.505227923393249512e-02,-4.674043133854866028e-02,1.901351287961006165e-02,6.158282049000263214e-03
-1.311737019568681717e-02,-2.186527475714683533e-02,1.648617982864379883e-01,-7.802184671163558960e-03,-2.033878117799758911e-02
3.257608041167259216e-04,-1.344519201666116714e-03,-2.775700762867927551e-02,5.297930445522069931e-03,6.996279116719961166e-04
1.612649648450314999e-03,-4.418542608618736267e-03,1.421788893640041351e-02,6.540457834489643574e-04,-7.400278002023696899e-03
-1.267509441822767258e-02,-4.474260844290256500e-03,3.730423282831907272e-03,-2.175331814214587212e-03,-5.984470713883638382e-03
8.887883275747299194e-03,-2.464550361037254333e-02,1.650602556765079498e-02,-1.427492499351501465e-02,2.128068590536713600e-04
2.380182221531867981e-02,2.462683059275150299e-02,-9.459443390369415283e-02,2.713077887892723083e-02,2.234437130391597748e-02
-1.807658188045024872e-02,-1.866772584617137909e-02,1.915226727724075317e-01,-2.456390857696533203e-02,-1.197352726012468338e-02
2.211311459541320801e-02,2.258809469640254974e-02,-5.180361866950988770e-02,2.654431387782096863e-02,1.248160470277070999e-02
-1.738396659493446350e-02,-1.234094426035881042e-02,1.120584756135940552e-01,-1.506996806710958481e-02,-1.237430144101381302e-02
-1.193778403103351593e-02,-2.476866357028484344e-02,1.475833505392074585e-01,-2.178687043488025665e-02,-2.186766266822814941e-02
1.592469029128551483e-02,-1.172860711812973022e-02,8.501873351633548737e-03,-6.129609420895576477e-03,9.999731555581092834e-03
-2.045459114015102386e-02,3.661402268335223198e-03,9.601581096649169922e-02,-1.792473159730434418e-02,-6.863725371658802032e-03
6.930014584213495255e-03,-9.295811760239303112e-04,2.787977457046508789e-03,-6.085532950237393379e-04,-3.283410565927624702e-03
2.249983698129653931e-02,-1.756578311324119568e-02,-1.834643445909023285e-02,-2.078026533126831055e-02,-1.093242681236006320e-04
8.699755184352397919e-03,4.903733730316162109e-03,-6.432867143303155899e-03,5.470952484756708145e-03,1.518871355801820755e-02
-1.590093784034252167e-02,-3.155684331431984901e-03,-5.591291934251785278e-02,5.576937459409236908e-03,1.961911469697952271e-02
-9.888907894492149353e-03,-9.767734445631504059e-03,-5.830720067024230957e-03,-1.264618616551160812e-02,-1.221293397247791290e-02
-1.950139552354812622e-02,-2.123599685728549957e-02,1.111975312232971191e-01,-2.096161805093288422e-02,-2.761881425976753235e-02
-1.577230403199791908e-03,-2.239742502570152283e-02,8.127804100513458252e-02,-1.466588000766932964e-03,7.477343082427978516e-03
2.062294632196426392e-02,2.059244737029075623e-02,-8.643309772014617920e-02,2.193903923034667969e-02,9.574000723659992218e-03
1.062349183484911919e-03,3.655155748128890991e-02,-7.213346660137176514e-02,1.032738480716943741e-02,-4.726397804915904999e-03
9.268128313124179840e-03,-8.193833753466606140e-03,1.103267446160316467e-01,3.566729836165904999e-03,-5.203816574066877365e-03
-6.527894642204046249e-03,5.559437442570924759e-03,-1.253271009773015976e-02,5.653241649270057678e-03,5.285029183141887188e-04
2.992124296724796295e-03,-2.310429001227021217e-03,3.691303078085184097e-03,-2.580753527581691742e-03,-5.717726889997720718e-03
2.650473825633525848e-02,2.070029452443122864e-02,1.772921234369277954e-01,9.919978678226470947e-03,-2.771013882011175156e-03
-2.909920923411846161e-02,-2.454009465873241425e-02,1.622446775436401367e-01,-2.349928952753543854e-02,-1.679718680679798126e-02
1.899101026356220245e-02,1.706989668309688568e-02,-1.841166615486145020e-01,1.371635962277650833e-02,2.302812784910202026e-02
-1.531409006565809250e-02,-7.440194487571716309e-03,-1.501686684787273407e-02,-8.431916125118732452e-03,-1.704365760087966919e-02
6.171754561364650726e-03,6.497827824205160141e-03,-8.119965903460979462e-03,7.993552833795547485e-03,1.161421276628971100e-02
4.542324459180235863e-04,7.123296614736318588e-03,-9.759560227394104004e-03,2.590291900560259819e-03,-3.070189850404858589e-03
-1.988366059958934784e-02,-1.135806739330291748e-02,-1.529805809259414673e-01,-4.530867096036672592e-03,9.091991931200027466e-03
-2.676223032176494598e-02,-1.405615359544754028e-02,6.398663669824600220e-02,-2.453654631972312927e-02,-9.151078760623931885e-03
-8.960847742855548859e-03,-1.094730570912361145e-02,-9.583578445017337799e-03,-9.195388294756412506e-03,-7.687656208872795105e-03
7.335389032959938049e-03,2.370482077822089195e-03,1.289183273911476135e-02,7.623394951224327087e-03,1.210602093487977982e-02
1.943016308359801769e-03,-2.055489085614681244e-02,3.778654336929321289e-02,-4.187993239611387253e-03,1.101985480636358261e-02
2.148517640307545662e-03,-6.251295562833547592e-03,5.510172341018915176e-03,-5.218421574681997299e-03,-1.095834560692310333e-02
1.242333557456731796e-02,-1.603898778557777405e-02,-1.066914573311805725e-01,6.891513243317604065e-03,-1.360621768981218338e-03
-4.709996865130960941e-04,-2.043398842215538025e-02,5.878398194909095764e-02,-2.057798905298113823e-03,-2.039343584328889847e-03
1.167537458240985870e-02,2.709048055112361908e-02,-1.522257179021835327e-01,2.400772646069526672e-02,2.243654429912567139e-02
-1.092881150543689728e-02,-2.214004471898078918e-02,1.373175531625747681e-01,-1.891051232814788818e-02,-1.484621688723564148e-02
-2.494579530321061611e-04,-7.916275411844253540e-03,-1.166095677763223648e-02,-1.582598546519875526e-03,-9.575699456036090851e-03
1.413862593472003937e-02,1.713218353688716888e-02,-2.687443338800221682e-05,1.044599339365959167e-02,7.748743984848260880e-03
